SVM-light Version V6.02
0 # kernel type
3 # kernel parameter -d 
1 # kernel parameter -g 
1 # kernel parameter -s 
1 # kernel parameter -r 
empty# kernel parameter -u 
57 # highest feature index 
1813 # number of training documents 
388 # number of support vectors plus 1 
0.41066857 # threshold b, each following line is a SV (starting with alpha*y)
-0.5 1:0.911533 3:1.3264771 4:-0.045352999 5:-0.48666501 6:0.26910701 7:-0.31764501 8:-0.27120501 9:-0.354184 10:-0.40832499 11:-0.332057 12:0.096129999 14:-0.189715 15:-0.21397699 16:0.43135899 17:-0.33521399 18:0.31717101 19:1.8509769 21:-0.28002 25:-0.259592 27:-0.225205 28:-0.18276601 29:-0.150461 30:-0.189439 31:-0.120054 33:-0.133763 34:-0.1311 35:-0.191397 36:-0.22950201 38:-0.063603997 39:-0.157189 40:-0.183598 42:0.118613 43:-0.159254 45:0.112724 46:-0.215674 47:1.855303 48:-0.101023 49:-0.14805999 50:0.54510599 51:-0.150841 52:0.194455 53:-0.34537601 55:-0.111424 56:-0.35630801 57:-0.26143199 #
0.5 1:-0.348299 3:0.471531 4:-0.045352999 5:0.310637 6:-0.35563499 7:-0.31764501 8:-0.27120501 9:-0.354184 10:0.44173399 11:-0.332057 12:-0.66384602 14:-0.189715 15:-0.21397699 16:0.21464001 17:-0.33521399 18:-0.362865 19:-0.085789002 21:-0.30493301 25:-0.259592 27:-0.225205 28:-0.18276601 29:-0.150461 30:-0.189439 31:-0.120054 33:-0.133763 34:-0.1311 35:-0.191397 36:-0.22950201 38:-0.063603997 39:-0.157189 40:-0.183598 42:-0.139154 43:-0.159254 45:0.27925 46:-0.215674 47:-0.079241998 48:-0.101023 49:-0.14805999 50:-0.134656 51:-0.150841 52:0.85530198 53:-0.34537601 55:-0.096178003 56:-0.29446101 57:-0.26292899 #
-0.5 1:1.945241 3:0.21305899 4:-0.045352999 5:0.96297598 6:0.104701 7:-0.00076199998 8:-0.27120501 9:-0.354184 10:4.2283592 11:0.315972 12:0.44991201 14:-0.189715 15:-0.21397699 16:-0.303601 17:-0.33521399 18:0.125366 19:-0.55015999 21:-0.64541101 25:-0.259592 27:-0.225205 28:-0.18276601 29:-0.150461 30:-0.189439 31:-0.120054 33:-0.133763 34:-0.1311 35:-0.191397 36:-0.22950201 38:-0.063603997 39:-0.157189 40:0.306216 42:-0.139154 43:-0.159254 45:-0.29318199 46:-0.215674 47:-0.079241998 48:-0.101023 49:-0.14805999 50:-0.50852501 51:-0.150841 52:-0.459032 53:-0.34537601 55:-0.102049 56:-0.34857699 57:-0.192527 #
0.5 1:-0.348299 3:-0.085178003 4:-0.045352999 5:0.70204002 6:-0.35563499 7:-0.31764501 8:-0.27120501 9:-0.354184 10:-0.40832499 11:-0.332057 12:-0.66384602 14:-0.189715 15:-0.21397699 16:-0.303601 17:-0.33521399 18:-0.362865 19:-0.56714898 21:0.151805 25:-0.259592 27:-0.225205 28:-0.18276601 29:-0.150461 30:-0.189439 31:-0.120054 33:-0.133763 34:-0.1311 35:-0.191397 36:-0.22950201 38:-0.063603997 39:-0.157189 40:-0.183598 42:-0.139154 43:-0.159254 45:-0.29318199 46:-0.215674 47:-0.079241998 48:-0.101023 49:-0.14805999 50:-0.615345 51:-0.150841 52:-0.252978 53:-0.34537601 55:0.044330999 56:-0.039340999 57:0.047139 #
-0.13987998634937612307815868462058 1:-0.348299 3:3.6924889 4:-0.045352999 5:-0.48666501 6:-0.35563499 7:-0.31764501 8:-0.27120501 9:-0.354184 10:-0.40832499 11:-0.332057 12:-0.66384602 14:-0.189715 15:-0.21397699 16:-0.303601 17:-0.33521399 18:3.4209249 19:3.889679 21:4.65275 25:-0.259592 27:-0.225205 28:-0.18276601 29:-0.150461 30:-0.189439 31:-0.120054 33:-0.133763 34:-0.1311 35:-0.191397 36:-0.22950201 38:-0.063603997 39:-0.157189 40:-0.183598 42:-0.139154 43:-0.159254 45:-0.29318199 46:-0.215674 47:22.015301 48:-0.101023 49:-0.14805999 50:-0.615345 51:-0.150841 52:-0.459032 53:-0.34537601 55:-0.120431 56:-0.39496201 57:-0.43219399 #
0.5 1:-0.348299 3:-0.62200397 4:-0.045352999 5:-0.48666501 6:-0.35563499 7:-0.31764501 8:-0.27120501 9:-0.354184 10:5.4184418 11:-0.332057 12:-0.66384602 14:-0.189715 15:-0.21397699 16:-0.303601 17:-0.33521399 18:-0.362865 19:0.033135001 21:-0.76167101 25:-0.259592 27:-0.225205 28:-0.18276601 29:-0.150461 30:-0.189439 31:-0.120054 33:-0.133763 34:-0.1311 35:-0.191397 36:-0.22950201 38:-0.063603997 39:-0.157189 40:-0.183598 42:-0.139154 43:-0.159254 45:-0.29318199 46:-0.215674 47:-0.079241998 48:-0.101023 49:0.74088001 50:-0.615345 51:-0.150841 52:-0.459032 53:-0.34537601 55:-0.028214 56:-0.317653 57:-0.32734001 #
-0.5 1:-0.348299 3:-0.62200397 4:-0.045352999 5:-0.48666501 6:-0.35563499 7:-0.31764501 8:-0.27120501 9:-0.354184 10:-0.40832499 11:-0.332057 12:-0.66384602 14:5.0397968 15:-0.21397699 16:-0.303601 17:-0.33521399 18:-0.362865 19:-0.040484998 21:-0.76167101 25:-0.259592 27:-0.225205 28:-0.18276601 29:-0.150461 30:-0.189439 31:-0.120054 33:-0.133763 34:-0.1311 35:-0.191397 36:-0.22950201 38:-0.063603997 39:-0.157189 40:-0.183598 42:-0.139154 43:-0.159254 45:-0.29318199 46:-0.215674 47:-0.079241998 48:-0.101023 49:-0.14805999 50:-0.615345 51:-0.150841 52:-0.091077 53:-0.34537601 55:-0.121907 56:-0.39496201 57:-0.41721499 #
0.5 1:-0.348299 3:0.113647 4:-0.045352999 5:-0.22573 6:-0.35563499 7:-0.31764501 8:-0.27120501 9:-0.354184 10:-0.40832499 11:0.50112301 12:0.069923997 14:0.348178 15:0.38551801 16:0.22406299 17:0.073719002 18:0.61359698 19:-0.71438903 21:-0.29662901 25:-0.259592 27:-0.225205 28:-0.18276601 29:-0.150461 30:-0.189439 31:-0.120054 33:-0.133763 34:-0.1311 35:-0.191397 36:-0.22950201 38:-0.063603997 39:-0.157189 40:-0.183598 42:-0.139154 43:-0.159254 45:-0.29318199 46:-0.215674 47:-0.079241998 48:-0.101023 49:-0.14805999 50:0.72961301 51:-0.150841 52:0.26657501 53:-0.12473 55:-0.103801 56:-0.317653 57:-0.065204002 #
-0.5 1:-0.348299 3:-0.62200397 4:-0.045352999 5:-0.48666501 6:-0.35563499 7:-0.31764501 8:-0.27120501 9:-0.354184 10:16.762863 11:-0.332057 12:-0.66384602 14:-0.189715 15:-0.21397699 16:-0.303601 17:-0.33521399 18:-0.362865 19:2.1114781 21:-0.76167101 25:-0.259592 27:-0.225205 28:-0.18276601 29:-0.150461 30:-0.189439 31:-0.120054 33:-0.133763 34:-0.1311 35:-0.191397 36:-0.22950201 38:-0.063603997 39:-0.157189 40:-0.183598 42:-0.139154 43:-0.159254 45:-0.29318199 46:-0.215674 47:-0.079241998 48:-0.101023 49:-0.14805999 50:-0.615345 51:-0.150841 52:-0.459032 53:-0.34537601 55:-0.130667 56:-0.41042399 57:-0.44118199 #
-0.5 1:-0.348299 3:-0.20447201 4:-0.045352999 5:-0.18224099 6:-0.35563499 7:-0.31764501 8:0.21172801 9:-0.354184 10:-0.40832499 11:-0.332057 12:-0.66384602 14:-0.189715 15:-0.21397699 16:-0.303601 17:-0.33521399 18:-0.362865 19:0.067112997 21:-0.404585 25:-0.259592 27:-0.225205 28:-0.18276601 29:-0.150461 30:-0.189439 31:-0.120054 33:-0.133763 34:-0.1311 35:-0.191397 36:-0.22950201 38:-0.063603997 39:-0.157189 40:-0.183598 42:-0.139154 43:-0.159254 45:-0.29318199 46:-0.215674 47:-0.079241998 48:-0.101023 49:0.117948 50:-0.615345 51:0.27008799 52:-0.28388599 53:-0.34537601 55:-0.128024 56:-0.39496201 57:-0.29288799 #
-0.5 1:-0.348299 3:-0.62200397 4:-0.045352999 5:4.6160698 6:3.4914579 7:-0.31764501 8:2.4194219 9:-0.354184 10:6.855814 11:-0.332057 12:-0.66384602 14:-0.189715 15:-0.21397699 16:0.79883897 17:-0.33521399 18:-0.362865 19:-0.36894199 21:0.20993499 25:-0.259592 27:0.105619 28:-0.18276601 29:-0.150461 30:-0.189439 31:-0.120054 33:-0.133763 34:-0.1311 35:-0.191397 36:-0.22950201 38:-0.063603997 39:-0.157189 40:-0.183598 42:-0.139154 43:-0.159254 45:0.92453599 46:-0.215674 47:-0.079241998 48:-0.101023 49:-0.14805999 50:0.31690001 51:-0.150841 52:-0.459032 53:-0.34537601 55:-0.130667 56:-0.41042399 57:-0.42320701 #
-0.5 1:6.1123791 3:-0.62200397 4:-0.045352999 5:-0.48666501 6:-0.35563499 7:-0.31764501 8:-0.27120501 9:-0.354184 10:-0.40832499 11:8.9255009 12:1.956762 14:-0.189715 15:-0.21397699 16:-0.303601 17:-0.33521399 18:-0.362865 19:0.101092 21:5.8817911 25:-0.259592 27:-0.225205 28:-0.18276601 29:-0.150461 30:-0.189439 31:-0.120054 33:-0.133763 34:-0.1311 35:-0.191397 36:-0.22950201 38:-0.063603997 39:-0.157189 40:-0.183598 42:-0.139154 43:-0.159254 45:-0.29318199 46:-0.215674 47:-0.079241998 48:-0.101023 49:-0.14805999 50:-0.615345 51:-0.150841 52:-0.459032 53:-0.34537601 55:0.019586001 56:-0.193959 57:-0.364788 #
-0.5 1:-0.348299 3:-0.62200397 4:-0.045352999 5:-0.48666501 6:-0.35563499 7:-0.31764501 8:-0.27120501 9:-0.354184 10:-0.40832499 11:-0.332057 12:1.445743 14:-0.189715 15:-0.21397699 16:-0.303601 17:-0.33521399 18:2.444463 19:0.79198498 21:0.57532501 25:-0.259592 27:-0.225205 28:-0.18276601 29:-0.150461 30:-0.189439 31:-0.120054 33:-0.133763 34:-0.1311 35:-0.191397 36:-0.22950201 38:-0.063603997 39:-0.157189 40:-0.183598 42:-0.139154 43:-0.159254 45:-0.29318199 46:-0.215674 47:-0.079241998 48:-0.101023 49:-0.14805999 50:-0.615345 51:-0.150841 52:-0.459032 53:-0.34537601 55:-0.125103 56:-0.39496201 57:-0.424705 #
0.5 1:-0.348299 3:-0.62200397 4:-0.045352999 5:-0.48666501 6:-0.35563499 7:-0.31764501 8:-0.27120501 9:-0.354184 10:-0.40832499 11:-0.332057 12:-0.66384602 14:-0.189715 15:-0.21397699 16:-0.303601 17:-0.33521399 18:-0.362865 19:6.0473042 21:-0.76167101 25:-0.259592 27:-0.225205 28:-0.18276601 29:-0.150461 30:-0.189439 31:-0.120054 33:-0.133763 34:-0.1311 35:-0.191397 36:-0.22950201 38:-0.063603997 39:-0.157189 40:-0.183598 42:-0.139154 43:-0.159254 45:-0.29318199 46:-0.215674 47:-0.079241998 48:-0.101023 49:-0.14805999 50:-0.615345 51:-0.150841 52:-0.459032 53:-0.34537601 55:-0.130667 56:-0.41042399 57:-0.44118199 #
-0.5 1:-0.31599599 3:-0.48282701 4:-0.045352999 5:-0.41418299 6:-0.35563499 7:-0.31764501 8:-0.248208 9:-0.24903101 10:-0.20740201 11:-0.100618 12:-0.66384602 14:-0.0403 15:-0.21397699 16:-0.303601 17:-0.31249601 18:-0.240807 19:-1.025857 21:-0.75336701 25:-0.259592 27:-0.225205 28:-0.18276601 29:-0.150461 30:-0.189439 31:-0.120054 33:-0.022336001 34:-0.1311 35:-0.191397 36:0.17981599 38:-0.063603997 39:-0.157189 40:-0.14861199 42:-0.139154 43:-0.159254 45:-0.29318199 46:0.67603999 47:0.022576001 48:0.14318299 49:0.020300001 50:0.84614301 51:1.2630481 52:-0.45608899 53:-0.019833 55:-0.082191996 56:0.21577901 57:7.637085 #
0.5 1:-0.348299 3:3.1954269 4:-0.045352999 5:-0.48666501 6:-0.35563499 7:-0.31764501 8:-0.27120501 9:-0.354184 10:-0.40832499 11:-0.332057 12:-0.66384602 14:-0.189715 15:-0.21397699 16:-0.303601 17:-0.33521399 18:2.9850039 19:0.055787001 21:0.83275998 25:-0.259592 27:-0.225205 28:-0.18276601 29:-0.150461 30:-0.189439 31:-0.120054 33:-0.133763 34:-0.1311 35:-0.191397 36:-0.22950201 38:-0.063603997 39:-0.157189 40:-0.183598 42:-0.139154 43:-0.159254 45:-0.29318199 46:-0.215674 47:-0.079241998 48:-0.101023 49:-0.14805999 50:-0.615345 51:-0.150841 52:-0.459032 53:-0.34537601 55:-0.11788 56:-0.37176999 57:-0.418713 #
-0.5 1:-0.348299 3:5.2234378 4:-0.045352999 5:-0.48666501 6:-0.35563499 7:-0.31764501 8:-0.27120501 9:-0.354184 10:-0.40832499 11:-0.332057 12:-0.66384602 14:-0.189715 15:-0.21397699 16:-0.303601 17:-0.33521399 18:-0.362865 19:0.63341898 21:-0.76167101 25:-0.259592 27:-0.225205 28:-0.18276601 29:-0.150461 30:-0.189439 31:-0.120054 33:-0.133763 34:-0.1311 35:-0.191397 36:-0.22950201 38:-0.063603997 39:-0.157189 40:-0.183598 42:-0.139154 43:-0.159254 45:-0.29318199 46:-0.215674 47:-0.079241998 48:-0.101023 49:-0.14805999 50:-0.615345 51:-0.150841 52:0.28423601 53:-0.34537601 55:-0.088400997 56:-0.38723099 57:-0.41571701 #
0.5 1:-0.348299 3:0.054000001 4:-0.045352999 5:-0.48666501 6:-0.35563499 7:0.451929 8:-0.27120501 9:-0.354184 10:0.117166 11:-0.332057 12:-0.218343 14:-0.189715 15:-0.21397699 16:0.33713299 17:0.43721601 18:0.229987 19:-0.64643198 21:-0.47932401 25:-0.259592 27:-0.225205 28:-0.18276601 29:-0.150461 30:-0.189439 31:-0.120054 33:-0.133763 34:-0.1311 35:-0.191397 36:-0.22950201 38:-0.063603997 39:-0.157189 40:1.00595 42:-0.139154 43:-0.159254 45:-0.29318199 46:-0.215674 47:3.382576 48:-0.101023 49:-0.14805999 50:1.2928441 51:-0.150841 52:-0.127873 53:-0.14281601 55:-0.092027999 56:-0.28672999 57:-0.207507 #
0.5 1:7.1460881 3:-0.62200397 4:-0.045352999 5:-0.48666501 6:-0.35563499 7:-0.31764501 8:-0.27120501 9:-0.354184 10:-0.40832499 11:-0.332057 12:-0.66384602 14:-0.189715 15:-0.21397699 16:-0.303601 17:-0.33521399 18:-0.362865 19:-1.03152 21:-0.76167101 25:-0.259592 27:-0.225205 28:-0.18276601 29:-0.150461 30:-0.189439 31:-0.120054 33:-0.133763 34:-0.1311 35:-0.191397 36:-0.22950201 38:-0.063603997 39:-0.157189 40:-0.183598 42:-0.139154 43:-0.159254 45:-0.29318199 46:-0.215674 47:-0.079241998 48:-0.101023 49:-0.14805999 50:-0.615345 51:-0.150841 52:-0.051337998 53:-0.34537601 55:-0.063041002 56:-0.317653 57:-0.37227699 #
0.5 1:-0.348299 3:-0.62200397 4:-0.045352999 5:0.26714799 6:-0.35563499 7:-0.31764501 8:-0.27120501 9:-0.354184 10:-0.40832499 11:-0.332057 12:-0.66384602 14:1.364198 15:-0.21397699 16:0.186372 17:-0.33521399 18:-0.362865 19:-1.03152 21:-0.76167101 25:-0.259592 27:-0.225205 28:-0.18276601 29:-0.150461 30:-0.189439 31:-0.120054 33:0.69397801 34:-0.1311 35:-0.191397 36:-0.22950201 38:-0.063603997 39:-0.157189 40:-0.183598 42:-0.139154 43:2.569541 45:-0.29318199 46:1.523168 47:-0.079241998 48:-0.101023 49:-0.14805999 50:-0.241476 51:-0.150841 52:-0.34570199 53:-0.34537601 55:-0.11874 56:-0.33311501 57:-0.33183399 #
-0.5 1:-0.348299 3:-0.62200397 4:-0.045352999 5:-0.48666501 6:-0.35563499 7:4.707222 8:4.8340869 9:-0.354184 10:-0.40832499 11:-0.332057 12:-0.66384602 14:-0.189715 15:-0.21397699 16:-0.303601 17:-0.33521399 18:-0.362865 19:-1.03152 21:-0.76167101 25:-0.259592 27:-0.225205 28:-0.18276601 29:-0.150461 30:-0.189439 31:-0.120054 33:-0.133763 34:-0.1311 35:-0.191397 36:-0.22950201 38:-0.063603997 39:-0.157189 40:-0.183598 42:-0.139154 43:-0.159254 45:-0.29318199 46:-0.215674 47:-0.079241998 48:-0.101023 49:-0.14805999 50:2.613524 51:-0.150841 52:-0.459032 53:2.0600209 55:-0.020897999 56:-0.22488301 57:-0.34831101 #
-0.5 1:-0.348299 3:-0.62200397 4:-0.045352999 5:-0.48666501 6:3.031122 7:-0.31764501 8:4.4891348 9:-0.354184 10:-0.40832499 11:-0.332057 12:-0.66384602 14:-0.189715 15:-0.21397699 16:-0.303601 17:-0.33521399 18:-0.362865 19:-1.03152 21:-0.76167101 25:-0.259592 27:-0.225205 28:-0.18276601 29:-0.150461 30:-0.189439 31:-0.120054 33:-0.133763 34:-0.1311 35:-0.191397 36:-0.22950201 38:-0.063603997 39:-0.157189 40:-0.183598 42:-0.139154 43:-0.159254 45:-0.29318199 46:-0.215674 47:-0.079241998 48:-0.101023 49:-0.14805999 50:0.083838999 51:0.62625903 52:-0.459032 53:-0.34537601 55:-0.114591 56:-0.33311501 57:-0.34831101 #
-0.5 1:-0.348299 3:2.9767201 4:-0.045352999 5:-0.48666501 6:-0.35563499 7:-0.31764501 8:-0.27120501 9:-0.354184 10:-0.40832499 11:-0.332057 12:0.51542699 14:-0.189715 15:-0.21397699 16:-0.303601 17:-0.33521399 18:-0.362865 19:1.5395091 21:1.497106 25:-0.259592 27:-0.225205 28:-0.18276601 29:-0.150461 30:-0.189439 31:-0.120054 33:-0.133763 34:-0.1311 35:-0.191397 36:-0.22950201 38:-0.063603997 39:-0.157189 40:-0.183598 42:-0.139154 43:-0.159254 45:-0.29318199 46:-0.215674 47:-0.079241998 48:-0.101023 49:-0.14805999 50:-0.615345 51:-0.150841 52:-0.217654 53:-0.34537601 55:-0.118648 56:-0.35630801 57:-0.39624399 #
0.5 1:-0.348299 3:-0.62200397 4:-0.045352999 5:-0.48666501 6:-0.35563499 7:-0.31764501 8:-0.27120501 9:-0.354184 10:-0.40832499 11:-0.332057 12:-0.66384602 14:5.1892118 15:-0.21397699 16:-0.303601 17:1.027898 18:-0.362865 19:-0.351953 21:-0.76167101 25:-0.259592 27:-0.225205 28:2.2961919 29:-0.150461 30:-0.189439 31:-0.120054 33:-0.133763 34:-0.1311 35:-0.191397 36:-0.22950201 38:-0.063603997 39:-0.157189 40:-0.183598 42:-0.139154 43:-0.159254 45:-0.29318199 46:1.790682 47:-0.079241998 48:-0.101023 49:-0.14805999 50:0.83643198 51:-0.150841 52:-0.459032 53:-0.34537601 55:-0.085634001 56:-0.20169 57:-0.28539801 #
-0.5 1:-0.348299 3:-0.62200397 4:-0.045352999 5:0.209162 6:-0.35563499 7:-0.31764501 8:-0.27120501 9:-0.354184 10:-0.40832499 11:-0.332057 12:-0.034899998 14:-0.189715 15:-0.21397699 16:-0.303601 17:-0.33521399 18:-0.362865 19:-0.75969303 21:-0.76167101 25:-0.259592 27:-0.225205 28:-0.18276601 29:-0.150461 30:-0.189439 31:-0.120054 33:-0.133763 34:-0.1311 35:-0.191397 36:-0.22950201 38:-0.063603997 39:-0.157189 40:-0.183598 42:-0.139154 43:-0.159254 45:-0.29318199 46:-0.215674 47:-0.079241998 48:-0.101023 49:-0.14805999 50:-0.615345 51:-0.150841 52:-0.459032 53:-0.34537601 55:-0.097346 56:-0.34857699 57:-0.25993401 #
0.5 1:-0.348299 3:0.51129597 4:-0.045352999 5:-0.28371501 6:0.104701 7:-0.31764501 8:-0.27120501 9:0.136531 10:-0.40832499 11:-0.332057 12:-0.100416 14:-0.189715 15:-0.21397699 16:-0.303601 17:-0.017154999 18:-0.362865 19:0.84295303 21:0.43415201 25:-0.259592 27:-0.225205 28:-0.18276601 29:-0.150461 30:-0.189439 31:-0.120054 33:-0.133763 34:-0.1311 35:-0.191397 36:1.565199 38:-0.063603997 39:-0.157189 40:-0.183598 42:-0.139154 43:-0.159254 45:-0.29318199 46:-0.215674 47:-0.079241998 48:-0.101023 49:-0.14805999 50:-0.615345 51:-0.150841 52:-0.22942799 53:-0.34537601 55:-0.118556 56:-0.37176999 57:-0.206009 #
0.5 1:-0.348299 3:0.29258901 4:-0.045352999 5:0.18017 6:-0.35563499 7:-0.31764501 8:-0.27120501 9:-0.354184 10:-0.40832499 11:-0.332057 12:-0.66384602 14:-0.189715 15:-0.21397699 16:0.12983701 17:-0.33521399 18:-0.362865 19:0.55413598 21:0.010631 25:-0.259592 27:-0.225205 28:-0.18276601 29:-0.150461 30:-0.189439 31:-0.120054 33:-0.133763 34:-0.1311 35:-0.191397 36:-0.22950201 38:-0.063603997 39:-0.157189 40:-0.183598 42:-0.139154 43:-0.159254 45:0.185579 46:-0.215674 47:-0.079241998 48:-0.101023 49:-0.14805999 50:-0.217199 51:-0.150841 52:0.51678401 53:-0.34537601 55:-0.117511 56:-0.26353699 57:-0.26442701 #
0.5 1:-0.348299 3:-0.62200397 4:-0.045352999 5:1.62981 6:-0.35563499 7:1.561021 8:-0.27120501 9:0.34683701 10:1.199059 11:-0.332057 12:-0.12662201 14:-0.189715 15:-0.21397699 16:-0.303601 17:-0.33521399 18:2.1829109 19:-0.44256201 21:-0.59558499 25:0.877617 27:-0.225205 28:-0.18276601 29:-0.150461 30:-0.189439 31:-0.120054 33:-0.133763 34:-0.1311 35:-0.191397 36:-0.22950201 38:-0.063603997 39:0.43901199 40:-0.183598 42:-0.139154 43:-0.159254 45:-0.29318199 46:-0.215674 47:-0.079241998 48:-0.101023 49:0.46476999 50:1.331687 51:1.025601 52:-0.19116101 53:0.182726 55:-0.044874001 56:-0.217152 57:0.101064 #
-0.5 1:-0.348299 3:0.82941502 4:-0.045352999 5:0.035206001 6:0.82808602 7:-0.31764501 8:-0.27120501 9:-0.354184 10:-0.40832499 11:-0.332057 12:-0.66384602 14:-0.189715 15:-0.21397699 16:-0.303601 17:-0.33521399 18:-0.362865 19:0.20869 21:-0.76167101 25:-0.259592 27:-0.225205 28:-0.18276601 29:-0.150461 30:-0.189439 31:-0.120054 33:-0.133763 34:-0.1311 35:-0.191397 36:-0.22950201 38:-0.063603997 39:-0.157189 40:-0.183598 42:-0.139154 43:-0.159254 45:-0.29318199 46:-0.215674 47:-0.079241998 48:-0.101023 49:-0.14805999 50:-0.615345 51:-0.150841 52:8.9414759 53:-0.34537601 55:-0.12664001 56:-0.38723099 57:-0.340821 #
-0.5 1:-0.348299 3:-0.62200397 4:-0.045352999 5:-0.48666501 6:-0.35563499 7:-0.31764501 8:-0.27120501 9:-0.354184 10:-0.40832499 11:-0.332057 12:-0.66384602 14:-0.189715 15:-0.21397699 16:-0.303601 17:-0.33521399 18:-0.362865 19:0.344603 21:-0.76167101 25:-0.259592 27:-0.225205 28:-0.18276601 29:-0.150461 30:-0.189439 31:-0.120054 33:-0.133763 34:-0.1311 35:-0.191397 36:-0.22950201 38:-0.063603997 39:-0.157189 40:-0.183598 42:-0.139154 43:-0.159254 45:-0.29318199 46:-0.215674 47:-0.079241998 48:-0.101023 49:-0.14805999 50:-0.615345 51:-0.150841 52:-0.459032 53:-0.34537601 55:-0.113607 56:-0.39496201 57:-0.42320701 #
-0.5 1:-0.348299 3:-0.62200397 4:-0.045352999 5:-0.48666501 6:-0.35563499 7:-0.31764501 8:-0.27120501 9:-0.354184 10:-0.40832499 11:-0.332057 12:-0.66384602 14:-0.189715 15:-0.21397699 16:-0.303601 17:-0.33521399 18:-0.362865 19:-1.03152 21:-0.76167101 25:-0.259592 27:-0.225205 28:-0.18276601 29:-0.150461 30:-0.189439 31:-0.120054 33:-0.133763 34:-0.1311 35:-0.191397 36:-0.22950201 38:-0.063603997 39:-0.157189 40:-0.183598 42:-0.139154 43:-0.159254 45:-0.29318199 46:-0.215674 47:-0.079241998 48:-0.101023 49:-0.14805999 50:-0.615345 51:-0.150841 52:-0.459032 53:-0.34537601 55:-0.069188997 56:-0.3795 57:-0.43518999 #
-0.35183732083236018972627334733261 1:-0.348299 3:1.604831 4:-0.045352999 5:-0.48666501 6:-0.35563499 7:-0.31764501 8:2.3044381 9:-0.354184 10:-0.40832499 11:-0.332057 12:-0.66384602 14:-0.189715 15:7.246408 16:-0.303601 17:-0.33521399 18:-0.362865 19:0.87693101 21:1.098498 25:-0.259592 27:0.091481999 28:-0.18276601 29:-0.150461 30:-0.189439 31:-0.120054 33:-0.133763 34:-0.1311 35:-0.191397 36:-0.22950201 38:-0.063603997 39:-0.157189 40:-0.183598 42:-0.139154 43:-0.159254 45:0.87249702 46:-0.215674 47:-0.079241998 48:-0.101023 49:-0.14805999 50:-0.615345 51:-0.150841 52:-0.459032 53:-0.34537601 55:-0.099927999 56:-0.3795 57:-0.37826899 #
-0.5 1:-0.348299 3:0.41188401 4:-0.045352999 5:-0.48666501 6:0.071819998 7:-0.31764501 8:1.545543 9:-0.354184 10:-0.40832499 11:-0.332057 12:-0.493507 14:-0.189715 15:-0.21397699 16:-0.181107 17:-0.33521399 18:-0.362865 19:-0.88428098 21:-0.43780199 25:-0.259592 27:-0.225205 28:-0.18276601 29:-0.150461 30:-0.189439 31:-0.120054 33:-0.133763 34:-0.1311 35:-0.191397 36:-0.22950201 38:-0.063603997 39:-0.157189 40:-0.183598 42:0.037213001 43:-0.159254 45:-0.29318199 46:-0.215674 47:-0.079241998 48:-0.101023 49:-0.080715999 50:-0.31916299 51:-0.150841 52:-0.400159 53:-0.20069 55:-0.105369 56:-0.217152 57:0.113048 #
-0.5 1:0.55619597 3:-0.065295003 4:-0.045352999 5:-0.48666501 6:-0.35563499 7:-0.31764501 8:-0.27120501 9:-0.354184 10:-0.40832499 11:-0.332057 12:-0.29696101 14:-0.189715 15:-0.21397699 16:-0.039769001 17:-0.33521399 18:0.125366 19:0.084103003 21:-0.76167101 25:-0.259592 27:-0.225205 28:-0.18276601 29:-0.150461 30:-0.189439 31:-0.120054 33:-0.133763 34:-0.1311 35:-0.191397 36:-0.22950201 38:-0.063603997 39:-0.157189 40:-0.183598 42:-0.139154 43:-0.159254 45:-0.29318199 46:0.096426003 47:-0.079241998 48:-0.101023 49:-0.14805999 50:-0.115234 51:-0.150841 52:6.9795408 53:-0.34537601 55:-0.118279 56:-0.278999 57:-0.32434401 #
0.5 1:-0.348299 3:0.431766 4:-0.045352999 5:-0.327205 6:-0.191229 7:-0.31764501 8:-0.156221 9:0.031378001 10:-0.40832499 11:-0.332057 12:-0.44109499 14:-0.189715 15:-0.21397699 16:-0.256488 17:-0.33521399 18:0.56128699 19:-0.35761601 21:-0.32154199 25:-0.259592 27:-0.225205 28:-0.18276601 29:-0.150461 30:-0.189439 31:-0.120054 33:-0.133763 34:-0.1311 35:-0.191397 36:-0.22950201 38:-0.063603997 39:-0.157189 40:-0.183598 42:-0.139154 43:-0.159254 45:-0.29318199 46:-0.215674 47:-0.079241998 48:-0.101023 49:-0.14805999 50:-0.30459699 51:-0.042909998 52:-0.41193399 53:0.161024 55:-0.119478 56:-0.30992201 57:0.009691 #
-0.23175038667573522044307310352451 1:-0.348299 3:0.312471 4:-0.045352999 5:0.89049399 6:1.189778 7:-0.31764501 8:-0.27120501 9:-0.354184 10:-0.40832499 11:-0.332057 12:-0.048004001 14:-0.189715 15:-0.21397699 16:-0.303601 17:-0.33521399 18:-0.362865 19:-0.49353001 21:-0.76167101 25:-0.259592 27:-0.092309996 28:-0.18276601 29:-0.150461 30:-0.189439 31:-0.120054 33:-0.133763 34:-0.1311 35:-0.191397 36:-0.22950201 38:3.895484 39:-0.157189 40:-0.183598 42:0.49848101 43:-0.159254 45:-0.29318199 46:-0.215674 47:-0.079241998 48:-0.101023 49:-0.14805999 50:-0.26089799 51:-0.150841 52:-0.459032 53:-0.34537601 55:-0.103494 56:-0.35630801 57:-0.297382 #
0.5 1:-0.348299 3:-0.62200397 4:-0.045352999 5:-0.48666501 6:-0.35563499 7:-0.31764501 8:-0.27120501 9:-0.354184 10:-0.40832499 11:-0.332057 12:-0.66384602 14:-0.189715 15:-0.21397699 16:-0.303601 17:-0.33521399 18:-0.362865 19:1.664096 21:-0.76167101 25:-0.259592 27:-0.225205 28:-0.18276601 29:-0.150461 30:-0.189439 31:-0.120054 33:-0.133763 34:-0.1311 35:-0.191397 36:-0.22950201 38:-0.063603997 39:-0.157189 40:-0.183598 42:-0.139154 43:-0.159254 45:-0.29318199 46:-0.215674 47:-0.079241998 48:-0.101023 49:-0.14805999 50:-0.615345 51:-0.150841 52:-0.459032 53:-0.34537601 55:-0.130667 56:-0.41042399 57:-0.439684 #
-0.5 1:-0.348299 3:6.555562 4:-0.045352999 5:-0.48666501 6:1.617233 7:-0.31764501 8:-0.27120501 9:-0.354184 10:-0.40832499 11:-0.332057 12:-0.66384602 14:-0.189715 15:-0.21397699 16:-0.303601 17:-0.33521399 18:-0.362865 19:1.012844 21:-0.76167101 25:-0.259592 27:-0.225205 28:-0.18276601 29:-0.150461 30:-0.189439 31:-0.120054 33:-0.133763 34:-0.1311 35:-0.191397 36:-0.22950201 38:-0.063603997 39:-0.157189 40:-0.183598 42:-0.139154 43:-0.159254 45:0.33128899 46:-0.215674 47:-0.079241998 48:-0.101023 49:-0.14805999 50:-0.615345 51:-0.150841 52:-0.28241399 53:-0.34537601 55:-0.101158 56:-0.34857699 57:-0.37077901 #
0.5 1:-0.348299 3:-0.10506 4:-0.045352999 5:-0.109759 6:-0.35563499 7:-0.31764501 8:-0.27120501 9:-0.354184 10:-0.40832499 11:0.87142599 12:0.72507602 14:0.58724201 15:0.65196103 16:0.45020401 17:-0.33521399 18:0.090493001 19:-0.27833301 21:-0.76167101 25:-0.259592 27:-0.225205 28:-0.18276601 29:-0.150461 30:-0.189439 31:-0.120054 33:-0.133763 34:-0.1311 35:-0.191397 36:-0.22950201 38:-0.063603997 39:-0.157189 40:-0.183598 42:-0.139154 43:-0.159254 45:-0.29318199 46:-0.215674 47:-0.079241998 48:-0.101023 49:-0.14805999 50:0.83643198 51:-0.150841 52:0.23419499 53:-0.34537601 55:-0.097222999 56:-0.30219099 57:-0.162569 #
-0.5 1:-0.348299 3:-0.62200397 4:-0.045352999 5:8.5735893 6:-0.35563499 7:-0.31764501 8:-0.27120501 9:-0.354184 10:-0.40832499 11:-0.332057 12:-0.66384602 14:-0.189715 15:-0.21397699 16:-0.303601 17:-0.33521399 18:-0.362865 19:-1.03152 21:-0.76167101 25:-0.259592 27:-0.225205 28:-0.18276601 29:-0.150461 30:-0.189439 31:-0.120054 33:-0.133763 34:-0.1311 35:-0.191397 36:-0.22950201 38:-0.063603997 39:-0.157189 40:-0.183598 42:-0.139154 43:-0.159254 45:-0.29318199 46:-0.215674 47:-0.079241998 48:-0.101023 49:-0.14805999 50:-0.615345 51:-0.150841 52:-0.459032 53:-0.34537601 55:-0.115298 56:-0.402693 57:-0.439684 #
-0.5 1:-0.348299 3:-0.62200397 4:-0.045352999 5:1.194918 6:-0.35563499 7:-0.31764501 8:-0.27120501 9:-0.354184 10:1.384526 11:-0.332057 12:2.3760591 14:-0.189715 15:-0.21397699 16:-0.303601 17:-0.33521399 18:-0.362865 19:-1.03152 21:-0.76167101 25:0.64394403 27:-0.225205 28:4.6098852 29:-0.150461 30:-0.189439 31:-0.120054 33:-0.133763 34:-0.1311 35:-0.191397 36:3.422873 38:-0.063603997 39:-0.157189 40:-0.183598 42:-0.139154 43:-0.159254 45:-0.29318199 46:-0.215674 47:-0.079241998 48:-0.101023 49:-0.14805999 50:1.278277 51:-0.150841 52:-0.459032 53:-0.34537601 55:-0.057539001 56:-0.33311501 57:-0.297382 #
-0.5 1:-0.348299 3:-0.62200397 4:-0.045352999 5:-0.095261998 6:-0.35563499 7:-0.31764501 8:0.349709 9:-0.354184 10:-0.40832499 11:-0.332057 12:-0.31006399 14:-0.189715 15:0.68526602 16:-0.049192 17:-0.33521399 18:0.57872301 19:-1.03152 21:-0.76167101 25:-0.049286999 27:-0.225205 28:0.93276501 29:-0.150461 30:0.49146399 31:-0.120054 33:-0.133763 34:-0.1311 35:-0.191397 36:-0.22950201 38:-0.063603997 39:-0.157189 40:-0.183598 42:-0.139154 43:-0.159254 45:-0.29318199 46:0.085280001 47:-0.079241998 48:-0.101023 49:-0.016739 50:-0.047258001 51:-0.150841 52:-0.459032 53:-0.34537601 55:-0.083944 56:0.0070440001 57:-0.161071 #
-0.5 1:-0.348299 3:-0.62200397 4:-0.045352999 5:-0.48666501 6:-0.35563499 7:-0.31764501 8:-0.27120501 9:2.029289 10:-0.40832499 11:2.8155129 12:-0.66384602 14:-0.189715 15:-0.21397699 16:0.33713299 17:-0.33521399 18:3.1942461 19:1.279008 21:-0.196977 25:-0.259592 27:-0.225205 28:-0.18276601 29:-0.150461 30:-0.189439 31:-0.120054 33:-0.133763 34:-0.1311 35:-0.191397 36:-0.22950201 38:-0.063603997 39:-0.157189 40:-0.183598 42:-0.139154 43:-0.159254 45:-0.29318199 46:-0.215674 47:-0.079241998 48:-0.101023 49:-0.14805999 50:-0.615345 51:-0.150841 52:0.310729 53:-0.34537601 55:-0.123966 56:-0.3795 57:-0.385759 #
0.27288534377127926511263922293438 1:-0.348299 3:-0.62200397 4:-0.045352999 5:-0.48666501 6:-0.35563499 7:-0.31764501 8:-0.27120501 9:-0.354184 10:7.3194818 11:-0.332057 12:-0.66384602 14:-0.189715 15:-0.21397699 16:-0.303601 17:-0.33521399 18:-0.362865 19:-1.03152 21:-0.76167101 25:-0.259592 27:-0.225205 28:-0.18276601 29:-0.150461 30:-0.189439 31:-0.120054 33:-0.133763 34:-0.1311 35:-0.191397 36:-0.22950201 38:-0.063603997 39:-0.157189 40:-0.183598 42:-0.139154 43:-0.159254 45:-0.29318199 46:-0.215674 47:-0.079241998 48:-0.101023 49:0.91934103 50:-0.615345 51:-0.150841 52:0.94213903 53:-0.34537601 55:-0.013152 56:-0.317653 57:-0.32134801 #
-0.5 1:-0.348299 3:-0.62200397 4:-0.045352999 5:-0.48666501 6:-0.35563499 7:-0.31764501 8:-0.27120501 9:-0.354184 10:-0.40832499 11:-0.332057 12:-0.66384602 14:-0.189715 15:-0.21397699 16:-0.303601 17:-0.33521399 18:-0.362865 19:5.8717489 21:3.282536 25:-0.259592 27:-0.225205 28:-0.18276601 29:-0.150461 30:-0.189439 31:-0.120054 33:-0.133763 34:-0.1311 35:-0.191397 36:-0.22950201 38:-0.063603997 39:-0.157189 40:-0.183598 42:-0.139154 43:-0.159254 45:-0.29318199 46:-0.215674 47:-0.079241998 48:-0.101023 49:-0.14805999 50:-0.615345 51:-0.150841 52:-0.459032 53:-0.34537601 55:-0.130667 56:-0.41042399 57:-0.43369201 #
-0.5 1:-0.348299 3:-0.62200397 4:-0.045352999 5:-0.48666501 6:-0.35563499 7:-0.31764501 8:-0.27120501 9:-0.354184 10:-0.40832499 11:-0.332057 12:-0.66384602 14:-0.189715 15:-0.21397699 16:-0.303601 17:-0.33521399 18:-0.362865 19:-1.03152 21:-0.76167101 25:-0.259592 27:-0.225205 28:-0.18276601 29:-0.150461 30:-0.189439 31:-0.120054 33:-0.133763 34:-0.1311 35:-0.191397 36:-0.22950201 38:-0.063603997 39:-0.157189 40:-0.183598 42:-0.139154 43:-0.159254 45:-0.29318199 46:-0.215674 47:-0.079241998 48:-0.101023 49:-0.14805999 50:-0.615345 51:-0.150841 52:-0.459032 53:-0.34537601 55:-0.099927999 56:-0.3795 57:-0.43219399 #
-0.15320295881195702958343929367402 1:-0.348299 3:-0.62200397 4:-0.045352999 5:-0.48666501 6:-0.35563499 7:-0.31764501 8:3.822227 9:-0.354184 10:-0.40832499 11:-0.332057 12:-0.66384602 14:5.129446 15:-0.21397699 16:-0.303601 17:-0.33521399 18:-0.362865 19:-1.03152 21:-0.76167101 25:-0.259592 27:-0.225205 28:-0.18276601 29:-0.150461 30:-0.189439 31:-0.120054 33:-0.133763 34:-0.1311 35:-0.191397 36:-0.22950201 38:-0.063603997 39:-0.157189 40:-0.183598 42:-0.139154 43:18.574974 45:-0.29318199 46:-0.215674 47:-0.079241998 48:-0.101023 49:-0.14805999 50:-0.615345 51:-0.150841 52:-0.459032 53:-0.34537601 55:-0.117019 56:-0.3795 57:-0.424705 #
0.5 1:7.5014248 3:-0.62200397 4:-0.045352999 5:-0.48666501 6:-0.35563499 7:-0.31764501 8:-0.27120501 9:-0.354184 10:-0.40832499 11:-0.332057 12:-0.66384602 14:-0.189715 15:-0.21397699 16:-0.303601 17:-0.33521399 18:-0.362865 19:-1.03152 21:-0.76167101 25:-0.259592 27:-0.225205 28:-0.18276601 29:-0.150461 30:-0.189439 31:-0.120054 33:-0.133763 34:-0.1311 35:-0.191397 36:-0.22950201 38:-0.063603997 39:-0.157189 40:-0.183598 42:-0.139154 43:-0.159254 45:-0.29318199 46:-0.215674 47:-0.079241998 48:-0.101023 49:-0.14805999 50:-0.615345 51:-0.150841 52:-0.459032 53:-0.34537601 55:-0.048717 56:-0.317653 57:-0.37826899 #
-0.5 1:-0.348299 3:-0.62200397 4:-0.045352999 5:-0.48666501 6:-0.35563499 7:-0.31764501 8:-0.27120501 9:-0.354184 10:2.064573 11:-0.332057 12:-0.66384602 14:-0.189715 15:-0.21397699 16:1.957813 17:-0.33521399 18:-0.362865 19:2.1397929 21:0.56702101 25:-0.259592 27:-0.225205 28:-0.18276601 29:-0.150461 30:-0.189439 31:-0.120054 33:-0.133763 34:-0.1311 35:-0.191397 36:-0.22950201 38:-0.063603997 39:-0.157189 40:-0.183598 42:-0.139154 43:-0.159254 45:-0.29318199 46:-0.215674 47:-0.079241998 48:-0.101023 49:-0.14805999 50:-0.615345 51:-0.150841 52:-0.113155 53:-0.34537601 55:-0.118986 56:-0.38723099 57:-0.400738 #
0.5 1:-0.348299 3:-0.62200397 4:-0.045352999 5:-0.109759 6:-0.35563499 7:-0.31764501 8:-0.27120501 9:-0.354184 10:2.4973309 11:-0.332057 12:-0.66384602 14:-0.189715 15:-0.21397699 16:-0.303601 17:-0.33521399 18:-0.362865 19:-0.88428098 21:-0.54575902 25:-0.259592 27:-0.225205 28:-0.18276601 29:-0.150461 30:-0.189439 31:-0.120054 33:-0.133763 34:-0.1311 35:-0.191397 36:-0.22950201 38:-0.063603997 39:-0.157189 40:-0.183598 42:-0.139154 43:-0.159254 45:-0.29318199 46:-0.215674 47:-0.079241998 48:-0.101023 49:1.222389 50:-0.29003 51:-0.150841 52:-0.41046199 53:-0.34537601 55:-0.0074339998 56:0.0070440001 57:0.31376901 #
0.5 1:-0.348299 3:-0.62200397 4:-0.045352999 5:-0.48666501 6:-0.35563499 7:-0.31764501 8:-0.27120501 9:-0.354184 10:-0.40832499 11:-0.332057 12:0.083026998 14:-0.189715 15:-0.21397699 16:-0.303601 17:-0.33521399 18:-0.362865 19:-1.03152 21:-0.76167101 25:-0.259592 27:-0.225205 28:0.39565799 29:-0.150461 30:-0.189439 31:-0.120054 33:-0.133763 34:-0.1311 35:-0.191397 36:2.4468069 38:-0.063603997 39:1.541983 40:-0.183598 42:-0.139154 43:-0.159254 45:-0.29318199 46:0.41967201 47:-0.079241998 48:-0.101023 49:-0.14805999 50:-0.115234 51:-0.150841 52:-0.459032 53:-0.34537601 55:-0.087109998 56:-0.16303501 57:-0.201515 #
-0.5 1:-0.348299 3:-0.62200397 4:-0.045352999 5:-0.48666501 6:18.978474 7:-0.31764501 8:-0.27120501 9:-0.354184 10:-0.40832499 11:-0.332057 12:-0.66384602 14:-0.189715 15:-0.21397699 16:-0.303601 17:-0.33521399 18:-0.362865 19:-1.03152 21:-0.76167101 25:-0.259592 27:-0.225205 28:-0.18276601 29:-0.150461 30:-0.189439 31:-0.120054 33:-0.133763 34:-0.1311 35:-0.191397 36:-0.22950201 38:-0.063603997 39:-0.157189 40:-0.183598 42:-0.139154 43:-0.159254 45:-0.29318199 46:-0.215674 47:-0.079241998 48:-0.101023 49:-0.14805999 50:-0.615345 51:-0.150841 52:-0.459032 53:-0.34537601 55:-0.079456002 56:-0.3795 57:-0.42021099 #
-0.5 1:-0.348299 3:-0.62200397 4:-0.045352999 5:-0.48666501 6:-0.35563499 7:-0.31764501 8:-0.27120501 9:-0.354184 10:-0.40832499 11:-0.332057 12:-0.66384602 14:-0.189715 15:-0.21397699 16:-0.303601 17:-0.33521399 18:-0.362865 19:-1.03152 21:-0.76167101 25:-0.259592 27:-0.225205 28:-0.18276601 29:-0.150461 30:-0.189439 31:-0.120054 33:-0.133763 34:-0.1311 35:-0.191397 36:-0.22950201 38:-0.063603997 39:-0.157189 40:-0.183598 42:-0.139154 43:-0.159254 45:-0.29318199 46:-0.215674 47:-0.079241998 48:-0.101023 49:-0.14805999 50:-0.615345 51:-0.150841 52:-0.459032 53:-0.34537601 55:-0.099927999 56:-0.3795 57:-0.43219399 #
-0.5 1:-0.348299 3:0.78965002 4:-0.045352999 5:0.54258001 6:-0.35563499 7:-0.31764501 8:-0.27120501 9:-0.354184 10:-0.40832499 11:-0.332057 12:-0.66384602 14:-0.189715 15:-0.21397699 16:-0.303601 17:7.7753019 18:-0.362865 19:-1.03152 21:0.41754299 25:-0.259592 27:-0.225205 28:-0.18276601 29:-0.150461 30:-0.189439 31:-0.120054 33:-0.133763 34:-0.1311 35:-0.191397 36:-0.22950201 38:-0.063603997 39:-0.157189 40:-0.183598 42:0.82408202 43:-0.159254 45:-0.29318199 46:-0.215674 47:-0.079241998 48:-0.101023 49:-0.14805999 50:-0.34829599 51:-0.150841 52:-0.37808201 53:-0.34537601 55:0.30991599 56:-0.00068699999 57:-0.23746499 #
-0.5 1:0.233162 3:-0.26412001 4:-0.045352999 5:-0.48666501 6:-0.35563499 7:-0.31764501 8:-0.27120501 9:2.9406171 10:-0.40832499 11:-0.332057 12:-0.17903399 14:-0.189715 15:-0.21397699 16:-0.218798 17:-0.33521399 18:-0.362865 19:-0.82198697 21:-0.61219299 25:0.176597 27:-0.19975699 28:-0.18276601 29:-0.150461 30:-0.189439 31:-0.120054 33:0.45520699 34:-0.1311 35:-0.191397 36:-0.22950201 38:-0.063603997 39:-0.157189 40:-0.183598 42:-0.139154 43:-0.159254 45:-0.29318199 46:-0.215674 47:-0.079241998 48:-0.101023 49:0.45803499 50:0.19551399 51:0.39960501 52:-0.459032 53:-0.25494701 55:-0.025109001 56:0.25443301 57:0.91742897 #
-0.5 1:-0.025265001 3:-0.423179 4:-0.045352999 5:-0.48666501 6:-0.35563499 7:-0.31764501 8:-0.27120501 9:2.8705151 10:-0.40832499 11:-0.332057 12:-0.139725 14:-0.189715 15:-0.21397699 16:-0.303601 17:-0.108029 18:-0.362865 19:-0.80499798 21:-0.59558499 25:0.13765199 27:-0.19693001 28:-0.18276601 29:-0.150461 30:-0.189439 31:-0.120054 33:0.34378001 34:-0.1311 35:-0.191397 36:-0.22950201 38:-0.063603997 39:-0.157189 40:-0.183598 42:-0.139154 43:-0.159254 45:-0.29318199 46:-0.215674 47:-0.079241998 48:-0.101023 49:-0.100919 50:0.132393 51:0.151365 52:-0.459032 53:-0.244096 55:-0.075797997 56:-0.170766 57:0.315267 #
-0.5 1:0.16855501 3:0.014235 4:-0.045352999 5:-0.341701 6:-0.026823999 7:-0.31764501 8:-0.27120501 9:-0.354184 10:-0.40832499 11:-0.332057 12:-0.38868299 14:-0.189715 15:-0.21397699 16:-0.256488 17:-0.22162201 18:-0.362865 19:-0.66908401 21:-0.76167101 25:-0.259592 27:-0.225205 28:-0.18276601 29:-0.150461 30:-0.189439 31:-0.120054 33:-0.133763 34:-0.1311 35:-0.191397 36:-0.22950201 38:-0.063603997 39:-0.157189 40:-0.183598 42:-0.139154 43:-0.159254 45:-0.18910401 46:-0.215674 47:-0.079241998 48:-0.101023 49:-0.063879997 50:-0.53280199 51:-0.064496003 52:-0.459032 53:-0.316439 55:-0.120892 56:-0.32538399 57:-0.078685999 #
-0.5 1:-0.348299 3:-0.62200397 4:-0.045352999 5:-0.48666501 6:-0.35563499 7:-0.31764501 8:-0.27120501 9:-0.354184 10:-0.40832499 11:-0.332057 12:-0.021796999 14:-0.189715 15:-0.21397699 16:-0.303601 17:-0.33521399 18:-0.362865 19:0.63341898 21:0.45906499 25:-0.259592 27:-0.225205 28:-0.18276601 29:-0.150461 30:-0.189439 31:-0.120054 33:-0.133763 34:-0.1311 35:-0.191397 36:-0.22950201 38:-0.063603997 39:-0.157189 40:-0.183598 42:-0.139154 43:-0.159254 45:-0.29318199 46:-0.215674 47:-0.079241998 48:-0.101023 49:-0.14805999 50:0.55481702 51:-0.150841 52:-0.459032 53:-0.34537601 55:-0.106998 56:-0.255806 57:-0.316854 #
-0.5 1:-0.348299 3:0.51129597 4:-0.045352999 5:0.745529 6:-0.35563499 7:-0.31764501 8:-0.27120501 9:0.62724602 10:-0.40832499 11:2.3063469 12:-0.29696101 14:-0.189715 15:-0.21397699 16:0.49731699 17:-0.33521399 18:0.63103402 19:-0.227366 21:-0.055803001 25:-0.259592 27:-0.225205 28:-0.18276601 29:-0.150461 30:-0.189439 31:-0.120054 33:-0.133763 34:-0.1311 35:-0.191397 36:-0.22950201 38:-0.063603997 39:-0.157189 40:-0.183598 42:-0.139154 43:-0.159254 45:-0.29318199 46:-0.215674 47:-0.079241998 48:-0.101023 49:0.121316 50:-0.615345 51:-0.150841 52:-0.043979 53:0.52997202 55:-0.085787997 56:-0.217152 57:-0.027756 #
0.5 1:-0.348299 3:-0.62200397 4:-0.045352999 5:-0.48666501 6:-0.35563499 7:-0.31764501 8:-0.27120501 9:-0.354184 10:-0.40832499 11:-0.332057 12:-0.66384602 14:6.743124 15:-0.21397699 16:-0.303601 17:2.3001349 18:-0.362865 19:-0.374605 21:-0.76167101 25:-0.259592 27:-0.225205 28:4.6098852 29:-0.150461 30:-0.189439 31:-0.120054 33:-0.133763 34:-0.1311 35:-0.191397 36:-0.22950201 38:-0.063603997 39:-0.157189 40:-0.183598 42:-0.139154 43:-0.159254 45:-0.29318199 46:1.077311 47:-0.079241998 48:-0.101023 49:-0.14805999 50:1.234578 51:-0.150841 52:-0.459032 53:-0.34537601 55:-0.079885997 56:-0.20169 57:-0.35280401 #
-0.5 1:-0.348299 3:-0.62200397 4:-0.045352999 5:-0.48666501 6:-0.35563499 7:-0.31764501 8:-0.27120501 9:-0.354184 10:-0.40832499 11:-0.332057 12:-0.66384602 14:-0.189715 15:-0.21397699 16:-0.303601 17:-0.33521399 18:-0.362865 19:-1.03152 21:-0.76167101 25:-0.259592 27:-0.225205 28:-0.18276601 29:-0.150461 30:-0.189439 31:-0.120054 33:-0.133763 34:-0.1311 35:-0.191397 36:-0.22950201 38:-0.063603997 39:-0.157189 40:-0.183598 42:-0.139154 43:-0.159254 45:-0.29318199 46:-0.215674 47:-0.079241998 48:-0.101023 49:0.441199 50:-0.615345 51:-0.150841 52:-0.459032 53:-0.34537601 55:-0.103832 56:-0.35630801 57:-0.267423 #
0.5 1:-0.348299 3:-0.62200397 4:-0.045352999 5:-0.48666501 6:-0.35563499 7:-0.31764501 8:-0.27120501 9:-0.354184 10:1.894562 11:-0.332057 12:1.288507 14:-0.189715 15:-0.21397699 16:-0.303601 17:-0.33521399 18:-0.362865 19:3.1931219 21:0.475674 25:-0.259592 27:-0.225205 28:-0.18276601 29:-0.150461 30:-0.189439 31:-0.120054 33:-0.133763 34:-0.1311 35:-0.191397 36:-0.22950201 38:-0.063603997 39:-0.157189 40:-0.183598 42:-0.139154 43:-0.159254 45:-0.29318199 46:-0.215674 47:-0.079241998 48:-0.101023 49:-0.14805999 50:-0.615345 51:-0.150841 52:-0.459032 53:-0.34537601 55:-0.078657001 56:-0.30219099 57:-0.39175001 #
-0.5 1:-0.348299 3:-0.62200397 4:-0.045352999 5:-0.48666501 6:-0.35563499 7:-0.31764501 8:-0.27120501 9:-0.354184 10:-0.40832499 11:-0.332057 12:1.170579 14:-0.189715 15:-0.21397699 16:-0.303601 17:1.255083 18:-0.362865 19:-0.238692 21:0.40093499 25:-0.259592 27:-0.027276 28:-0.18276601 29:-0.150461 30:-0.189439 31:1.6062191 33:-0.133763 34:-0.1311 35:-0.191397 36:-0.22950201 38:-0.063603997 39:-0.157189 40:7.1985998 42:-0.139154 43:-0.159254 45:-0.29318199 46:-0.215674 47:-0.079241998 48:-0.101023 49:-0.14805999 50:0.67620301 51:0.56150001 52:-0.459032 53:-0.34537601 55:0.39189801 56:1.128024 57:0.122035 #
-0.5 1:-0.348299 3:0.431766 4:-0.045352999 5:0.28164399 6:-0.35563499 7:-0.31764501 8:0.94762599 9:-0.354184 10:1.2454261 11:4.6207371 12:-0.66384602 14:-0.189715 15:-0.21397699 16:0.70461297 17:-0.33521399 18:-0.362865 19:1.09779 21:0.126892 25:-0.259592 27:-0.225205 28:-0.18276601 29:-0.150461 30:-0.189439 31:-0.120054 33:-0.133763 34:-0.1311 35:-0.191397 36:-0.22950201 38:-0.063603997 39:-0.157189 40:-0.183598 42:-0.139154 43:-0.159254 45:0.258434 46:-0.215674 47:-0.079241998 48:-0.101023 49:-0.14805999 50:0.81215501 51:-0.150841 52:0.081124999 53:-0.34537601 55:-0.094979003 56:-0.255806 57:-0.343817 #
-0.5 1:-0.348299 3:-0.62200397 4:-0.045352999 5:0.44110501 6:-0.35563499 7:-0.31764501 8:-0.27120501 9:4.1323528 10:-0.40832499 11:-0.332057 12:0.174748 14:-0.189715 15:-0.21397699 16:-0.303601 17:-0.33521399 18:-0.362865 19:-1.03152 21:0.301283 25:-0.259592 27:0.136723 28:-0.18276601 29:-0.150461 30:-0.189439 31:-0.120054 33:-0.133763 34:-0.1311 35:-0.191397 36:-0.22950201 38:-0.063603997 39:-0.157189 40:-0.183598 42:-0.139154 43:-0.159254 45:0.37292001 46:-0.215674 47:-0.079241998 48:-0.101023 49:-0.14805999 50:-0.615345 51:-0.150841 52:-0.169084 53:-0.34537601 55:-0.089169003 56:-0.317653 57:-0.30337301 #
0.46915560449717530477897753371508 1:-0.348299 3:-0.025529999 4:-0.045352999 5:0.397616 6:0.630799 7:-0.31764501 8:-0.27120501 9:-0.354184 10:0.055344 11:1.056577 12:-0.27075499 14:-0.189715 15:-0.21397699 16:0.56327498 17:-0.33521399 18:-0.362865 19:-0.68607402 21:-0.76167101 25:-0.259592 27:-0.225205 28:-0.18276601 29:-0.150461 30:8.3344498 31:-0.120054 33:-0.133763 34:-0.1311 35:-0.191397 36:-0.22950201 38:-0.063603997 39:-0.157189 40:-0.183598 42:-0.139154 43:-0.159254 45:-0.29318199 46:-0.215674 47:-0.079241998 48:-0.101023 49:-0.14805999 50:-0.158933 51:-0.150841 52:-0.459032 53:-0.34537601 55:-0.095593996 56:-0.124381 57:-0.126619 #
0.5 1:-0.348299 3:-0.62200397 4:-0.045352999 5:2.96348 6:-0.35563499 7:-0.31764501 8:-0.27120501 9:-0.354184 10:-0.40832499 11:-0.332057 12:-0.66384602 14:-0.189715 15:-0.21397699 16:-0.303601 17:-0.33521399 18:-0.362865 19:1.664096 21:-0.76167101 25:-0.259592 27:-0.225205 28:-0.18276601 29:-0.150461 30:-0.189439 31:-0.120054 33:-0.133763 34:-0.1311 35:-0.191397 36:-0.22950201 38:-0.063603997 39:-0.157189 40:-0.183598 42:-0.139154 43:-0.159254 45:-0.29318199 46:-0.215674 47:-0.079241998 48:-0.101023 49:-0.14805999 50:-0.615345 51:-0.150841 52:-0.459032 53:-0.34537601 55:-0.099927999 56:-0.33311501 57:-0.41421899 #
0.5 1:-0.348299 3:-0.62200397 4:-0.045352999 5:-0.48666501 6:-0.35563499 7:-0.31764501 8:-0.27120501 9:-0.354184 10:-0.40832499 11:-0.332057 12:-0.66384602 14:-0.189715 15:-0.21397699 16:-0.303601 17:-0.33521399 18:-0.362865 19:-1.03152 21:-0.76167101 25:-0.259592 27:-0.225205 28:-0.18276601 29:-0.150461 30:-0.189439 31:-0.120054 33:-0.133763 34:-0.1311 35:-0.191397 36:-0.22950201 38:-0.063603997 39:-0.157189 40:-0.183598 42:-0.139154 43:-0.159254 45:-0.29318199 46:-0.215674 47:-0.079241998 48:-0.101023 49:-0.14805999 50:-0.615345 51:-0.150841 52:-0.459032 53:-0.34537601 55:-0.069188997 56:-0.29446101 57:-0.39474601 #
-0.5 1:-0.348299 3:0.014235 4:-0.045352999 5:-0.25472301 6:0.170463 7:-0.31764501 8:-0.27120501 9:0.206633 10:0.086254999 11:-0.332057 12:-0.66384602 14:-0.189715 15:0.85179198 16:-0.303601 17:0.39177901 18:0.195113 19:-0.578475 21:0.96562898 25:-0.259592 27:-0.17996401 28:1.139345 29:-0.150461 30:-0.189439 31:-0.120054 33:-0.133763 34:-0.1311 35:-0.191397 36:-0.22950201 38:-0.063603997 39:-0.157189 40:-0.183598 42:-0.139154 43:-0.159254 45:-0.29318199 46:-0.215674 47:-0.079241998 48:-0.101023 49:-0.14805999 50:5.7404289 51:-0.150841 52:-0.42665201 53:1.018285 55:-0.040970001 56:0.795596 57:0.71221501 #
0.5 1:1.07305 3:-0.62200397 4:-0.045352999 5:-0.48666501 6:-0.35563499 7:-0.31764501 8:-0.27120501 9:-0.354184 10:3.671957 11:-0.332057 12:1.642289 14:-0.189715 15:-0.21397699 16:-0.303601 17:-0.33521399 18:0.40435499 19:0.46352801 21:-0.396281 25:-0.259592 27:-0.225205 28:-0.18276601 29:-0.150461 30:-0.189439 31:-0.120054 33:-0.133763 34:-0.1311 35:-0.191397 36:-0.22950201 38:-0.063603997 39:-0.157189 40:-0.183598 42:-0.139154 43:-0.159254 45:-0.29318199 46:-0.215674 47:-0.079241998 48:-0.101023 49:-0.14805999 50:0.506262 51:-0.150841 52:-0.459032 53:0.490183 55:0.022321001 56:0.123008 57:-0.050225001 #
0.5 1:-0.348299 3:0.471531 4:-0.045352999 5:1.122436 6:-0.35563499 7:0.089777 8:-0.27120501 9:-0.354184 10:-0.40832499 11:-0.332057 12:-0.66384602 14:-0.189715 15:0.38551801 16:-0.303601 17:0.50537097 18:0.282298 19:0.75234401 21:0.002327 25:-0.259592 27:-0.225205 28:-0.18276601 29:-0.150461 30:-0.189439 31:-0.120054 33:-0.133763 34:-0.1311 35:-0.191397 36:-0.22950201 38:-0.063603997 39:-0.157189 40:-0.183598 42:-0.139154 43:-0.159254 45:-0.29318199 46:-0.215674 47:-0.079241998 48:-0.101023 49:-0.14805999 50:0.26834601 51:-0.150841 52:0.21064501 53:-0.34537601 55:-0.120831 56:-0.38723099 57:-0.33932301 #
0.5 1:-0.154479 3:-0.144825 4:-0.045352999 5:-0.341701 6:-0.35563499 7:-0.31764501 8:0.119741 9:0.241684 10:-0.145579 11:-0.332057 12:-0.53281599 14:-0.189715 15:-0.21397699 16:-0.27533299 17:-0.33521399 18:-0.362865 19:-0.77668297 21:-0.59558499 25:0.659522 27:-0.225205 28:-0.18276601 29:-0.150461 30:-0.189439 31:-0.120054 33:-0.133763 34:-0.1311 35:-0.191397 36:-0.22950201 38:-0.063603997 39:-0.157189 40:-0.183598 42:-0.139154 43:0.155607 45:0.175171 46:-0.215674 47:-0.079241998 48:-0.101023 49:0.45466799 50:0.865565 51:0.162158 52:-0.41634899 53:-0.30558699 55:-0.074937001 56:-0.217152 57:3.315594 #
-0.033261222679643265287552367226453 1:-0.348299 3:-0.62200397 4:-0.045352999 5:-0.48666501 6:-0.35563499 7:-0.31764501 8:-0.27120501 9:-0.354184 10:-0.40832499 11:-0.332057 12:-0.66384602 14:8.5958652 15:-0.21397699 16:-0.303601 17:-0.33521399 18:-0.362865 19:-1.03152 21:-0.76167101 25:-0.259592 27:-0.225205 28:-0.18276601 29:-0.150461 30:-0.189439 31:-0.120054 33:-0.133763 34:-0.1311 35:-0.191397 36:-0.22950201 38:-0.063603997 39:-0.157189 40:-0.183598 42:-0.139154 43:-0.159254 45:-0.29318199 46:-0.215674 47:-0.079241998 48:-0.101023 49:-0.14805999 50:-0.615345 51:-0.150841 52:-0.459032 53:-0.34537601 55:-0.112224 56:-0.3795 57:-0.42021099 #
-0.5 1:2.7205231 3:-0.62200397 4:-0.045352999 5:-0.48666501 6:-0.35563499 7:-0.31764501 8:-0.27120501 9:-0.354184 10:-0.40832499 11:-0.332057 12:-0.66384602 14:-0.189715 15:-0.21397699 16:-0.303601 17:-0.33521399 18:-0.362865 19:0.044461001 21:0.027240001 25:-0.259592 27:-0.225205 28:-0.18276601 29:-0.150461 30:-0.189439 31:-0.120054 33:-0.133763 34:-0.1311 35:-0.191397 36:-0.22950201 38:-0.063603997 39:-0.157189 40:-0.183598 42:-0.139154 43:-0.159254 45:0.69556397 46:0.84323603 47:-0.079241998 48:-0.101023 49:-0.14805999 50:0.083838999 51:-0.150841 52:8.0480814 53:-0.34537601 55:-0.095931999 56:-0.30219099 57:-0.37077901 #
0.5 1:-0.348299 3:-0.62200397 4:-0.045352999 5:-0.48666501 6:-0.35563499 7:-0.31764501 8:-0.27120501 9:-0.354184 10:6.1603112 11:-0.332057 12:-0.66384602 14:-0.189715 15:-0.21397699 16:-0.303601 17:-0.33521399 18:-0.362865 19:-1.03152 21:-0.76167101 25:-0.259592 27:-0.225205 28:-0.18276601 29:-0.150461 30:-0.189439 31:-0.120054 33:-0.133763 34:-0.1311 35:-0.191397 36:-0.22950201 38:-0.063603997 39:-0.157189 40:-0.183598 42:-0.139154 43:-0.159254 45:-0.29318199 46:-0.215674 47:-0.079241998 48:-0.101023 49:0.81832498 50:-0.615345 51:-0.150841 52:-0.459032 53:-0.34537601 55:-0.028214 56:-0.317653 57:-0.32734001 #
0.4258026063562433960463238236116 1:-0.348299 3:-0.62200397 4:-0.045352999 5:1.542832 6:-0.35563499 7:0.316122 8:0.372706 9:-0.354184 10:0.45719001 11:-0.332057 12:0.436809 14:-0.189715 15:-0.21397699 16:-0.039769001 17:-0.33521399 18:-0.362865 19:-0.080126002 21:0.86597699 25:-0.259592 27:-0.225205 28:-0.18276601 29:-0.150461 30:-0.189439 31:-0.120054 33:2.0947709 34:-0.1311 35:-0.191397 36:-0.22950201 38:1.103285 39:-0.157189 40:-0.183598 42:-0.139154 43:-0.159254 45:-0.001762 46:-0.215674 47:-0.079241998 48:-0.101023 49:-0.14805999 50:0.049851 51:0.58308601 52:-0.40899 53:-0.34537601 55:0.011809 56:0.46316701 57:0.45906699 #
-0.35900687091246696880375566252042 1:-0.348299 3:-0.62200397 4:-0.045352999 5:-0.48666501 6:-0.35563499 7:-0.31764501 8:-0.27120501 9:-0.354184 10:-0.40832499 11:-0.332057 12:-0.66384602 14:-0.189715 15:-0.21397699 16:-0.303601 17:-0.33521399 18:-0.362865 19:-1.03152 21:-0.76167101 25:-0.259592 27:-0.225205 28:-0.18276601 29:-0.150461 30:-0.189439 31:-0.120054 33:-0.133763 34:-0.1311 35:-0.191397 36:-0.22950201 38:-0.063603997 39:-0.157189 40:-0.183598 42:-0.139154 43:-0.159254 45:-0.29318199 46:-0.215674 47:-0.079241998 48:-0.101023 49:-0.14805999 50:-0.615345 51:-0.150841 52:-0.459032 53:-0.34537601 55:-0.106076 56:-0.3795 57:-0.43069601 #
0.5 1:-0.348299 3:-0.62200397 4:-0.045352999 5:0.93398303 6:-0.35563499 7:-0.31764501 8:-0.27120501 9:-0.354184 10:1.106325 11:4.2041459 12:0.62025201 14:-0.189715 15:-0.21397699 16:0.61980999 17:-0.33521399 18:1.345943 19:0.63341898 21:0.86597699 25:0.50374001 27:-0.225205 28:-0.18276601 29:-0.150461 30:-0.189439 31:-0.120054 33:-0.133763 34:-0.1311 35:-0.191397 36:-0.22950201 38:-0.063603997 39:-0.157189 40:-0.183598 42:-0.139154 43:-0.159254 45:-0.29318199 46:0.87667602 47:-0.079241998 48:-0.101023 49:-0.14805999 50:-0.615345 51:-0.150841 52:-0.049865998 53:-0.34537601 55:-0.070726 56:-0.278999 57:-0.3558 #
0.5 1:-0.348299 3:-0.62200397 4:-0.045352999 5:-0.48666501 6:5.8260188 7:-0.31764501 8:-0.27120501 9:-0.354184 10:-0.40832499 11:-0.332057 12:-0.66384602 14:-0.189715 15:-0.21397699 16:-0.303601 17:-0.33521399 18:-0.362865 19:1.103453 21:0.79954201 25:-0.259592 27:-0.225205 28:-0.18276601 29:-0.150461 30:-0.189439 31:-0.120054 33:-0.133763 34:-0.1311 35:-0.191397 36:-0.22950201 38:-0.063603997 39:-0.157189 40:-0.183598 42:-0.139154 43:-0.159254 45:-0.29318199 46:-0.215674 47:-0.079241998 48:-0.101023 49:-0.14805999 50:-0.615345 51:-0.150841 52:-0.459032 53:-0.34537601 55:-0.090490997 56:-0.29446101 57:-0.39923999 #
-0.5 1:-0.348299 3:-0.62200397 4:-0.045352999 5:-0.48666501 6:-0.35563499 7:-0.31764501 8:-0.27120501 9:-0.354184 10:-0.40832499 11:-0.332057 12:-0.66384602 14:-0.189715 15:-0.21397699 16:-0.303601 17:-0.33521399 18:-0.362865 19:0.36159199 21:-0.76167101 25:-0.259592 27:-0.225205 28:-0.18276601 29:-0.150461 30:-0.189439 31:-0.120054 33:-0.133763 34:-0.1311 35:-0.191397 36:-0.22950201 38:-0.063603997 39:-0.157189 40:-0.183598 42:-0.139154 43:-0.159254 45:0.34169701 46:-0.215674 47:-0.079241998 48:-0.101023 49:-0.14805999 50:-0.042403001 51:-0.150841 52:-0.459032 53:0.081445999 55:-0.112531 56:-0.3795 57:-0.39175001 #
0.5 1:-0.348299 3:-0.62200397 4:-0.045352999 5:3.702796 6:-0.35563499 7:-0.31764501 8:-0.27120501 9:-0.354184 10:-0.40832499 11:3.000664 12:0.27957299 14:-0.189715 15:-0.21397699 16:-0.303601 17:-0.33521399 18:-0.362865 19:0.197364 21:0.43415201 25:-0.259592 27:-0.225205 28:-0.18276601 29:-0.150461 30:-0.189439 31:-0.120054 33:-0.133763 34:-0.1311 35:-0.191397 36:-0.22950201 38:-0.063603997 39:-0.157189 40:-0.183598 42:-0.139154 43:-0.159254 45:-0.29318199 46:-0.215674 47:-0.079241998 48:-0.101023 49:-0.14805999 50:-0.615345 51:-0.150841 52:-0.459032 53:-0.34537601 55:-0.119017 56:-0.364039 57:-0.38426101 #
0.5 1:-0.348299 3:0.59082597 4:-0.045352999 5:-0.48666501 6:2.9982409 7:-0.31764501 8:0.188731 9:1.047859 10:0.534468 11:-0.332057 12:2.284338 14:-0.189715 15:-0.21397699 16:-0.303601 17:1.050616 18:-0.362865 19:0.58811498 21:0.085369997 25:-0.259592 27:-0.16865399 28:-0.18276601 29:-0.150461 30:-0.189439 31:-0.120054 33:-0.133763 34:-0.1311 35:-0.191397 36:-0.22950201 38:-0.063603997 39:-0.157189 40:-0.183598 42:-0.139154 43:-0.159254 45:-0.29318199 46:-0.215674 47:-0.079241998 48:-0.101023 49:-0.14805999 50:-0.15407801 51:-0.150841 52:-0.226485 53:-0.117496 55:-0.099927999 56:-0.178497 57:-0.210502 #
-0.16854255976491647195381062829256 1:-0.348299 3:-0.62200397 4:-0.045352999 5:2.470602 6:-0.35563499 7:-0.31764501 8:-0.27120501 9:-0.354184 10:-0.40832499 11:-0.332057 12:0.67266399 14:-0.189715 15:-0.21397699 16:0.65750003 17:-0.33521399 18:-0.362865 19:-0.453888 21:-0.76167101 25:-0.259592 27:-0.225205 28:-0.18276601 29:-0.150461 30:-0.189439 31:-0.120054 33:-0.133763 34:-0.1311 35:-0.191397 36:-0.22950201 38:-0.063603997 39:2.883435 40:-0.183598 42:-0.139154 43:-0.159254 45:-0.29318199 46:-0.215674 47:-0.079241998 48:-0.101023 49:-0.14805999 50:-0.615345 51:-0.150841 52:-0.459032 53:-0.34537601 55:-0.110933 56:-0.38723099 57:-0.40972501 #
0.5 1:-0.348299 3:1.127652 4:-0.045352999 5:0.78901899 6:-0.35563499 7:-0.31764501 8:-0.27120501 9:-0.354184 10:-0.40832499 11:-0.332057 12:0.48922101 14:-0.189715 15:-0.21397699 16:-0.303601 17:-0.33521399 18:-0.362865 19:-0.533171 21:-0.76167101 25:-0.259592 27:-0.225205 28:-0.18276601 29:-0.150461 30:-0.189439 31:-0.120054 33:-0.133763 34:-0.1311 35:-0.191397 36:-0.22950201 38:-0.063603997 39:-0.157189 40:-0.183598 42:-0.139154 43:-0.159254 45:-0.29318199 46:-0.215674 47:-0.079241998 48:-0.101023 49:-0.14805999 50:-0.615345 51:-0.150841 52:0.91711903 53:-0.34537601 55:-0.056371 56:-0.023879001 57:-0.101154 #
-0.5 1:-0.348299 3:-0.62200397 4:-0.045352999 5:-0.48666501 6:-0.35563499 7:-0.31764501 8:-0.27120501 9:-0.354184 10:-0.40832499 11:-0.332057 12:-0.66384602 14:-0.189715 15:-0.21397699 16:-0.303601 17:-0.33521399 18:-0.362865 19:6.8967628 21:-0.76167101 25:-0.259592 27:-0.225205 28:-0.18276601 29:-0.150461 30:-0.189439 31:-0.120054 33:-0.133763 34:-0.1311 35:-0.191397 36:-0.22950201 38:-0.063603997 39:-0.157189 40:-0.183598 42:-0.139154 43:-0.159254 45:-0.29318199 46:-0.215674 47:-0.079241998 48:-0.101023 49:-0.14805999 50:-0.615345 51:-0.150841 52:-0.459032 53:-0.34537601 55:-0.113115 56:-0.3795 57:-0.42770001 #
-0.5 1:-0.348299 3:-0.62200397 4:-0.045352999 5:12.690568 6:-0.35563499 7:-0.31764501 8:-0.27120501 9:-0.354184 10:-0.40832499 11:-0.332057 12:-0.66384602 14:-0.189715 15:-0.21397699 16:-0.303601 17:-0.33521399 18:-0.362865 19:-1.03152 21:-0.76167101 25:-0.259592 27:-0.225205 28:-0.18276601 29:-0.150461 30:-0.189439 31:-0.120054 33:-0.133763 34:-0.1311 35:-0.191397 36:-0.22950201 38:-0.063603997 39:-0.157189 40:-0.183598 42:-0.139154 43:-0.159254 45:-0.29318199 46:-0.215674 47:-0.079241998 48:-0.101023 49:-0.14805999 50:-0.615345 51:-0.150841 52:-0.459032 53:-0.34537601 55:-0.130667 56:-0.41042399 57:-0.44268 #
0.5 1:-0.348299 3:2.420012 4:-0.045352999 5:-0.48666501 6:-0.35563499 7:-0.31764501 8:-0.27120501 9:-0.354184 10:-0.40832499 11:6.7499752 12:-0.66384602 14:-0.189715 15:-0.21397699 16:-0.303601 17:-0.33521399 18:-0.362865 19:0.707039 21:-0.76167101 25:-0.259592 27:-0.225205 28:-0.18276601 29:-0.150461 30:-0.189439 31:-0.120054 33:-0.133763 34:-0.1311 35:-0.191397 36:-0.22950201 38:-0.063603997 39:-0.157189 40:-0.183598 42:-0.139154 43:-0.159254 45:1.299219 46:-0.215674 47:-0.079241998 48:-0.101023 49:-0.14805999 50:-0.615345 51:-0.150841 52:1.651556 53:-0.34537601 55:0.055458002 56:0.161662 57:-0.25394201 #
-0.5 1:-0.348299 3:1.763891 4:-0.045352999 5:-0.48666501 6:-0.35563499 7:-0.31764501 8:-0.27120501 9:-0.354184 10:-0.40832499 11:-0.332057 12:0.90851802 14:-0.189715 15:-0.21397699 16:-0.303601 17:-0.33521399 18:-0.362865 19:2.3776419 21:-0.76167101 25:-0.259592 27:-0.225205 28:-0.18276601 29:-0.150461 30:-0.189439 31:-0.120054 33:-0.133763 34:-0.1311 35:-0.191397 36:-0.22950201 38:-0.063603997 39:6.99722 40:-0.183598 42:-0.139154 43:-0.159254 45:0.95576 46:1.121897 47:-0.079241998 48:-0.101023 49:0.51527798 50:-0.615345 51:-0.150841 52:10.884277 53:-0.34537601 55:-0.056892999 56:-0.30219099 57:-0.36778399 #
-0.5 1:6.1123791 3:-0.62200397 4:-0.045352999 5:-0.48666501 6:-0.35563499 7:-0.31764501 8:-0.27120501 9:-0.354184 10:-0.40832499 11:8.9255009 12:1.956762 14:-0.189715 15:-0.21397699 16:-0.303601 17:-0.33521399 18:-0.362865 19:0.101092 21:5.8817911 25:-0.259592 27:-0.225205 28:-0.18276601 29:-0.150461 30:-0.189439 31:-0.120054 33:-0.133763 34:-0.1311 35:-0.191397 36:-0.22950201 38:-0.063603997 39:-0.157189 40:-0.183598 42:-0.139154 43:-0.159254 45:-0.29318199 46:-0.215674 47:-0.079241998 48:-0.101023 49:-0.14805999 50:-0.615345 51:-0.150841 52:-0.459032 53:-0.34537601 55:0.019586001 56:-0.193959 57:-0.364788 #
0.5 1:-0.348299 3:-0.62200397 4:-0.045352999 5:-0.48666501 6:-0.35563499 7:-0.31764501 8:-0.27120501 9:-0.354184 10:-0.40832499 11:-0.332057 12:7.276597 14:-0.189715 15:-0.21397699 16:-0.303601 17:-0.33521399 18:-0.362865 19:4.1162009 21:-0.76167101 25:-0.259592 27:-0.225205 28:-0.18276601 29:-0.150461 30:-0.189439 31:-0.120054 33:-0.133763 34:-0.1311 35:-0.191397 36:-0.22950201 38:-0.063603997 39:-0.157189 40:-0.183598 42:-0.139154 43:-0.159254 45:-0.29318199 46:-0.215674 47:-0.079241998 48:-0.101023 49:-0.14805999 50:-0.615345 51:-0.150841 52:-0.459032 53:-0.34537601 55:-0.087632 56:-0.30992201 57:-0.408227 #
-0.5 1:6.1123791 3:-0.62200397 4:-0.045352999 5:-0.48666501 6:-0.35563499 7:-0.31764501 8:-0.27120501 9:-0.354184 10:-0.40832499 11:8.9255009 12:1.956762 14:-0.189715 15:-0.21397699 16:-0.303601 17:-0.33521399 18:-0.362865 19:0.101092 21:5.8817911 25:-0.259592 27:-0.225205 28:-0.18276601 29:-0.150461 30:-0.189439 31:-0.120054 33:-0.133763 34:-0.1311 35:-0.191397 36:-0.22950201 38:-0.063603997 39:-0.157189 40:-0.183598 42:-0.139154 43:-0.159254 45:-0.29318199 46:-0.215674 47:-0.079241998 48:-0.101023 49:-0.14805999 50:-0.615345 51:-0.150841 52:-0.459032 53:-0.34537601 55:0.019586001 56:-0.193959 57:-0.364788 #
-0.5 1:-0.348299 3:-0.62200397 4:-0.045352999 5:-0.48666501 6:-0.35563499 7:-0.31764501 8:-0.27120501 9:-0.354184 10:-0.40832499 11:-0.332057 12:-0.66384602 14:-0.189715 15:-0.21397699 16:-0.303601 17:-0.33521399 18:-0.362865 19:3.6858079 21:-0.76167101 25:-0.259592 27:-0.225205 28:-0.18276601 29:-0.150461 30:-0.189439 31:-0.120054 33:-0.133763 34:-0.1311 35:-0.191397 36:-0.22950201 38:-0.063603997 39:-0.157189 40:-0.183598 42:-0.139154 43:-0.159254 45:-0.29318199 46:-0.215674 47:-0.079241998 48:-0.101023 49:-0.14805999 50:-0.615345 51:-0.150841 52:-0.459032 53:-0.34537601 55:-0.130667 56:-0.41042399 57:-0.43219399 #
-0.5 1:-0.348299 3:-0.62200397 4:-0.045352999 5:-0.48666501 6:-0.35563499 7:-0.31764501 8:-0.27120501 9:-0.354184 10:-0.40832499 11:-0.332057 12:-0.66384602 14:-0.189715 15:-0.21397699 16:0.874219 17:-0.33521399 18:1.8167371 19:0.38424501 21:0.27636999 25:-0.259592 27:-0.225205 28:-0.18276601 29:-0.150461 30:-0.189439 31:-0.120054 33:-0.133763 34:-0.1311 35:-0.191397 36:-0.22950201 38:-0.063603997 39:-0.157189 40:-0.183598 42:-0.139154 43:-0.159254 45:-0.29318199 46:-0.215674 47:-0.079241998 48:-0.101023 49:-0.14805999 50:-0.615345 51:-0.150841 52:-0.459032 53:-0.34537601 55:-0.033039998 56:0.0070440001 57:-0.337825 #
-0.5 1:-0.348299 3:-0.62200397 4:-0.045352999 5:-0.240226 6:-0.35563499 7:-0.31764501 8:0.533683 9:-0.354184 10:-0.40832499 11:-0.332057 12:0.48922101 14:-0.189715 15:-0.21397699 16:-0.303601 17:4.0949001 18:-0.362865 19:-0.93524802 21:-0.76167101 25:0.013026 27:-0.225205 28:-0.18276601 29:-0.150461 30:0.239278 31:-0.120054 33:-0.133763 34:-0.1311 35:-0.191397 36:0.87250799 38:-0.063603997 39:-0.157189 40:-0.183598 42:-0.139154 43:-0.159254 45:0.258434 46:-0.215674 47:-0.079241998 48:-0.101023 49:-0.14805999 50:0.627648 51:-0.150841 52:-0.459032 53:-0.34537601 55:-0.096946001 56:-0.30992201 57:-0.089171 #
-0.5 1:-0.348299 3:-0.62200397 4:-0.045352999 5:-0.48666501 6:-0.35563499 7:-0.31764501 8:-0.27120501 9:-0.354184 10:-0.40832499 11:-0.332057 12:-0.66384602 14:-0.189715 15:-0.21397699 16:0.63865501 17:4.2084918 18:-0.362865 19:1.233704 21:0.899194 25:-0.259592 27:-0.225205 28:-0.18276601 29:-0.150461 30:-0.189439 31:-0.120054 33:-0.133763 34:-0.1311 35:-0.191397 36:-0.22950201 38:-0.063603997 39:-0.157189 40:-0.183598 42:-0.139154 43:-0.159254 45:-0.29318199 46:-0.215674 47:-0.079241998 48:-0.101023 49:-0.14805999 50:1.229723 51:-0.150841 52:-0.459032 53:-0.34537601 55:-0.105891 56:-0.33311501 57:-0.36029401 #
0.5 1:-0.348299 3:1.2867121 4:-0.045352999 5:-0.48666501 6:-0.35563499 7:-0.31764501 8:-0.27120501 9:-0.354184 10:-0.40832499 11:-0.332057 12:-0.034899998 14:-0.189715 15:-0.21397699 16:0.60096502 17:-0.33521399 18:0.474103 19:2.247391 21:0.84106398 25:-0.259592 27:-0.225205 28:-0.18276601 29:-0.150461 30:-0.189439 31:-0.120054 33:-0.133763 34:-0.1311 35:-0.191397 36:-0.22950201 38:-0.063603997 39:-0.157189 40:-0.183598 42:-0.139154 43:-0.159254 45:0.206395 46:-0.215674 47:-0.079241998 48:-0.101023 49:-0.14805999 50:-0.197777 51:-0.150841 52:-0.076358996 53:-0.034302 55:-0.12707099 56:-0.38723099 57:-0.38725701 #
0.5 1:-0.348299 3:-0.62200397 4:-0.045352999 5:-0.48666501 6:-0.35563499 7:-0.31764501 8:-0.27120501 9:-0.354184 10:-0.40832499 11:-0.332057 12:-0.66384602 14:-0.189715 15:-0.21397699 16:-0.303601 17:-0.33521399 18:-0.362865 19:-1.03152 21:-0.76167101 25:-0.259592 27:-0.225205 28:-0.18276601 29:-0.150461 30:-0.189439 31:-0.120054 33:-0.133763 34:-0.1311 35:-0.191397 36:-0.22950201 38:-0.063603997 39:-0.157189 40:-0.183598 42:-0.139154 43:-0.159254 45:-0.29318199 46:-0.215674 47:-0.079241998 48:-0.101023 49:-0.14805999 50:1.205446 51:5.5155082 52:-0.127873 53:-0.34537601 55:-0.0106 56:-0.11665 57:-0.128117 #
-0.5 1:-0.348299 3:-0.62200397 4:-0.045352999 5:-0.48666501 6:-0.35563499 7:-0.31764501 8:-0.27120501 9:-0.354184 10:-0.40832499 11:-0.332057 12:-0.66384602 14:-0.189715 15:-0.21397699 16:-0.303601 17:-0.33521399 18:-0.362865 19:-1.03152 21:-0.76167101 25:-0.259592 27:-0.225205 28:-0.18276601 29:-0.150461 30:-0.189439 31:-0.120054 33:-0.133763 34:-0.1311 35:-0.191397 36:-0.22950201 38:-0.063603997 39:-0.157189 40:-0.183598 42:-0.139154 43:-0.159254 45:-0.29318199 46:-0.215674 47:-0.079241998 48:-0.101023 49:-0.14805999 50:-0.615345 51:-0.150841 52:-0.459032 53:-0.34537601 55:-0.091167003 56:-0.364039 57:-0.39624399 #
0.5 1:-0.348299 3:-0.62200397 4:-0.045352999 5:0.064198002 6:0.893848 7:0.542467 8:0.60267401 9:-0.354184 10:-0.40832499 11:1.426879 12:-0.66384602 14:-0.189715 15:-0.21397699 16:0.054455999 17:-0.33521399 18:-0.362865 19:0.910909 21:1.14002 25:-0.259592 27:-0.225205 28:-0.18276601 29:-0.150461 30:-0.189439 31:-0.120054 33:-0.133763 34:-0.1311 35:-0.191397 36:-0.22950201 38:-0.063603997 39:-0.157189 40:-0.183598 42:-0.139154 43:-0.159254 45:0.102316 46:-0.215674 47:-0.079241998 48:-0.101023 49:-0.14805999 50:-0.615345 51:-0.150841 52:-0.28094199 53:-0.34537601 55:-0.097469002 56:-0.32538399 57:-0.288394 #
-0.5 1:-0.348299 3:-0.62200397 4:-0.045352999 5:-0.48666501 6:-0.35563499 7:-0.31764501 8:-0.27120501 9:-0.354184 10:-0.40832499 11:-0.332057 12:2.4546771 14:-0.189715 15:-0.21397699 16:-0.303601 17:-0.33521399 18:-0.362865 19:0.31628799 21:1.214759 25:1.594215 27:-0.225205 28:-0.18276601 29:-0.150461 30:-0.189439 31:-0.120054 33:-0.133763 34:-0.1311 35:-0.191397 36:-0.22950201 38:-0.063603997 39:-0.157189 40:-0.183598 42:-0.139154 43:-0.159254 45:-0.29318199 46:-0.215674 47:-0.079241998 48:-0.101023 49:-0.14805999 50:1.346254 51:-0.150841 52:0.73166901 53:2.580889 55:-0.069188997 56:-0.33311501 57:-0.403734 #
-0.5 1:-0.348299 3:-0.62200397 4:-0.045352999 5:0.38311899 6:-0.35563499 7:-0.31764501 8:0.188731 9:-0.354184 10:-0.099212997 11:-0.332057 12:-0.66384602 14:-0.189715 15:-0.21397699 16:1.39246 17:-0.33521399 18:3.4732349 19:-0.012169 21:1.5718451 25:-0.259592 27:-0.225205 28:-0.18276601 29:-0.150461 30:-0.189439 31:-0.120054 33:-0.133763 34:-0.1311 35:-0.191397 36:-0.22950201 38:-0.063603997 39:-0.157189 40:-0.183598 42:-0.139154 43:-0.159254 45:-0.085024998 46:0.0072550001 47:-0.079241998 48:-0.101023 49:-0.14805999 50:-0.615345 51:-0.150841 52:-0.37072301 53:-0.34537601 55:-0.083021998 56:-0.085726 57:-0.10415 #
0.5 1:-0.348299 3:3.652724 4:-0.045352999 5:1.06445 6:-0.35563499 7:-0.31764501 8:-0.27120501 9:-0.354184 10:-0.40832499 11:-0.332057 12:-0.66384602 14:-0.189715 15:-0.21397699 16:-0.303601 17:-0.33521399 18:-0.362865 19:-0.42557299 21:0.126892 25:-0.259592 27:-0.225205 28:-0.18276601 29:-0.150461 30:-0.189439 31:-0.120054 33:-0.133763 34:-0.1311 35:-0.191397 36:-0.22950201 38:-0.063603997 39:-0.157189 40:-0.183598 42:-0.139154 43:-0.159254 45:-0.29318199 46:-0.215674 47:-0.079241998 48:-0.101023 49:-0.14805999 50:-0.615345 51:-0.150841 52:-0.176443 53:-0.34537601 55:-0.089691997 56:-0.27126801 57:-0.37077901 #
0.5 1:0.52389199 3:0.193177 4:-0.045352999 5:-0.48666501 6:-0.35563499 7:-0.023396 8:0.027752999 9:-0.354184 10:-0.40832499 11:-0.332057 12:-0.12662201 14:-0.189715 15:-0.21397699 16:-0.303601 17:-0.33521399 18:0.352045 19:-0.640769 21:-0.53745401 25:-0.259592 27:-0.225205 28:-0.18276601 29:-0.150461 30:-0.189439 31:-0.120054 33:-0.133763 34:-0.1311 35:-0.191397 36:0.62062001 38:-0.063603997 39:-0.157189 40:-0.183598 42:-0.139154 43:-0.159254 45:-0.29318199 46:-0.215674 47:-0.079241998 48:-0.101023 49:-0.14805999 50:0.030429 51:-0.150841 52:-0.459032 53:-0.34537601 55:-0.114345 56:-0.26353699 57:-0.228477 #
-0.5 1:-0.348299 3:1.306594 4:-0.045352999 5:-0.48666501 6:-0.35563499 7:-0.31764501 8:-0.27120501 9:-0.354184 10:1.09087 11:-0.332057 12:-0.66384602 14:-0.189715 15:-0.21397699 16:-0.303601 17:-0.33521399 18:-0.362865 19:0.61642998 21:0.043848 25:-0.259592 27:-0.225205 28:-0.18276601 29:-0.150461 30:-0.189439 31:-0.120054 33:-0.133763 34:-0.1311 35:-0.191397 36:-0.22950201 38:-0.063603997 39:-0.157189 40:-0.183598 42:-0.139154 43:-0.159254 45:-0.29318199 46:-0.215674 47:-0.079241998 48:-0.101023 49:-0.14805999 50:-0.615345 51:-0.150841 52:-0.459032 53:-0.34537601 55:-0.108719 56:-0.37176999 57:-0.426202 #
-0.5 1:-0.348299 3:-0.62200397 4:-0.045352999 5:-0.48666501 6:-0.35563499 7:3.711302 8:-0.27120501 9:-0.354184 10:-0.40832499 11:-0.332057 12:1.6684951 14:-0.189715 15:-0.21397699 16:-0.303601 17:-0.33521399 18:-0.362865 19:0.990192 21:-0.76167101 25:-0.259592 27:-0.225205 28:-0.18276601 29:-0.150461 30:4.2994728 31:-0.120054 33:-0.133763 34:-0.1311 35:-0.191397 36:5.3750048 38:-0.063603997 39:-0.157189 40:-0.183598 42:-0.139154 43:-0.159254 45:-0.29318199 46:-0.215674 47:-0.079241998 48:-0.101023 49:-0.14805999 50:-0.615345 51:-0.150841 52:0.40345401 53:-0.34537601 55:-0.12123 56:-0.38723099 57:-0.418713 #
0.5 1:-0.348299 3:0.49141401 4:-0.045352999 5:1.136932 6:-0.35563499 7:-0.31764501 8:-0.27120501 9:-0.354184 10:-0.40832499 11:-0.332057 12:-0.66384602 14:-0.189715 15:0.38551801 16:-0.303601 17:0.50537097 18:0.282298 19:0.769333 21:0.010631 25:-0.259592 27:-0.225205 28:-0.18276601 29:-0.150461 30:-0.189439 31:-0.120054 33:-0.133763 34:-0.1311 35:-0.191397 36:-0.22950201 38:-0.063603997 39:-0.157189 40:-0.183598 42:-0.139154 43:-0.159254 45:-0.29318199 46:-0.215674 47:-0.079241998 48:-0.101023 49:-0.14805999 50:0.30233401 51:-0.150841 52:0.19004001 53:-0.34537601 55:-0.119232 56:-0.38723099 57:-0.33932301 #
0.5 1:-0.348299 3:-0.62200397 4:-0.045352999 5:-0.48666501 6:1.617233 7:-0.31764501 8:-0.27120501 9:-0.354184 10:1.461804 11:-0.332057 12:-0.66384602 14:-0.189715 15:-0.21397699 16:0.26175299 17:-0.33521399 18:-0.362865 19:-0.34628999 21:-0.76167101 25:-0.259592 27:-0.225205 28:-0.18276601 29:-0.150461 30:-0.189439 31:-0.120054 33:-0.133763 34:-0.1311 35:-0.191397 36:-0.22950201 38:-0.063603997 39:-0.157189 40:-0.183598 42:-0.139154 43:-0.159254 45:-0.29318199 46:-0.215674 47:-0.079241998 48:-0.101023 49:0.54895002 50:1.899774 51:4.3174801 52:-0.0027679999 53:-0.34537601 55:-0.010877 56:-0.28672999 57:-0.158075 #
-0.077814054907284713191728542369674 1:6.1123791 3:-0.62200397 4:-0.045352999 5:-0.48666501 6:-0.35563499 7:-0.31764501 8:-0.27120501 9:-0.354184 10:-0.40832499 11:8.9255009 12:1.956762 14:-0.189715 15:-0.21397699 16:-0.303601 17:-0.33521399 18:-0.362865 19:0.101092 21:5.8817911 25:-0.259592 27:-0.225205 28:-0.18276601 29:-0.150461 30:-0.189439 31:-0.120054 33:-0.133763 34:-0.1311 35:-0.191397 36:-0.22950201 38:-0.063603997 39:-0.157189 40:-0.183598 42:-0.139154 43:-0.159254 45:-0.29318199 46:-0.215674 47:-0.079241998 48:-0.101023 49:-0.14805999 50:-0.615345 51:-0.150841 52:-0.459032 53:-0.34537601 55:0.019586001 56:-0.193959 57:-0.364788 #
0.33498812303126035416767081187572 1:1.816028 3:0.71012098 4:-0.045352999 5:3.4273651 6:-0.35563499 7:-0.31764501 8:-0.27120501 9:-0.354184 10:-0.40832499 11:-0.332057 12:-0.66384602 14:-0.189715 15:-0.21397699 16:-0.303601 17:1.186927 18:0.80540198 19:1.262019 21:0.359413 25:-0.259592 27:-0.225205 28:-0.18276601 29:-0.150461 30:-0.189439 31:-0.120054 33:-0.133763 34:-0.1311 35:-0.191397 36:-0.22950201 38:-0.063603997 39:-0.157189 40:-0.183598 42:-0.139154 43:-0.159254 45:-0.29318199 46:-0.215674 47:-0.079241998 48:-0.101023 49:-0.14805999 50:-0.615345 51:-0.150841 52:-0.16466799 53:-0.34537601 55:-0.1287 56:-0.39496201 57:-0.39474601 #
-0.5 1:-0.348299 3:2.9767201 4:-0.045352999 5:2.4271131 6:-0.35563499 7:-0.31764501 8:-0.27120501 9:-0.354184 10:-0.40832499 11:0.59369898 12:-0.66384602 14:-0.189715 15:-0.21397699 16:0.073302001 17:-0.33521399 18:-0.014128 19:1.018507 21:-0.097324997 25:-0.259592 27:-0.225205 28:-0.18276601 29:-0.150461 30:-0.189439 31:-0.120054 33:-0.133763 34:-0.1311 35:-0.191397 36:-0.22950201 38:-0.063603997 39:-0.157189 40:-0.183598 42:-0.139154 43:-0.159254 45:0.123132 46:-0.215674 47:-0.079241998 48:-0.101023 49:-0.14805999 50:-0.615345 51:-0.150841 52:-0.016015001 53:-0.34537601 55:-0.112961 56:-0.28672999 57:-0.19851901 #
-0.5 1:-0.348299 3:1.8633029 4:-0.045352999 5:0.412112 6:-0.35563499 7:-0.31764501 8:-0.27120501 9:-0.354184 10:-0.40832499 11:-0.332057 12:0.97403401 14:-0.189715 15:-0.21397699 16:1.46784 17:-0.33521399 18:-0.362865 19:1.4602261 21:-0.76167101 25:-0.259592 27:-0.225205 28:-0.18276601 29:-0.150461 30:-0.189439 31:-0.120054 33:-0.133763 34:-0.1311 35:-0.191397 36:-0.22950201 38:-0.063603997 39:-0.157189 40:-0.183598 42:-0.139154 43:-0.159254 45:-0.29318199 46:-0.215674 47:-0.079241998 48:-0.101023 49:-0.14805999 50:0.97238499 51:-0.150841 52:-0.459032 53:0.048891999 55:-0.108996 56:-0.34857699 57:-0.35729799 #
0.5 1:-0.348299 3:-0.62200397 4:-0.045352999 5:-0.48666501 6:-0.35563499 7:-0.31764501 8:-0.27120501 9:-0.354184 10:-0.40832499 11:-0.332057 12:-0.66384602 14:-0.189715 15:-0.21397699 16:-0.303601 17:-0.33521399 18:-0.362865 19:-1.03152 21:-0.76167101 25:-0.259592 27:-0.225205 28:-0.18276601 29:-0.150461 30:-0.189439 31:-0.120054 33:-0.133763 34:-0.1311 35:-0.191397 36:-0.22950201 38:-0.063603997 39:-0.157189 40:-0.183598 42:-0.139154 43:-0.159254 45:-0.29318199 46:-0.215674 47:-0.079241998 48:-0.101023 49:-0.14805999 50:-0.615345 51:-0.150841 52:1.620648 53:-0.34537601 55:-0.037005 56:-0.24807499 57:-0.316854 #
-0.5 1:-0.348299 3:-0.62200397 4:-0.045352999 5:-0.48666501 6:-0.35563499 7:-0.31764501 8:-0.27120501 9:-0.354184 10:2.620976 11:-0.332057 12:-0.66384602 14:-0.189715 15:-0.21397699 16:-0.303601 17:-0.33521399 18:3.0547509 19:0.078438997 21:-0.76167101 25:-0.259592 27:-0.225205 28:3.8661981 29:-0.150461 30:-0.189439 31:-0.120054 33:-0.133763 34:-0.1311 35:-0.191397 36:-0.22950201 38:-0.063603997 39:-0.157189 40:-0.183598 42:-0.139154 43:-0.159254 45:-0.29318199 46:-0.215674 47:-0.079241998 48:-0.101023 49:-0.14805999 50:1.195735 51:-0.150841 52:-0.459032 53:-0.34537601 55:-0.104324 56:-0.33311501 57:-0.40523201 #
-0.5 1:-0.348299 3:3.0562501 4:-0.045352999 5:-0.48666501 6:-0.35563499 7:-0.31764501 8:-0.27120501 9:-0.354184 10:2.450964 11:-0.332057 12:1.760216 14:-0.189715 15:-0.21397699 16:-0.303601 17:-0.33521399 18:-0.362865 19:2.1114781 21:-0.76167101 25:-0.259592 27:-0.225205 28:-0.18276601 29:-0.150461 30:-0.189439 31:-0.120054 33:-0.133763 34:-0.1311 35:-0.191397 36:-0.22950201 38:-0.063603997 39:-0.157189 40:-0.183598 42:-0.139154 43:-0.159254 45:-0.29318199 46:-0.215674 47:-0.079241998 48:-0.101023 49:-0.14805999 50:-0.615345 51:-0.150841 52:0.55946702 53:-0.34537601 55:-0.10832 56:-0.3795 57:-0.41571701 #
-0.5 1:-0.348299 3:-0.62200397 4:-0.045352999 5:-0.48666501 6:-0.35563499 7:-0.31764501 8:-0.27120501 9:-0.354184 10:-0.40832499 11:-0.332057 12:-0.66384602 14:-0.189715 15:-0.21397699 16:-0.303601 17:-0.33521399 18:-0.362865 19:5.260139 21:-0.76167101 25:-0.259592 27:-0.225205 28:-0.18276601 29:-0.150461 30:-0.189439 31:-0.120054 33:-0.133763 34:-0.1311 35:-0.191397 36:-0.22950201 38:-0.063603997 39:-0.157189 40:-0.183598 42:-0.139154 43:-0.159254 45:-0.29318199 46:-0.215674 47:-0.079241998 48:-0.101023 49:-0.14805999 50:-0.615345 51:-0.150841 52:-0.459032 53:-0.34537601 55:-0.122982 56:-0.402693 57:-0.43668801 #
0.5 1:-0.348299 3:2.9369559 4:-0.045352999 5:-0.48666501 6:1.584352 7:-0.31764501 8:1.0856071 9:-0.354184 10:-0.40832499 11:-0.332057 12:-0.66384602 14:-0.189715 15:-0.21397699 16:-0.303601 17:-0.33521399 18:-0.362865 19:-1.03152 21:-0.76167101 25:-0.259592 27:-0.225205 28:-0.18276601 29:-0.150461 30:-0.189439 31:-0.120054 33:-0.133763 34:-0.1311 35:-0.191397 36:-0.22950201 38:-0.063603997 39:-0.157189 40:3.979821 42:-0.139154 43:-0.159254 45:-0.29318199 46:-0.215674 47:-0.079241998 48:-0.101023 49:-0.14805999 50:-0.615345 51:-0.150841 52:-0.459032 53:-0.34537601 55:-0.096762002 56:-0.340846 57:-0.138602 #
0.5 1:-0.348299 3:1.2469471 4:-0.045352999 5:-0.48666501 6:-0.35563499 7:-0.31764501 8:-0.27120501 9:-0.354184 10:-0.40832499 11:-0.332057 12:-0.66384602 14:-0.189715 15:-0.21397699 16:0.139259 17:-0.33521399 18:-0.362865 19:-1.03152 21:-0.37136799 25:-0.259592 27:-0.225205 28:1.759084 29:0.93901098 30:-0.189439 31:-0.120054 33:-0.133763 34:-0.1311 35:-0.191397 36:-0.22950201 38:-0.063603997 39:1.243883 40:-0.183598 42:-0.139154 43:-0.159254 45:-0.29318199 46:0.83209002 47:-0.079241998 48:-0.101023 49:-0.14805999 50:0.99666202 51:-0.150841 52:-0.459032 53:-0.34537601 55:-0.114744 56:-0.30219099 57:-0.203013 #
0.5 1:-0.348299 3:-0.62200397 4:-0.045352999 5:-0.153248 6:-0.35563499 7:-0.31764501 8:-0.27120501 9:-0.354184 10:-0.40832499 11:-0.332057 12:0.55473602 14:-0.189715 15:-0.21397699 16:-0.199953 17:-0.33521399 18:-0.17106 19:-0.83331299 21:-0.57067198 25:-0.259592 27:-0.225205 28:0.54026401 29:0.104522 30:0.087966003 31:-0.120054 33:-0.133763 34:-0.1311 35:-0.191397 36:1.5966851 38:0.39481699 39:-0.157189 40:-0.183598 42:0.33568099 43:-0.159254 45:-0.29318199 46:0.29706201 47:1.040758 48:0.28272799 49:-0.14805999 50:1.234578 51:-0.150841 52:-0.43548301 53:-0.34537601 55:-0.085481003 56:-0.101188 57:0.31077299 #
0.5 1:-0.348299 3:1.883185 4:-0.045352999 5:-0.48666501 6:-0.35563499 7:-0.31764501 8:-0.27120501 9:-0.354184 10:-0.40832499 11:-0.332057 12:2.6512229 14:-0.189715 15:-0.21397699 16:-0.303601 17:-0.33521399 18:-0.362865 19:0.401234 21:3.4403181 25:-0.259592 27:-0.225205 28:-0.18276601 29:-0.150461 30:-0.189439 31:-0.120054 33:-0.133763 34:-0.1311 35:-0.191397 36:-0.22950201 38:-0.063603997 39:-0.157189 40:-0.183598 42:-0.139154 43:-0.159254 45:-0.29318199 46:-0.215674 47:-0.079241998 48:-0.101023 49:-0.14805999 50:-0.615345 51:-0.150841 52:-0.459032 53:-0.34537601 55:-0.049454 56:-0.35630801 57:-0.36778399 #
0.5 1:-0.348299 3:-0.62200397 4:-0.045352999 5:-0.48666501 6:-0.35563499 7:-0.31764501 8:-0.27120501 9:-0.354184 10:-0.40832499 11:-0.332057 12:-0.66384602 14:-0.189715 15:-0.21397699 16:-0.303601 17:-0.33521399 18:-0.362865 19:2.2983589 21:4.121273 25:-0.259592 27:-0.225205 28:-0.18276601 29:-0.150461 30:-0.189439 31:-0.120054 33:-0.133763 34:-0.1311 35:-0.191397 36:-0.22950201 38:-0.063603997 39:-0.157189 40:-0.183598 42:-0.139154 43:-0.159254 45:-0.29318199 46:-0.215674 47:-0.079241998 48:-0.101023 49:-0.14805999 50:-0.615345 51:-0.150841 52:-0.459032 53:-0.34537601 55:-0.115298 56:-0.38723099 57:-0.43069601 #
0.5 1:-0.348299 3:-0.62200397 4:-0.045352999 5:-0.48666501 6:-0.35563499 7:-0.31764501 8:-0.27120501 9:-0.354184 10:1.4308929 11:-0.332057 12:-0.66384602 14:-0.189715 15:-0.21397699 16:0.81768399 17:-0.33521399 18:-0.362865 19:0.990192 21:2.2029741 25:0.66731101 27:-0.225205 28:-0.18276601 29:-0.150461 30:-0.189439 31:-0.120054 33:-0.133763 34:-0.1311 35:-0.191397 36:-0.22950201 38:-0.063603997 39:-0.157189 40:-0.183598 42:-0.139154 43:-0.159254 45:0.94535202 46:-0.215674 47:-0.079241998 48:-0.101023 49:-0.14805999 50:-0.615345 51:-0.150841 52:-0.15878101 53:-0.34537601 55:0.104057 56:-0.101188 57:-0.301875 #
0.5 1:-0.348299 3:-0.62200397 4:-0.045352999 5:-0.48666501 6:-0.35563499 7:-0.31764501 8:-0.27120501 9:-0.354184 10:-0.40832499 11:-0.332057 12:-0.66384602 14:-0.189715 15:-0.21397699 16:-0.303601 17:-0.33521399 18:-0.362865 19:0.79198498 21:-0.76167101 25:-0.259592 27:-0.225205 28:-0.18276601 29:-0.150461 30:-0.189439 31:-0.120054 33:-0.133763 34:-0.1311 35:-0.191397 36:-0.22950201 38:-0.063603997 39:-0.157189 40:-0.183598 42:-0.139154 43:-0.159254 45:-0.29318199 46:-0.215674 47:-0.079241998 48:-0.101023 49:-0.14805999 50:-0.615345 51:-0.150841 52:0.34458101 53:-0.34537601 55:-0.090705998 56:-0.34857699 57:-0.40972501 #
0.5 1:-0.348299 3:-0.62200397 4:-0.045352999 5:-0.31270799 6:-0.35563499 7:-0.31764501 8:-0.27120501 9:-0.354184 10:-0.40832499 11:-0.332057 12:0.59404498 14:-0.189715 15:-0.21397699 16:-0.19053 17:-0.062592 18:-0.153623 19:-0.96356302 21:-0.66201901 25:-0.259592 27:-0.225205 28:0.31302601 29:0.127702 30:0.113185 31:-0.120054 33:-0.133763 34:-0.1311 35:-0.191397 36:1.659657 38:0.436492 39:-0.157189 40:-0.183598 42:0.34924701 43:-0.159254 45:-0.16828801 46:0.185597 47:-0.079241998 48:-0.101023 49:-0.14805999 50:1.093771 51:-0.150841 52:-0.459032 53:-0.34537601 55:-0.089569002 56:-0.101188 57:0.312271 #
-0.5 1:6.1123791 3:-0.62200397 4:-0.045352999 5:-0.48666501 6:-0.35563499 7:-0.31764501 8:-0.27120501 9:-0.354184 10:-0.40832499 11:8.9255009 12:1.956762 14:-0.189715 15:-0.21397699 16:-0.303601 17:-0.33521399 18:-0.362865 19:0.101092 21:5.8817911 25:-0.259592 27:-0.225205 28:-0.18276601 29:-0.150461 30:-0.189439 31:-0.120054 33:-0.133763 34:-0.1311 35:-0.191397 36:-0.22950201 38:-0.063603997 39:-0.157189 40:-0.183598 42:-0.139154 43:-0.159254 45:-0.29318199 46:-0.215674 47:-0.079241998 48:-0.101023 49:-0.14805999 50:-0.615345 51:-0.150841 52:-0.459032 53:-0.34537601 55:0.019586001 56:-0.193959 57:-0.364788 #
-0.5 1:-0.348299 3:-0.62200397 4:-0.045352999 5:-0.48666501 6:-0.35563499 7:-0.31764501 8:-0.27120501 9:-0.354184 10:0.48810101 11:-0.332057 12:2.3891621 14:-0.189715 15:-0.21397699 16:0.242908 17:-0.33521399 18:-0.362865 19:-0.040484998 21:2.1448431 25:-0.259592 27:-0.225205 28:-0.18276601 29:-0.150461 30:-0.189439 31:-0.120054 33:-0.133763 34:-0.1311 35:-0.191397 36:-0.22950201 38:-0.063603997 39:-0.157189 40:-0.183598 42:-0.139154 43:-0.159254 45:-0.29318199 46:-0.215674 47:-0.079241998 48:-0.101023 49:-0.14805999 50:0.33146599 51:-0.150841 52:-0.316266 53:-0.34537601 55:-0.095101997 56:-0.33311501 57:-0.382763 #
-0.050955500571336097281882615561699 1:-0.348299 3:-0.62200397 4:-0.045352999 5:-0.48666501 6:-0.35563499 7:-0.31764501 8:-0.27120501 9:-0.354184 10:-0.40832499 11:-0.332057 12:-0.66384602 14:-0.189715 15:-0.21397699 16:-0.303601 17:-0.33521399 18:-0.362865 19:-1.03152 21:-0.76167101 25:-0.259592 27:-0.225205 28:-0.18276601 29:-0.150461 30:-0.189439 31:-0.120054 33:-0.133763 34:-0.1311 35:-0.191397 36:-0.22950201 38:-0.063603997 39:-0.157189 40:-0.183598 42:-0.139154 43:-0.159254 45:-0.29318199 46:-0.215674 47:-0.079241998 48:-0.101023 49:-0.14805999 50:-0.615345 51:12.54178 52:-0.459032 53:-0.34537601 55:-0.095563002 56:-0.35630801 57:-0.421709 #
0.5 1:-0.348299 3:-0.62200397 4:-0.045352999 5:0.165673 6:1.124016 7:0.70090902 8:-0.27120501 9:-0.354184 10:-0.40832499 11:-0.332057 12:-0.074210003 14:-0.189715 15:-0.21397699 16:-0.303601 17:-0.33521399 18:-0.362865 19:-0.52184498 21:-0.76167101 25:-0.259592 27:-0.225205 28:-0.18276601 29:-0.150461 30:-0.189439 31:-0.120054 33:-0.133763 34:-0.1311 35:-0.191397 36:-0.22950201 38:-0.063603997 39:-0.157189 40:-0.183598 42:-0.139154 43:-0.159254 45:-0.29318199 46:-0.215674 47:-0.079241998 48:-0.101023 49:-0.14805999 50:-0.615345 51:-0.150841 52:-0.35306099 53:-0.34537601 55:0.080110997 56:-0.070265003 57:0.21490601 #
-0.5 1:-0.348299 3:-0.62200397 4:-0.045352999 5:0.38311899 6:-0.35563499 7:-0.31764501 8:0.188731 9:-0.354184 10:-0.099212997 11:-0.332057 12:-0.66384602 14:-0.189715 15:-0.21397699 16:1.39246 17:-0.33521399 18:3.4732349 19:-0.012169 21:1.5718451 25:-0.259592 27:-0.225205 28:-0.18276601 29:-0.150461 30:-0.189439 31:-0.120054 33:-0.133763 34:-0.1311 35:-0.191397 36:-0.22950201 38:-0.063603997 39:-0.157189 40:-0.183598 42:-0.139154 43:-0.159254 45:-0.085024998 46:0.0072550001 47:-0.079241998 48:-0.101023 49:-0.14805999 50:-0.615345 51:-0.150841 52:-0.37072301 53:-0.34537601 55:-0.083544001 56:-0.085726 57:-0.102652 #
-0.5 1:-0.348299 3:3.1158979 4:-0.045352999 5:0.87599701 6:-0.35563499 7:-0.31764501 8:-0.27120501 9:-0.354184 10:-0.40832499 11:-0.332057 12:-0.66384602 14:-0.189715 15:-0.21397699 16:-0.303601 17:-0.33521399 18:-0.362865 19:0.57112598 21:-0.76167101 25:-0.259592 27:-0.225205 28:-0.18276601 29:-0.150461 30:-0.189439 31:-0.120054 33:-0.133763 34:-0.1311 35:-0.191397 36:-0.22950201 38:-0.063603997 39:-0.157189 40:-0.183598 42:-0.139154 43:-0.159254 45:0.68515599 46:-0.215674 47:-0.079241998 48:-0.101023 49:-0.14805999 50:-0.615345 51:-0.150841 52:0.65366298 53:-0.34537601 55:-0.130667 56:-0.41042399 57:-0.41122299 #
0.5 1:-0.348299 3:1.266829 4:-0.045352999 5:-0.48666501 6:-0.35563499 7:-0.31764501 8:-0.27120501 9:-0.354184 10:-0.40832499 11:-0.332057 12:-0.66384602 14:-0.189715 15:-0.21397699 16:-0.303601 17:-0.33521399 18:-0.362865 19:-0.765356 21:0.81615102 25:-0.259592 27:-0.225205 28:-0.18276601 29:-0.150461 30:-0.189439 31:-0.120054 33:-0.133763 34:-0.1311 35:-0.191397 36:-0.22950201 38:-0.063603997 39:-0.157189 40:-0.183598 42:-0.139154 43:-0.159254 45:-0.29318199 46:-0.215674 47:-0.079241998 48:-0.101023 49:0.074175 50:0.35574299 51:-0.150841 52:-0.066056997 53:-0.34537601 55:-0.032917 56:-0.070265003 57:0.25085601 #
-0.5 1:-0.348299 3:0.113647 4:-0.045352999 5:-0.356197 6:-0.059705 7:-0.31764501 8:0.57967699 9:-0.354184 10:-0.40832499 11:-0.332057 12:-0.29696101 14:-0.189715 15:-0.21397699 16:0.487894 17:-0.13074701 18:0.61359698 19:0.50883198 21:1.032063 25:-0.259592 27:-0.225205 28:-0.18276601 29:-0.150461 30:-0.189439 31:-0.120054 33:-0.133763 34:-0.1311 35:-0.191397 36:-0.22950201 38:-0.063603997 39:-0.157189 40:-0.183598 42:-0.139154 43:-0.159254 45:-0.105841 46:-0.215674 47:-0.079241998 48:-0.101023 49:-0.14805999 50:-0.34344 51:-0.150841 52:-0.250034 53:-0.088559002 55:-0.101957 56:-0.27126801 57:0.12952501 #
0.5 1:-0.348299 3:-0.62200397 4:-0.045352999 5:-0.48666501 6:-0.35563499 7:-0.31764501 8:-0.27120501 9:-0.354184 10:-0.40832499 11:-0.332057 12:-0.66384602 14:-0.189715 15:-0.21397699 16:-0.303601 17:-0.33521399 18:-0.362865 19:2.677784 21:0.59193403 25:-0.259592 27:-0.225205 28:-0.18276601 29:-0.150461 30:-0.189439 31:-0.120054 33:-0.133763 34:-0.1311 35:-0.191397 36:-0.22950201 38:-0.063603997 39:-0.157189 40:-0.183598 42:-0.139154 43:-0.159254 45:-0.29318199 46:-0.215674 47:-0.079241998 48:-0.101023 49:-0.14805999 50:-0.615345 51:-0.150841 52:-0.459032 53:-0.34537601 55:-0.130667 56:-0.41042399 57:-0.424705 #
0.5 1:-0.348299 3:-0.62200397 4:-0.045352999 5:-0.48666501 6:-0.35563499 7:-0.31764501 8:-0.27120501 9:-0.354184 10:-0.40832499 11:-0.332057 12:-0.66384602 14:-0.189715 15:-0.21397699 16:-0.303601 17:-0.33521399 18:-0.362865 19:-1.03152 21:-0.76167101 25:-0.259592 27:-0.225205 28:-0.18276601 29:-0.150461 30:-0.189439 31:-0.120054 33:-0.133763 34:-0.1311 35:-0.191397 36:3.9581349 38:-0.063603997 39:-0.157189 40:-0.183598 42:-0.139154 43:-0.159254 45:1.0910619 46:-0.215674 47:-0.079241998 48:-0.101023 49:-0.14805999 50:0.41886401 51:-0.150841 52:0.167963 53:0.42507499 55:-0.020005999 56:-0.240344 57:-0.340821 #
-0.5 1:0.007038 3:-0.40329701 4:-0.045352999 5:-0.48666501 6:-0.35563499 7:-0.31764501 8:-0.27120501 9:3.6766889 10:-0.40832499 11:-0.332057 12:-0.218343 14:-0.189715 15:-0.21397699 16:-0.303601 17:-0.33521399 18:-0.362865 19:-0.77101898 21:-0.57067198 25:0.184387 27:-0.194102 28:-0.18276601 29:-0.150461 30:-0.189439 31:-0.120054 33:0.40745199 34:-0.1311 35:-0.191397 36:0.116844 38:-0.063603997 39:-0.157189 40:-0.183598 42:-0.139154 43:-0.159254 45:-0.29318199 46:-0.215674 47:-0.079241998 48:-0.101023 49:0.010198 50:0.15667 51:0.183744 52:-0.459032 53:-0.233245 55:-0.063164003 56:-0.170766 57:0.312271 #
-0.5 1:-0.348299 3:-0.62200397 4:-0.045352999 5:0.499091 6:-0.35563499 7:1.221503 8:-0.27120501 9:-0.354184 10:0.117166 11:1.2417279 12:-0.66384602 14:-0.189715 15:-0.21397699 16:0.016766001 17:-0.33521399 18:2.0085421 19:0.90524602 21:1.50541 25:0.0052370001 27:-0.225205 28:-0.18276601 29:-0.150461 30:-0.189439 31:-0.120054 33:0.40745199 34:-0.1311 35:-0.191397 36:-0.22950201 38:-0.063603997 39:-0.157189 40:-0.183598 42:-0.139154 43:-0.159254 45:-0.29318199 46:-0.215674 47:-0.079241998 48:-0.101023 49:-0.14805999 50:-0.615345 51:-0.150841 52:-0.388385 53:-0.171753 55:-0.118033 56:-0.30219099 57:-0.30037701 #
0.5 1:3.6250179 3:-0.62200397 4:-0.045352999 5:-0.48666501 6:-0.35563499 7:-0.31764501 8:-0.27120501 9:-0.354184 10:-0.40832499 11:-0.332057 12:2.5595019 14:-0.189715 15:-0.21397699 16:-0.303601 17:-0.33521399 18:-0.362865 19:2.4625881 21:1.281193 25:-0.259592 27:-0.225205 28:-0.18276601 29:-0.150461 30:-0.189439 31:-0.120054 33:-0.133763 34:-0.1311 35:-0.191397 36:-0.22950201 38:-0.063603997 39:-0.157189 40:-0.183598 42:-0.139154 43:-0.159254 45:-0.29318199 46:-0.215674 47:-0.079241998 48:-0.101023 49:-0.14805999 50:-0.615345 51:-0.150841 52:0.78171098 53:-0.34537601 55:-0.099927999 56:-0.27126801 57:-0.28539801 #
-0.5 1:-0.348299 3:-0.62200397 4:-0.045352999 5:-0.48666501 6:-0.35563499 7:-0.31764501 8:-0.27120501 9:-0.354184 10:-0.40832499 11:-0.332057 12:-0.66384602 14:-0.189715 15:-0.21397699 16:0.205217 17:0.89158601 18:-0.362865 19:-0.108441 21:-0.31323799 25:-0.259592 27:-0.225205 28:-0.18276601 29:-0.150461 30:-0.189439 31:-0.120054 33:-0.133763 34:-0.1311 35:-0.191397 36:-0.22950201 38:-0.063603997 39:-0.157189 40:-0.183598 42:-0.139154 43:-0.159254 45:-0.29318199 46:0.386233 47:-0.079241998 48:-0.101023 49:-0.14805999 50:-0.615345 51:-0.150841 52:0.139998 53:-0.34537601 55:-0.098760001 56:-0.30992201 57:-0.364788 #
0.5 1:-0.348299 3:-0.62200397 4:-0.045352999 5:-0.48666501 6:3.7545071 7:-0.31764501 8:-0.27120501 9:-0.354184 10:-0.40832499 11:-0.332057 12:-0.66384602 14:-0.189715 15:-0.21397699 16:-0.303601 17:-0.33521399 18:-0.362865 19:-0.32363799 21:-0.76167101 25:-0.259592 27:-0.225205 28:-0.18276601 29:-0.150461 30:1.374115 31:-0.120054 33:-0.133763 34:-0.1311 35:-0.191397 36:-0.22950201 38:-0.063603997 39:-0.157189 40:-0.183598 42:-0.139154 43:-0.159254 45:-0.29318199 46:-0.215674 47:-0.079241998 48:-0.101023 49:-0.14805999 50:-0.139512 51:-0.150841 52:0.117921 53:-0.34537601 55:-0.039526001 56:0.099815004 57:-0.27191699 #
-0.5 1:-0.348299 3:-0.62200397 4:-0.045352999 5:-0.48666501 6:1.288422 7:-0.31764501 8:-0.27120501 9:-0.354184 10:-0.40832499 11:-0.332057 12:-0.66384602 14:-0.189715 15:-0.21397699 16:-0.303601 17:-0.33521399 18:0.50897598 19:0.101092 21:-0.34645501 25:-0.259592 27:-0.225205 28:-0.18276601 29:-0.150461 30:-0.189439 31:-0.120054 33:-0.133763 34:-0.1311 35:-0.191397 36:-0.22950201 38:-0.063603997 39:-0.157189 40:-0.183598 42:-0.139154 43:-0.159254 45:-0.29318199 46:-0.215674 47:-0.079241998 48:-0.101023 49:-0.14805999 50:-0.615345 51:-0.150841 52:-0.060169 53:-0.34537601 55:-0.128915 56:-0.402693 57:-0.38875499 #
0.5 1:-0.348299 3:0.41188401 4:-0.045352999 5:0.26714799 6:-0.35563499 7:-0.31764501 8:-0.27120501 9:-0.354184 10:-0.40832499 11:-0.332057 12:-0.66384602 14:-0.189715 15:-0.21397699 16:0.186372 17:-0.33521399 18:-0.362865 19:-0.148083 21:-0.76167101 25:-0.259592 27:-0.225205 28:-0.18276601 29:-0.150461 30:-0.189439 31:-0.120054 33:-0.133763 34:-0.1311 35:-0.191397 36:-0.22950201 38:-0.063603997 39:-0.157189 40:-0.183598 42:-0.139154 43:-0.159254 45:-0.29318199 46:-0.215674 47:-0.079241998 48:-0.101023 49:-0.14805999 50:0.31690001 51:-0.150841 52:0.81703502 53:-0.34537601 55:-0.093165003 56:-0.26353699 57:-0.24795 #
0.5 1:-0.348299 3:-0.62200397 4:-0.045352999 5:-0.48666501 6:-0.35563499 7:-0.31764501 8:-0.27120501 9:-0.354184 10:-0.40832499 11:2.3063469 12:0.083026998 14:-0.189715 15:-0.21397699 16:-0.303601 17:-0.33521399 18:2.6537049 19:0.92789799 21:0.193326 25:-0.259592 27:-0.225205 28:-0.18276601 29:-0.150461 30:-0.189439 31:-0.120054 33:-0.133763 34:-0.1311 35:-0.191397 36:-0.22950201 38:-0.063603997 39:-0.157189 40:-0.183598 42:-0.139154 43:-0.159254 45:-0.29318199 46:-0.215674 47:-0.079241998 48:-0.101023 49:-0.14805999 50:-0.615345 51:-0.150841 52:-0.301548 53:-0.34537601 55:-0.117726 56:-0.364039 57:-0.36329001 #
-0.039454816224184216522097301549366 1:-0.348299 3:-0.62200397 4:-0.045352999 5:-0.48666501 6:-0.35563499 7:-0.31764501 8:8.8585291 9:-0.354184 10:0.61174601 11:-0.332057 12:-0.66384602 14:-0.189715 15:-0.21397699 16:-0.303601 17:-0.33521399 18:-0.362865 19:-1.03152 21:-0.76167101 25:-0.259592 27:-0.225205 28:-0.18276601 29:-0.150461 30:-0.189439 31:-0.120054 33:-0.133763 34:-0.1311 35:-0.191397 36:-0.22950201 38:-0.063603997 39:-0.157189 40:-0.183598 42:-0.139154 43:-0.159254 45:0.393736 46:1.991318 47:-0.079241998 48:-0.101023 49:0.222332 50:-0.081246004 51:-0.150841 52:-0.459032 53:-0.34537601 55:-0.073585004 56:-0.27126801 57:-0.26442701 #
0.5 1:-0.057569001 3:-0.085178003 4:-0.045352999 5:0.035206001 6:-0.059705 7:-0.31764501 8:0.142738 9:-0.038724001 10:-0.40832499 11:-0.332057 12:0.41060299 14:0.88607103 15:-0.21397699 16:-0.303601 17:-0.33521399 18:-0.362865 19:0.106755 21:2.045191 25:-0.259592 27:-0.225205 28:-0.18276601 29:-0.150461 30:-0.189439 31:-0.120054 33:-0.133763 34:-0.1311 35:-0.191397 36:-0.22950201 38:-0.063603997 39:-0.157189 40:-0.183598 42:-0.139154 43:-0.159254 45:-0.01217 46:-0.215674 47:-0.079241998 48:-0.101023 49:-0.097552001 50:-0.39199501 51:0.172951 52:-0.096965 53:-0.236862 55:-0.045488998 56:0.115277 57:0.34672299 #
-0.32987635416913030361740766238654 1:-0.348299 3:-0.065295003 4:-0.045352999 5:-0.080766 6:-0.35563499 7:-0.31764501 8:-0.27120501 9:-0.354184 10:-0.40832499 11:-0.332057 12:0.436809 14:-0.189715 15:-0.21397699 16:-0.303601 17:-0.33521399 18:-0.362865 19:-0.87295502 21:-0.76167101 25:1.056766 27:-0.225205 28:0.97408098 29:-0.150461 30:-0.189439 31:-0.120054 33:-0.133763 34:-0.1311 35:1.3952889 36:7.76794 38:-0.063603997 39:0.67749202 40:-0.183598 42:-0.139154 43:-0.159254 45:-0.29318199 46:-0.215674 47:-0.079241998 48:-0.101023 49:0.58262199 50:-0.265753 51:-0.150841 52:-0.459032 53:-0.34537601 55:-0.101527 56:0.0070440001 57:-0.158075 #
-0.5 1:-0.348299 3:-0.62200397 4:-0.045352999 5:5.0799551 6:-0.35563499 7:-0.31764501 8:-0.27120501 9:-0.354184 10:-0.40832499 11:-0.332057 12:-0.66384602 14:-0.189715 15:-0.21397699 16:-0.303601 17:-0.33521399 18:-0.362865 19:1.143095 21:-0.76167101 25:-0.259592 27:-0.225205 28:-0.18276601 29:-0.150461 30:-0.189439 31:-0.120054 33:-0.133763 34:-0.1311 35:-0.191397 36:-0.22950201 38:-0.063603997 39:-0.157189 40:-0.183598 42:-0.139154 43:-0.159254 45:-0.29318199 46:-0.215674 47:-0.079241998 48:-0.101023 49:-0.14805999 50:-0.615345 51:-0.150841 52:-0.459032 53:-0.34537601 55:-0.130667 56:-0.41042399 57:-0.43369201 #
-0.5 1:-0.348299 3:-0.62200397 4:-0.045352999 5:2.7315371 6:-0.35563499 7:-0.31764501 8:-0.27120501 9:-0.354184 10:-0.40832499 11:-0.332057 12:-0.66384602 14:-0.189715 15:-0.21397699 16:-0.303601 17:-0.33521399 18:-0.362865 19:-0.612454 21:-0.76167101 25:-0.259592 27:-0.225205 28:-0.18276601 29:-0.150461 30:-0.189439 31:-0.120054 33:-0.133763 34:-0.1311 35:-0.191397 36:2.100461 38:-0.063603997 39:-0.157189 40:-0.183598 42:-0.139154 43:-0.159254 45:-0.29318199 46:-0.215674 47:-0.079241998 48:2.4805751 49:-0.14805999 50:-0.17835499 51:-0.150841 52:-0.459032 53:-0.34537601 55:-0.119693 56:-0.37176999 57:-0.38725701 #
-0.5 1:-0.348299 3:-0.62200397 4:-0.045352999 5:-0.48666501 6:-0.35563499 7:-0.31764501 8:-0.27120501 9:-0.354184 10:-0.40832499 11:-0.332057 12:-0.66384602 14:-0.189715 15:-0.21397699 16:-0.303601 17:-0.33521399 18:-0.362865 19:-1.03152 21:-0.76167101 25:-0.259592 27:-0.225205 28:-0.18276601 29:-0.150461 30:-0.189439 31:-0.120054 33:-0.133763 34:-0.1311 35:-0.191397 36:-0.22950201 38:-0.063603997 39:-0.157189 40:-0.183598 42:-0.139154 43:-0.159254 45:-0.29318199 46:-0.215674 47:-0.079241998 48:-0.101023 49:-0.14805999 50:-0.615345 51:-0.150841 52:-0.459032 53:-0.34537601 55:-0.106076 56:-0.3795 57:-0.43069601 #
-0.5 1:-0.348299 3:0.849298 4:-0.045352999 5:-0.48666501 6:-0.35563499 7:-0.31764501 8:-0.27120501 9:-0.354184 10:0.73539102 11:-0.332057 12:-0.66384602 14:2.0216219 15:-0.21397699 16:-0.303601 17:0.50537097 18:-0.362865 19:-0.82198697 21:-0.454411 25:-0.259592 27:-0.225205 28:-0.18276601 29:-0.150461 30:-0.189439 31:-0.120054 33:-0.133763 34:-0.1311 35:-0.191397 36:-0.22950201 38:-0.063603997 39:-0.157189 40:-0.183598 42:-0.139154 43:-0.159254 45:-0.29318199 46:-0.215674 47:-0.079241998 48:-0.101023 49:-0.14805999 50:0.574238 51:-0.150841 52:-0.459032 53:-0.34537601 55:-0.017978 56:0.076622002 57:-0.15058599 #
0.5 1:-0.348299 3:-0.62200397 4:-0.045352999 5:-0.48666501 6:-0.35563499 7:-0.31764501 8:-0.27120501 9:-0.354184 10:-0.40832499 11:-0.332057 12:-0.66384602 14:1.991739 15:-0.21397699 16:-0.303601 17:-0.33521399 18:-0.362865 19:-1.03152 21:-0.76167101 25:-0.259592 27:-0.225205 28:1.325267 29:-0.150461 30:-0.189439 31:-0.120054 33:-0.133763 34:-0.1311 35:-0.191397 36:2.068975 38:-0.063603997 39:-0.157189 40:-0.183598 42:-0.139154 43:-0.159254 45:-0.29318199 46:0.185597 47:-0.079241998 48:-0.101023 49:0.55905098 50:0.40429801 51:-0.150841 52:-0.459032 53:0.034423999 55:-0.104047 56:-0.24807499 57:-0.276411 #
-0.3119038444727889602958725845383 1:-0.348299 3:-0.62200397 4:-0.045352999 5:-0.48666501 6:-0.35563499 7:-0.31764501 8:-0.27120501 9:-0.354184 10:-0.40832499 11:-0.332057 12:-0.66384602 14:2.4399829 15:-0.21397699 16:-0.303601 17:1.664017 18:1.171575 19:0.46919101 21:0.69989002 25:0.42584899 27:-0.225205 28:-0.18276601 29:-0.150461 30:-0.189439 31:-0.120054 33:-0.133763 34:-0.1311 35:-0.191397 36:-0.22950201 38:-0.063603997 39:-0.157189 40:-0.183598 42:-0.139154 43:-0.159254 45:-0.29318199 46:-0.215674 47:-0.079241998 48:-0.101023 49:-0.14805999 50:-0.615345 51:-0.150841 52:-0.459032 53:-0.34537601 55:-0.119294 56:-0.39496201 57:-0.38875499 #
0.5 1:-0.348299 3:-0.62200397 4:-0.045352999 5:-0.48666501 6:5.8260188 7:-0.31764501 8:-0.27120501 9:-0.354184 10:-0.40832499 11:-0.332057 12:-0.66384602 14:-0.189715 15:-0.21397699 16:-0.303601 17:-0.33521399 18:-0.362865 19:1.103453 21:0.79954201 25:-0.259592 27:-0.225205 28:-0.18276601 29:-0.150461 30:-0.189439 31:-0.120054 33:-0.133763 34:-0.1311 35:-0.191397 36:-0.22950201 38:-0.063603997 39:-0.157189 40:-0.183598 42:-0.139154 43:-0.159254 45:-0.29318199 46:-0.215674 47:-0.079241998 48:-0.101023 49:-0.14805999 50:-0.615345 51:-0.150841 52:-0.459032 53:-0.34537601 55:-0.090490997 56:-0.29446101 57:-0.39923999 #
0.5 1:-0.348299 3:-0.62200397 4:-0.045352999 5:-0.48666501 6:-0.35563499 7:-0.31764501 8:-0.27120501 9:-0.354184 10:-0.40832499 11:5.361341 12:0.94782799 14:-0.189715 15:-0.21397699 16:-0.303601 17:-0.33521399 18:-0.362865 19:0.36159199 21:-0.76167101 25:-0.259592 27:-0.225205 28:-0.18276601 29:-0.150461 30:-0.189439 31:-0.120054 33:-0.133763 34:-0.1311 35:-0.191397 36:-0.22950201 38:-0.063603997 39:-0.157189 40:-0.183598 42:-0.139154 43:-0.159254 45:-0.29318199 46:-0.215674 47:-0.079241998 48:-0.101023 49:-0.14805999 50:-0.615345 51:-0.150841 52:1.430783 53:-0.34537601 55:-0.119693 56:-0.3795 57:-0.41571701 #
0.5 1:-0.348299 3:-0.62200397 4:-0.045352999 5:-0.48666501 6:-0.35563499 7:-0.31764501 8:-0.27120501 9:-0.354184 10:-0.40832499 11:-0.332057 12:-0.66384602 14:-0.189715 15:-0.21397699 16:-0.303601 17:-0.33521399 18:-0.362865 19:0.85427898 21:-0.76167101 25:-0.259592 27:-0.225205 28:-0.18276601 29:-0.150461 30:-0.189439 31:-0.120054 33:-0.133763 34:-0.1311 35:-0.191397 36:-0.22950201 38:-0.063603997 39:-0.157189 40:-0.183598 42:-0.139154 43:-0.159254 45:-0.29318199 46:-0.215674 47:-0.079241998 48:-0.101023 49:-0.14805999 50:-0.615345 51:-0.150841 52:1.132004 53:-0.34537601 55:-0.090705998 56:-0.34857699 57:-0.40972501 #
-0.12518862023434007557654012998682 1:-0.348299 3:-0.62200397 4:-0.045352999 5:-0.48666501 6:-0.35563499 7:-0.31764501 8:-0.27120501 9:-0.354184 10:-0.40832499 11:-0.332057 12:-0.66384602 14:-0.189715 15:-0.21397699 16:-0.303601 17:-0.33521399 18:-0.362865 19:-1.03152 21:-0.76167101 25:-0.259592 27:-0.225205 28:-0.18276601 29:-0.150461 30:-0.189439 31:-0.120054 33:-0.133763 34:-0.1311 35:-0.191397 36:-0.22950201 38:-0.063603997 39:-0.157189 40:-0.183598 42:5.0704632 43:-0.159254 45:-0.29318199 46:-0.215674 47:-0.079241998 48:-0.101023 49:-0.14805999 50:-0.615345 51:-0.150841 52:-0.459032 53:2.273432 55:-0.122982 56:-0.402693 57:-0.429198 #
-0.5 1:0.39467901 3:-0.62200397 4:-0.045352999 5:-0.153248 6:0.40063101 7:-0.31764501 8:0.809645 9:0.45199099 10:-0.052846 11:0.73256201 12:-0.362477 14:-0.189715 15:-0.21397699 16:-0.086882003 17:-0.33521399 18:-0.362865 19:0.59377801 21:0.82445502 25:-0.259592 27:-0.225205 28:-0.18276601 29:-0.150461 30:-0.189439 31:-0.120054 33:-0.133763 34:-0.1311 35:-0.191397 36:-0.22950201 38:-0.063603997 39:-0.157189 40:-0.183598 42:-0.139154 43:-0.159254 45:-0.053801998 46:-0.215674 47:-0.079241998 48:-0.101023 49:-0.14805999 50:-0.615345 51:-0.150841 52:0.085541002 53:0.396137 55:-0.091289997 56:-0.232613 57:-0.225482 #
-0.5 1:-0.348299 3:-0.62200397 4:-0.045352999 5:-0.48666501 6:0.40063101 7:0.202949 8:0.25772199 9:-0.354184 10:-0.40832499 11:-0.332057 12:-0.061106998 14:1.1849 15:-0.21397699 16:-0.303601 17:-0.33521399 18:-0.362865 19:-0.90126997 21:-0.76167101 25:-0.259592 27:-0.225205 28:-0.18276601 29:-0.150461 30:-0.189439 31:-0.120054 33:0.232353 34:-0.1311 35:-0.191397 36:-0.22950201 38:-0.063603997 39:-0.157189 40:-0.183598 42:-0.139154 43:-0.159254 45:-0.29318199 46:-0.215674 47:-0.079241998 48:-0.101023 49:0.097745001 50:-0.615345 51:-0.150841 52:-0.459032 53:-0.34537601 55:-0.063533001 56:0.15393101 57:-0.13410901 #
-0.5 1:-0.348299 3:-0.62200397 4:-0.045352999 5:-0.48666501 6:-0.35563499 7:1.085696 8:-0.27120501 9:-0.354184 10:-0.40832499 11:-0.332057 12:-0.66384602 14:-0.189715 15:-0.21397699 16:-0.303601 17:-0.33521399 18:0.71821803 19:-0.32363799 21:-0.504237 25:-0.259592 27:-0.225205 28:-0.18276601 29:-0.150461 30:-0.189439 31:-0.120054 33:-0.133763 34:-0.1311 35:-0.191397 36:-0.22950201 38:-0.063603997 39:-0.157189 40:-0.183598 42:-0.139154 43:-0.159254 45:0.35210499 46:-0.215674 47:-0.079241998 48:-0.101023 49:-0.14805999 50:-0.377428 51:-0.150841 52:-0.095492996 53:-0.168136 55:-0.046688002 56:0.27762601 57:0.036653999 #
0.5 1:-0.348299 3:-0.62200397 4:-0.045352999 5:-0.48666501 6:2.2419751 7:-0.31764501 8:-0.27120501 9:-0.354184 10:-0.40832499 11:-0.332057 12:-0.66384602 14:-0.189715 15:-0.21397699 16:0.440781 17:-0.33521399 18:-0.362865 19:-0.136757 21:-0.76167101 25:-0.259592 27:-0.225205 28:-0.18276601 29:-0.150461 30:-0.189439 31:-0.120054 33:-0.133763 34:-0.1311 35:-0.191397 36:-0.22950201 38:-0.063603997 39:-0.157189 40:-0.183598 42:-0.139154 43:-0.159254 45:-0.29318199 46:-0.215674 47:-0.079241998 48:-0.101023 49:0.239168 50:0.506262 51:3.594346 52:0.220948 53:-0.34537601 55:0.016665 56:-0.24807499 57:-0.192527 #
0.5 1:-0.348299 3:0.570943 4:-0.045352999 5:-0.48666501 6:1.617233 7:-0.31764501 8:-0.27120501 9:1.74888 10:-0.40832499 11:-0.332057 12:1.720907 14:-0.189715 15:-0.21397699 16:-0.020924 17:-0.33521399 18:-0.362865 19:0.52015799 21:0.24315199 25:-0.259592 27:-0.225205 28:-0.18276601 29:-0.150461 30:-0.189439 31:-0.120054 33:-0.133763 34:-0.1311 35:-0.191397 36:-0.22950201 38:-0.063603997 39:-0.157189 40:-0.183598 42:-0.139154 43:-0.159254 45:-0.29318199 46:-0.215674 47:-0.079241998 48:-0.101023 49:-0.14805999 50:0.078983001 51:0.35643199 52:-0.17791501 53:0.171875 55:-0.098668002 56:-0.178497 57:-0.15058599 #
