SVM-light Version V6.02
0 # kernel type
3 # kernel parameter -d 
1 # kernel parameter -g 
1 # kernel parameter -s 
1 # kernel parameter -r 
empty# kernel parameter -u 
50 # highest feature index 
1813 # number of training documents 
1319 # number of support vectors plus 1 
0.55860831 # threshold b, each following line is a SV (starting with alpha*y)
-0.5 5:-0.48666501 12:-0.66384602 25:-0.259592 28:-0.18276601 38:-0.063603997 50:0.65678102 #
0.5 5:-0.31270799 12:-0.165931 25:-0.259592 28:-0.18276601 38:-0.063603997 50:0.28291199 #
-0.5 5:7.5588398 12:6.6083412 25:-0.259592 28:-0.18276601 38:-0.063603997 50:-0.615345 #
-0.5 5:2.4271131 12:-0.66384602 25:-0.259592 28:-0.18276601 38:-0.063603997 50:-0.615345 #
-0.5 5:-0.48666501 12:-0.66384602 25:-0.259592 28:11.964125 38:-0.063603997 50:3.0893569 #
-0.5 5:-0.48666501 12:0.436809 25:-0.259592 28:-0.18276601 38:-0.063603997 50:-0.615345 #
0.5 5:0.296141 12:0.043717999 25:-0.259592 28:-0.18276601 38:-0.063603997 50:-0.615345 #
-0.5 5:-0.48666501 12:-0.66384602 25:-0.259592 28:-0.18276601 38:-0.063603997 50:-0.615345 #
-0.5 5:12.690568 12:-0.66384602 25:-0.259592 28:-0.18276601 38:-0.063603997 50:-0.615345 #
0.5 5:0.42660901 12:0.056821 25:-0.259592 28:-0.18276601 38:-0.063603997 50:-0.55707997 #
0.5 5:-0.48666501 12:-0.66384602 25:-0.259592 28:-0.18276601 38:-0.063603997 50:-0.615345 #
0.5 5:-0.138751 12:2.271235 25:-0.259592 28:-0.18276601 38:-0.063603997 50:-0.44540399 #
0.5 5:-0.48666501 12:-0.66384602 25:-0.259592 28:-0.18276601 38:-0.063603997 50:3.3564069 #
-0.5 5:5.0799551 12:-0.66384602 25:-0.259592 28:-0.18276601 38:-0.063603997 50:-0.615345 #
0.5 5:-0.48666501 12:-0.66384602 25:-0.259592 28:4.6098852 38:-0.063603997 50:1.234578 #
0.5 5:-0.38519001 12:0.030615 25:-0.259592 28:-0.18276601 38:-0.063603997 50:-0.27060899 #
-0.5 5:4.5000992 12:3.8436 25:-0.259592 28:-0.18276601 38:-0.063603997 50:2.171679 #
-0.5 5:-0.48666501 12:5.8876739 25:-0.259592 28:-0.18276601 38:-0.063603997 50:2.7057769 #
0.5 5:-0.48666501 12:-0.66384602 25:0.66731101 28:-0.18276601 38:-0.063603997 50:-0.615345 #
0.5 5:1.673299 12:-0.66384602 25:0.90098399 28:-0.18276601 38:-0.063603997 50:-0.615345 #
-0.5 5:0.745529 12:-0.29696101 25:-0.259592 28:-0.18276601 38:-0.063603997 50:-0.615345 #
-0.5 5:-0.48666501 12:0.98713702 25:-0.259592 28:5.0437031 38:-0.063603997 50:-0.615345 #
0.5 5:-0.48666501 12:-0.20524 25:-0.259592 28:-0.18276601 38:-0.063603997 50:-0.052113999 #
-0.5 5:8.5735893 12:-0.66384602 25:-0.259592 28:-0.18276601 38:-0.063603997 50:-0.615345 #
0.5 5:-0.48666501 12:0.331985 25:-0.259592 28:-0.18276601 38:-0.063603997 50:3.599179 #
0.5 5:0.499091 12:-0.44109499 25:-0.259592 28:-0.18276601 38:-0.063603997 50:-0.207488 #
0.5 5:-0.341701 12:-0.53281599 25:0.659522 28:-0.18276601 38:-0.063603997 50:0.865565 #
0.5 5:-0.48666501 12:2.6512229 25:-0.259592 28:-0.18276601 38:-0.063603997 50:-0.615345 #
0.5 5:1.62981 12:-0.12662201 25:0.877617 28:-0.18276601 38:-0.063603997 50:1.331687 #
0.4983540319614956914939796206454 5:-0.48666501 12:-0.66384602 25:-0.259592 28:17.02533 38:-0.063603997 50:9.1586599 #
0.5 5:-0.48666501 12:-0.66384602 25:-0.259592 28:-0.18276601 38:-0.063603997 50:1.205446 #
0.5 5:-0.109759 12:0.240263 25:-0.259592 28:-0.18276601 38:-0.063603997 50:0.52082902 #
-0.5 5:2.7315371 12:3.699466 25:0.60499799 28:-0.18276601 38:-0.063603997 50:-0.615345 #
-0.5 5:2.96348 12:-0.66384602 25:-0.259592 28:-0.18276601 38:-0.063603997 50:-0.615345 #
-0.5 5:2.470602 12:0.67266399 25:-0.259592 28:-0.18276601 38:-0.063603997 50:-0.615345 #
-0.5 5:-0.48666501 12:-0.66384602 25:-0.259592 28:-0.18276601 38:-0.063603997 50:-0.615345 #
-0.5 5:-0.48666501 12:-0.66384602 25:-0.259592 28:-0.18276601 38:-0.063603997 50:-0.615345 #
-0.5 5:2.96348 12:-0.66384602 25:-0.259592 28:-0.18276601 38:-0.063603997 50:-0.615345 #
-0.5 5:2.7315371 12:-0.66384602 25:-0.259592 28:-0.18276601 38:-0.063603997 50:-0.17835499 #
-0.5 5:-0.48666501 12:-0.66384602 25:-0.259592 28:-0.18276601 38:-0.063603997 50:-0.52309197 #
-0.5 5:3.6448109 12:-0.66384602 25:-0.259592 28:-0.18276601 38:-0.063603997 50:-0.615345 #
0.5 5:-0.48666501 12:-0.048004001 25:-0.259592 28:-0.18276601 38:-0.063603997 50:-0.265753 #
-0.5 5:-0.48666501 12:-0.66384602 25:-0.259592 28:-0.18276601 38:-0.063603997 50:-0.615345 #
-0.5 5:3.1374359 12:-0.66384602 25:-0.259592 28:-0.18276601 38:-0.063603997 50:-0.076390997 #
-0.5 5:4.6160698 12:-0.66384602 25:-0.259592 28:-0.18276601 38:-0.063603997 50:0.31690001 #
0.5 5:0.397616 12:-0.0086939996 25:-0.259592 28:-0.18276601 38:-0.063603997 50:-0.615345 #
-0.5 5:-0.48666501 12:-0.66384602 25:-0.259592 28:-0.18276601 38:-0.063603997 50:-0.615345 #
-0.5 5:-0.48666501 12:-0.66384602 25:-0.259592 28:-0.18276601 38:-0.063603997 50:-0.615345 #
-0.5 5:6.4136238 12:-0.66384602 25:-0.259592 28:-0.18276601 38:-0.063603997 50:-0.615345 #
0.5 5:-0.051773001 12:-0.66384602 25:-0.259592 28:-0.18276601 38:-0.063603997 50:-0.21234301 #
0.5 5:-0.022779999 12:0.174748 25:-0.259592 28:-0.18276601 38:-0.063603997 50:-0.615345 #
-0.5 5:-0.48666501 12:-0.66384602 25:-0.259592 28:-0.18276601 38:-0.063603997 50:-0.615345 #
-0.5 5:-0.48666501 12:4.3677211 25:-0.259592 28:-0.18276601 38:-0.063603997 50:2.827163 #
-0.5 5:-0.48666501 12:-0.66384602 25:-0.259592 28:-0.18276601 38:-0.063603997 50:-0.615345 #
-0.5 5:-0.48666501 12:7.5779662 25:-0.259592 28:-0.18276601 38:-0.063603997 50:-0.615345 #
0.5 5:0.064198002 12:-0.66384602 25:-0.259592 28:-0.18276601 38:-0.063603997 50:-0.615345 #
-0.5 5:-0.25472301 12:-0.66384602 25:-0.259592 28:1.139345 38:-0.063603997 50:5.7404289 #
0.5 5:0.397616 12:-0.0086939996 25:-0.259592 28:-0.18276601 38:-0.063603997 50:-0.615345 #
-0.5 5:-0.48666501 12:-0.66384602 25:-0.259592 28:3.8661981 38:-0.063603997 50:1.195735 #
-0.5 5:-0.48666501 12:5.5732012 25:-0.259592 28:-0.18276601 38:-0.063603997 50:2.5164151 #
-0.5 5:-0.48666501 12:-0.66384602 25:-0.259592 28:-0.18276601 38:-0.063603997 50:-0.615345 #
-0.5 5:-0.48666501 12:1.760216 25:-0.259592 28:-0.18276601 38:-0.063603997 50:-0.615345 #
-0.5 5:-0.48666501 12:-0.66384602 25:-0.259592 28:-0.18276601 38:-0.063603997 50:1.195735 #
-0.5 5:0.87599701 12:-0.66384602 25:-0.259592 28:-0.18276601 38:-0.063603997 50:-0.615345 #
0.5 5:-0.022779999 12:-0.66384602 25:-0.259592 28:0.147762 38:-0.063603997 50:-0.615345 #
0.5 5:-0.28371501 12:0.25336599 25:-0.259592 28:-0.18276601 38:-0.063603997 50:-0.241476 #
-0.5 5:-0.48666501 12:-0.66384602 25:-0.259592 28:-0.18276601 38:-0.063603997 50:-0.615345 #
-0.5 5:-0.48666501 12:7.0407419 25:-0.259592 28:-0.18276601 38:-0.063603997 50:-0.615345 #
-0.25147756683656957710226720337232 5:1.122436 12:-0.66384602 25:-0.259592 28:-0.18276601 38:4.5622778 50:1.147181 #
0.061630763090354534483594761695713 5:0.45560101 12:0.187851 25:-0.259592 28:-0.18276601 38:-0.063603997 50:-0.615345 #
-0.5 5:1.194918 12:2.3760591 25:0.64394403 28:4.6098852 38:-0.063603997 50:1.278277 #
-0.5 5:-0.48666501 12:-0.66384602 25:-0.259592 28:-0.18276601 38:-0.063603997 50:-0.615345 #
-0.5 5:-0.48666501 12:-0.66384602 25:-0.259592 28:-0.18276601 38:-0.063603997 50:-0.615345 #
0.5 5:-0.211233 12:0.174748 25:-0.259592 28:-0.18276601 38:-0.063603997 50:-0.46482599 #
0.5 5:0.310637 12:-0.66384602 25:-0.259592 28:-0.18276601 38:-0.063603997 50:-0.14436699 #
0.5 5:0.45560101 12:-0.24454901 25:-0.259592 28:-0.18276601 38:-0.063603997 50:-0.105524 #
-0.5 5:-0.48666501 12:-0.66384602 25:-0.259592 28:-0.18276601 38:-0.063603997 50:-0.324018 #
-0.5 5:-0.48666501 12:-0.66384602 25:-0.259592 28:-0.18276601 38:-0.063603997 50:-0.615345 #
-0.5 5:-0.48666501 12:4.8656368 25:-0.259592 28:-0.18276601 38:-0.063603997 50:-0.615345 #
-0.5 5:2.1371839 12:1.707804 25:-0.259592 28:-0.18276601 38:-0.063603997 50:2.3707521 #
-0.5 5:-0.48666501 12:-0.66384602 25:-0.259592 28:-0.18276601 38:-0.063603997 50:0.81215501 #
-0.5 5:1.1514291 12:0.81679702 25:-0.259592 28:-0.18276601 38:-0.063603997 50:-0.615345 #
-0.5 5:1.0499541 12:2.1139979 25:-0.259592 28:-0.18276601 38:-0.063603997 50:-0.615345 #
0.5 5:-0.48666501 12:0.148542 25:-0.259592 28:-0.18276601 38:-0.063603997 50:-0.615345 #
0.5 5:0.54258001 12:-0.66384602 25:-0.259592 28:-0.18276601 38:-0.063603997 50:-0.615345 #
-0.5 5:0.54258001 12:1.209888 25:-0.259592 28:-0.18276601 38:-0.063603997 50:-0.0084149996 #
-0.5 5:-0.48666501 12:-0.66384602 25:-0.259592 28:-0.18276601 38:-0.063603997 50:-0.615345 #
-0.5 5:-0.48666501 12:-0.66384602 25:-0.259592 28:-0.18276601 38:-0.063603997 50:2.5164151 #
-0.5 5:1.194918 12:0.85610598 25:-0.259592 28:-0.18276601 38:-0.063603997 50:1.171458 #
-0.5 5:-0.48666501 12:1.8519371 25:-0.259592 28:-0.18276601 38:-0.063603997 50:-0.615345 #
0.5 5:0.194666 12:-0.048004001 25:-0.259592 28:-0.18276601 38:-0.063603997 50:-0.615345 #
0.5 5:0.122184 12:0.122336 25:-0.259592 28:-0.18276601 38:-0.063603997 50:-0.202632 #
-0.5 5:0.73103303 12:1.537464 25:-0.259592 28:-0.18276601 38:-0.063603997 50:0.43828601 #
-0.5 5:-0.48666501 12:4.7870188 25:-0.259592 28:-0.18276601 38:-0.063603997 50:-0.615345 #
-0.5 5:-0.48666501 12:-0.66384602 25:-0.259592 28:-0.18276601 38:-0.063603997 50:-0.615345 #
-0.5 5:-0.48666501 12:-0.66384602 25:-0.259592 28:-0.18276601 38:-0.063603997 50:-0.615345 #
-0.5 5:1.7457809 12:1.013343 25:0.34016901 28:-0.18276601 38:0.97826099 50:-0.42598301 #
-0.5 5:-0.48666501 12:-0.66384602 25:-0.259592 28:-0.18276601 38:-0.063603997 50:-0.615345 #
-0.5 5:-0.48666501 12:3.699466 25:-0.259592 28:-0.18276601 38:-0.063603997 50:-0.615345 #
-0.5 5:-0.48666501 12:-0.66384602 25:-0.259592 28:-0.18276601 38:-0.063603997 50:-0.615345 #
-0.5 5:-0.48666501 12:1.8519371 25:-0.259592 28:-0.18276601 38:-0.063603997 50:-0.615345 #
0.5 5:-0.138751 12:-0.021796999 25:-0.259592 28:-0.18276601 38:-0.063603997 50:-0.615345 #
-0.5 5:-0.48666501 12:1.956762 25:-0.259592 28:-0.18276601 38:-0.063603997 50:-0.615345 #
0.5 5:0.151177 12:-0.087312996 25:-0.259592 28:-0.18276601 38:-0.063603997 50:-0.615345 #
-0.5 5:-0.48666501 12:1.8650399 25:-0.259592 28:-0.18276601 38:-0.063603997 50:-0.50366998 #
-0.5 5:-0.48666501 12:-0.66384602 25:-0.259592 28:-0.18276601 38:-0.063603997 50:-0.615345 #
0.5 5:-0.153248 12:0.174748 25:-0.259592 28:-0.18276601 38:-0.063603997 50:-0.41627201 #
-0.5 5:0.81801099 12:2.873975 25:0.44142699 28:-0.18276601 38:-0.063603997 50:-0.615345 #
-0.5 5:-0.48666501 12:-0.66384602 25:-0.259592 28:-0.18276601 38:-0.063603997 50:-0.615345 #
-0.5 5:-0.48666501 12:1.956762 25:-0.259592 28:-0.18276601 38:-0.063603997 50:-0.615345 #
0.5 5:-0.38519001 12:0.30577901 25:-0.259592 28:-0.18276601 38:-0.063603997 50:-0.35315099 #
0.5 5:-0.48666501 12:0.109233 25:-0.259592 28:-0.18276601 38:1.14496 50:0.38002101 #
0.5 5:0.122184 12:-0.113519 25:-0.259592 28:-0.18276601 38:1.68673 50:0.457708 #
-0.5 5:-0.18224099 12:-0.66384602 25:-0.259592 28:-0.18276601 38:-0.063603997 50:-0.615345 #
0.5 5:0.93398303 12:0.62025201 25:0.50374001 28:-0.18276601 38:-0.063603997 50:-0.615345 #
0.5 5:-0.037276 12:-0.66384602 25:0.480373 28:-0.18276601 38:-0.063603997 50:-0.18806601 #
-0.5 5:-0.48666501 12:-0.66384602 25:-0.259592 28:-0.18276601 38:-0.063603997 50:-0.615345 #
-0.5 5:1.035458 12:-0.66384602 25:-0.259592 28:-0.18276601 38:-0.063603997 50:-0.38713899 #
-0.5 5:0.38311899 12:-0.66384602 25:-0.259592 28:-0.18276601 38:-0.063603997 50:-0.615345 #
0.5 5:-0.48666501 12:2.5595019 25:-0.259592 28:-0.18276601 38:-0.063603997 50:-0.615345 #
0.5 5:0.499091 12:0.51542699 25:-0.259592 28:-0.18276601 38:1.811754 50:-0.45511499 #
-0.5 5:-0.48666501 12:-0.66384602 25:-0.259592 28:-0.18276601 38:-0.063603997 50:-0.615345 #
0.5 5:-0.48666501 12:-0.66384602 25:-0.259592 28:-0.18276601 38:-0.063603997 50:2.9242721 #
-0.5 5:-0.48666501 12:4.4987521 25:-0.259592 28:-0.18276601 38:-0.063603997 50:-0.615345 #
0.5 5:-0.48666501 12:-0.25765201 25:-0.259592 28:-0.18276601 38:-0.063603997 50:3.026237 #
-0.5 5:2.659055 12:-0.66384602 25:-0.259592 28:-0.18276601 38:-0.063603997 50:1.166602 #
0.5 5:-0.48666501 12:1.1443731 25:-0.259592 28:-0.18276601 38:-0.063603997 50:1.7832429 #
-0.5 5:1.731285 12:0.0044089998 25:-0.259592 28:-0.18276601 38:-0.063603997 50:-0.231765 #
0.5 5:-0.037276 12:-0.66384602 25:0.480373 28:-0.18276601 38:-0.063603997 50:-0.18806601 #
-0.5 5:0.33963001 12:-0.29696101 25:-0.259592 28:-0.18276601 38:-0.063603997 50:0.132393 #
0.5 5:-0.48666501 12:0.82990003 25:-0.259592 28:-0.18276601 38:-0.063603997 50:-0.615345 #
-0.5 5:0.38311899 12:-0.66384602 25:-0.259592 28:-0.18276601 38:-0.063603997 50:-0.615345 #
-0.5 5:0.035206001 12:-0.66384602 25:-0.259592 28:-0.18276601 38:-0.063603997 50:-0.615345 #
-0.5 5:0.006213 12:-0.66384602 25:-0.259592 28:-0.18276601 38:-0.063603997 50:-0.45997101 #
-0.5 5:0.96297598 12:-0.33627 25:-0.259592 28:-0.18276601 38:-0.063603997 50:-0.615345 #
0.5 5:-0.48666501 12:1.1443731 25:-0.259592 28:-0.18276601 38:-0.063603997 50:1.763822 #
-0.5 5:2.3546309 12:-0.66384602 25:-0.259592 28:-0.18276601 38:-0.063603997 50:2.6183791 #
0.5 5:-0.28371501 12:0.50232399 25:-0.259592 28:-0.18276601 38:0.061420001 50:-0.217199 #
-0.5 5:-0.48666501 12:-0.66384602 25:-0.259592 28:-0.18276601 38:-0.063603997 50:0.574238 #
-0.5 5:-0.48666501 12:3.699466 25:-0.259592 28:-0.18276601 38:-0.063603997 50:-0.615345 #
-0.5 5:1.0499541 12:0.72507602 25:-0.259592 28:-0.18276601 38:-0.063603997 50:-0.615345 #
-0.5 5:-0.48666501 12:3.9484241 25:-0.259592 28:-0.18276601 38:-0.063603997 50:-0.615345 #
-0.5 5:0.96297598 12:0.44991201 25:-0.259592 28:-0.18276601 38:-0.063603997 50:-0.50852501 #
0.5 5:-0.48666501 12:-0.66384602 25:-0.259592 28:-0.18276601 38:-0.063603997 50:-0.615345 #
-0.5 5:-0.48666501 12:2.873975 25:-0.259592 28:-0.18276601 38:-0.063603997 50:1.710412 #
0.5 5:-0.48666501 12:-0.66384602 25:-0.259592 28:-0.18276601 38:0.72821403 50:-0.134656 #
0.5 5:-0.48666501 12:-0.66384602 25:-0.259592 28:-0.18276601 38:-0.063603997 50:-0.615345 #
0.5 5:-0.48666501 12:2.284338 25:-0.259592 28:-0.18276601 38:-0.063603997 50:-0.15407801 #
-0.5 5:1.035458 12:-0.66384602 25:-0.259592 28:-0.18276601 38:-0.063603997 50:-0.265753 #
0.5 5:-0.48666501 12:1.1443731 25:-0.259592 28:-0.18276601 38:-0.063603997 50:1.763822 #
0.5 5:-0.48666501 12:1.9305561 25:-0.259592 28:-0.18276601 38:-0.063603997 50:0.33146599 #
0.5 5:-0.109759 12:-0.66384602 25:-0.259592 28:-0.18276601 38:-0.063603997 50:2.73491 #
-0.5 5:0.76002598 12:-0.66384602 25:-0.259592 28:-0.18276601 38:-0.063603997 50:0.122682 #
-0.5 5:-0.48666501 12:3.699466 25:-0.259592 28:-0.18276601 38:-0.063603997 50:-0.615345 #
-0.5 5:-0.48666501 12:-0.66384602 25:-0.259592 28:-0.18276601 38:-0.063603997 50:0.68105799 #
-0.5 5:0.54258001 12:-0.66384602 25:-0.259592 28:-0.18276601 38:-0.063603997 50:-0.34829599 #
-0.5 5:-0.48666501 12:1.969865 25:-0.259592 28:-0.18276601 38:-0.063603997 50:-0.615345 #
-0.5 5:-0.48666501 12:4.3677211 25:-0.259592 28:-0.18276601 38:-0.063603997 50:-0.615345 #
-0.5 5:2.8765011 12:-0.66384602 25:0.94771898 28:1.407899 38:-0.063603997 50:1.210301 #
0.5 5:-0.48666501 12:0.096129999 25:-0.259592 28:-0.18276601 38:1.14496 50:0.37516499 #
-0.5 5:0.151177 12:-0.66384602 25:-0.259592 28:-0.18276601 38:-0.063603997 50:-0.615345 #
0.5 5:-0.48666501 12:1.642289 25:-0.259592 28:-0.18276601 38:-0.063603997 50:0.506262 #
-0.5 5:0.48459399 12:-0.66384602 25:-0.259592 28:-0.18276601 38:-0.063603997 50:0.79273301 #
0.5 5:-0.124255 12:2.297441 25:-0.259592 28:-0.18276601 38:-0.063603997 50:-0.45026001 #
0.5 5:-0.48666501 12:0.083026998 25:-0.259592 28:0.39565799 38:-0.063603997 50:-0.115234 #
0.5 5:0.33963001 12:0.083026998 25:0.184387 28:-0.18276601 38:-0.063603997 50:-0.615345 #
0.5 5:0.45560101 12:0.476118 25:-0.259592 28:-0.18276601 38:1.728404 50:-0.45997101 #
-0.5 5:0.70204002 12:-0.66384602 25:-0.259592 28:-0.18276601 38:-0.063603997 50:0.84614301 #
0.5 5:-0.48666501 12:0.017511999 25:-0.259592 28:-0.18276601 38:-0.063603997 50:0.078983001 #
0.5 5:-0.48666501 12:0.62025201 25:-0.259592 28:-0.18276601 38:-0.063603997 50:-0.615345 #
-0.5 5:-0.153248 12:-0.66384602 25:-0.259592 28:-0.18276601 38:-0.063603997 50:-0.217199 #
0.5 5:0.42660901 12:-0.25765201 25:-0.259592 28:-0.18276601 38:-0.063603997 50:-0.090957001 #
0.5 5:0.13668001 12:-0.66384602 25:-0.096020997 28:-0.18276601 38:-0.063603997 50:-0.615345 #
-0.5 5:0.73103303 12:1.90435 25:0.83088201 28:-0.18276601 38:-0.063603997 50:-0.615345 #
-0.5 5:0.499091 12:-0.66384602 25:0.0052370001 28:-0.18276601 38:-0.063603997 50:-0.615345 #
0.5 5:-0.48666501 12:0.31888199 25:-0.259592 28:-0.18276601 38:-0.063603997 50:0.064416997 #
0.5 5:-0.48666501 12:0.48922101 25:-0.259592 28:-0.18276601 38:-0.063603997 50:-0.256042 #
0.5 5:-0.48666501 12:-0.66384602 25:-0.259592 28:-0.18276601 38:-0.063603997 50:-0.41627201 #
-0.5 5:0.412112 12:0.97403401 25:-0.259592 28:-0.18276601 38:-0.063603997 50:0.97238499 #
0.5 5:-0.48666501 12:-0.66384602 25:-0.259592 28:-0.18276601 38:-0.063603997 50:-0.615345 #
-0.5 5:0.078694999 12:-0.66384602 25:-0.259592 28:-0.18276601 38:-0.063603997 50:-0.299741 #
-0.5 5:0.13668001 12:-0.66384602 25:-0.259592 28:-0.18276601 38:-0.063603997 50:-0.231765 #
-0.5 5:0.499091 12:-0.66384602 25:-0.259592 28:-0.18276601 38:-0.063603997 50:0.224647 #
0.5 5:-0.48666501 12:-0.66384602 25:-0.259592 28:-0.18276601 38:-0.063603997 50:-0.31430799 #
-0.5 5:-0.080766 12:-0.42799199 25:-0.259592 28:-0.18276601 38:-0.063603997 50:-0.53280199 #
-0.5 5:-0.48666501 12:-0.66384602 25:-0.259592 28:-0.18276601 38:-0.063603997 50:-0.615345 #
-0.5 5:-0.48666501 12:3.6077449 25:-0.259592 28:-0.18276601 38:-0.063603997 50:-0.615345 #
-0.5 5:0.847004 12:0.54163301 25:-0.259592 28:-0.18276601 38:-0.063603997 50:-0.615345 #
-0.5 5:0.62955803 12:0.85610598 25:-0.259592 28:-0.18276601 38:-0.063603997 50:-0.29003 #
-0.5 5:0.078694999 12:-0.66384602 25:-0.259592 28:-0.18276601 38:-0.063603997 50:0.093549997 #
0.5 5:0.078694999 12:-0.66384602 25:-0.259592 28:-0.18276601 38:-0.063603997 50:-0.615345 #
-0.5 5:-0.19673701 12:-0.53281599 25:-0.259592 28:-0.18276601 38:-0.063603997 50:-0.34829599 #
-0.5 5:0.006213 12:-0.218343 25:-0.259592 28:-0.18276601 38:-0.063603997 50:-0.615345 #
0.5 5:0.78901899 12:-0.087312996 25:0.083127998 28:-0.18276601 38:-0.063603997 50:-0.265753 #
-0.5 5:1.368875 12:0.174748 25:0.23891 28:-0.18276601 38:-0.063603997 50:-0.615345 #
0.5 5:-0.48666501 12:-0.66384602 25:-0.259592 28:-0.18276601 38:-0.063603997 50:-0.46968201 #
-0.5 5:0.70204002 12:0.41060299 25:-0.259592 28:-0.18276601 38:-0.063603997 50:-0.615345 #
-0.5 5:0.716537 12:-0.0086939996 25:-0.259592 28:-0.18276601 38:-0.063603997 50:-0.333729 #
0.5 5:-0.48666501 12:-0.192137 25:-0.259592 28:-0.18276601 38:-0.063603997 50:-0.042403001 #
0.5 5:-0.457672 12:-0.63764 25:-0.24401399 28:-0.18276601 38:-0.063603997 50:-0.59592301 #
0.5 5:0.165673 12:-0.074210003 25:-0.259592 28:-0.18276601 38:-0.063603997 50:-0.615345 #
-0.5 5:0.26714799 12:-0.66384602 25:-0.259592 28:-0.18276601 38:-0.063603997 50:-0.066679999 #
0.5 5:-0.48666501 12:-0.048004001 25:-0.259592 28:-0.18276601 38:-0.063603997 50:-0.018126 #
-0.5 5:-0.48666501 12:-0.66384602 25:-0.259592 28:-0.18276601 38:-0.063603997 50:0.72475702 #
-0.5 5:-0.48666501 12:3.306375 25:-0.259592 28:-0.18276601 38:-0.063603997 50:-0.615345 #
-0.5 5:-0.48666501 12:-0.66384602 25:-0.259592 28:-0.18276601 38:-0.063603997 50:-0.615345 #
0.5 5:-0.051773001 12:-0.66384602 25:-0.259592 28:0.127104 38:-0.063603997 50:-0.51823598 #
-0.5 5:0.42660901 12:-0.66384602 25:-0.259592 28:-0.18276601 38:-0.063603997 50:0.064416997 #
0.5 5:-0.48666501 12:0.27957299 25:-0.259592 28:-0.18276601 38:-0.063603997 50:-0.0035590001 #
-0.5 5:0.52808303 12:0.25336599 25:-0.259592 28:-0.18276601 38:-0.063603997 50:-0.12980101 #
0.5 5:-0.48666501 12:-0.192137 25:-0.259592 28:-0.18276601 38:-0.063603997 50:-0.081246004 #
-0.5 5:-0.48666501 12:-0.66384602 25:-0.259592 28:-0.18276601 38:-0.063603997 50:-0.615345 #
0.5 5:0.020709001 12:0.72507602 25:-0.259592 28:-0.18276601 38:-0.063603997 50:-0.615345 #
0.5 5:-0.022779999 12:0.22716001 25:-0.259592 28:-0.18276601 38:-0.063603997 50:-0.36286199 #
-0.5 5:-0.48666501 12:-0.66384602 25:-0.259592 28:-0.18276601 38:-0.063603997 50:-0.615345 #
-0.5 5:-0.48666501 12:-0.66384602 25:-0.259592 28:-0.18276601 38:-0.063603997 50:-0.615345 #
-0.5 5:-0.48666501 12:-0.66384602 25:-0.259592 28:-0.18276601 38:-0.063603997 50:-0.615345 #
0.5 5:-0.37069401 12:0.51542699 25:-0.259592 28:-0.18276601 38:-0.063603997 50:-0.28031901 #
-0.5 5:0.296141 12:0.043717999 25:-0.259592 28:-0.18276601 38:-0.063603997 50:-0.615345 #
0.5 5:0.44110501 12:-0.24454901 25:-0.259592 28:-0.18276601 38:-0.063603997 50:-0.105524 #
-0.5 5:0.44110501 12:0.174748 25:-0.259592 28:-0.18276601 38:-0.063603997 50:-0.615345 #
0.5 5:-0.48666501 12:0.069923997 25:-0.259592 28:-0.18276601 38:-0.063603997 50:-0.042403001 #
0.5 5:-0.48666501 12:0.22716001 25:-0.259592 28:-0.18276601 38:-0.063603997 50:-0.061825 #
0.5 5:0.45560101 12:-0.24454901 25:-0.259592 28:-0.18276601 38:-0.063603997 50:-0.105524 #
-0.5 5:0.47009799 12:0.20095401 25:-0.259592 28:-0.18276601 38:-0.063603997 50:-0.38713899 #
0.5 5:-0.457672 12:-0.63764 25:-0.24401399 28:-0.18276601 38:-0.063603997 50:-0.59592301 #
-0.5 5:-0.48666501 12:-0.66384602 25:-0.259592 28:-0.18276601 38:-0.063603997 50:1.346254 #
0.5 5:-0.48666501 12:0.44991201 25:-0.259592 28:-0.18276601 38:-0.063603997 50:-0.217199 #
0.5 5:0.499091 12:-0.218343 25:-0.259592 28:-0.18276601 38:-0.063603997 50:0.166381 #
-0.5 5:0.35412601 12:-0.66384602 25:-0.259592 28:-0.18276601 38:-0.063603997 50:0.185803 #
-0.5 5:-0.48666501 12:2.5201931 25:-0.259592 28:-0.18276601 38:-0.063603997 50:-0.615345 #
0.5 5:-0.48666501 12:0.46301499 25:-0.259592 28:-0.18276601 38:-0.063603997 50:-0.615345 #
0.5 5:-0.42867899 12:0.48922101 25:-0.259592 28:-0.18276601 38:-0.063603997 50:-0.299741 #
0.5 5:-0.48666501 12:-0.192137 25:-0.259592 28:-0.18276601 38:-0.063603997 50:-0.076390997 #
-0.5 5:-0.48666501 12:1.6684951 25:-0.259592 28:-0.18276601 38:-0.063603997 50:-0.615345 #
0.5 5:0.36862299 12:0.50232399 25:-0.259592 28:-0.18276601 38:-0.063603997 50:0.049851 #
0.5 5:-0.26921901 12:0.240263 25:-0.259592 28:-0.18276601 38:-0.063603997 50:-0.022980999 #
-0.5 5:-0.48666501 12:-0.66384602 25:-0.259592 28:-0.18276601 38:-0.063603997 50:-0.615345 #
0.5 5:-0.48666501 12:0.436809 25:-0.259592 28:-0.18276601 38:-0.063603997 50:-0.251187 #
-0.5 5:-0.48666501 12:1.6684951 25:-0.259592 28:-0.18276601 38:-0.063603997 50:-0.615345 #
-0.5 5:-0.48666501 12:1.956762 25:-0.259592 28:-0.18276601 38:-0.063603997 50:-0.615345 #
0.5 5:0.28164399 12:0.030615 25:-0.259592 28:-0.18276601 38:-0.063603997 50:-0.615345 #
0.5 5:0.194666 12:-0.048004001 25:-0.259592 28:-0.18276601 38:-0.063603997 50:-0.615345 #
-0.5 5:-0.48666501 12:1.956762 25:-0.259592 28:-0.18276601 38:-0.063603997 50:-0.615345 #
-0.5 5:-0.48666501 12:-0.66384602 25:-0.259592 28:-0.18276601 38:-0.063603997 50:-0.615345 #
-0.5 5:-0.124255 12:1.013343 25:-0.064865001 28:-0.18276601 38:-0.063603997 50:-0.047258001 #
0.5 5:0.209162 12:0.59404498 25:-0.259592 28:-0.18276601 38:-0.063603997 50:-0.207488 #
-0.5 5:-0.48666501 12:1.956762 25:-0.259592 28:-0.18276601 38:-0.063603997 50:-0.615345 #
-0.5 5:-0.48666501 12:-0.66384602 25:-0.259592 28:-0.18276601 38:-0.063603997 50:-0.615345 #
0.5 5:-0.153248 12:0.55473602 25:-0.259592 28:0.54026401 38:0.39481699 50:1.234578 #
0.5 5:0.48459399 12:-0.087312996 25:-0.259592 28:-0.18276601 38:-0.063603997 50:-0.615345 #
0.5 5:-0.48666501 12:2.0484829 25:-0.259592 28:-0.18276601 38:-0.063603997 50:-0.615345 #
-0.5 5:-0.48666501 12:-0.66384602 25:-0.259592 28:-0.18276601 38:-0.063603997 50:-0.615345 #
0.5 5:0.397616 12:0.31888199 25:-0.259592 28:-0.18276601 38:-0.063603997 50:-0.33858499 #
0.5 5:-0.48666501 12:2.0484829 25:-0.259592 28:-0.18276601 38:-0.063603997 50:-0.22691 #
-0.5 5:-0.48666501 12:2.258132 25:-0.259592 28:-0.18276601 38:-0.063603997 50:-0.615345 #
0.5 5:-0.48666501 12:1.799525 25:-0.259592 28:-0.18276601 38:-0.063603997 50:-0.615345 #
-0.5 5:0.22365899 12:0.63335502 25:-0.259592 28:-0.18276601 38:-0.063603997 50:-0.615345 #
-0.5 5:0.412112 12:0.0044089998 25:-0.259592 28:-0.18276601 38:-0.063603997 50:-0.022980999 #
-0.5 5:0.38311899 12:0.122336 25:-0.259592 28:-0.18276601 38:-0.063603997 50:-0.202632 #
0.5 5:-0.48666501 12:1.720907 25:-0.259592 28:-0.18276601 38:-0.063603997 50:0.078983001 #
-0.5 5:0.209162 12:-0.034899998 25:-0.259592 28:-0.18276601 38:-0.063603997 50:-0.615345 #
0.5 5:-0.48666501 12:0.069923997 25:-0.259592 28:-0.18276601 38:-0.063603997 50:-0.061825 #
-0.5 5:0.28164399 12:-0.66384602 25:-0.259592 28:-0.18276601 38:-0.063603997 50:0.81215501 #
0.5 5:-0.48666501 12:2.0615859 25:-0.259592 28:-0.18276601 38:-0.063603997 50:-0.26089799 #
-0.5 5:-0.48666501 12:2.245029 25:-0.259592 28:-0.18276601 38:-0.063603997 50:-0.615345 #
-0.5 5:0.209162 12:-0.66384602 25:-0.259592 28:-0.18276601 38:-0.063603997 50:0.112971 #
-0.5 5:-0.48666501 12:2.1139979 25:-0.259592 28:-0.18276601 38:-0.063603997 50:-0.615345 #
-0.5 5:0.36862299 12:0.109233 25:-0.259592 28:-0.18276601 38:-0.063603997 50:-0.105524 #
-0.5 5:0.38311899 12:0.122336 25:-0.259592 28:-0.18276601 38:-0.063603997 50:0.70047998 #
0.5 5:0.32513401 12:1.6815979 25:-0.173912 28:-0.18276601 38:-0.063603997 50:0.28776699 #
-0.5 5:-0.48666501 12:1.471949 25:-0.259592 28:-0.18276601 38:-0.063603997 50:-0.615345 #
0.5 5:-0.48666501 12:0.083026998 25:-0.259592 28:-0.18276601 38:-0.063603997 50:-0.134656 #
0.5 5:-0.48666501 12:2.0484829 25:-0.259592 28:-0.18276601 38:-0.063603997 50:-0.22691 #
0.5 5:-0.153248 12:1.956762 25:-0.259592 28:-0.18276601 38:-0.063603997 50:0.28776699 #
-0.5 5:-0.48666501 12:1.471949 25:-0.259592 28:-0.18276601 38:-0.063603997 50:-0.615345 #
0.5 5:-0.48666501 12:0.030615 25:-0.259592 28:-0.18276601 38:-0.063603997 50:-0.192921 #
-0.5 5:-0.48666501 12:1.380228 25:-0.259592 28:-0.18276601 38:-0.063603997 50:-0.251187 #
-0.5 5:-0.48666501 12:0.37129399 25:-0.259592 28:-0.18276601 38:-0.063603997 50:-0.615345 #
-0.5 5:-0.48666501 12:0.384397 25:-0.259592 28:-0.18276601 38:-0.063603997 50:-0.615345 #
-0.5 5:-0.48666501 12:1.445743 25:-0.259592 28:-0.18276601 38:-0.063603997 50:-0.615345 #
0.5 5:-0.48666501 12:0.148542 25:-0.259592 28:-0.18276601 38:-0.063603997 50:-0.39684999 #
-0.5 5:-0.48666501 12:1.3933311 25:-0.259592 28:-0.18276601 38:-0.063603997 50:-0.615345 #
0.5 5:-0.48666501 12:1.694701 25:-0.259592 28:-0.18276601 38:-0.063603997 50:-0.158933 #
0.5 5:-0.48666501 12:0.22716001 25:-0.259592 28:-0.18276601 38:-0.063603997 50:-0.615345 #
-0.5 5:-0.48666501 12:1.340919 25:-0.259592 28:-0.18276601 38:-0.063603997 50:-0.615345 #
0.5 5:0.26714799 12:0.41060299 25:-0.259592 28:-0.18276601 38:-0.063603997 50:-0.15407801 #
0.5 5:-0.25472301 12:0.083026998 25:-0.259592 28:-0.18276601 38:-0.063603997 50:-0.15407801 #
-0.5 5:-0.48666501 12:1.340919 25:-0.259592 28:-0.18276601 38:-0.063603997 50:-0.615345 #
-0.5 5:-0.48666501 12:1.026446 25:-0.259592 28:-0.18276601 38:-0.063603997 50:-0.615345 #
-0.5 5:-0.48666501 12:0.39750001 25:-0.259592 28:-0.18276601 38:-0.063603997 50:-0.615345 #
-0.5 5:-0.48666501 12:1.288507 25:-0.259592 28:-0.18276601 38:-0.063603997 50:-0.615345 #
-0.5 5:-0.48666501 12:1.209888 25:-0.259592 28:-0.18276601 38:-0.063603997 50:-0.615345 #
-0.5 5:-0.26921901 12:1.1443731 25:-0.259592 28:-0.18276601 38:-0.063603997 50:-0.163789 #
0.5 5:0.078694999 12:-0.034899998 25:-0.259592 28:-0.18276601 38:-0.063603997 50:0.059562001 #
-0.5 5:-0.48666501 12:1.170579 25:-0.259592 28:-0.18276601 38:-0.063603997 50:-0.615345 #
0.5 5:-0.48666501 12:0.62025201 25:-0.259592 28:-0.18276601 38:-0.063603997 50:1.758966 #
0.5 5:-0.48666501 12:-0.66384602 25:-0.259592 28:-0.18276601 38:-0.063603997 50:-0.615345 #
0.5 5:-0.153248 12:1.825731 25:-0.259592 28:-0.18276601 38:-0.063603997 50:-0.086102001 #
0.5 5:-0.109759 12:-0.66384602 25:-0.259592 28:-0.18276601 38:-0.063603997 50:2.7300551 #
0.5 5:-0.48666501 12:1.6684951 25:-0.259592 28:-0.18276601 38:-0.063603997 50:-0.615345 #
-0.5 5:-0.48666501 12:0.51542699 25:-0.259592 28:-0.18276601 38:-0.063603997 50:-0.615345 #
0.5 5:-0.48666501 12:-0.66384602 25:-0.259592 28:-0.18276601 38:-0.063603997 50:1.904629 #
-0.5 5:-0.48666501 12:-0.66384602 25:-0.259592 28:-0.18276601 38:-0.063603997 50:1.404519 #
-0.5 5:-0.48666501 12:0.58094198 25:-0.259592 28:-0.18276601 38:-0.063603997 50:-0.615345 #
0.5 5:-0.48666501 12:-0.66384602 25:-0.259592 28:2.2961919 38:-0.063603997 50:0.83643198 #
0.5 5:-0.153248 12:1.825731 25:-0.259592 28:-0.18276601 38:-0.063603997 50:-0.071534999 #
-0.5 5:-0.48666501 12:1.013343 25:-0.259592 28:-0.18276601 38:-0.063603997 50:0.26834601 #
-0.5 5:-0.48666501 12:0.59404498 25:-0.259592 28:-0.18276601 38:-0.063603997 50:-0.615345 #
0.5 5:-0.48666501 12:-0.66384602 25:-0.259592 28:1.325267 38:-0.063603997 50:0.40429801 #
-0.5 5:-0.48666501 12:0.65956098 25:-0.259592 28:-0.18276601 38:-0.063603997 50:-0.615345 #
0.5 5:-0.48666501 12:-0.66384602 25:-0.259592 28:1.759084 38:-0.063603997 50:0.99666202 #
0.5 5:-0.31270799 12:0.59404498 25:-0.259592 28:0.31302601 38:0.436492 50:1.093771 #
0.5 5:-0.48666501 12:0.436809 25:-0.259592 28:-0.18276601 38:-0.063603997 50:1.5793149 #
-0.5 5:-0.48666501 12:0.72507602 25:-0.259592 28:-0.18276601 38:-0.063603997 50:-0.42598301 #
-0.5 5:-0.48666501 12:1.118167 25:-0.259592 28:-0.18276601 38:-0.063603997 50:-0.615345 #
0.5 5:-0.48666501 12:-0.66384602 25:-0.259592 28:-0.18276601 38:-0.063603997 50:-0.615345 #
-0.5 5:-0.48666501 12:0.84300297 25:-0.259592 28:-0.18276601 38:-0.063603997 50:-0.615345 #
0.5 5:-0.48666501 12:1.458846 25:-0.259592 28:-0.18276601 38:-0.063603997 50:-0.615345 #
0.5 5:0.38311899 12:-0.0086939996 25:-0.259592 28:-0.18276601 38:-0.063603997 50:-0.615345 #
-0.5 5:-0.48666501 12:0.85610598 25:-0.259592 28:-0.18276601 38:-0.063603997 50:-0.615345 #
0.5 5:-0.153248 12:1.825731 25:-0.259592 28:-0.18276601 38:-0.063603997 50:-0.076390997 #
-0.5 5:-0.48666501 12:1.105064 25:-0.259592 28:-0.18276601 38:-0.063603997 50:-0.615345 #
0.5 5:-0.48666501 12:-0.66384602 25:-0.259592 28:-0.18276601 38:-0.063603997 50:1.899774 #
-0.5 5:-0.48666501 12:0.85610598 25:-0.259592 28:-0.18276601 38:-0.063603997 50:-0.615345 #
0.5 5:-0.48666501 12:0.98713702 25:-0.259592 28:-0.18276601 38:-0.063603997 50:0.34603301 #
-0.5 5:-0.48666501 12:0.93472499 25:-0.259592 28:-0.18276601 38:-0.063603997 50:-0.086102001 #
-0.5 5:-0.48666501 12:1.00024 25:-0.259592 28:-0.18276601 38:-0.063603997 50:-0.076390997 #
0.5 5:0.26714799 12:0.71197301 25:-0.259592 28:-0.18276601 38:-0.063603997 50:0.30718899 #
-0.5 5:-0.48666501 12:0.882312 25:-0.259592 28:-0.18276601 38:-0.063603997 50:-0.615345 #
0.5 5:-0.48666501 12:1.30161 25:-0.259592 28:-0.18276601 38:-0.063603997 50:-0.615345 #
0.5 5:-0.48666501 12:-0.66384602 25:-0.259592 28:-0.18276601 38:-0.063603997 50:-0.139512 #
-0.5 5:-0.48666501 12:0.94782799 25:-0.259592 28:-0.18276601 38:-0.063603997 50:-0.139512 #
0.5 5:0.122184 12:0.122336 25:-0.259592 28:-0.18276601 38:-0.063603997 50:-0.222054 #
0.5 5:-0.48666501 12:1.314713 25:-0.259592 28:-0.18276601 38:-0.063603997 50:-0.183211 #
0.5 5:-0.124255 12:1.367125 25:-0.259592 28:-0.18276601 38:-0.063603997 50:0.25377899 #
-0.5 5:-0.48666501 12:0.89541501 25:-0.259592 28:-0.18276601 38:-0.063603997 50:-0.615345 #
-0.5 5:-0.48666501 12:1.026446 25:-0.259592 28:-0.18276601 38:-0.063603997 50:-0.105524 #
0.5 5:-0.48666501 12:0.86920899 25:-0.259592 28:-0.18276601 38:-0.063603997 50:-0.615345 #
-0.5 5:-0.48666501 12:0.90851802 25:-0.259592 28:-0.18276601 38:-0.063603997 50:-0.615345 #
0.5 5:-0.48666501 12:1.288507 25:-0.259592 28:-0.18276601 38:-0.063603997 50:-0.615345 #
-0.5 5:-0.48666501 12:1.026446 25:-0.259592 28:-0.18276601 38:-0.063603997 50:-0.615345 #
0.5 5:-0.48666501 12:1.1312701 25:-0.259592 28:-0.18276601 38:-0.063603997 50:-0.333729 #
-0.5 5:-0.48666501 12:0.97403401 25:-0.259592 28:-0.18276601 38:-0.063603997 50:-0.615345 #
0.5 5:-0.48666501 12:0.89541501 25:-0.259592 28:-0.18276601 38:-0.063603997 50:-0.615345 #
-0.5 5:-0.48666501 12:1.013343 25:-0.259592 28:-0.18276601 38:-0.063603997 50:-0.615345 #
0.5 5:-0.48666501 12:0.89541501 25:-0.259592 28:-0.18276601 38:-0.063603997 50:-0.615345 #
0.5 5:-0.48666501 12:1.052652 25:-0.259592 28:-0.18276601 38:-0.063603997 50:-0.615345 #
-0.5 5:-0.48666501 12:0.13543899 25:-0.259592 28:-0.18276601 38:-0.063603997 50:-0.615345 #
-0.5 5:-0.48666501 12:-0.66384602 25:-0.259592 28:-0.18276601 38:-0.063603997 50:-0.615345 #
-0.5 5:-0.48666501 12:4.210485 25:0.223332 28:-0.18276601 38:-0.063603997 50:-0.081246004 #
-0.5 5:-0.31270799 12:-0.66384602 25:-0.259592 28:-0.18276601 38:-0.063603997 50:-0.29003 #
-0.5 5:0.035206001 12:-0.192137 25:-0.259592 28:-0.18276601 38:-0.063603997 50:-0.615345 #
-0.5 5:-0.48666501 12:-0.12662201 25:-0.259592 28:-0.18276601 38:-0.063603997 50:-0.615345 #
-0.5 5:-0.022779999 12:-0.24454901 25:-0.259592 28:-0.18276601 38:-0.063603997 50:-0.33858499 #
0.5 5:-0.48666501 12:1.1312701 25:-0.259592 28:-0.18276601 38:-0.063603997 50:-0.333729 #
-0.5 5:0.89049399 12:-0.048004001 25:-0.259592 28:-0.18276601 38:3.895484 50:-0.26089799 #
0.5 5:-0.48666501 12:1.026446 25:-0.259592 28:-0.18276601 38:-0.063603997 50:-0.43569401 #
-0.5 5:-0.48666501 12:3.0705199 25:-0.259592 28:-0.18276601 38:-0.063603997 50:-0.615345 #
0.5 5:-0.48666501 12:1.1312701 25:-0.259592 28:-0.18276601 38:-0.063603997 50:-0.333729 #
0.5 5:-0.48666501 12:0.94782799 25:-0.259592 28:-0.18276601 38:-0.063603997 50:-0.615345 #
-0.5 5:-0.48666501 12:3.0705199 25:-0.259592 28:-0.18276601 38:-0.063603997 50:-0.615345 #
0.5 5:-0.28371501 12:0.214057 25:-0.259592 28:-0.18276601 38:-0.063603997 50:-0.251187 #
0.5 5:-0.48666501 12:1.262301 25:-0.259592 28:-0.18276601 38:-0.063603997 50:-0.615345 #
0.5 5:0.209162 12:1.340919 25:-0.259592 28:-0.18276601 38:-0.063603997 50:-0.43083799 #
-0.5 5:-0.48666501 12:-0.66384602 25:-0.259592 28:-0.18276601 38:-0.063603997 50:-0.615345 #
0.5 5:-0.051773001 12:1.43264 25:-0.259592 28:-0.18276601 38:-0.063603997 50:-0.43569401 #
0.5 5:0.194666 12:1.196785 25:-0.259592 28:-0.18276601 38:-0.063603997 50:-0.24633101 #
-0.5 5:-0.48666501 12:-0.66384602 25:-0.259592 28:-0.18276601 38:-0.063603997 50:-0.615345 #
0.5 5:-0.48666501 12:1.013343 25:-0.259592 28:-0.18276601 38:-0.063603997 50:-0.615345 #
-0.5 5:-0.48666501 12:2.873975 25:-0.259592 28:-0.18276601 38:-0.063603997 50:-0.615345 #
-0.5 5:-0.48666501 12:2.690532 25:-0.259592 28:-0.18276601 38:-0.063603997 50:-0.615345 #
0.5 5:-0.167744 12:1.105064 25:-0.259592 28:-0.18276601 38:-0.063603997 50:-0.076390997 #
0.5 5:-0.211233 12:1.327816 25:-0.259592 28:-0.18276601 38:-0.063603997 50:-0.202632 #
-0.5 5:-0.153248 12:-0.362477 25:-0.259592 28:-0.18276601 38:-0.063603997 50:-0.615345 #
0.5 5:0.44110501 12:0.174748 25:-0.259592 28:-0.18276601 38:-0.063603997 50:-0.615345 #
-0.5 5:-0.48666501 12:2.6119139 25:-0.259592 28:-0.18276601 38:-0.063603997 50:-0.615345 #
-0.5 5:-0.124255 12:-0.0086939996 25:-0.259592 28:-0.18276601 38:-0.063603997 50:-0.615345 #
0.5 5:0.064198002 12:1.340919 25:-0.259592 28:-0.18276601 38:-0.063603997 50:-0.01327 #
0.5 5:-0.48666501 12:1.026446 25:-0.259592 28:-0.18276601 38:-0.063603997 50:-0.615345 #
-0.5 5:-0.48666501 12:-0.66384602 25:-0.259592 28:-0.18276601 38:-0.063603997 50:-0.615345 #
0.5 5:-0.109759 12:1.052652 25:-0.259592 28:-0.18276601 38:-0.063603997 50:-0.43083799 #
-0.5 5:-0.48666501 12:2.742944 25:-0.259592 28:-0.18276601 38:-0.063603997 50:0.064416997 #
0.5 5:0.006213 12:1.1443731 25:-0.259592 28:-0.18276601 38:-0.063603997 50:-0.333729 #
-0.5 5:-0.48666501 12:3.0181079 25:-0.259592 28:-0.18276601 38:-0.063603997 50:0.180948 #
-0.5 5:-0.48666501 12:-0.37558001 25:-0.259592 28:-0.18276601 38:-0.063603997 50:-0.615345 #
0.5 5:-0.48666501 12:1.052652 25:-0.259592 28:-0.18276601 38:-0.063603997 50:-0.615345 #
0.5 5:0.078694999 12:1.4195369 25:-0.259592 28:-0.18276601 38:-0.063603997 50:-0.43569401 #
-0.5 5:-0.341701 12:-0.38868299 25:-0.259592 28:-0.18276601 38:-0.063603997 50:-0.53280199 #
0.5 5:-0.066269003 12:1.4064341 25:-0.259592 28:-0.18276601 38:-0.063603997 50:-0.43569401 #
-0.5 5:-0.48666501 12:2.3891621 25:-0.259592 28:-0.18276601 38:-0.063603997 50:0.33146599 #
-0.5 5:-0.051773001 12:-0.27075499 25:-0.259592 28:-0.18276601 38:-0.063603997 50:-0.41141599 #
0.5 5:-0.48666501 12:1.078858 25:-0.259592 28:-0.18276601 38:-0.063603997 50:-0.615345 #
0.5 5:-0.48666501 12:1.052652 25:-0.259592 28:-0.18276601 38:-0.063603997 50:-0.615345 #
-0.5 5:-0.48666501 12:0.266469 25:-0.259592 28:-0.18276601 38:-0.063603997 50:-0.615345 #
-0.5 5:0.006213 12:-0.362477 25:-0.259592 28:-0.18276601 38:-0.063603997 50:0.127538 #
0.5 5:-0.48666501 12:1.052652 25:-0.259592 28:-0.18276601 38:-0.063603997 50:-0.615345 #
-0.5 5:-0.48666501 12:-0.20524 25:-0.259592 28:-0.18276601 38:-0.063603997 50:-0.615345 #
-0.5 5:-0.48666501 12:0.30577901 25:-0.259592 28:-0.18276601 38:-0.063603997 50:-0.615345 #
-0.5 5:-0.48666501 12:1.747113 25:-0.259592 28:-0.18276601 38:-0.063603997 50:0.151815 #
0.5 5:-0.48666501 12:1.052652 25:-0.259592 28:-0.18276601 38:-0.063603997 50:-0.615345 #
-0.5 5:-0.48666501 12:0.214057 25:-0.259592 28:-0.18276601 38:-0.063603997 50:-0.071534999 #
-0.5 5:-0.48666501 12:2.4153681 25:-0.259592 28:-0.18276601 38:-0.063603997 50:0.76360101 #
0.5 5:-0.48666501 12:1.052652 25:-0.259592 28:-0.18276601 38:-0.063603997 50:-0.615345 #
-0.5 5:0.513587 12:1.1443731 25:-0.080443002 28:-0.18276601 38:-0.063603997 50:-0.29488599 #
0.5 5:0.078694999 12:1.3933311 25:-0.259592 28:-0.18276601 38:-0.063603997 50:-0.43569401 #
-0.5 5:-0.48666501 12:0.240263 25:-0.259592 28:-0.18276601 38:-0.063603997 50:-0.615345 #
0.5 5:-0.48666501 12:1.052652 25:-0.259592 28:-0.18276601 38:-0.063603997 50:-0.615345 #
-0.5 5:-0.48666501 12:-0.66384602 25:-0.259592 28:-0.18276601 38:-0.063603997 50:0.31204399 #
0.5 5:-0.48666501 12:1.052652 25:-0.259592 28:-0.18276601 38:-0.063603997 50:-0.615345 #
-0.5 5:-0.48666501 12:2.4153681 25:-0.259592 28:-0.18276601 38:-0.063603997 50:1.13747 #
-0.5 5:-0.48666501 12:0.122336 25:-0.259592 28:-0.18276601 38:-0.063603997 50:-0.615345 #
0.5 5:0.078694999 12:1.3933311 25:-0.259592 28:-0.18276601 38:-0.063603997 50:-0.43569401 #
-0.5 5:-0.48666501 12:0.122336 25:-0.259592 28:-0.18276601 38:-0.063603997 50:-0.615345 #
0.5 5:0.22365899 12:1.3933311 25:-0.259592 28:-0.18276601 38:-0.063603997 50:-0.43569401 #
-0.5 5:-0.48666501 12:-0.061106998 25:-0.259592 28:-0.18276601 38:-0.063603997 50:-0.615345 #
-0.5 5:-0.48666501 12:1.707804 25:-0.259592 28:-0.18276601 38:-0.063603997 50:0.15667 #
0.5 5:-0.48666501 12:-0.66384602 25:-0.259592 28:-0.18276601 38:-0.063603997 50:-0.615345 #
0.5 5:-0.48666501 12:-0.66384602 25:-0.259592 28:-0.18276601 38:-0.063603997 50:-0.615345 #
0.5 5:-0.48666501 12:-0.66384602 25:-0.259592 28:-0.18276601 38:-0.063603997 50:1.535616 #
-0.5 5:0.006213 12:1.1312701 25:-0.259592 28:-0.18276601 38:-0.063603997 50:0.51111799 #
-0.5 5:-0.48666501 12:-0.493507 25:-0.259592 28:-0.18276601 38:-0.063603997 50:-0.31916299 #
-0.5 5:-0.48666501 12:-0.46730101 25:-0.259592 28:-0.18276601 38:-0.063603997 50:-0.36286199 #
0.5 5:-0.022779999 12:1.039549 25:-0.259592 28:-0.18276601 38:-0.063603997 50:0.506262 #
-0.5 5:-0.48666501 12:2.4546771 25:-0.259592 28:-0.18276601 38:-0.063603997 50:1.3268321 #
0.5 5:-0.48666501 12:0.69887 25:-0.259592 28:-0.18276601 38:-0.063603997 50:0.57909399 #
0.5 5:-0.48666501 12:0.82990003 25:-0.259592 28:-0.18276601 38:-0.063603997 50:-0.615345 #
-0.5 5:-0.356197 12:-0.29696101 25:-0.259592 28:-0.18276601 38:-0.063603997 50:-0.34344 #
-0.5 5:-0.240226 12:-0.218343 25:-0.259592 28:-0.18276601 38:-0.063603997 50:-0.30459699 #
0.5 5:-0.19673701 12:1.039549 25:-0.259592 28:-0.18276601 38:-0.063603997 50:0.069271997 #
-0.5 5:-0.48666501 12:2.4546771 25:-0.259592 28:-0.18276601 38:-0.063603997 50:1.302555 #
0.5 5:-0.48666501 12:-0.66384602 25:-0.259592 28:-0.18276601 38:-0.063603997 50:-0.615345 #
0.5 5:-0.48666501 12:0.85610598 25:-0.259592 28:-0.18276601 38:-0.063603997 50:0.31690001 #
-0.5 5:-0.48666501 12:-0.27075499 25:-0.259592 28:-0.18276601 38:-0.063603997 50:-0.33858499 #
0.5 5:-0.48666501 12:0.790591 25:-0.259592 28:-0.18276601 38:-0.063603997 50:0.054706 #
0.5 5:-0.341701 12:-0.27075499 25:-0.22064701 28:-0.18276601 38:-0.063603997 50:-0.44054899 #
-0.5 5:-0.48666501 12:-0.25765201 25:-0.259592 28:-0.18276601 38:-0.063603997 50:-0.32887399 #
0.5 5:-0.48666501 12:0.85610598 25:-0.259592 28:-0.18276601 38:-0.063603997 50:-0.324018 #
0.5 5:-0.48666501 12:0.62025201 25:-0.259592 28:-0.18276601 38:-0.063603997 50:0.54025 #
-0.5 5:-0.48666501 12:1.956762 25:-0.259592 28:-0.18276601 38:-0.063603997 50:1.059783 #
-0.5 5:-0.26921901 12:-0.061106998 25:-0.259592 28:-0.18276601 38:-0.063603997 50:0.049851 #
-0.5 5:-0.48666501 12:1.4064341 25:-0.259592 28:-0.18276601 38:-0.063603997 50:-0.01327 #
0.5 5:-0.109759 12:-0.66384602 25:-0.259592 28:-0.18276601 38:-0.063603997 50:2.5698249 #
-0.5 5:-0.48666501 12:0.97403401 25:-0.259592 28:-0.18276601 38:-0.063603997 50:0.57909399 #
0.5 5:-0.48666501 12:0.64645803 25:-0.259592 28:-0.18276601 38:-0.063603997 50:-0.615345 #
-0.5 5:-0.48666501 12:-0.165931 25:-0.259592 28:-0.18276601 38:-0.063603997 50:-0.256042 #
0.5 5:-0.48666501 12:0.62025201 25:-0.259592 28:-0.18276601 38:-0.063603997 50:0.53539503 #
0.5 5:-0.138751 12:0.94782799 25:-0.259592 28:-0.18276601 38:-0.063603997 50:-0.052113999 #
-0.5 5:-0.48666501 12:-0.100416 25:-0.259592 28:-0.18276601 38:-0.063603997 50:-0.21234301 #
0.5 5:-0.48666501 12:0.64645803 25:-0.259592 28:-0.18276601 38:-0.063603997 50:0.26348999 #
-0.5 5:-0.48666501 12:-0.048004001 25:-0.259592 28:-0.18276601 38:-0.063603997 50:-0.45511499 #
0.5 5:-0.48666501 12:0.62025201 25:-0.259592 28:-0.18276601 38:-0.063603997 50:0.51111799 #
-0.5 5:-0.48666501 12:1.4064341 25:-0.259592 28:-0.18276601 38:-0.063603997 50:0.77816701 #
-0.5 5:-0.48666501 12:0.069923997 25:-0.259592 28:-0.18276601 38:-0.063603997 50:-0.134656 #
0.5 5:-0.48666501 12:-0.66384602 25:-0.259592 28:-0.18276601 38:-0.063603997 50:1.341398 #
-0.5 5:-0.48666501 12:0.331985 25:-0.259592 28:-0.18276601 38:-0.063603997 50:0.030429 #
0.5 5:-0.48666501 12:0.39750001 25:-0.259592 28:-0.18276601 38:-0.063603997 50:-0.615345 #
-0.5 5:-0.48666501 12:-0.66384602 25:-0.259592 28:-0.18276601 38:-0.063603997 50:-0.615345 #
-0.5 5:-0.48666501 12:1.707804 25:-0.259592 28:-0.18276601 38:-0.063603997 50:0.77331102 #
0.5 5:-0.240226 12:0.86920899 25:-0.259592 28:-0.18276601 38:-0.063603997 50:0.030429 #
0.5 5:-0.48666501 12:0.62025201 25:-0.259592 28:-0.18276601 38:-0.063603997 50:0.51111799 #
-0.5 5:-0.48666501 12:0.266469 25:-0.259592 28:-0.18276601 38:-0.063603997 50:-0.032692 #
0.5 5:-0.41418299 12:0.790591 25:-0.259592 28:-0.18276601 38:-0.063603997 50:-0.197777 #
0.5 5:-0.48666501 12:0.56783903 25:-0.259592 28:-0.18276601 38:-0.063603997 50:0.51597297 #
-0.5 5:-0.48666501 12:0.266469 25:-0.259592 28:-0.18276601 38:-0.063603997 50:-0.027836001 #
-0.5 5:-0.211233 12:0.34508801 25:-0.111599 28:0.602238 38:-0.063603997 50:-0.066679999 #
0.5 5:-0.48666501 12:0.27957299 25:-0.259592 28:-0.18276601 38:-0.063603997 50:1.006373 #
0.5 5:-0.48666501 12:0.384397 25:-0.259592 28:-0.18276601 38:-0.063603997 50:-0.615345 #
0.5 5:-0.109759 12:0.72507602 25:-0.259592 28:-0.18276601 38:-0.063603997 50:0.83643198 #
-0.5 5:-0.48666501 12:0.331985 25:-0.259592 28:-0.18276601 38:-0.063603997 50:0.030429 #
0.5 5:-0.48666501 12:0.607149 25:-0.259592 28:-0.18276601 38:-0.063603997 50:-0.333729 #
-0.5 5:-0.48666501 12:0.34508801 25:-0.259592 28:-0.18276601 38:-0.063603997 50:0.020718001 #
0.5 5:-0.48666501 12:0.54163301 25:-0.259592 28:-0.18276601 38:-0.063603997 50:-0.12980101 #
-0.5 5:-0.48666501 12:0.436809 25:-0.259592 28:-0.18276601 38:-0.063603997 50:0.035284001 #
-0.5 5:-0.48666501 12:1.170579 25:-0.259592 28:-0.18276601 38:-0.063603997 50:0.68105799 #
0.5 5:-0.41418299 12:0.607149 25:-0.259592 28:-0.18276601 38:-0.063603997 50:-0.29488599 #
-0.5 5:-0.48666501 12:1.170579 25:-0.259592 28:-0.18276601 38:-0.063603997 50:0.67620301 #
0.5 5:-0.48666501 12:0.22716001 25:-0.259592 28:-0.18276601 38:-0.063603997 50:-0.615345 #
-0.48744028611653866800423884342308 5:-0.48666501 12:0.20095401 25:-0.158334 28:-0.18276601 38:-0.063603997 50:-0.41141599 #
0.5 5:0.38311899 12:0.122336 25:-0.259592 28:-0.18276601 38:-0.063603997 50:-0.615345 #
-0.5 5:-0.48666501 12:0.63335502 25:-0.259592 28:-0.18276601 38:-0.063603997 50:-0.163789 #
0.5 5:-0.48666501 12:0.148542 25:-0.259592 28:-0.18276601 38:-0.063603997 50:0.97238499 #
0.5 5:-0.48666501 12:0.52853 25:-0.259592 28:-0.18276601 38:-0.063603997 50:0.117827 #
-0.5 5:-0.48666501 12:0.48922101 25:-0.259592 28:-0.18276601 38:-0.063603997 50:0.030429 #
0.5 5:-0.48666501 12:0.51542699 25:-0.259592 28:-0.18276601 38:-0.063603997 50:0.093549997 #
-0.5 5:-0.48666501 12:0.67266399 25:-0.259592 28:-0.18276601 38:-0.063603997 50:0.132393 #
0.5 5:-0.41418299 12:0.607149 25:-0.259592 28:-0.18276601 38:-0.063603997 50:-0.29003 #
-0.5 5:-0.48666501 12:0.52853 25:-0.088232003 28:0.74684298 38:-0.063603997 50:0.132393 #
-0.5 5:-0.48666501 12:0.75128198 25:-0.259592 28:-0.18276601 38:-0.063603997 50:0.26348999 #
0.5 5:-0.29821199 12:0.73817903 25:-0.259592 28:-0.18276601 38:-0.063603997 50:-0.18806601 #
0.5 5:-0.48666501 12:0.44991201 25:-0.259592 28:-0.18276601 38:-0.063603997 50:0.093549997 #
-0.5 5:-0.48666501 12:0.97403401 25:-0.259592 28:-0.18276601 38:-0.063603997 50:0.278056 #
0.5 5:-0.41418299 12:0.607149 25:-0.259592 28:-0.18276601 38:-0.063603997 50:-0.29003 #
-0.5 5:-0.48666501 12:1.013343 25:-0.259592 28:-0.18276601 38:-0.063603997 50:0.48684001 #
0.5 5:-0.48666501 12:0.27957299 25:-0.259592 28:0.80881703 38:-0.063603997 50:0.28291199 #
0.5 5:-0.022779999 12:1.013343 25:-0.259592 28:-0.18276601 38:-0.063603997 50:-0.139512 #
0.5 5:-0.48666501 12:0.266469 25:-0.259592 28:-0.18276601 38:-0.063603997 50:0.67134702 #
0.5 5:-0.48666501 12:-0.66384602 25:-0.259592 28:-0.18276601 38:-0.063603997 50:1.516194 #
0.5 5:0.45560101 12:0.187851 25:-0.259592 28:-0.18276601 38:-0.063603997 50:-0.615345 #
-0.5 5:-0.48666501 12:-0.66384602 25:-0.259592 28:-0.18276601 38:-0.063603997 50:-0.615345 #
0.5 5:-0.48666501 12:0.31888199 25:-0.259592 28:-0.18276601 38:-0.063603997 50:-0.615345 #
0.5 5:-0.48666501 12:0.30577901 25:-0.259592 28:-0.18276601 38:-0.063603997 50:-0.615345 #
-0.00076997170458690047945005119345296 5:11.588841 12:-0.66384602 25:-0.259592 28:-0.18276601 38:34.651344 50:-0.615345 #
0.5 5:-0.48666501 12:-0.66384602 25:-0.259592 28:-0.18276601 38:-0.063603997 50:-0.251187 #
0.5 5:-0.48666501 12:-0.66384602 25:-0.259592 28:-0.18276601 38:-0.063603997 50:1.2879879 #
-0.5 5:-0.48666501 12:-0.66384602 25:-0.259592 28:-0.18276601 38:-0.063603997 50:-0.615345 #
-0.5 5:-0.48666501 12:1.078858 25:-0.259592 28:-0.18276601 38:-0.063603997 50:1.312266 #
-0.5 5:-0.48666501 12:-0.66384602 25:-0.259592 28:-0.18276601 38:-0.063603997 50:3.9196379 #
-0.5 5:-0.48666501 12:-0.66384602 25:-0.259592 28:-0.18276601 38:-0.063603997 50:3.5700459 #
-0.5 5:1.0499541 12:0.72507602 25:-0.259592 28:-0.18276601 38:4.3539052 50:1.2588561 #
0.5 5:-0.48666501 12:-0.66384602 25:-0.259592 28:-0.18276601 38:-0.063603997 50:-0.615345 #
0.5 5:0.44110501 12:0.174748 25:-0.259592 28:-0.18276601 38:-0.063603997 50:1.657002 #
-0.5 5:-0.48666501 12:-0.66384602 25:-0.259592 28:-0.18276601 38:-0.063603997 50:-0.615345 #
-0.5 5:-0.095261998 12:-0.31006399 25:-0.049286999 28:0.93276501 38:-0.063603997 50:-0.047258001 #
0.5 5:-0.48666501 12:-0.66384602 25:-0.259592 28:-0.18276601 38:-0.063603997 50:1.205446 #
-0.5 5:-0.48666501 12:-0.66384602 25:-0.259592 28:-0.18276601 38:-0.063603997 50:0.433431 #
-0.5 5:-0.48666501 12:-0.66384602 25:-0.259592 28:-0.18276601 38:-0.063603997 50:-0.615345 #
0.5 5:-0.48666501 12:-0.218343 25:-0.259592 28:-0.18276601 38:-0.063603997 50:1.2928441 #
0.5 5:0.47009799 12:-0.231446 25:-0.259592 28:-0.18276601 38:-0.063603997 50:-0.324018 #
-0.5 5:-0.48666501 12:-0.66384602 25:-0.259592 28:-0.18276601 38:-0.063603997 50:-0.615345 #
0.5 5:-0.48666501 12:-0.218343 25:-0.259592 28:-0.18276601 38:-0.063603997 50:1.2928441 #
-0.5 5:-0.48666501 12:1.288507 25:-0.259592 28:-0.18276601 38:-0.063603997 50:0.54025 #
0.5 5:-0.48666501 12:-0.66384602 25:-0.259592 28:-0.18276601 38:-0.063603997 50:1.205446 #
-0.5 5:-0.48666501 12:-0.66384602 25:-0.259592 28:-0.18276601 38:-0.063603997 50:3.5749011 #
-0.5 5:-0.48666501 12:-0.66384602 25:-0.259592 28:-0.18276601 38:-0.063603997 50:-0.615345 #
0.5 5:-0.48666501 12:-0.66384602 25:-0.259592 28:-0.18276601 38:-0.063603997 50:1.093771 #
-0.5 5:-0.48666501 12:-0.545919 25:-0.259592 28:-0.18276601 38:-0.063603997 50:-0.53280199 #
0.5 5:-0.48666501 12:-0.66384602 25:-0.259592 28:-0.18276601 38:-0.063603997 50:1.093771 #
-0.5 5:-0.48666501 12:-0.66384602 25:-0.259592 28:-0.18276601 38:-0.063603997 50:-0.615345 #
0.5 5:-0.48666501 12:0.214057 25:-0.259592 28:-0.18276601 38:-0.063603997 50:0.74417901 #
-0.5 5:-0.48666501 12:0.97403401 25:-0.259592 28:-0.18276601 38:-0.063603997 50:3.006815 #
0.5 5:-0.48666501 12:-0.66384602 25:-0.259592 28:-0.18276601 38:-0.063603997 50:1.025794 #
-0.5 5:-0.48666501 12:-0.66384602 25:-0.259592 28:-0.18276601 38:-0.063603997 50:-0.615345 #
0.5 5:-0.25472301 12:-0.034899998 25:-0.259592 28:-0.18276601 38:-0.063603997 50:1.08406 #
0.5 5:-0.48666501 12:0.109233 25:-0.259592 28:-0.18276601 38:-0.063603997 50:0.63250399 #
-0.5 5:-0.48666501 12:-0.66384602 25:-0.259592 28:-0.18276601 38:-0.063603997 50:-0.615345 #
0.5 5:-0.48666501 12:-0.66384602 25:-0.259592 28:-0.18276601 38:-0.063603997 50:1.08406 #
-0.5 5:-0.48666501 12:-0.66384602 25:-0.259592 28:-0.18276601 38:-0.063603997 50:-0.615345 #
0.5 5:-0.48666501 12:-0.66384602 25:-0.259592 28:-0.18276601 38:-0.063603997 50:1.088915 #
0.5 5:0.45560101 12:-0.24454901 25:-0.259592 28:-0.18276601 38:-0.063603997 50:-0.100668 #
0.5 5:-0.48666501 12:-0.0086939996 25:-0.259592 28:-0.18276601 38:-0.063603997 50:0.68105799 #
-0.5 5:-0.138751 12:-0.34937301 25:-0.259592 28:-0.18276601 38:-0.063603997 50:0.33146599 #
0.5 5:-0.48666501 12:0.109233 25:-0.259592 28:-0.18276601 38:-0.063603997 50:0.68105799 #
-0.5 5:-0.48666501 12:0.71197301 25:-0.259592 28:-0.18276601 38:-0.063603997 50:2.6717889 #
-0.5 5:-0.48666501 12:1.091961 25:-0.259592 28:-0.18276601 38:-0.063603997 50:1.778388 #
-0.5 5:-0.48666501 12:-0.66384602 25:-0.259592 28:-0.18276601 38:-0.063603997 50:-0.615345 #
-0.5 5:-0.22573 12:0.043717999 25:-0.259592 28:-0.18276601 38:-0.063603997 50:0.244068 #
0.5 5:-0.22573 12:0.069923997 25:-0.259592 28:-0.18276601 38:-0.063603997 50:0.72961301 #
-0.5 5:-0.48666501 12:-0.66384602 25:-0.259592 28:-0.18276601 38:-0.063603997 50:2.8757181 #
0.5 5:-0.095261998 12:0.056821 25:-0.259592 28:-0.18276601 38:-0.063603997 50:0.73932302 #
0.5 5:-0.48666501 12:-0.66384602 25:-0.259592 28:-0.18276601 38:-0.063603997 50:-0.615345 #
-0.5 5:-0.48666501 12:-0.66384602 25:-0.259592 28:-0.18276601 38:-0.063603997 50:-0.615345 #
0.5 5:-0.080766 12:0.069923997 25:-0.259592 28:-0.18276601 38:-0.063603997 50:0.76360101 #
0.5 5:-0.167744 12:0.48922101 25:-0.259592 28:-0.18276601 38:-0.063603997 50:0.65192503 #
-0.5 5:0.45560101 12:0.187851 25:0.24669901 28:-0.18276601 38:-0.063603997 50:-0.615345 #
-0.5 5:-0.0082839997 12:-0.231446 25:-0.0025520001 28:1.201319 38:-0.063603997 50:0.025573 #
0.5 5:0.049702 12:0.30577901 25:-0.259592 28:-0.18276601 38:-0.063603997 50:0.80244398 #
0.5 5:0.165673 12:0.51542699 25:-0.259592 28:-0.18276601 38:-0.063603997 50:0.59851599 #
-0.5 5:-0.48666501 12:-0.66384602 25:-0.259592 28:-0.18276601 38:-0.063603997 50:0.53053898 #
-0.5 5:-0.48666501 12:0.35819101 25:-0.259592 28:-0.18276601 38:-0.063603997 50:0.37031001 #
-0.5 5:-0.48666501 12:0.161645 25:-0.259592 28:-0.18276601 38:-0.063603997 50:0.151815 #
0.5 5:-0.48666501 12:-0.66384602 25:-0.259592 28:-0.18276601 38:-0.063603997 50:0.85585397 #
0.5 5:-0.48666501 12:-0.66384602 25:-0.259592 28:-0.18276601 38:-0.063603997 50:0.73446798 #
0.5 5:-0.48666501 12:-0.66384602 25:-0.259592 28:-0.18276601 38:-0.063603997 50:0.70047998 #
-0.5 5:-0.48666501 12:-0.074210003 25:-0.259592 28:-0.18276601 38:-0.063603997 50:0.044994999 #
-0.5 5:-0.48666501 12:0.096129999 25:-0.259592 28:-0.18276601 38:-0.063603997 50:0.28291199 #
0.5 5:-0.48666501 12:-0.66384602 25:-0.259592 28:-0.18276601 38:-0.063603997 50:0.68591398 #
-0.5 5:-0.48666501 12:-0.66384602 25:-0.259592 28:-0.18276601 38:-0.063603997 50:3.2690091 #
0.5 5:-0.48666501 12:-0.66384602 25:-0.259592 28:-0.18276601 38:-0.063603997 50:0.61793703 #
0.5 5:-0.356197 12:0.083026998 25:-0.259592 28:-0.18276601 38:-0.063603997 50:0.50140703 #
-0.5 5:-0.25472301 12:-0.454198 25:-0.259592 28:-0.18276601 38:-0.063603997 50:1.20059 #
0.5 5:-0.48666501 12:0.292676 25:-0.259592 28:-0.18276601 38:-0.063603997 50:-0.615345 #
-0.5 5:-0.48666501 12:-0.66384602 25:-0.259592 28:-0.18276601 38:-0.063603997 50:-0.217199 #
0.5 5:0.22365899 12:0.62025201 25:-0.259592 28:-0.18276601 38:-0.063603997 50:0.63735902 #
0.5 5:0.397616 12:0.54163301 25:-0.259592 28:-0.18276601 38:-0.063603997 50:0.70047998 #
-0.5 5:-0.48666501 12:-0.66384602 25:-0.259592 28:-0.18276601 38:-0.063603997 50:-0.21234301 #
0.5 5:-0.48666501 12:-0.66384602 25:-0.259592 28:-0.18276601 38:-0.063603997 50:0.506262 #
-0.5 5:-0.48666501 12:-0.29696101 25:-0.259592 28:-0.18276601 38:-0.063603997 50:-0.115234 #
-0.5 5:-0.356197 12:-0.66384602 25:-0.259592 28:-0.18276601 38:-0.063603997 50:-0.052113999 #
0.5 5:-0.48666501 12:-0.66384602 25:-0.259592 28:-0.18276601 38:-0.063603997 50:0.41886401 #
0.5 5:-0.48666501 12:-0.66384602 25:-0.259592 28:-0.18276601 38:-0.063603997 50:0.414009 #
-0.5 5:-0.48666501 12:-0.66384602 25:-0.259592 28:-0.18276601 38:-0.063603997 50:-0.124945 #
0.5 5:-0.48666501 12:-0.66384602 25:-0.259592 28:-0.18276601 38:-0.063603997 50:0.414009 #
-0.5 5:-0.48666501 12:-0.66384602 25:-0.259592 28:-0.18276601 38:-0.063603997 50:-0.12009 #
0.5 5:-0.48666501 12:-0.66384602 25:-0.259592 28:-0.18276601 38:-0.063603997 50:-0.192921 #
-0.5 5:-0.48666501 12:-0.66384602 25:-0.259592 28:-0.18276601 38:-0.063603997 50:-0.324018 #
0.5 5:-0.48666501 12:-0.66384602 25:-0.259592 28:-0.18276601 38:-0.063603997 50:0.39458701 #
-0.5 5:-0.48666501 12:-0.66384602 25:-0.259592 28:-0.18276601 38:-0.063603997 50:-0.090957001 #
0.5 5:-0.48666501 12:-0.66384602 25:-0.259592 28:-0.18276601 38:-0.063603997 50:0.39458701 #
-0.5 5:-0.31270799 12:-0.27075499 25:-0.259592 28:-0.18276601 38:-0.063603997 50:0.47713 #
-0.5 5:-0.48666501 12:-0.66384602 25:-0.259592 28:-0.18276601 38:-0.063603997 50:-0.081246004 #
-0.5 5:-0.48666501 12:1.222991 25:-0.134967 28:-0.18276601 38:-0.063603997 50:0.92868602 #
0.5 5:-0.48666501 12:-0.66384602 25:-0.259592 28:-0.18276601 38:-0.063603997 50:0.389732 #
0.5 5:-0.48666501 12:-0.66384602 25:-0.259592 28:-0.18276601 38:-0.063603997 50:0.389732 #
-0.5 5:-0.48666501 12:-0.66384602 25:-0.259592 28:-0.18276601 38:-0.063603997 50:-0.071534999 #
0.5 5:-0.48666501 12:-0.66384602 25:-0.259592 28:-0.18276601 38:-0.063603997 50:0.36545399 #
-0.5 5:-0.48666501 12:0.31888199 25:-0.259592 28:-0.18276601 38:-0.063603997 50:0.66163599 #
-0.5 5:-0.48666501 12:0.27957299 25:-0.259592 28:-0.18276601 38:-0.063603997 50:1.555038 #
-0.5 5:-0.356197 12:-0.048004001 25:-0.259592 28:-0.120792 38:-0.063603997 50:0.66163599 #
-0.5 5:-0.48666501 12:-0.218343 25:-0.259592 28:-0.18276601 38:-0.063603997 50:-0.022980999 #
0.5 5:-0.48666501 12:-0.66384602 25:-0.259592 28:-0.18276601 38:-0.063603997 50:0.36059901 #
-0.5 5:-0.41418299 12:-0.66384602 25:-0.259592 28:-0.18276601 38:-0.063603997 50:0.84614301 #
-0.5 5:-0.48666501 12:-0.66384602 25:-0.259592 28:-0.18276601 38:-0.063603997 50:-0.066679999 #
0.5 5:-0.48666501 12:-0.66384602 25:-0.259592 28:-0.18276601 38:-0.063603997 50:0.35574299 #
-0.5 5:-0.48666501 12:-0.66384602 25:-0.259592 28:-0.18276601 38:-0.063603997 50:3.1476231 #
-0.5 5:-0.48666501 12:-0.66384602 25:-0.259592 28:-0.18276601 38:-0.063603997 50:-0.042403001 #
0.5 5:-0.48666501 12:-0.66384602 25:-0.259592 28:-0.18276601 38:-0.063603997 50:0.34117699 #
-0.5 5:-0.48666501 12:-0.66384602 25:-0.259592 28:-0.18276601 38:-0.063603997 50:-0.0084149996 #
0.5 5:-0.48666501 12:-0.66384602 25:-0.259592 28:-0.18276601 38:-0.063603997 50:0.32661101 #
-0.5 5:-0.48666501 12:-0.66384602 25:-0.259592 28:-0.18276601 38:-0.063603997 50:0.030429 #
-0.5 5:-0.48666501 12:-0.66384602 25:-0.259592 28:-0.18276601 38:-0.063603997 50:0.059562001 #
0.5 5:-0.48666501 12:-0.66384602 25:-0.259592 28:-0.18276601 38:-0.063603997 50:0.32661101 #
0.5 5:-0.48666501 12:-0.66384602 25:-0.259592 28:-0.18276601 38:-0.063603997 50:-0.15407801 #
0.5 5:-0.48666501 12:-0.66384602 25:-0.259592 28:-0.18276601 38:-0.063603997 50:0.31204399 #
-0.5 5:-0.48666501 12:-0.66384602 25:-0.259592 28:-0.18276601 38:-0.063603997 50:0.064416997 #
0.5 5:-0.48666501 12:-0.66384602 25:-0.259592 28:-0.18276601 38:-0.063603997 50:0.30233401 #
0.5 5:-0.48666501 12:-0.66384602 25:-0.259592 28:-0.18276601 38:-0.063603997 50:0.30233401 #
-0.5 5:-0.48666501 12:-0.66384602 25:-0.259592 28:-0.18276601 38:-0.063603997 50:0.083838999 #
0.5 5:-0.48666501 12:-0.66384602 25:-0.259592 28:-0.18276601 38:-0.063603997 50:0.30233401 #
-0.5 5:-0.48666501 12:-0.66384602 25:-0.259592 28:-0.18276601 38:-0.063603997 50:0.083838999 #
0.5 5:-0.48666501 12:-0.66384602 25:-0.259592 28:-0.18276601 38:-0.063603997 50:0.29747799 #
-0.5 5:-0.48666501 12:-0.66384602 25:-0.259592 28:-0.18276601 38:-0.063603997 50:0.21008 #
0.5 5:-0.48666501 12:-0.66384602 25:-0.259592 28:-0.18276601 38:-0.063603997 50:-0.0035590001 #
-0.5 5:-0.48666501 12:-0.66384602 25:-0.259592 28:-0.18276601 38:-0.063603997 50:0.098405004 #
0.5 5:-0.48666501 12:-0.66384602 25:-0.259592 28:-0.18276601 38:-0.063603997 50:0.28776699 #
-0.5 5:-0.48666501 12:-0.66384602 25:-0.259592 28:-0.18276601 38:-0.063603997 50:0.108116 #
0.5 5:-0.48666501 12:-0.66384602 25:-0.259592 28:-0.18276601 38:-0.063603997 50:0.26834601 #
-0.5 5:-0.48666501 12:-0.66384602 25:-0.259592 28:-0.18276601 38:-0.063603997 50:0.112971 #
0.5 5:-0.48666501 12:-0.66384602 25:-0.259592 28:-0.18276601 38:-0.063603997 50:0.248924 #
-0.5 5:-0.48666501 12:-0.66384602 25:-0.259592 28:-0.18276601 38:-0.063603997 50:0.132393 #
0.5 5:-0.48666501 12:-0.66384602 25:-0.259592 28:-0.18276601 38:-0.063603997 50:0.244068 #
-0.5 5:-0.48666501 12:-0.17903399 25:-0.259592 28:-0.18276601 38:-0.063603997 50:0.020718001 #
-0.5 5:-0.48666501 12:-0.66384602 25:-0.259592 28:-0.18276601 38:-0.063603997 50:0.13724899 #
0.5 5:-0.48666501 12:-0.66384602 25:-0.259592 28:-0.18276601 38:-0.063603997 50:0.244068 #
-0.5 5:-0.48666501 12:-0.66384602 25:-0.259592 28:-0.18276601 38:-0.063603997 50:0.176092 #
0.5 5:-0.48666501 12:-0.66384602 25:-0.259592 28:-0.18276601 38:-0.063603997 50:0.239213 #
-0.5 5:-0.48666501 12:-0.66384602 25:-0.259592 28:-0.18276601 38:-0.063603997 50:0.176092 #
0.5 5:-0.48666501 12:-0.66384602 25:-0.259592 28:-0.18276601 38:-0.063603997 50:0.239213 #
-0.5 5:-0.48666501 12:-0.66384602 25:-0.259592 28:-0.18276601 38:-0.063603997 50:0.219791 #
0.5 5:-0.48666501 12:-0.66384602 25:-0.259592 28:-0.18276601 38:-0.063603997 50:0.239213 #
-0.5 5:-0.48666501 12:-0.66384602 25:-0.259592 28:-0.18276601 38:-0.063603997 50:0.22950201 #
0.5 5:-0.48666501 12:-0.66384602 25:-0.259592 28:-0.18276601 38:-0.063603997 50:0.21008 #
-0.5 5:-0.48666501 12:-0.66384602 25:-0.259592 28:-0.18276601 38:-0.063603997 50:0.234357 #
0.5 5:-0.48666501 12:-0.66384602 25:-0.259592 28:-0.18276601 38:-0.063603997 50:0.20522501 #
-0.5 5:-0.48666501 12:-0.66384602 25:-0.259592 28:-0.18276601 38:-0.063603997 50:0.248924 #
0.5 5:-0.48666501 12:-0.66384602 25:-0.259592 28:-0.18276601 38:-0.063603997 50:0.200369 #
-0.5 5:-0.48666501 12:-0.34937301 25:-0.259592 28:-0.18276601 38:-0.063603997 50:0.098405004 #
0.5 5:-0.48666501 12:-0.66384602 25:-0.259592 28:-0.18276601 38:-0.063603997 50:0.176092 #
-0.5 5:-0.48666501 12:-0.66384602 25:-0.259592 28:-0.18276601 38:-0.063603997 50:0.28776699 #
0.5 5:-0.48666501 12:-0.66384602 25:-0.259592 28:-0.18276601 38:-0.063603997 50:0.074128002 #
0.5 5:-0.48666501 12:-0.66384602 25:-0.259592 28:1.139345 38:-0.063603997 50:0.61793703 #
0.5 5:-0.48666501 12:-0.66384602 25:-0.259592 28:-0.18276601 38:-0.063603997 50:0.069271997 #
0.5 5:-0.48666501 12:-0.66384602 25:-0.259592 28:-0.18276601 38:-0.063603997 50:0.069271997 #
-0.5 5:-0.48666501 12:-0.66384602 25:-0.259592 28:-0.18276601 38:-0.063603997 50:0.34117699 #
0.5 5:-0.48666501 12:-0.66384602 25:-0.259592 28:-0.18276601 38:-0.063603997 50:0.064416997 #
-0.5 5:-0.48666501 12:-0.66384602 25:-0.259592 28:-0.18276601 38:-0.063603997 50:0.36545399 #
-0.5 5:-0.022779999 12:-0.66384602 25:-0.010341 28:1.139345 38:-0.063603997 50:1.186024 #
0.5 5:-0.48666501 12:-0.66384602 25:-0.259592 28:-0.18276601 38:-0.063603997 50:0.064416997 #
-0.5 5:-0.48666501 12:-0.66384602 25:-0.259592 28:-0.18276601 38:-0.063603997 50:0.36545399 #
0.5 5:-0.48666501 12:-0.66384602 25:-0.259592 28:-0.18276601 38:-0.063603997 50:0.059562001 #
-0.5 5:-0.48666501 12:-0.66384602 25:-0.259592 28:-0.18276601 38:-0.063603997 50:0.37031001 #
-0.5 5:-0.48666501 12:-0.66384602 25:-0.259592 28:-0.18276601 38:-0.063603997 50:0.37516499 #
0.5 5:-0.48666501 12:-0.66384602 25:-0.259592 28:-0.18276601 38:-0.063603997 50:0.040139999 #
-0.5 5:-0.48666501 12:-0.231446 25:-0.259592 28:-0.18276601 38:-0.063603997 50:0.234357 #
0.5 5:-0.48666501 12:-0.66384602 25:-0.259592 28:-0.18276601 38:-0.063603997 50:0.035284001 #
-0.5 5:-0.48666501 12:-0.66384602 25:-0.259592 28:-0.18276601 38:-0.063603997 50:0.37516499 #
0.5 5:-0.48666501 12:-0.66384602 25:-0.259592 28:-0.18276601 38:-0.063603997 50:0.030429 #
0.5 5:-0.48666501 12:-0.66384602 25:-0.259592 28:-0.18276601 38:-0.063603997 50:0.025573 #
-0.5 5:-0.48666501 12:-0.66384602 25:-0.259592 28:-0.18276601 38:-0.063603997 50:0.39458701 #
0.5 5:-0.48666501 12:-0.66384602 25:-0.259592 28:-0.18276601 38:-0.063603997 50:0.015862999 #
-0.5 5:-0.48666501 12:-0.66384602 25:-0.259592 28:-0.18276601 38:-0.063603997 50:0.414009 #
0.5 5:-0.48666501 12:-0.66384602 25:-0.259592 28:-0.18276601 38:-0.063603997 50:-0.0084149996 #
0.5 5:-0.48666501 12:-0.66384602 25:-0.259592 28:-0.18276601 38:-0.063603997 50:-0.01327 #
-0.5 5:-0.48666501 12:-0.66384602 25:-0.259592 28:-0.18276601 38:-0.063603997 50:0.44314101 #
-0.5 5:-0.48666501 12:-0.66384602 25:-0.259592 28:-0.18276601 38:-0.063603997 50:0.46256301 #
0.5 5:-0.48666501 12:-0.66384602 25:-0.259592 28:-0.18276601 38:-0.063603997 50:-0.01327 #
-0.5 5:-0.48666501 12:-0.66384602 25:-0.259592 28:-0.18276601 38:-0.063603997 50:0.467419 #
0.5 5:-0.48666501 12:-0.66384602 25:-0.259592 28:-0.18276601 38:-0.063603997 50:-0.01327 #
-0.5 5:-0.48666501 12:-0.66384602 25:-0.259592 28:-0.18276601 38:-0.063603997 50:0.48684001 #
0.5 5:-0.48666501 12:-0.66384602 25:-0.259592 28:-0.18276601 38:-0.063603997 50:-0.018126 #
-0.5 5:-0.48666501 12:-0.66384602 25:-0.259592 28:-0.18276601 38:-0.063603997 50:0.49655101 #
0.5 5:-0.48666501 12:-0.66384602 25:-0.259592 28:-0.18276601 38:-0.063603997 50:-0.12009 #
0.5 5:0.23815501 12:-0.66384602 25:-0.259592 28:-0.18276601 38:-0.063603997 50:1.118048 #
-0.5 5:-0.48666501 12:-0.66384602 25:-0.259592 28:-0.18276601 38:-0.063603997 50:-0.615345 #
0.5 5:-0.48666501 12:0.31888199 25:-0.259592 28:-0.18276601 38:-0.063603997 50:0.25863501 #
0.5 5:-0.48666501 12:0.292676 25:-0.259592 28:-0.18276601 38:-0.063603997 50:0.27320099 #
0.5 5:-0.48666501 12:-0.31006399 25:-0.259592 28:-0.18276601 38:-0.063603997 50:0.49655101 #
-0.49683969763550894782611067057587 5:-0.48666501 12:-0.66384602 25:-0.259592 28:-0.18276601 38:-0.063603997 50:3.9196379 #
-0.5 5:-0.48666501 12:-0.66384602 25:-0.259592 28:-0.18276601 38:-0.063603997 50:3.3515511 #
-0.5 5:-0.48666501 12:0.22716001 25:-0.259592 28:-0.18276601 38:-0.063603997 50:0.53539503 #
0.5 5:-0.48666501 12:-0.31006399 25:-0.259592 28:-0.18276601 38:-0.063603997 50:0.47713 #
-0.5 5:-0.48666501 12:-0.66384602 25:-0.259592 28:-0.18276601 38:-0.063603997 50:-0.615345 #
0.5 5:-0.109759 12:0.240263 25:-0.259592 28:-0.18276601 38:-0.063603997 50:0.46256301 #
0.5 5:0.22365899 12:-0.66384602 25:-0.259592 28:-0.18276601 38:-0.063603997 50:1.6472909 #
0.5 5:-0.26921901 12:0.58094198 25:-0.259592 28:-0.18276601 38:-0.063603997 50:0.278056 #
-0.5 5:-0.48666501 12:-0.66384602 25:-0.259592 28:-0.18276601 38:-0.063603997 50:-0.615345 #
-0.5 5:-0.48666501 12:-0.66384602 25:-0.259592 28:-0.18276601 38:-0.063603997 50:0.61793703 #
-0.5 5:-0.48666501 12:0.096129999 25:-0.259592 28:-0.18276601 38:-0.063603997 50:0.54510599 #
0.5 5:0.28164399 12:-0.66384602 25:-0.259592 28:-0.18276601 38:-0.063603997 50:1.011228 #
0.5 5:0.38311899 12:-0.66384602 25:-0.259592 28:-0.18276601 38:-0.063603997 50:1.385097 #
0.5 5:-0.109759 12:0.266469 25:-0.259592 28:-0.18276601 38:-0.063603997 50:0.481985 #
0.5 5:0.44110501 12:-0.24454901 25:-0.259592 28:-0.18276601 38:-0.063603997 50:0.142104 #
-0.5 5:-0.48666501 12:-0.66384602 25:-0.259592 28:-0.18276601 38:-0.063603997 50:-0.615345 #
0.5 5:0.55707598 12:-0.66384602 25:-0.259592 28:-0.18276601 38:-0.063603997 50:1.152036 #
-0.5 5:-0.48666501 12:-0.66384602 25:-0.259592 28:-0.18276601 38:-0.063603997 50:-0.615345 #
-0.5 5:-0.48666501 12:-0.66384602 25:-0.259592 28:-0.18276601 38:-0.063603997 50:2.647512 #
-0.5 5:-0.48666501 12:-0.021796999 25:-0.259592 28:-0.18276601 38:-0.063603997 50:0.55481702 #
0.5 5:-0.109759 12:0.240263 25:-0.259592 28:-0.18276601 38:-0.063603997 50:0.52082902 #
-0.5 5:-0.48666501 12:-0.66384602 25:-0.259592 28:-0.18276601 38:-0.063603997 50:2.613524 #
0.5 5:0.165673 12:-0.074210003 25:-0.259592 28:-0.18276601 38:-0.063603997 50:0.74903399 #
-0.5 5:-0.48666501 12:-0.074210003 25:-0.259592 28:-0.18276601 38:-0.063603997 50:0.447997 #
-0.5 5:-0.42867899 12:-0.12662201 25:-0.259592 28:-0.18276601 38:0.019745 50:0.41886401 #
0.5 5:0.26714799 12:-0.218343 25:-0.259592 28:-0.18276601 38:-0.063603997 50:1.195735 #
-0.5 5:-0.48666501 12:-0.231446 25:-0.259592 28:-0.18276601 38:-0.063603997 50:0.74417901 #
-0.5 5:-0.48666501 12:-0.66384602 25:-0.259592 28:-0.18276601 38:-0.063603997 50:3.1233449 #
0.5 5:-0.48666501 12:-0.66384602 25:-0.259592 28:-0.18276601 38:-0.063603997 50:-0.615345 #
-0.5 5:-0.48666501 12:-0.66384602 25:-0.259592 28:-0.18276601 38:-0.063603997 50:-0.615345 #
0.5 5:-0.48666501 12:-0.66384602 25:-0.259592 28:-0.18276601 38:-0.063603997 50:-0.615345 #
0.5 5:-0.48666501 12:-0.231446 25:-0.259592 28:-0.18276601 38:-0.063603997 50:0.166381 #
0.5 5:-0.48666501 12:-0.66384602 25:-0.259592 28:-0.18276601 38:-0.063603997 50:-0.615345 #
0.5 5:-0.167744 12:-0.231446 25:-0.259592 28:-0.18276601 38:0.39481699 50:0.14695901 #
0.5 5:0.25265199 12:0.68576699 25:-0.259592 28:-0.18276601 38:-0.063603997 50:-0.615345 #
0.5 5:-0.48666501 12:-0.37558001 25:-0.259592 28:-0.18276601 38:-0.063603997 50:0.074128002 #
-0.5 5:-0.48666501 12:-0.66384602 25:-0.259592 28:-0.18276601 38:-0.063603997 50:-0.615345 #
0.5 5:-0.18224099 12:-0.25765201 25:-0.259592 28:-0.18276601 38:0.35314199 50:0.20522501 #
-0.5 5:-0.48666501 12:-0.66384602 25:-0.259592 28:-0.18276601 38:-0.063603997 50:-0.615345 #
-0.5 5:-0.48666501 12:-0.66384602 25:-0.259592 28:-0.18276601 38:-0.063603997 50:-0.615345 #
-0.49968136155223863426044772495516 5:-0.48666501 12:-0.66384602 25:-0.259592 28:-0.18276601 38:-0.063603997 50:3.11849 #
0.5 5:-0.48666501 12:-0.66384602 25:-0.259592 28:-0.18276601 38:-0.063603997 50:-0.615345 #
-0.5 5:-0.48666501 12:-0.66384602 25:-0.259592 28:-0.18276601 38:-0.063603997 50:-0.615345 #
0.5 5:-0.19673701 12:0.384397 25:-0.259592 28:-0.18276601 38:-0.063603997 50:0.234357 #
-0.5 5:-0.48666501 12:-0.66384602 25:-0.259592 28:-0.18276601 38:-0.063603997 50:-0.615345 #
0.5 5:-0.48666501 12:-0.12662201 25:-0.259592 28:-0.18276601 38:-0.063603997 50:0.030429 #
0.5 5:-0.31270799 12:-0.165931 25:-0.259592 28:-0.18276601 38:-0.063603997 50:0.28291199 #
0.5 5:-0.19673701 12:-0.66384602 25:-0.259592 28:-0.18276601 38:-0.063603997 50:0.37516499 #
-0.5 5:-0.48666501 12:-0.66384602 25:-0.259592 28:-0.18276601 38:-0.063603997 50:-0.615345 #
0.5 5:-0.48666501 12:-0.192137 25:-0.259592 28:-0.18276601 38:-0.063603997 50:-0.018126 #
-0.5 5:-0.48666501 12:-0.66384602 25:-0.259592 28:-0.18276601 38:-0.063603997 50:-0.615345 #
0.5 5:-0.18224099 12:-0.66384602 25:-0.259592 28:-0.18276601 38:-0.063603997 50:0.38002101 #
-0.5 5:-0.48666501 12:-0.66384602 25:-0.259592 28:-0.18276601 38:-0.063603997 50:-0.615345 #
0.5 5:-0.48666501 12:-0.66384602 25:-0.259592 28:-0.18276601 38:-0.063603997 50:-0.615345 #
0.5 5:-0.48666501 12:-0.31006399 25:-0.259592 28:0.93276501 38:-0.063603997 50:0.481985 #
0.5 5:0.093190998 12:-0.66384602 25:-0.259592 28:-0.18276601 38:-0.063603997 50:0.51111799 #
0.5 5:-0.48666501 12:-0.401786 25:-0.259592 28:-0.18276601 38:-0.063603997 50:-0.32887399 #
-0.5 5:-0.48666501 12:-0.66384602 25:-0.259592 28:-0.18276601 38:-0.063603997 50:-0.615345 #
-0.49380479884971961723749700468034 5:-0.48666501 12:1.209888 25:-0.041498002 28:-0.18276601 38:-0.063603997 50:1.472495 #
-0.5 5:-0.48666501 12:-0.66384602 25:-0.259592 28:-0.18276601 38:-0.063603997 50:3.074791 #
0.5 5:-0.341701 12:-0.27075499 25:-0.22064701 28:-0.18276601 38:-0.063603997 50:-0.44054899 #
-0.5 5:-0.48666501 12:-0.66384602 25:-0.259592 28:-0.18276601 38:-0.063603997 50:2.8757181 #
0.5 5:-0.48666501 12:-0.66384602 25:-0.259592 28:-0.18276601 38:-0.063603997 50:-0.615345 #
-0.5 5:-0.48666501 12:-0.66384602 25:-0.259592 28:-0.18276601 38:-0.063603997 50:-0.615345 #
0.5 5:-0.48666501 12:-0.66384602 25:-0.259592 28:-0.18276601 38:-0.063603997 50:-0.615345 #
-0.5 5:-0.48666501 12:-0.66384602 25:-0.259592 28:-0.18276601 38:-0.063603997 50:-0.615345 #
0.5 5:-0.48666501 12:-0.66384602 25:-0.259592 28:-0.18276601 38:-0.063603997 50:-0.615345 #
-0.5 5:-0.48666501 12:-0.66384602 25:-0.259592 28:-0.18276601 38:-0.063603997 50:-0.615345 #
0.5 5:-0.48666501 12:-0.66384602 25:-0.259592 28:-0.18276601 38:-0.063603997 50:-0.615345 #
-0.5 5:-0.48666501 12:-0.66384602 25:-0.259592 28:-0.18276601 38:-0.063603997 50:-0.615345 #
-0.5 5:-0.48666501 12:-0.66384602 25:-0.259592 28:-0.18276601 38:-0.063603997 50:-0.29488599 #
-0.5 5:-0.48666501 12:-0.66384602 25:-0.259592 28:-0.18276601 38:-0.063603997 50:1.79781 #
0.5 5:-0.066269003 12:-0.545919 25:-0.259592 28:-0.18276601 38:-0.063603997 50:-0.23661999 #
-0.5 5:-0.48666501 12:-0.66384602 25:-0.259592 28:-0.18276601 38:-0.063603997 50:-0.615345 #
0.5 5:-0.48666501 12:-0.66384602 25:-0.259592 28:-0.18276601 38:-0.063603997 50:-0.615345 #
0.5 5:0.412112 12:-0.66384602 25:-0.259592 28:-0.18276601 38:-0.063603997 50:0.608226 #
-0.5 5:-0.48666501 12:-0.66384602 25:-0.259592 28:-0.18276601 38:-0.063603997 50:-0.615345 #
0.5 5:0.44110501 12:0.174748 25:-0.259592 28:-0.18276601 38:-0.063603997 50:-0.056968998 #
0.5 5:-0.48666501 12:-0.034899998 25:-0.259592 28:-0.18276601 38:-0.063603997 50:-0.197777 #
-0.5 5:-0.48666501 12:-0.66384602 25:-0.259592 28:-0.18276601 38:-0.063603997 50:-0.615345 #
-0.5 5:-0.48666501 12:-0.66384602 25:-0.259592 28:-0.18276601 38:-0.063603997 50:2.802886 #
0.5 5:0.165673 12:-0.074210003 25:-0.259592 28:-0.18276601 38:-0.063603997 50:-0.615345 #
-0.5 5:-0.48666501 12:-0.66384602 25:-0.259592 28:-0.18276601 38:-0.063603997 50:-0.615345 #
-0.5 5:-0.48666501 12:-0.66384602 25:-0.259592 28:-0.18276601 38:-0.063603997 50:2.7203441 #
0.5 5:-0.48666501 12:-0.66384602 25:-0.259592 28:-0.18276601 38:-0.063603997 50:-0.615345 #
-0.5 5:-0.48666501 12:-0.66384602 25:-0.259592 28:-0.18276601 38:-0.063603997 50:-0.615345 #
0.5 5:0.13668001 12:1.039549 25:-0.259592 28:-0.18276601 38:-0.063603997 50:-0.0035590001 #
-0.5 5:-0.48666501 12:-0.66384602 25:-0.259592 28:-0.18276601 38:-0.063603997 50:-0.615345 #
0.5 5:-0.48666501 12:-0.12662201 25:-0.259592 28:-0.18276601 38:-0.063603997 50:-0.285175 #
-0.5 5:-0.48666501 12:-0.66384602 25:-0.259592 28:-0.18276601 38:-0.063603997 50:-0.615345 #
-0.5 5:-0.48666501 12:-0.66384602 25:-0.259592 28:-0.18276601 38:-0.063603997 50:0.66163599 #
0.5 5:-0.48666501 12:-0.66384602 25:-0.259592 28:-0.18276601 38:-0.063603997 50:-0.615345 #
-0.5 5:-0.48666501 12:-0.66384602 25:-0.259592 28:-0.18276601 38:-0.063603997 50:-0.615345 #
0.5 5:-0.25472301 12:-0.545919 25:-0.259592 28:-0.18276601 38:-0.063603997 50:-0.052113999 #
-0.5 5:-0.48666501 12:-0.66384602 25:-0.259592 28:-0.18276601 38:-0.063603997 50:-0.615345 #
-0.5 5:-0.48666501 12:-0.66384602 25:-0.259592 28:-0.18276601 38:-0.063603997 50:-0.615345 #
-0.5 5:-0.48666501 12:-0.66384602 25:-0.259592 28:-0.18276601 38:-0.063603997 50:-0.615345 #
0.5 5:-0.48666501 12:-0.66384602 25:-0.259592 28:-0.18276601 38:-0.063603997 50:-0.615345 #
0.5 5:-0.48666501 12:-0.27075499 25:-0.259592 28:-0.18276601 38:-0.063603997 50:-0.29003 #
-0.5 5:-0.48666501 12:-0.66384602 25:-0.259592 28:-0.18276601 38:-0.063603997 50:-0.615345 #
0.5 5:-0.48666501 12:-0.66384602 25:-0.259592 28:-0.18276601 38:-0.063603997 50:-0.615345 #
-0.5 5:-0.48666501 12:-0.66384602 25:-0.259592 28:-0.18276601 38:-0.063603997 50:-0.615345 #
0.5 5:-0.48666501 12:-0.66384602 25:-0.259592 28:-0.18276601 38:-0.063603997 50:-0.615345 #
-0.5 5:-0.48666501 12:-0.66384602 25:-0.259592 28:-0.18276601 38:-0.063603997 50:-0.615345 #
0.5 5:-0.48666501 12:-0.66384602 25:-0.259592 28:-0.18276601 38:-0.063603997 50:-0.615345 #
-0.5 5:-0.48666501 12:-0.66384602 25:-0.259592 28:-0.18276601 38:-0.063603997 50:-0.615345 #
0.5 5:-0.48666501 12:-0.66384602 25:-0.259592 28:-0.18276601 38:-0.063603997 50:-0.615345 #
-0.5 5:-0.48666501 12:-0.66384602 25:-0.259592 28:-0.18276601 38:-0.063603997 50:-0.615345 #
0.5 5:-0.48666501 12:-0.66384602 25:-0.259592 28:-0.18276601 38:-0.063603997 50:-0.615345 #
0.5 5:-0.48666501 12:-0.66384602 25:-0.259592 28:-0.18276601 38:-0.063603997 50:-0.615345 #
0.5 5:-0.327205 12:0.55473602 25:-0.259592 28:-0.18276601 38:-0.063603997 50:-0.0084149996 #
-0.5 5:-0.48666501 12:-0.66384602 25:-0.259592 28:-0.18276601 38:-0.063603997 50:-0.615345 #
0.5 5:-0.48666501 12:-0.66384602 25:-0.259592 28:-0.18276601 38:-0.063603997 50:-0.615345 #
0.5 5:-0.48666501 12:-0.12662201 25:-0.259592 28:-0.18276601 38:-0.063603997 50:-0.285175 #
-0.5 5:-0.48666501 12:-0.66384602 25:-0.259592 28:-0.18276601 38:-0.063603997 50:-0.615345 #
-0.5 5:-0.48666501 12:-0.66384602 25:-0.259592 28:-0.18276601 38:-0.063603997 50:2.7057769 #
0.5 5:-0.341701 12:-0.27075499 25:-0.22064701 28:-0.18276601 38:-0.063603997 50:-0.39684999 #
0.5 5:-0.457672 12:-0.218343 25:-0.259592 28:-0.18276601 38:-0.063603997 50:-0.21234301 #
-0.5 5:-0.48666501 12:-0.66384602 25:-0.259592 28:-0.18276601 38:-0.063603997 50:-0.615345 #
-0.5 5:-0.48666501 12:-0.66384602 25:-0.259592 28:-0.18276601 38:-0.063603997 50:-0.615345 #
0.5 5:-0.48666501 12:-0.66384602 25:-0.259592 28:-0.18276601 38:-0.063603997 50:-0.615345 #
-0.5 5:-0.48666501 12:-0.66384602 25:-0.259592 28:-0.18276601 38:-0.063603997 50:-0.615345 #
0.5 5:-0.48666501 12:-0.66384602 25:-0.259592 28:-0.18276601 38:-0.063603997 50:-0.615345 #
-0.5 5:-0.48666501 12:-0.66384602 25:-0.259592 28:-0.18276601 38:-0.063603997 50:-0.615345 #
0.5 5:-0.48666501 12:-0.66384602 25:-0.259592 28:-0.18276601 38:-0.063603997 50:-0.615345 #
-0.5 5:-0.48666501 12:-0.66384602 25:-0.259592 28:-0.18276601 38:-0.063603997 50:-0.615345 #
0.5 5:-0.48666501 12:-0.66384602 25:-0.259592 28:-0.18276601 38:-0.063603997 50:-0.615345 #
-0.5 5:-0.48666501 12:-0.66384602 25:-0.259592 28:-0.18276601 38:-0.063603997 50:-0.615345 #
0.5 5:-0.48666501 12:-0.66384602 25:-0.259592 28:-0.18276601 38:-0.063603997 50:-0.615345 #
-0.5 5:-0.48666501 12:-0.66384602 25:-0.259592 28:-0.18276601 38:-0.063603997 50:-0.615345 #
0.5 5:-0.48666501 12:-0.66384602 25:-0.259592 28:-0.18276601 38:-0.063603997 50:-0.615345 #
-0.5 5:-0.48666501 12:-0.66384602 25:-0.259592 28:-0.18276601 38:-0.063603997 50:-0.615345 #
0.5 5:-0.48666501 12:-0.66384602 25:-0.259592 28:-0.18276601 38:-0.063603997 50:-0.615345 #
-0.5 5:-0.48666501 12:-0.66384602 25:-0.259592 28:-0.18276601 38:-0.063603997 50:-0.615345 #
0.5 5:-0.48666501 12:-0.66384602 25:-0.259592 28:-0.18276601 38:-0.063603997 50:-0.615345 #
-0.5 5:-0.48666501 12:-0.66384602 25:-0.259592 28:-0.18276601 38:-0.063603997 50:-0.615345 #
0.5 5:-0.48666501 12:-0.66384602 25:-0.259592 28:-0.18276601 38:-0.063603997 50:-0.615345 #
-0.5 5:-0.48666501 12:-0.66384602 25:-0.259592 28:-0.18276601 38:-0.063603997 50:-0.615345 #
0.5 5:-0.48666501 12:-0.66384602 25:-0.259592 28:-0.18276601 38:-0.063603997 50:-0.615345 #
-0.5 5:-0.48666501 12:-0.66384602 25:-0.259592 28:-0.18276601 38:-0.063603997 50:-0.615345 #
0.5 5:-0.48666501 12:-0.66384602 25:-0.259592 28:-0.18276601 38:-0.063603997 50:-0.615345 #
-0.5 5:-0.48666501 12:-0.66384602 25:-0.259592 28:-0.18276601 38:-0.063603997 50:-0.615345 #
0.5 5:-0.48666501 12:-0.66384602 25:-0.259592 28:-0.18276601 38:-0.063603997 50:-0.615345 #
-0.5 5:-0.48666501 12:-0.66384602 25:-0.259592 28:-0.18276601 38:-0.063603997 50:-0.615345 #
0.5 5:-0.48666501 12:-0.66384602 25:-0.259592 28:-0.18276601 38:-0.063603997 50:-0.615345 #
-0.5 5:-0.48666501 12:-0.66384602 25:-0.259592 28:-0.18276601 38:-0.063603997 50:-0.615345 #
0.5 5:-0.48666501 12:-0.66384602 25:-0.259592 28:-0.18276601 38:-0.063603997 50:-0.615345 #
-0.5 5:-0.48666501 12:-0.66384602 25:-0.259592 28:-0.18276601 38:-0.063603997 50:-0.615345 #
0.5 5:-0.48666501 12:-0.66384602 25:-0.259592 28:-0.18276601 38:-0.063603997 50:-0.615345 #
-0.5 5:-0.48666501 12:-0.66384602 25:-0.259592 28:-0.18276601 38:-0.063603997 50:-0.615345 #
0.5 5:-0.48666501 12:-0.66384602 25:-0.259592 28:-0.18276601 38:-0.063603997 50:-0.615345 #
-0.5 5:-0.48666501 12:-0.66384602 25:-0.259592 28:-0.18276601 38:-0.063603997 50:-0.615345 #
0.5 5:-0.48666501 12:-0.66384602 25:-0.259592 28:-0.18276601 38:-0.063603997 50:-0.615345 #
-0.5 5:-0.48666501 12:-0.66384602 25:-0.259592 28:-0.18276601 38:-0.063603997 50:-0.615345 #
0.5 5:-0.48666501 12:-0.66384602 25:-0.259592 28:-0.18276601 38:-0.063603997 50:-0.615345 #
-0.5 5:-0.48666501 12:-0.66384602 25:-0.259592 28:-0.18276601 38:-0.063603997 50:-0.615345 #
0.5 5:-0.48666501 12:-0.66384602 25:-0.259592 28:-0.18276601 38:-0.063603997 50:-0.615345 #
-0.5 5:-0.48666501 12:-0.66384602 25:-0.259592 28:-0.18276601 38:-0.063603997 50:-0.615345 #
0.5 5:-0.48666501 12:-0.66384602 25:-0.259592 28:-0.18276601 38:-0.063603997 50:-0.615345 #
-0.5 5:-0.48666501 12:-0.66384602 25:-0.259592 28:-0.18276601 38:-0.063603997 50:-0.615345 #
0.5 5:-0.48666501 12:-0.66384602 25:-0.259592 28:-0.18276601 38:-0.063603997 50:-0.615345 #
-0.5 5:-0.48666501 12:-0.66384602 25:-0.259592 28:-0.18276601 38:-0.063603997 50:-0.615345 #
0.5 5:-0.48666501 12:-0.66384602 25:-0.259592 28:-0.18276601 38:-0.063603997 50:-0.615345 #
-0.5 5:-0.48666501 12:-0.66384602 25:-0.259592 28:-0.18276601 38:-0.063603997 50:-0.615345 #
0.5 5:-0.48666501 12:-0.66384602 25:-0.259592 28:-0.18276601 38:-0.063603997 50:-0.615345 #
-0.5 5:-0.48666501 12:-0.66384602 25:-0.259592 28:-0.18276601 38:-0.063603997 50:-0.615345 #
0.5 5:-0.48666501 12:-0.66384602 25:-0.259592 28:-0.18276601 38:-0.063603997 50:-0.615345 #
-0.5 5:-0.48666501 12:-0.66384602 25:-0.259592 28:-0.18276601 38:-0.063603997 50:-0.615345 #
0.5 5:-0.48666501 12:-0.66384602 25:-0.259592 28:-0.18276601 38:-0.063603997 50:-0.615345 #
-0.5 5:-0.48666501 12:-0.66384602 25:-0.259592 28:-0.18276601 38:-0.063603997 50:-0.615345 #
0.5 5:-0.48666501 12:-0.66384602 25:-0.259592 28:-0.18276601 38:-0.063603997 50:-0.615345 #
-0.5 5:-0.48666501 12:-0.66384602 25:-0.259592 28:-0.18276601 38:-0.063603997 50:-0.615345 #
0.5 5:-0.48666501 12:-0.66384602 25:-0.259592 28:-0.18276601 38:-0.063603997 50:-0.615345 #
-0.5 5:-0.48666501 12:-0.66384602 25:-0.259592 28:-0.18276601 38:-0.063603997 50:-0.615345 #
-0.5 5:-0.48666501 12:-0.66384602 25:-0.259592 28:-0.18276601 38:-0.063603997 50:-0.615345 #
0.17710107052391288462445118057076 5:0.58606899 12:-0.66384602 25:-0.259592 28:-0.18276601 38:-0.063603997 50:-0.615345 #
0.5 5:0.45560101 12:-0.66384602 25:-0.259592 28:-0.18276601 38:-0.063603997 50:-0.615345 #
0.5 5:-0.48666501 12:-0.66384602 25:-0.259592 28:-0.18276601 38:-0.063603997 50:-0.615345 #
-0.5 5:-0.48666501 12:-0.66384602 25:-0.259592 28:-0.18276601 38:-0.063603997 50:-0.615345 #
-0.5 5:-0.48666501 12:-0.66384602 25:-0.259592 28:-0.18276601 38:-0.063603997 50:2.1231239 #
-0.5 5:-0.48666501 12:-0.66384602 25:-0.259592 28:-0.18276601 38:-0.063603997 50:-0.615345 #
0.5 5:0.44110501 12:-0.24454901 25:-0.259592 28:-0.18276601 38:-0.063603997 50:-0.071534999 #
0.5 5:-0.48666501 12:-0.66384602 25:-0.259592 28:-0.18276601 38:-0.063603997 50:-0.615345 #
0.5 5:-0.48666501 12:-0.66384602 25:-0.259592 28:-0.18276601 38:-0.063603997 50:-0.615345 #
-0.5 5:-0.48666501 12:-0.66384602 25:-0.259592 28:-0.18276601 38:-0.063603997 50:-0.615345 #
0.5 5:-0.48666501 12:-0.66384602 25:-0.259592 28:-0.18276601 38:-0.063603997 50:-0.615345 #
-0.5 5:-0.48666501 12:-0.66384602 25:-0.259592 28:-0.18276601 38:-0.063603997 50:-0.615345 #
0.5 5:-0.48666501 12:-0.66384602 25:-0.259592 28:-0.18276601 38:-0.063603997 50:-0.615345 #
-0.5 5:-0.48666501 12:-0.66384602 25:-0.259592 28:-0.18276601 38:-0.063603997 50:-0.615345 #
0.5 5:-0.48666501 12:-0.66384602 25:-0.259592 28:-0.18276601 38:-0.063603997 50:-0.615345 #
-0.5 5:-0.48666501 12:-0.66384602 25:-0.259592 28:-0.18276601 38:-0.063603997 50:-0.615345 #
0.5 5:-0.48666501 12:-0.66384602 25:-0.259592 28:-0.18276601 38:-0.063603997 50:-0.615345 #
-0.5 5:-0.48666501 12:-0.66384602 25:-0.259592 28:-0.18276601 38:-0.063603997 50:-0.615345 #
0.5 5:-0.48666501 12:-0.66384602 25:-0.259592 28:-0.18276601 38:-0.063603997 50:-0.615345 #
-0.5 5:-0.48666501 12:-0.66384602 25:-0.259592 28:-0.18276601 38:-0.063603997 50:-0.615345 #
0.5 5:-0.48666501 12:-0.66384602 25:-0.259592 28:-0.18276601 38:-0.063603997 50:-0.615345 #
-0.5 5:-0.48666501 12:-0.66384602 25:-0.259592 28:-0.18276601 38:-0.063603997 50:-0.615345 #
0.5 5:-0.48666501 12:-0.66384602 25:-0.259592 28:-0.18276601 38:-0.063603997 50:-0.615345 #
-0.5 5:-0.48666501 12:-0.66384602 25:-0.259592 28:-0.18276601 38:-0.063603997 50:-0.615345 #
0.5 5:-0.48666501 12:-0.66384602 25:-0.259592 28:-0.18276601 38:-0.063603997 50:-0.615345 #
-0.5 5:-0.48666501 12:-0.66384602 25:-0.259592 28:-0.18276601 38:-0.063603997 50:-0.615345 #
0.5 5:-0.48666501 12:-0.66384602 25:-0.259592 28:-0.18276601 38:-0.063603997 50:-0.615345 #
-0.5 5:-0.48666501 12:-0.66384602 25:-0.259592 28:-0.18276601 38:-0.063603997 50:-0.615345 #
0.5 5:-0.48666501 12:-0.66384602 25:-0.259592 28:-0.18276601 38:-0.063603997 50:-0.615345 #
-0.5 5:-0.48666501 12:-0.66384602 25:-0.259592 28:-0.18276601 38:-0.063603997 50:-0.615345 #
0.5 5:-0.48666501 12:-0.66384602 25:-0.259592 28:-0.18276601 38:-0.063603997 50:-0.615345 #
-0.5 5:-0.48666501 12:-0.66384602 25:-0.259592 28:-0.18276601 38:-0.063603997 50:-0.615345 #
0.5 5:-0.48666501 12:-0.66384602 25:-0.259592 28:-0.18276601 38:-0.063603997 50:-0.615345 #
-0.5 5:-0.48666501 12:-0.66384602 25:-0.259592 28:-0.18276601 38:-0.063603997 50:-0.615345 #
0.5 5:-0.48666501 12:-0.66384602 25:-0.259592 28:-0.18276601 38:-0.063603997 50:-0.615345 #
-0.5 5:-0.48666501 12:-0.66384602 25:-0.259592 28:-0.18276601 38:-0.063603997 50:-0.615345 #
0.5 5:-0.48666501 12:-0.66384602 25:-0.259592 28:-0.18276601 38:-0.063603997 50:-0.615345 #
-0.5 5:-0.48666501 12:-0.66384602 25:-0.259592 28:-0.18276601 38:-0.063603997 50:-0.615345 #
0.5 5:-0.48666501 12:-0.66384602 25:-0.259592 28:-0.18276601 38:-0.063603997 50:-0.615345 #
-0.5 5:-0.48666501 12:-0.66384602 25:-0.259592 28:-0.18276601 38:-0.063603997 50:-0.615345 #
0.5 5:-0.48666501 12:-0.66384602 25:-0.259592 28:-0.18276601 38:-0.063603997 50:-0.615345 #
-0.5 5:-0.48666501 12:-0.66384602 25:-0.259592 28:-0.18276601 38:-0.063603997 50:-0.615345 #
0.5 5:-0.48666501 12:-0.66384602 25:-0.259592 28:-0.18276601 38:-0.063603997 50:-0.615345 #
-0.5 5:-0.48666501 12:-0.66384602 25:-0.259592 28:-0.18276601 38:-0.063603997 50:-0.615345 #
0.5 5:-0.48666501 12:-0.66384602 25:-0.259592 28:-0.18276601 38:-0.063603997 50:-0.615345 #
-0.5 5:-0.48666501 12:-0.66384602 25:-0.259592 28:-0.18276601 38:-0.063603997 50:-0.615345 #
0.5 5:-0.48666501 12:-0.66384602 25:-0.259592 28:-0.18276601 38:-0.063603997 50:-0.615345 #
-0.5 5:-0.48666501 12:-0.66384602 25:-0.259592 28:-0.18276601 38:-0.063603997 50:-0.615345 #
0.5 5:-0.48666501 12:-0.66384602 25:-0.259592 28:-0.18276601 38:-0.063603997 50:-0.615345 #
-0.5 5:-0.48666501 12:-0.66384602 25:-0.259592 28:-0.18276601 38:-0.063603997 50:-0.615345 #
0.5 5:-0.48666501 12:-0.66384602 25:-0.259592 28:-0.18276601 38:-0.063603997 50:-0.615345 #
-0.5 5:-0.48666501 12:-0.66384602 25:-0.259592 28:-0.18276601 38:-0.063603997 50:-0.615345 #
0.5 5:-0.48666501 12:-0.66384602 25:-0.259592 28:-0.18276601 38:-0.063603997 50:-0.615345 #
-0.5 5:-0.48666501 12:-0.66384602 25:-0.259592 28:-0.18276601 38:-0.063603997 50:-0.615345 #
0.5 5:-0.48666501 12:-0.66384602 25:-0.259592 28:-0.18276601 38:-0.063603997 50:-0.615345 #
-0.5 5:-0.48666501 12:-0.66384602 25:-0.259592 28:-0.18276601 38:-0.063603997 50:-0.615345 #
0.5 5:-0.48666501 12:-0.66384602 25:-0.259592 28:-0.18276601 38:-0.063603997 50:-0.615345 #
-0.5 5:-0.48666501 12:-0.66384602 25:-0.259592 28:-0.18276601 38:-0.063603997 50:-0.615345 #
0.5 5:-0.48666501 12:-0.66384602 25:-0.259592 28:-0.18276601 38:-0.063603997 50:-0.615345 #
-0.5 5:-0.48666501 12:-0.66384602 25:-0.259592 28:-0.18276601 38:-0.063603997 50:-0.615345 #
0.5 5:-0.48666501 12:-0.66384602 25:-0.259592 28:-0.18276601 38:-0.063603997 50:-0.615345 #
-0.5 5:-0.48666501 12:-0.66384602 25:-0.259592 28:-0.18276601 38:-0.063603997 50:-0.615345 #
0.5 5:-0.48666501 12:-0.66384602 25:-0.259592 28:-0.18276601 38:-0.063603997 50:-0.615345 #
-0.5 5:-0.48666501 12:-0.66384602 25:-0.259592 28:-0.18276601 38:-0.063603997 50:-0.615345 #
0.5 5:-0.48666501 12:-0.66384602 25:-0.259592 28:-0.18276601 38:-0.063603997 50:-0.615345 #
-0.5 5:-0.48666501 12:-0.66384602 25:-0.259592 28:-0.18276601 38:-0.063603997 50:-0.615345 #
0.5 5:-0.48666501 12:-0.66384602 25:-0.259592 28:-0.18276601 38:-0.063603997 50:-0.615345 #
-0.5 5:-0.48666501 12:-0.66384602 25:-0.259592 28:-0.18276601 38:-0.063603997 50:-0.615345 #
0.5 5:-0.48666501 12:-0.66384602 25:-0.259592 28:-0.18276601 38:-0.063603997 50:-0.615345 #
-0.5 5:-0.48666501 12:-0.66384602 25:-0.259592 28:-0.18276601 38:-0.063603997 50:-0.615345 #
0.5 5:-0.48666501 12:-0.66384602 25:-0.259592 28:-0.18276601 38:-0.063603997 50:-0.615345 #
-0.5 5:-0.48666501 12:-0.66384602 25:-0.259592 28:-0.18276601 38:-0.063603997 50:-0.615345 #
0.5 5:-0.48666501 12:-0.66384602 25:-0.259592 28:-0.18276601 38:-0.063603997 50:-0.615345 #
-0.5 5:-0.48666501 12:-0.66384602 25:-0.259592 28:-0.18276601 38:-0.063603997 50:-0.615345 #
0.5 5:-0.48666501 12:-0.66384602 25:-0.259592 28:-0.18276601 38:-0.063603997 50:-0.615345 #
-0.5 5:-0.48666501 12:-0.66384602 25:-0.259592 28:-0.18276601 38:-0.063603997 50:-0.615345 #
0.5 5:-0.48666501 12:-0.66384602 25:-0.259592 28:-0.18276601 38:-0.063603997 50:-0.615345 #
-0.5 5:-0.48666501 12:-0.66384602 25:-0.259592 28:-0.18276601 38:-0.063603997 50:-0.615345 #
0.5 5:-0.48666501 12:-0.66384602 25:-0.259592 28:-0.18276601 38:-0.063603997 50:-0.615345 #
-0.5 5:-0.48666501 12:-0.66384602 25:-0.259592 28:-0.18276601 38:-0.063603997 50:-0.615345 #
0.5 5:-0.48666501 12:-0.66384602 25:-0.259592 28:-0.18276601 38:-0.063603997 50:-0.615345 #
-0.5 5:-0.48666501 12:-0.66384602 25:-0.259592 28:-0.18276601 38:-0.063603997 50:-0.615345 #
0.5 5:-0.48666501 12:-0.66384602 25:-0.259592 28:-0.18276601 38:-0.063603997 50:-0.615345 #
-0.5 5:-0.48666501 12:-0.66384602 25:-0.259592 28:-0.18276601 38:-0.063603997 50:-0.615345 #
0.5 5:-0.48666501 12:-0.66384602 25:-0.259592 28:-0.18276601 38:-0.063603997 50:-0.615345 #
-0.5 5:-0.48666501 12:-0.66384602 25:-0.259592 28:-0.18276601 38:-0.063603997 50:-0.615345 #
0.5 5:-0.48666501 12:-0.66384602 25:-0.259592 28:-0.18276601 38:-0.063603997 50:-0.615345 #
-0.5 5:-0.48666501 12:-0.66384602 25:-0.259592 28:-0.18276601 38:-0.063603997 50:-0.615345 #
0.5 5:-0.48666501 12:-0.66384602 25:-0.259592 28:-0.18276601 38:-0.063603997 50:-0.615345 #
-0.5 5:-0.48666501 12:-0.66384602 25:-0.259592 28:-0.18276601 38:-0.063603997 50:-0.615345 #
0.5 5:-0.48666501 12:-0.66384602 25:-0.259592 28:-0.18276601 38:-0.063603997 50:-0.615345 #
-0.5 5:-0.48666501 12:-0.66384602 25:-0.259592 28:-0.18276601 38:-0.063603997 50:-0.615345 #
0.5 5:-0.48666501 12:-0.66384602 25:-0.259592 28:-0.18276601 38:-0.063603997 50:-0.615345 #
-0.5 5:-0.48666501 12:-0.66384602 25:-0.259592 28:-0.18276601 38:-0.063603997 50:-0.615345 #
0.5 5:-0.48666501 12:-0.66384602 25:-0.259592 28:-0.18276601 38:-0.063603997 50:-0.615345 #
-0.5 5:-0.48666501 12:-0.66384602 25:-0.259592 28:-0.18276601 38:-0.063603997 50:-0.615345 #
0.5 5:-0.48666501 12:-0.66384602 25:-0.259592 28:-0.18276601 38:-0.063603997 50:-0.615345 #
-0.5 5:-0.48666501 12:-0.66384602 25:-0.259592 28:-0.18276601 38:-0.063603997 50:-0.615345 #
0.5 5:-0.48666501 12:-0.66384602 25:-0.259592 28:-0.18276601 38:-0.063603997 50:-0.615345 #
-0.5 5:-0.48666501 12:-0.66384602 25:-0.259592 28:-0.18276601 38:-0.063603997 50:-0.615345 #
0.5 5:-0.48666501 12:-0.66384602 25:-0.259592 28:-0.18276601 38:-0.063603997 50:-0.615345 #
-0.5 5:-0.48666501 12:-0.66384602 25:-0.259592 28:-0.18276601 38:-0.063603997 50:-0.615345 #
0.5 5:-0.48666501 12:-0.66384602 25:-0.259592 28:-0.18276601 38:-0.063603997 50:-0.615345 #
-0.5 5:-0.48666501 12:-0.66384602 25:-0.259592 28:-0.18276601 38:-0.063603997 50:-0.615345 #
0.5 5:-0.48666501 12:-0.66384602 25:-0.259592 28:-0.18276601 38:-0.063603997 50:-0.615345 #
-0.5 5:-0.48666501 12:-0.66384602 25:-0.259592 28:-0.18276601 38:-0.063603997 50:-0.615345 #
-0.5 5:-0.48666501 12:-0.66384602 25:-0.259592 28:-0.18276601 38:-0.063603997 50:-0.615345 #
0.5 5:0.122184 12:-0.113519 25:-0.259592 28:-0.18276601 38:-0.063603997 50:-0.29488599 #
-0.5 5:-0.48666501 12:-0.66384602 25:-0.259592 28:-0.18276601 38:-0.063603997 50:2.5261259 #
0.5 5:0.67304701 12:0.030615 25:-0.057076 28:-0.18276601 38:-0.063603997 50:-0.615345 #
0.5 5:0.32513401 12:-0.66384602 25:-0.259592 28:-0.18276601 38:-0.063603997 50:0.73446798 #
-0.5 5:-0.48666501 12:-0.66384602 25:-0.259592 28:-0.18276601 38:-0.063603997 50:-0.615345 #
-0.5 5:2.1226881 12:1.222991 25:1.142447 28:-0.18276601 38:-0.063603997 50:-0.615345 #
0.5 5:0.45560101 12:-0.24454901 25:-0.259592 28:-0.18276601 38:-0.063603997 50:-0.071534999 #
-0.5 5:-0.48666501 12:-0.66384602 25:-0.259592 28:-0.18276601 38:-0.063603997 50:-0.615345 #
0.5 5:-0.31270799 12:-0.33627 25:-0.259592 28:-0.18276601 38:-0.063603997 50:-0.50852501 #
0.5 5:-0.48666501 12:-0.66384602 25:-0.259592 28:-0.18276601 38:-0.063603997 50:-0.615345 #
-0.5 5:-0.48666501 12:-0.66384602 25:-0.259592 28:-0.18276601 38:-0.063603997 50:-0.615345 #
0.5 5:-0.48666501 12:-0.66384602 25:-0.259592 28:-0.18276601 38:-0.063603997 50:-0.615345 #
-0.5 5:-0.48666501 12:-0.66384602 25:-0.259592 28:-0.18276601 38:-0.063603997 50:-0.615345 #
0.5 5:-0.48666501 12:-0.66384602 25:-0.259592 28:-0.18276601 38:-0.063603997 50:-0.615345 #
-0.5 5:-0.48666501 12:-0.66384602 25:-0.259592 28:-0.18276601 38:-0.063603997 50:-0.615345 #
0.5 5:-0.48666501 12:-0.66384602 25:-0.259592 28:-0.18276601 38:-0.063603997 50:-0.615345 #
-0.5 5:-0.48666501 12:-0.66384602 25:-0.259592 28:-0.18276601 38:-0.063603997 50:-0.615345 #
0.5 5:-0.48666501 12:-0.66384602 25:-0.259592 28:-0.18276601 38:-0.063603997 50:-0.615345 #
-0.5 5:-0.48666501 12:-0.66384602 25:-0.259592 28:-0.18276601 38:-0.063603997 50:-0.615345 #
-0.5 5:-0.48666501 12:-0.66384602 25:-0.259592 28:-0.18276601 38:-0.063603997 50:-0.615345 #
0.5 5:-0.48666501 12:-0.41488901 25:-0.259592 28:-0.18276601 38:-0.063603997 50:-0.56678998 #
-0.5 5:-0.48666501 12:-0.66384602 25:-0.259592 28:-0.18276601 38:-0.063603997 50:-0.615345 #
-0.5 5:-0.48666501 12:-0.66384602 25:-0.259592 28:-0.18276601 38:-0.063603997 50:-0.615345 #
0.5 5:-0.48666501 12:-0.37558001 25:-0.259592 28:-0.18276601 38:-0.063603997 50:-0.615345 #
0.5 5:-0.356197 12:-0.66384602 25:-0.259592 28:-0.18276601 38:-0.063603997 50:-0.45997101 #
-0.5 5:-0.48666501 12:-0.66384602 25:-0.259592 28:-0.18276601 38:-0.063603997 50:-0.615345 #
0.5 5:-0.25472301 12:-0.66384602 25:-0.259592 28:-0.18276601 38:-0.063603997 50:-0.29488599 #
0.5 5:-0.48666501 12:0.37129399 25:-0.259592 28:-0.18276601 38:-0.063603997 50:-0.31916299 #
-0.5 5:-0.48666501 12:-0.66384602 25:-0.259592 28:-0.18276601 38:-0.063603997 50:-0.615345 #
0.5 5:-0.48666501 12:-0.139725 25:-0.259592 28:-0.18276601 38:-0.063603997 50:-0.29488599 #
0.5 5:-0.109759 12:-0.66384602 25:-0.259592 28:-0.18276601 38:-0.063603997 50:-0.217199 #
-0.5 5:-0.48666501 12:-0.66384602 25:-0.259592 28:-0.18276601 38:-0.063603997 50:-0.615345 #
0.5 5:-0.31270799 12:-0.165931 25:-0.259592 28:-0.18276601 38:-0.063603997 50:0.180948 #
-0.5 5:-0.48666501 12:-0.66384602 25:-0.259592 28:-0.18276601 38:-0.063603997 50:-0.615345 #
-0.5 5:-0.48666501 12:-0.66384602 25:-0.259592 28:-0.18276601 38:-0.063603997 50:-0.615345 #
0.5 5:-0.153248 12:-0.66384602 25:-0.259592 28:-0.18276601 38:-0.063603997 50:-0.40656099 #
0.5 5:-0.38519001 12:0.607149 25:-0.259592 28:-0.18276601 38:-0.063603997 50:-0.285175 #
0.5 5:-0.48666501 12:-0.323167 25:-0.259592 28:-0.18276601 38:-0.063603997 50:-0.40656099 #
-0.5 5:-0.48666501 12:-0.66384602 25:-0.259592 28:-0.18276601 38:-0.063603997 50:-0.615345 #
0.5 5:-0.48666501 12:-0.25765201 25:-0.259592 28:-0.18276601 38:-0.063603997 50:-0.615345 #
0.5 5:-0.080766 12:-0.66384602 25:-0.259592 28:-0.18276601 38:-0.063603997 50:-0.615345 #
-0.5 5:-0.48666501 12:-0.66384602 25:-0.259592 28:-0.18276601 38:-0.063603997 50:-0.615345 #
0.5 5:-0.48666501 12:-0.165931 25:-0.259592 28:-0.18276601 38:-0.063603997 50:-0.48424801 #
0.5 5:0.45560101 12:-0.24454901 25:-0.259592 28:-0.18276601 38:-0.063603997 50:-0.076390997 #
-0.5 5:-0.48666501 12:-0.66384602 25:-0.259592 28:-0.18276601 38:-0.063603997 50:-0.615345 #
0.5 5:-0.051773001 12:-0.27075499 25:-0.259592 28:-0.18276601 38:-0.063603997 50:0.40915301 #
0.5 5:-0.48666501 12:-0.15282799 25:-0.259592 28:-0.18276601 38:-0.063603997 50:-0.615345 #
-0.5 5:-0.48666501 12:-0.66384602 25:-0.259592 28:-0.18276601 38:-0.063603997 50:-0.615345 #
0.5 5:-0.327205 12:-0.44109499 25:-0.259592 28:-0.18276601 38:-0.063603997 50:-0.30459699 #
0.5 5:-0.37069401 12:-0.34937301 25:-0.259592 28:-0.18276601 38:-0.063603997 50:-0.285175 #
-0.5 5:-0.48666501 12:-0.66384602 25:-0.259592 28:-0.18276601 38:-0.063603997 50:2.5164151 #
-0.5 5:-0.48666501 12:-0.66384602 25:-0.259592 28:-0.18276601 38:-0.063603997 50:-0.615345 #
-0.5 5:-0.48666501 12:-0.66384602 25:-0.259592 28:-0.18276601 38:-0.063603997 50:-0.615345 #
-0.5 5:-0.48666501 12:-0.66384602 25:-0.259592 28:-0.18276601 38:-0.063603997 50:2.419306 #
0.5 5:-0.48666501 12:-0.165931 25:-0.259592 28:-0.18276601 38:-0.063603997 50:-0.48424801 #
-0.5 5:-0.48666501 12:-0.66384602 25:-0.259592 28:-0.18276601 38:-0.063603997 50:-0.615345 #
0.5 5:-0.327205 12:0.55473602 25:-0.259592 28:-0.18276601 38:-0.063603997 50:-0.0084149996 #
0.5 5:-0.066269003 12:-0.66384602 25:-0.259592 28:-0.18276601 38:-0.063603997 50:-0.615345 #
-0.5 5:-0.48666501 12:-0.66384602 25:-0.259592 28:-0.18276601 38:-0.063603997 50:-0.615345 #
0.5 5:-0.48666501 12:-0.165931 25:-0.259592 28:-0.18276601 38:-0.063603997 50:-0.48424801 #
-0.5 5:-0.48666501 12:-0.66384602 25:-0.259592 28:-0.18276601 38:-0.063603997 50:-0.615345 #
0.5 5:-0.109759 12:-0.66384602 25:-0.259592 28:-0.18276601 38:-0.063603997 50:-0.29003 #
0.5 5:0.47009799 12:-0.231446 25:-0.259592 28:-0.18276601 38:-0.063603997 50:-0.324018 #
-0.5 5:-0.48666501 12:-0.66384602 25:-0.259592 28:-0.18276601 38:-0.063603997 50:-0.615345 #
0.5 5:0.064198002 12:-0.165931 25:-0.259592 28:-0.18276601 38:-0.063603997 50:0.33632201 #
-0.5 5:-0.48666501 12:-0.66384602 25:-0.259592 28:-0.18276601 38:-0.063603997 50:-0.615345 #
-0.5 5:-0.48666501 12:-0.66384602 25:-0.259592 28:-0.18276601 38:-0.063603997 50:-0.615345 #
0.5 5:-0.48666501 12:-0.165931 25:-0.259592 28:-0.18276601 38:-0.063603997 50:-0.48424801 #
0.5 5:0.28164399 12:1.078858 25:-0.259592 28:-0.18276601 38:-0.063603997 50:-0.275464 #
0.5 5:-0.080766 12:-0.66384602 25:-0.259592 28:-0.18276601 38:-0.063603997 50:-0.358006 #
-0.5 5:-0.48666501 12:-0.66384602 25:-0.259592 28:-0.18276601 38:-0.063603997 50:-0.615345 #
0.5 5:-0.48666501 12:-0.139725 25:-0.259592 28:-0.18276601 38:-0.063603997 50:-0.615345 #
-0.5 5:-0.48666501 12:-0.66384602 25:-0.259592 28:-0.18276601 38:-0.063603997 50:-0.615345 #
-0.5 5:-0.48666501 12:-0.66384602 25:-0.259592 28:-0.18276601 38:-0.063603997 50:2.273643 #
-0.5 5:-0.240226 12:0.48922101 25:0.013026 28:-0.18276601 38:-0.063603997 50:0.627648 #
0.5 5:-0.48666501 12:-0.113519 25:-0.259592 28:-0.18276601 38:-0.063603997 50:-0.615345 #
0.5 5:0.13668001 12:0.476118 25:-0.259592 28:-0.18276601 38:-0.063603997 50:0.36059901 #
-0.5 5:-0.48666501 12:-0.66384602 25:-0.259592 28:-0.18276601 38:-0.063603997 50:-0.615345 #
0.5 5:-0.18224099 12:-0.38868299 25:-0.259592 28:-0.18276601 38:-0.063603997 50:0.122682 #
0.5 5:0.122184 12:-0.66384602 25:-0.259592 28:-0.18276601 38:-0.063603997 50:0.15667 #
-0.5 5:-0.48666501 12:-0.66384602 25:-0.259592 28:-0.18276601 38:-0.063603997 50:-0.615345 #
-0.5 5:-0.48666501 12:-0.66384602 25:-0.259592 28:-0.18276601 38:-0.063603997 50:-0.615345 #
-0.5 5:-0.48666501 12:-0.66384602 25:-0.259592 28:-0.18276601 38:-0.063603997 50:-0.615345 #
0.5 5:0.26714799 12:-0.66384602 25:-0.259592 28:-0.18276601 38:-0.063603997 50:0.31690001 #
-0.5 5:-0.48666501 12:-0.66384602 25:-0.259592 28:-0.18276601 38:-0.063603997 50:-0.615345 #
-0.5 5:-0.48666501 12:-0.66384602 25:-0.259592 28:-0.18276601 38:-0.063603997 50:0.62279302 #
0.5 5:-0.48666501 12:0.017511999 25:-0.259592 28:-0.18276601 38:-0.063603997 50:-0.615345 #
0.5 5:0.13668001 12:-0.66384602 25:-0.259592 28:-0.18276601 38:-0.063603997 50:0.166381 #
-0.5 5:-0.48666501 12:-0.66384602 25:-0.259592 28:-0.18276601 38:-0.063603997 50:-0.615345 #
0.5 5:0.209162 12:-0.66384602 25:-0.259592 28:-0.18276601 38:-0.063603997 50:0.176092 #
0.5 5:-0.26921901 12:0.25336599 25:-0.259592 28:-0.18276601 38:-0.063603997 50:-0.23661999 #
-0.5 5:-0.48666501 12:-0.66384602 25:-0.259592 28:-0.18276601 38:-0.063603997 50:-0.615345 #
0.5 5:-0.48666501 12:0.043717999 25:-0.259592 28:-0.18276601 38:-0.063603997 50:-0.615345 #
-0.5 5:-0.48666501 12:-0.66384602 25:-0.259592 28:-0.18276601 38:-0.063603997 50:-0.615345 #
0.5 5:-0.48666501 12:0.043717999 25:-0.259592 28:-0.18276601 38:-0.063603997 50:-0.615345 #
0.5 5:-0.0082839997 12:-0.66384602 25:-0.259592 28:-0.18276601 38:-0.063603997 50:-0.324018 #
0.5 5:0.035206001 12:-0.192137 25:-0.259592 28:-0.18276601 38:-0.063603997 50:0.28776699 #
-0.5 5:-0.48666501 12:-0.66384602 25:-0.259592 28:-0.18276601 38:-0.063603997 50:-0.615345 #
-0.5 5:-0.48666501 12:-0.66384602 25:-0.259592 28:-0.18276601 38:-0.063603997 50:-0.615345 #
0.5 5:0.020709001 12:-0.66384602 25:-0.259592 28:-0.18276601 38:-0.063603997 50:-0.48424801 #
-0.5 5:-0.48666501 12:-0.66384602 25:-0.259592 28:-0.18276601 38:-0.063603997 50:-0.615345 #
0.5 5:-0.48666501 12:0.083026998 25:-0.259592 28:-0.18276601 38:-0.063603997 50:-0.615345 #
0.5 5:0.122184 12:-0.113519 25:-0.259592 28:-0.18276601 38:-0.063603997 50:0.37516499 #
0.5 5:-0.051773001 12:-0.66384602 25:-0.259592 28:-0.18276601 38:-0.063603997 50:-0.615345 #
-0.5 5:-0.48666501 12:-0.66384602 25:-0.259592 28:-0.18276601 38:-0.063603997 50:1.2928441 #
0.5 5:-0.211233 12:-0.15282799 25:-0.259592 28:-0.18276601 38:-0.063603997 50:0.0061519998 #
0.5 5:0.064198002 12:-0.41488901 25:-0.259592 28:-0.18276601 38:-0.063603997 50:-0.32887399 #
-0.5 5:-0.48666501 12:-0.66384602 25:-0.259592 28:-0.18276601 38:-0.063603997 50:-0.615345 #
-0.5 5:-0.48666501 12:-0.66384602 25:-0.259592 28:-0.18276601 38:-0.063603997 50:-0.615345 #
0.5 5:-0.109759 12:-0.493507 25:-0.259592 28:-0.18276601 38:-0.063603997 50:-0.615345 #
0.5 5:-0.211233 12:0.083026998 25:-0.259592 28:-0.18276601 38:-0.063603997 50:0.117827 #
-0.5 5:-0.48666501 12:-0.66384602 25:-0.259592 28:-0.18276601 38:-0.063603997 50:-0.615345 #
-0.5 5:-0.48666501 12:-0.66384602 25:-0.259592 28:-0.18276601 38:-0.063603997 50:2.0794251 #
-0.5 5:-0.48666501 12:-0.66384602 25:-0.259592 28:-0.18276601 38:-0.063603997 50:-0.615345 #
0.5 5:-0.109759 12:-0.15282799 25:-0.259592 28:-0.18276601 38:-0.063603997 50:0.049851 #
