SVM-light Version V6.02
0 # kernel type
3 # kernel parameter -d 
1 # kernel parameter -g 
1 # kernel parameter -s 
1 # kernel parameter -r 
empty# kernel parameter -u 
57 # highest feature index 
1813 # number of training documents 
447 # number of support vectors plus 1 
0.70376816 # threshold b, each following line is a SV (starting with alpha*y)
-0.5 1:-0.348299 3:-0.62200397 4:-0.045352999 5:-0.48666501 6:-0.35563499 7:1.198869 8:-0.27120501 9:-0.354184 10:-0.40832499 11:-0.332057 12:-0.66384602 14:-0.189715 15:-0.21397699 16:-0.303601 18:-0.362865 19:0.87693101 21:-0.205281 25:-0.259592 27:-0.035758998 28:-0.18276601 29:-0.150461 30:-0.189439 31:-0.120054 33:-0.133763 34:-0.1311 35:-0.191397 36:-0.22950201 38:-0.063603997 39:-0.157189 42:-0.139154 45:1.111878 46:-0.215674 47:-0.079241998 48:-0.101023 49:-0.14805999 50:-0.615345 51:-0.150841 52:-0.459032 55:-0.103924 56:-0.364039 57:-0.35729799 #
-0.5 1:-0.348299 3:-0.62200397 4:-0.045352999 5:-0.48666501 6:-0.35563499 7:-0.31764501 8:-0.27120501 9:-0.354184 10:-0.40832499 11:-0.332057 12:-0.66384602 14:-0.189715 15:-0.21397699 16:-0.303601 18:-0.362865 19:-1.03152 21:-0.76167101 25:-0.259592 27:-0.225205 28:-0.18276601 29:-0.150461 30:-0.189439 31:-0.120054 33:-0.133763 34:-0.1311 35:-0.191397 36:-0.22950201 38:-0.063603997 39:-0.157189 42:-0.139154 45:-0.29318199 46:-0.215674 47:-0.079241998 48:-0.101023 49:-0.14805999 50:0.21008 51:-0.150841 52:-0.459032 55:-0.097038999 56:-0.217152 57:-0.27790901 #
0.5 1:-0.348299 3:-0.62200397 4:-0.045352999 5:-0.48666501 6:-0.35563499 7:-0.31764501 8:-0.27120501 9:-0.354184 10:-0.40832499 11:-0.332057 12:-0.66384602 14:-0.189715 15:-0.21397699 16:0.52558398 18:-0.362865 19:-0.533171 21:-0.76167101 25:-0.259592 27:-0.225205 28:-0.18276601 29:-0.150461 30:-0.189439 31:-0.120054 33:-0.133763 34:-0.1311 35:-0.191397 36:-0.22950201 38:-0.063603997 39:-0.157189 42:-0.139154 45:-0.29318199 46:-0.215674 47:-0.079241998 48:-0.101023 49:-0.14805999 50:0.064416997 51:-0.150841 52:-0.459032 55:-0.114929 56:-0.364039 57:-0.351307 #
0.5 1:-0.348299 3:3.652724 4:-0.045352999 5:1.06445 6:-0.35563499 7:-0.31764501 8:-0.27120501 9:-0.354184 10:-0.40832499 11:-0.332057 12:-0.66384602 14:-0.189715 15:-0.21397699 16:-0.303601 18:-0.362865 19:-0.42557299 21:0.126892 25:-0.259592 27:-0.225205 28:-0.18276601 29:-0.150461 30:-0.189439 31:-0.120054 33:-0.133763 34:-0.1311 35:-0.191397 36:-0.22950201 38:-0.063603997 39:-0.157189 42:-0.139154 45:-0.29318199 46:-0.215674 47:-0.079241998 48:-0.101023 49:-0.14805999 50:-0.615345 51:-0.150841 52:-0.176443 55:-0.089691997 56:-0.27126801 57:-0.37077901 #
0.5 1:0.071644999 3:-0.10506 4:-0.045352999 5:-0.109759 6:0.499275 7:-0.31764501 8:0.027752999 9:1.012808 10:-0.20740201 11:0.26968399 12:-0.15282799 14:-0.189715 15:-0.21397699 16:-0.181107 18:-0.362865 19:0.299299 21:-0.65371501 25:-0.259592 27:-0.225205 28:-0.18276601 29:-0.150461 30:-0.189439 31:-0.120054 33:-0.133763 34:-0.1311 35:-0.191397 36:-0.22950201 38:-0.063603997 39:-0.157189 42:-0.139154 45:-0.29318199 46:-0.215674 47:-0.079241998 48:-0.101023 49:-0.14805999 50:0.049851 51:-0.150841 52:-0.459032 55:-0.077303998 56:-0.18622801 57:0.25684801 #
0.5 1:-0.348299 3:-0.62200397 4:-0.045352999 5:-0.48666501 6:-0.35563499 7:-0.31764501 8:-0.27120501 9:-0.354184 10:-0.40832499 11:-0.332057 12:-0.66384602 14:-0.189715 15:-0.21397699 16:-0.303601 18:-0.362865 19:-1.03152 21:-0.76167101 25:-0.259592 27:-0.225205 28:-0.18276601 29:-0.150461 30:-0.189439 31:-0.120054 33:-0.133763 34:-0.1311 35:-0.191397 36:-0.22950201 38:-0.063603997 39:-0.157189 42:-0.139154 45:-0.29318199 46:-0.215674 47:-0.079241998 48:-0.101023 49:-0.14805999 50:-0.615345 51:-0.150841 52:-0.459032 55:-0.086280003 56:-0.340846 57:-0.37826899 #
0.5 1:-0.348299 3:-0.62200397 4:-0.045352999 5:-0.48666501 6:-0.35563499 7:-0.31764501 8:-0.27120501 9:-0.354184 10:5.4184418 11:-0.332057 12:-0.66384602 14:-0.189715 15:-0.21397699 16:-0.303601 18:-0.362865 19:0.033135001 21:-0.76167101 25:-0.259592 27:-0.225205 28:-0.18276601 29:-0.150461 30:-0.189439 31:-0.120054 33:-0.133763 34:-0.1311 35:-0.191397 36:-0.22950201 38:-0.063603997 39:-0.157189 42:-0.139154 45:-0.29318199 46:-0.215674 47:-0.079241998 48:-0.101023 49:0.74088001 50:-0.615345 51:-0.150841 52:-0.459032 55:-0.028214 56:-0.317653 57:-0.32734001 #
0.5 1:-0.348299 3:0.014235 4:-0.045352999 5:1.165925 6:0.69656098 7:-0.31764501 8:0.096744001 9:-0.354184 10:0.59628999 11:-0.332057 12:2.1271009 14:-0.189715 15:-0.21397699 16:-0.15284 18:-0.362865 19:-0.19904999 21:0.45906499 25:-0.259592 27:-0.225205 28:-0.18276601 29:-0.150461 30:-0.189439 31:-0.120054 33:-0.133763 34:-0.1311 35:-0.191397 36:-0.22950201 38:-0.063603997 39:-0.157189 42:-0.139154 45:-0.29318199 46:-0.215674 47:-0.079241998 48:-0.101023 49:-0.14805999 50:-0.615345 51:-0.150841 52:-0.459032 55:-0.092027999 56:-0.317653 57:-0.207507 #
-0.5 1:-0.348299 3:-0.62200397 4:-0.045352999 5:-0.48666501 6:18.978474 7:-0.31764501 8:-0.27120501 9:-0.354184 10:-0.40832499 11:-0.332057 12:-0.66384602 14:-0.189715 15:-0.21397699 16:-0.303601 18:-0.362865 19:-1.03152 21:-0.76167101 25:-0.259592 27:-0.225205 28:-0.18276601 29:-0.150461 30:-0.189439 31:-0.120054 33:-0.133763 34:-0.1311 35:-0.191397 36:-0.22950201 38:-0.063603997 39:-0.157189 42:-0.139154 45:-0.29318199 46:-0.215674 47:-0.079241998 48:-0.101023 49:-0.14805999 50:-0.615345 51:-0.150841 52:-0.459032 55:-0.079456002 56:-0.3795 57:-0.42021099 #
0.22108670570157953894074864820141 1:-0.348299 3:-0.62200397 4:-0.045352999 5:0.499091 6:-0.35563499 7:-0.31764501 8:-0.27120501 9:-0.354184 10:2.3891411 11:-0.332057 12:0.22716001 14:-0.189715 15:-0.21397699 16:-0.096303999 18:-0.362865 19:0.89392 21:0.74141198 25:-0.259592 27:-0.225205 28:-0.18276601 29:-0.150461 30:-0.189439 31:-0.120054 33:-0.133763 34:-0.1311 35:-0.191397 36:-0.22950201 38:-0.063603997 39:-0.157189 42:0.47134799 45:-0.064208999 46:-0.215674 47:-0.079241998 48:-0.101023 49:0.38732401 50:2.093992 51:1.565253 52:-0.16614 55:0.025826 56:0.223509 57:0.34971899 #
-0.5 1:-0.348299 3:-0.62200397 4:-0.045352999 5:8.5735893 6:-0.35563499 7:-0.31764501 8:-0.27120501 9:-0.354184 10:-0.40832499 11:-0.332057 12:-0.66384602 14:-0.189715 15:-0.21397699 16:-0.303601 18:-0.362865 19:-1.03152 21:-0.76167101 25:-0.259592 27:-0.225205 28:-0.18276601 29:-0.150461 30:-0.189439 31:-0.120054 33:-0.133763 34:-0.1311 35:-0.191397 36:-0.22950201 38:-0.063603997 39:-0.157189 42:-0.139154 45:-0.29318199 46:-0.215674 47:-0.079241998 48:-0.101023 49:-0.14805999 50:-0.615345 51:-0.150841 52:-0.459032 55:-0.115298 56:-0.402693 57:-0.439684 #
-0.5 1:0.16855501 3:-0.30388501 4:-0.045352999 5:0.716537 6:0.170463 7:-0.31764501 8:0.096744001 9:-0.354184 10:-0.40832499 11:-0.332057 12:-0.0086939996 14:-0.189715 15:-0.21397699 16:-0.303601 18:-0.362865 19:0.29363599 21:-0.205281 25:-0.259592 27:-0.225205 28:-0.18276601 29:-0.150461 30:-0.189439 31:-0.120054 33:-0.133763 34:-0.1311 35:-0.191397 36:-0.22950201 38:-0.063603997 39:-0.157189 42:-0.139154 45:0.050276998 46:-0.037331 47:-0.079241998 48:-0.101023 49:0.144886 50:-0.333729 51:-0.150841 52:-0.459032 55:-0.102971 56:-0.29446101 57:-0.24195901 #
0.5 1:-0.348299 3:-0.62200397 4:-0.045352999 5:-0.48666501 6:-0.35563499 7:-0.31764501 8:-0.27120501 9:-0.354184 10:-0.40832499 11:-0.332057 12:-0.66384602 14:-0.189715 15:-0.21397699 16:-0.303601 18:-0.362865 19:6.0473042 21:-0.76167101 25:-0.259592 27:-0.225205 28:-0.18276601 29:-0.150461 30:-0.189439 31:-0.120054 33:-0.133763 34:-0.1311 35:-0.191397 36:-0.22950201 38:-0.063603997 39:-0.157189 42:-0.139154 45:-0.29318199 46:-0.215674 47:-0.079241998 48:-0.101023 49:-0.14805999 50:-0.615345 51:-0.150841 52:-0.459032 55:-0.130667 56:-0.41042399 57:-0.44118199 #
0.5 1:-0.348299 3:0.392001 4:-0.045352999 5:0.25265199 6:-0.35563499 7:-0.31764501 8:-0.27120501 9:-0.354184 10:-0.40832499 11:-0.332057 12:0.68576699 14:-0.189715 15:-0.21397699 16:-0.303601 18:-0.362865 19:-0.159409 21:0.093673997 25:-0.259592 27:-0.225205 28:-0.18276601 29:-0.150461 30:-0.189439 31:-0.120054 33:-0.133763 34:-0.1311 35:-0.191397 36:-0.22950201 38:-0.063603997 39:-0.157189 42:-0.139154 45:-0.29318199 46:-0.215674 47:-0.079241998 48:-0.101023 49:-0.14805999 50:-0.615345 51:-0.150841 52:0.71842301 55:-0.065347001 56:-0.32538399 57:-0.294386 #
-0.5 1:0.136252 3:0.63059098 4:-0.045352999 5:-0.38519001 6:0.006058 7:-0.31764501 8:-0.27120501 9:-0.354184 10:-0.361958 11:-0.332057 12:-0.57212502 14:-0.189715 15:-0.21397699 16:-0.303601 18:-0.310554 19:-0.374605 21:-0.57897598 25:-0.23622499 27:-0.225205 28:-0.18276601 29:-0.150461 30:-0.189439 31:-0.120054 33:-0.133763 34:-0.1311 35:-0.191397 36:-0.22950201 38:0.228118 39:-0.157189 42:-0.098453999 45:-0.064208999 46:-0.182234 47:-0.079241998 48:-0.101023 49:-0.100919 50:-0.37257299 51:-0.150841 52:-0.438427 55:-0.12725499 56:-0.364039 57:0.138512 #
-0.5 1:-0.31599599 3:-0.224355 4:-0.045352999 5:-0.356197 6:-0.25699201 7:-0.31764501 8:-0.27120501 9:-0.178929 10:-0.331047 11:-0.332057 12:-0.048004001 14:0.318295 15:-0.21397699 16:-0.218798 18:-0.136186 19:-0.83331299 21:-0.637106 25:-0.259592 27:-0.21106701 28:-0.120792 29:-0.12728 30:-0.189439 31:-0.120054 33:2.206198 34:-0.1311 35:-0.191397 36:0.116844 38:-0.063603997 39:-0.157189 42:-0.044186998 45:-0.241143 46:-0.015038 47:-0.079241998 48:0.42227399 49:-0.020106999 50:0.66163599 51:-0.096874997 52:-0.43548301 55:-0.092858002 56:0.370397 57:4.3012242 #
-0.27365008861877782031513106630882 1:-0.348299 3:-0.62200397 4:-0.045352999 5:-0.48666501 6:-0.35563499 7:-0.31764501 8:-0.27120501 9:-0.354184 10:-0.40832499 11:-0.332057 12:-0.66384602 14:-0.189715 15:-0.21397699 16:-0.303601 18:-0.362865 19:-1.03152 21:-0.76167101 25:-0.259592 27:-0.225205 28:-0.18276601 29:-0.150461 30:-0.189439 31:-0.120054 33:-0.133763 34:-0.1311 35:-0.191397 36:-0.22950201 38:-0.063603997 39:-0.157189 42:-0.139154 45:-0.29318199 46:-0.215674 47:-0.079241998 48:-0.101023 49:-0.14805999 50:0.933541 51:-0.150841 52:-0.459032 55:-0.080378003 56:-0.34857699 57:-0.400738 #
-0.5 1:-0.348299 3:-0.62200397 4:-0.045352999 5:-0.48666501 6:-0.35563499 7:-0.31764501 8:-0.27120501 9:-0.354184 10:-0.40832499 11:-0.332057 12:-0.66384602 14:-0.189715 15:-0.21397699 16:0.110992 18:0.40435499 19:-1.03152 21:-0.396281 25:-0.259592 27:-0.225205 28:-0.18276601 29:-0.150461 30:-0.189439 31:-0.120054 33:-0.133763 34:-0.1311 35:-0.191397 36:-0.22950201 38:-0.063603997 39:-0.157189 42:-0.139154 45:-0.29318199 46:0.76521099 47:-0.079241998 48:-0.101023 49:-0.14805999 50:0.248924 51:0.48594901 52:-0.459032 55:0.055181 56:0.123008 57:0.009691 #
-0.5 1:-0.348299 3:-0.62200397 4:-0.045352999 5:-0.48666501 6:-0.35563499 7:-0.31764501 8:-0.27120501 9:-0.354184 10:16.762863 11:-0.332057 12:-0.66384602 14:-0.189715 15:-0.21397699 16:-0.303601 18:-0.362865 19:2.1114781 21:-0.76167101 25:-0.259592 27:-0.225205 28:-0.18276601 29:-0.150461 30:-0.189439 31:-0.120054 33:-0.133763 34:-0.1311 35:-0.191397 36:-0.22950201 38:-0.063603997 39:-0.157189 42:-0.139154 45:-0.29318199 46:-0.215674 47:-0.079241998 48:-0.101023 49:-0.14805999 50:-0.615345 51:-0.150841 52:-0.459032 55:-0.130667 56:-0.41042399 57:-0.44118199 #
0.5 1:-0.348299 3:-0.62200397 4:-0.045352999 5:-0.48666501 6:-0.35563499 7:-0.31764501 8:-0.27120501 9:-0.354184 10:-0.40832499 11:-0.332057 12:0.27957299 14:-0.189715 15:-0.21397699 16:-0.303601 18:-0.362865 19:-1.03152 21:-0.76167101 25:-0.259592 27:-0.225205 28:0.80881703 29:-0.150461 30:-0.189439 31:-0.120054 33:-0.133763 34:-0.1311 35:-0.191397 36:0.52616203 38:-0.063603997 39:1.273693 42:-0.139154 45:-0.29318199 46:-0.215674 47:-0.079241998 48:-0.101023 49:-0.14805999 50:0.28291199 51:-0.150841 52:-0.459032 55:-0.075274996 56:-0.124381 57:-0.083178997 #
0.5 1:-0.348299 3:-0.62200397 4:-0.045352999 5:-0.48666501 6:-0.35563499 7:-0.31764501 8:-0.27120501 9:-0.354184 10:-0.40832499 11:-0.332057 12:7.276597 14:-0.189715 15:-0.21397699 16:-0.303601 18:-0.362865 19:4.1162009 21:-0.76167101 25:-0.259592 27:-0.225205 28:-0.18276601 29:-0.150461 30:-0.189439 31:-0.120054 33:-0.133763 34:-0.1311 35:-0.191397 36:-0.22950201 38:-0.063603997 39:-0.157189 42:-0.139154 45:-0.29318199 46:-0.215674 47:-0.079241998 48:-0.101023 49:-0.14805999 50:-0.615345 51:-0.150841 52:-0.459032 55:-0.087632 56:-0.30992201 57:-0.408227 #
0.5 1:-0.348299 3:-0.62200397 4:-0.045352999 5:-0.48666501 6:3.7873881 7:-0.31764501 8:-0.27120501 9:-0.354184 10:-0.40832499 11:-0.332057 12:0.98713702 14:-0.189715 15:-0.21397699 16:-0.303601 18:-0.362865 19:-1.03152 21:0.28467399 25:-0.259592 27:-0.225205 28:-0.18276601 29:-0.150461 30:-0.189439 31:-0.120054 33:-0.133763 34:-0.1311 35:-0.191397 36:-0.22950201 38:-0.063603997 39:-0.157189 42:-0.139154 45:1.018207 46:-0.215674 47:-0.079241998 48:-0.101023 49:-0.14805999 50:0.34603301 51:-0.150841 52:-0.167612 55:-0.043582998 56:-0.28672999 57:-0.340821 #
0.18058531955996723339374909755861 1:-0.348299 3:-0.62200397 4:-0.045352999 5:-0.48666501 6:-0.35563499 7:-0.31764501 8:-0.27120501 9:-0.354184 10:-0.40832499 11:-0.332057 12:-0.66384602 14:5.9064021 15:-0.21397699 16:-0.303601 18:-0.362865 19:-1.03152 21:-0.76167101 25:-0.259592 27:-0.225205 28:-0.18276601 29:-0.150461 30:-0.189439 31:-0.120054 33:-0.133763 34:-0.1311 35:-0.191397 36:2.982069 38:-0.063603997 39:-0.157189 42:-0.139154 45:-0.29318199 46:-0.215674 47:-0.079241998 48:-0.101023 49:-0.14805999 50:0.239213 51:-0.150841 52:-0.199992 55:-0.042846002 56:-0.22488301 57:-0.322846 #
-0.5 1:6.1123791 3:-0.62200397 4:-0.045352999 5:-0.48666501 6:-0.35563499 7:-0.31764501 8:-0.27120501 9:-0.354184 10:-0.40832499 11:8.9255009 12:1.956762 14:-0.189715 15:-0.21397699 16:-0.303601 18:-0.362865 19:0.101092 21:5.8817911 25:-0.259592 27:-0.225205 28:-0.18276601 29:-0.150461 30:-0.189439 31:-0.120054 33:-0.133763 34:-0.1311 35:-0.191397 36:-0.22950201 38:-0.063603997 39:-0.157189 42:-0.139154 45:-0.29318199 46:-0.215674 47:-0.079241998 48:-0.101023 49:-0.14805999 50:-0.615345 51:-0.150841 52:-0.459032 55:0.019586001 56:-0.193959 57:-0.364788 #
-0.5 1:-0.348299 3:-0.62200397 4:-0.045352999 5:-0.48666501 6:-0.35563499 7:-0.31764501 8:-0.27120501 9:-0.354184 10:-0.40832499 11:-0.332057 12:-0.66384602 14:-0.189715 15:-0.21397699 16:-0.303601 18:-0.362865 19:-1.03152 21:-0.76167101 25:-0.259592 27:-0.225205 28:-0.18276601 29:-0.150461 30:-0.189439 31:-0.120054 33:-0.133763 34:-0.1311 35:-0.191397 36:-0.22950201 38:-0.063603997 39:-0.157189 42:-0.139154 45:-0.29318199 46:-0.215674 47:-0.079241998 48:-0.101023 49:-0.14805999 50:-0.615345 51:-0.150841 52:-0.459032 55:-0.058952998 56:-0.35630801 57:-0.429198 #
-0.5 1:-0.348299 3:-0.62200397 4:-0.045352999 5:4.6160698 6:3.4914579 7:-0.31764501 8:2.4194219 9:-0.354184 10:6.855814 11:-0.332057 12:-0.66384602 14:-0.189715 15:-0.21397699 16:0.79883897 18:-0.362865 19:-0.36894199 21:0.20993499 25:-0.259592 27:0.105619 28:-0.18276601 29:-0.150461 30:-0.189439 31:-0.120054 33:-0.133763 34:-0.1311 35:-0.191397 36:-0.22950201 38:-0.063603997 39:-0.157189 42:-0.139154 45:0.92453599 46:-0.215674 47:-0.079241998 48:-0.101023 49:-0.14805999 50:0.31690001 51:-0.150841 52:-0.459032 55:-0.130667 56:-0.41042399 57:-0.42320701 #
-0.5 1:-0.348299 3:-0.62200397 4:-0.045352999 5:-0.48666501 6:-0.35563499 7:-0.31764501 8:-0.27120501 9:-0.354184 10:0.79721302 11:-0.332057 12:-0.66384602 14:-0.189715 15:-0.21397699 16:-0.303601 18:-0.362865 19:-0.148083 21:-0.76167101 25:0.347958 27:-0.225205 28:3.0398791 29:-0.150461 30:-0.189439 31:-0.120054 33:-0.133763 34:-0.1311 35:-0.191397 36:2.2264049 38:-0.063603997 39:-0.157189 42:-0.139154 45:-0.29318199 46:-0.215674 47:-0.079241998 48:-0.101023 49:-0.14805999 50:0.73446798 51:-0.150841 52:-0.459032 55:-0.085418999 56:-0.33311501 57:-0.31086299 #
0.5 1:3.6250179 3:-0.62200397 4:-0.045352999 5:-0.48666501 6:-0.35563499 7:-0.31764501 8:-0.27120501 9:-0.354184 10:-0.40832499 11:-0.332057 12:2.5595019 14:-0.189715 15:-0.21397699 16:-0.303601 18:-0.362865 19:2.4625881 21:1.281193 25:-0.259592 27:-0.225205 28:-0.18276601 29:-0.150461 30:-0.189439 31:-0.120054 33:-0.133763 34:-0.1311 35:-0.191397 36:-0.22950201 38:-0.063603997 39:-0.157189 42:-0.139154 45:-0.29318199 46:-0.215674 47:-0.079241998 48:-0.101023 49:-0.14805999 50:-0.615345 51:-0.150841 52:0.78171098 55:-0.099927999 56:-0.27126801 57:-0.28539801 #
-0.5 1:-0.348299 3:-0.62200397 4:-0.045352999 5:-0.48666501 6:-0.35563499 7:4.707222 8:4.8340869 9:-0.354184 10:-0.40832499 11:-0.332057 12:-0.66384602 14:-0.189715 15:-0.21397699 16:-0.303601 18:-0.362865 19:-1.03152 21:-0.76167101 25:-0.259592 27:-0.225205 28:-0.18276601 29:-0.150461 30:-0.189439 31:-0.120054 33:-0.133763 34:-0.1311 35:-0.191397 36:-0.22950201 38:-0.063603997 39:-0.157189 42:-0.139154 45:-0.29318199 46:-0.215674 47:-0.079241998 48:-0.101023 49:-0.14805999 50:2.613524 51:-0.150841 52:-0.459032 55:-0.020897999 56:-0.22488301 57:-0.34831101 #
-0.5 1:-0.348299 3:-0.62200397 4:-0.045352999 5:-0.48666501 6:-0.35563499 7:-0.31764501 8:3.822227 9:-0.354184 10:-0.40832499 11:-0.332057 12:-0.66384602 14:5.129446 15:-0.21397699 16:-0.303601 18:-0.362865 19:-1.03152 21:-0.76167101 25:-0.259592 27:-0.225205 28:-0.18276601 29:-0.150461 30:-0.189439 31:-0.120054 33:-0.133763 34:-0.1311 35:-0.191397 36:-0.22950201 38:-0.063603997 39:-0.157189 42:-0.139154 45:-0.29318199 46:-0.215674 47:-0.079241998 48:-0.101023 49:-0.14805999 50:-0.615345 51:-0.150841 52:-0.459032 55:-0.117019 56:-0.3795 57:-0.424705 #
0.5 1:-0.348299 3:2.420012 4:-0.045352999 5:-0.48666501 6:-0.35563499 7:-0.31764501 8:-0.27120501 9:-0.354184 10:-0.40832499 11:6.7499752 12:-0.66384602 14:-0.189715 15:-0.21397699 16:-0.303601 18:-0.362865 19:0.707039 21:-0.76167101 25:-0.259592 27:-0.225205 28:-0.18276601 29:-0.150461 30:-0.189439 31:-0.120054 33:-0.133763 34:-0.1311 35:-0.191397 36:-0.22950201 38:-0.063603997 39:-0.157189 42:-0.139154 45:1.299219 46:-0.215674 47:-0.079241998 48:-0.101023 49:-0.14805999 50:-0.615345 51:-0.150841 52:1.651556 55:0.055458002 56:0.161662 57:-0.25394201 #
0.5 1:-0.348299 3:1.565066 4:-0.045352999 5:0.310637 6:-0.35563499 7:-0.31764501 8:-0.27120501 9:-0.354184 10:0.44173399 11:-0.332057 12:-0.66384602 14:-0.189715 15:-0.21397699 16:0.21464001 18:-0.362865 19:0.214353 21:0.151805 25:-0.259592 27:-0.225205 28:-0.18276601 29:-0.150461 30:-0.189439 31:-0.120054 33:-0.133763 34:-0.1311 35:-0.191397 36:-0.22950201 38:-0.063603997 39:-0.157189 42:-0.139154 45:0.27925 46:-0.215674 47:-0.079241998 48:-0.101023 49:-0.14805999 50:-0.14436699 51:-0.150841 52:0.54622 55:-0.089538001 56:-0.27126801 57:-0.226979 #
-0.5 1:-0.348299 3:-0.62200397 4:-0.045352999 5:-0.48666501 6:-0.35563499 7:-0.31764501 8:-0.27120501 9:2.029289 10:-0.40832499 11:2.8155129 12:-0.66384602 14:-0.189715 15:-0.21397699 16:0.33713299 18:3.1942461 19:1.279008 21:-0.196977 25:-0.259592 27:-0.225205 28:-0.18276601 29:-0.150461 30:-0.189439 31:-0.120054 33:-0.133763 34:-0.1311 35:-0.191397 36:-0.22950201 38:-0.063603997 39:-0.157189 42:-0.139154 45:-0.29318199 46:-0.215674 47:-0.079241998 48:-0.101023 49:-0.14805999 50:-0.615345 51:-0.150841 52:0.310729 55:-0.123966 56:-0.3795 57:-0.385759 #
-0.5 1:-0.348299 3:5.2234378 4:-0.045352999 5:-0.48666501 6:-0.35563499 7:-0.31764501 8:-0.27120501 9:-0.354184 10:-0.40832499 11:-0.332057 12:-0.66384602 14:-0.189715 15:-0.21397699 16:-0.303601 18:-0.362865 19:0.63341898 21:-0.76167101 25:-0.259592 27:-0.225205 28:-0.18276601 29:-0.150461 30:-0.189439 31:-0.120054 33:-0.133763 34:-0.1311 35:-0.191397 36:-0.22950201 38:-0.063603997 39:-0.157189 42:-0.139154 45:-0.29318199 46:-0.215674 47:-0.079241998 48:-0.101023 49:-0.14805999 50:-0.615345 51:-0.150841 52:0.28423601 55:-0.088400997 56:-0.38723099 57:-0.41571701 #
0.5 1:-0.348299 3:-0.62200397 4:-0.045352999 5:-0.48666501 6:-0.35563499 7:-0.31764501 8:-0.27120501 9:-0.354184 10:-0.40832499 11:-0.332057 12:-0.66384602 14:6.0857 15:-0.21397699 16:-0.303601 18:-0.362865 19:-1.03152 21:-0.76167101 25:-0.259592 27:-0.225205 28:-0.18276601 29:-0.150461 30:-0.189439 31:-0.120054 33:-0.133763 34:-0.1311 35:-0.191397 36:3.0765271 38:-0.063603997 39:-0.157189 42:-0.139154 45:0.79964203 46:-0.215674 47:-0.079241998 48:-0.101023 49:-0.14805999 50:0.244068 51:-0.150841 52:-0.459032 55:-0.037005 56:-0.193959 57:-0.316854 #
-0.5 1:-0.348299 3:-0.62200397 4:-0.045352999 5:-0.48666501 6:-0.35563499 7:-0.31764501 8:-0.27120501 9:-0.354184 10:-0.40832499 11:-0.332057 12:-0.66384602 14:-0.189715 15:-0.21397699 16:-0.303601 18:-0.362865 19:-1.03152 21:-0.76167101 25:-0.259592 27:-0.225205 28:-0.18276601 29:-0.150461 30:-0.189439 31:-0.120054 33:-0.133763 34:-0.1311 35:-0.191397 36:-0.22950201 38:-0.063603997 39:-0.157189 42:-0.139154 45:-0.29318199 46:-0.215674 47:-0.079241998 48:-0.101023 49:-0.14805999 50:-0.615345 51:-0.150841 52:-0.459032 55:-0.091567002 56:-0.38723099 57:-0.40673 #
0.5 1:-0.348299 3:-0.62200397 4:-0.045352999 5:-0.48666501 6:-0.35563499 7:-0.31764501 8:-0.27120501 9:-0.354184 10:-0.40832499 11:-0.332057 12:-0.66384602 14:5.1892118 15:-0.21397699 16:-0.303601 18:-0.362865 19:-0.351953 21:-0.76167101 25:-0.259592 27:-0.225205 28:2.2961919 29:-0.150461 30:-0.189439 31:-0.120054 33:-0.133763 34:-0.1311 35:-0.191397 36:-0.22950201 38:-0.063603997 39:-0.157189 42:-0.139154 45:-0.29318199 46:1.790682 47:-0.079241998 48:-0.101023 49:-0.14805999 50:0.83643198 51:-0.150841 52:-0.459032 55:-0.085634001 56:-0.20169 57:-0.28539801 #
-0.5 1:-0.348299 3:-0.62200397 4:-0.045352999 5:-0.48666501 6:-0.35563499 7:-0.31764501 8:-0.27120501 9:-0.354184 10:-0.40832499 11:-0.332057 12:-0.66384602 14:8.5958652 15:-0.21397699 16:-0.303601 18:-0.362865 19:-1.03152 21:-0.76167101 25:-0.259592 27:-0.225205 28:-0.18276601 29:-0.150461 30:-0.189439 31:-0.120054 33:-0.133763 34:-0.1311 35:-0.191397 36:-0.22950201 38:-0.063603997 39:-0.157189 42:-0.139154 45:-0.29318199 46:-0.215674 47:-0.079241998 48:-0.101023 49:-0.14805999 50:-0.615345 51:-0.150841 52:-0.459032 55:-0.112224 56:-0.3795 57:-0.42021099 #
-0.19651651093486219301631479083881 1:-0.348299 3:-0.62200397 4:-0.045352999 5:-0.48666501 6:-0.35563499 7:-0.31764501 8:-0.27120501 9:-0.354184 10:-0.40832499 11:-0.332057 12:-0.66384602 14:-0.189715 15:-0.21397699 16:-0.303601 18:-0.362865 19:3.6858079 21:-0.76167101 25:-0.259592 27:-0.225205 28:-0.18276601 29:-0.150461 30:-0.189439 31:-0.120054 33:-0.133763 34:-0.1311 35:-0.191397 36:-0.22950201 38:-0.063603997 39:-0.157189 42:-0.139154 45:-0.29318199 46:-0.215674 47:-0.079241998 48:-0.101023 49:-0.14805999 50:-0.615345 51:-0.150841 52:-0.459032 55:-0.130667 56:-0.41042399 57:-0.44118199 #
0.5 1:-0.348299 3:0.610708 4:-0.045352999 5:1.310889 6:1.682995 7:-0.31764501 8:-0.27120501 9:-0.354184 10:-0.40832499 11:-0.332057 12:-0.66384602 14:-0.189715 15:-0.21397699 16:-0.011501 18:-0.362865 19:0.37291899 21:0.010631 25:-0.259592 27:-0.225205 28:-0.18276601 29:-0.150461 30:-0.189439 31:-0.120054 33:-0.133763 34:-0.1311 35:-0.191397 36:-0.22950201 38:-0.063603997 39:-0.157189 42:-0.139154 45:-0.29318199 46:-0.215674 47:-0.079241998 48:-0.101023 49:-0.14805999 50:-0.197777 51:-0.150841 52:-0.395744 55:-0.10789 56:-0.30992201 57:-0.212 #
-0.5 1:-0.348299 3:2.1217749 4:-0.045352999 5:-0.48666501 6:-0.35563499 7:-0.31764501 8:-0.27120501 9:-0.354184 10:1.72455 11:-0.332057 12:-0.66384602 14:-0.189715 15:-0.21397699 16:-0.303601 18:-0.362865 19:4.4729738 21:0.38432601 25:-0.259592 27:-0.225205 28:-0.18276601 29:-0.150461 30:-0.189439 31:-0.120054 33:-0.133763 34:-0.1311 35:-0.191397 36:-0.22950201 38:-0.063603997 39:-0.157189 42:-0.139154 45:1.143101 46:-0.215674 47:-0.079241998 48:-0.101023 49:-0.14805999 50:-0.615345 51:-0.150841 52:-0.459032 55:-0.098329999 56:-0.255806 57:-0.385759 #
0.5 1:0.97614002 3:0.193177 4:-0.045352999 5:0.107688 6:-0.35563499 7:-0.31764501 8:-0.27120501 9:1.0829099 10:0.87449098 11:-0.332057 12:-0.66384602 14:-0.189715 15:-0.21397699 16:-0.303601 18:-0.362865 19:-0.091452003 21:0.27636999 25:-0.259592 27:-0.225205 28:-0.18276601 29:-0.150461 30:-0.189439 31:-0.120054 33:-0.133763 34:-0.1311 35:-0.191397 36:-0.22950201 38:-0.063603997 39:-0.157189 42:-0.139154 45:-0.29318199 46:-0.215674 47:-0.079241998 48:-0.101023 49:-0.14805999 50:-0.615345 51:-0.150841 52:-0.459032 55:0.128894 56:-0.00068699999 57:-0.062208999 #
0.5 1:-0.348299 3:-0.62200397 4:-0.045352999 5:0.26714799 6:-0.35563499 7:-0.31764501 8:-0.27120501 9:-0.354184 10:-0.40832499 11:-0.332057 12:-0.66384602 14:1.364198 15:-0.21397699 16:0.186372 18:-0.362865 19:-1.03152 21:-0.76167101 25:-0.259592 27:-0.225205 28:-0.18276601 29:-0.150461 30:-0.189439 31:-0.120054 33:0.69397801 34:-0.1311 35:-0.191397 36:-0.22950201 38:-0.063603997 39:-0.157189 42:-0.139154 45:-0.29318199 46:1.523168 47:-0.079241998 48:-0.101023 49:-0.14805999 50:-0.241476 51:-0.150841 52:-0.34570199 55:-0.11874 56:-0.33311501 57:-0.33183399 #
-0.5 1:-0.348299 3:-0.62200397 4:-0.045352999 5:-0.48666501 6:-0.35563499 7:-0.31764501 8:-0.27120501 9:-0.354184 10:2.620976 11:-0.332057 12:-0.66384602 14:-0.189715 15:-0.21397699 16:-0.303601 18:3.0547509 19:0.078438997 21:-0.76167101 25:-0.259592 27:-0.225205 28:3.8661981 29:-0.150461 30:-0.189439 31:-0.120054 33:-0.133763 34:-0.1311 35:-0.191397 36:-0.22950201 38:-0.063603997 39:-0.157189 42:-0.139154 45:-0.29318199 46:-0.215674 47:-0.079241998 48:-0.101023 49:-0.14805999 50:1.195735 51:-0.150841 52:-0.459032 55:-0.104324 56:-0.33311501 57:-0.40523201 #
-0.5 1:-0.348299 3:0.014235 4:-0.045352999 5:-0.25472301 6:0.170463 7:-0.31764501 8:-0.27120501 9:0.206633 10:0.086254999 11:-0.332057 12:-0.66384602 14:-0.189715 15:0.85179198 16:-0.303601 18:0.195113 19:-0.578475 21:0.96562898 25:-0.259592 27:-0.17996401 28:1.139345 29:-0.150461 30:-0.189439 31:-0.120054 33:-0.133763 34:-0.1311 35:-0.191397 36:-0.22950201 38:-0.063603997 39:-0.157189 42:-0.139154 45:-0.29318199 46:-0.215674 47:-0.079241998 48:-0.101023 49:-0.14805999 50:5.7404289 51:-0.150841 52:-0.42665201 55:-0.040970001 56:0.795596 57:0.71221501 #
0.5 1:-0.348299 3:0.471531 4:-0.045352999 5:1.122436 6:-0.35563499 7:0.089777 8:-0.27120501 9:-0.354184 10:-0.40832499 11:-0.332057 12:-0.42799199 14:-0.189715 15:0.38551801 16:-0.303601 18:0.282298 19:0.75234401 21:0.002327 25:-0.259592 27:-0.225205 28:-0.18276601 29:-0.150461 30:-0.189439 31:-0.120054 33:-0.133763 34:-0.1311 35:-0.191397 36:-0.22950201 38:-0.063603997 39:-0.157189 42:-0.139154 45:-0.29318199 46:-0.215674 47:-0.079241998 48:-0.101023 49:-0.14805999 50:0.26834601 51:-0.150841 52:0.167963 55:-0.121968 56:-0.38723099 57:-0.34231901 #
0.5 1:-0.348299 3:-0.62200397 4:-0.045352999 5:0.93398303 6:-0.35563499 7:-0.31764501 8:-0.27120501 9:-0.354184 10:1.106325 11:4.2041459 12:0.62025201 14:-0.189715 15:-0.21397699 16:0.61980999 18:1.345943 19:0.63341898 21:0.86597699 25:0.50374001 27:-0.225205 28:-0.18276601 29:-0.150461 30:-0.189439 31:-0.120054 33:-0.133763 34:-0.1311 35:-0.191397 36:-0.22950201 38:-0.063603997 39:-0.157189 42:-0.139154 45:-0.29318199 46:0.87667602 47:-0.079241998 48:-0.101023 49:-0.14805999 50:-0.615345 51:-0.150841 52:-0.049865998 55:-0.070726 56:-0.278999 57:-0.3558 #
0.5 1:-0.348299 3:-0.62200397 4:-0.045352999 5:-0.48666501 6:-0.35563499 7:-0.31764501 8:-0.27120501 9:-0.354184 10:-0.40832499 11:-0.332057 12:-0.66384602 14:-0.189715 15:-0.21397699 16:-0.303601 18:-0.362865 19:-1.03152 21:-0.76167101 25:-0.259592 27:-0.225205 28:-0.18276601 29:-0.150461 30:-0.189439 31:-0.120054 33:-0.133763 34:-0.1311 35:-0.191397 36:-0.22950201 38:-0.063603997 39:-0.157189 42:-0.139154 45:-0.29318199 46:-0.215674 47:-0.079241998 48:-0.101023 49:-0.14805999 50:2.9242721 51:-0.150841 52:0.61392403 55:-0.043582998 56:-0.34857699 57:-0.40972501 #
-0.5 1:-0.348299 3:-0.62200397 4:-0.045352999 5:0.38311899 6:-0.35563499 7:-0.31764501 8:0.188731 9:-0.354184 10:-0.099212997 11:-0.332057 12:-0.66384602 14:-0.189715 15:-0.21397699 16:1.39246 18:3.4732349 19:-0.012169 21:1.5718451 25:-0.259592 27:-0.225205 28:-0.18276601 29:-0.150461 30:-0.189439 31:-0.120054 33:-0.133763 34:-0.1311 35:-0.191397 36:-0.22950201 38:-0.063603997 39:-0.157189 42:-0.139154 45:-0.085024998 46:0.0072550001 47:-0.079241998 48:-0.101023 49:-0.14805999 50:-0.615345 51:-0.150841 52:-0.37072301 55:-0.083544001 56:-0.085726 57:-0.102652 #
0.5 1:-0.348299 3:1.2469471 4:-0.045352999 5:-0.48666501 6:-0.35563499 7:-0.31764501 8:-0.27120501 9:-0.354184 10:-0.40832499 11:-0.332057 12:-0.66384602 14:-0.189715 15:-0.21397699 16:0.139259 18:-0.362865 19:-1.03152 21:-0.37136799 25:-0.259592 27:-0.225205 28:1.759084 29:0.93901098 30:-0.189439 31:-0.120054 33:-0.133763 34:-0.1311 35:-0.191397 36:-0.22950201 38:-0.063603997 39:1.243883 42:-0.139154 45:-0.29318199 46:0.83209002 47:-0.079241998 48:-0.101023 49:-0.14805999 50:0.99666202 51:-0.150841 52:-0.459032 55:-0.114744 56:-0.30219099 57:-0.203013 #
0.5 1:-0.348299 3:-0.62200397 4:-0.045352999 5:-0.48666501 6:1.617233 7:-0.31764501 8:-0.27120501 9:-0.354184 10:1.461804 11:-0.332057 12:-0.66384602 14:-0.189715 15:-0.21397699 16:0.26175299 18:-0.362865 19:-0.34628999 21:-0.76167101 25:-0.259592 27:-0.225205 28:-0.18276601 29:-0.150461 30:-0.189439 31:-0.120054 33:-0.133763 34:-0.1311 35:-0.191397 36:-0.22950201 38:-0.063603997 39:-0.157189 42:-0.139154 45:-0.29318199 46:-0.215674 47:-0.079241998 48:-0.101023 49:0.54895002 50:1.899774 51:4.3174801 52:-0.0027679999 55:-0.010877 56:-0.28672999 57:-0.158075 #
-0.5 1:-0.348299 3:-0.62200397 4:-0.045352999 5:-0.48666501 6:-0.35563499 7:-0.31764501 8:-0.27120501 9:-0.354184 10:-0.40832499 11:-0.332057 12:-0.66384602 14:-0.189715 15:-0.21397699 16:-0.303601 18:-0.362865 19:5.260139 21:-0.76167101 25:-0.259592 27:-0.225205 28:-0.18276601 29:-0.150461 30:-0.189439 31:-0.120054 33:-0.133763 34:-0.1311 35:-0.191397 36:-0.22950201 38:-0.063603997 39:-0.157189 42:-0.139154 45:-0.29318199 46:-0.215674 47:-0.079241998 48:-0.101023 49:-0.14805999 50:-0.615345 51:-0.150841 52:-0.459032 55:-0.122982 56:-0.402693 57:-0.43668801 #
-0.5 1:-0.348299 3:-0.62200397 4:-0.045352999 5:-0.48666501 6:-0.35563499 7:3.711302 8:-0.27120501 9:-0.354184 10:-0.40832499 11:-0.332057 12:1.6684951 14:-0.189715 15:-0.21397699 16:-0.303601 18:-0.362865 19:0.990192 21:-0.76167101 25:-0.259592 27:-0.225205 28:-0.18276601 29:-0.150461 30:4.2994728 31:-0.120054 33:-0.133763 34:-0.1311 35:-0.191397 36:5.3750048 38:-0.063603997 39:-0.157189 42:-0.139154 45:-0.29318199 46:-0.215674 47:-0.079241998 48:-0.101023 49:-0.14805999 50:-0.615345 51:-0.150841 52:0.40345401 55:-0.12123 56:-0.38723099 57:-0.418713 #
0.5 1:3.657321 3:1.843421 4:-0.045352999 5:-0.48666501 6:-0.35563499 7:-0.31764501 8:-0.27120501 9:-0.354184 10:-0.40832499 11:-0.332057 12:-0.12662201 14:-0.189715 15:-0.21397699 16:0.082723998 18:1.066954 19:1.080801 21:0.26806501 25:-0.259592 27:-0.225205 28:-0.18276601 29:-0.150461 30:-0.189439 31:-0.120054 33:-0.133763 34:-0.1311 35:-0.191397 36:-0.22950201 38:-0.063603997 39:-0.157189 42:-0.139154 45:0.13354 46:-0.215674 47:-0.079241998 48:-0.101023 49:-0.14805999 50:-0.285175 51:-0.150841 52:0.24744099 55:-0.064085998 56:-0.27126801 57:-0.273415 #
0.5 1:-0.348299 3:1.087887 4:-0.045352999 5:0.13668001 6:-0.35563499 7:-0.31764501 8:-0.27120501 9:-0.354184 10:-0.40832499 11:-0.332057 12:-0.66384602 14:-0.189715 15:-0.21397699 16:0.101569 18:-0.362865 19:0.197364 21:0.317891 25:-0.259592 27:-0.225205 28:-0.18276601 29:-0.150461 30:-0.189439 31:-0.120054 33:-0.133763 34:-0.1311 35:-0.191397 36:-0.22950201 38:-0.063603997 39:-0.157189 42:-0.139154 45:0.154355 46:-0.215674 47:-0.079241998 48:-0.101023 49:-0.14805999 50:0.166381 51:-0.150841 52:1.208539 55:-0.124519 56:-0.37176999 57:-0.273415 #
0.3649127826313324773899182673631 1:1.816028 3:0.71012098 4:-0.045352999 5:3.4273651 6:-0.35563499 7:-0.31764501 8:-0.27120501 9:-0.354184 10:-0.40832499 11:-0.332057 12:-0.66384602 14:-0.189715 15:-0.21397699 16:-0.303601 18:0.80540198 19:1.262019 21:0.359413 25:-0.259592 27:-0.225205 28:-0.18276601 29:-0.150461 30:-0.189439 31:-0.120054 33:-0.133763 34:-0.1311 35:-0.191397 36:-0.22950201 38:-0.063603997 39:-0.157189 42:-0.139154 45:-0.29318199 46:-0.215674 47:-0.079241998 48:-0.101023 49:-0.14805999 50:-0.615345 51:-0.150841 52:-0.16466799 55:-0.1287 56:-0.39496201 57:-0.39474601 #
0.46628377378116492302240203571273 1:2.0098481 3:0.093764 4:-0.045352999 5:1.8182631 6:-0.35563499 7:-0.31764501 8:-0.27120501 9:0.48704201 10:1.678183 11:3.046952 12:2.716738 14:-0.189715 15:-0.21397699 16:0.271175 18:-0.362865 19:1.545172 21:0.666673 25:-0.259592 27:-0.225205 28:-0.18276601 29:-0.150461 30:-0.189439 31:-0.120054 33:-0.133763 34:-0.1311 35:-0.191397 36:-0.22950201 38:-0.063603997 39:-0.157189 42:-0.139154 45:-0.16828801 46:-0.215674 47:-0.079241998 48:-0.101023 49:-0.14805999 50:-0.41627201 51:-0.150841 52:-0.30596301 55:-0.047518 56:-0.00068699999 57:0.27182701 #
-0.5 1:-0.348299 3:-0.62200397 4:-0.045352999 5:0.499091 6:-0.35563499 7:1.221503 8:-0.27120501 9:-0.354184 10:0.117166 11:1.2417279 12:-0.66384602 14:-0.189715 15:-0.21397699 16:0.016766001 18:2.0085421 19:0.90524602 21:1.50541 25:0.0052370001 27:-0.225205 28:-0.18276601 29:-0.150461 30:-0.189439 31:-0.120054 33:0.40745199 34:-0.1311 35:-0.191397 36:-0.22950201 38:-0.063603997 39:-0.157189 42:-0.139154 45:-0.29318199 46:-0.215674 47:-0.079241998 48:-0.101023 49:-0.14805999 50:-0.615345 51:-0.150841 52:-0.388385 55:-0.118033 56:-0.30219099 57:-0.30037701 #
-0.5 1:-0.348299 3:-0.62200397 4:-0.045352999 5:-0.48666501 6:-0.35563499 7:-0.31764501 8:-0.27120501 9:-0.354184 10:-0.40832499 11:-0.332057 12:-0.66384602 14:-0.189715 15:-0.21397699 16:-0.303601 18:-0.362865 19:5.8717489 21:3.282536 25:-0.259592 27:-0.225205 28:-0.18276601 29:-0.150461 30:-0.189439 31:-0.120054 33:-0.133763 34:-0.1311 35:-0.191397 36:-0.22950201 38:-0.063603997 39:-0.157189 42:-0.139154 45:-0.29318199 46:-0.215674 47:-0.079241998 48:-0.101023 49:-0.14805999 50:-0.615345 51:-0.150841 52:-0.459032 55:-0.130667 56:-0.41042399 57:-0.43369201 #
0.5 1:-0.348299 3:-0.62200397 4:-0.045352999 5:-0.48666501 6:-0.35563499 7:-0.31764501 8:-0.27120501 9:-0.354184 10:1.894562 11:-0.332057 12:1.288507 14:-0.189715 15:-0.21397699 16:-0.303601 18:-0.362865 19:3.1931219 21:0.475674 25:-0.259592 27:-0.225205 28:-0.18276601 29:-0.150461 30:-0.189439 31:-0.120054 33:-0.133763 34:-0.1311 35:-0.191397 36:-0.22950201 38:-0.063603997 39:-0.157189 42:-0.139154 45:-0.29318199 46:-0.215674 47:-0.079241998 48:-0.101023 49:-0.14805999 50:-0.615345 51:-0.150841 52:-0.459032 55:-0.078657001 56:-0.30219099 57:-0.39175001 #
0.5 1:-0.348299 3:-0.62200397 4:-0.045352999 5:-0.48666501 6:-0.35563499 7:-0.31764501 8:-0.27120501 9:-0.354184 10:-0.40832499 11:-0.332057 12:-0.66384602 14:6.0857 15:-0.21397699 16:-0.303601 18:-0.362865 19:-1.03152 21:-0.76167101 25:-0.259592 27:-0.225205 28:-0.18276601 29:-0.150461 30:-0.189439 31:-0.120054 33:-0.133763 34:-0.1311 35:-0.191397 36:3.0765271 38:-0.063603997 39:-0.157189 42:-0.139154 45:0.79964203 46:-0.215674 47:-0.079241998 48:-0.101023 49:-0.14805999 50:0.20522501 51:-0.150841 52:-0.459032 55:-0.037005 56:-0.193959 57:-0.316854 #
-0.5 1:-0.348299 3:-0.62200397 4:-0.045352999 5:-0.48666501 6:-0.35563499 7:-0.31764501 8:-0.27120501 9:-0.354184 10:-0.40832499 11:-0.332057 12:0.84300297 14:-0.189715 15:-0.21397699 16:-0.303601 18:-0.362865 19:0.60510403 21:-0.28832501 25:-0.259592 27:-0.225205 28:-0.18276601 29:-0.150461 30:1.248022 31:-0.120054 33:-0.133763 34:-0.1311 35:-0.191397 36:-0.22950201 38:-0.063603997 39:-0.157189 42:-0.139154 45:-0.29318199 46:-0.215674 47:-0.079241998 48:-0.101023 49:-0.14805999 50:-0.615345 51:-0.150841 52:-0.459032 55:-0.119017 56:-0.3795 57:-0.38426101 #
-0.5 1:-0.348299 3:1.763891 4:-0.045352999 5:-0.48666501 6:-0.35563499 7:-0.31764501 8:-0.27120501 9:-0.354184 10:-0.40832499 11:-0.332057 12:0.90851802 14:-0.189715 15:-0.21397699 16:-0.303601 18:-0.362865 19:2.3776419 21:-0.76167101 25:-0.259592 27:-0.225205 28:-0.18276601 29:-0.150461 30:-0.189439 31:-0.120054 33:-0.133763 34:-0.1311 35:-0.191397 36:-0.22950201 38:-0.063603997 39:6.99722 42:-0.139154 45:0.95576 46:1.121897 47:-0.079241998 48:-0.101023 49:0.51527798 50:-0.615345 51:-0.150841 52:10.884277 55:-0.056892999 56:-0.30219099 57:-0.36778399 #
-0.5 1:-0.31599599 3:-0.48282701 4:-0.045352999 5:-0.41418299 6:-0.35563499 7:-0.31764501 8:-0.248208 9:-0.24903101 10:-0.20740201 11:-0.100618 12:-0.66384602 14:-0.0403 15:-0.21397699 16:-0.303601 18:-0.240807 19:-1.025857 21:-0.75336701 25:-0.259592 27:-0.225205 28:-0.18276601 29:-0.150461 30:-0.189439 31:-0.120054 33:-0.022336001 34:-0.1311 35:-0.191397 36:0.17981599 38:-0.063603997 39:-0.157189 42:-0.139154 45:-0.29318199 46:0.67603999 47:0.022576001 48:0.14318299 49:0.020300001 50:0.84614301 51:1.2630481 52:-0.45608899 55:-0.082191996 56:0.21577901 57:7.637085 #
0.5 1:7.1460881 3:-0.62200397 4:-0.045352999 5:-0.48666501 6:-0.35563499 7:-0.31764501 8:-0.27120501 9:-0.354184 10:-0.40832499 11:-0.332057 12:-0.66384602 14:-0.189715 15:-0.21397699 16:-0.303601 18:-0.362865 19:-1.03152 21:-0.76167101 25:-0.259592 27:-0.225205 28:-0.18276601 29:-0.150461 30:-0.189439 31:-0.120054 33:-0.133763 34:-0.1311 35:-0.191397 36:-0.22950201 38:-0.063603997 39:-0.157189 42:-0.139154 45:-0.29318199 46:-0.215674 47:-0.079241998 48:-0.101023 49:-0.14805999 50:-0.615345 51:-0.150841 52:-0.051337998 55:-0.063041002 56:-0.317653 57:-0.37227699 #
-0.17531336957306398183220608189004 1:-0.348299 3:-0.124943 4:-0.045352999 5:-0.48666501 6:-0.35563499 7:-0.31764501 8:-0.27120501 9:-0.354184 10:-0.40832499 11:-0.332057 12:-0.33627 14:-0.189715 15:-0.21397699 16:-0.303601 18:-0.362865 19:1.24503 21:2.576668 25:0.32459 27:-0.225205 28:-0.18276601 29:0.42904601 30:-0.189439 31:-0.120054 33:-0.133763 34:-0.1311 35:-0.191397 36:-0.22950201 38:-0.063603997 39:-0.157189 42:-0.139154 45:-0.29318199 46:-0.215674 47:2.466212 48:-0.101023 49:-0.14805999 50:-0.076390997 51:-0.150841 52:-0.459032 55:-0.024739999 56:-0.193959 57:-0.13111299 #
-0.5 1:0.55619597 3:-0.065295003 4:-0.045352999 5:-0.48666501 6:-0.35563499 7:-0.31764501 8:-0.27120501 9:-0.354184 10:-0.40832499 11:-0.332057 12:-0.29696101 14:-0.189715 15:-0.21397699 16:-0.039769001 18:0.125366 19:0.084103003 21:-0.76167101 25:-0.259592 27:-0.225205 28:-0.18276601 29:-0.150461 30:-0.189439 31:-0.120054 33:-0.133763 34:-0.1311 35:-0.191397 36:-0.22950201 38:-0.063603997 39:-0.157189 42:-0.139154 45:-0.29318199 46:0.096426003 47:-0.079241998 48:-0.101023 49:-0.14805999 50:-0.115234 51:-0.150841 52:6.9795408 55:-0.118279 56:-0.278999 57:-0.32434401 #
-0.5 1:-0.348299 3:-0.62200397 4:-0.045352999 5:-0.48666501 6:-0.35563499 7:-0.31764501 8:-0.27120501 9:-0.354184 10:-0.40832499 11:-0.332057 12:7.0407419 14:-0.189715 15:-0.21397699 16:-0.303601 18:-0.362865 19:-1.03152 21:-0.76167101 25:-0.259592 27:-0.225205 28:-0.18276601 29:-0.150461 30:-0.189439 31:-0.120054 33:-0.133763 34:-0.1311 35:-0.191397 36:-0.22950201 38:-0.063603997 39:-0.157189 42:-0.139154 45:-0.29318199 46:-0.215674 47:-0.079241998 48:-0.101023 49:-0.14805999 50:-0.615345 51:-0.150841 52:1.157025 55:-0.095563002 56:-0.34857699 57:-0.421709 #
-0.5 1:-0.348299 3:1.604831 4:-0.045352999 5:-0.48666501 6:-0.35563499 7:-0.31764501 8:2.3044381 9:-0.354184 10:-0.40832499 11:-0.332057 12:-0.66384602 14:-0.189715 15:7.246408 16:-0.303601 18:-0.362865 19:0.87693101 21:1.098498 25:-0.259592 27:0.091481999 28:-0.18276601 29:-0.150461 30:-0.189439 31:-0.120054 33:-0.133763 34:-0.1311 35:-0.191397 36:-0.22950201 38:-0.063603997 39:-0.157189 42:-0.139154 45:0.87249702 46:-0.215674 47:-0.079241998 48:-0.101023 49:-0.14805999 50:-0.615345 51:-0.150841 52:-0.459032 55:-0.099927999 56:-0.3795 57:-0.37826899 #
-0.5 1:-0.348299 3:-0.62200397 4:-0.045352999 5:-0.48666501 6:-0.35563499 7:-0.31764501 8:8.8585291 9:-0.354184 10:0.61174601 11:-0.332057 12:-0.66384602 14:-0.189715 15:-0.21397699 16:-0.303601 18:-0.362865 19:-1.03152 21:-0.76167101 25:-0.259592 27:-0.225205 28:-0.18276601 29:-0.150461 30:-0.189439 31:-0.120054 33:-0.133763 34:-0.1311 35:-0.191397 36:-0.22950201 38:-0.063603997 39:-0.157189 42:-0.139154 45:0.393736 46:1.991318 47:-0.079241998 48:-0.101023 49:0.222332 50:-0.081246004 51:-0.150841 52:-0.459032 55:-0.073585004 56:-0.27126801 57:-0.26442701 #
-0.22473090270812823288082427097834 1:-0.348299 3:0.312471 4:-0.045352999 5:0.89049399 6:1.189778 7:-0.31764501 8:-0.27120501 9:-0.354184 10:-0.40832499 11:-0.332057 12:-0.048004001 14:-0.189715 15:-0.21397699 16:-0.303601 18:-0.362865 19:-0.49353001 21:-0.76167101 25:-0.259592 27:-0.092309996 28:-0.18276601 29:-0.150461 30:-0.189439 31:-0.120054 33:-0.133763 34:-0.1311 35:-0.191397 36:-0.22950201 38:3.895484 39:-0.157189 42:0.49848101 45:-0.29318199 46:-0.215674 47:-0.079241998 48:-0.101023 49:-0.14805999 50:-0.26089799 51:-0.150841 52:-0.459032 55:-0.103494 56:-0.35630801 57:-0.297382 #
-0.5 1:-0.348299 3:-0.62200397 4:-0.045352999 5:12.690568 6:-0.35563499 7:-0.31764501 8:-0.27120501 9:-0.354184 10:-0.40832499 11:-0.332057 12:-0.66384602 14:-0.189715 15:-0.21397699 16:-0.303601 18:-0.362865 19:-1.03152 21:-0.76167101 25:-0.259592 27:-0.225205 28:-0.18276601 29:-0.150461 30:-0.189439 31:-0.120054 33:-0.133763 34:-0.1311 35:-0.191397 36:-0.22950201 38:-0.063603997 39:-0.157189 42:-0.139154 45:-0.29318199 46:-0.215674 47:-0.079241998 48:-0.101023 49:-0.14805999 50:-0.615345 51:-0.150841 52:-0.459032 55:-0.130667 56:-0.41042399 57:-0.44268 #
0.5 1:-0.348299 3:-0.62200397 4:-0.045352999 5:-0.48666501 6:-0.35563499 7:-0.31764501 8:-0.27120501 9:-0.354184 10:-0.40832499 11:-0.332057 12:-0.66384602 14:6.743124 15:-0.21397699 16:-0.303601 18:-0.362865 19:-0.374605 21:-0.76167101 25:-0.259592 27:-0.225205 28:4.6098852 29:-0.150461 30:-0.189439 31:-0.120054 33:-0.133763 34:-0.1311 35:-0.191397 36:-0.22950201 38:-0.063603997 39:-0.157189 42:-0.139154 45:-0.29318199 46:1.077311 47:-0.079241998 48:-0.101023 49:-0.14805999 50:1.234578 51:-0.150841 52:-0.459032 55:-0.079885997 56:-0.20169 57:-0.35280401 #
-0.5 1:-0.348299 3:1.724126 4:-0.045352999 5:-0.25472301 6:-0.35563499 7:-0.31764501 8:-0.27120501 9:-0.354184 10:-0.161035 11:-0.332057 12:-0.454198 14:-0.189715 15:-0.21397699 16:-0.303601 18:-0.362865 19:0.59944099 21:-0.34645501 25:-0.259592 27:-0.225205 28:-0.18276601 29:-0.150461 30:-0.189439 31:-0.120054 33:-0.133763 34:-0.1311 35:-0.191397 36:-0.22950201 38:-0.063603997 39:-0.157189 42:-0.139154 45:0.050276998 46:-0.215674 47:-0.079241998 48:-0.101023 49:-0.043676998 50:1.20059 51:-0.150841 52:0.366658 55:-0.116466 56:-0.340846 57:-0.24046101 #
0.5 1:-0.348299 3:-0.62200397 4:-0.045352999 5:-0.48666501 6:-0.35563499 7:-0.31764501 8:-0.27120501 9:-0.354184 10:-0.40832499 11:-0.332057 12:-0.66384602 14:-0.189715 15:-0.21397699 16:-0.303601 18:-0.362865 19:0.79198498 21:-0.76167101 25:-0.259592 27:-0.225205 28:-0.18276601 29:-0.150461 30:-0.189439 31:-0.120054 33:-0.133763 34:-0.1311 35:-0.191397 36:-0.22950201 38:-0.063603997 39:-0.157189 42:-0.139154 45:-0.29318199 46:-0.215674 47:-0.079241998 48:-0.101023 49:-0.14805999 50:-0.615345 51:-0.150841 52:0.34458101 55:-0.090705998 56:-0.34857699 57:-0.40972501 #
-0.5 1:-0.348299 3:0.49141401 4:-0.045352999 5:-0.48666501 6:-0.35563499 7:-0.31764501 8:-0.27120501 9:-0.354184 10:1.322704 11:-0.332057 12:0.069923997 14:-0.189715 15:-0.21397699 16:-0.303601 18:-0.362865 19:-0.39725801 21:0.168413 25:0.176597 27:-0.225205 28:2.130928 29:-0.150461 30:-0.189439 31:-0.120054 33:-0.133763 34:-0.1311 35:-0.191397 36:1.533713 38:-0.063603997 39:-0.157189 42:-0.139154 45:0.87249702 46:-0.215674 47:-0.079241998 48:-0.101023 49:-0.14805999 50:0.89469802 51:-0.150841 52:-0.459032 55:-0.084988996 56:-0.33311501 57:-0.30636901 #
0.5 1:-0.348299 3:0.51129597 4:-0.045352999 5:-0.28371501 6:0.104701 7:-0.31764501 8:-0.27120501 9:0.136531 10:-0.40832499 11:-0.332057 12:-0.100416 14:-0.189715 15:-0.21397699 16:-0.303601 18:-0.362865 19:0.84295303 21:0.43415201 25:-0.259592 27:-0.225205 28:-0.18276601 29:-0.150461 30:-0.189439 31:-0.120054 33:-0.133763 34:-0.1311 35:-0.191397 36:1.565199 38:-0.063603997 39:-0.157189 42:-0.139154 45:-0.29318199 46:-0.215674 47:-0.079241998 48:-0.101023 49:-0.14805999 50:-0.615345 51:-0.150841 52:-0.22942799 55:-0.118556 56:-0.37176999 57:-0.206009 #
0.5 1:-0.348299 3:-0.025529999 4:-0.045352999 5:0.397616 6:0.630799 7:-0.31764501 8:-0.27120501 9:-0.354184 10:0.055344 11:1.056577 12:-0.27075499 14:-0.189715 15:-0.21397699 16:0.56327498 18:-0.362865 19:-0.68607402 21:-0.76167101 25:-0.259592 27:-0.225205 28:-0.18276601 29:-0.150461 30:8.3344498 31:-0.120054 33:-0.133763 34:-0.1311 35:-0.191397 36:-0.22950201 38:-0.063603997 39:-0.157189 42:-0.139154 45:-0.29318199 46:-0.215674 47:-0.079241998 48:-0.101023 49:-0.14805999 50:-0.158933 51:-0.150841 52:-0.459032 55:-0.095593996 56:-0.124381 57:-0.126619 #
-0.5 1:-0.348299 3:0.13352901 4:-0.045352999 5:-0.48666501 6:0.893848 7:-0.31764501 8:-0.27120501 9:-0.354184 10:0.17898799 11:-0.332057 12:0.34508801 14:-0.189715 15:-0.21397699 16:-0.303601 18:-0.362865 19:0.95055097 21:0.20163099 25:-0.259592 27:-0.225205 28:-0.18276601 29:0.730389 30:-0.189439 31:-0.120054 33:-0.133763 34:-0.1311 35:-0.191397 36:-0.22950201 38:-0.063603997 39:-0.157189 42:-0.139154 45:-0.29318199 46:-0.215674 47:-0.079241998 48:-0.101023 49:-0.14805999 50:0.020718001 51:0.55070698 52:-0.459032 55:-0.104754 56:-0.33311501 57:-0.267423 #
-0.5 1:-0.348299 3:0.82941502 4:-0.045352999 5:0.035206001 6:0.82808602 7:-0.31764501 8:-0.27120501 9:-0.354184 10:-0.40832499 11:-0.332057 12:-0.66384602 14:-0.189715 15:-0.21397699 16:-0.303601 18:-0.362865 19:0.20869 21:-0.76167101 25:-0.259592 27:-0.225205 28:-0.18276601 29:-0.150461 30:-0.189439 31:-0.120054 33:-0.133763 34:-0.1311 35:-0.191397 36:-0.22950201 38:-0.063603997 39:-0.157189 42:-0.139154 45:-0.29318199 46:-0.215674 47:-0.079241998 48:-0.101023 49:-0.14805999 50:-0.615345 51:-0.150841 52:8.9414759 55:-0.12664001 56:-0.38723099 57:-0.340821 #
-0.5 1:-0.348299 3:-0.62200397 4:-0.045352999 5:0.38311899 6:-0.35563499 7:-0.31764501 8:0.188731 9:-0.354184 10:-0.099212997 11:-0.332057 12:-0.66384602 14:-0.189715 15:-0.21397699 16:1.39246 18:3.4732349 19:-0.012169 21:1.5718451 25:-0.259592 27:-0.225205 28:-0.18276601 29:-0.150461 30:-0.189439 31:-0.120054 33:-0.133763 34:-0.1311 35:-0.191397 36:-0.22950201 38:-0.063603997 39:-0.157189 42:-0.139154 45:-0.085024998 46:0.0072550001 47:-0.079241998 48:-0.101023 49:-0.14805999 50:-0.615345 51:-0.150841 52:-0.37072301 55:-0.083021998 56:-0.085726 57:-0.10415 #
0.5 1:-0.348299 3:-0.62200397 4:-0.045352999 5:-0.48666501 6:-0.35563499 7:-0.31764501 8:2.3044381 9:-0.354184 10:-0.40832499 11:-0.332057 12:-0.66384602 14:-0.189715 15:-0.21397699 16:-0.303601 18:-0.362865 19:-1.03152 21:-0.76167101 25:-0.259592 27:-0.225205 28:-0.18276601 29:-0.150461 30:-0.189439 31:-0.120054 33:-0.133763 34:-0.1311 35:-0.191397 36:-0.22950201 38:-0.063603997 39:-0.157189 42:-0.139154 45:0.87249702 46:-0.215674 47:-0.079241998 48:-0.101023 49:-0.14805999 50:0.414009 51:-0.150841 52:0.16501901 55:-0.035376001 56:-0.22488301 57:-0.32134801 #
-0.5 1:-0.348299 3:-0.62200397 4:-0.045352999 5:1.194918 6:-0.35563499 7:-0.31764501 8:-0.27120501 9:-0.354184 10:1.384526 11:-0.332057 12:2.3760591 14:-0.189715 15:-0.21397699 16:-0.303601 18:-0.362865 19:-1.03152 21:-0.76167101 25:0.64394403 27:-0.225205 28:4.6098852 29:-0.150461 30:-0.189439 31:-0.120054 33:-0.133763 34:-0.1311 35:-0.191397 36:3.422873 38:-0.063603997 39:-0.157189 42:-0.139154 45:-0.29318199 46:-0.215674 47:-0.079241998 48:-0.101023 49:-0.14805999 50:1.278277 51:-0.150841 52:-0.459032 55:-0.057539001 56:-0.33311501 57:-0.297382 #
-0.5 1:2.7205231 3:-0.62200397 4:-0.045352999 5:-0.48666501 6:-0.35563499 7:-0.31764501 8:-0.27120501 9:-0.354184 10:-0.40832499 11:-0.332057 12:-0.66384602 14:-0.189715 15:-0.21397699 16:-0.303601 18:-0.362865 19:0.044461001 21:0.027240001 25:-0.259592 27:-0.225205 28:-0.18276601 29:-0.150461 30:-0.189439 31:-0.120054 33:-0.133763 34:-0.1311 35:-0.191397 36:-0.22950201 38:-0.063603997 39:-0.157189 42:-0.139154 45:0.69556397 46:0.84323603 47:-0.079241998 48:-0.101023 49:-0.14805999 50:0.083838999 51:-0.150841 52:8.0480814 55:-0.095931999 56:-0.30219099 57:-0.37077901 #
-0.5 1:-0.348299 3:-0.62200397 4:-0.045352999 5:2.659055 6:-0.35563499 7:-0.31764501 8:-0.27120501 9:-0.354184 10:-0.40832499 11:-0.332057 12:-0.66384602 14:12.779475 15:-0.21397699 16:-0.303601 18:-0.362865 19:0.197364 21:-0.76167101 25:-0.259592 27:-0.225205 28:-0.18276601 29:-0.150461 30:-0.189439 31:-0.120054 33:-0.133763 34:-0.1311 35:-0.191397 36:-0.22950201 38:-0.063603997 39:-0.157189 42:-0.139154 45:-0.29318199 46:-0.215674 47:-0.079241998 48:-0.101023 49:-0.14805999 50:1.166602 51:-0.150841 52:-0.459032 55:-0.130667 56:-0.41042399 57:-0.43219399 #
0.5 1:-0.348299 3:-0.62200397 4:-0.045352999 5:0.78901899 6:-0.35563499 7:-0.31764501 8:-0.27120501 9:-0.354184 10:-0.40832499 11:1.7046061 12:-0.087312996 14:-0.189715 15:-0.21397699 16:-0.303601 18:0.40435499 19:-0.28399599 21:0.33450001 25:0.083127998 27:-0.225205 28:-0.18276601 29:-0.150461 30:-0.189439 31:-0.120054 33:-0.133763 34:-0.1311 35:-0.191397 36:-0.22950201 38:-0.063603997 39:-0.157189 42:-0.139154 45:-0.29318199 46:-0.215674 47:-0.079241998 48:-0.101023 49:0.094378002 50:-0.265753 51:-0.150841 52:-0.030733 55:-0.11997 56:-0.39496201 57:-0.35729799 #
-0.49539601562766205633536742425349 1:-0.348299 3:-0.065295003 4:-0.045352999 5:-0.080766 6:-0.35563499 7:-0.31764501 8:-0.27120501 9:-0.354184 10:-0.40832499 11:-0.332057 12:0.436809 14:-0.189715 15:-0.21397699 16:-0.303601 18:-0.362865 19:-0.87295502 21:-0.76167101 25:1.056766 27:-0.225205 28:0.97408098 29:-0.150461 30:-0.189439 31:-0.120054 33:-0.133763 34:-0.1311 35:1.3952889 36:7.76794 38:-0.063603997 39:0.67749202 42:-0.139154 45:-0.29318199 46:-0.215674 47:-0.079241998 48:-0.101023 49:0.58262199 50:-0.265753 51:-0.150841 52:-0.459032 55:-0.101527 56:0.0070440001 57:-0.158075 #
-0.18142685916983813942948700059787 1:-0.251389 3:-0.56235701 4:0.041150998 5:-0.39968699 6:-0.25699201 7:-0.31764501 8:-0.27120501 9:0.76744998 10:-0.40832499 11:-0.332057 12:-0.545919 14:-0.189715 15:-0.21397699 16:-0.303601 18:-0.310554 19:-0.95789999 21:-0.68693203 25:0.83088201 27:-0.216722 28:-0.18276601 29:-0.150461 30:-0.189439 31:-0.120054 33:0.0094999997 34:-0.1311 35:-0.191397 36:-0.13504399 38:0.061420001 39:-0.157189 42:-0.139154 45:-0.29318199 46:-0.215674 47:-0.079241998 48:-0.101023 49:0.61292601 50:0.525684 51:1.8027 52:-0.459032 55:-0.076751001 56:-0.155304 57:3.5822239 #
-0.5 1:-0.348299 3:-0.62200397 4:-0.045352999 5:0.44110501 6:-0.35563499 7:-0.31764501 8:-0.27120501 9:4.1323528 10:-0.40832499 11:-0.332057 12:0.174748 14:-0.189715 15:-0.21397699 16:-0.303601 18:-0.362865 19:-1.03152 21:0.301283 25:-0.259592 27:0.136723 28:-0.18276601 29:-0.150461 30:-0.189439 31:-0.120054 33:-0.133763 34:-0.1311 35:-0.191397 36:-0.22950201 38:-0.063603997 39:-0.157189 42:-0.139154 45:0.37292001 46:-0.215674 47:-0.079241998 48:-0.101023 49:-0.14805999 50:-0.615345 51:-0.150841 52:-0.169084 55:-0.089169003 56:-0.317653 57:-0.30337301 #
-0.5 1:0.233162 3:-0.26412001 4:-0.045352999 5:-0.48666501 6:-0.35563499 7:-0.31764501 8:-0.27120501 9:2.9406171 10:-0.40832499 11:-0.332057 12:-0.17903399 14:-0.189715 15:-0.21397699 16:-0.218798 18:-0.362865 19:-0.82198697 21:-0.61219299 25:0.176597 27:-0.19975699 28:-0.18276601 29:-0.150461 30:-0.189439 31:-0.120054 33:0.45520699 34:-0.1311 35:-0.191397 36:-0.22950201 38:-0.063603997 39:-0.157189 42:-0.139154 45:-0.29318199 46:-0.215674 47:-0.079241998 48:-0.101023 49:0.45803499 50:0.19551399 51:0.39960501 52:-0.459032 55:-0.025109001 56:0.25443301 57:0.91742897 #
-0.5 1:0.55619597 3:-0.065295003 4:-0.045352999 5:0.33963001 6:-0.35563499 7:-0.31764501 8:-0.27120501 9:-0.354184 10:-0.40832499 11:-0.332057 12:-0.29696101 14:-0.189715 15:-0.21397699 16:-0.303601 18:-0.362865 19:0.59377801 21:-0.047499001 25:-0.259592 27:-0.225205 28:-0.18276601 29:-0.150461 30:-0.189439 31:-0.120054 33:-0.133763 34:-0.1311 35:-0.191397 36:-0.22950201 38:-0.063603997 39:-0.157189 42:-0.139154 45:-0.29318199 46:-0.215674 47:-0.079241998 48:-0.101023 49:-0.14805999 50:0.132393 51:-0.150841 52:-0.0057120002 55:-0.126118 56:-0.38723099 57:-0.36329001 #
-0.5 1:1.816028 3:-0.62200397 4:-0.045352999 5:-0.48666501 6:-0.35563499 7:-0.31764501 8:-0.27120501 9:0.80250102 10:0.10171 11:1.1954401 12:-0.231446 14:-0.189715 15:-0.21397699 16:-0.303601 18:0.21255 19:-0.26700699 21:-0.205281 25:-0.259592 27:-0.225205 28:-0.18276601 29:-0.150461 30:-0.189439 31:-0.120054 33:-0.133763 34:-0.1311 35:-0.191397 36:-0.22950201 38:-0.063603997 39:-0.157189 42:-0.139154 45:-0.29318199 46:-0.215674 47:-0.079241998 48:-0.101023 49:0.040502999 50:0.74417901 51:1.6623909 52:-0.37661001 55:-0.104047 56:-0.28672999 57:-0.276411 #
0.5 1:-0.348299 3:1.9825979 4:-0.045352999 5:-0.48666501 6:-0.35563499 7:-0.31764501 8:-0.27120501 9:-0.354184 10:-0.40832499 11:-0.332057 12:1.052652 14:-0.189715 15:-0.21397699 16:-0.303601 18:-0.362865 19:-0.28965899 21:3.606405 25:-0.259592 27:-0.225205 28:-0.18276601 29:-0.150461 30:-0.189439 31:-0.120054 33:-0.133763 34:-0.1311 35:-0.191397 36:-0.22950201 38:-0.063603997 39:-0.157189 42:-0.139154 45:-0.29318199 46:-0.215674 47:-0.079241998 48:-0.101023 49:-0.14805999 50:-0.615345 51:-0.150841 52:-0.459032 55:-0.023080001 56:-0.22488301 57:-0.36329001 #
0.5 1:-0.348299 3:-0.62200397 4:-0.045352999 5:0.83250803 6:-0.35563499 7:-0.31764501 8:-0.27120501 9:-0.354184 10:0.28717801 11:-0.332057 12:-0.074210003 14:-0.189715 15:-0.21397699 16:-0.303601 18:-0.362865 19:0.786322 21:-0.0059770001 25:-0.259592 27:-0.225205 28:-0.18276601 29:-0.150461 30:-0.189439 31:-0.120054 33:-0.133763 34:-0.1311 35:-0.191397 36:-0.22950201 38:-0.063603997 39:-0.157189 42:-0.139154 45:1.1326931 46:-0.215674 47:-0.079241998 48:-0.101023 49:-0.14805999 50:-0.615345 51:-0.150841 52:-0.217654 55:-0.12833101 56:-0.38723099 57:-0.38126501 #
0.5 1:-0.348299 3:-0.62200397 4:-0.045352999 5:-0.48666501 6:-0.35563499 7:-0.31764501 8:-0.27120501 9:-0.354184 10:-0.40832499 11:-0.332057 12:0.083026998 14:-0.189715 15:-0.21397699 16:-0.303601 18:-0.362865 19:-1.03152 21:-0.76167101 25:-0.259592 27:-0.225205 28:0.39565799 29:-0.150461 30:-0.189439 31:-0.120054 33:-0.133763 34:-0.1311 35:-0.191397 36:2.4468069 38:-0.063603997 39:1.541983 42:-0.139154 45:-0.29318199 46:0.41967201 47:-0.079241998 48:-0.101023 49:-0.14805999 50:-0.115234 51:-0.150841 52:-0.459032 55:-0.087109998 56:-0.16303501 57:-0.201515 #
-0.5 1:-0.348299 3:3.990726 4:-0.045352999 5:-0.48666501 6:-0.35563499 7:-0.31764501 8:-0.27120501 9:-0.354184 10:3.1773779 11:-0.332057 12:-0.66384602 14:-0.189715 15:3.649437 16:-0.303601 18:-0.362865 19:0.28231001 21:-0.76167101 25:-0.259592 27:-0.225205 28:-0.18276601 29:-0.150461 30:-0.189439 31:-0.120054 33:-0.133763 34:-0.1311 35:-0.191397 36:-0.22950201 38:-0.063603997 39:-0.157189 42:-0.139154 45:0.91412801 46:-0.215674 47:-0.079241998 48:-0.101023 49:-0.14805999 50:0.37516499 51:-0.150841 52:-0.459032 55:-0.107613 56:-0.33311501 57:-0.39175001 #
0.5 1:-0.348299 3:-0.62200397 4:-0.045352999 5:-0.48666501 6:-0.35563499 7:-0.31764501 8:-0.27120501 9:-0.354184 10:-0.40832499 11:-0.332057 12:-0.66384602 14:-0.189715 15:-0.21397699 16:-0.303601 18:-0.362865 19:-1.03152 21:-0.76167101 25:-0.259592 27:-0.225205 28:-0.18276601 29:-0.150461 30:-0.189439 31:-0.120054 33:-0.133763 34:-0.1311 35:-0.191397 36:-0.22950201 38:-0.063603997 39:-0.157189 42:-0.139154 45:-0.29318199 46:-0.215674 47:-0.079241998 48:-0.101023 49:-0.14805999 50:1.205446 51:5.5155082 52:-0.127873 55:-0.0106 56:-0.11665 57:-0.128117 #
0.5 1:-0.348299 3:-0.62200397 4:-0.045352999 5:-0.48666501 6:0.53215599 7:-0.31764501 8:-0.27120501 9:2.520004 10:-0.40832499 11:-0.332057 12:-0.31006399 14:-0.189715 15:-0.21397699 16:-0.303601 18:-0.362865 19:-1.03152 21:-0.76167101 25:-0.259592 27:-0.225205 28:0.93276501 29:-0.150461 30:-0.189439 31:-0.120054 33:-0.133763 34:-0.1311 35:-0.191397 36:1.470741 38:-0.063603997 39:1.452553 42:-0.139154 45:-0.29318199 46:-0.215674 47:-0.079241998 48:-0.101023 49:-0.023474 50:0.481985 51:-0.150841 52:-0.40457499 55:-0.079456002 56:-0.16303501 57:-0.13261101 #
-0.5 1:-0.348299 3:-0.62200397 4:-0.045352999 5:-0.48666501 6:-0.35563499 7:-0.31764501 8:-0.27120501 9:-0.354184 10:-0.40832499 11:-0.332057 12:1.170579 14:-0.189715 15:-0.21397699 16:-0.303601 18:-0.362865 19:-0.238692 21:0.40093499 25:-0.259592 27:-0.027276 28:-0.18276601 29:-0.150461 30:-0.189439 31:1.6062191 33:-0.133763 34:-0.1311 35:-0.191397 36:-0.22950201 38:-0.063603997 39:-0.157189 42:-0.139154 45:-0.29318199 46:-0.215674 47:-0.079241998 48:-0.101023 49:-0.14805999 50:0.67620301 51:0.56150001 52:-0.459032 55:0.39189801 56:1.128024 57:0.122035 #
0.5 1:-0.154479 3:-0.144825 4:-0.045352999 5:-0.341701 6:-0.35563499 7:-0.31764501 8:0.119741 9:0.241684 10:-0.145579 11:-0.332057 12:-0.53281599 14:-0.189715 15:-0.21397699 16:-0.27533299 18:-0.362865 19:-0.77668297 21:-0.59558499 25:0.659522 27:-0.225205 28:-0.18276601 29:-0.150461 30:-0.189439 31:-0.120054 33:-0.133763 34:-0.1311 35:-0.191397 36:-0.22950201 38:-0.063603997 39:-0.157189 42:-0.139154 45:0.175171 46:-0.215674 47:-0.079241998 48:-0.101023 49:0.45466799 50:0.865565 51:0.162158 52:-0.41634899 55:-0.074937001 56:-0.217152 57:3.315594 #
0.5 1:7.5014248 3:-0.62200397 4:-0.045352999 5:-0.48666501 6:-0.35563499 7:-0.31764501 8:-0.27120501 9:-0.354184 10:-0.40832499 11:-0.332057 12:-0.66384602 14:-0.189715 15:-0.21397699 16:-0.303601 18:-0.362865 19:-1.03152 21:-0.76167101 25:-0.259592 27:-0.225205 28:-0.18276601 29:-0.150461 30:-0.189439 31:-0.120054 33:-0.133763 34:-0.1311 35:-0.191397 36:-0.22950201 38:-0.063603997 39:-0.157189 42:-0.139154 45:-0.29318199 46:-0.215674 47:-0.079241998 48:-0.101023 49:-0.14805999 50:-0.615345 51:-0.150841 52:-0.459032 55:-0.048717 56:-0.317653 57:-0.37826899 #
0.5 1:-0.348299 3:2.9369559 4:-0.045352999 5:-0.48666501 6:1.584352 7:-0.31764501 8:1.0856071 9:-0.354184 10:-0.40832499 11:-0.332057 12:-0.66384602 14:-0.189715 15:-0.21397699 16:-0.303601 18:-0.362865 19:-1.03152 21:-0.76167101 25:-0.259592 27:-0.225205 28:-0.18276601 29:-0.150461 30:-0.189439 31:-0.120054 33:-0.133763 34:-0.1311 35:-0.191397 36:-0.22950201 38:-0.063603997 39:-0.157189 42:-0.139154 45:-0.29318199 46:-0.215674 47:-0.079241998 48:-0.101023 49:-0.14805999 50:-0.615345 51:-0.150841 52:-0.459032 55:-0.096762002 56:-0.340846 57:-0.138602 #
0.5 1:-0.348299 3:-0.62200397 4:-0.045352999 5:-0.153248 6:-0.35563499 7:-0.31764501 8:-0.27120501 9:-0.354184 10:-0.40832499 11:-0.332057 12:0.55473602 14:-0.189715 15:-0.21397699 16:-0.199953 18:-0.17106 19:-0.83331299 21:-0.57067198 25:-0.259592 27:-0.225205 28:0.54026401 29:0.104522 30:0.087966003 31:-0.120054 33:-0.133763 34:-0.1311 35:-0.191397 36:1.5966851 38:0.39481699 39:-0.157189 42:0.33568099 45:-0.29318199 46:0.29706201 47:1.040758 48:0.28272799 49:-0.14805999 50:1.234578 51:-0.150841 52:-0.43548301 55:-0.085481003 56:-0.101188 57:0.31077299 #
-0.5 1:2.1390619 3:-0.62200397 4:-0.045352999 5:-0.124255 6:-0.35563499 7:-0.31764501 8:-0.27120501 9:-0.354184 10:-0.40832499 11:-0.332057 12:1.013343 14:-0.189715 15:-0.21397699 16:-0.303601 18:-0.362865 19:0.129407 21:1.156628 25:-0.064865001 27:-0.225205 28:-0.18276601 29:1.031732 30:-0.189439 31:-0.120054 33:-0.133763 34:-0.1311 35:-0.191397 36:-0.22950201 38:-0.063603997 39:-0.157189 42:-0.139154 45:-0.29318199 46:-0.215674 47:-0.079241998 48:-0.101023 49:-0.14805999 50:-0.047258001 51:-0.150841 52:-0.401631 55:-0.037958 56:-0.070265003 57:-0.089171 #
0.5 1:-0.348299 3:2.7182491 4:-0.045352999 5:-0.0082839997 6:-0.35563499 7:-0.31764501 8:-0.27120501 9:-0.354184 10:0.10171 11:-0.332057 12:-0.66384602 14:-0.189715 15:-0.21397699 16:0.007344 18:-0.362865 19:0.112418 21:-0.205281 25:-0.259592 27:-0.225205 28:-0.18276601 29:-0.150461 30:-0.189439 31:-0.120054 33:-0.133763 34:-0.1311 35:-0.191397 36:-0.22950201 38:-0.063603997 39:-0.157189 42:-0.139154 45:0.050276998 46:-0.215674 47:-0.079241998 48:-0.101023 49:-0.14805999 50:-0.324018 51:-0.150841 52:0.253328 55:-0.106199 56:-0.27126801 57:-0.1401 #
-0.5 1:-0.348299 3:-0.62200397 4:-0.045352999 5:2.1371839 6:-0.35563499 7:-0.31764501 8:-0.27120501 9:-0.354184 10:-0.40832499 11:-0.332057 12:1.707804 14:-0.189715 15:-0.21397699 16:-0.303601 18:-0.362865 19:-1.03152 21:-0.76167101 25:-0.259592 27:-0.225205 28:-0.18276601 29:-0.150461 30:-0.189439 31:-0.120054 33:-0.133763 34:-0.1311 35:-0.191397 36:-0.22950201 38:-0.063603997 39:-0.157189 42:-0.139154 45:-0.29318199 46:-0.215674 47:-0.079241998 48:-0.101023 49:-0.14805999 50:2.3707521 51:-0.150841 52:-0.459032 55:-0.11874 56:-0.3795 57:-0.40673 #
-0.5 1:-0.348299 3:0.51129597 4:-0.045352999 5:0.745529 6:-0.35563499 7:-0.31764501 8:-0.27120501 9:0.62724602 10:-0.40832499 11:2.3063469 12:-0.29696101 14:-0.189715 15:-0.21397699 16:0.49731699 18:0.63103402 19:-0.227366 21:-0.055803001 25:-0.259592 27:-0.225205 28:-0.18276601 29:-0.150461 30:-0.189439 31:-0.120054 33:-0.133763 34:-0.1311 35:-0.191397 36:-0.22950201 38:-0.063603997 39:-0.157189 42:-0.139154 45:-0.29318199 46:-0.215674 47:-0.079241998 48:-0.101023 49:0.121316 50:-0.615345 51:-0.150841 52:-0.043979 55:-0.085787997 56:-0.217152 57:-0.027756 #
-0.5 1:0.39467901 3:-0.62200397 4:-0.045352999 5:-0.153248 6:0.40063101 7:-0.31764501 8:0.809645 9:0.45199099 10:-0.052846 11:0.73256201 12:-0.362477 14:-0.189715 15:-0.21397699 16:-0.086882003 18:-0.362865 19:0.59377801 21:0.82445502 25:-0.259592 27:-0.225205 28:-0.18276601 29:-0.150461 30:-0.189439 31:-0.120054 33:-0.133763 34:-0.1311 35:-0.191397 36:-0.22950201 38:-0.063603997 39:-0.157189 42:-0.139154 45:-0.053801998 46:-0.215674 47:-0.079241998 48:-0.101023 49:-0.14805999 50:-0.615345 51:-0.150841 52:0.085541002 55:-0.091289997 56:-0.232613 57:-0.225482 #
0.471192870584244138942864310593 1:-0.348299 3:1.3662421 4:-0.045352999 5:0.96297598 6:-0.35563499 7:-0.31764501 8:-0.27120501 9:-0.354184 10:-0.40832499 11:-0.332057 12:-0.66384602 14:-0.189715 15:-0.21397699 16:-0.303601 18:-0.362865 19:-1.03152 21:0.899194 25:-0.259592 27:-0.225205 28:-0.18276601 29:-0.150461 30:-0.189439 31:-0.120054 33:-0.133763 34:-0.1311 35:-0.191397 36:-0.22950201 38:-0.063603997 39:-0.157189 42:-0.139154 45:0.747603 46:-0.215674 47:-0.079241998 48:-0.101023 49:-0.14805999 50:2.341619 51:-0.150841 52:1.7840199 55:-0.130667 56:-0.41042399 57:-0.39025199 #
0.5 1:-0.348299 3:-0.62200397 4:-0.045352999 5:-0.48666501 6:-0.35563499 7:-0.31764501 8:-0.27120501 9:-0.354184 10:-0.40832499 11:-0.332057 12:-0.66384602 14:-0.189715 15:-0.21397699 16:-0.303601 18:-0.362865 19:-1.03152 21:2.2029741 25:-0.259592 27:-0.225205 28:-0.18276601 29:-0.150461 30:-0.189439 31:-0.120054 33:-0.133763 34:-0.1311 35:-0.191397 36:-0.22950201 38:-0.063603997 39:-0.157189 42:-0.139154 45:-0.29318199 46:-0.215674 47:-0.079241998 48:-0.101023 49:-0.14805999 50:-0.615345 51:-0.150841 52:0.43289 55:-0.065776996 56:-0.340846 57:-0.40223601 #
0.5 1:-0.348299 3:-0.62200397 4:-0.045352999 5:-0.48666501 6:-0.35563499 7:-0.31764501 8:-0.27120501 9:-0.354184 10:-0.40832499 11:-0.332057 12:-0.66384602 14:5.9661679 15:-0.21397699 16:-0.303601 18:-0.362865 19:-1.03152 21:-0.76167101 25:-0.259592 27:-0.225205 28:-0.18276601 29:-0.150461 30:-0.189439 31:-0.120054 33:-0.133763 34:-0.1311 35:-0.191397 36:3.013555 38:-0.063603997 39:-0.157189 42:-0.139154 45:0.778826 46:-0.215674 47:-0.079241998 48:-0.101023 49:-0.14805999 50:0.176092 51:-0.150841 52:-0.219126 55:-0.052436002 56:-0.255806 57:-0.32734001 #
-0.5 1:-0.348299 3:-0.62200397 4:-0.045352999 5:4.5000992 6:-0.35563499 7:-0.31764501 8:-0.27120501 9:-0.354184 10:-0.40832499 11:-0.332057 12:3.8436 14:-0.189715 15:-0.21397699 16:-0.303601 18:-0.362865 19:-1.03152 21:-0.76167101 25:-0.259592 27:-0.225205 28:-0.18276601 29:-0.150461 30:-0.189439 31:-0.120054 33:-0.133763 34:-0.1311 35:-0.191397 36:-0.22950201 38:-0.063603997 39:-0.157189 42:-0.139154 45:-0.29318199 46:-0.215674 47:-0.079241998 48:-0.101023 49:-0.14805999 50:2.171679 51:-0.150841 52:-0.459032 55:-0.108719 56:-0.38723099 57:-0.426202 #
0.5 1:0.233162 3:-0.26412001 4:-0.045352999 5:1.789271 6:0.82808602 7:-0.18183801 8:-0.133224 9:-0.143878 10:-0.222858 11:-0.054329999 12:0.043717999 14:-0.010417 15:-0.21397699 16:-0.303601 18:-0.25824401 19:1.5395091 21:0.1435 25:-0.259592 27:-0.225205 28:-0.18276601 29:-0.150461 30:-0.189439 31:-0.120054 33:-0.133763 34:-0.1311 35:-0.191397 36:-0.22950201 38:-0.063603997 39:-0.157189 42:-0.139154 45:-0.230735 46:-0.215674 47:-0.079241998 48:-0.101023 49:-0.114388 50:-0.36286199 51:-0.150841 52:-0.444314 55:-0.108135 56:-0.32538399 57:0.217902 #
-0.5 1:-0.348299 3:0.431766 4:-0.045352999 5:0.28164399 6:-0.35563499 7:-0.31764501 8:0.94762599 9:-0.354184 10:1.2454261 11:4.6207371 12:-0.66384602 14:-0.189715 15:-0.21397699 16:0.70461297 18:-0.362865 19:1.09779 21:0.126892 25:-0.259592 27:-0.225205 28:-0.18276601 29:-0.150461 30:-0.189439 31:-0.120054 33:-0.133763 34:-0.1311 35:-0.191397 36:-0.22950201 38:-0.063603997 39:-0.157189 42:-0.139154 45:0.258434 46:-0.215674 47:-0.079241998 48:-0.101023 49:-0.14805999 50:0.81215501 51:-0.150841 52:0.081124999 55:-0.094979003 56:-0.255806 57:-0.343817 #
-0.5 1:-0.348299 3:-0.62200397 4:-0.045352999 5:-0.48666501 6:-0.35563499 7:-0.31764501 8:-0.27120501 9:2.274646 10:-0.40832499 11:-0.332057 12:-0.66384602 14:-0.189715 15:-0.21397699 16:-0.303601 18:-0.362865 19:-0.17639799 21:-0.76167101 25:-0.259592 27:-0.225205 28:-0.18276601 29:-0.150461 30:-0.189439 31:-0.120054 33:-0.133763 34:-0.1311 35:-0.191397 36:-0.22950201 38:-0.063603997 39:-0.157189 42:-0.139154 45:0.487407 46:-0.215674 47:-0.079241998 48:-0.101023 49:-0.14805999 50:0.62279302 51:-0.150841 52:-0.459032 55:-0.104785 56:-0.37176999 57:-0.39175001 #
0.5 1:-0.348299 3:-0.62200397 4:-0.045352999 5:-0.48666501 6:-0.35563499 7:-0.31764501 8:-0.27120501 9:-0.354184 10:0.10171 11:-0.332057 12:0.214057 14:-0.189715 15:-0.21397699 16:-0.303601 18:-0.362865 19:-0.080126002 21:-0.76167101 25:-0.259592 27:-0.225205 28:-0.18276601 29:-0.150461 30:-0.189439 31:-0.120054 33:-0.133763 34:-0.1311 35:0.74361497 36:-0.22950201 38:-0.063603997 39:-0.157189 42:-0.139154 45:0.050276998 46:0.15215801 47:-0.079241998 48:-0.101023 49:0.79475498 50:0.74417901 51:-0.150841 52:-0.29418799 55:-0.070418999 56:-0.27126801 57:-0.11164 #
0.5 1:-0.348299 3:0.471531 4:-0.045352999 5:1.122436 6:-0.35563499 7:0.089777 8:-0.27120501 9:-0.354184 10:-0.40832499 11:-0.332057 12:-0.66384602 14:-0.189715 15:0.38551801 16:-0.303601 18:0.282298 19:0.75234401 21:0.002327 25:-0.259592 27:-0.225205 28:-0.18276601 29:-0.150461 30:-0.189439 31:-0.120054 33:-0.133763 34:-0.1311 35:-0.191397 36:-0.22950201 38:-0.063603997 39:-0.157189 42:-0.139154 45:-0.29318199 46:-0.215674 47:-0.079241998 48:-0.101023 49:-0.14805999 50:0.26834601 51:-0.150841 52:0.21064501 55:-0.120831 56:-0.38723099 57:-0.33932301 #
0.5 1:-0.348299 3:-0.62200397 4:-0.045352999 5:-0.48666501 6:-0.35563499 7:-0.31764501 8:-0.27120501 9:-0.354184 10:-0.40832499 11:-0.332057 12:-0.66384602 14:-0.189715 15:-0.21397699 16:-0.303601 18:-0.362865 19:0.36159199 21:1.281193 25:-0.259592 27:-0.225205 28:-0.18276601 29:-0.150461 30:-0.189439 31:-0.120054 33:-0.133763 34:-0.1311 35:-0.191397 36:-0.22950201 38:-0.063603997 39:-0.157189 42:-0.139154 45:-0.29318199 46:-0.215674 47:-0.079241998 48:-0.101023 49:-0.14805999 50:-0.615345 51:-0.150841 52:0.15177301 55:-0.102725 56:-0.34857699 57:-0.38126501 #
0.17119492962485935438898820848408 1:-0.348299 3:-0.62200397 4:-0.045352999 5:-0.48666501 6:-0.35563499 7:-0.31764501 8:-0.27120501 9:-0.354184 10:-0.40832499 11:-0.332057 12:-0.66384602 14:-0.189715 15:-0.21397699 16:0.440781 18:2.3921521 19:0.76367003 21:0.550412 25:-0.259592 27:-0.225205 28:-0.18276601 29:-0.150461 30:-0.189439 31:-0.120054 33:-0.133763 34:-0.1311 35:-0.191397 36:-0.22950201 38:-0.063603997 39:-0.157189 42:-0.139154 45:0.52903801 46:-0.215674 47:-0.079241998 48:-0.101023 49:-0.14805999 50:0.70047998 51:-0.150841 52:-0.060169 55:-0.061289001 56:-0.217152 57:-0.273415 #
0.5 1:-0.348299 3:-0.62200397 4:-0.045352999 5:-0.31270799 6:-0.35563499 7:-0.31764501 8:-0.27120501 9:-0.354184 10:-0.40832499 11:-0.332057 12:0.59404498 14:-0.189715 15:-0.21397699 16:-0.19053 18:-0.153623 19:-0.96356302 21:-0.66201901 25:-0.259592 27:-0.225205 28:0.31302601 29:0.127702 30:0.113185 31:-0.120054 33:-0.133763 34:-0.1311 35:-0.191397 36:1.659657 38:0.436492 39:-0.157189 42:0.34924701 45:-0.16828801 46:0.185597 47:-0.079241998 48:-0.101023 49:-0.14805999 50:1.093771 51:-0.150841 52:-0.459032 55:-0.089569002 56:-0.101188 57:0.312271 #
-0.0019031547008609428495162774197524 1:-0.348299 3:-0.62200397 4:-0.045352999 5:-0.48666501 6:-0.35563499 7:-0.31764501 8:-0.27120501 9:-0.354184 10:-0.40832499 11:-0.332057 12:-0.66384602 14:-0.189715 15:-0.21397699 16:-0.303601 18:-0.362865 19:-1.03152 21:-0.76167101 25:-0.259592 27:-0.225205 28:-0.18276601 29:-0.150461 30:-0.189439 31:-0.120054 33:-0.133763 34:-0.1311 35:-0.191397 36:-0.22950201 38:-0.063603997 39:-0.157189 42:-0.139154 45:-0.29318199 46:-0.215674 47:-0.079241998 48:-0.101023 49:-0.14805999 50:-0.615345 51:-0.150841 52:-0.459032 55:-0.106076 56:-0.3795 57:-0.43069601 #
0.5 1:-0.348299 3:-0.62200397 4:-0.045352999 5:-0.48666501 6:-0.35563499 7:-0.31764501 8:-0.27120501 9:-0.354184 10:5.4184418 11:-0.332057 12:-0.66384602 14:-0.189715 15:-0.21397699 16:-0.303601 18:-0.362865 19:0.033135001 21:-0.76167101 25:-0.259592 27:-0.225205 28:-0.18276601 29:-0.150461 30:-0.189439 31:-0.120054 33:-0.133763 34:-0.1311 35:-0.191397 36:-0.22950201 38:-0.063603997 39:-0.157189 42:-0.139154 45:-0.29318199 46:-0.215674 47:-0.079241998 48:-0.101023 49:0.74088001 50:-0.615345 51:-0.150841 52:-0.459032 55:-0.028214 56:-0.317653 57:-0.32734001 #
0.5 1:-0.348299 3:-0.62200397 4:-0.045352999 5:2.96348 6:-0.35563499 7:-0.31764501 8:-0.27120501 9:-0.354184 10:-0.40832499 11:-0.332057 12:-0.66384602 14:-0.189715 15:-0.21397699 16:-0.303601 18:-0.362865 19:1.664096 21:-0.76167101 25:-0.259592 27:-0.225205 28:-0.18276601 29:-0.150461 30:-0.189439 31:-0.120054 33:-0.133763 34:-0.1311 35:-0.191397 36:-0.22950201 38:-0.063603997 39:-0.157189 42:-0.139154 45:-0.29318199 46:-0.215674 47:-0.079241998 48:-0.101023 49:-0.14805999 50:-0.615345 51:-0.150841 52:-0.459032 55:-0.099927999 56:-0.33311501 57:-0.41421899 #
0.5 1:-0.348299 3:0.431766 4:-0.045352999 5:0.67304701 6:-0.35563499 7:0.27085301 8:0.32671201 9:-0.354184 10:-0.0064790002 11:-0.332057 12:0.030615 14:1.39408 15:-0.21397699 16:-0.303601 18:-0.362865 19:0.186038 21:-0.097324997 25:-0.057076 27:-0.225205 28:-0.18276601 29:-0.150461 30:-0.189439 31:-0.120054 33:0.70989603 34:-0.1311 35:-0.191397 36:-0.22950201 38:-0.063603997 39:-0.157189 42:-0.139154 45:-0.29318199 46:-0.215674 47:-0.079241998 48:-0.101023 49:-0.14805999 50:-0.615345 51:-0.150841 52:-0.459032 55:-0.075981997 56:-0.255806 57:-0.19851901 #
0.5 1:-0.348299 3:-0.62200397 4:-0.045352999 5:2.2966449 6:-0.35563499 7:-0.31764501 8:-0.27120501 9:-0.354184 10:0.58083397 11:4.1115708 12:1.013343 14:-0.189715 15:-0.21397699 16:0.60096502 18:0.195113 19:1.1487581 21:-0.230194 25:-0.259592 27:-0.225205 28:-0.18276601 29:-0.150461 30:-0.189439 31:-0.120054 33:-0.133763 34:-0.1311 35:-0.191397 36:-0.22950201 38:-0.063603997 39:-0.157189 42:-0.139154 45:-0.29318199 46:-0.215674 47:-0.079241998 48:-0.101023 49:-0.14805999 50:-0.35315099 51:-0.150841 52:-0.217654 55:-0.110041 56:-0.38723099 57:-0.276411 #
0.5 1:-0.348299 3:0.730003 4:-0.045352999 5:-0.48666501 6:-0.35563499 7:-0.31764501 8:2.8563609 9:-0.354184 10:-0.40832499 11:2.8155129 12:0.22716001 14:-0.189715 15:-0.21397699 16:-0.303601 18:-0.362865 19:0.89392 21:0.367717 25:-0.259592 27:-0.225205 28:-0.18276601 29:-0.150461 30:-0.189439 31:-0.120054 33:-0.133763 34:-0.1311 35:-0.191397 36:-0.22950201 38:-0.063603997 39:-0.157189 42:-0.139154 45:-0.29318199 46:-0.215674 47:-0.079241998 48:-0.101023 49:-0.14805999 50:-0.615345 51:-0.150841 52:-0.11757 55:-0.092797004 56:-0.27126801 57:-0.30037701 #
-0.13575458353569563874074788145663 1:-0.348299 3:-0.62200397 4:-0.045352999 5:-0.48666501 6:0.40063101 7:-0.31764501 8:-0.27120501 9:-0.354184 10:-0.052846 11:-0.332057 12:0.882312 14:-0.189715 15:-0.21397699 16:-0.303601 18:-0.362865 19:-0.36327901 21:-0.37136799 25:-0.259592 27:-0.225205 28:-0.18276601 29:-0.150461 30:-0.189439 31:-0.120054 33:-0.133763 34:-0.1311 35:-0.191397 36:-0.22950201 38:-0.063603997 39:-0.157189 42:-0.139154 45:-0.29318199 46:-0.215674 47:-0.079241998 48:2.375916 49:-0.14805999 50:-0.615345 51:-0.150841 52:-0.459032 55:-0.093287997 56:-0.077995002 57:-0.122125 #
-0.5 1:-0.348299 3:-0.10506 4:-0.045352999 5:0.26714799 6:-0.35563499 7:-0.31764501 8:-0.27120501 9:-0.354184 10:-0.40832499 11:-0.332057 12:-0.66384602 14:-0.189715 15:-0.21397699 16:-0.303601 18:0.54385 19:-0.148083 21:0.533804 25:-0.259592 27:-0.225205 28:-0.18276601 29:-0.150461 30:-0.189439 31:-0.120054 33:-0.133763 34:-0.1311 35:-0.191397 36:1.407769 38:-0.063603997 39:-0.157189 42:-0.139154 45:-0.022577999 46:-0.215674 47:-0.079241998 48:-0.101023 49:2.387439 50:-0.066679999 51:-0.150841 52:-0.40457499 55:-0.106168 56:-0.26353699 57:-0.191029 #
0.5 1:-0.348299 3:0.78965002 4:-0.045352999 5:-0.240226 6:-0.35563499 7:0.47456399 8:0.533683 9:-0.354184 10:-0.145579 11:0.45483601 12:-0.20524 14:-0.189715 15:-0.21397699 16:0.026188999 18:-0.066439003 19:-0.73137802 21:-0.620498 25:-0.259592 27:-0.225205 28:-0.18276601 29:-0.150461 30:-0.189439 31:-0.120054 33:-0.133763 34:-0.1311 35:-0.191397 36:-0.22950201 38:-0.063603997 39:-0.157189 42:-0.139154 45:-0.29318199 46:-0.215674 47:-0.079241998 48:-0.101023 49:-0.14805999 50:-0.33858499 51:-0.150841 52:-0.37513801 55:-0.100727 56:-0.155304 57:-0.101154 #
-0.5 1:-0.348299 3:-0.62200397 4:-0.045352999 5:-0.48666501 6:0.40063101 7:0.202949 8:0.25772199 9:-0.354184 10:-0.40832499 11:-0.332057 12:-0.061106998 14:1.1849 15:-0.21397699 16:-0.303601 18:-0.362865 19:-0.90126997 21:-0.76167101 25:-0.259592 27:-0.225205 28:-0.18276601 29:-0.150461 30:-0.189439 31:-0.120054 33:0.232353 34:-0.1311 35:-0.191397 36:-0.22950201 38:-0.063603997 39:-0.157189 42:-0.139154 45:-0.29318199 46:-0.215674 47:-0.079241998 48:-0.101023 49:0.097745001 50:-0.615345 51:-0.150841 52:-0.459032 55:-0.063533001 56:0.15393101 57:-0.13410901 #
0.10748600163057858702941871342773 1:-0.348299 3:0.531178 4:-0.045352999 5:-0.48666501 6:-0.35563499 7:-0.31764501 8:1.06261 9:1.6787781 10:11.260664 11:2.3526349 12:0.85610598 14:-0.189715 15:-0.21397699 16:-0.303601 18:-0.362865 19:1.267682 21:-0.76167101 25:-0.259592 27:-0.225205 28:-0.18276601 29:-0.150461 30:-0.189439 31:-0.120054 33:-0.133763 34:-0.1311 35:-0.191397 36:-0.22950201 38:-0.063603997 39:-0.157189 42:-0.139154 45:-0.29318199 46:-0.215674 47:-0.079241998 48:-0.101023 49:-0.14805999 50:0.31690001 51:-0.150841 52:-0.176443 55:-0.114498 56:-0.340846 57:-0.35729799 #
0.17286585228365516919701860842906 1:-0.348299 3:-0.62200397 4:-0.045352999 5:-0.48666501 6:-0.35563499 7:-0.31764501 8:-0.27120501 9:-0.354184 10:-0.40832499 11:-0.332057 12:-0.66384602 14:-0.189715 15:-0.21397699 16:-0.303601 18:-0.362865 19:-1.03152 21:-0.76167101 25:-0.259592 27:-0.225205 28:17.02533 29:-0.150461 30:-0.189439 31:-0.120054 33:-0.133763 34:-0.1311 35:-0.191397 36:-0.22950201 38:-0.063603997 39:-0.157189 42:-0.139154 45:-0.29318199 46:-0.215674 47:-0.079241998 48:-0.101023 49:-0.14805999 50:9.1586599 51:-0.150841 52:-0.459032 55:-0.053819001 56:-0.20169 57:-0.38126501 #
0.5 1:-0.348299 3:-0.62200397 4:-0.045352999 5:1.542832 6:-0.35563499 7:0.316122 8:0.372706 9:-0.354184 10:0.45719001 11:-0.332057 12:0.436809 14:-0.189715 15:-0.21397699 16:-0.039769001 18:-0.362865 19:-0.080126002 21:0.86597699 25:-0.259592 27:-0.225205 28:-0.18276601 29:-0.150461 30:-0.189439 31:-0.120054 33:2.0947709 34:-0.1311 35:-0.191397 36:-0.22950201 38:1.103285 39:-0.157189 42:-0.139154 45:-0.001762 46:-0.215674 47:-0.079241998 48:-0.101023 49:-0.14805999 50:0.049851 51:0.58308601 52:-0.40899 55:0.011809 56:0.46316701 57:0.45906699 #
-0.5 1:-0.348299 3:-0.224355 4:-0.045352999 5:-0.48666501 6:-0.35563499 7:-0.31764501 8:-0.27120501 9:0.34683701 10:0.225355 11:-0.332057 12:-0.66384602 14:-0.189715 15:-0.21397699 16:-0.303601 18:-0.362865 19:-0.21037699 21:-0.59558499 25:-0.259592 27:-0.16865399 28:-0.18276601 29:0.313144 30:-0.189439 31:-0.120054 33:-0.133763 34:-0.1311 35:-0.191397 36:-0.22950201 38:-0.063603997 39:-0.157189 42:-0.139154 45:-0.29318199 46:-0.215674 47:-0.079241998 48:-0.101023 49:-0.14805999 50:0.982095 51:-0.150841 52:-0.29860401 55:-0.124919 56:-0.33311501 57:-0.273415 #
0.5 1:-0.348299 3:-0.62200397 4:-0.045352999 5:-0.48666501 6:2.2419751 7:-0.31764501 8:-0.27120501 9:-0.354184 10:-0.40832499 11:-0.332057 12:-0.66384602 14:-0.189715 15:-0.21397699 16:0.440781 18:-0.362865 19:-0.136757 21:-0.76167101 25:-0.259592 27:-0.225205 28:-0.18276601 29:-0.150461 30:-0.189439 31:-0.120054 33:-0.133763 34:-0.1311 35:-0.191397 36:-0.22950201 38:-0.063603997 39:-0.157189 42:-0.139154 45:-0.29318199 46:-0.215674 47:-0.079241998 48:-0.101023 49:0.239168 50:0.506262 51:3.594346 52:0.220948 55:0.016665 56:-0.24807499 57:-0.192527 #
0.5 1:-0.348299 3:-0.62200397 4:-0.045352999 5:-0.48666501 6:-0.35563499 7:-0.31764501 8:-0.27120501 9:0.76744998 10:-0.40832499 11:-0.332057 12:1.026446 14:-0.189715 15:-0.21397699 16:-0.303601 18:-0.362865 19:-1.03152 21:-0.76167101 25:-0.259592 27:-0.225205 28:-0.18276601 29:-0.150461 30:-0.189439 31:-0.120054 33:-0.133763 34:-0.1311 35:-0.191397 36:-0.22950201 38:-0.063603997 39:-0.157189 42:-0.139154 45:-0.29318199 46:-0.215674 47:-0.079241998 48:-0.101023 49:-0.14805999 50:-0.43569401 51:-0.150841 52:-0.459032 55:-0.087908998 56:-0.139843 57:-0.27940699 #
0.5 1:-0.348299 3:-0.62200397 4:-0.045352999 5:-0.48666501 6:-0.35563499 7:-0.31764501 8:-0.27120501 9:-0.354184 10:-0.40832499 11:-0.332057 12:-0.66384602 14:-0.189715 15:-0.21397699 16:-0.303601 18:-0.362865 19:-1.03152 21:-0.76167101 25:-0.259592 27:-0.225205 28:-0.18276601 29:-0.150461 30:-0.189439 31:-0.120054 33:-0.133763 34:-0.1311 35:-0.191397 36:-0.22950201 38:-0.063603997 39:-0.157189 42:-0.139154 45:1.0910619 46:-0.215674 47:-0.079241998 48:-0.101023 49:-0.14805999 50:0.39458701 51:-0.150841 52:0.154716 55:-0.044229001 56:-0.29446101 57:-0.35280401 #
0.5 1:-0.348299 3:-0.62200397 4:-0.045352999 5:-0.48666501 6:-0.35563499 7:-0.31764501 8:-0.27120501 9:-0.354184 10:-0.40832499 11:-0.332057 12:-0.66384602 14:-0.189715 15:-0.21397699 16:-0.303601 18:-0.362865 19:0.85427898 21:-0.76167101 25:-0.259592 27:-0.225205 28:-0.18276601 29:-0.150461 30:-0.189439 31:-0.120054 33:-0.133763 34:-0.1311 35:-0.191397 36:-0.22950201 38:-0.063603997 39:-0.157189 42:-0.139154 45:-0.29318199 46:-0.215674 47:-0.079241998 48:-0.101023 49:-0.14805999 50:-0.615345 51:-0.150841 52:1.132004 55:-0.090705998 56:-0.34857699 57:-0.40972501 #
0.5 1:-0.348299 3:-0.62200397 4:-0.045352999 5:-0.48666501 6:-0.35563499 7:-0.31764501 8:-0.27120501 9:-0.354184 10:-0.40832499 11:-0.332057 12:-0.66384602 14:-0.189715 15:-0.21397699 16:-0.303601 18:-0.362865 19:2.677784 21:0.59193403 25:-0.259592 27:-0.225205 28:-0.18276601 29:-0.150461 30:-0.189439 31:-0.120054 33:-0.133763 34:-0.1311 35:-0.191397 36:-0.22950201 38:-0.063603997 39:-0.157189 42:-0.139154 45:-0.29318199 46:-0.215674 47:-0.079241998 48:-0.101023 49:-0.14805999 50:-0.615345 51:-0.150841 52:-0.459032 55:-0.130667 56:-0.41042399 57:-0.424705 #
-0.5 1:6.1123791 3:-0.62200397 4:-0.045352999 5:-0.48666501 6:-0.35563499 7:-0.31764501 8:-0.27120501 9:-0.354184 10:-0.40832499 11:8.9255009 12:1.956762 14:-0.189715 15:-0.21397699 16:-0.303601 18:-0.362865 19:0.101092 21:5.8817911 25:-0.259592 27:-0.225205 28:-0.18276601 29:-0.150461 30:-0.189439 31:-0.120054 33:-0.133763 34:-0.1311 35:-0.191397 36:-0.22950201 38:-0.063603997 39:-0.157189 42:-0.139154 45:-0.29318199 46:-0.215674 47:-0.079241998 48:-0.101023 49:-0.14805999 50:-0.615345 51:-0.150841 52:-0.459032 55:0.019586001 56:-0.193959 57:-0.364788 #
0.5 1:-0.348299 3:0.014235 4:-0.045352999 5:1.165925 6:0.69656098 7:-0.31764501 8:0.096744001 9:-0.354184 10:0.59628999 11:-0.332057 12:2.1271009 14:-0.189715 15:-0.21397699 16:-0.15284 18:-0.362865 19:-0.19904999 21:0.45906499 25:-0.259592 27:-0.225205 28:-0.18276601 29:-0.150461 30:-0.189439 31:-0.120054 33:-0.133763 34:-0.1311 35:-0.191397 36:-0.22950201 38:-0.063603997 39:-0.157189 42:-0.139154 45:-0.29318199 46:-0.215674 47:-0.079241998 48:-0.101023 49:-0.14805999 50:-0.615345 51:-0.150841 52:-0.459032 55:-0.092027999 56:-0.317653 57:-0.207507 #
-0.5 1:-0.348299 3:1.724126 4:-0.045352999 5:-0.48666501 6:-0.35563499 7:-0.31764501 8:-0.27120501 9:-0.354184 10:3.2392001 11:-0.332057 12:0.35819101 14:-0.189715 15:-0.21397699 16:-0.303601 18:-0.362865 19:-0.81066102 21:-0.76167101 25:-0.259592 27:-0.225205 28:-0.18276601 29:-0.150461 30:-0.189439 31:-0.120054 33:-0.133763 34:-0.1311 35:-0.191397 36:-0.22950201 38:-0.063603997 39:-0.157189 42:-0.139154 45:-0.29318199 46:-0.215674 47:-0.079241998 48:-0.101023 49:3.7275829 50:0.37031001 51:-0.150841 52:-0.060169 55:0.013468 56:-0.18622801 57:0.050135002 #
-0.5 1:-0.348299 3:-0.62200397 4:-0.045352999 5:-0.48666501 6:-0.35563499 7:-0.31764501 8:-0.27120501 9:-0.354184 10:-0.40832499 11:-0.332057 12:-0.66384602 14:-0.189715 15:-0.21397699 16:-0.303601 18:-0.362865 19:-1.03152 21:-0.76167101 25:-0.259592 27:-0.225205 28:-0.18276601 29:-0.150461 30:-0.189439 31:-0.120054 33:-0.133763 34:-0.1311 35:-0.191397 36:-0.22950201 38:-0.063603997 39:-0.157189 42:-0.139154 45:-0.29318199 46:-0.215674 47:-0.079241998 48:-0.101023 49:-0.14805999 50:-0.615345 51:-0.150841 52:-0.459032 55:-0.099927999 56:-0.3795 57:-0.43219399 #
0.5 1:-0.348299 3:-0.62200397 4:-0.045352999 5:-0.48666501 6:-0.35563499 7:-0.31764501 8:-0.27120501 9:-0.354184 10:-0.40832499 11:-0.332057 12:-0.66384602 14:1.991739 15:-0.21397699 16:-0.303601 18:-0.362865 19:-1.03152 21:-0.76167101 25:-0.259592 27:-0.225205 28:1.325267 29:-0.150461 30:-0.189439 31:-0.120054 33:-0.133763 34:-0.1311 35:-0.191397 36:2.068975 38:-0.063603997 39:-0.157189 42:-0.139154 45:-0.29318199 46:0.185597 47:-0.079241998 48:-0.101023 49:0.55905098 50:0.40429801 51:-0.150841 52:-0.459032 55:-0.104047 56:-0.24807499 57:-0.276411 #
-0.5 1:-0.348299 3:0.153412 4:-0.045352999 5:0.078694999 6:0.92672902 7:-0.31764501 8:-0.27120501 9:-0.354184 10:-0.40832499 11:-0.332057 12:-0.66384602 14:-0.189715 15:-0.21397699 16:0.063878998 18:0.31717101 19:-0.36894199 21:-0.113934 25:-0.259592 27:-0.225205 28:-0.18276601 29:-0.150461 30:-0.189439 31:-0.120054 33:-0.133763 34:-0.1311 35:-0.191397 36:-0.22950201 38:-0.063603997 39:-0.157189 42:-0.139154 45:-0.29318199 46:0.219037 47:-0.079241998 48:-0.101023 49:-0.14805999 50:-0.299741 51:0.55070698 52:-0.074887 55:-0.072570004 56:0.0070440001 57:-0.206009 #
0.48839841689744284414231856317201 1:-0.348299 3:0.730003 4:-0.045352999 5:-0.48666501 6:-0.35563499 7:-0.31764501 8:2.8563609 9:-0.354184 10:-0.40832499 11:2.8155129 12:0.22716001 14:-0.189715 15:-0.21397699 16:-0.303601 18:-0.362865 19:0.89392 21:0.367717 25:-0.259592 27:-0.225205 28:-0.18276601 29:-0.150461 30:-0.189439 31:-0.120054 33:-0.133763 34:-0.1311 35:-0.191397 36:-0.22950201 38:-0.063603997 39:-0.157189 42:-0.139154 45:-0.29318199 46:-0.215674 47:-0.079241998 48:-0.101023 49:-0.14805999 50:-0.615345 51:-0.150841 52:-0.108739 55:-0.092797004 56:-0.27126801 57:-0.30037701 #
0.5 1:-0.348299 3:-0.62200397 4:-0.045352999 5:-0.48666501 6:-0.35563499 7:-0.31764501 8:-0.27120501 9:-0.354184 10:-0.40832499 11:-0.332057 12:-0.66384602 14:-0.189715 15:-0.21397699 16:-0.303601 18:-0.362865 19:-1.03152 21:-0.76167101 25:-0.259592 27:-0.225205 28:-0.18276601 29:-0.150461 30:-0.189439 31:-0.120054 33:-0.133763 34:-0.1311 35:-0.191397 36:4.0525932 38:-0.063603997 39:-0.157189 42:-0.139154 45:1.122285 46:-0.215674 47:-0.079241998 48:-0.101023 49:-0.14805999 50:0.414009 51:-0.150841 52:0.16501901 55:-0.034607001 56:-0.255806 57:-0.34531501 #
-0.5 1:3.7219279 3:-0.62200397 4:-0.045352999 5:-0.48666501 6:-0.35563499 7:-0.31764501 8:-0.27120501 9:-0.354184 10:-0.40832499 11:-0.332057 12:-0.66384602 14:-0.189715 15:-0.21397699 16:-0.303601 18:-0.362865 19:-0.31797501 21:0.28467399 25:-0.259592 27:-0.225205 28:-0.18276601 29:-0.150461 30:-0.189439 31:-0.120054 33:-0.133763 34:-0.1311 35:-0.191397 36:-0.22950201 38:-0.063603997 39:-0.157189 42:-0.139154 45:-0.29318199 46:-0.215674 47:-0.079241998 48:-0.101023 49:-0.14805999 50:-0.615345 51:-0.150841 52:-0.19704799 55:-0.122306 56:-0.39496201 57:-0.42320701 #
0.5 1:-0.348299 3:-0.26412001 4:-0.045352999 5:0.58606899 6:-0.35563499 7:0.089777 8:-0.27120501 9:-0.354184 10:0.44173399 11:0.50112301 12:-0.42799199 14:-0.189715 15:0.38551801 16:-0.303601 18:-0.362865 19:-0.40292099 21:-0.14715099 25:-0.259592 27:-0.225205 28:-0.18276601 29:-0.150461 30:0.264496 31:-0.120054 33:0.45520699 34:-0.1311 35:-0.191397 36:2.100461 38:-0.063603997 39:-0.157189 42:-0.139154 45:-0.29318199 46:-0.215674 47:-0.079241998 48:-0.101023 49:-0.14805999 50:-0.333729 51:-0.150841 52:-0.459032 55:-0.094825 56:-0.33311501 57:-0.13261101 #
0.5 1:-0.348299 3:-0.025529999 4:-0.045352999 5:-0.48666501 6:-0.35563499 7:-0.31764501 8:-0.27120501 9:-0.354184 10:0.055344 11:-0.332057 12:-0.27075499 14:-0.189715 15:0.785182 16:-0.020924 18:-0.101312 19:-0.94657397 21:-0.637106 25:-0.259592 27:-0.225205 28:-0.18276601 29:-0.150461 30:-0.189439 31:-0.120054 33:-0.133763 34:-0.1311 35:-0.191397 36:-0.22950201 38:-0.063603997 39:-0.157189 42:-0.139154 45:-0.29318199 46:-0.215674 47:-0.079241998 48:0.94557101 49:1.441257 50:-0.29003 51:-0.150841 52:-0.459032 55:-0.112009 56:-0.29446101 57:0.181952 #
0.5 1:0.233162 3:-0.26412001 4:-0.045352999 5:1.8182631 6:0.82808602 7:-0.31764501 8:-0.133224 9:-0.143878 10:-0.31559101 11:-0.054329999 12:0.056821 14:-0.010417 15:-0.21397699 16:-0.303601 18:-0.362865 19:1.4602261 21:0.151805 25:-0.259592 27:-0.225205 28:-0.18276601 29:-0.150461 30:-0.189439 31:-0.120054 33:-0.133763 34:-0.1311 35:-0.191397 36:-0.22950201 38:-0.063603997 39:-0.157189 42:-0.139154 45:-0.29318199 46:-0.215674 47:-0.079241998 48:-0.101023 49:-0.114388 50:-0.36286199 51:-0.150841 52:-0.444314 55:-0.107674 56:-0.32538399 57:0.220898 #
-0.5 1:-0.348299 3:0.054000001 4:-0.045352999 5:0.006213 6:-0.35563499 7:-0.31764501 8:-0.27120501 9:-0.354184 10:-0.40832499 11:-0.332057 12:1.1312701 14:-0.189715 15:-0.21397699 16:-0.303601 18:0.229987 19:0.52015799 21:0.093673997 25:-0.259592 27:-0.225205 28:-0.18276601 29:-0.150461 30:-0.189439 31:-0.120054 33:-0.133763 34:-0.1311 35:-0.191397 36:-0.22950201 38:-0.063603997 39:-0.157189 42:-0.139154 45:-0.29318199 46:0.163305 47:-0.079241998 48:-0.101023 49:-0.14805999 50:0.51111799 51:-0.150841 52:0.13852599 55:-0.117603 56:-0.37176999 57:-0.32883799 #
-0.5 1:-0.348299 3:0.054000001 4:-0.045352999 5:0.006213 6:-0.35563499 7:-0.31764501 8:-0.27120501 9:0.83755201 10:-0.40832499 11:-0.332057 12:-0.218343 14:-0.189715 15:-0.21397699 16:-0.303601 18:-0.362865 19:-1.03152 21:-0.76167101 25:-0.259592 27:-0.225205 28:-0.18276601 29:-0.150461 30:-0.189439 31:-0.120054 33:-0.133763 34:-0.1311 35:-0.191397 36:-0.22950201 38:-0.063603997 39:-0.157189 42:-0.139154 45:-0.29318199 46:-0.215674 47:-0.079241998 48:-0.101023 49:-0.14805999 50:-0.615345 51:-0.150841 52:-0.459032 55:-0.112746 56:-0.37176999 57:-0.301875 #
0.5 1:-0.348299 3:1.485536 4:-0.045352999 5:-0.48666501 6:-0.35563499 7:-0.31764501 8:-0.27120501 9:7.0766439 10:-0.40832499 11:-0.332057 12:-0.66384602 14:-0.189715 15:-0.21397699 16:-0.303601 18:-0.362865 19:0.77499598 21:-0.76167101 25:-0.259592 27:-0.225205 28:-0.18276601 29:-0.150461 30:-0.189439 31:-0.120054 33:-0.133763 34:-0.1311 35:-0.191397 36:-0.22950201 38:-0.063603997 39:-0.157189 42:-0.139154 45:0.81005001 46:-0.215674 47:-0.079241998 48:-0.101023 49:-0.14805999 50:-0.615345 51:-0.150841 52:-0.459032 55:-0.041400999 56:-0.32538399 57:-0.32134801 #
-0.5 1:-0.348299 3:-0.62200397 4:-0.045352999 5:-0.48666501 6:-0.35563499 7:1.085696 8:-0.27120501 9:-0.354184 10:-0.40832499 11:-0.332057 12:-0.66384602 14:-0.189715 15:-0.21397699 16:-0.303601 18:0.71821803 19:-0.32363799 21:-0.504237 25:-0.259592 27:-0.225205 28:-0.18276601 29:-0.150461 30:-0.189439 31:-0.120054 33:-0.133763 34:-0.1311 35:-0.191397 36:-0.22950201 38:-0.063603997 39:-0.157189 42:-0.139154 45:0.35210499 46:-0.215674 47:-0.079241998 48:-0.101023 49:-0.14805999 50:-0.377428 51:-0.150841 52:-0.095492996 55:-0.046688002 56:0.27762601 57:0.036653999 #
-0.5 1:-0.348299 3:-0.62200397 4:-0.045352999 5:-0.48666501 6:-0.35563499 7:-0.31764501 8:-0.27120501 9:-0.354184 10:2.064573 11:-0.332057 12:-0.66384602 14:-0.189715 15:-0.21397699 16:1.957813 18:-0.362865 19:2.1397929 21:0.56702101 25:-0.259592 27:-0.225205 28:-0.18276601 29:-0.150461 30:-0.189439 31:-0.120054 33:-0.133763 34:-0.1311 35:-0.191397 36:-0.22950201 38:-0.063603997 39:-0.157189 42:-0.139154 45:-0.29318199 46:-0.215674 47:-0.079241998 48:-0.101023 49:-0.14805999 50:-0.615345 51:-0.150841 52:-0.113155 55:-0.118986 56:-0.38723099 57:-0.400738 #
0.5 1:-0.348299 3:-0.62200397 4:-0.045352999 5:1.62981 6:-0.35563499 7:1.561021 8:-0.27120501 9:0.34683701 10:1.199059 11:-0.332057 12:-0.12662201 14:-0.189715 15:-0.21397699 16:-0.303601 18:2.1829109 19:-0.44256201 21:-0.59558499 25:0.877617 27:-0.225205 28:-0.18276601 29:-0.150461 30:-0.189439 31:-0.120054 33:-0.133763 34:-0.1311 35:-0.191397 36:-0.22950201 38:-0.063603997 39:0.43901199 42:-0.139154 45:-0.29318199 46:-0.215674 47:-0.079241998 48:-0.101023 49:0.46476999 50:1.331687 51:1.025601 52:-0.19116101 55:-0.044874001 56:-0.217152 57:0.101064 #
-0.5 1:-0.348299 3:-0.62200397 4:-0.045352999 5:-0.48666501 6:-0.35563499 7:-0.31764501 8:-0.27120501 9:-0.354184 10:-0.40832499 11:-0.332057 12:-0.66384602 14:-0.189715 15:-0.21397699 16:-0.303601 18:-0.362865 19:-1.03152 21:-0.76167101 25:-0.259592 27:-0.225205 28:-0.18276601 29:-0.150461 30:-0.189439 31:-0.120054 33:-0.133763 34:-0.1311 35:-0.191397 36:-0.22950201 38:-0.063603997 39:-0.157189 42:-0.139154 45:-0.29318199 46:-0.215674 47:-0.079241998 48:-0.101023 49:-0.14805999 50:-0.615345 51:-0.150841 52:-0.459032 55:-0.106076 56:-0.3795 57:-0.43069601 #
-0.5 1:-0.348299 3:2.9767201 4:-0.045352999 5:2.4271131 6:-0.35563499 7:-0.31764501 8:-0.27120501 9:-0.354184 10:-0.40832499 11:0.59369898 12:-0.66384602 14:-0.189715 15:-0.21397699 16:0.073302001 18:-0.014128 19:1.018507 21:-0.097324997 25:-0.259592 27:-0.225205 28:-0.18276601 29:-0.150461 30:-0.189439 31:-0.120054 33:-0.133763 34:-0.1311 35:-0.191397 36:-0.22950201 38:-0.063603997 39:-0.157189 42:-0.139154 45:0.123132 46:-0.215674 47:-0.079241998 48:-0.101023 49:-0.14805999 50:-0.615345 51:-0.150841 52:-0.016015001 55:-0.112961 56:-0.28672999 57:-0.19851901 #
-0.5 1:-0.348299 3:-0.62200397 4:-0.045352999 5:5.0799551 6:-0.35563499 7:-0.31764501 8:-0.27120501 9:-0.354184 10:-0.40832499 11:-0.332057 12:-0.66384602 14:-0.189715 15:-0.21397699 16:-0.303601 18:-0.362865 19:1.143095 21:-0.76167101 25:-0.259592 27:-0.225205 28:-0.18276601 29:-0.150461 30:-0.189439 31:-0.120054 33:-0.133763 34:-0.1311 35:-0.191397 36:-0.22950201 38:-0.063603997 39:-0.157189 42:-0.139154 45:-0.29318199 46:-0.215674 47:-0.079241998 48:-0.101023 49:-0.14805999 50:-0.615345 51:-0.150841 52:-0.459032 55:-0.130667 56:-0.41042399 57:-0.43369201 #
-0.48028903203338813021616715559503 1:-0.348299 3:-0.62200397 4:-0.045352999 5:-0.48666501 6:-0.35563499 7:-0.31764501 8:-0.27120501 9:-0.354184 10:-0.40832499 11:-0.332057 12:-0.66384602 14:-0.189715 15:-0.21397699 16:-0.303601 18:-0.362865 19:-1.03152 21:-0.76167101 25:-0.259592 27:-0.225205 28:-0.18276601 29:-0.150461 30:-0.189439 31:-0.120054 33:-0.133763 34:-0.1311 35:-0.191397 36:-0.22950201 38:-0.063603997 39:-0.157189 42:-0.139154 45:-0.29318199 46:-0.215674 47:-0.079241998 48:-0.101023 49:-0.14805999 50:-0.615345 51:-0.150841 52:-0.459032 55:-0.106076 56:-0.3795 57:-0.43069601 #
-0.5 1:-0.348299 3:-0.62200397 4:-0.045352999 5:-0.48666501 6:-0.35563499 7:-0.31764501 8:-0.27120501 9:-0.354184 10:-0.40832499 11:-0.332057 12:-0.66384602 14:-0.189715 15:-0.21397699 16:-0.303601 18:-0.362865 19:-1.03152 21:-0.76167101 25:-0.259592 27:-0.225205 28:-0.18276601 29:-0.150461 30:-0.189439 31:-0.120054 33:-0.133763 34:-0.1311 35:-0.191397 36:-0.22950201 38:-0.063603997 39:-0.157189 42:-0.139154 45:-0.29318199 46:-0.215674 47:-0.079241998 48:-0.101023 49:-0.14805999 50:3.5700459 51:-0.150841 52:0.80967599 55:-0.130667 56:-0.41042399 57:-0.439684 #
-0.5 1:-0.348299 3:-0.62200397 4:-0.045352999 5:-0.48666501 6:-0.35563499 7:-0.31764501 8:-0.27120501 9:-0.354184 10:-0.40832499 11:-0.332057 12:1.340919 14:-0.189715 15:-0.21397699 16:-0.303601 18:-0.362865 19:0.707039 21:-0.130542 25:-0.259592 27:-0.225205 28:-0.18276601 29:-0.150461 30:-0.189439 31:-0.120054 33:-0.133763 34:-0.1311 35:-0.191397 36:-0.22950201 38:-0.063603997 39:-0.157189 42:-0.139154 45:-0.29318199 46:-0.215674 47:-0.079241998 48:-0.101023 49:-0.14805999 50:-0.615345 51:-0.150841 52:-0.459032 55:-0.117019 56:-0.37176999 57:-0.40523201 #
-0.5 1:-0.348299 3:-0.10506 4:-0.045352999 5:-0.109759 6:0.071819998 7:-0.31764501 8:-0.27120501 9:-0.354184 10:-0.40832499 11:-0.332057 12:0.017511999 14:-0.189715 15:-0.21397699 16:-0.303601 18:-0.362865 19:-0.43689901 21:0.110283 25:0.044183001 27:-0.225205 28:-0.18276601 29:-0.150461 30:-0.189439 31:-0.120054 33:-0.133763 34:-0.1311 35:-0.191397 36:0.17981599 38:-0.063603997 39:-0.157189 42:-0.139154 45:-0.29318199 46:-0.215674 47:-0.079241998 48:-0.101023 49:-0.090818003 50:-0.183211 51:0.032641001 52:-0.407518 55:-0.001901 56:0.409051 57:0.58189601 #
-0.5 1:1.945241 3:0.21305899 4:-0.045352999 5:0.96297598 6:0.104701 7:-0.00076199998 8:-0.27120501 9:-0.354184 10:4.2283592 11:0.315972 12:0.44991201 14:-0.189715 15:-0.21397699 16:-0.303601 18:0.125366 19:-0.55015999 21:-0.64541101 25:-0.259592 27:-0.225205 28:-0.18276601 29:-0.150461 30:-0.189439 31:-0.120054 33:-0.133763 34:-0.1311 35:-0.191397 36:-0.22950201 38:-0.063603997 39:-0.157189 42:-0.139154 45:-0.29318199 46:-0.215674 47:-0.079241998 48:-0.101023 49:-0.14805999 50:-0.50852501 51:-0.150841 52:-0.459032 55:-0.102049 56:-0.34857699 57:-0.192527 #
-0.5 1:-0.348299 3:-0.62200397 4:-0.045352999 5:-0.48666501 6:-0.35563499 7:-0.31764501 8:-0.27120501 9:-0.354184 10:-0.40832499 11:-0.332057 12:-0.66384602 14:-0.189715 15:-0.21397699 16:0.874219 18:1.8167371 19:0.38424501 21:0.27636999 25:-0.259592 27:-0.225205 28:-0.18276601 29:-0.150461 30:-0.189439 31:-0.120054 33:-0.133763 34:-0.1311 35:-0.191397 36:-0.22950201 38:-0.063603997 39:-0.157189 42:-0.139154 45:-0.29318199 46:-0.215674 47:-0.079241998 48:-0.101023 49:-0.14805999 50:-0.615345 51:-0.150841 52:-0.459032 55:-0.033039998 56:0.0070440001 57:-0.337825 #
-0.5 1:-0.348299 3:-0.62200397 4:-0.045352999 5:-0.48666501 6:3.031122 7:-0.31764501 8:4.4891348 9:-0.354184 10:-0.40832499 11:-0.332057 12:-0.66384602 14:-0.189715 15:-0.21397699 16:-0.303601 18:-0.362865 19:-1.03152 21:-0.76167101 25:-0.259592 27:-0.225205 28:-0.18276601 29:-0.150461 30:-0.189439 31:-0.120054 33:-0.133763 34:-0.1311 35:-0.191397 36:-0.22950201 38:-0.063603997 39:-0.157189 42:-0.139154 45:-0.29318199 46:-0.215674 47:-0.079241998 48:-0.101023 49:-0.14805999 50:0.083838999 51:0.62625903 52:-0.459032 55:-0.114591 56:-0.33311501 57:-0.34831101 #
-0.5 1:-0.348299 3:-0.62200397 4:-0.045352999 5:-0.48666501 6:-0.35563499 7:-0.31764501 8:-0.27120501 9:-0.354184 10:-0.40832499 11:-0.332057 12:-0.66384602 14:-0.189715 15:-0.21397699 16:-0.303601 18:-0.362865 19:-1.03152 21:-0.76167101 25:-0.259592 27:-0.225205 28:-0.18276601 29:-0.150461 30:-0.189439 31:-0.120054 33:-0.133763 34:-0.1311 35:-0.191397 36:-0.22950201 38:-0.063603997 39:-0.157189 42:-0.139154 45:-0.29318199 46:-0.215674 47:-0.079241998 48:-0.101023 49:-0.14805999 50:-0.615345 51:-0.150841 52:-0.459032 55:-0.106076 56:-0.3795 57:-0.43069601 #
-0.5 1:-0.348299 3:-0.62200397 4:-0.045352999 5:-0.48666501 6:-0.35563499 7:-0.31764501 8:-0.27120501 9:-0.354184 10:-0.40832499 11:-0.332057 12:3.0181079 14:-0.189715 15:-0.21397699 16:-0.303601 18:2.3572791 19:-0.50485599 21:-0.504237 25:-0.259592 27:-0.225205 28:-0.18276601 29:-0.150461 30:-0.189439 31:-0.120054 33:-0.133763 34:-0.1311 35:-0.191397 36:0.74656397 38:-0.063603997 39:-0.157189 42:-0.139154 45:-0.29318199 46:-0.215674 47:-0.079241998 48:-0.101023 49:-0.14805999 50:0.180948 51:-0.150841 52:-0.29860401 55:-0.093994997 56:-0.278999 57:-0.24046101 #
-0.5 1:-0.348299 3:-0.62200397 4:-0.045352999 5:-0.48666501 6:-0.35563499 7:-0.31764501 8:-0.27120501 9:-0.354184 10:-0.40832499 11:-0.332057 12:-0.66384602 14:-0.189715 15:-0.21397699 16:-0.303601 18:-0.362865 19:-1.03152 21:-0.76167101 25:-0.259592 27:-0.225205 28:-0.18276601 29:-0.150461 30:-0.189439 31:-0.120054 33:-0.133763 34:-0.1311 35:-0.191397 36:-0.22950201 38:-0.063603997 39:-0.157189 42:-0.139154 45:-0.29318199 46:-0.215674 47:-0.079241998 48:-0.101023 49:-0.14805999 50:-0.615345 51:-0.150841 52:-0.459032 55:-0.106076 56:-0.3795 57:-0.43069601 #
-0.5 1:-0.348299 3:6.555562 4:-0.045352999 5:-0.48666501 6:1.617233 7:-0.31764501 8:-0.27120501 9:-0.354184 10:-0.40832499 11:-0.332057 12:-0.66384602 14:-0.189715 15:-0.21397699 16:-0.303601 18:-0.362865 19:1.012844 21:-0.76167101 25:-0.259592 27:-0.225205 28:-0.18276601 29:-0.150461 30:-0.189439 31:-0.120054 33:-0.133763 34:-0.1311 35:-0.191397 36:-0.22950201 38:-0.063603997 39:-0.157189 42:-0.139154 45:0.33128899 46:-0.215674 47:-0.079241998 48:-0.101023 49:-0.14805999 50:-0.615345 51:-0.150841 52:-0.28241399 55:-0.101158 56:-0.34857699 57:-0.37077901 #
-0.5 1:-0.348299 3:6.0982661 4:-0.045352999 5:-0.48666501 6:-0.35563499 7:-0.31764501 8:-0.27120501 9:-0.354184 10:-0.40832499 11:-0.332057 12:-0.66384602 14:-0.189715 15:-0.21397699 16:-0.303601 18:-0.362865 19:-1.03152 21:0.64175999 25:-0.259592 27:-0.225205 28:-0.18276601 29:-0.150461 30:-0.189439 31:-0.120054 33:-0.133763 34:-0.1311 35:-0.191397 36:-0.22950201 38:-0.063603997 39:-0.157189 42:-0.139154 45:-0.29318199 46:-0.215674 47:-0.079241998 48:-0.101023 49:-0.14805999 50:-0.615345 51:-0.150841 52:-0.459032 55:-0.123843 56:-0.39496201 57:-0.42770001 #
0.5 1:-0.348299 3:-0.34365001 4:-0.045352999 5:-0.066269003 6:-0.35563499 7:-0.31764501 8:-0.27120501 9:-0.354184 10:-0.40832499 11:-0.332057 12:0.50232399 14:-0.189715 15:-0.21397699 16:-0.171685 18:-0.362865 19:-1.03152 21:-0.76167101 25:-0.259592 27:-0.225205 28:-0.18276601 29:-0.150461 30:-0.189439 31:-0.120054 33:0.56663299 34:-0.1311 35:-0.191397 36:0.68359202 38:-0.063603997 39:-0.157189 42:-0.139154 45:-0.29318199 46:-0.215674 47:-0.079241998 48:-0.101023 49:-0.073982 50:-0.29003 51:-0.150841 52:-0.459032 55:-0.092950001 56:-0.33311501 57:-0.00379 #
0.00077590594325785411378149092342937 1:-0.348299 3:0.33235401 4:-0.045352999 5:0.55707598 6:1.2226599 7:-0.31764501 8:-0.27120501 9:0.48704201 10:-0.40832499 11:1.889757 12:-0.34937301 14:-0.189715 15:-0.21397699 16:0.148682 18:-0.362865 19:-0.351953 21:0.43415201 25:-0.259592 27:-0.225205 28:-0.18276601 29:-0.150461 30:0.41580799 31:-0.120054 33:-0.133763 34:-0.1311 35:-0.191397 36:-0.22950201 38:-0.063603997 39:-0.157189 42:-0.139154 45:-0.29318199 46:-0.215674 47:-0.079241998 48:0.73625201 49:-0.14805999 50:-0.44054899 51:-0.150841 52:-0.40604699 55:-0.089599997 56:0.092083998 57:-0.048726998 #
0.5 1:-0.348299 3:-0.10506 4:-0.045352999 5:-0.109759 6:-0.35563499 7:-0.31764501 8:-0.27120501 9:-0.354184 10:-0.40832499 11:0.87142599 12:0.72507602 14:0.58724201 15:0.65196103 16:0.45020401 18:0.090493001 19:-0.27833301 21:-0.76167101 25:-0.259592 27:-0.225205 28:-0.18276601 29:-0.150461 30:-0.189439 31:-0.120054 33:-0.133763 34:-0.1311 35:-0.191397 36:-0.22950201 38:-0.063603997 39:-0.157189 42:-0.139154 45:-0.29318199 46:-0.215674 47:-0.079241998 48:-0.101023 49:-0.14805999 50:0.83643198 51:-0.150841 52:0.23419499 55:-0.097222999 56:-0.30219099 57:-0.162569 #
