SVM-light Version V6.02
0 # kernel type
3 # kernel parameter -d 
1 # kernel parameter -g 
1 # kernel parameter -s 
1 # kernel parameter -r 
empty# kernel parameter -u 
57 # highest feature index 
1813 # number of training documents 
845 # number of support vectors plus 1 
0.082613591 # threshold b, each following line is a SV (starting with alpha*y)
0.1337759589137414995008157347911 5:0.499091 6:0.76232398 10:-0.40832499 12:-0.218343 15:-0.21397699 25:-0.259592 28:-0.18276601 34:-0.1311 36:-0.22950201 38:-0.063603997 50:0.166381 51:-0.150841 52:-0.142591 57:0.047139 #
0.5 5:0.194666 6:-0.35563499 10:-0.40832499 12:-0.048004001 15:-0.21397699 25:-0.259592 28:-0.18276601 34:-0.1311 36:-0.22950201 38:-0.063603997 50:-0.615345 51:-0.150841 52:-0.245618 57:-0.15358201 #
-0.5 5:-0.48666501 6:-0.35563499 10:-0.40832499 12:-0.66384602 15:7.246408 25:-0.259592 28:-0.18276601 34:-0.1311 36:-0.22950201 38:-0.063603997 50:-0.615345 51:-0.150841 52:-0.459032 57:-0.37826899 #
0.5 5:-0.48666501 6:-0.35563499 10:-0.40832499 12:-0.66384602 15:-0.21397699 25:-0.259592 28:17.02533 34:-0.1311 36:-0.22950201 38:-0.063603997 50:9.1586599 51:-0.150841 52:-0.459032 57:-0.38126501 #
-0.5 5:-0.48666501 6:-0.35563499 10:-0.40832499 12:-0.66384602 15:-0.21397699 25:-0.259592 28:11.964125 34:-0.1311 36:-0.22950201 38:-0.063603997 50:3.0893569 51:-0.150841 52:-0.459032 57:-0.42021099 #
0.5 5:-0.48666501 6:-0.35563499 10:-0.40832499 12:-0.66384602 15:-0.21397699 25:-0.259592 28:-0.18276601 34:-0.1311 36:-0.22950201 38:-0.063603997 50:-0.615345 51:-0.150841 52:-0.459032 57:-0.44118199 #
0.03795807950918971690468239899019 5:-0.48666501 6:-0.35563499 10:-0.40832499 12:-0.66384602 15:-0.21397699 25:-0.259592 28:18.595337 34:-0.1311 36:-0.22950201 38:-0.063603997 50:4.9829798 51:-0.150841 52:-0.459032 57:-0.38725701 #
-0.5 5:-0.48666501 6:-0.35563499 10:3.1773779 12:-0.66384602 15:3.649437 25:-0.259592 28:-0.18276601 34:-0.1311 36:-0.22950201 38:-0.063603997 50:0.37516499 51:-0.150841 52:-0.459032 57:-0.39175001 #
0.15275235538021197934099859594426 5:-0.48666501 6:-0.35563499 10:0.62720102 12:-0.66384602 15:-0.21397699 25:-0.259592 28:-0.18276601 34:4.8475451 36:-0.22950201 38:-0.063603997 50:-0.615345 51:-0.150841 52:3.0174041 57:-0.246452 #
-0.5 5:-0.48666501 6:-0.35563499 10:-0.40832499 12:0.90851802 15:-0.21397699 25:-0.259592 28:-0.18276601 34:-0.1311 36:-0.22950201 38:-0.063603997 50:-0.615345 51:-0.150841 52:10.884277 57:-0.36778399 #
-0.5 5:-0.48666501 6:0.170463 10:-0.161035 12:1.222991 15:-0.21397699 25:-0.134967 28:-0.18276601 34:-0.1311 36:-0.22950201 38:-0.063603997 50:0.92868602 51:-0.150841 52:-0.342758 57:-0.0097810002 #
0.5 5:-0.48666501 6:1.617233 10:-0.40832499 12:1.694701 15:-0.21397699 25:-0.259592 28:-0.18276601 34:-0.1311 36:-0.22950201 38:-0.063603997 50:-0.158933 51:0.35643199 52:-0.180858 57:-0.143096 #
-0.5 5:-0.48666501 6:-0.35563499 10:0.56537902 12:-0.66384602 15:1.884256 25:-0.259592 28:-0.18276601 34:-0.1311 36:-0.22950201 38:-0.063603997 50:0.37516499 51:-0.150841 52:-0.308907 57:-0.37077901 #
0.5 5:0.28164399 6:-0.35563499 10:0.41082299 12:-0.66384602 15:-0.21397699 25:-0.259592 28:-0.18276601 34:-0.1311 36:-0.22950201 38:-0.063603997 50:1.011228 51:-0.150841 52:-0.459032 57:-0.26592499 #
0.5 5:-0.48666501 6:-0.35563499 10:-0.40832499 12:-0.66384602 15:-0.21397699 25:-0.259592 28:-0.18276601 34:-0.1311 36:-0.22950201 38:-0.063603997 50:1.205446 51:5.5155082 52:-0.127873 57:-0.128117 #
0.5 5:-0.48666501 6:-0.35563499 10:-0.40832499 12:-0.66384602 15:-0.21397699 25:-0.259592 28:-0.18276601 34:-0.1311 36:-0.22950201 38:-0.063603997 50:0.069271997 51:-0.150841 52:0.37254599 57:-0.31385899 #
-0.5 5:-0.41418299 6:-0.35563499 10:-0.20740201 12:-0.66384602 15:-0.21397699 25:-0.259592 28:-0.18276601 34:-0.1311 36:0.17981599 38:-0.063603997 50:0.84614301 51:1.2630481 52:-0.45608899 57:7.637085 #
-0.5 5:0.035206001 6:0.82808602 10:-0.40832499 12:-0.66384602 15:-0.21397699 25:-0.259592 28:-0.18276601 34:-0.1311 36:-0.22950201 38:-0.063603997 50:-0.615345 51:-0.150841 52:8.9414759 57:-0.340821 #
0.5 5:-0.48666501 6:-0.35563499 10:-0.40832499 12:-0.66384602 15:-0.21397699 25:-0.259592 28:-0.18276601 34:-0.1311 36:-0.22950201 38:-0.063603997 50:-0.615345 51:-0.150841 52:1.261524 57:-0.39025199 #
-0.5 5:-0.48666501 6:-0.35563499 10:-0.40832499 12:2.690532 15:-0.21397699 25:-0.259592 28:-0.18276601 34:-0.1311 36:-0.22950201 38:-0.063603997 50:-0.615345 51:-0.150841 52:0.25479999 57:-0.397742 #
-0.5 5:-0.48666501 6:-0.35563499 10:-0.40832499 12:-0.25765201 15:-0.21397699 25:-0.259592 28:-0.18276601 34:-0.1311 36:-0.22950201 38:-0.063603997 50:-0.32887399 51:-0.150841 52:0.58448702 57:-0.37377501 #
-0.5 5:-0.48666501 6:-0.35563499 10:1.539083 12:0.98713702 15:-0.21397699 25:-0.259592 28:5.0437031 34:-0.1311 36:-0.22950201 38:-0.063603997 50:-0.615345 51:-0.150841 52:-0.459032 57:-0.36329001 #
-0.5 5:-0.48666501 6:-0.35563499 10:-0.40832499 12:-0.66384602 15:-0.21397699 25:-0.259592 28:-0.18276601 34:-0.1311 36:-0.22950201 38:-0.063603997 50:3.074791 51:0.151365 52:-0.459032 57:0.66128498 #
-0.5 5:2.659055 6:-0.35563499 10:-0.40832499 12:-0.66384602 15:-0.21397699 25:-0.259592 28:-0.18276601 34:-0.1311 36:-0.22950201 38:-0.063603997 50:1.166602 51:-0.150841 52:-0.459032 57:-0.43219399 #
-0.5 5:7.5588398 6:-0.35563499 10:-0.40832499 12:6.6083412 15:-0.21397699 25:-0.259592 28:-0.18276601 34:-0.1311 36:-0.22950201 38:-0.063603997 50:-0.615345 51:-0.150841 52:-0.459032 57:-0.42770001 #
-0.5 5:-0.48666501 6:-0.35563499 10:-0.40832499 12:-0.66384602 15:-0.21397699 25:-0.259592 28:-0.18276601 34:-0.1311 36:-0.22950201 38:-0.063603997 50:0.467419 51:-0.150841 52:-0.459032 57:-0.045731001 #
0.5 5:-0.48666501 6:-0.35563499 10:-0.40832499 12:2.6512229 15:-0.21397699 25:-0.259592 28:-0.18276601 34:-0.1311 36:-0.22950201 38:-0.063603997 50:-0.615345 51:-0.150841 52:-0.459032 57:-0.36778399 #
-0.5 5:-0.48666501 6:-0.35563499 10:-0.40832499 12:-0.66384602 15:-0.21397699 25:-0.259592 28:-0.18276601 34:-0.1311 36:-0.22950201 38:-0.063603997 50:-0.615345 51:-0.150841 52:-0.459032 57:-0.39474601 #
0.5 5:1.673299 6:-0.35563499 10:-0.40832499 12:-0.66384602 15:-0.21397699 25:0.90098399 28:-0.18276601 34:-0.1311 36:-0.22950201 38:-0.063603997 50:-0.615345 51:-0.150841 52:-0.459032 57:-0.42770001 #
-0.5 5:-0.48666501 6:-0.35563499 10:-0.40832499 12:-0.66384602 15:-0.21397699 25:-0.259592 28:-0.18276601 34:-0.1311 36:-0.22950201 38:-0.063603997 50:-0.615345 51:-0.150841 52:-0.459032 57:-0.426202 #
0.5 5:-0.48666501 6:-0.35563499 10:-0.40832499 12:7.276597 15:-0.21397699 25:-0.259592 28:-0.18276601 34:-0.1311 36:-0.22950201 38:-0.063603997 50:-0.615345 51:-0.150841 52:-0.459032 57:-0.408227 #
-0.5 5:-0.48666501 6:-0.35563499 10:-0.40832499 12:-0.66384602 15:-0.21397699 25:-0.259592 28:-0.18276601 34:-0.1311 36:-0.22950201 38:-0.063603997 50:-0.615345 51:-0.150841 52:-0.459032 57:-0.42770001 #
-0.5 5:-0.48666501 6:10.955476 10:-0.40832499 12:-0.66384602 15:-0.21397699 25:-0.259592 28:-0.18276601 34:-0.1311 36:-0.22950201 38:-0.063603997 50:1.909485 51:-0.150841 52:-0.459032 57:-0.43369201 #
0.5 5:-0.48666501 6:-0.35563499 10:11.260664 12:0.85610598 15:-0.21397699 25:-0.259592 28:-0.18276601 34:-0.1311 36:-0.22950201 38:-0.063603997 50:0.31690001 51:-0.150841 52:-0.176443 57:-0.35729799 #
-0.5 5:2.1371839 6:-0.35563499 10:-0.40832499 12:1.707804 15:-0.21397699 25:-0.259592 28:-0.18276601 34:-0.1311 36:-0.22950201 38:-0.063603997 50:2.3707521 51:-0.150841 52:-0.459032 57:-0.40673 #
-0.5 5:-0.48666501 6:-0.35563499 10:0.148077 12:-0.66384602 15:-0.21397699 25:-0.259592 28:-0.18276601 34:-0.1311 36:-0.22950201 38:-0.063603997 50:-0.615345 51:-0.150841 52:-0.366308 57:0.093575001 #
-0.5 5:-0.48666501 6:-0.35563499 10:16.762863 12:-0.66384602 15:-0.21397699 25:-0.259592 28:-0.18276601 34:-0.1311 36:-0.22950201 38:-0.063603997 50:-0.615345 51:-0.150841 52:-0.459032 57:-0.44118199 #
-0.5 5:-0.48666501 6:-0.35563499 10:-0.40832499 12:-0.66384602 15:-0.21397699 25:-0.259592 28:-0.18276601 34:-0.1311 36:-0.22950201 38:-0.063603997 50:0.248924 51:0.48594901 52:-0.459032 57:0.009691 #
-0.5 5:-0.25472301 6:0.170463 10:0.086254999 12:-0.66384602 15:0.85179198 25:-0.259592 28:1.139345 34:-0.1311 36:-0.22950201 38:-0.063603997 50:5.7404289 51:-0.150841 52:-0.42665201 57:0.71221501 #
-0.23706833751875594495928112337424 5:-0.167744 6:0.36774999 10:0.28717801 12:0.51542699 15:-0.21397699 25:0.26227799 28:1.201319 34:-0.1311 36:-0.22950201 38:-0.063603997 50:-0.615345 51:-0.150841 52:-0.459032 57:0.093575001 #
-0.5 5:-0.48666501 6:18.978474 10:-0.40832499 12:-0.66384602 15:-0.21397699 25:-0.259592 28:-0.18276601 34:-0.1311 36:-0.22950201 38:-0.063603997 50:-0.615345 51:-0.150841 52:-0.459032 57:-0.42021099 #
-0.5 5:2.4271131 6:-0.35563499 10:-0.40832499 12:-0.66384602 15:-0.21397699 25:-0.259592 28:-0.18276601 34:-0.1311 36:-0.22950201 38:-0.063603997 50:-0.615345 51:-0.150841 52:-0.016015001 57:-0.19851901 #
0.5 5:-0.109759 6:-0.35563499 10:-0.40832499 12:-0.66384602 15:-0.21397699 25:-0.259592 28:-0.18276601 34:-0.1311 36:0.58913398 38:-0.063603997 50:2.7300551 51:-0.150841 52:0.020780999 57:0.403644 #
-0.5 5:-0.48666501 6:-0.35563499 10:-0.40832499 12:1.747113 15:-0.21397699 25:-0.259592 28:-0.18276601 34:-0.1311 36:-0.22950201 38:-0.063603997 50:0.151815 51:-0.150841 52:-0.459032 57:-0.229975 #
0.5 5:1.62981 6:-0.35563499 10:1.199059 12:-0.12662201 15:-0.21397699 25:0.877617 28:-0.18276601 34:-0.1311 36:-0.22950201 38:-0.063603997 50:1.331687 51:1.025601 52:-0.19116101 57:0.101064 #
0.5 5:0.22365899 6:-0.35563499 10:-0.40832499 12:-0.66384602 15:-0.21397699 25:-0.259592 28:-0.18276601 34:-0.1311 36:-0.22950201 38:-0.063603997 50:1.6472909 51:-0.150841 52:-0.459032 57:-0.149088 #
-0.5 5:-0.48666501 6:-0.35563499 10:-0.40832499 12:-0.66384602 15:-0.21397699 25:-0.259592 28:-0.18276601 34:-0.1311 36:-0.22950201 38:-0.063603997 50:-0.217199 51:-0.150841 52:-0.459032 57:-0.38725701 #
-0.5 5:-0.48666501 6:-0.35563499 10:-0.40832499 12:-0.66384602 15:-0.21397699 25:-0.259592 28:-0.18276601 34:-0.1311 36:-0.22950201 38:-0.063603997 50:0.083838999 51:-0.150841 52:8.0480814 57:-0.37077901 #
0.5 5:-0.48666501 6:-0.35563499 10:1.4308929 12:-0.66384602 15:-0.21397699 25:0.66731101 28:-0.18276601 34:-0.1311 36:-0.22950201 38:-0.063603997 50:-0.615345 51:-0.150841 52:-0.15878101 57:-0.301875 #
-0.5 5:-0.48666501 6:-0.35563499 10:-0.40832499 12:-0.66384602 15:-0.21397699 25:-0.259592 28:-0.18276601 34:-0.1311 36:-0.22950201 38:-0.063603997 50:-0.615345 51:-0.150841 52:11.805635 57:-0.43219399 #
0.5 5:-0.48666501 6:3.3270521 10:1.322704 12:-0.66384602 15:-0.21397699 25:-0.259592 28:-0.18276601 34:-0.1311 36:-0.22950201 38:-0.063603997 50:1.205446 51:-0.150841 52:-0.459032 57:-0.376771 #
0.5 5:0.70204002 6:-0.35563499 10:0.85903502 12:-0.66384602 15:-0.21397699 25:-0.259592 28:-0.18276601 34:-0.1311 36:-0.22950201 38:-0.063603997 50:-0.066679999 51:-0.150841 52:-0.29271701 57:-0.36928201 #
-0.5 5:-0.48666501 6:-0.35563499 10:-0.40832499 12:-0.66384602 15:-0.21397699 25:-0.259592 28:-0.18276601 34:-0.1311 36:-0.22950201 38:-0.063603997 50:-0.615345 51:-0.150841 52:-0.459032 57:-0.42770001 #
0.5 5:-0.48666501 6:-0.35563499 10:-0.40832499 12:-0.66384602 15:-0.21397699 25:-0.259592 28:-0.18276601 34:-0.1311 36:-0.22950201 38:-0.063603997 50:-0.615345 51:-0.150841 52:0.992181 57:-0.32434401 #
0.5 5:-0.48666501 6:-0.35563499 10:-0.40832499 12:-0.66384602 15:-0.21397699 25:-0.259592 28:-0.18276601 34:-0.1311 36:-0.22950201 38:-0.063603997 50:-0.0035590001 51:-0.150841 52:-0.459032 57:-0.28539801 #
-0.5 5:12.690568 6:-0.35563499 10:-0.40832499 12:-0.66384602 15:-0.21397699 25:-0.259592 28:-0.18276601 34:-0.1311 36:-0.22950201 38:-0.063603997 50:-0.615345 51:-0.150841 52:-0.459032 57:-0.44268 #
0.5 5:-0.48666501 6:1.617233 10:1.461804 12:-0.66384602 15:-0.21397699 25:-0.259592 28:-0.18276601 34:-0.1311 36:-0.22950201 38:-0.063603997 50:1.899774 51:4.3174801 52:-0.0027679999 57:-0.158075 #
-0.5 5:-0.48666501 6:-0.35563499 10:-0.40832499 12:0.266469 15:-0.21397699 25:-0.259592 28:-0.18276601 34:-0.1311 36:-0.22950201 38:-0.063603997 50:-0.027836001 51:-0.150841 52:-0.10138 57:-0.397742 #
0.5 5:0.499091 6:-0.35563499 10:-0.40832499 12:-0.66384602 15:-0.21397699 25:-0.259592 28:-0.18276601 34:-0.1311 36:-0.22950201 38:-0.063603997 50:-0.615345 51:-0.150841 52:-0.0042400002 57:-0.301875 #
-0.5 5:-0.48666501 6:-0.35563499 10:-0.40832499 12:-0.66384602 15:-0.21397699 25:-0.259592 28:-0.18276601 34:-0.1311 36:-0.22950201 38:-0.063603997 50:-0.615345 51:-0.150841 52:0.28423601 57:-0.41571701 #
-0.5 5:6.4136238 6:-0.35563499 10:-0.40832499 12:-0.66384602 15:-0.21397699 25:-0.259592 28:-0.18276601 34:-0.1311 36:-0.22950201 38:-0.063603997 50:-0.615345 51:-0.150841 52:-0.459032 57:-0.43518999 #
0.5 5:-0.48666501 6:-0.35563499 10:-0.40832499 12:0.44991201 15:-0.21397699 25:-0.259592 28:-0.18276601 34:-0.1311 36:-0.22950201 38:-0.063603997 50:0.093549997 51:-0.150841 52:0.83763999 57:-0.21949001 #
0.5 5:0.064198002 6:0.893848 10:-0.40832499 12:-0.66384602 15:-0.21397699 25:-0.259592 28:-0.18276601 34:-0.1311 36:-0.22950201 38:-0.063603997 50:-0.615345 51:-0.150841 52:-0.277998 57:-0.29588401 #
0.5 5:0.81801099 6:-0.35563499 10:0.98268002 12:-0.66384602 15:-0.21397699 25:-0.259592 28:-0.18276601 34:-0.1311 36:-0.22950201 38:-0.063603997 50:-0.615345 51:-0.150841 52:-0.459032 57:-0.40673 #
-0.5 5:-0.48666501 6:-0.35563499 10:-0.40832499 12:-0.66384602 15:-0.21397699 25:-0.259592 28:-0.18276601 34:-0.1311 36:-0.22950201 38:-0.063603997 50:-0.615345 51:-0.150841 52:-0.459032 57:-0.426202 #
-0.18326443853448920462412274900998 5:-0.48666501 6:-0.35563499 10:-0.40832499 12:-0.074210003 15:-0.21397699 25:-0.259592 28:-0.18276601 34:-0.1311 36:-0.22950201 38:-0.063603997 50:0.447997 51:-0.150841 52:-0.459032 57:-0.37077901 #
-0.5 5:0.62955803 6:0.893848 10:-0.40832499 12:0.85610598 15:3.649437 25:-0.259592 28:-0.18276601 34:-0.1311 36:-0.22950201 38:-0.063603997 50:-0.29003 51:-0.150841 52:-0.459032 57:-0.37077901 #
-0.5 5:-0.48666501 6:3.590101 10:-0.40832499 12:-0.66384602 15:-0.21397699 25:-0.259592 28:-0.18276601 34:-0.1311 36:-0.22950201 38:-0.063603997 50:-0.615345 51:-0.150841 52:-0.459032 57:-0.424705 #
-0.5 5:-0.48666501 6:-0.15834799 10:-0.40832499 12:-0.42799199 15:-0.21397699 25:0.62836599 28:-0.18276601 34:-0.1311 36:-0.22950201 38:-0.063603997 50:0.457708 51:1.090359 52:-0.459032 57:1.570521 #
0.085989400524568992967289204898407 5:0.78901899 6:-0.35563499 10:5.6193652 12:0.48922101 15:-0.21397699 25:-0.259592 28:-0.18276601 34:-0.1311 36:-0.22950201 38:-0.063603997 50:1.2248681 51:1.565253 52:-0.459032 57:0.315267 #
-0.5 5:-0.48666501 6:3.031122 10:-0.40832499 12:-0.66384602 15:-0.21397699 25:-0.259592 28:-0.18276601 34:-0.1311 36:-0.22950201 38:-0.063603997 50:0.083838999 51:0.62625903 52:-0.459032 57:-0.34831101 #
-0.5 5:-0.48666501 6:2.9653599 10:1.152692 12:-0.66384602 15:-0.21397699 25:-0.259592 28:-0.18276601 34:-0.1311 36:-0.22950201 38:-0.063603997 50:-0.615345 51:-0.150841 52:0.240082 57:-0.382763 #
-0.5 5:-0.42867899 6:-0.22411001 10:-0.28468001 12:-0.12662201 15:-0.21397699 25:-0.259592 28:-0.18276601 34:-0.1311 36:0.36873201 38:0.019745 50:0.41886401 51:-0.129255 52:-0.41340601 57:4.0540671 #
0.5 5:0.45560101 6:1.781639 10:-0.40832499 12:-0.24454901 15:-0.21397699 25:-0.259592 28:-0.18276601 34:-0.1311 36:-0.22950201 38:-0.063603997 50:-0.105524 51:-0.150841 52:-0.459032 57:-0.235967 #
-0.5 5:-0.48666501 6:-0.35563499 10:-0.40832499 12:-0.66384602 15:-0.21397699 25:-0.259592 28:-0.18276601 34:-0.1311 36:-0.22950201 38:-0.063603997 50:-0.615345 51:-0.150841 52:-0.459032 57:-0.421709 #
0.5 5:-0.48666501 6:-0.35563499 10:0.84358001 12:0.39750001 15:-0.21397699 25:-0.259592 28:-0.18276601 34:-0.1311 36:-0.22950201 38:-0.063603997 50:-0.615345 51:-0.150841 52:-0.026317 57:-0.34980899 #
0.5 5:-0.48666501 6:2.2419751 10:-0.40832499 12:-0.66384602 15:-0.21397699 25:-0.259592 28:-0.18276601 34:-0.1311 36:-0.22950201 38:-0.063603997 50:0.506262 51:3.594346 52:0.220948 57:-0.192527 #
-0.5 5:0.96297598 6:0.104701 10:4.2283592 12:0.44991201 15:-0.21397699 25:-0.259592 28:-0.18276601 34:-0.1311 36:-0.22950201 38:-0.063603997 50:-0.50852501 51:-0.150841 52:-0.459032 57:-0.192527 #
-0.5 5:2.96348 6:-0.35563499 10:-0.40832499 12:-0.66384602 15:-0.21397699 25:-0.259592 28:-0.18276601 34:-0.1311 36:-0.22950201 38:-0.063603997 50:-0.615345 51:-0.150841 52:-0.459032 57:-0.421709 #
0.5 5:-0.48666501 6:-0.35563499 10:0.395367 12:2.0615859 15:-0.21397699 25:-0.259592 28:-0.18276601 34:-0.1311 36:-0.22950201 38:-0.063603997 50:-0.26089799 51:-0.150841 52:0.081124999 57:-0.28989199 #
-0.5 5:2.3546309 6:-0.35563499 10:-0.40832499 12:-0.66384602 15:-0.21397699 25:-0.259592 28:-0.18276601 34:-0.1311 36:-0.22950201 38:-0.063603997 50:2.6183791 51:-0.150841 52:-0.459032 57:-0.41571701 #
-0.5 5:-0.48666501 6:-0.35563499 10:-0.40832499 12:-0.29696101 15:-0.21397699 25:-0.259592 28:-0.18276601 34:-0.1311 36:-0.22950201 38:-0.063603997 50:-0.115234 51:-0.150841 52:6.9795408 57:-0.32434401 #
-0.5 5:-0.356197 6:-0.25699201 10:-0.331047 12:-0.048004001 15:-0.21397699 25:-0.259592 28:-0.120792 34:-0.1311 36:0.116844 38:-0.063603997 50:0.66163599 51:-0.096874997 52:-0.43548301 57:4.3012242 #
-0.45127821355950370474374722107314 5:-0.48666501 6:-0.35563499 10:1.214515 12:-0.66384602 15:-0.21397699 25:-0.259592 28:-0.18276601 34:-0.1311 36:-0.22950201 38:-0.063603997 50:-0.615345 51:3.464829 52:-0.459032 57:-0.25843599 #
-0.5 5:-0.48666501 6:-0.35563499 10:-0.40832499 12:-0.66384602 15:-0.21397699 25:-0.259592 28:-0.18276601 34:-0.1311 36:-0.22950201 38:-0.063603997 50:1.6812789 51:-0.150841 52:3.7253489 57:-0.41122299 #
0.5 5:2.1951699 6:-0.35563499 10:-0.40832499 12:-0.66384602 15:-0.21397699 25:-0.259592 28:-0.18276601 34:-0.1311 36:-0.22950201 38:-0.063603997 50:0.467419 51:-0.150841 52:-0.459032 57:-0.36329001 #
-0.5 5:5.0799551 6:-0.35563499 10:-0.40832499 12:-0.66384602 15:-0.21397699 25:-0.259592 28:-0.18276601 34:-0.1311 36:-0.22950201 38:-0.063603997 50:-0.615345 51:-0.150841 52:-0.459032 57:-0.43369201 #
-0.5 5:3.1374359 6:-0.35563499 10:-0.40832499 12:-0.66384602 15:-0.21397699 25:-0.259592 28:-0.18276601 34:-0.1311 36:-0.22950201 38:-0.063603997 50:-0.076390997 51:-0.150841 52:-0.459032 57:-0.403734 #
-0.5 5:-0.48666501 6:-0.35563499 10:2.3118629 12:-0.66384602 15:-0.21397699 25:-0.259592 28:-0.18276601 34:-0.1311 36:-0.22950201 38:-0.063603997 50:-0.0084149996 51:-0.150841 52:-0.27505499 57:-0.38875499 #
-0.5 5:0.38311899 6:-0.35563499 10:3.347389 12:0.122336 15:-0.21397699 25:-0.259592 28:-0.18276601 34:-0.1311 36:-0.22950201 38:-0.063603997 50:0.70047998 51:-0.150841 52:-0.459032 57:-0.143096 #
0.5 5:1.441357 6:0.36774999 10:-0.068301 12:0.20095401 15:-0.21397699 25:-0.259592 28:-0.18276601 34:-0.1311 36:-0.22950201 38:-0.063603997 50:0.035284001 51:-0.150841 52:-0.36041999 57:-0.170059 #
-0.5 5:4.5000992 6:-0.35563499 10:-0.40832499 12:3.8436 15:-0.21397699 25:-0.259592 28:-0.18276601 34:-0.1311 36:-0.22950201 38:-0.063603997 50:2.171679 51:-0.150841 52:-0.459032 57:-0.426202 #
-0.5 5:2.96348 6:-0.35563499 10:-0.40832499 12:-0.66384602 15:-0.21397699 25:-0.259592 28:-0.18276601 34:-0.1311 36:-0.22950201 38:-0.063603997 50:-0.615345 51:-0.150841 52:-0.459032 57:-0.41571701 #
0.5 5:-0.109759 6:-0.35563499 10:-0.40832499 12:-0.66384602 15:-0.21397699 25:-0.259592 28:-0.18276601 34:-0.1311 36:0.58913398 38:-0.063603997 50:2.5698249 51:-0.150841 52:-0.0027679999 57:0.403644 #
0.5 5:0.064198002 6:0.893848 10:-0.40832499 12:-0.66384602 15:-0.21397699 25:-0.259592 28:-0.18276601 34:-0.1311 36:-0.22950201 38:-0.063603997 50:-0.615345 51:-0.150841 52:-0.28094199 57:-0.288394 #
-0.5 5:-0.48666501 6:-0.35563499 10:-0.40832499 12:-0.66384602 15:-0.21397699 25:-0.259592 28:-0.18276601 34:-0.1311 36:-0.22950201 38:-0.063603997 50:-0.615345 51:-0.150841 52:-0.459032 57:-0.39923999 #
-0.5 5:-0.48666501 6:-0.35563499 10:-0.40832499 12:-0.66384602 15:-0.21397699 25:-0.259592 28:-0.18276601 34:-0.1311 36:-0.22950201 38:-0.063603997 50:-0.615345 51:-0.150841 52:-0.459032 57:-0.41721499 #
-0.5 5:-0.48666501 6:-0.35563499 10:-0.40832499 12:0.096129999 15:-0.21397699 25:-0.259592 28:-0.18276601 34:-0.1311 36:-0.22950201 38:-0.063603997 50:0.28291199 51:-0.150841 52:-0.459032 57:-0.32584199 #
0.5 5:0.13668001 6:-0.35563499 10:-0.40832499 12:-0.100416 15:-0.21397699 25:-0.259592 28:-0.18276601 34:-0.1311 36:-0.22950201 38:-0.063603997 50:0.098405004 51:-0.150841 52:0.62422699 57:-0.11164 #
-0.5 5:4.6160698 6:3.4914579 10:6.855814 12:-0.66384602 15:-0.21397699 25:-0.259592 28:-0.18276601 34:-0.1311 36:-0.22950201 38:-0.063603997 50:0.31690001 51:-0.150841 52:-0.459032 57:-0.42320701 #
0.5 5:0.165673 6:1.124016 10:-0.40832499 12:-0.074210003 15:-0.21397699 25:-0.259592 28:-0.18276601 34:-0.1311 36:-0.22950201 38:-0.063603997 50:-0.615345 51:-0.150841 52:-0.35306099 57:0.21490601 #
0.5 5:0.44110501 6:-0.35563499 10:-0.40832499 12:0.174748 15:-0.21397699 25:-0.259592 28:-0.18276601 34:-0.1311 36:-0.22950201 38:-0.063603997 50:1.657002 51:-0.150841 52:-0.322153 57:-0.24195901 #
-0.5 5:-0.066269003 6:-0.35563499 10:-0.40832499 12:-0.283858 15:0.41882399 25:0.192176 28:-0.18276601 34:-0.1311 36:-0.22950201 38:-0.063603997 50:0.127538 51:0.59387898 52:-0.459032 57:0.58339399 #
0.5 5:-0.0082839997 6:-0.35563499 10:-0.40832499 12:0.20095401 15:-0.21397699 25:-0.259592 28:-0.18276601 34:-0.1311 36:-0.22950201 38:-0.063603997 50:-0.358006 51:-0.150841 52:0.39903799 57:0.044144001 #
0.5 5:1.905242 6:-0.35563499 10:-0.40832499 12:1.498155 15:-0.21397699 25:-0.259592 28:-0.18276601 34:-0.1311 36:-0.22950201 38:-0.063603997 50:1.399663 51:-0.150841 52:-0.459032 57:-0.340821 #
0.5 5:0.68754399 6:-0.35563499 10:0.20990001 12:-0.66384602 15:-0.21397699 25:-0.259592 28:-0.18276601 34:-0.1311 36:-0.22950201 38:-0.063603997 50:0.57909399 51:0.50753498 52:-0.459032 57:0.0081940005 #
-0.5 5:3.6448109 6:-0.35563499 10:-0.40832499 12:-0.66384602 15:-0.21397699 25:-0.259592 28:-0.18276601 34:-0.1311 36:8.7440062 38:-0.063603997 50:-0.615345 51:-0.150841 52:-0.459032 57:-0.38725701 #
0.5 5:-0.48666501 6:-0.35563499 10:-0.40832499 12:-0.66384602 15:-0.21397699 25:-0.259592 28:-0.18276601 34:-0.1311 36:-0.22950201 38:-0.063603997 50:1.904629 51:-0.150841 52:-0.459032 57:-0.31835201 #
0.5 5:-0.48666501 6:-0.35563499 10:-0.40832499 12:-0.66384602 15:-0.21397699 25:-0.259592 28:4.6098852 34:-0.1311 36:-0.22950201 38:-0.063603997 50:1.234578 51:-0.150841 52:-0.459032 57:-0.35280401 #
-0.5 5:-0.48666501 6:-0.35563499 10:4.2747259 12:-0.66384602 15:-0.21397699 25:-0.259592 28:-0.18276601 34:-0.1311 36:-0.22950201 38:-0.063603997 50:-0.615345 51:-0.150841 52:-0.459032 57:-0.39025199 #
-0.5 5:-0.48666501 6:-0.35563499 10:-0.40832499 12:-0.66384602 15:-0.21397699 25:-0.259592 28:-0.18276601 34:-0.1311 36:-0.22950201 38:-0.063603997 50:1.011228 51:-0.150841 52:-0.459032 57:-0.35280401 #
-0.5 5:-0.48666501 6:-0.35563499 10:-0.40832499 12:-0.66384602 15:-0.21397699 25:-0.259592 28:-0.18276601 34:-0.1311 36:-0.22950201 38:-0.063603997 50:0.132393 51:-0.150841 52:0.678684 57:-0.418713 #
0.5 5:-0.211233 6:-0.35563499 10:-0.40832499 12:-0.15282799 15:-0.21397699 25:-0.259592 28:-0.18276601 34:-0.1311 36:-0.22950201 38:-0.063603997 50:0.0061519998 51:-0.150841 52:-0.22354101 57:0.64930201 #
-0.5 5:-0.48666501 6:4.3134861 10:-0.40832499 12:-0.66384602 15:-0.21397699 25:-0.259592 28:-0.18276601 34:-0.1311 36:-0.22950201 38:-0.063603997 50:0.68105799 51:-0.150841 52:-0.459032 57:-0.418713 #
-0.5 5:-0.48666501 6:-0.35563499 10:-0.40832499 12:-0.66384602 15:-0.21397699 25:-0.259592 28:-0.18276601 34:-0.1311 36:-0.22950201 38:-0.063603997 50:-0.615345 51:-0.150841 52:-0.459032 57:-0.330336 #
-0.5 5:-0.48666501 6:-0.35563499 10:-0.40832499 12:-0.66384602 15:-0.21397699 25:-0.259592 28:-0.18276601 34:-0.1311 36:-0.22950201 38:-0.063603997 50:0.31204399 51:-0.150841 52:-0.459032 57:-0.36778399 #
0.5 5:0.48459399 6:-0.35563499 10:-0.40832499 12:-0.087312996 15:-0.21397699 25:-0.259592 28:-0.18276601 34:-0.1311 36:-0.22950201 38:-0.063603997 50:-0.615345 51:-0.150841 52:-0.010127 57:-0.20001701 #
-0.5 5:-0.48666501 6:3.064003 10:0.395367 12:1.3933311 15:-0.21397699 25:-0.259592 28:-0.18276601 34:-0.1311 36:-0.22950201 38:-0.063603997 50:-0.615345 51:-0.150841 52:-0.32656801 57:-0.37826899 #
0.5 5:-0.48666501 6:-0.35563499 10:5.4184418 12:-0.66384602 15:-0.21397699 25:-0.259592 28:-0.18276601 34:-0.1311 36:-0.22950201 38:-0.063603997 50:-0.615345 51:-0.150841 52:-0.459032 57:-0.32734001 #
0.5 5:-0.48666501 6:-0.35563499 10:6.1603112 12:-0.66384602 15:-0.21397699 25:-0.259592 28:-0.18276601 34:-0.1311 36:-0.22950201 38:-0.063603997 50:-0.615345 51:-0.150841 52:-0.459032 57:-0.32734001 #
-0.5 5:-0.48666501 6:-0.35563499 10:-0.40832499 12:-0.66384602 15:-0.21397699 25:-0.259592 28:-0.18276601 34:-0.1311 36:-0.22950201 38:-0.063603997 50:-0.615345 51:-0.150841 52:-0.459032 57:-0.42021099 #
0.5 5:-0.48666501 6:-0.35563499 10:3.671957 12:1.642289 15:-0.21397699 25:-0.259592 28:-0.18276601 34:-0.1311 36:-0.22950201 38:-0.063603997 50:0.506262 51:-0.150841 52:-0.459032 57:-0.050225001 #
-0.5 5:-0.48666501 6:-0.35563499 10:5.773921 12:-0.66384602 15:-0.21397699 25:-0.259592 28:-0.18276601 34:-0.1311 36:-0.22950201 38:-0.063603997 50:-0.615345 51:-0.150841 52:-0.459032 57:-0.43069601 #
0.5 5:-0.48666501 6:-0.35563499 10:-0.40832499 12:1.026446 15:-0.21397699 25:-0.259592 28:-0.18276601 34:-0.1311 36:-0.22950201 38:-0.063603997 50:-0.43569401 51:-0.150841 52:-0.459032 57:-0.27940699 #
0.5 5:0.55707598 6:-0.35563499 10:-0.40832499 12:-0.034899998 15:-0.21397699 25:-0.259592 28:-0.18276601 34:-0.1311 36:-0.22950201 38:-0.063603997 50:-0.615345 51:-0.150841 52:0.023724001 57:-0.232971 #
0.5 5:0.78901899 6:-0.35563499 10:-0.40832499 12:-0.087312996 15:-0.21397699 25:0.083127998 28:-0.18276601 34:-0.1311 36:-0.22950201 38:-0.063603997 50:-0.265753 51:-0.150841 52:-0.030733 57:-0.35729799 #
-0.5 5:-0.48666501 6:-0.35563499 10:-0.40832499 12:-0.66384602 15:-0.21397699 25:-0.259592 28:-0.18276601 34:-0.1311 36:-0.22950201 38:-0.063603997 50:0.49655101 51:-0.150841 52:-0.29124501 57:-0.047228999 #
-0.5 5:8.5735893 6:-0.35563499 10:-0.40832499 12:-0.66384602 15:-0.21397699 25:-0.259592 28:-0.18276601 34:-0.1311 36:-0.22950201 38:-0.063603997 50:-0.615345 51:-0.150841 52:-0.459032 57:-0.439684 #
0.5 5:1.557328 6:-0.35563499 10:0.31808901 12:0.56783903 15:-0.21397699 25:-0.259592 28:-0.18276601 34:-0.1311 36:-0.22950201 38:-0.063603997 50:-0.615345 51:-0.150841 52:-0.129345 57:-0.36329001 #
0.5 5:0.54258001 6:-0.35563499 10:-0.40832499 12:-0.66384602 15:-0.21397699 25:-0.259592 28:-0.18276601 34:-0.1311 36:-0.22950201 38:-0.063603997 50:-0.615345 51:2.612179 52:-0.270639 57:-0.28689599 #
0.5 5:1.006465 6:-0.35563499 10:0.37991101 12:0.68576699 15:-0.21397699 25:-0.259592 28:-0.18276601 34:-0.1311 36:-0.22950201 38:-0.063603997 50:0.63250399 51:-0.150841 52:0.424059 57:-0.361792 #
-0.5 5:2.7315371 6:-0.35563499 10:-0.40832499 12:-0.66384602 15:-0.21397699 25:-0.259592 28:-0.18276601 34:-0.1311 36:2.100461 38:-0.063603997 50:-0.17835499 51:-0.150841 52:-0.459032 57:-0.38725701 #
0.5 5:0.122184 6:-0.092586003 10:-0.28468001 12:0.122336 15:-0.21397699 25:-0.259592 28:-0.18276601 34:-0.1311 36:-0.22950201 38:-0.063603997 50:-0.207488 51:0.151365 52:-0.314794 57:0.41712499 #
0.5 5:-0.28371501 6:0.104701 10:-0.40832499 12:-0.100416 15:-0.21397699 25:-0.259592 28:-0.18276601 34:-0.1311 36:1.565199 38:-0.063603997 50:-0.615345 51:-0.150841 52:-0.22942799 57:-0.206009 #
-0.5 5:-0.48666501 6:-0.35563499 10:-0.40832499 12:-0.66384602 15:-0.21397699 25:-0.259592 28:-0.18276601 34:-0.1311 36:-0.22950201 38:-0.063603997 50:-0.615345 51:-0.150841 52:-0.459032 57:-0.426202 #
0.5 5:-0.48666501 6:-0.35563499 10:5.4184418 12:-0.66384602 15:-0.21397699 25:-0.259592 28:-0.18276601 34:-0.1311 36:-0.22950201 38:-0.063603997 50:-0.615345 51:-0.150841 52:-0.459032 57:-0.32734001 #
-0.5 5:0.28164399 6:-0.35563499 10:1.2454261 12:-0.66384602 15:-0.21397699 25:-0.259592 28:-0.18276601 34:-0.1311 36:-0.22950201 38:-0.063603997 50:0.81215501 51:-0.150841 52:0.081124999 57:-0.343817 #
-0.5 5:-0.26921901 6:-0.35563499 10:-0.40832499 12:1.1443731 15:-0.21397699 25:-0.259592 28:-0.18276601 34:-0.1311 36:-0.22950201 38:-0.063603997 50:-0.163789 51:-0.150841 52:-0.35747701 57:0.044144001 #
-0.5 5:-0.48666501 6:-0.35563499 10:-0.40832499 12:-0.66384602 15:-0.21397699 25:-0.259592 28:-0.18276601 34:-0.1311 36:-0.22950201 38:-0.063603997 50:1.992027 51:-0.150841 52:1.123173 57:-0.426202 #
0.5 5:0.93398303 6:-0.35563499 10:1.106325 12:0.62025201 15:-0.21397699 25:0.50374001 28:-0.18276601 34:-0.1311 36:-0.22950201 38:-0.063603997 50:-0.615345 51:-0.150841 52:-0.049865998 57:-0.3558 #
-0.5 5:0.36862299 6:3.55722 10:-0.40832499 12:-0.66384602 15:-0.21397699 25:0.199965 28:-0.18276601 34:2.0447519 36:-0.22950201 38:-0.063603997 50:0.899553 51:-0.150841 52:0.00017499999 57:-0.32434401 #
0.5 5:0.064198002 6:0.893848 10:-0.40832499 12:-0.165931 15:-0.21397699 25:-0.259592 28:-0.18276601 34:-0.1311 36:-0.22950201 38:-0.063603997 50:0.33632201 51:-0.150841 52:-0.074887 57:-0.036743999 #
0.5 5:-0.48666501 6:-0.35563499 10:-0.40832499 12:-0.66384602 15:-0.21397699 25:-0.259592 28:-0.18276601 34:-0.1311 36:-0.22950201 38:-0.063603997 50:1.535616 51:-0.150841 52:-0.13376001 57:-0.35280401 #
-0.5 5:-0.48666501 6:-0.35563499 10:-0.40832499 12:-0.66384602 15:-0.21397699 25:-0.259592 28:-0.18276601 34:-0.1311 36:-0.22950201 38:-0.063603997 50:3.5700459 51:-0.150841 52:0.80967599 57:-0.439684 #
0.5 5:0.035206001 6:-0.35563499 10:-0.40832499 12:0.292676 15:-0.21397699 25:-0.259592 28:-0.18276601 34:-0.1311 36:-0.22950201 38:-0.063603997 50:-0.615345 51:-0.150841 52:0.42994601 57:0.089080997 #
0.5 5:0.38311899 6:-0.35563499 10:-0.40832499 12:-0.66384602 15:-0.21397699 25:-0.259592 28:-0.18276601 34:-0.1311 36:-0.22950201 38:-0.063603997 50:1.385097 51:-0.150841 52:0.45202401 57:-0.056217 #
-0.5 5:-0.48666501 6:-0.35563499 10:-0.40832499 12:-0.66384602 15:-0.21397699 25:-0.259592 28:-0.18276601 34:-0.1311 36:-0.22950201 38:-0.063603997 50:-0.615345 51:-0.150841 52:-0.459032 57:-0.429198 #
-0.5 5:-0.48666501 6:-0.35563499 10:-0.40832499 12:7.0407419 15:-0.21397699 25:-0.259592 28:-0.18276601 34:-0.1311 36:-0.22950201 38:-0.063603997 50:-0.615345 51:-0.150841 52:1.157025 57:-0.421709 #
0.5 5:-0.48666501 6:-0.35563499 10:0.163533 12:0.31888199 15:-0.21397699 25:-0.259592 28:-0.18276601 34:-0.1311 36:-0.22950201 38:-0.063603997 50:-0.615345 51:-0.150841 52:-0.102852 57:0.316764 #
0.5 5:-0.48666501 6:-0.35563499 10:-0.40832499 12:2.5595019 15:-0.21397699 25:-0.259592 28:-0.18276601 34:-0.1311 36:-0.22950201 38:-0.063603997 50:-0.615345 51:-0.150841 52:0.78171098 57:-0.28539801 #
-0.5 5:-0.48666501 6:-0.35563499 10:-0.40832499 12:-0.66384602 15:-0.21397699 25:-0.259592 28:-0.18276601 34:-0.1311 36:-0.22950201 38:-0.063603997 50:0.030429 51:-0.150841 52:-0.459032 57:-0.39923999 #
0.5 5:-0.48666501 6:-0.35563499 10:0.117166 12:-0.218343 15:-0.21397699 25:-0.259592 28:-0.18276601 34:-0.1311 36:-0.22950201 38:-0.063603997 50:1.2928441 51:-0.150841 52:-0.127873 57:-0.207507 #
0.5 5:1.209414 6:-0.35563499 10:-0.40832499 12:-0.15282799 15:-0.21397699 25:-0.259592 28:-0.18276601 34:-0.1311 36:-0.22950201 38:-0.063603997 50:-0.615345 51:-0.150841 52:-0.459032 57:-0.11164 #
-0.5 5:-0.48666501 6:-0.35563499 10:2.620976 12:-0.66384602 15:-0.21397699 25:-0.259592 28:3.8661981 34:-0.1311 36:-0.22950201 38:-0.063603997 50:1.195735 51:-0.150841 52:-0.459032 57:-0.40523201 #
-0.011455882255700794436492628847191 5:-0.48666501 6:-0.35563499 10:-0.40832499 12:-0.66384602 15:1.251456 25:0.083127998 28:1.635136 34:-0.1311 36:-0.22950201 38:-0.063603997 50:-0.037547 51:-0.150841 52:-0.459032 57:-0.28689599 #
0.5 5:-0.48666501 6:-0.35563499 10:-0.40832499 12:0.62025201 15:-0.21397699 25:-0.259592 28:-0.18276601 34:-0.1311 36:-0.22950201 38:-0.063603997 50:1.758966 51:-0.150841 52:0.020780999 57:-0.37527299 #
0.5 5:-0.48666501 6:-0.35563499 10:-0.40832499 12:-0.66384602 15:-0.21397699 25:-0.259592 28:-0.18276601 34:-0.1311 36:-0.22950201 38:-0.063603997 50:2.9242721 51:-0.150841 52:0.61392403 57:-0.40972501 #
0.5 5:-0.48666501 6:-0.35563499 10:-0.40832499 12:-0.66384602 15:-0.21397699 25:-0.259592 28:-0.18276601 34:-0.1311 36:3.0765271 38:-0.063603997 50:0.20522501 51:-0.150841 52:-0.459032 57:-0.316854 #
-0.5 5:-0.48666501 6:-0.35563499 10:-0.40832499 12:-0.66384602 15:-0.21397699 25:-0.259592 28:-0.18276601 34:-0.1311 36:-0.22950201 38:-0.063603997 50:-0.615345 51:-0.150841 52:1.819344 57:-0.35729799 #
-0.5 5:-0.48666501 6:-0.35563499 10:-0.40832499 12:-0.66384602 15:-0.21397699 25:-0.259592 28:-0.18276601 34:-0.1311 36:-0.22950201 38:-0.063603997 50:-0.615345 51:-0.150841 52:-0.459032 57:-0.41721499 #
0.5 5:-0.153248 6:-0.35563499 10:-0.40832499 12:0.55473602 15:-0.21397699 25:-0.259592 28:0.54026401 34:-0.1311 36:1.5966851 38:0.39481699 50:1.234578 51:-0.150841 52:-0.43548301 57:0.31077299 #
0.5 5:-0.48666501 6:-0.35563499 10:-0.40832499 12:-0.66384602 15:-0.21397699 25:-0.259592 28:-0.18276601 34:-0.1311 36:-0.22950201 38:-0.063603997 50:0.064416997 51:-0.150841 52:0.366658 57:-0.34681299 #
-0.5 5:0.54258001 6:-0.35563499 10:-0.40832499 12:1.209888 15:-0.21397699 25:-0.259592 28:-0.18276601 34:-0.1311 36:-0.22950201 38:-0.063603997 50:-0.0084149996 51:0.51832801 52:-0.459032 57:-0.316854 #
-0.5 5:-0.48666501 6:-0.35563499 10:-0.40832499 12:-0.66384602 15:-0.21397699 25:-0.259592 28:-0.18276601 34:-0.1311 36:-0.22950201 38:-0.063603997 50:-0.615345 51:-0.150841 52:4.339098 57:-0.43668801 #
0.5 5:-0.48666501 6:-0.35563499 10:-0.40832499 12:-0.66384602 15:-0.21397699 25:-0.259592 28:-0.18276601 34:-0.1311 36:-0.22950201 38:-0.063603997 50:1.08406 51:-0.150841 52:-0.459032 57:-0.32434401 #
0.5 5:-0.48666501 6:-0.35563499 10:-0.40832499 12:-0.66384602 15:-0.21397699 25:-0.259592 28:-0.18276601 34:-0.1311 36:-0.22950201 38:-0.063603997 50:-0.615345 51:-0.150841 52:-0.459032 57:-0.439684 #
-0.5 5:-0.48666501 6:-0.35563499 10:-0.40832499 12:-0.66384602 15:-0.21397699 25:-0.259592 28:-0.18276601 34:-0.1311 36:-0.22950201 38:-0.063603997 50:-0.615345 51:-0.150841 52:0.39167899 57:-0.39324799 #
0.5 5:-0.48666501 6:-0.35563499 10:-0.40832499 12:-0.66384602 15:-0.21397699 25:-0.259592 28:-0.18276601 34:-0.1311 36:-0.22950201 38:-0.063603997 50:0.200369 51:-0.150841 52:1.028977 57:-0.36628601 #
0.5 5:0.397616 6:0.630799 10:0.055344 12:-0.27075499 15:-0.21397699 25:-0.259592 28:-0.18276601 34:-0.1311 36:-0.22950201 38:-0.063603997 50:-0.158933 51:-0.150841 52:-0.459032 57:-0.126619 #
0.5 5:-0.48666501 6:-0.35563499 10:-0.40832499 12:-0.66384602 15:-0.21397699 25:-0.259592 28:-0.18276601 34:-0.1311 36:-0.22950201 38:-0.063603997 50:0.069271997 51:-0.150841 52:0.375489 57:-0.31385899 #
0.5 5:-0.48666501 6:-0.35563499 10:1.86365 12:1.262301 15:-0.21397699 25:-0.259592 28:-0.18276601 34:-0.1311 36:-0.22950201 38:-0.063603997 50:-0.615345 51:-0.150841 52:0.27687699 57:-0.418713 #
-0.5 5:-0.48666501 6:-0.35563499 10:-0.40832499 12:-0.66384602 15:-0.21397699 25:-0.259592 28:-0.18276601 34:-0.1311 36:-0.22950201 38:-0.063603997 50:-0.615345 51:-0.150841 52:0.47115701 57:-0.43818599 #
-0.5 5:-0.31270799 6:-0.289873 10:-0.222858 12:-0.27075499 15:-0.21397699 25:-0.259592 28:-0.18276601 34:-0.1311 36:0.242788 38:-0.063603997 50:0.47713 51:-0.075289004 52:-0.436955 57:3.2377031 #
-0.5 5:0.22365899 6:-0.35563499 10:-0.40832499 12:0.63335502 15:-0.21397699 25:-0.259592 28:-0.18276601 34:-0.1311 36:-0.22950201 38:-0.063603997 50:-0.615345 51:-0.150841 52:-0.32509699 57:-0.36778399 #
-0.5 5:-0.48666501 6:2.2748561 10:-0.40832499 12:-0.66384602 15:-0.21397699 25:-0.259592 28:-0.18276601 34:-0.1311 36:-0.22950201 38:-0.063603997 50:0.81215501 51:-0.150841 52:-0.459032 57:-0.42320701 #
-0.5 5:-0.48666501 6:-0.35563499 10:2.450964 12:1.760216 15:-0.21397699 25:-0.259592 28:-0.18276601 34:-0.1311 36:-0.22950201 38:-0.063603997 50:-0.615345 51:-0.150841 52:0.55946702 57:-0.41571701 #
-0.5 5:-0.48666501 6:-0.35563499 10:-0.40832499 12:-0.66384602 15:-0.21397699 25:-0.259592 28:-0.18276601 34:-0.1311 36:-0.22950201 38:-0.063603997 50:5.9055138 51:-0.150841 52:-0.459032 57:0.030662 #
0.5 5:-0.48666501 6:-0.35563499 10:1.013592 12:0.54163301 15:-0.21397699 25:-0.259592 28:-0.18276601 34:0.97526598 36:-0.22950201 38:-0.063603997 50:-0.12980101 51:-0.150841 52:1.090793 57:0.009691 #
-0.5 5:-0.48666501 6:-0.35563499 10:-0.40832499 12:1.6684951 15:-0.21397699 25:-0.259592 28:-0.18276601 34:-0.1311 36:5.3750048 38:-0.063603997 50:-0.615345 51:-0.150841 52:0.40345401 57:-0.418713 #
0.5 5:-0.48666501 6:-0.35563499 10:-0.40832499 12:-0.66384602 15:-0.21397699 25:-0.259592 28:1.759084 34:-0.1311 36:-0.22950201 38:-0.063603997 50:0.99666202 51:-0.150841 52:-0.459032 57:-0.203013 #
0.5 5:-0.48666501 6:-0.35563499 10:-0.40832499 12:-0.66384602 15:-0.21397699 25:-0.259592 28:-0.18276601 34:-0.1311 36:3.0765271 38:-0.063603997 50:0.244068 51:-0.150841 52:-0.459032 57:-0.316854 #
-0.5 5:0.47009799 6:-0.35563499 10:-0.40832499 12:0.20095401 15:-0.21397699 25:-0.259592 28:-0.18276601 34:-0.1311 36:-0.22950201 38:-0.063603997 50:-0.38713899 51:0.097398996 52:-0.459032 57:-0.084677003 #
-0.5 5:1.194918 6:-0.35563499 10:1.384526 12:2.3760591 15:-0.21397699 25:0.64394403 28:4.6098852 34:-0.1311 36:3.422873 38:-0.063603997 50:1.278277 51:-0.150841 52:-0.459032 57:-0.297382 #
-0.5 5:-0.48666501 6:-0.35563499 10:-0.40832499 12:-0.66384602 15:-0.21397699 25:-0.259592 28:-0.18276601 34:-0.1311 36:-0.22950201 38:-0.063603997 50:-0.615345 51:-0.150841 52:-0.459032 57:-0.418713 #
-0.5 5:-0.48666501 6:-0.35563499 10:-0.40832499 12:-0.66384602 15:-0.21397699 25:-0.259592 28:-0.18276601 34:-0.1311 36:-0.22950201 38:-0.063603997 50:4.5605559 51:-0.150841 52:-0.14553501 57:-0.39025199 #
-0.5 5:0.87599701 6:-0.35563499 10:-0.40832499 12:-0.66384602 15:-0.21397699 25:-0.259592 28:-0.18276601 34:-0.1311 36:-0.22950201 38:-0.063603997 50:-0.615345 51:-0.150841 52:0.65366298 57:-0.41122299 #
0.5 5:0.97747201 6:-0.35563499 10:-0.40832499 12:-0.66384602 15:-0.21397699 25:-0.259592 28:-0.18276601 34:-0.1311 36:-0.22950201 38:-0.063603997 50:-0.18806601 51:-0.150841 52:-0.459032 57:-0.122125 #
-0.5 5:-0.48666501 6:-0.35563499 10:-0.40832499 12:-0.66384602 15:-0.21397699 25:-0.259592 28:-0.18276601 34:-0.1311 36:4.745285 38:-0.063603997 50:-0.615345 51:-0.150841 52:-0.459032 57:-0.382763 #
-0.5 5:-0.48666501 6:-0.35563499 10:3.1001 12:-0.66384602 15:-0.21397699 25:-0.259592 28:-0.18276601 34:-0.1311 36:-0.22950201 38:-0.063603997 50:-0.615345 51:-0.150841 52:-0.459032 57:-0.426202 #
-0.5 5:0.36862299 6:-0.35563499 10:-0.40832499 12:0.109233 15:-0.21397699 25:-0.259592 28:-0.18276601 34:-0.1311 36:-0.22950201 38:-0.063603997 50:-0.105524 51:-0.150841 52:-0.459032 57:-0.38126501 #
0.5 5:-0.48666501 6:-0.35563499 10:0.0089769997 12:-0.31006399 15:-0.21397699 25:-0.259592 28:-0.18276601 34:-0.1311 36:-0.22950201 38:-0.063603997 50:0.49655101 51:-0.150841 52:0.21506099 57:0.421619 #
-0.5 5:-0.48666501 6:-0.35563499 10:-0.28468001 12:-0.44109499 15:-0.21397699 25:0.083127998 28:-0.18276601 34:-0.1311 36:-0.16653 38:-0.063603997 50:0.21008 51:-0.150841 52:-0.27358299 57:2.5741251 #
0.5 5:-0.48666501 6:-0.35563499 10:-0.40832499 12:-0.66384602 15:-0.21397699 25:-0.259592 28:-0.18276601 34:-0.1311 36:-0.22950201 38:-0.063603997 50:0.064416997 51:-0.150841 52:-0.459032 57:-0.351307 #
0.5 5:-0.109759 6:-0.35563499 10:-0.40832499 12:-0.66384602 15:-0.21397699 25:-0.259592 28:-0.18276601 34:-0.1311 36:0.58913398 38:-0.063603997 50:2.73491 51:-0.150841 52:0.022252999 57:0.403644 #
-0.5 5:-0.48666501 6:-0.35563499 10:-0.40832499 12:-0.66384602 15:-0.21397699 25:-0.259592 28:-0.18276601 34:-0.1311 36:-0.22950201 38:-0.063603997 50:-0.615345 51:-0.150841 52:-0.459032 57:-0.382763 #
0.5 5:1.209414 6:-0.35563499 10:3.2237439 12:0.86920899 15:-0.21397699 25:-0.259592 28:-0.18276601 34:-0.1311 36:-0.22950201 38:-0.063603997 50:-0.615345 51:-0.150841 52:-0.459032 57:-0.38126501 #
-0.5 5:1.0499541 6:-0.35563499 10:1.22997 12:0.72507602 15:-0.21397699 25:-0.259592 28:-0.18276601 34:-0.1311 36:-0.22950201 38:-0.063603997 50:-0.615345 51:-0.150841 52:-0.459032 57:-0.40673 #
-0.5 5:1.1514291 6:-0.35563499 10:0.75084603 12:0.81679702 15:-0.21397699 25:-0.259592 28:-0.18276601 34:-0.1311 36:-0.22950201 38:-0.063603997 50:-0.615345 51:-0.150841 52:-0.459032 57:-0.379767 #
-0.5 5:-0.39968699 6:-0.25699201 10:-0.40832499 12:-0.545919 15:-0.21397699 25:0.83088201 28:-0.18276601 34:-0.1311 36:-0.13504399 38:0.061420001 50:0.525684 51:1.8027 52:-0.459032 57:3.5822239 #
-0.5 5:2.470602 6:-0.35563499 10:-0.40832499 12:0.67266399 15:-0.21397699 25:-0.259592 28:-0.18276601 34:-0.1311 36:-0.22950201 38:-0.063603997 50:-0.615345 51:-0.150841 52:-0.459032 57:-0.40972501 #
0.5 5:0.499091 6:-0.35563499 10:2.3891411 12:0.22716001 15:-0.21397699 25:-0.259592 28:-0.18276601 34:-0.1311 36:-0.22950201 38:-0.063603997 50:2.093992 51:1.565253 52:-0.16614 57:0.34971899 #
-0.5 5:-0.48666501 6:-0.35563499 10:-0.40832499 12:0.331985 15:-0.21397699 25:-0.259592 28:-0.18276601 34:-0.1311 36:-0.22950201 38:-0.063603997 50:0.030429 51:-0.150841 52:-0.067528002 57:-0.40972501 #
0.5 5:0.77452201 6:-0.35563499 10:-0.40832499 12:1.616083 15:-0.21397699 25:-0.259592 28:-0.18276601 34:-0.1311 36:-0.22950201 38:-0.063603997 50:-0.615345 51:-0.150841 52:-0.459032 57:-0.37527299 #
0.5 5:1.2674 6:-0.35563499 10:0.51901197 12:-0.66384602 15:-0.21397699 25:-0.259592 28:-0.18276601 34:-0.1311 36:-0.22950201 38:-0.063603997 50:0.79273301 51:-0.150841 52:-0.174971 57:-0.343817 #
-0.5 5:-0.356197 6:-0.35563499 10:-0.40832499 12:-0.66384602 15:-0.21397699 25:-0.259592 28:-0.18276601 34:-0.1311 36:-0.22950201 38:-0.063603997 50:-0.052113999 51:-0.150841 52:-0.18233 57:0.00070400001 #
-0.5 5:-0.48666501 6:-0.35563499 10:1.86365 12:-0.66384602 15:-0.21397699 25:-0.259592 28:-0.18276601 34:-0.1311 36:-0.22950201 38:-0.063603997 50:-0.615345 51:-0.150841 52:-0.459032 57:-0.361792 #
0.15302447144168188075674663650716 5:-0.037276 6:-0.35563499 10:-0.17649101 12:-0.66384602 15:-0.21397699 25:0.480373 28:-0.18276601 34:-0.1311 36:-0.22950201 38:-0.063603997 50:-0.18806601 51:-0.150841 52:0.80967599 57:1.245473 #
0.5 5:-0.48666501 6:-0.35563499 10:1.894562 12:1.288507 15:-0.21397699 25:-0.259592 28:-0.18276601 34:-0.1311 36:-0.22950201 38:-0.063603997 50:-0.615345 51:-0.150841 52:-0.459032 57:-0.39175001 #
-0.5 5:1.0499541 6:-0.35563499 10:-0.40832499 12:2.1139979 15:-0.21397699 25:-0.259592 28:-0.18276601 34:-0.1311 36:-0.22950201 38:-0.063603997 50:-0.615345 51:-0.150841 52:-0.459032 57:-0.40523201 #
0.5 5:0.33963001 6:-0.35563499 10:0.47264501 12:0.083026998 15:-0.21397699 25:0.184387 28:-0.18276601 34:-0.1311 36:-0.22950201 38:-0.063603997 50:-0.615345 51:-0.150841 52:-0.35306099 57:-0.0052880002 #
-0.5 5:-0.48666501 6:-0.35563499 10:3.347389 12:2.5201931 15:-0.21397699 25:-0.259592 28:-0.18276601 34:-0.1311 36:-0.22950201 38:-0.063603997 50:-0.615345 51:-0.150841 52:-0.459032 57:-0.364788 #
-0.5 5:0.33963001 6:-0.35563499 10:-0.40832499 12:-0.29696101 15:-0.21397699 25:-0.259592 28:-0.18276601 34:-0.1311 36:-0.22950201 38:-0.063603997 50:0.132393 51:-0.150841 52:-0.0057120002 57:-0.36329001 #
0.5 5:-0.48666501 6:-0.35563499 10:-0.40832499 12:1.052652 15:-0.21397699 25:-0.259592 28:-0.18276601 34:-0.1311 36:-0.22950201 38:-0.063603997 50:-0.615345 51:-0.150841 52:-0.459032 57:-0.36329001 #
-0.5 5:-0.48666501 6:-0.35563499 10:0.25626701 12:-0.66384602 15:-0.21397699 25:-0.259592 28:-0.18276601 34:-0.1311 36:-0.22950201 38:-0.063603997 50:0.39458701 51:-0.010531 52:-0.41929299 57:1.525583 #
-0.5 5:-0.48666501 6:-0.35563499 10:-0.40832499 12:-0.66384602 15:-0.21397699 25:-0.259592 28:-0.18276601 34:-0.1311 36:-0.22950201 38:-0.063603997 50:0.176092 51:-0.150841 52:0.26215899 57:-0.39324799 #
-0.5 5:-0.48666501 6:-0.35563499 10:-0.40832499 12:-0.66384602 15:-0.21397699 25:-0.259592 28:-0.18276601 34:-0.1311 36:-0.22950201 38:-0.063603997 50:-0.615345 51:-0.150841 52:2.0783839 57:-0.43518999 #
0.5 5:-0.109759 6:-0.35563499 10:-0.40832499 12:1.052652 15:-0.21397699 25:-0.259592 28:-0.18276601 34:-0.1311 36:1.407769 38:-0.063603997 50:-0.43083799 51:-0.150841 52:-0.34570199 57:-0.188034 #
0.29030747836638493009076000817004 5:-0.037276 6:-0.35563499 10:-0.17649101 12:-0.66384602 15:-0.21397699 25:0.480373 28:-0.18276601 34:-0.1311 36:-0.22950201 38:-0.063603997 50:-0.18806601 51:-0.150841 52:0.80967599 57:1.245473 #
-0.5 5:-0.48666501 6:-0.35563499 10:4.7383952 12:3.699466 15:-0.21397699 25:-0.259592 28:-0.18276601 34:-0.1311 36:-0.22950201 38:-0.063603997 50:-0.615345 51:-0.150841 52:1.242391 57:-0.41272101 #
-0.5 5:-0.48666501 6:-0.35563499 10:-0.40832499 12:-0.66384602 15:-0.21397699 25:-0.259592 28:-0.18276601 34:-0.1311 36:-0.22950201 38:-0.063603997 50:-0.615345 51:-0.150841 52:-0.459032 57:-0.42770001 #
0.5 5:0.44110501 6:-0.35563499 10:1.585449 12:1.878144 15:-0.21397699 25:-0.259592 28:-0.18276601 34:-0.1311 36:-0.22950201 38:-0.063603997 50:-0.615345 51:-0.150841 52:-0.116098 57:-0.40673 #
0.5 5:-0.48666501 6:-0.35563499 10:-0.40832499 12:1.052652 15:-0.21397699 25:-0.259592 28:-0.18276601 34:-0.1311 36:-0.22950201 38:-0.063603997 50:-0.615345 51:-0.150841 52:-0.459032 57:-0.364788 #
0.5 5:-0.48666501 6:-0.35563499 10:-0.40832499 12:-0.66384602 15:-0.21397699 25:-0.259592 28:2.2961919 34:-0.1311 36:-0.22950201 38:-0.063603997 50:0.83643198 51:-0.150841 52:-0.459032 57:-0.28539801 #
0.5 5:-0.022779999 6:-0.35563499 10:-0.40832499 12:0.187851 15:-0.21397699 25:-0.259592 28:-0.18276601 34:-0.1311 36:-0.22950201 38:-0.063603997 50:-0.358006 51:-0.150841 52:0.243025 57:0.023173001 #
0.5 5:-0.138751 6:0.433512 10:-0.40832499 12:2.271235 15:-0.21397699 25:-0.259592 28:-0.18276601 34:-0.1311 36:-0.22950201 38:-0.063603997 50:-0.44540399 51:-0.150841 52:0.0045909998 57:-0.102652 #
-0.5 5:-0.48666501 6:-0.35563499 10:1.2608809 12:3.6077449 15:-0.21397699 25:-0.259592 28:-0.18276601 34:-0.1311 36:-0.22950201 38:-0.063603997 50:-0.615345 51:-0.150841 52:-0.21029501 57:-0.385759 #
-0.5 5:1.368875 6:-0.35563499 10:3.5483119 12:0.174748 15:-0.21397699 25:0.23891 28:-0.18276601 34:-0.1311 36:-0.22950201 38:-0.063603997 50:-0.615345 51:-0.150841 52:-0.459032 57:-0.34980899 #
0.5 5:-0.48666501 6:-0.35563499 10:-0.40832499 12:0.69887 15:-0.21397699 25:-0.259592 28:-0.18276601 34:-0.1311 36:-0.22950201 38:-0.063603997 50:0.57909399 51:-0.150841 52:0.446136 57:-0.225482 #
0.5 5:1.020961 6:-0.35563499 10:-0.40832499 12:-0.218343 15:-0.21397699 25:-0.259592 28:-0.18276601 34:-0.1311 36:-0.22950201 38:-0.063603997 50:-0.105524 51:-0.150841 52:-0.227957 57:-0.231473 #
0.5 5:0.45560101 6:1.781639 10:-0.40832499 12:-0.24454901 15:-0.21397699 25:-0.259592 28:-0.18276601 34:-0.1311 36:-0.22950201 38:-0.063603997 50:-0.105524 51:-0.150841 52:-0.459032 57:-0.235967 #
0.5 5:-0.48666501 6:3.7873881 10:-0.40832499 12:0.98713702 15:-0.21397699 25:-0.259592 28:-0.18276601 34:-0.1311 36:-0.22950201 38:-0.063603997 50:0.34603301 51:-0.150841 52:-0.167612 57:-0.340821 #
-0.5 5:-0.48666501 6:1.288422 10:-0.40832499 12:-0.66384602 15:-0.21397699 25:-0.259592 28:-0.18276601 34:-0.1311 36:-0.22950201 38:-0.063603997 50:-0.615345 51:-0.150841 52:-0.060169 57:-0.38875499 #
-0.5 5:1.731285 6:-0.35563499 10:0.37991101 12:0.0044089998 15:-0.21397699 25:-0.259592 28:-0.18276601 34:-0.1311 36:-0.22950201 38:-0.063603997 50:-0.231765 51:-0.150841 52:-0.459032 57:-0.33183399 #
-0.5 5:0.745529 6:-0.35563499 10:-0.40832499 12:-0.29696101 15:-0.21397699 25:-0.259592 28:-0.18276601 34:-0.1311 36:-0.22950201 38:-0.063603997 50:-0.615345 51:-0.150841 52:-0.043979 57:-0.027756 #
0.5 5:-0.31270799 6:-0.35563499 10:-0.40832499 12:0.59404498 15:-0.21397699 25:-0.259592 28:0.31302601 34:-0.1311 36:1.659657 38:0.436492 50:1.093771 51:-0.150841 52:-0.459032 57:0.312271 #
-0.5 5:-0.48666501 6:-0.35563499 10:-0.40832499 12:4.3677211 15:-0.21397699 25:-0.259592 28:-0.18276601 34:-0.1311 36:-0.22950201 38:-0.063603997 50:2.827163 51:-0.150841 52:0.58448702 57:-0.40972501 #
-0.5 5:-0.48666501 6:-0.35563499 10:3.2392001 12:0.35819101 15:-0.21397699 25:-0.259592 28:-0.18276601 34:-0.1311 36:-0.22950201 38:-0.063603997 50:0.37031001 51:-0.150841 52:-0.060169 57:0.050135002 #
-0.5 5:0.26714799 6:-0.35563499 10:-0.40832499 12:-0.66384602 15:-0.21397699 25:-0.259592 28:-0.18276601 34:-0.1311 36:1.407769 38:-0.063603997 50:-0.066679999 51:-0.150841 52:-0.40457499 57:-0.191029 #
-0.5 5:0.96297598 6:0.46639299 10:-0.40832499 12:-0.33627 15:-0.21397699 25:-0.259592 28:-0.18276601 34:-0.1311 36:-0.22950201 38:-0.063603997 50:-0.615345 51:-0.150841 52:-0.39721599 57:-0.267423 #
-0.5 5:-0.48666501 6:1.6501141 10:-0.40832499 12:0.13543899 15:-0.21397699 25:-0.259592 28:-0.18276601 34:-0.1311 36:-0.22950201 38:-0.063603997 50:-0.615345 51:-0.150841 52:-0.459032 57:-0.39175001 #
-0.5 5:-0.48666501 6:-0.35563499 10:-0.40832499 12:3.699466 15:-0.21397699 25:-0.259592 28:-0.18276601 34:-0.1311 36:-0.22950201 38:-0.063603997 50:-0.615345 51:-0.150841 52:0.477045 57:-0.41721499 #
-0.5 5:-0.48666501 6:-0.35563499 10:2.8682649 12:2.1139979 15:-0.21397699 25:-0.259592 28:-0.18276601 34:-0.1311 36:-0.22950201 38:-0.063603997 50:-0.615345 51:-0.150841 52:-0.459032 57:-0.39175001 #
-0.5 5:-0.48666501 6:2.077569 10:-0.40832499 12:0.30577901 15:-0.21397699 25:-0.259592 28:-0.18276601 34:-0.1311 36:-0.22950201 38:-0.063603997 50:-0.615345 51:-0.150841 52:-0.459032 57:-0.39324799 #
-0.5 5:-0.48666501 6:-0.35563499 10:-0.40832499 12:3.0181079 15:-0.21397699 25:-0.259592 28:-0.18276601 34:-0.1311 36:0.74656397 38:-0.063603997 50:0.180948 51:-0.150841 52:-0.29860401 57:-0.24046101 #
0.5 5:-0.022779999 6:-0.35563499 10:0.58083397 12:1.013343 15:-0.21397699 25:-0.259592 28:-0.18276601 34:-0.1311 36:-0.22950201 38:-0.063603997 50:-0.139512 51:0.37801799 52:0.26510301 57:-0.19552299 #
0.5 5:-0.48666501 6:-0.35563499 10:-0.40832499 12:0.790591 15:-0.21397699 25:-0.259592 28:-0.18276601 34:-0.1311 36:-0.22950201 38:-0.063603997 50:0.054706 51:-0.150841 52:-0.25592101 57:-0.36329001 #
-0.5 5:-0.48666501 6:-0.35563499 10:3.7337799 12:0.214057 15:-0.21397699 25:-0.259592 28:-0.18276601 34:-0.1311 36:-0.22950201 38:-0.063603997 50:-0.071534999 51:-0.150841 52:-0.29418799 57:-0.32134801 #
-0.5 5:-0.095261998 6:-0.35563499 10:-0.40832499 12:-0.31006399 15:0.68526602 25:-0.049286999 28:0.93276501 34:-0.1311 36:-0.22950201 38:-0.063603997 50:-0.047258001 51:-0.150841 52:-0.459032 57:-0.161071 #
0.5 5:-0.124255 6:0.46639299 10:-0.40832499 12:2.297441 15:-0.21397699 25:-0.259592 28:-0.18276601 34:-0.1311 36:-0.22950201 38:-0.063603997 50:-0.45026001 51:-0.150841 52:0.092900001 57:-0.098159 #
0.5 5:-0.48666501 6:-0.35563499 10:-0.40832499 12:1.013343 15:-0.21397699 25:-0.259592 28:-0.18276601 34:-0.1311 36:-0.22950201 38:-0.063603997 50:-0.615345 51:-0.150841 52:-0.459032 57:-0.358796 #
0.5 5:-0.48666501 6:-0.35563499 10:-0.40832499 12:0.86920899 15:-0.21397699 25:-0.259592 28:-0.18276601 34:-0.1311 36:-0.22950201 38:-0.063603997 50:-0.615345 51:-0.150841 52:-0.211767 57:-0.26592499 #
0.5 5:-0.153248 6:-0.35563499 10:-0.40832499 12:-0.66384602 15:-0.21397699 25:-0.259592 28:-0.18276601 34:-0.1311 36:-0.22950201 38:-0.063603997 50:-0.40656099 51:-0.150841 52:-0.201464 57:-0.34531501 #
0.5 5:0.68754399 6:-0.35563499 10:-0.40832499 12:-0.66384602 15:-0.21397699 25:-0.259592 28:-0.18276601 34:-0.1311 36:-0.22950201 38:-0.063603997 50:-0.615345 51:-0.150841 52:-0.076358996 57:-0.161071 #
0.5 5:-0.48666501 6:-0.35563499 10:-0.40832499 12:0.82990003 15:-0.21397699 25:-0.259592 28:-0.18276601 34:-0.1311 36:-0.22950201 38:-0.063603997 50:-0.615345 51:-0.150841 52:-0.459032 57:-0.418713 #
-0.5 5:0.078694999 6:0.92672902 10:-0.40832499 12:-0.66384602 15:-0.21397699 25:-0.259592 28:-0.18276601 34:-0.1311 36:-0.22950201 38:-0.063603997 50:-0.299741 51:0.55070698 52:-0.074887 57:-0.206009 #
-0.5 5:-0.48666501 6:-0.35563499 10:-0.40832499 12:-0.66384602 15:-0.21397699 25:-0.259592 28:-0.18276601 34:-0.1311 36:-0.22950201 38:-0.063603997 50:-0.615345 51:-0.150841 52:-0.459032 57:-0.408227 #
-0.5 5:-0.48666501 6:-0.35563499 10:-0.40832499 12:-0.66384602 15:-0.21397699 25:-0.259592 28:-0.18276601 34:-0.1311 36:-0.22950201 38:-0.063603997 50:-0.615345 51:-0.150841 52:-0.459032 57:-0.418713 #
0.5 5:-0.48666501 6:-0.35563499 10:-0.40832499 12:1.052652 15:-0.21397699 25:-0.259592 28:-0.18276601 34:-0.1311 36:-0.22950201 38:-0.063603997 50:-0.615345 51:-0.150841 52:-0.459032 57:-0.364788 #
-0.5 5:1.035458 6:-0.35563499 10:-0.40832499 12:-0.66384602 15:-0.21397699 25:-0.259592 28:-0.18276601 34:-0.1311 36:-0.22950201 38:-0.063603997 50:-0.265753 51:-0.150841 52:-0.459032 57:-0.361792 #
-0.22778948838982179814216522117931 5:1.122436 6:-0.35563499 10:-0.40832499 12:-0.66384602 15:-0.21397699 25:-0.259592 28:-0.18276601 34:-0.1311 36:-0.22950201 38:4.5622778 50:1.147181 51:-0.150841 52:-0.192633 57:-0.403734 #
-0.5 5:-0.48666501 6:-0.35563499 10:-0.40832499 12:-0.66384602 15:-0.21397699 25:-0.259592 28:-0.18276601 34:-0.1311 36:-0.22950201 38:-0.063603997 50:-0.615345 51:-0.150841 52:0.90240002 57:-0.424705 #
-0.5 5:-0.48666501 6:2.1433311 10:-0.40832499 12:0.331985 15:-0.21397699 25:-0.259592 28:-0.18276601 34:-0.1311 36:-0.22950201 38:-0.063603997 50:0.030429 51:-0.150841 52:-0.459032 57:-0.39474601 #
-0.5 5:-0.48666501 6:1.617233 10:0.51901197 12:0.122336 15:-0.21397699 25:-0.259592 28:-0.18276601 34:-0.1311 36:-0.22950201 38:-0.063603997 50:-0.615345 51:-0.150841 52:-0.32068101 57:-0.31985 #
0.5 5:-0.48666501 6:-0.35563499 10:-0.40832499 12:1.052652 15:-0.21397699 25:-0.259592 28:-0.18276601 34:-0.1311 36:-0.22950201 38:-0.063603997 50:-0.615345 51:-0.150841 52:-0.459032 57:-0.364788 #
0.5 5:-0.48666501 6:-0.35563499 10:-0.40832499 12:-0.66384602 15:-0.21397699 25:-0.259592 28:-0.18276601 34:-0.1311 36:-0.22950201 38:-0.063603997 50:-0.615345 51:-0.150841 52:0.534446 57:-0.400738 #
-0.5 5:-0.48666501 6:-0.35563499 10:-0.40832499 12:1.6684951 15:-0.21397699 25:-0.259592 28:-0.18276601 34:-0.1311 36:-0.22950201 38:-0.063603997 50:-0.615345 51:-0.150841 52:1.2983201 57:-0.400738 #
-0.5 5:1.194918 6:-0.35563499 10:-0.40832499 12:0.85610598 15:-0.21397699 25:-0.259592 28:-0.18276601 34:-0.1311 36:-0.22950201 38:-0.063603997 50:1.171458 51:-0.150841 52:-0.188217 57:-0.36778399 #
0.5 5:-0.48666501 6:-0.35563499 10:-0.40832499 12:1.026446 15:-0.21397699 25:-0.259592 28:-0.18276601 34:-0.1311 36:-0.22950201 38:-0.063603997 50:-0.615345 51:-0.150841 52:-0.459032 57:-0.364788 #
-0.5 5:-0.48666501 6:1.617233 10:-0.40832499 12:-0.66384602 15:-0.21397699 25:-0.259592 28:-0.18276601 34:-0.1311 36:-0.22950201 38:-0.063603997 50:-0.615345 51:-0.150841 52:-0.28241399 57:-0.37077901 #
-0.5 5:-0.48666501 6:1.025373 10:-0.40832499 12:0.436809 15:-0.21397699 25:-0.259592 28:-0.18276601 34:-0.1311 36:-0.22950201 38:-0.063603997 50:-0.615345 51:-0.150841 52:-0.35158899 57:-0.045731001 #
0.5 5:-0.48666501 6:-0.35563499 10:-0.40832499 12:1.052652 15:-0.21397699 25:-0.259592 28:-0.18276601 34:-0.1311 36:-0.22950201 38:-0.063603997 50:-0.615345 51:-0.150841 52:-0.459032 57:-0.364788 #
0.5 5:-0.48666501 6:-0.35563499 10:-0.40832499 12:1.052652 15:-0.21397699 25:-0.259592 28:-0.18276601 34:-0.1311 36:-0.22950201 38:-0.063603997 50:-0.615345 51:-0.150841 52:-0.459032 57:-0.36329001 #
0.5 5:-0.48666501 6:-0.35563499 10:-0.40832499 12:1.052652 15:-0.21397699 25:-0.259592 28:-0.18276601 34:-0.1311 36:-0.22950201 38:-0.063603997 50:-0.615345 51:-0.150841 52:-0.459032 57:-0.36329001 #
-0.5 5:-0.48666501 6:-0.35563499 10:-0.20740201 12:0.20095401 15:-0.21397699 25:-0.158334 28:-0.18276601 34:-0.1311 36:-0.22950201 38:-0.063603997 50:-0.41141599 51:-0.150841 52:-0.459032 57:1.293406 #
-0.5 5:0.44110501 6:-0.35563499 10:-0.40832499 12:0.174748 15:-0.21397699 25:-0.259592 28:-0.18276601 34:-0.1311 36:-0.22950201 38:-0.063603997 50:-0.615345 51:-0.150841 52:-0.169084 57:-0.30337301 #
-0.5 5:-0.26921901 6:-0.35563499 10:-0.17649101 12:-0.061106998 15:-0.21397699 25:-0.259592 28:-0.18276601 34:-0.1311 36:0.242788 38:-0.063603997 50:0.049851 51:-0.150841 52:-0.459032 57:0.28231201 #
0.5 5:-0.48666501 6:-0.35563499 10:-0.40832499 12:1.052652 15:-0.21397699 25:-0.259592 28:-0.18276601 34:-0.1311 36:-0.22950201 38:-0.063603997 50:-0.615345 51:-0.150841 52:-0.459032 57:-0.36329001 #
-0.5 5:0.716537 6:0.170463 10:-0.40832499 12:-0.0086939996 15:-0.21397699 25:-0.259592 28:-0.18276601 34:-0.1311 36:-0.22950201 38:-0.063603997 50:-0.333729 51:-0.150841 52:-0.459032 57:-0.24195901 #
0.5 5:0.45560101 6:1.781639 10:-0.40832499 12:-0.24454901 15:-0.21397699 25:-0.259592 28:-0.18276601 34:-0.1311 36:-0.22950201 38:-0.063603997 50:-0.105524 51:-0.150841 52:-0.459032 57:-0.235967 #
-0.5 5:0.70204002 6:-0.35563499 10:-0.40832499 12:0.41060299 15:-0.21397699 25:-0.259592 28:-0.18276601 34:-0.1311 36:-0.22950201 38:-0.063603997 50:-0.615345 51:-0.150841 52:-0.28388599 57:-0.38126501 #
-0.5 5:-0.48666501 6:-0.35563499 10:-0.40832499 12:3.306375 15:-0.21397699 25:-0.259592 28:-0.18276601 34:-0.1311 36:-0.22950201 38:-0.063603997 50:-0.615345 51:-0.150841 52:0.41670001 57:-0.421709 #
0.5 5:0.45560101 6:0.69656098 10:-0.40832499 12:1.039549 15:-0.21397699 25:-0.259592 28:-0.18276601 34:-0.1311 36:-0.22950201 38:-0.063603997 50:-0.367717 51:-0.150841 52:-0.30743501 57:-0.093664996 #
0.5 5:-0.48666501 6:0.46639299 10:-0.40832499 12:1.30161 15:-0.21397699 25:-0.259592 28:-0.18276601 34:-0.1311 36:-0.22950201 38:-0.063603997 50:-0.615345 51:-0.150841 52:-0.160253 57:-0.25094599 #
-0.5 5:0.035206001 6:-0.35563499 10:0.148077 12:-0.192137 15:-0.21397699 25:-0.259592 28:-0.18276601 34:-0.1311 36:-0.22950201 38:-0.063603997 50:-0.615345 51:-0.150841 52:-0.366308 57:0.056127001 #
-0.5 5:0.006213 6:-0.35563499 10:-0.40832499 12:-0.218343 15:-0.21397699 25:-0.259592 28:-0.18276601 34:-0.1311 36:-0.22950201 38:-0.063603997 50:-0.615345 51:-0.150841 52:-0.459032 57:-0.301875 #
0.5 5:-0.48666501 6:-0.35563499 10:-0.40832499 12:-0.66384602 15:-0.21397699 25:-0.259592 28:-0.18276601 34:-0.1311 36:-0.22950201 38:-0.063603997 50:-0.615345 51:-0.150841 52:1.132004 57:-0.40972501 #
-0.5 5:0.412112 6:-0.026823999 10:-0.40832499 12:0.0044089998 15:-0.21397699 25:-0.259592 28:-0.18276601 34:-0.1311 36:-0.22950201 38:-0.063603997 50:-0.022980999 51:-0.150841 52:-0.227957 57:0.19243699 #
-0.5 5:-0.48666501 6:-0.35563499 10:-0.40832499 12:-0.218343 15:-0.21397699 25:-0.259592 28:-0.18276601 34:-0.1311 36:-0.22950201 38:-0.063603997 50:-0.022980999 51:-0.150841 52:-0.459032 57:-0.28240201 #
0.5 5:0.23815501 6:-0.35563499 10:-0.40832499 12:-0.231446 15:1.451288 25:-0.259592 28:-0.18276601 34:-0.1311 36:-0.22950201 38:-0.063603997 50:-0.615345 51:-0.150841 52:-0.342758 57:-0.054719001 #
-0.5 5:-0.48666501 6:-0.35563499 10:-0.40832499 12:3.0705199 15:-0.21397699 25:-0.259592 28:-0.18276601 34:-0.1311 36:-0.22950201 38:-0.063603997 50:-0.615345 51:-0.150841 52:0.194455 57:-0.40223601 #
-0.5 5:-0.48666501 6:-0.35563499 10:-0.40832499 12:-0.66384602 15:-0.21397699 25:-0.259592 28:-0.18276601 34:-0.1311 36:-0.22950201 38:-0.063603997 50:0.176092 51:-0.150841 52:-0.459032 57:-0.34681299 #
0.5 5:-0.48666501 6:-0.35563499 10:-0.40832499 12:0.82990003 15:-0.21397699 25:-0.259592 28:-0.18276601 34:-0.1311 36:-0.22950201 38:-0.063603997 50:-0.615345 51:-0.150841 52:-0.148478 57:-0.270419 #
-0.5 5:-0.48666501 6:-0.35563499 10:-0.40832499 12:-0.66384602 15:-0.21397699 25:-0.259592 28:-0.18276601 34:-0.1311 36:-0.22950201 38:-0.063603997 50:-0.615345 51:-0.150841 52:-0.459032 57:-0.39624399 #
-0.5 5:0.847004 6:-0.35563499 10:-0.40832499 12:0.54163301 15:-0.21397699 25:-0.259592 28:-0.18276601 34:-0.1311 36:-0.22950201 38:-0.063603997 50:-0.615345 51:-0.150841 52:-0.459032 57:-0.39474601 #
0.5 5:0.122184 6:-0.35563499 10:-0.40832499 12:-0.113519 15:-0.21397699 25:-0.259592 28:-0.18276601 34:-0.1311 36:-0.22950201 38:-0.063603997 50:-0.29488599 51:-0.150841 52:0.52561498 57:-0.018769 #
0.5 5:0.44110501 6:1.748758 10:-0.40832499 12:-0.24454901 15:-0.21397699 25:-0.259592 28:-0.18276601 34:-0.1311 36:-0.22950201 38:-0.063603997 50:0.142104 51:-0.150841 52:-0.459032 57:-0.209004 #
-0.5 5:-0.48666501 6:-0.35563499 10:-0.40832499 12:0.266469 15:-0.21397699 25:-0.259592 28:-0.18276601 34:-0.1311 36:-0.22950201 38:-0.063603997 50:-0.615345 51:-0.150841 52:0.044330001 57:-0.397742 #
-0.5 5:-0.48666501 6:-0.35563499 10:-0.40832499 12:1.078858 15:-0.21397699 25:-0.259592 28:-0.18276601 34:-0.1311 36:-0.22950201 38:-0.063603997 50:1.312266 51:-0.150841 52:-0.459032 57:-0.26143199 #
0.48286998698681377062413844214461 5:-0.48666501 6:-0.35563499 10:-0.40832499 12:0.94782799 15:-0.21397699 25:-0.259592 28:-0.18276601 34:-0.1311 36:-0.22950201 38:-0.063603997 50:-0.615345 51:-0.150841 52:1.430783 57:-0.41571701 #
-0.5 5:0.006213 6:-0.35563499 10:-0.40832499 12:1.1312701 15:-0.21397699 25:-0.259592 28:-0.18276601 34:-0.1311 36:-0.22950201 38:-0.063603997 50:0.51111799 51:-0.150841 52:0.13852599 57:-0.32883799 #
0.5 5:-0.48666501 6:-0.35563499 10:-0.40832499 12:-0.66384602 15:-0.21397699 25:-0.259592 28:-0.18276601 34:-0.1311 36:-0.22950201 38:-0.063603997 50:-0.615345 51:-0.150841 52:0.85971802 57:-0.33632699 #
0.5 5:0.52808303 6:0.795205 10:-0.40832499 12:-0.66384602 15:-0.21397699 25:-0.259592 28:-0.18276601 34:-0.1311 36:-0.22950201 38:-0.063603997 50:0.224647 51:-0.150841 52:-0.120514 57:-0.051723 #
-0.5 5:-0.48666501 6:-0.35563499 10:0.132622 12:-0.20524 15:-0.21397699 25:-0.259592 28:-0.18276601 34:-0.1311 36:-0.22950201 38:-0.063603997 50:-0.615345 51:-0.150841 52:-0.37072301 57:0.181952 #
-0.5 5:-0.48666501 6:-0.35563499 10:-0.40832499 12:2.873975 15:-0.21397699 25:-0.259592 28:-0.18276601 34:-0.1311 36:-0.22950201 38:-0.063603997 50:-0.615345 51:-0.150841 52:0.194455 57:-0.40223601 #
-0.5 5:0.73103303 6:-0.35563499 10:-0.40832499 12:1.537464 15:-0.21397699 25:-0.259592 28:-0.18276601 34:-0.1311 36:-0.22950201 38:-0.063603997 50:0.43828601 51:-0.150841 52:-0.459032 57:-0.35280401 #
-0.5 5:-0.48666501 6:-0.35563499 10:-0.40832499 12:1.170579 15:-0.21397699 25:-0.259592 28:-0.18276601 34:-0.1311 36:-0.22950201 38:-0.063603997 50:-0.615345 51:-0.150841 52:0.27246201 57:-0.397742 #
-0.5 5:-0.48666501 6:-0.35563499 10:-0.40832499 12:0.93472499 15:-0.21397699 25:-0.259592 28:-0.18276601 34:-0.1311 36:-0.22950201 38:-0.063603997 50:-0.086102001 51:1.025601 52:0.022252999 57:-0.37377501 #
-0.5 5:-0.48666501 6:-0.35563499 10:-0.40832499 12:-0.66384602 15:-0.21397699 25:-0.259592 28:-0.18276601 34:-0.1311 36:-0.22950201 38:-0.063603997 50:0.34117699 51:-0.150841 52:-0.459032 57:-0.37826899 #
0.5 5:-0.48666501 6:-0.35563499 10:-0.40832499 12:0.48922101 15:-0.21397699 25:-0.259592 28:-0.18276601 34:-0.1311 36:-0.22950201 38:-0.063603997 50:-0.256042 51:-0.150841 52:0.52561498 57:-0.19702099 #
-0.5 5:-0.41418299 6:-0.191229 10:-0.40832499 12:-0.493507 15:-0.21397699 25:0.098706 28:-0.18276601 34:-0.1311 36:-0.22950201 38:-0.063603997 50:0.151815 51:0.35643199 52:-0.459032 57:2.1891611 #
-0.5 5:-0.48666501 6:-0.35563499 10:-0.40832499 12:-0.66384602 15:-0.21397699 25:-0.259592 28:-0.18276601 34:-0.1311 36:-0.22950201 38:-0.063603997 50:-0.615345 51:-0.150841 52:0.76699299 57:-0.397742 #
0.5 5:0.45560101 6:1.781639 10:-0.40832499 12:-0.24454901 15:-0.21397699 25:-0.259592 28:-0.18276601 34:-0.1311 36:-0.22950201 38:-0.063603997 50:-0.071534999 51:-0.150841 52:-0.459032 57:-0.235967 #
0.5 5:-0.48666501 6:1.617233 10:-0.40832499 12:1.720907 15:-0.21397699 25:-0.259592 28:-0.18276601 34:-0.1311 36:-0.22950201 38:-0.063603997 50:0.078983001 51:0.35643199 52:-0.17791501 57:-0.15058599 #
0.5 5:0.165673 6:1.124016 10:2.3736861 12:-0.074210003 15:-0.21397699 25:-0.259592 28:-0.18276601 34:-0.1311 36:-0.22950201 38:-0.063603997 50:0.74903399 51:-0.150841 52:-0.14995 57:-0.24195901 #
0.5 5:-0.48666501 6:-0.35563499 10:-0.40832499 12:-0.66384602 15:-0.21397699 25:-0.259592 28:-0.18276601 34:-0.1311 36:-0.22950201 38:-0.063603997 50:-0.615345 51:1.414151 52:-0.245618 57:-0.3558 #
0.5 5:-0.48666501 6:-0.35563499 10:-0.40832499 12:-0.66384602 15:-0.21397699 25:-0.259592 28:-0.18276601 34:-0.1311 36:-0.22950201 38:-0.063603997 50:-0.615345 51:-0.150841 52:-0.459032 57:-0.43818599 #
0.5 5:-0.48666501 6:-0.35563499 10:-0.40832499 12:-0.66384602 15:-0.21397699 25:-0.259592 28:-0.18276601 34:-0.1311 36:-0.22950201 38:-0.063603997 50:-0.615345 51:-0.150841 52:-0.459032 57:-0.43369201 #
-0.5 5:0.76002598 6:-0.35563499 10:-0.40832499 12:-0.66384602 15:-0.21397699 25:-0.259592 28:-0.18276601 34:-0.1311 36:-0.22950201 38:-0.063603997 50:0.122682 51:-0.150841 52:0.213589 57:-0.397742 #
-0.5 5:0.54258001 6:-0.35563499 10:-0.40832499 12:-0.66384602 15:-0.21397699 25:-0.259592 28:-0.18276601 34:-0.1311 36:-0.22950201 38:-0.063603997 50:-0.34829599 51:-0.150841 52:-0.37808201 57:-0.23746499 #
0.5 5:-0.48666501 6:-0.35563499 10:2.4973309 12:1.799525 15:-0.21397699 25:-0.259592 28:-0.18276601 34:-0.1311 36:-0.22950201 38:-0.063603997 50:-0.615345 51:-0.150841 52:-0.219126 57:-0.39025199 #
0.5 5:0.122184 6:-0.35563499 10:0.905402 12:-0.113519 15:-0.21397699 25:-0.259592 28:-0.18276601 34:-0.1311 36:-0.22950201 38:1.68673 50:0.457708 51:-0.150841 52:-0.19852 57:0.38417101 #
0.5 5:-0.48666501 6:-0.35563499 10:-0.40832499 12:-0.66384602 15:-0.21397699 25:-0.259592 28:-0.18276601 34:-0.1311 36:-0.22950201 38:-0.063603997 50:0.34117699 51:-0.150841 52:-0.459032 57:-0.403734 #
-0.5 5:-0.48666501 6:-0.35563499 10:-0.40832499 12:0.122336 15:-0.21397699 25:-0.259592 28:-0.18276601 34:-0.1311 36:-0.22950201 38:-0.063603997 50:-0.615345 51:-0.150841 52:-0.14995 57:-0.39624399 #
0.5 5:-0.0082839997 6:-0.35563499 10:0.10171 12:-0.66384602 15:-0.21397699 25:-0.259592 28:-0.18276601 34:-0.1311 36:-0.22950201 38:-0.063603997 50:-0.324018 51:-0.150841 52:0.253328 57:-0.1401 #
-0.5 5:-0.48666501 6:1.551471 10:-0.40832499 12:-0.66384602 15:-0.21397699 25:-0.259592 28:-0.18276601 34:-0.1311 36:-0.22950201 38:-0.063603997 50:-0.090957001 51:1.0148081 52:0.17679401 57:-0.39175001 #
-0.5 5:-0.48666501 6:1.3870651 10:0.41082299 12:-0.66384602 15:-0.21397699 25:-0.259592 28:-0.18276601 34:-0.1311 36:-0.22950201 38:-0.063603997 50:-0.124945 51:-0.150841 52:-0.459032 57:-0.36628601 #
0.5 5:-0.48666501 6:-0.35563499 10:-0.40832499 12:0.266469 15:-0.21397699 25:-0.259592 28:-0.18276601 34:-0.1311 36:-0.22950201 38:-0.063603997 50:0.67134702 51:-0.150841 52:-0.264752 57:-0.33632699 #
0.5 5:0.32513401 6:-0.35563499 10:0.45719001 12:1.6815979 15:-0.21397699 25:-0.173912 28:-0.18276601 34:-0.1311 36:-0.22950201 38:-0.063603997 50:0.28776699 51:-0.150841 52:-0.37661001 57:0.352714 #
0.5 5:-0.124255 6:1.321303 10:-0.40832499 12:0.331985 15:-0.21397699 25:-0.259592 28:-0.18276601 34:-0.1311 36:-0.22950201 38:-0.063603997 50:-0.615345 51:1.273841 52:0.061992001 57:-0.214996 #
0.5 5:-0.48666501 6:-0.35563499 10:0.039887998 12:0.109233 15:-0.21397699 25:-0.259592 28:-0.18276601 34:-0.1311 36:-0.22950201 38:1.14496 50:0.38002101 51:-0.150841 52:-0.233844 57:0.107056 #
0.5 5:-0.48666501 6:-0.35563499 10:0.039887998 12:0.096129999 15:-0.21397699 25:-0.259592 28:-0.18276601 34:-0.1311 36:-0.22950201 38:1.14496 50:0.37516499 51:-0.150841 52:-0.15878101 57:0.154989 #
0.5 5:0.67304701 6:-0.35563499 10:-0.0064790002 12:0.030615 15:-0.21397699 25:-0.057076 28:-0.18276601 34:-0.1311 36:-0.22950201 38:-0.063603997 50:-0.615345 51:-0.150841 52:-0.459032 57:-0.19851901 #
0.5 5:1.2674 6:-0.35563499 10:-0.40832499 12:-0.66384602 15:-0.21397699 25:-0.259592 28:-0.18276601 34:-0.1311 36:-0.22950201 38:-0.063603997 50:-0.615345 51:-0.150841 52:-0.459032 57:-0.397742 #
-0.5 5:0.38311899 6:-0.35563499 10:-0.099212997 12:-0.66384602 15:-0.21397699 25:-0.259592 28:-0.18276601 34:-0.1311 36:-0.22950201 38:-0.063603997 50:-0.615345 51:-0.150841 52:-0.37072301 57:-0.102652 #
-0.5 5:0.38311899 6:-0.35563499 10:-0.099212997 12:-0.66384602 15:-0.21397699 25:-0.259592 28:-0.18276601 34:-0.1311 36:-0.22950201 38:-0.063603997 50:-0.615345 51:-0.150841 52:-0.37072301 57:-0.10415 #
0.5 5:1.093443 6:-0.35563499 10:-0.40832499 12:1.471949 15:-0.21397699 25:-0.259592 28:-0.18276601 34:-0.1311 36:0.62062001 38:-0.063603997 50:0.39458701 51:-0.150841 52:-0.21471 57:-0.080183998 #
0.5 5:-0.48666501 6:-0.35563499 10:-0.40832499 12:-0.66384602 15:-0.21397699 25:-0.259592 28:-0.18276601 34:-0.1311 36:-0.22950201 38:-0.063603997 50:1.093771 51:-0.150841 52:0.059048001 57:-0.39025199 #
0.5 5:1.06445 6:-0.35563499 10:1.2454261 12:0.266469 15:-0.21397699 25:-0.259592 28:-0.18276601 34:-0.1311 36:-0.22950201 38:-0.063603997 50:0.54996097 51:-0.150841 52:-0.105796 57:-0.234469 #
0.5 5:0.28164399 6:-0.35563499 10:-0.40832499 12:-0.66384602 15:-0.21397699 25:-0.259592 28:-0.18276601 34:-0.1311 36:-0.22950201 38:-0.063603997 50:-0.615345 51:-0.150841 52:-0.068999998 57:0.053130999 #
-0.5 5:-0.124255 6:-0.35563499 10:-0.40832499 12:1.013343 15:-0.21397699 25:-0.064865001 28:-0.18276601 34:-0.1311 36:-0.22950201 38:-0.063603997 50:-0.047258001 51:-0.150841 52:-0.401631 57:-0.089171 #
-0.5 5:-0.48666501 6:-0.35563499 10:0.225355 12:-0.12662201 15:-0.21397699 25:-0.259592 28:-0.18276601 34:-0.1311 36:-0.22950201 38:-0.063603997 50:-0.615345 51:-0.150841 52:-0.35600501 57:0.086084999 #
-0.5 5:-0.48666501 6:0.40063101 10:-0.052846 12:0.882312 15:-0.21397699 25:-0.259592 28:-0.18276601 34:-0.1311 36:-0.22950201 38:-0.063603997 50:-0.615345 51:-0.150841 52:-0.459032 57:-0.122125 #
-0.5 5:-0.48666501 6:-0.35563499 10:-0.40832499 12:-0.17903399 15:-0.21397699 25:-0.259592 28:-0.18276601 34:-0.1311 36:0.93548 38:-0.063603997 50:0.020718001 51:-0.150841 52:-0.459032 57:-0.34831101 #
-0.5 5:-0.153248 6:0.40063101 10:-0.052846 12:-0.362477 15:-0.21397699 25:-0.259592 28:-0.18276601 34:-0.1311 36:-0.22950201 38:-0.063603997 50:-0.615345 51:-0.150841 52:0.085541002 57:-0.225482 #
0.5 5:-0.48666501 6:-0.35563499 10:-0.40832499 12:-0.66384602 15:-0.21397699 25:-0.259592 28:-0.18276601 34:-0.1311 36:-0.22950201 38:-0.063603997 50:0.32661101 51:-0.150841 52:-0.459032 57:-0.334829 #
-0.5 5:0.499091 6:-0.35563499 10:-0.40832499 12:-0.66384602 15:-0.21397699 25:-0.259592 28:-0.18276601 34:-0.1311 36:-0.22950201 38:-0.063603997 50:0.224647 51:-0.150841 52:0.22242001 57:-0.32434401 #
0.5 5:-0.48666501 6:2.9982409 10:0.534468 12:2.284338 15:-0.21397699 25:-0.259592 28:-0.18276601 34:-0.1311 36:-0.22950201 38:-0.063603997 50:-0.15407801 51:-0.150841 52:-0.226485 57:-0.210502 #
-0.5 5:-0.48666501 6:-0.35563499 10:-0.40832499 12:-0.66384602 15:-0.21397699 25:-0.259592 28:-0.18276601 34:-0.1311 36:-0.22950201 38:-0.063603997 50:-0.615345 51:-0.150841 52:0.54180503 57:-0.42770001 #
0.5 5:1.600817 6:-0.35563499 10:1.817284 12:-0.192137 15:-0.21397699 25:-0.259592 28:-0.18276601 34:-0.1311 36:-0.22950201 38:-0.063603997 50:-0.615345 51:-0.150841 52:-0.459032 57:-0.093664996 #
-0.5 5:-0.48666501 6:-0.35563499 10:-0.40832499 12:-0.66384602 15:-0.21397699 25:-0.259592 28:-0.18276601 34:-0.1311 36:-0.22950201 38:-0.063603997 50:-0.615345 51:-0.150841 52:0.65513498 57:-0.41122299 #
0.5 5:-0.48666501 6:2.7351921 10:0.75084603 12:2.0484829 15:-0.21397699 25:-0.259592 28:-0.18276601 34:-0.1311 36:-0.22950201 38:-0.063603997 50:-0.22691 51:-0.150841 52:-0.102852 57:-0.078685999 #
0.5 5:-0.48666501 6:-0.35563499 10:-0.40832499 12:0.52853 15:-0.21397699 25:-0.259592 28:-0.18276601 34:-0.1311 36:-0.22950201 38:-0.063603997 50:0.117827 51:-0.150841 52:0.21064501 57:-0.36329001 #
0.5 5:-0.0082839997 6:-0.35563499 10:-0.40832499 12:-0.231446 15:-0.21397699 25:-0.259592 28:-0.18276601 34:-0.1311 36:-0.22950201 38:-0.063603997 50:-0.615345 51:1.586839 52:0.33133501 57:-0.232971 #
-0.5 5:-0.48666501 6:0.40063101 10:-0.40832499 12:-0.061106998 15:-0.21397699 25:-0.259592 28:-0.18276601 34:-0.1311 36:-0.22950201 38:-0.063603997 50:-0.615345 51:-0.150841 52:-0.459032 57:-0.13410901 #
-0.5 5:-0.48666501 6:0.76232398 10:-0.40832499 12:0.240263 15:-0.21397699 25:-0.259592 28:-0.18276601 34:-0.1311 36:-0.22950201 38:-0.063603997 50:-0.615345 51:-0.150841 52:-0.459032 57:-0.33932301 #
-0.5 5:-0.48666501 6:1.255541 10:-0.40832499 12:0.63335502 15:-0.21397699 25:-0.259592 28:-0.18276601 34:-0.1311 36:-0.22950201 38:-0.063603997 50:-0.163789 51:-0.150841 52:-0.322153 57:-0.36778399 #
0.5 5:-0.48666501 6:-0.35563499 10:1.137237 12:0.64645803 15:-0.21397699 25:-0.259592 28:-0.18276601 34:-0.1311 36:-0.22950201 38:-0.063603997 50:-0.615345 51:-0.150841 52:-0.199992 57:-0.30337301 #
0.5 5:-0.48666501 6:-0.35563499 10:-0.40832499 12:-0.66384602 15:-0.21397699 25:-0.259592 28:-0.18276601 34:-0.1311 36:-0.22950201 38:-0.063603997 50:-0.615345 51:-0.150841 52:-0.459032 57:-0.39324799 #
0.5 5:0.13668001 6:2.4721429 10:-0.40832499 12:-0.66384602 15:-0.21397699 25:-0.259592 28:-0.18276601 34:-0.1311 36:-0.22950201 38:-0.063603997 50:-0.285175 51:-0.150841 52:-0.459032 57:-0.273415 #
0.5 5:-0.48666501 6:-0.35563499 10:-0.40832499 12:-0.66384602 15:-0.21397699 25:-0.259592 28:-0.18276601 34:-0.1311 36:-0.22950201 38:-0.063603997 50:-0.615345 51:-0.150841 52:0.547692 57:-0.340821 #
-0.5 5:0.70204002 6:-0.35563499 10:0.85903502 12:-0.66384602 15:-0.21397699 25:-0.259592 28:-0.18276601 34:-0.1311 36:-0.22950201 38:-0.063603997 50:0.84614301 51:1.468116 52:-0.459032 57:-0.37377501 #
0.5 5:-0.109759 6:-0.35563499 10:-0.40832499 12:0.72507602 15:0.65196103 25:-0.259592 28:-0.18276601 34:-0.1311 36:-0.22950201 38:-0.063603997 50:0.83643198 51:-0.150841 52:0.23419499 57:-0.162569 #
-0.5 5:-0.48666501 6:-0.35563499 10:-0.40832499 12:2.4153681 15:-0.21397699 25:-0.259592 28:-0.18276601 34:-0.1311 36:-0.22950201 38:-0.063603997 50:0.76360101 51:-0.150841 52:-0.041035999 57:-0.33632699 #
0.5 5:0.13668001 6:-0.35563499 10:0.59628999 12:-0.66384602 15:-0.21397699 25:-0.096020997 28:-0.18276601 34:-0.1311 36:-0.22950201 38:-0.063603997 50:-0.615345 51:0.637052 52:-0.244147 57:0.51748502 #
-0.5 5:-0.48666501 6:-0.35563499 10:-0.40832499 12:-0.66384602 15:-0.21397699 25:-0.259592 28:-0.18276601 34:-0.1311 36:-0.22950201 38:-0.063603997 50:-0.615345 51:-0.150841 52:0.57712799 57:-0.429198 #
0.5 5:-0.48666501 6:-0.35563499 10:-0.40832499 12:0.51542699 15:-0.21397699 25:-0.259592 28:-0.18276601 34:-0.1311 36:-0.22950201 38:-0.063603997 50:0.093549997 51:-0.150841 52:-0.029261 57:-0.33183399 #
-0.5 5:-0.48666501 6:-0.35563499 10:-0.40832499 12:-0.66384602 15:-0.21397699 25:-0.259592 28:-0.18276601 34:-0.1311 36:-0.22950201 38:-0.063603997 50:-0.615345 51:-0.150841 52:-0.459032 57:-0.424705 #
-0.5 5:-0.48666501 6:-0.35563499 10:-0.40832499 12:1.170579 15:-0.21397699 25:-0.259592 28:-0.18276601 34:-0.1311 36:-0.22950201 38:-0.063603997 50:0.67620301 51:0.56150001 52:-0.459032 57:0.122035 #
0.5 5:-0.48666501 6:-0.35563499 10:-0.40832499 12:-0.66384602 15:-0.21397699 25:-0.259592 28:-0.18276601 34:-0.1311 36:-0.22950201 38:-0.063603997 50:0.85585397 51:-0.150841 52:0.878851 57:-0.38426101 #
-0.5 5:-0.25472301 6:-0.35563499 10:-0.161035 12:-0.454198 15:-0.21397699 25:-0.259592 28:-0.18276601 34:-0.1311 36:-0.22950201 38:-0.063603997 50:1.20059 51:-0.150841 52:0.366658 57:-0.24046101 #
-0.5 5:-0.48666501 6:-0.35563499 10:-0.40832499 12:-0.66384602 15:-0.21397699 25:-0.259592 28:-0.18276601 34:-0.1311 36:-0.22950201 38:-0.063603997 50:0.72475702 51:-0.150841 52:0.353412 57:-0.33632699 #
-0.5 5:0.209162 6:-0.35563499 10:-0.40832499 12:-0.034899998 15:-0.21397699 25:-0.259592 28:-0.18276601 34:-0.1311 36:-0.22950201 38:-0.063603997 50:-0.615345 51:-0.150841 52:-0.459032 57:-0.25993401 #
0.5 5:1.165925 6:0.69656098 10:0.59628999 12:2.1271009 15:-0.21397699 25:-0.259592 28:-0.18276601 34:-0.1311 36:-0.22950201 38:-0.063603997 50:-0.615345 51:-0.150841 52:-0.459032 57:-0.207507 #
-0.5 5:-0.48666501 6:0.499275 10:-0.40832499 12:0.72507602 15:-0.21397699 25:-0.259592 28:-0.18276601 34:-0.1311 36:-0.22950201 38:-0.063603997 50:-0.42598301 51:-0.150841 52:-0.459032 57:-0.186536 #
0.5 5:-0.48666501 6:-0.35563499 10:0.37991101 12:-0.66384602 15:1.484593 25:-0.259592 28:-0.18276601 34:-0.1311 36:-0.22950201 38:-0.063603997 50:0.040139999 51:-0.150841 52:-0.36041999 57:-0.30786699 #
0.5 5:-0.48666501 6:-0.35563499 10:-0.40832499 12:-0.66384602 15:-0.21397699 25:-0.259592 28:-0.18276601 34:-0.1311 36:-0.22950201 38:-0.063603997 50:1.088915 51:-0.150841 52:0.057576001 57:-0.28389999 #
0.5 5:-0.48666501 6:-0.35563499 10:-0.40832499 12:-0.66384602 15:-0.21397699 25:-0.259592 28:-0.18276601 34:-0.1311 36:-0.22950201 38:-0.063603997 50:0.73446798 51:-0.150841 52:0.76846498 57:-0.267423 #
-0.5 5:0.412112 6:-0.35563499 10:-0.40832499 12:0.97403401 15:-0.21397699 25:-0.259592 28:-0.18276601 34:-0.1311 36:-0.22950201 38:-0.063603997 50:0.97238499 51:-0.150841 52:-0.459032 57:-0.35729799 #
-0.5 5:-0.48666501 6:-0.35563499 10:-0.40832499 12:1.026446 15:-0.21397699 25:-0.259592 28:-0.18276601 34:-0.1311 36:-0.22950201 38:-0.063603997 50:-0.615345 51:-0.150841 52:-0.33834299 57:-0.19402499 #
0.5 5:-0.48666501 6:-0.35563499 10:-0.40832499 12:-0.66384602 15:-0.21397699 25:-0.259592 28:1.325267 34:-0.1311 36:2.068975 38:-0.063603997 50:0.40429801 51:-0.150841 52:-0.459032 57:-0.276411 #
-0.5 5:-0.211233 6:-0.35563499 10:-0.40832499 12:0.34508801 15:-0.21397699 25:-0.111599 28:0.602238 34:-0.1311 36:0.36873201 38:-0.063603997 50:-0.066679999 51:-0.150841 52:-0.42665201 57:0.14749999 #
0.5 5:-0.48666501 6:-0.35563499 10:-0.40832499 12:0.27957299 15:-0.21397699 25:-0.259592 28:-0.18276601 34:-0.1311 36:-0.22950201 38:-0.063603997 50:-0.0035590001 51:-0.150841 52:-0.366308 57:-0.25993401 #
0.5 5:-0.48666501 6:-0.35563499 10:-0.40832499 12:0.292676 15:-0.21397699 25:-0.259592 28:-0.18276601 34:-0.1311 36:-0.22950201 38:-0.063603997 50:-0.615345 51:-0.150841 52:-0.459032 57:-0.37227699 #
0.5 5:0.093190998 6:-0.35563499 10:3.301023 12:-0.66384602 15:1.118235 25:-0.259592 28:-0.18276601 34:-0.1311 36:-0.22950201 38:-0.063603997 50:0.51111799 51:-0.150841 52:-0.28830099 57:-0.13410901 #
0.5 5:-0.48666501 6:-0.35563499 10:-0.40832499 12:-0.323167 15:-0.21397699 25:-0.259592 28:-0.18276601 34:-0.1311 36:-0.22950201 38:-0.063603997 50:-0.40656099 51:0.78815401 52:-0.201464 57:0.88147902 #
0.5 5:-0.48666501 6:-0.35563499 10:-0.40832499 12:-0.66384602 15:-0.21397699 25:-0.259592 28:-0.18276601 34:-0.1311 36:-0.22950201 38:-0.063603997 50:0.36059901 51:-0.150841 52:-0.459032 57:-0.232971 #
0.5 5:-0.22573 6:-0.35563499 10:-0.40832499 12:0.069923997 15:0.38551801 25:-0.259592 28:-0.18276601 34:-0.1311 36:-0.22950201 38:-0.063603997 50:0.72961301 51:-0.150841 52:0.26657501 57:-0.065204002 #
-0.5 5:-0.48666501 6:0.26910701 10:-0.40832499 12:0.096129999 15:-0.21397699 25:-0.259592 28:-0.18276601 34:-0.1311 36:-0.22950201 38:-0.063603997 50:0.54510599 51:-0.150841 52:0.194455 57:-0.26143199 #
0.5 5:-0.48666501 6:-0.35563499 10:-0.40832499 12:0.148542 15:1.850951 25:-0.259592 28:-0.18276601 34:-0.1311 36:-0.22950201 38:-0.063603997 50:-0.39684999 51:-0.150841 52:-0.127873 57:-0.243457 #
0.5 5:-0.48666501 6:-0.35563499 10:0.24081101 12:-0.113519 15:1.184845 25:-0.259592 28:-0.18276601 34:-0.1311 36:-0.22950201 38:-0.063603997 50:-0.615345 51:-0.150841 52:-0.459032 57:0.21640401 #
0.5 5:-0.48666501 6:-0.35563499 10:-0.40832499 12:0.22716001 15:-0.21397699 25:-0.259592 28:-0.18276601 34:-0.1311 36:-0.22950201 38:-0.063603997 50:-0.615345 51:-0.150841 52:-0.108739 57:-0.30037701 #
0.5 5:-0.48666501 6:-0.35563499 10:-0.40832499 12:0.22716001 15:-0.21397699 25:-0.259592 28:-0.18276601 34:-0.1311 36:-0.22950201 38:-0.063603997 50:-0.615345 51:-0.150841 52:-0.11757 57:-0.30037701 #
0.5 5:-0.48666501 6:1.584352 10:-0.40832499 12:-0.66384602 15:-0.21397699 25:-0.259592 28:-0.18276601 34:-0.1311 36:-0.22950201 38:-0.063603997 50:-0.615345 51:-0.150841 52:-0.459032 57:-0.138602 #
-0.5 5:1.035458 6:-0.35563499 10:-0.40832499 12:-0.66384602 15:-0.21397699 25:-0.259592 28:-0.18276601 34:1.15966 36:-0.22950201 38:-0.063603997 50:-0.38713899 51:-0.150841 52:-0.459032 57:-0.20001701 #
0.5 5:-0.48666501 6:-0.35563499 10:0.364456 12:0.31888199 15:-0.21397699 25:-0.259592 28:-0.18276601 34:-0.1311 36:-0.22950201 38:-0.063603997 50:0.25863501 51:-0.150841 52:-0.459032 57:-0.315357 #
0.5 5:-0.48666501 6:-0.35563499 10:-0.40832499 12:-0.66384602 15:-0.21397699 25:-0.259592 28:-0.18276601 34:-0.1311 36:-0.22950201 38:-0.063603997 50:0.29747799 51:-0.150841 52:-0.459032 57:-0.32734001 #
-0.5 5:-0.48666501 6:-0.35563499 10:-0.40832499 12:-0.048004001 15:-0.21397699 25:-0.259592 28:-0.18276601 34:-0.1311 36:-0.22950201 38:-0.063603997 50:-0.45511499 51:-0.150841 52:-0.459032 57:-0.15657701 #
0.5 5:-0.48666501 6:-0.35563499 10:-0.40832499 12:0.083026998 15:-0.21397699 25:-0.259592 28:-0.18276601 34:-0.1311 36:-0.22950201 38:-0.063603997 50:-0.615345 51:-0.150841 52:-0.301548 57:-0.36329001 #
0.5 5:-0.48666501 6:-0.35563499 10:-0.40832499 12:-0.66384602 15:-0.21397699 25:-0.259592 28:-0.18276601 34:-0.1311 36:-0.22950201 38:-0.063603997 50:-0.615345 51:-0.150841 52:-0.459032 57:-0.43069601 #
-0.5 5:-0.48666501 6:-0.35563499 10:-0.40832499 12:-0.66384602 15:-0.21397699 25:-0.259592 28:-0.18276601 34:-0.1311 36:-0.22950201 38:-0.063603997 50:-0.615345 51:-0.150841 52:0.52119899 57:-0.42770001 #
0.5 5:-0.48666501 6:-0.35563499 10:-0.40832499 12:0.44991201 15:-0.21397699 25:-0.259592 28:-0.18276601 34:-0.1311 36:-0.22950201 38:-0.063603997 50:-0.217199 51:-0.150841 52:-0.459032 57:-0.00379 #
0.5 5:-0.48666501 6:-0.35563499 10:0.117166 12:-0.218343 15:-0.21397699 25:-0.259592 28:-0.18276601 34:-0.1311 36:-0.22950201 38:-0.063603997 50:1.2928441 51:-0.150841 52:-0.129345 57:-0.207507 #
0.5 5:-0.48666501 6:-0.35563499 10:-0.40832499 12:-0.66384602 15:-0.21397699 25:-0.259592 28:-0.18276601 34:-0.1311 36:-0.22950201 38:-0.063603997 50:-0.615345 51:-0.150841 52:-0.459032 57:-0.429198 #
0.5 5:-0.48666501 6:-0.35563499 10:-0.40832499 12:-0.66384602 15:-0.21397699 25:-0.259592 28:-0.18276601 34:-0.1311 36:-0.22950201 38:-0.063603997 50:1.025794 51:-0.150841 52:0.288652 57:-0.189532 #
0.5 5:1.165925 6:0.69656098 10:0.59628999 12:2.1271009 15:-0.21397699 25:-0.259592 28:-0.18276601 34:-0.1311 36:-0.22950201 38:-0.063603997 50:-0.615345 51:-0.150841 52:-0.459032 57:-0.207507 #
0.5 5:-0.48666501 6:-0.35563499 10:-0.40832499 12:-0.66384602 15:-0.21397699 25:-0.259592 28:-0.18276601 34:-0.1311 36:-0.22950201 38:-0.063603997 50:-0.615345 51:-0.150841 52:-0.459032 57:-0.42770001 #
-0.5 5:0.296141 6:-0.35563499 10:-0.40832499 12:0.043717999 15:-0.21397699 25:-0.259592 28:-0.18276601 34:-0.1311 36:-0.22950201 38:-0.063603997 50:-0.615345 51:-0.150841 52:-0.459032 57:-0.41122299 #
-0.5 5:-0.48666501 6:-0.35563499 10:-0.40832499 12:0.65956098 15:-0.21397699 25:-0.259592 28:-0.18276601 34:-0.1311 36:-0.22950201 38:-0.063603997 50:-0.615345 51:-0.150841 52:-0.20293599 57:-0.270419 #
-0.5 5:-0.124255 6:-0.35563499 10:-0.40832499 12:-0.0086939996 15:-0.21397699 25:-0.259592 28:-0.18276601 34:-0.1311 36:-0.22950201 38:-0.063603997 50:-0.615345 51:-0.150841 52:-0.459032 57:-0.38126501 #
0.5 5:-0.48666501 6:-0.35563499 10:-0.40832499 12:0.607149 15:-0.21397699 25:-0.259592 28:-0.18276601 34:-0.1311 36:-0.22950201 38:-0.063603997 50:-0.333729 51:-0.150841 52:-0.28830099 57:-0.084677003 #
-0.5 5:-0.48666501 6:-0.35563499 10:-0.40832499 12:0.58094198 15:-0.21397699 25:-0.259592 28:-0.18276601 34:-0.1311 36:-0.22950201 38:-0.063603997 50:-0.615345 51:-0.150841 52:-0.201464 57:-0.36928201 #
-0.5 5:-0.48666501 6:-0.35563499 10:-0.40832499 12:0.85610598 15:-0.21397699 25:-0.259592 28:-0.18276601 34:-0.1311 36:-0.22950201 38:-0.063603997 50:-0.615345 51:-0.150841 52:-0.459032 57:-0.273415 #
0.5 5:-0.48666501 6:0.92672902 10:-0.40832499 12:0.89541501 15:-0.21397699 25:-0.259592 28:-0.18276601 34:-0.1311 36:-0.22950201 38:-0.063603997 50:-0.615345 51:-0.150841 52:0.482932 57:-0.276411 #
-0.5 5:-0.48666501 6:-0.35563499 10:-0.40832499 12:0.37129399 15:-0.21397699 25:-0.259592 28:-0.18276601 34:-0.1311 36:-0.22950201 38:-0.063603997 50:-0.615345 51:-0.150841 52:-0.41634899 57:-0.212 #
-0.5 5:-0.48666501 6:-0.35563499 10:-0.40832499 12:0.161645 15:-0.21397699 25:-0.259592 28:-0.18276601 34:-0.1311 36:-0.22950201 38:-0.063603997 50:0.151815 51:-0.150841 52:-0.459032 57:-0.297382 #
-0.5 5:-0.48666501 6:-0.35563499 10:-0.40832499 12:1.170579 15:-0.21397699 25:-0.259592 28:-0.18276601 34:-0.1311 36:-0.22950201 38:-0.063603997 50:0.68105799 51:0.56150001 52:-0.459032 57:0.119039 #
0.5 5:0.23815501 6:-0.35563499 10:-0.40832499 12:0.331985 15:-0.21397699 25:-0.259592 28:-0.18276601 34:-0.1311 36:-0.22950201 38:-0.063603997 50:-0.41627201 51:-0.150841 52:-0.33834299 57:-0.107146 #
0.5 5:0.13668001 6:-0.35563499 10:0.92085803 12:1.039549 15:-0.21397699 25:-0.259592 28:-0.18276601 34:-0.1311 36:-0.22950201 38:-0.063603997 50:-0.0035590001 51:-0.150841 52:-0.459032 57:-0.206009 #
0.5 5:-0.48666501 6:-0.35563499 10:-0.40832499 12:0.27957299 15:-0.21397699 25:-0.259592 28:0.80881703 34:-0.1311 36:0.52616203 38:-0.063603997 50:0.28291199 51:-0.150841 52:-0.459032 57:-0.083178997 #
-0.5 5:-0.48666501 6:-0.35563499 10:-0.40832499 12:0.51542699 15:-0.21397699 25:-0.259592 28:-0.18276601 34:-0.1311 36:-0.22950201 38:-0.063603997 50:-0.615345 51:-0.150841 52:-0.217654 57:-0.39624399 #
-0.5 5:0.513587 6:-0.35563499 10:-0.40832499 12:1.1443731 15:-0.21397699 25:-0.080443002 28:-0.18276601 34:-0.1311 36:-0.22950201 38:-0.063603997 50:-0.29488599 51:-0.150841 52:-0.459032 57:-0.31086299 #
0.5 5:-0.48666501 6:-0.35563499 10:0.10171 12:0.214057 15:-0.21397699 25:-0.259592 28:-0.18276601 34:-0.1311 36:-0.22950201 38:-0.063603997 50:0.74417901 51:-0.150841 52:-0.29418799 57:-0.11164 #
0.5 5:-0.48666501 6:-0.35563499 10:-0.021934999 12:0.64645803 15:-0.21397699 25:-0.259592 28:-0.18276601 34:-0.1311 36:-0.22950201 38:-0.063603997 50:0.26348999 51:-0.150841 52:0.139998 57:-0.03974 #
0.5 5:-0.066269003 6:-0.35563499 10:-0.40832499 12:0.50232399 15:-0.21397699 25:-0.259592 28:-0.18276601 34:-0.1311 36:0.68359202 38:-0.063603997 50:-0.29003 51:-0.150841 52:-0.459032 57:-0.00379 #
0.5 5:-0.48666501 6:-0.35563499 10:-0.40832499 12:0.436809 15:-0.21397699 25:-0.259592 28:-0.18276601 34:-0.1311 36:-0.22950201 38:-0.063603997 50:-0.251187 51:-0.150841 52:0.424059 57:-0.149088 #
0.5 5:0.45560101 6:1.781639 10:-0.40832499 12:-0.24454901 15:-0.21397699 25:-0.259592 28:-0.18276601 34:-0.1311 36:-0.22950201 38:-0.063603997 50:-0.105524 51:-0.150841 52:-0.459032 57:-0.235967 #
-0.5 5:-0.48666501 6:-0.35563499 10:-0.40832499 12:0.59404498 15:-0.21397699 25:-0.259592 28:-0.18276601 34:-0.1311 36:-0.22950201 38:-0.063603997 50:-0.615345 51:-0.150841 52:-0.207351 57:-0.397742 #
-0.5 5:-0.48666501 6:-0.35563499 10:-0.40832499 12:-0.021796999 15:-0.21397699 25:-0.259592 28:-0.18276601 34:-0.1311 36:-0.22950201 38:-0.063603997 50:0.55481702 51:-0.150841 52:-0.459032 57:-0.316854 #
0.5 5:-0.48666501 6:-0.35563499 10:-0.40832499 12:-0.66384602 15:-0.21397699 25:-0.259592 28:-0.18276601 34:-0.1311 36:-0.22950201 38:-0.063603997 50:-0.615345 51:-0.150841 52:0.82439399 57:-0.42770001 #
0.5 5:-0.48666501 6:0.56503701 10:1.369071 12:0.46301499 15:-0.21397699 25:-0.259592 28:-0.18276601 34:-0.1311 36:-0.22950201 38:-0.063603997 50:-0.615345 51:-0.150841 52:0.35635599 57:0.066611998 #
-0.5 5:-0.48666501 6:-0.35563499 10:1.0754139 12:-0.66384602 15:-0.21397699 25:-0.259592 28:-0.18276601 34:-0.1311 36:-0.22950201 38:-0.063603997 50:0.97238499 51:-0.150841 52:0.022252999 57:-0.379767 #
-0.5 5:-0.48666501 6:-0.35563499 10:1.554538 12:1.00024 15:-0.21397699 25:-0.259592 28:-0.18276601 34:-0.1311 36:-0.22950201 38:-0.063603997 50:-0.076390997 51:-0.150841 52:-0.29565999 57:-0.376771 #
-0.5 5:-0.48666501 6:-0.191229 10:-0.40832499 12:-0.46730101 15:-0.21397699 25:0.35574701 28:-0.18276601 34:-0.1311 36:-0.22950201 38:-0.063603997 50:0.36545399 51:0.57229298 52:-0.459032 57:1.5076081 #
0.5 5:-0.48666501 6:-0.35563499 10:5.4184418 12:-0.66384602 15:-0.21397699 25:-0.259592 28:-0.18276601 34:-0.1311 36:-0.22950201 38:-0.063603997 50:-0.615345 51:-0.150841 52:-0.459032 57:-0.32734001 #
0.5 5:-0.48666501 6:-0.35563499 10:-0.40832499 12:0.083026998 15:-0.21397699 25:-0.259592 28:0.39565799 34:-0.1311 36:2.4468069 38:-0.063603997 50:-0.115234 51:-0.150841 52:-0.459032 57:-0.201515 #
-0.5 5:-0.48666501 6:1.51859 10:-0.40832499 12:-0.66384602 15:-0.21397699 25:-0.259592 28:-0.18276601 34:-0.1311 36:-0.22950201 38:-0.063603997 50:-0.615345 51:-0.150841 52:-0.459032 57:-0.36778399 #
-0.5 5:-0.48666501 6:0.893848 10:0.17898799 12:0.34508801 15:-0.21397699 25:-0.259592 28:-0.18276601 34:-0.1311 36:-0.22950201 38:-0.063603997 50:0.020718001 51:0.55070698 52:-0.459032 57:-0.267423 #
-0.5 5:-0.48666501 6:-0.35563499 10:1.399982 12:2.4153681 15:-0.21397699 25:-0.259592 28:-0.18276601 34:-0.1311 36:-0.22950201 38:-0.063603997 50:1.13747 51:-0.150841 52:0.072293997 57:-0.38725701 #
0.5 5:-0.48666501 6:-0.35563499 10:0.50355601 12:0.109233 15:-0.21397699 25:-0.259592 28:-0.18276601 34:-0.1311 36:-0.22950201 38:-0.063603997 50:0.63250399 51:-0.150841 52:-0.459032 57:-0.071195997 #
-0.5 5:-0.48666501 6:-0.35563499 10:-0.40832499 12:1.118167 15:-0.21397699 25:-0.259592 28:-0.18276601 34:-0.1311 36:-0.22950201 38:-0.063603997 50:-0.615345 51:-0.150841 52:-0.114627 57:-0.403734 #
-0.5 5:0.89049399 6:1.189778 10:-0.40832499 12:-0.048004001 15:-0.21397699 25:-0.259592 28:-0.18276601 34:-0.1311 36:-0.22950201 38:3.895484 50:-0.26089799 51:-0.150841 52:-0.459032 57:-0.297382 #
-0.5 5:0.006213 6:-0.35563499 10:0.658113 12:-0.362477 15:-0.21397699 25:-0.259592 28:-0.18276601 34:-0.1311 36:0.116844 38:-0.063603997 50:0.127538 51:-0.150841 52:-0.43401101 57:0.30328301 #
-0.5 5:-0.48666501 6:-0.35563499 10:-0.40832499 12:-0.37558001 15:-0.21397699 25:-0.259592 28:-0.18276601 34:-0.1311 36:-0.22950201 38:-0.063603997 50:-0.615345 51:-0.150841 52:-0.105796 57:0.226889 #
0.5 5:-0.48666501 6:0.23622499 10:1.631816 12:0.31888199 15:-0.21397699 25:-0.259592 28:-0.18276601 34:-0.1311 36:-0.22950201 38:-0.063603997 50:0.064416997 51:-0.150841 52:-0.35600501 57:-0.158075 #
0.5 5:0.26714799 6:-0.35563499 10:-0.145579 12:-0.218343 15:-0.21397699 25:-0.259592 28:-0.18276601 34:-0.1311 36:-0.22950201 38:-0.063603997 50:1.195735 51:-0.150841 52:0.044330001 57:0.059122998 #
0.5 5:-0.066269003 6:0.59791797 10:-0.40832499 12:0.476118 15:-0.21397699 25:-0.259592 28:-0.18276601 34:-0.1311 36:-0.22950201 38:-0.063603997 50:-0.39199501 51:-0.150841 52:-0.252978 57:-0.033748001 #
0.5 5:-0.356197 6:0.56503701 10:-0.114668 12:0.083026998 15:-0.21397699 25:-0.259592 28:-0.18276601 34:-0.1311 36:-0.22950201 38:-0.063603997 50:0.50140703 51:-0.150841 52:-0.329512 57:0.107056 #
0.5 5:-0.48666501 6:-0.35563499 10:-0.26922399 12:0.109233 15:-0.21397699 25:-0.259592 28:-0.18276601 34:-0.1311 36:-0.22950201 38:-0.063603997 50:0.68105799 51:-0.150841 52:-0.179387 57:0.102562 #
-0.5 5:-0.48666501 6:-0.35563499 10:1.214515 12:0.71197301 15:-0.21397699 25:-0.259592 28:-0.18276601 34:-0.1311 36:-0.22950201 38:-0.063603997 50:2.6717889 51:-0.150841 52:0.038442999 57:-0.37377501 #
-0.5 5:-0.48666501 6:-0.35563499 10:1.508171 12:-0.66384602 15:-0.21397699 25:-0.259592 28:-0.18276601 34:-0.1311 36:-0.22950201 38:-0.063603997 50:1.249145 51:-0.150841 52:-0.035147998 57:-0.00379 #
-0.5 5:-0.48666501 6:-0.35563499 10:1.569994 12:-0.66384602 15:-0.21397699 25:-0.259592 28:-0.18276601 34:-0.1311 36:-0.22950201 38:-0.063603997 50:-0.615345 51:-0.150841 52:-0.11757 57:-0.39175001 #
-0.5 5:-0.48666501 6:-0.35563499 10:0.719935 12:-0.66384602 15:-0.21397699 25:-0.259592 28:-0.18276601 34:-0.1311 36:-0.22950201 38:-0.063603997 50:-0.615345 51:-0.150841 52:-0.36777899 57:0.14600199 #
-0.5 5:0.151177 6:-0.35563499 10:-0.40832499 12:-0.66384602 15:-0.21397699 25:-0.259592 28:-0.18276601 34:-0.1311 36:-0.22950201 38:-0.063603997 50:-0.615345 51:-0.150841 52:-0.459032 57:0.151994 #
-0.5 5:-0.48666501 6:-0.35563499 10:-0.40832499 12:-0.66384602 15:-0.21397699 25:-0.259592 28:-0.18276601 34:-0.1311 36:-0.22950201 38:-0.063603997 50:-0.615345 51:-0.150841 52:-0.459032 57:-0.42320701 #
0.5 5:-0.48666501 6:-0.35563499 10:0.364456 12:-0.0086939996 15:-0.21397699 25:-0.259592 28:-0.18276601 34:-0.1311 36:-0.22950201 38:-0.063603997 50:0.68105799 51:-0.150841 52:0.19592699 57:-0.19851901 #
-0.5 5:-0.109759 6:0.071819998 10:-0.40832499 12:0.017511999 15:-0.21397699 25:0.044183001 28:-0.18276601 34:-0.1311 36:0.17981599 38:-0.063603997 50:-0.183211 51:0.032641001 52:-0.407518 57:0.58189601 #
0.5 5:0.44110501 6:1.748758 10:-0.40832499 12:-0.24454901 15:-0.21397699 25:-0.259592 28:-0.18276601 34:-0.1311 36:-0.22950201 38:-0.063603997 50:-0.110379 51:-0.150841 52:-0.459032 57:-0.235967 #
0.5 5:-0.48666501 6:-0.35563499 10:-0.40832499 12:-0.66384602 15:-0.21397699 25:-0.259592 28:-0.18276601 34:-0.1311 36:-0.22950201 38:-0.063603997 50:-0.615345 51:-0.150841 52:-0.459032 57:-0.424705 #
-0.5 5:-0.356197 6:-0.059705 10:-0.40832499 12:-0.29696101 15:-0.21397699 25:-0.259592 28:-0.18276601 34:-0.1311 36:-0.22950201 38:-0.063603997 50:-0.34344 51:-0.150841 52:-0.250034 57:0.12952501 #
0.5 5:-0.48666501 6:-0.35563499 10:-0.40832499 12:-0.66384602 15:-0.21397699 25:-0.259592 28:-0.18276601 34:-0.1311 36:2.982069 38:-0.063603997 50:0.239213 51:-0.150841 52:-0.199992 57:-0.322846 #
-0.5 5:-0.48666501 6:-0.35563499 10:-0.238313 12:-0.074210003 15:-0.21397699 25:-0.259592 28:-0.18276601 34:-0.1311 36:-0.22950201 38:-0.063603997 50:0.044994999 51:-0.150841 52:-0.38396901 57:0.19543301 #
-0.5 5:-0.48666501 6:-0.35563499 10:2.064573 12:-0.66384602 15:-0.21397699 25:-0.259592 28:-0.18276601 34:-0.1311 36:-0.22950201 38:-0.063603997 50:-0.615345 51:-0.150841 52:-0.113155 57:-0.400738 #
-0.5 5:-0.48666501 6:-0.35563499 10:0.0089769997 12:-0.66384602 15:-0.21397699 25:-0.259592 28:-0.18276601 34:-0.1311 36:-0.22950201 38:-0.063603997 50:-0.615345 51:-0.150841 52:-0.388385 57:0.17296401 #
-0.5 5:-0.48666501 6:-0.35563499 10:0.48810101 12:2.3891621 15:-0.21397699 25:-0.259592 28:-0.18276601 34:-0.1311 36:-0.22950201 38:-0.063603997 50:0.33146599 51:-0.150841 52:-0.316266 57:-0.382763 #
0.5 5:-0.037276 6:-0.35563499 10:-0.40832499 12:0.148542 15:-0.21397699 25:-0.259592 28:-0.18276601 34:-0.1311 36:-0.22950201 38:-0.063603997 50:0.088693999 51:0.36722499 52:0.25479999 57:0.033658002 #
-0.5 5:-0.48666501 6:-0.35563499 10:-0.40832499 12:-0.66384602 15:-0.21397699 25:-0.259592 28:-0.18276601 34:-0.1311 36:-0.22950201 38:-0.063603997 50:-0.377428 51:-0.150841 52:-0.095492996 57:0.036653999 #
-0.5 5:-0.48666501 6:-0.35563499 10:-0.40832499 12:-0.66384602 15:-0.21397699 25:-0.259592 28:-0.18276601 34:-0.1311 36:-0.22950201 38:-0.063603997 50:-0.12009 51:-0.150841 52:-0.459032 57:-0.26592499 #
-0.5 5:0.006213 6:0.76232398 10:-0.40832499 12:-0.66384602 15:-0.21397699 25:-0.259592 28:-0.18276601 34:-0.1311 36:-0.22950201 38:-0.063603997 50:-0.45997101 51:-0.150841 52:-0.36336401 57:-0.340821 #
-0.5 5:-0.48666501 6:-0.35563499 10:-0.40832499 12:2.258132 15:-0.21397699 25:-0.259592 28:-0.18276601 34:-0.1311 36:-0.22950201 38:-0.063603997 50:-0.615345 51:-0.150841 52:-0.27652699 57:-0.32883799 #
0.5 5:-0.124255 6:0.46639299 10:0.37991101 12:1.367125 15:-0.21397699 25:-0.259592 28:-0.18276601 34:-0.1311 36:-0.22950201 38:-0.063603997 50:0.25377899 51:-0.150841 52:0.069351003 57:0.092077002 #
-0.5 5:-0.48666501 6:-0.35563499 10:-0.40832499 12:-0.165931 15:-0.21397699 25:-0.259592 28:-0.18276601 34:-0.1311 36:-0.22950201 38:-0.063603997 50:-0.256042 51:-0.150841 52:-0.37808201 57:0.18345 #
-0.5 5:-0.138751 6:-0.35563499 10:-0.40832499 12:-0.34937301 15:-0.21397699 25:-0.259592 28:-0.18276601 34:-0.1311 36:0.52616203 38:-0.063603997 50:0.33146599 51:-0.150841 52:-0.459032 57:-0.086175002 #
0.5 5:-0.051773001 6:0.630799 10:-0.40832499 12:0.51542699 15:-0.21397699 25:-0.259592 28:-0.18276601 34:-0.1311 36:-0.22950201 38:-0.063603997 50:-0.38228399 51:-0.150841 52:-0.24709 57:-0.023263 #
-0.5 5:-0.48666501 6:0.72944301 10:-0.40832499 12:-0.66384602 15:-0.21397699 25:-0.259592 28:-0.18276601 34:-0.1311 36:-0.22950201 38:-0.063603997 50:-0.42598301 51:-0.150841 52:-0.37219501 57:-0.158075 #
-0.5 5:-0.48666501 6:0.795205 10:0.132622 12:0.266469 15:-0.21397699 25:-0.259592 28:-0.18276601 34:-0.1311 36:-0.22950201 38:-0.063603997 50:-0.032692 51:0.49674201 52:-0.459032 57:-0.267423 #
-0.5 5:-0.080766 6:0.56503701 10:-0.40832499 12:-0.42799199 15:-0.21397699 25:-0.259592 28:-0.18276601 34:-0.1311 36:-0.22950201 38:-0.063603997 50:-0.53280199 51:-0.150841 52:-0.459032 57:-0.252444 #
0.5 5:0.035206001 6:-0.059705 10:-0.40832499 12:0.41060299 15:-0.21397699 25:-0.259592 28:-0.18276601 34:-0.1311 36:-0.22950201 38:-0.063603997 50:-0.39199501 51:0.172951 52:-0.096965 57:0.34672299 #
0.5 5:-0.48666501 6:-0.35563499 10:-0.40832499 12:-0.66384602 15:-0.21397699 25:-0.259592 28:-0.18276601 34:-0.1311 36:3.013555 38:-0.063603997 50:0.176092 51:-0.150841 52:-0.219126 57:-0.32734001 #
0.5 5:-0.48666501 6:-0.35563499 10:-0.40832499 12:-0.66384602 15:-0.21397699 25:-0.259592 28:-0.18276601 34:-0.1311 36:-0.22950201 38:-0.063603997 50:-0.615345 51:-0.150841 52:-0.459032 57:-0.429198 #
0.5 5:-0.48666501 6:-0.35563499 10:-0.40832499 12:-0.66384602 15:-0.21397699 25:-0.259592 28:1.139345 34:-0.1311 36:-0.22950201 38:-0.063603997 50:0.61793703 51:-0.150841 52:-0.459032 57:-0.214996 #
0.5 5:-0.48666501 6:-0.35563499 10:-0.40832499 12:-0.66384602 15:-0.21397699 25:-0.259592 28:-0.18276601 34:-0.1311 36:-0.22950201 38:-0.063603997 50:0.26834601 51:-0.150841 52:-0.459032 57:-0.32734001 #
-0.31186156896146050021556561659963 5:-0.48666501 6:-0.35563499 10:-0.40832499 12:-0.66384602 15:-0.21397699 25:-0.259592 28:-0.18276601 34:-0.1311 36:-0.22950201 38:-0.063603997 50:-0.615345 51:-0.150841 52:-0.459032 57:-0.429198 #
0.5 5:-0.48666501 6:0.006058 10:0.132622 12:0.56783903 15:-0.21397699 25:-0.259592 28:-0.18276601 34:-0.1311 36:-0.22950201 38:-0.063603997 50:0.51597297 51:-0.150841 52:-0.036619999 57:0.31826201 #
0.5 5:1.006465 6:-0.35563499 10:2.250041 12:2.0353799 15:0.91840303 25:-0.259592 28:-0.18276601 34:-0.1311 36:-0.22950201 38:-0.063603997 50:-0.052113999 51:-0.150841 52:-0.459032 57:-0.34231901 #
-0.5 5:-0.48666501 6:-0.35563499 10:-0.40832499 12:1.8650399 15:-0.21397699 25:-0.259592 28:-0.18276601 34:-0.1311 36:-0.22950201 38:-0.063603997 50:-0.50366998 51:0.34563899 52:-0.217654 57:-0.170059 #
-0.5 5:-0.48666501 6:-0.35563499 10:-0.40832499 12:-0.66384602 15:-0.21397699 25:-0.259592 28:-0.18276601 34:-0.1311 36:-0.22950201 38:-0.063603997 50:-0.615345 51:-0.150841 52:-0.459032 57:-0.426202 #
0.5 5:-0.48666501 6:-0.35563499 10:-0.40832499 12:-0.12662201 15:-0.21397699 25:-0.259592 28:-0.18276601 34:-0.1311 36:0.62062001 38:-0.063603997 50:0.030429 51:-0.150841 52:-0.459032 57:-0.228477 #
-0.5 5:-0.48666501 6:-0.35563499 10:-0.40832499 12:-0.66384602 15:-0.21397699 25:-0.259592 28:-0.18276601 34:-0.1311 36:-0.22950201 38:-0.063603997 50:-0.042403001 51:-0.150841 52:-0.459032 57:-0.39175001 #
0.40995199929454984033583286873181 5:2.659055 6:-0.35563499 10:-0.40832499 12:2.179513 15:-0.21397699 25:-0.259592 28:-0.18276601 34:-0.1311 36:-0.22950201 38:-0.063603997 50:-0.615345 51:-0.150841 52:-0.459032 57:-0.42021099 #
0.5 5:-0.48666501 6:-0.35563499 10:-0.40832499 12:-0.034899998 15:-0.21397699 25:-0.259592 28:-0.18276601 34:-0.1311 36:-0.22950201 38:-0.063603997 50:-0.197777 51:-0.150841 52:-0.076358996 57:-0.38725701 #
0.5 5:-0.48666501 6:1.189778 10:-0.052846 12:0.89541501 15:-0.21397699 25:-0.259592 28:-0.18276601 34:-0.1311 36:-0.22950201 38:-0.063603997 50:-0.615345 51:-0.150841 52:0.022252999 57:0.229885 #
-0.5 5:-0.48666501 6:-0.35563499 10:1.492716 12:-0.66384602 15:-0.21397699 25:-0.259592 28:-0.18276601 34:-0.1311 36:-0.22950201 38:-0.063603997 50:3.1233449 51:-0.150841 52:-0.176443 57:-0.379767 #
-0.5 5:-0.48666501 6:-0.35563499 10:-0.40832499 12:-0.66384602 15:-0.21397699 25:-0.259592 28:-0.18276601 34:-0.1311 36:-0.22950201 38:-0.063603997 50:-0.615345 51:-0.150841 52:-0.459032 57:-0.40223601 #
-0.5 5:-0.48666501 6:-0.35563499 10:-0.40832499 12:-0.66384602 15:-0.21397699 25:-0.259592 28:-0.18276601 34:-0.1311 36:-0.22950201 38:-0.063603997 50:0.54996097 51:-0.150841 52:-0.459032 57:-0.37227699 #
