SVM-light Version V6.02
0 # kernel type
3 # kernel parameter -d 
1 # kernel parameter -g 
1 # kernel parameter -s 
1 # kernel parameter -r 
empty# kernel parameter -u 
25 # highest feature index 
1813 # number of training documents 
1354 # number of support vectors plus 1 
0.50447833 # threshold b, each following line is a SV (starting with alpha*y)
-0.5 5:-0.48666501 25:-0.259592 #
0.5 5:-0.31270799 25:-0.259592 #
-0.5 5:12.690568 25:-0.259592 #
0.5 5:-0.48666501 25:-0.259592 #
-0.5 5:-0.341701 25:-0.259592 #
-0.5 5:-0.48666501 25:-0.259592 #
-0.5 5:-0.48666501 25:-0.259592 #
0.5 5:1.673299 25:0.90098399 #
-0.5 5:2.96348 25:-0.259592 #
0.5 5:-0.48666501 25:0.66731101 #
-0.5 5:-0.48666501 25:-0.259592 #
0.5 5:1.62981 25:0.877617 #
-0.5 5:-0.48666501 25:-0.259592 #
-0.5 5:11.588841 25:-0.259592 #
-0.5 5:-0.48666501 25:-0.259592 #
-0.5 5:-0.48666501 25:-0.259592 #
-0.5 5:-0.48666501 25:-0.259592 #
0.5 5:-0.341701 25:0.659522 #
-0.5 5:-0.48666501 25:-0.259592 #
-0.5 5:8.5735893 25:-0.259592 #
0.5 5:-0.48666501 25:-0.259592 #
0.5 5:-0.109759 25:-0.259592 #
-0.5 5:-0.48666501 25:-0.259592 #
0.5 5:-0.037276 25:-0.259592 #
-0.5 5:-0.48666501 25:-0.259592 #
-0.5 5:7.5588398 25:-0.259592 #
-0.5 5:-0.48666501 25:-0.259592 #
0.5 5:0.165673 25:-0.259592 #
-0.5 5:-0.48666501 25:-0.259592 #
0.5 5:0.122184 25:-0.259592 #
-0.5 5:6.4136238 25:-0.259592 #
0.5 5:0.107688 25:-0.259592 #
-0.5 5:5.0799551 25:-0.259592 #
0.5 5:0.078694999 25:-0.259592 #
0.5 5:-0.0082839997 25:-0.259592 #
-0.5 5:4.6160698 25:-0.259592 #
0.5 5:0.064198002 25:-0.259592 #
-0.5 5:4.5000992 25:-0.259592 #
0.5 5:0.049702 25:-0.259592 #
-0.5 5:3.6448109 25:-0.259592 #
0.5 5:0.020709001 25:-0.259592 #
-0.5 5:-0.48666501 25:-0.259592 #
-0.5 5:3.1374359 25:-0.259592 #
0.5 5:-0.48666501 25:-0.259592 #
0.5 5:0.13668001 25:-0.259592 #
-0.5 5:-0.356197 25:-0.259592 #
0.5 5:0.93398303 25:0.50374001 #
-0.5 5:2.8765011 25:0.94771898 #
-0.5 5:-0.356197 25:-0.259592 #
0.5 5:-0.48666501 25:-0.259592 #
0.5 5:0.13668001 25:-0.259592 #
-0.5 5:-0.356197 25:-0.259592 #
-0.5 5:2.96348 25:-0.259592 #
0.5 5:-0.48666501 25:-0.259592 #
-0.5 5:-0.48666501 25:-0.259592 #
-0.5 5:0.38311899 25:-0.259592 #
0.5 5:0.47009799 25:-0.259592 #
0.5 5:-0.48666501 25:-0.259592 #
-0.5 5:2.7315371 25:-0.259592 #
0.5 5:0.165673 25:-0.259592 #
0.5 5:-0.48666501 25:-0.259592 #
0.5 5:-0.037276 25:0.480373 #
-0.5 5:-0.31270799 25:-0.259592 #
-0.5 5:-0.31270799 25:-0.259592 #
-0.5 5:2.659055 25:-0.259592 #
-0.5 5:-0.48666501 25:-0.259592 #
0.5 5:-0.48666501 25:-0.259592 #
-0.5 5:2.7315371 25:0.60499799 #
-0.5 5:-0.26921901 25:-0.259592 #
0.5 5:0.194666 25:-0.259592 #
-0.5 5:2.470602 25:-0.259592 #
0.5 5:-0.037276 25:0.480373 #
0.5 5:0.23815501 25:-0.259592 #
-0.5 5:-0.26921901 25:-0.259592 #
0.5 5:0.209162 25:-0.259592 #
0.5 5:-0.48666501 25:-0.259592 #
-0.5 5:2.4271131 25:-0.259592 #
-0.5 5:-0.25472301 25:-0.259592 #
0.5 5:0.28164399 25:-0.259592 #
0.5 5:-0.48666501 25:-0.259592 #
-0.5 5:2.3546309 25:-0.259592 #
-0.5 5:0.96297598 25:-0.259592 #
0.5 5:0.25265199 25:-0.259592 #
-0.5 5:0.96297598 25:-0.259592 #
0.5 5:-0.48666501 25:-0.259592 #
0.5 5:0.26714799 25:-0.259592 #
-0.5 5:2.1371839 25:-0.259592 #
-0.5 5:1.035458 25:-0.259592 #
0.5 5:-0.48666501 25:-0.259592 #
-0.5 5:1.035458 25:-0.259592 #
-0.5 5:2.1226881 25:1.142447 #
0.5 5:0.078694999 25:-0.259592 #
0.5 5:0.33963001 25:0.184387 #
-0.5 5:1.0499541 25:-0.259592 #
0.5 5:0.48459399 25:-0.259592 #
-0.5 5:1.0499541 25:-0.259592 #
0.5 5:0.28164399 25:-0.259592 #
0.5 5:0.28164399 25:-0.259592 #
-0.5 5:1.0499541 25:-0.259592 #
0.5 5:-0.48666501 25:-0.259592 #
-0.5 5:1.731285 25:-0.259592 #
-0.5 5:1.122436 25:-0.259592 #
0.5 5:0.78901899 25:0.083127998 #
-0.5 5:1.7457809 25:0.34016901 #
-0.5 5:1.1514291 25:-0.259592 #
0.5 5:-0.457672 25:-0.24401399 #
0.5 5:0.296141 25:-0.259592 #
0.5 5:-0.48666501 25:-0.259592 #
-0.5 5:1.194918 25:-0.259592 #
0.5 5:0.310637 25:-0.259592 #
-0.5 5:1.368875 25:0.23891 #
0.5 5:0.36862299 25:-0.259592 #
-0.5 5:1.194918 25:0.64394403 #
0.5 5:0.499091 25:-0.259592 #
-0.5 5:-0.48666501 25:-0.259592 #
-0.5 5:0.89049399 25:-0.259592 #
0.5 5:-0.48666501 25:-0.259592 #
0.5 5:0.38311899 25:-0.259592 #
0.5 5:-0.48666501 25:-0.259592 #
-0.5 5:0.87599701 25:-0.259592 #
0.5 5:0.499091 25:-0.259592 #
-0.5 5:0.847004 25:-0.259592 #
-0.5 5:-0.48666501 25:-0.259592 #
0.5 5:-0.48666501 25:-0.259592 #
0.5 5:0.13668001 25:-0.096020997 #
-0.5 5:0.76002598 25:-0.259592 #
0.5 5:-0.48666501 25:-0.259592 #
-0.5 5:-0.48666501 25:-0.259592 #
-0.5 5:0.745529 25:-0.259592 #
0.5 5:0.52808303 25:-0.259592 #
-0.5 5:0.73103303 25:-0.259592 #
0.5 5:0.38311899 25:-0.259592 #
-0.5 5:0.716537 25:-0.259592 #
0.5 5:-0.457672 25:-0.24401399 #
-0.5 5:0.70204002 25:-0.259592 #
-0.5 5:-0.48666501 25:-0.259592 #
0.5 5:-0.48666501 25:-0.259592 #
0.5 5:0.397616 25:-0.259592 #
-0.5 5:0.70204002 25:-0.259592 #
0.5 5:-0.48666501 25:-0.259592 #
-0.5 5:0.62955803 25:-0.259592 #
0.5 5:0.67304701 25:-0.057076 #
-0.5 5:0.54258001 25:-0.259592 #
-0.5 5:-0.48666501 25:-0.259592 #
0.5 5:-0.48666501 25:-0.259592 #
-0.5 5:0.54258001 25:-0.259592 #
0.5 5:0.412112 25:-0.259592 #
0.5 5:-0.48666501 25:-0.259592 #
-0.5 5:0.52808303 25:-0.259592 #
0.5 5:-0.341701 25:-0.22064701 #
-0.5 5:-0.48666501 25:-0.259592 #
-0.5 5:0.499091 25:-0.259592 #
0.5 5:-0.48666501 25:-0.259592 #
0.5 5:0.42660901 25:-0.259592 #
-0.5 5:1.06445 25:0.57384199 #
0.5 5:-0.48666501 25:-0.259592 #
-0.5 5:0.48459399 25:-0.259592 #
0.5 5:-0.48666501 25:-0.259592 #
-0.5 5:-0.48666501 25:-0.259592 #
-0.5 5:0.47009799 25:-0.259592 #
-0.5 5:-0.48666501 25:-0.259592 #
0.5 5:-0.28371501 25:-0.259592 #
0.5 5:-0.48666501 25:-0.259592 #
0.5 5:-0.341701 25:-0.22064701 #
-0.5 5:0.44110501 25:-0.259592 #
0.5 5:0.42660901 25:-0.259592 #
0.5 5:-0.48666501 25:-0.259592 #
-0.5 5:0.42660901 25:-0.259592 #
-0.5 5:-0.48666501 25:-0.259592 #
0.5 5:-0.48666501 25:-0.259592 #
-0.5 5:0.412112 25:-0.259592 #
0.5 5:-0.48666501 25:-0.259592 #
-0.5 5:0.412112 25:-0.259592 #
0.5 5:0.44110501 25:-0.259592 #
-0.5 5:-0.48666501 25:-0.259592 #
0.5 5:-0.48666501 25:-0.259592 #
-0.5 5:0.38311899 25:-0.259592 #
-0.5 5:0.513587 25:-0.080443002 #
0.5 5:-0.48666501 25:-0.259592 #
-0.5 5:0.38311899 25:-0.259592 #
0.5 5:-0.48666501 25:-0.259592 #
-0.5 5:-0.48666501 25:-0.259592 #
-0.5 5:0.38311899 25:-0.259592 #
0.5 5:-0.48666501 25:-0.259592 #
-0.5 5:-0.48666501 25:-0.259592 #
-0.5 5:0.36862299 25:-0.259592 #
0.5 5:-0.48666501 25:-0.259592 #
-0.5 5:0.35412601 25:-0.259592 #
0.5 5:-0.48666501 25:-0.259592 #
-0.5 5:-0.48666501 25:-0.259592 #
0.5 5:0.32513401 25:-0.173912 #
0.5 5:-0.48666501 25:-0.259592 #
-0.5 5:0.33963001 25:-0.259592 #
-0.5 5:-0.48666501 25:-0.259592 #
0.5 5:0.44110501 25:-0.259592 #
0.5 5:-0.48666501 25:-0.259592 #
-0.5 5:0.296141 25:-0.259592 #
-0.5 5:0.499091 25:0.0052370001 #
0.5 5:-0.48666501 25:-0.259592 #
0.5 5:-0.48666501 25:-0.259592 #
-0.5 5:0.28164399 25:-0.259592 #
-0.5 5:-0.48666501 25:-0.259592 #
0.5 5:0.44110501 25:-0.259592 #
0.5 5:-0.48666501 25:-0.259592 #
-0.5 5:0.26714799 25:-0.259592 #
0.5 5:-0.48666501 25:-0.259592 #
-0.5 5:0.22365899 25:-0.259592 #
0.5 5:-0.341701 25:-0.22064701 #
-0.5 5:0.209162 25:-0.259592 #
-0.5 5:0.209162 25:-0.259592 #
0.5 5:-0.48666501 25:-0.259592 #
-0.5 5:-0.48666501 25:-0.259592 #
-0.5 5:0.151177 25:-0.259592 #
0.5 5:-0.48666501 25:-0.259592 #
0.5 5:0.45560101 25:-0.259592 #
0.5 5:-0.48666501 25:-0.259592 #
-0.5 5:0.13668001 25:-0.259592 #
-0.5 5:0.078694999 25:-0.259592 #
0.5 5:-0.48666501 25:-0.259592 #
-0.5 5:0.078694999 25:-0.259592 #
0.5 5:0.54258001 25:-0.259592 #
-0.5 5:0.035206001 25:-0.259592 #
0.5 5:-0.48666501 25:-0.259592 #
-0.5 5:0.035206001 25:-0.259592 #
0.5 5:-0.48666501 25:-0.259592 #
-0.5 5:-0.48666501 25:-0.259592 #
-0.5 5:0.006213 25:-0.259592 #
-0.5 5:-0.48666501 25:-0.259592 #
0.5 5:-0.48666501 25:-0.259592 #
-0.5 5:-0.48666501 25:-0.259592 #
0.5 5:-0.080766 25:-0.259592 #
0.5 5:-0.48666501 25:-0.259592 #
-0.5 5:0.006213 25:-0.259592 #
-0.5 5:0.006213 25:-0.259592 #
0.5 5:-0.48666501 25:-0.259592 #
-0.5 5:0.006213 25:-0.259592 #
0.5 5:-0.48666501 25:-0.259592 #
-0.5 5:-0.022779999 25:-0.259592 #
0.5 5:-0.48666501 25:-0.259592 #
-0.5 5:-0.48666501 25:-0.259592 #
-0.5 5:-0.051773001 25:-0.259592 #
0.5 5:-0.48666501 25:-0.259592 #
-0.5 5:-0.080766 25:-0.259592 #
0.5 5:-0.48666501 25:-0.259592 #
-0.5 5:-0.48666501 25:-0.259592 #
0.5 5:-0.48666501 25:-0.259592 #
-0.5 5:-0.124255 25:-0.259592 #
0.5 5:-0.48666501 25:-0.259592 #
-0.5 5:-0.138751 25:-0.259592 #
0.5 5:-0.48666501 25:-0.259592 #
-0.5 5:-0.153248 25:-0.259592 #
-0.5 5:-0.48666501 25:-0.259592 #
0.5 5:-0.48666501 25:-0.259592 #
-0.5 5:-0.153248 25:-0.259592 #
0.5 5:-0.48666501 25:-0.259592 #
-0.5 5:-0.18224099 25:-0.259592 #
0.5 5:-0.48666501 25:-0.259592 #
-0.5 5:-0.19673701 25:-0.259592 #
0.5 5:-0.48666501 25:-0.259592 #
-0.5 5:-0.22573 25:-0.259592 #
0.5 5:-0.48666501 25:-0.259592 #
0.5 5:0.28164399 25:-0.259592 #
-0.5 5:-0.240226 25:-0.259592 #
-0.5 5:-0.0082839997 25:-0.0025520001 #
0.5 5:-0.48666501 25:-0.259592 #
-0.5 5:-0.25472301 25:-0.259592 #
0.5 5:-0.48666501 25:-0.259592 #
-0.5 5:-0.41418299 25:-0.259592 #
0.5 5:-0.48666501 25:-0.259592 #
-0.5 5:-0.42867899 25:-0.259592 #
0.5 5:-0.48666501 25:-0.259592 #
-0.5 5:-0.48666501 25:-0.259592 #
0.5 5:-0.48666501 25:-0.259592 #
-0.5 5:-0.48666501 25:-0.259592 #
0.5 5:-0.48666501 25:-0.259592 #
-0.5 5:-0.48666501 25:-0.259592 #
0.5 5:-0.48666501 25:-0.259592 #
-0.5 5:-0.48666501 25:-0.259592 #
0.5 5:-0.48666501 25:-0.259592 #
-0.5 5:-0.48666501 25:-0.259592 #
0.5 5:-0.48666501 25:-0.259592 #
-0.5 5:-0.48666501 25:-0.259592 #
0.5 5:-0.48666501 25:-0.259592 #
-0.5 5:-0.48666501 25:-0.259592 #
0.5 5:-0.48666501 25:-0.259592 #
-0.5 5:-0.48666501 25:-0.259592 #
0.5 5:-0.48666501 25:-0.259592 #
-0.5 5:-0.48666501 25:-0.259592 #
0.5 5:-0.48666501 25:-0.259592 #
-0.5 5:-0.48666501 25:-0.259592 #
0.5 5:-0.48666501 25:-0.259592 #
-0.5 5:-0.48666501 25:-0.259592 #
0.5 5:-0.48666501 25:-0.259592 #
-0.5 5:-0.48666501 25:-0.259592 #
0.5 5:-0.48666501 25:-0.259592 #
-0.5 5:-0.48666501 25:-0.259592 #
0.5 5:-0.48666501 25:-0.259592 #
-0.5 5:-0.48666501 25:-0.259592 #
0.5 5:-0.48666501 25:-0.259592 #
-0.5 5:-0.48666501 25:-0.259592 #
0.5 5:-0.48666501 25:-0.259592 #
-0.5 5:-0.48666501 25:-0.259592 #
0.5 5:-0.48666501 25:-0.259592 #
-0.5 5:-0.48666501 25:-0.259592 #
0.5 5:-0.022779999 25:-0.259592 #
-0.5 5:-0.38519001 25:-0.23622499 #
0.5 5:-0.48666501 25:-0.259592 #
-0.5 5:-0.48666501 25:-0.259592 #
0.5 5:-0.48666501 25:-0.259592 #
-0.5 5:-0.48666501 25:-0.259592 #
0.5 5:-0.48666501 25:-0.259592 #
-0.5 5:-0.48666501 25:-0.259592 #
0.5 5:-0.48666501 25:-0.259592 #
-0.5 5:-0.48666501 25:-0.259592 #
0.5 5:-0.48666501 25:-0.259592 #
-0.5 5:-0.48666501 25:-0.259592 #
0.5 5:-0.48666501 25:-0.259592 #
-0.5 5:-0.48666501 25:-0.259592 #
0.5 5:-0.48666501 25:-0.259592 #
-0.5 5:-0.48666501 25:-0.259592 #
0.5 5:-0.48666501 25:-0.259592 #
-0.5 5:-0.48666501 25:-0.259592 #
0.5 5:-0.48666501 25:-0.259592 #
-0.5 5:-0.48666501 25:-0.259592 #
0.5 5:-0.48666501 25:-0.259592 #
-0.5 5:-0.48666501 25:-0.259592 #
0.5 5:-0.48666501 25:-0.259592 #
-0.5 5:-0.48666501 25:-0.259592 #
0.5 5:-0.48666501 25:-0.259592 #
-0.5 5:-0.48666501 25:-0.259592 #
0.5 5:-0.48666501 25:-0.259592 #
-0.5 5:-0.48666501 25:-0.259592 #
0.5 5:-0.48666501 25:-0.259592 #
-0.5 5:-0.48666501 25:-0.259592 #
0.5 5:-0.48666501 25:-0.259592 #
-0.5 5:-0.48666501 25:-0.259592 #
0.5 5:-0.48666501 25:-0.259592 #
-0.5 5:-0.48666501 25:-0.259592 #
0.5 5:-0.48666501 25:-0.259592 #
-0.5 5:-0.48666501 25:-0.259592 #
0.5 5:-0.48666501 25:-0.259592 #
-0.5 5:-0.48666501 25:-0.259592 #
0.5 5:-0.48666501 25:-0.259592 #
-0.5 5:-0.48666501 25:-0.259592 #
0.5 5:-0.48666501 25:-0.259592 #
-0.5 5:-0.48666501 25:-0.259592 #
0.5 5:-0.48666501 25:-0.259592 #
-0.5 5:-0.48666501 25:-0.259592 #
0.5 5:-0.48666501 25:-0.259592 #
-0.5 5:-0.48666501 25:-0.259592 #
0.5 5:-0.48666501 25:-0.259592 #
-0.5 5:-0.48666501 25:-0.259592 #
0.5 5:-0.48666501 25:-0.259592 #
-0.5 5:-0.48666501 25:-0.259592 #
0.5 5:-0.48666501 25:-0.259592 #
-0.5 5:-0.48666501 25:-0.259592 #
0.5 5:-0.48666501 25:-0.259592 #
-0.5 5:-0.48666501 25:-0.259592 #
0.5 5:-0.48666501 25:-0.259592 #
-0.5 5:-0.48666501 25:-0.259592 #
0.5 5:-0.48666501 25:-0.259592 #
-0.5 5:-0.48666501 25:-0.259592 #
0.5 5:-0.48666501 25:-0.259592 #
-0.5 5:-0.48666501 25:-0.259592 #
0.5 5:-0.48666501 25:-0.259592 #
-0.5 5:-0.48666501 25:-0.259592 #
0.5 5:-0.48666501 25:-0.259592 #
-0.5 5:-0.48666501 25:-0.259592 #
0.5 5:-0.48666501 25:-0.259592 #
-0.5 5:-0.48666501 25:-0.259592 #
0.5 5:-0.48666501 25:-0.259592 #
-0.5 5:-0.48666501 25:-0.259592 #
0.5 5:-0.48666501 25:-0.259592 #
-0.5 5:-0.48666501 25:-0.259592 #
0.5 5:-0.48666501 25:-0.259592 #
-0.5 5:-0.48666501 25:-0.259592 #
0.5 5:-0.48666501 25:-0.259592 #
-0.5 5:-0.48666501 25:-0.259592 #
0.5 5:-0.48666501 25:-0.259592 #
-0.5 5:-0.48666501 25:-0.259592 #
0.5 5:-0.48666501 25:-0.259592 #
-0.5 5:-0.48666501 25:-0.259592 #
0.5 5:-0.48666501 25:-0.259592 #
-0.5 5:-0.48666501 25:-0.259592 #
0.5 5:-0.48666501 25:-0.259592 #
-0.5 5:-0.48666501 25:-0.259592 #
0.5 5:-0.48666501 25:-0.259592 #
-0.5 5:-0.48666501 25:-0.259592 #
0.5 5:-0.48666501 25:-0.259592 #
-0.5 5:-0.48666501 25:-0.259592 #
0.5 5:-0.48666501 25:-0.259592 #
-0.5 5:-0.48666501 25:-0.259592 #
0.5 5:-0.48666501 25:-0.259592 #
-0.5 5:-0.48666501 25:-0.259592 #
0.5 5:-0.48666501 25:-0.259592 #
-0.5 5:-0.48666501 25:-0.259592 #
0.5 5:-0.48666501 25:-0.259592 #
-0.5 5:-0.48666501 25:-0.259592 #
0.5 5:-0.48666501 25:-0.259592 #
-0.5 5:-0.48666501 25:-0.259592 #
0.5 5:-0.48666501 25:-0.259592 #
-0.5 5:-0.48666501 25:-0.259592 #
0.5 5:-0.48666501 25:-0.259592 #
-0.5 5:-0.48666501 25:-0.259592 #
0.5 5:-0.48666501 25:-0.259592 #
-0.5 5:-0.48666501 25:-0.259592 #
0.5 5:-0.48666501 25:-0.259592 #
-0.5 5:-0.48666501 25:-0.259592 #
0.5 5:-0.48666501 25:-0.259592 #
-0.5 5:-0.48666501 25:-0.259592 #
0.5 5:-0.48666501 25:-0.259592 #
-0.5 5:-0.48666501 25:-0.259592 #
0.5 5:-0.48666501 25:-0.259592 #
-0.5 5:-0.48666501 25:-0.259592 #
0.5 5:-0.48666501 25:-0.259592 #
-0.5 5:-0.48666501 25:-0.259592 #
0.5 5:-0.48666501 25:-0.259592 #
-0.5 5:-0.48666501 25:-0.259592 #
0.5 5:-0.48666501 25:-0.259592 #
-0.5 5:-0.48666501 25:-0.259592 #
0.5 5:-0.48666501 25:-0.259592 #
-0.5 5:-0.48666501 25:-0.259592 #
0.5 5:-0.48666501 25:-0.259592 #
-0.5 5:-0.48666501 25:-0.259592 #
0.5 5:-0.48666501 25:-0.259592 #
-0.5 5:-0.48666501 25:-0.259592 #
0.5 5:-0.48666501 25:-0.259592 #
-0.5 5:-0.48666501 25:-0.259592 #
0.5 5:-0.48666501 25:-0.259592 #
-0.5 5:-0.48666501 25:-0.259592 #
0.5 5:-0.48666501 25:-0.259592 #
-0.5 5:-0.48666501 25:-0.259592 #
0.5 5:-0.48666501 25:-0.259592 #
-0.5 5:-0.48666501 25:-0.259592 #
0.5 5:-0.48666501 25:-0.259592 #
-0.5 5:-0.48666501 25:-0.259592 #
0.5 5:-0.48666501 25:-0.259592 #
-0.5 5:-0.48666501 25:-0.259592 #
0.5 5:-0.48666501 25:-0.259592 #
-0.5 5:-0.48666501 25:-0.259592 #
0.5 5:-0.48666501 25:-0.259592 #
-0.5 5:-0.48666501 25:-0.259592 #
0.5 5:-0.48666501 25:-0.259592 #
-0.5 5:-0.48666501 25:-0.259592 #
0.5 5:-0.48666501 25:-0.259592 #
-0.5 5:-0.48666501 25:-0.259592 #
0.5 5:-0.48666501 25:-0.259592 #
-0.5 5:-0.48666501 25:-0.259592 #
0.5 5:-0.48666501 25:-0.259592 #
-0.5 5:-0.48666501 25:-0.259592 #
0.5 5:-0.48666501 25:-0.259592 #
-0.5 5:-0.48666501 25:-0.259592 #
0.5 5:-0.48666501 25:-0.259592 #
-0.5 5:-0.48666501 25:-0.259592 #
0.5 5:-0.48666501 25:-0.259592 #
-0.5 5:-0.48666501 25:-0.259592 #
0.5 5:-0.48666501 25:-0.259592 #
-0.5 5:-0.48666501 25:-0.259592 #
0.5 5:-0.48666501 25:-0.259592 #
-0.5 5:-0.48666501 25:-0.259592 #
0.5 5:-0.48666501 25:-0.259592 #
-0.5 5:-0.48666501 25:-0.259592 #
0.5 5:-0.48666501 25:-0.259592 #
-0.5 5:-0.48666501 25:-0.259592 #
0.5 5:-0.48666501 25:-0.259592 #
-0.5 5:-0.48666501 25:-0.259592 #
0.5 5:-0.48666501 25:-0.259592 #
-0.5 5:-0.48666501 25:-0.259592 #
0.5 5:-0.48666501 25:-0.259592 #
-0.5 5:-0.48666501 25:-0.259592 #
0.5 5:-0.48666501 25:-0.259592 #
-0.5 5:-0.48666501 25:-0.259592 #
0.5 5:-0.48666501 25:-0.259592 #
-0.5 5:-0.48666501 25:-0.259592 #
0.5 5:-0.48666501 25:-0.259592 #
-0.5 5:-0.48666501 25:-0.259592 #
0.5 5:-0.48666501 25:-0.259592 #
-0.5 5:-0.48666501 25:-0.259592 #
0.5 5:-0.48666501 25:-0.259592 #
-0.5 5:-0.48666501 25:-0.259592 #
0.5 5:-0.48666501 25:-0.259592 #
-0.5 5:-0.48666501 25:-0.259592 #
0.5 5:-0.48666501 25:-0.259592 #
-0.5 5:-0.48666501 25:-0.259592 #
0.5 5:-0.48666501 25:-0.259592 #
-0.5 5:-0.48666501 25:-0.259592 #
0.5 5:-0.48666501 25:-0.259592 #
-0.5 5:-0.48666501 25:-0.259592 #
0.5 5:-0.48666501 25:-0.259592 #
-0.5 5:-0.48666501 25:-0.259592 #
0.5 5:-0.48666501 25:-0.259592 #
-0.5 5:-0.48666501 25:-0.259592 #
0.5 5:-0.48666501 25:-0.259592 #
-0.5 5:-0.48666501 25:-0.259592 #
0.5 5:-0.48666501 25:-0.259592 #
-0.5 5:-0.48666501 25:-0.259592 #
0.5 5:-0.48666501 25:-0.259592 #
-0.5 5:-0.48666501 25:-0.259592 #
0.5 5:-0.48666501 25:-0.259592 #
-0.5 5:-0.48666501 25:-0.259592 #
0.5 5:-0.48666501 25:-0.259592 #
-0.5 5:-0.48666501 25:-0.259592 #
0.5 5:-0.48666501 25:-0.259592 #
-0.5 5:-0.48666501 25:-0.259592 #
0.5 5:-0.48666501 25:-0.259592 #
-0.5 5:-0.48666501 25:-0.259592 #
0.5 5:-0.48666501 25:-0.259592 #
-0.5 5:-0.48666501 25:-0.259592 #
0.5 5:0.48459399 25:-0.259592 #
-0.5 5:-0.48666501 25:-0.259592 #
0.5 5:-0.48666501 25:-0.259592 #
-0.5 5:-0.48666501 25:-0.259592 #
0.5 5:-0.48666501 25:-0.259592 #
-0.5 5:-0.48666501 25:-0.259592 #
0.5 5:-0.48666501 25:-0.259592 #
-0.5 5:-0.48666501 25:-0.259592 #
0.5 5:-0.48666501 25:-0.259592 #
-0.5 5:-0.48666501 25:-0.259592 #
0.5 5:-0.48666501 25:-0.259592 #
-0.5 5:-0.48666501 25:-0.259592 #
0.5 5:-0.48666501 25:-0.259592 #
-0.5 5:-0.48666501 25:-0.259592 #
0.5 5:-0.48666501 25:-0.259592 #
-0.5 5:-0.48666501 25:-0.259592 #
0.5 5:-0.48666501 25:-0.259592 #
-0.5 5:-0.48666501 25:-0.259592 #
0.5 5:-0.48666501 25:-0.259592 #
-0.5 5:-0.48666501 25:-0.259592 #
0.5 5:-0.48666501 25:-0.259592 #
-0.5 5:-0.48666501 25:-0.259592 #
0.5 5:-0.48666501 25:-0.259592 #
-0.5 5:-0.48666501 25:-0.259592 #
-0.5 5:-0.022779999 25:-0.010341 #
0.5 5:-0.48666501 25:-0.259592 #
-0.5 5:-0.48666501 25:-0.259592 #
0.5 5:-0.48666501 25:-0.259592 #
-0.5 5:-0.48666501 25:-0.259592 #
0.5 5:-0.48666501 25:-0.259592 #
-0.5 5:-0.48666501 25:-0.259592 #
0.5 5:-0.48666501 25:-0.259592 #
-0.5 5:-0.48666501 25:-0.259592 #
0.5 5:-0.48666501 25:-0.259592 #
-0.5 5:-0.48666501 25:-0.259592 #
0.5 5:-0.48666501 25:-0.259592 #
-0.5 5:-0.48666501 25:-0.259592 #
0.5 5:-0.48666501 25:-0.259592 #
-0.5 5:-0.48666501 25:-0.259592 #
0.5 5:-0.48666501 25:-0.259592 #
-0.5 5:-0.48666501 25:-0.259592 #
0.5 5:-0.48666501 25:-0.259592 #
-0.5 5:-0.48666501 25:-0.259592 #
0.5 5:-0.48666501 25:-0.259592 #
-0.5 5:-0.48666501 25:-0.259592 #
0.5 5:-0.48666501 25:-0.259592 #
-0.5 5:-0.48666501 25:-0.259592 #
0.5 5:-0.48666501 25:-0.259592 #
-0.5 5:-0.48666501 25:-0.259592 #
0.5 5:-0.48666501 25:-0.259592 #
-0.5 5:-0.48666501 25:-0.259592 #
0.5 5:-0.48666501 25:-0.259592 #
-0.5 5:-0.48666501 25:-0.259592 #
0.5 5:-0.48666501 25:-0.259592 #
-0.5 5:-0.48666501 25:-0.259592 #
0.5 5:-0.48666501 25:-0.259592 #
-0.5 5:-0.48666501 25:-0.259592 #
0.5 5:-0.48666501 25:-0.259592 #
-0.5 5:-0.48666501 25:-0.259592 #
0.5 5:-0.48666501 25:-0.259592 #
-0.5 5:-0.48666501 25:-0.259592 #
0.5 5:-0.48666501 25:-0.259592 #
-0.5 5:-0.48666501 25:-0.259592 #
0.5 5:-0.48666501 25:-0.259592 #
-0.5 5:-0.48666501 25:-0.259592 #
0.5 5:-0.48666501 25:-0.259592 #
-0.5 5:-0.48666501 25:-0.259592 #
0.5 5:-0.48666501 25:-0.259592 #
-0.5 5:-0.48666501 25:-0.259592 #
0.5 5:-0.48666501 25:-0.259592 #
-0.5 5:-0.48666501 25:-0.259592 #
0.5 5:-0.48666501 25:-0.259592 #
-0.5 5:-0.48666501 25:-0.259592 #
0.5 5:-0.48666501 25:-0.259592 #
-0.5 5:-0.48666501 25:-0.259592 #
0.5 5:-0.48666501 25:-0.259592 #
-0.5 5:-0.48666501 25:-0.259592 #
0.5 5:-0.48666501 25:-0.259592 #
-0.5 5:-0.48666501 25:-0.259592 #
0.5 5:-0.48666501 25:-0.259592 #
-0.5 5:-0.48666501 25:-0.259592 #
0.5 5:-0.48666501 25:-0.259592 #
-0.5 5:-0.48666501 25:-0.259592 #
0.5 5:-0.48666501 25:-0.259592 #
-0.5 5:-0.48666501 25:-0.259592 #
0.5 5:-0.48666501 25:-0.259592 #
-0.5 5:-0.48666501 25:-0.259592 #
0.5 5:-0.48666501 25:-0.259592 #
-0.5 5:-0.48666501 25:-0.259592 #
0.5 5:-0.48666501 25:-0.259592 #
-0.5 5:-0.48666501 25:-0.259592 #
0.5 5:-0.48666501 25:-0.259592 #
-0.5 5:-0.48666501 25:-0.259592 #
0.5 5:-0.48666501 25:-0.259592 #
-0.5 5:-0.48666501 25:-0.259592 #
0.5 5:-0.48666501 25:-0.259592 #
-0.5 5:-0.48666501 25:-0.259592 #
0.5 5:-0.48666501 25:-0.259592 #
-0.5 5:-0.48666501 25:-0.259592 #
0.5 5:-0.48666501 25:-0.259592 #
-0.5 5:-0.48666501 25:-0.259592 #
0.5 5:-0.48666501 25:-0.259592 #
-0.5 5:-0.48666501 25:-0.259592 #
0.5 5:-0.48666501 25:-0.259592 #
-0.5 5:-0.48666501 25:-0.259592 #
0.5 5:-0.48666501 25:-0.259592 #
-0.5 5:-0.48666501 25:-0.259592 #
-0.5 5:-0.48666501 25:-0.259592 #
0.5 5:0.499091 25:-0.259592 #
0.5 5:-0.48666501 25:-0.259592 #
-0.5 5:-0.48666501 25:-0.259592 #
0.5 5:-0.48666501 25:-0.259592 #
-0.5 5:-0.48666501 25:-0.259592 #
0.5 5:-0.48666501 25:-0.259592 #
-0.5 5:-0.48666501 25:-0.259592 #
0.5 5:-0.48666501 25:-0.259592 #
-0.5 5:-0.48666501 25:-0.259592 #
0.5 5:-0.48666501 25:-0.259592 #
-0.5 5:-0.48666501 25:-0.259592 #
0.5 5:-0.48666501 25:-0.259592 #
-0.5 5:-0.48666501 25:-0.259592 #
0.5 5:-0.48666501 25:-0.259592 #
-0.5 5:-0.48666501 25:-0.259592 #
0.5 5:-0.48666501 25:-0.259592 #
-0.5 5:-0.48666501 25:-0.259592 #
0.5 5:-0.48666501 25:-0.259592 #
-0.5 5:-0.48666501 25:-0.259592 #
0.5 5:-0.48666501 25:-0.259592 #
-0.5 5:-0.48666501 25:-0.259592 #
0.5 5:-0.48666501 25:-0.259592 #
-0.5 5:-0.48666501 25:-0.259592 #
0.5 5:-0.48666501 25:-0.259592 #
-0.5 5:-0.48666501 25:-0.259592 #
0.5 5:-0.48666501 25:-0.259592 #
-0.5 5:-0.48666501 25:-0.259592 #
0.5 5:-0.48666501 25:-0.259592 #
-0.5 5:-0.48666501 25:-0.259592 #
0.5 5:-0.48666501 25:-0.259592 #
-0.5 5:-0.48666501 25:-0.259592 #
0.5 5:-0.48666501 25:-0.259592 #
-0.5 5:-0.48666501 25:-0.259592 #
0.5 5:-0.48666501 25:-0.259592 #
-0.5 5:-0.48666501 25:-0.259592 #
0.5 5:-0.48666501 25:-0.259592 #
-0.5 5:-0.48666501 25:-0.259592 #
0.5 5:-0.48666501 25:-0.259592 #
-0.5 5:-0.48666501 25:-0.259592 #
0.5 5:-0.48666501 25:-0.259592 #
-0.5 5:-0.48666501 25:-0.259592 #
0.5 5:-0.48666501 25:-0.259592 #
-0.5 5:-0.48666501 25:-0.259592 #
0.5 5:-0.48666501 25:-0.259592 #
-0.5 5:-0.48666501 25:-0.259592 #
0.5 5:-0.48666501 25:-0.259592 #
-0.5 5:-0.48666501 25:-0.259592 #
0.5 5:-0.48666501 25:-0.259592 #
-0.5 5:-0.48666501 25:-0.259592 #
0.5 5:-0.48666501 25:-0.259592 #
-0.5 5:-0.48666501 25:-0.259592 #
0.5 5:-0.48666501 25:-0.259592 #
-0.5 5:-0.48666501 25:-0.259592 #
0.5 5:-0.48666501 25:-0.259592 #
-0.5 5:-0.48666501 25:-0.259592 #
0.5 5:-0.48666501 25:-0.259592 #
-0.5 5:-0.48666501 25:-0.259592 #
0.5 5:-0.48666501 25:-0.259592 #
-0.5 5:-0.48666501 25:-0.259592 #
0.5 5:-0.48666501 25:-0.259592 #
-0.5 5:-0.48666501 25:-0.259592 #
0.5 5:-0.48666501 25:-0.259592 #
-0.5 5:-0.48666501 25:-0.259592 #
0.5 5:-0.48666501 25:-0.259592 #
-0.5 5:-0.48666501 25:-0.259592 #
0.5 5:-0.48666501 25:-0.259592 #
-0.5 5:-0.48666501 25:-0.259592 #
0.5 5:-0.48666501 25:-0.259592 #
-0.5 5:-0.48666501 25:-0.259592 #
0.5 5:-0.48666501 25:-0.259592 #
-0.5 5:-0.48666501 25:-0.259592 #
0.5 5:-0.48666501 25:-0.259592 #
-0.5 5:-0.48666501 25:-0.259592 #
0.5 5:-0.48666501 25:-0.259592 #
-0.5 5:-0.48666501 25:-0.259592 #
0.5 5:-0.48666501 25:-0.259592 #
-0.5 5:-0.48666501 25:-0.259592 #
0.5 5:-0.48666501 25:-0.259592 #
-0.5 5:-0.48666501 25:-0.259592 #
0.5 5:-0.48666501 25:-0.259592 #
-0.5 5:-0.48666501 25:-0.259592 #
0.5 5:-0.48666501 25:-0.259592 #
-0.5 5:-0.48666501 25:-0.259592 #
0.5 5:-0.48666501 25:-0.259592 #
-0.5 5:-0.48666501 25:-0.259592 #
0.5 5:-0.48666501 25:-0.259592 #
-0.5 5:-0.48666501 25:-0.259592 #
0.5 5:-0.48666501 25:-0.259592 #
-0.5 5:-0.48666501 25:-0.259592 #
0.5 5:-0.48666501 25:-0.259592 #
-0.5 5:-0.48666501 25:-0.259592 #
0.5 5:-0.48666501 25:-0.259592 #
-0.5 5:-0.48666501 25:-0.259592 #
0.5 5:-0.48666501 25:-0.259592 #
-0.5 5:-0.48666501 25:-0.259592 #
0.5 5:-0.48666501 25:-0.259592 #
-0.5 5:-0.48666501 25:-0.259592 #
0.5 5:-0.48666501 25:-0.259592 #
-0.5 5:-0.48666501 25:-0.259592 #
0.5 5:0.47009799 25:-0.259592 #
0.5 5:-0.48666501 25:-0.259592 #
-0.5 5:-0.48666501 25:-0.259592 #
-0.5 5:-0.48666501 25:-0.259592 #
0.5 5:-0.48666501 25:-0.259592 #
-0.5 5:-0.48666501 25:-0.259592 #
0.5 5:-0.48666501 25:-0.259592 #
-0.5 5:-0.48666501 25:-0.259592 #
0.5 5:-0.48666501 25:-0.259592 #
-0.5 5:-0.48666501 25:-0.259592 #
0.5 5:-0.48666501 25:-0.259592 #
-0.5 5:-0.48666501 25:-0.259592 #
0.5 5:-0.48666501 25:-0.259592 #
-0.5 5:-0.48666501 25:-0.259592 #
0.5 5:-0.48666501 25:-0.259592 #
-0.5 5:-0.48666501 25:-0.259592 #
0.5 5:-0.48666501 25:-0.259592 #
-0.5 5:-0.48666501 25:-0.259592 #
0.5 5:-0.48666501 25:-0.259592 #
-0.5 5:-0.48666501 25:-0.259592 #
0.5 5:-0.48666501 25:-0.259592 #
-0.5 5:-0.48666501 25:-0.259592 #
0.5 5:-0.48666501 25:-0.259592 #
-0.5 5:-0.48666501 25:-0.259592 #
0.5 5:-0.48666501 25:-0.259592 #
-0.5 5:-0.48666501 25:-0.259592 #
0.5 5:-0.48666501 25:-0.259592 #
-0.5 5:-0.48666501 25:-0.259592 #
0.5 5:-0.48666501 25:-0.259592 #
-0.5 5:-0.48666501 25:-0.259592 #
0.5 5:-0.48666501 25:-0.259592 #
-0.5 5:-0.48666501 25:-0.259592 #
0.5 5:-0.48666501 25:-0.259592 #
-0.5 5:-0.48666501 25:-0.259592 #
0.5 5:-0.48666501 25:-0.259592 #
-0.5 5:-0.48666501 25:-0.259592 #
0.5 5:-0.48666501 25:-0.259592 #
-0.5 5:-0.48666501 25:-0.259592 #
0.5 5:-0.48666501 25:-0.259592 #
-0.5 5:-0.48666501 25:-0.259592 #
0.5 5:-0.48666501 25:-0.259592 #
-0.5 5:-0.48666501 25:-0.259592 #
0.5 5:-0.48666501 25:-0.259592 #
-0.5 5:-0.48666501 25:-0.259592 #
0.5 5:-0.48666501 25:-0.259592 #
-0.5 5:-0.48666501 25:-0.259592 #
0.5 5:-0.48666501 25:-0.259592 #
-0.5 5:-0.48666501 25:-0.259592 #
0.5 5:-0.48666501 25:-0.259592 #
-0.5 5:-0.48666501 25:-0.259592 #
0.5 5:-0.48666501 25:-0.259592 #
-0.5 5:-0.48666501 25:-0.259592 #
0.5 5:-0.48666501 25:-0.259592 #
-0.5 5:-0.48666501 25:-0.259592 #
0.5 5:-0.48666501 25:-0.259592 #
-0.5 5:-0.48666501 25:-0.259592 #
0.5 5:-0.48666501 25:-0.259592 #
-0.5 5:-0.48666501 25:-0.259592 #
0.5 5:-0.48666501 25:-0.259592 #
-0.5 5:-0.48666501 25:-0.259592 #
0.5 5:-0.48666501 25:-0.259592 #
-0.5 5:-0.48666501 25:-0.259592 #
0.5 5:-0.48666501 25:-0.259592 #
-0.5 5:-0.48666501 25:-0.259592 #
0.5 5:-0.48666501 25:-0.259592 #
-0.5 5:-0.48666501 25:-0.259592 #
0.5 5:-0.48666501 25:-0.259592 #
-0.5 5:-0.48666501 25:-0.259592 #
0.5 5:-0.48666501 25:-0.259592 #
-0.5 5:-0.48666501 25:-0.259592 #
0.5 5:-0.48666501 25:-0.259592 #
-0.5 5:-0.48666501 25:-0.259592 #
0.5 5:-0.48666501 25:-0.259592 #
-0.5 5:-0.48666501 25:-0.259592 #
0.5 5:-0.48666501 25:-0.259592 #
-0.5 5:-0.48666501 25:-0.259592 #
0.5 5:-0.48666501 25:-0.259592 #
-0.5 5:-0.48666501 25:-0.259592 #
0.5 5:-0.48666501 25:-0.259592 #
-0.5 5:-0.48666501 25:-0.259592 #
0.5 5:-0.48666501 25:-0.259592 #
-0.5 5:-0.48666501 25:-0.259592 #
0.5 5:-0.48666501 25:-0.259592 #
-0.5 5:-0.48666501 25:-0.259592 #
0.5 5:-0.48666501 25:-0.259592 #
-0.5 5:-0.48666501 25:-0.259592 #
0.5 5:-0.48666501 25:-0.259592 #
-0.5 5:-0.48666501 25:-0.259592 #
0.5 5:-0.48666501 25:-0.259592 #
-0.5 5:-0.48666501 25:-0.259592 #
0.5 5:-0.48666501 25:-0.259592 #
-0.5 5:-0.48666501 25:-0.259592 #
0.5 5:-0.48666501 25:-0.259592 #
-0.5 5:-0.48666501 25:-0.259592 #
0.5 5:-0.48666501 25:-0.259592 #
-0.5 5:-0.48666501 25:-0.259592 #
0.5 5:-0.48666501 25:-0.259592 #
-0.5 5:-0.48666501 25:-0.259592 #
-0.5 5:-0.48666501 25:-0.259592 #
0.5 5:0.54258001 25:-0.259592 #
0.5 5:-0.48666501 25:-0.259592 #
0.5 5:-0.48666501 25:-0.259592 #
-0.5 5:-0.48666501 25:-0.259592 #
0.5 5:-0.48666501 25:-0.259592 #
-0.5 5:-0.48666501 25:-0.259592 #
0.5 5:-0.48666501 25:-0.259592 #
-0.5 5:-0.48666501 25:-0.259592 #
0.5 5:-0.48666501 25:-0.259592 #
-0.5 5:-0.48666501 25:-0.259592 #
0.5 5:-0.48666501 25:-0.259592 #
-0.5 5:-0.48666501 25:-0.259592 #
0.5 5:-0.48666501 25:-0.259592 #
-0.5 5:-0.48666501 25:-0.259592 #
0.5 5:-0.457672 25:-0.259592 #
-0.5 5:-0.48666501 25:-0.259592 #
0.5 5:-0.42867899 25:-0.259592 #
-0.5 5:-0.48666501 25:-0.259592 #
0.5 5:-0.41418299 25:-0.259592 #
-0.5 5:-0.48666501 25:-0.259592 #
0.5 5:-0.41418299 25:-0.259592 #
-0.5 5:-0.48666501 25:-0.259592 #
0.5 5:-0.41418299 25:-0.259592 #
-0.5 5:-0.48666501 25:-0.259592 #
0.5 5:-0.41418299 25:-0.259592 #
-0.5 5:-0.48666501 25:-0.259592 #
0.5 5:-0.38519001 25:-0.259592 #
-0.5 5:-0.48666501 25:-0.259592 #
0.5 5:-0.38519001 25:-0.259592 #
-0.5 5:-0.48666501 25:-0.259592 #
0.5 5:-0.38519001 25:-0.259592 #
-0.5 5:-0.48666501 25:-0.259592 #
0.5 5:-0.37069401 25:-0.259592 #
-0.5 5:-0.48666501 25:-0.259592 #
0.5 5:-0.37069401 25:-0.259592 #
-0.5 5:-0.48666501 25:-0.259592 #
0.5 5:-0.37069401 25:-0.259592 #
-0.5 5:-0.48666501 25:-0.259592 #
0.5 5:-0.37069401 25:-0.259592 #
-0.5 5:-0.48666501 25:-0.259592 #
0.5 5:-0.37069401 25:-0.259592 #
-0.5 5:-0.48666501 25:-0.259592 #
0.5 5:-0.37069401 25:-0.259592 #
-0.5 5:-0.48666501 25:-0.259592 #
0.5 5:-0.37069401 25:-0.259592 #
-0.5 5:-0.48666501 25:-0.259592 #
0.5 5:-0.356197 25:-0.259592 #
-0.5 5:-0.48666501 25:-0.259592 #
0.5 5:-0.356197 25:-0.259592 #
-0.5 5:-0.48666501 25:-0.259592 #
0.5 5:-0.356197 25:-0.259592 #
-0.5 5:-0.48666501 25:-0.259592 #
0.5 5:-0.356197 25:-0.259592 #
-0.5 5:-0.48666501 25:-0.259592 #
0.5 5:-0.341701 25:-0.259592 #
-0.5 5:-0.48666501 25:-0.259592 #
0.5 5:-0.341701 25:-0.259592 #
-0.5 5:-0.48666501 25:-0.259592 #
0.5 5:-0.327205 25:-0.259592 #
-0.5 5:-0.48666501 25:-0.259592 #
0.5 5:-0.327205 25:-0.259592 #
-0.5 5:-0.48666501 25:-0.259592 #
0.5 5:-0.327205 25:-0.259592 #
-0.5 5:-0.48666501 25:-0.259592 #
0.5 5:-0.31270799 25:-0.259592 #
0.5 5:-0.31270799 25:-0.259592 #
-0.5 5:-0.48666501 25:-0.259592 #
0.5 5:-0.31270799 25:-0.259592 #
-0.5 5:-0.48666501 25:-0.259592 #
0.5 5:-0.31270799 25:-0.259592 #
-0.5 5:-0.48666501 25:-0.259592 #
0.5 5:-0.29821199 25:-0.259592 #
-0.5 5:-0.48666501 25:-0.259592 #
-0.5 5:-0.095261998 25:-0.049286999 #
0.5 5:-0.29821199 25:-0.259592 #
0.5 5:-0.29821199 25:-0.259592 #
-0.5 5:-0.48666501 25:-0.259592 #
0.5 5:-0.29821199 25:-0.259592 #
-0.5 5:-0.124255 25:-0.064865001 #
-0.5 5:-0.48666501 25:-0.259592 #
0.5 5:-0.29821199 25:-0.259592 #
0.5 5:-0.28371501 25:-0.259592 #
-0.5 5:-0.48666501 25:-0.259592 #
-0.5 5:-0.211233 25:-0.111599 #
0.5 5:-0.28371501 25:-0.259592 #
0.5 5:-0.28371501 25:-0.259592 #
-0.5 5:-0.48666501 25:-0.259592 #
0.5 5:-0.28371501 25:-0.259592 #
-0.5 5:-0.48666501 25:-0.259592 #
0.5 5:-0.28371501 25:-0.259592 #
-0.5 5:-0.109759 25:0.044183001 #
-0.5 5:-0.48666501 25:-0.259592 #
0.5 5:-0.28371501 25:-0.259592 #
0.5 5:-0.26921901 25:-0.259592 #
-0.5 5:-0.48666501 25:-0.259592 #
-0.5 5:-0.48666501 25:-0.259592 #
0.5 5:-0.26921901 25:-0.259592 #
-0.49070428534499671568980261326942 5:0.73103303 25:0.83088201 #
0.5 5:-0.26921901 25:-0.259592 #
-0.5 5:-0.48666501 25:-0.259592 #
0.5 5:-0.26921901 25:-0.259592 #
-0.5 5:-0.48666501 25:-0.259592 #
0.5 5:-0.26921901 25:-0.259592 #
-0.5 5:-0.48666501 25:-0.259592 #
0.5 5:-0.26921901 25:-0.259592 #
-0.5 5:-0.48666501 25:-0.259592 #
0.5 5:-0.25472301 25:-0.259592 #
-0.5 5:-0.48666501 25:-0.259592 #
0.5 5:-0.25472301 25:-0.259592 #
-0.5 5:-0.48666501 25:-0.259592 #
0.5 5:-0.25472301 25:-0.259592 #
-0.5 5:-0.48666501 25:-0.259592 #
0.5 5:-0.25472301 25:-0.259592 #
0.5 5:-0.240226 25:-0.259592 #
-0.5 5:-0.48666501 25:-0.259592 #
0.5 5:-0.240226 25:-0.259592 #
0.5 5:-0.22573 25:-0.259592 #
-0.5 5:-0.48666501 25:-0.259592 #
0.5 5:-0.211233 25:-0.259592 #
-0.5 5:-0.48666501 25:-0.259592 #
0.5 5:-0.211233 25:-0.259592 #
-0.5 5:-0.48666501 25:-0.259592 #
0.5 5:-0.211233 25:-0.259592 #
-0.5 5:-0.48666501 25:-0.259592 #
0.5 5:-0.037276 25:-0.259592 #
0.5 5:-0.211233 25:-0.259592 #
-0.5 5:-0.48666501 25:-0.259592 #
0.5 5:-0.211233 25:-0.259592 #
-0.5 5:-0.48666501 25:-0.259592 #
0.5 5:-0.211233 25:-0.259592 #
-0.5 5:-0.48666501 25:-0.259592 #
0.5 5:-0.19673701 25:-0.259592 #
-0.5 5:-0.48666501 25:-0.259592 #
0.5 5:-0.19673701 25:-0.259592 #
-0.5 5:-0.48666501 25:-0.259592 #
0.5 5:-0.19673701 25:-0.259592 #
-0.5 5:-0.48666501 25:-0.259592 #
0.5 5:-0.18224099 25:-0.259592 #
-0.5 5:-0.48666501 25:-0.259592 #
0.5 5:0.122184 25:-0.259592 #
0.5 5:-0.18224099 25:-0.259592 #
-0.5 5:-0.48666501 25:-0.259592 #
0.5 5:-0.18224099 25:-0.259592 #
-0.5 5:-0.48666501 25:-0.259592 #
0.5 5:-0.167744 25:-0.259592 #
-0.5 5:-0.48666501 25:-0.259592 #
0.5 5:-0.167744 25:-0.259592 #
-0.5 5:-0.48666501 25:-0.259592 #
0.5 5:-0.167744 25:-0.259592 #
-0.5 5:-0.48666501 25:-0.259592 #
0.5 5:-0.153248 25:-0.259592 #
-0.5 5:-0.48666501 25:-0.259592 #
0.5 5:-0.153248 25:-0.259592 #
-0.5 5:-0.48666501 25:-0.259592 #
0.5 5:-0.153248 25:-0.259592 #
0.5 5:-0.109759 25:-0.259592 #
-0.5 5:-0.48666501 25:-0.259592 #
0.5 5:-0.153248 25:-0.259592 #
0.5 5:-0.153248 25:-0.259592 #
-0.5 5:-0.48666501 25:-0.259592 #
0.5 5:-0.153248 25:-0.259592 #
-0.5 5:-0.48666501 25:-0.259592 #
0.5 5:-0.153248 25:-0.259592 #
-0.5 5:-0.48666501 25:-0.259592 #
0.5 5:-0.138751 25:-0.259592 #
0.5 5:-0.138751 25:-0.259592 #
-0.5 5:-0.48666501 25:-0.259592 #
0.5 5:-0.138751 25:-0.259592 #
-0.5 5:-0.48666501 25:-0.259592 #
0.5 5:-0.138751 25:-0.259592 #
-0.5 5:-0.48666501 25:-0.259592 #
0.5 5:-0.124255 25:-0.259592 #
-0.5 5:-0.48666501 25:-0.259592 #
0.5 5:-0.124255 25:-0.259592 #
-0.5 5:-0.48666501 25:-0.259592 #
0.5 5:-0.124255 25:-0.259592 #
-0.5 5:-0.48666501 25:-0.259592 #
0.5 5:-0.124255 25:-0.259592 #
-0.5 5:-0.48666501 25:-0.259592 #
-0.5 5:-0.48666501 25:-0.259592 #
0.5 5:-0.109759 25:-0.259592 #
-0.5 5:-0.48666501 25:-0.259592 #
0.5 5:-0.109759 25:-0.259592 #
-0.5 5:-0.48666501 25:-0.259592 #
-0.5 5:-0.48666501 25:-0.259592 #
0.5 5:-0.109759 25:-0.259592 #
-0.5 5:-0.48666501 25:-0.259592 #
0.5 5:-0.109759 25:-0.259592 #
-0.5 5:-0.48666501 25:-0.259592 #
0.5 5:-0.109759 25:-0.259592 #
-0.5 5:-0.48666501 25:-0.259592 #
0.5 5:-0.109759 25:-0.259592 #
0.5 5:-0.109759 25:-0.259592 #
-0.5 5:-0.48666501 25:-0.259592 #
-0.5 5:-0.48666501 25:-0.259592 #
-0.5 5:-0.48666501 25:-0.259592 #
0.5 5:-0.109759 25:-0.259592 #
-0.5 5:-0.48666501 25:-0.259592 #
0.5 5:-0.109759 25:-0.259592 #
-0.5 5:-0.48666501 25:-0.259592 #
0.5 5:-0.109759 25:-0.259592 #
-0.5 5:-0.48666501 25:-0.259592 #
0.5 5:-0.109759 25:-0.259592 #
0.5 5:-0.095261998 25:-0.259592 #
-0.5 5:-0.48666501 25:-0.259592 #
0.5 5:-0.095261998 25:-0.259592 #
-0.5 5:-0.48666501 25:-0.259592 #
0.5 5:-0.080766 25:-0.259592 #
-0.5 5:-0.48666501 25:-0.259592 #
0.5 5:-0.080766 25:-0.259592 #
0.5 5:-0.080766 25:-0.259592 #
-0.5 5:-0.48666501 25:-0.259592 #
0.5 5:-0.080766 25:-0.259592 #
-0.5 5:-0.48666501 25:-0.259592 #
0.5 5:-0.080766 25:-0.259592 #
-0.5 5:-0.48666501 25:-0.259592 #
0.5 5:-0.066269003 25:-0.259592 #
-0.5 5:-0.48666501 25:-0.259592 #
0.5 5:-0.066269003 25:-0.259592 #
-0.5 5:-0.48666501 25:-0.259592 #
0.5 5:-0.066269003 25:-0.259592 #
-0.5 5:-0.48666501 25:-0.259592 #
0.5 5:-0.066269003 25:-0.259592 #
-0.5 5:-0.48666501 25:-0.259592 #
0.5 5:-0.066269003 25:-0.259592 #
-0.5 5:-0.48666501 25:-0.259592 #
0.5 5:-0.066269003 25:-0.259592 #
-0.5 5:-0.48666501 25:-0.259592 #
0.5 5:-0.051773001 25:-0.259592 #
-0.5 5:-0.48666501 25:-0.259592 #
0.5 5:-0.051773001 25:-0.259592 #
-0.5 5:-0.48666501 25:-0.259592 #
0.5 5:-0.051773001 25:-0.259592 #
-0.5 5:-0.48666501 25:-0.259592 #
0.5 5:-0.051773001 25:-0.259592 #
-0.5 5:-0.48666501 25:-0.259592 #
0.5 5:-0.051773001 25:-0.259592 #
-0.5 5:-0.48666501 25:-0.259592 #
0.5 5:-0.051773001 25:-0.259592 #
-0.5 5:-0.48666501 25:-0.259592 #
-0.5 5:-0.48666501 25:-0.259592 #
0.5 5:-0.022779999 25:-0.259592 #
-0.5 5:-0.48666501 25:-0.259592 #
0.5 5:-0.022779999 25:-0.259592 #
-0.5 5:-0.48666501 25:-0.259592 #
0.5 5:-0.022779999 25:-0.259592 #
0.5 5:-0.022779999 25:-0.259592 #
-0.5 5:-0.48666501 25:-0.259592 #
0.5 5:-0.022779999 25:-0.259592 #
-0.5 5:-0.48666501 25:-0.259592 #
0.5 5:-0.022779999 25:-0.259592 #
-0.5 5:-0.48666501 25:-0.259592 #
0.5 5:-0.022779999 25:-0.259592 #
-0.5 5:-0.48666501 25:-0.259592 #
0.5 5:-0.0082839997 25:-0.259592 #
-0.5 5:-0.48666501 25:-0.259592 #
0.5 5:-0.0082839997 25:-0.259592 #
-0.5 5:-0.48666501 25:-0.259592 #
-0.5 5:-0.48666501 25:-0.259592 #
0.5 5:0.006213 25:-0.259592 #
-0.5 5:-0.48666501 25:-0.259592 #
0.5 5:0.006213 25:-0.259592 #
0.5 5:0.006213 25:-0.259592 #
-0.5 5:-0.48666501 25:-0.259592 #
0.5 5:0.006213 25:-0.259592 #
-0.5 5:-0.48666501 25:-0.259592 #
0.5 5:0.006213 25:-0.259592 #
-0.5 5:-0.48666501 25:-0.259592 #
0.5 5:0.020709001 25:-0.259592 #
-0.5 5:-0.48666501 25:-0.259592 #
0.5 5:0.020709001 25:-0.259592 #
-0.5 5:-0.48666501 25:-0.259592 #
0.5 5:0.020709001 25:-0.259592 #
-0.5 5:-0.48666501 25:-0.259592 #
0.5 5:0.020709001 25:-0.259592 #
-0.5 5:-0.48666501 25:-0.259592 #
-0.5 5:-0.48666501 25:-0.259592 #
0.5 5:0.020709001 25:-0.259592 #
0.5 5:0.035206001 25:-0.259592 #
-0.5 5:-0.48666501 25:-0.259592 #
0.5 5:0.035206001 25:-0.259592 #
-0.5 5:-0.48666501 25:-0.259592 #
0.5 5:0.035206001 25:-0.259592 #
-0.5 5:-0.48666501 25:-0.259592 #
0.5 5:0.035206001 25:-0.259592 #
-0.5 5:-0.48666501 25:-0.259592 #
0.5 5:0.035206001 25:-0.259592 #
-0.5 5:-0.48666501 25:-0.259592 #
-0.5 5:-0.48666501 25:-0.259592 #
0.5 5:0.064198002 25:-0.259592 #
-0.5 5:-0.48666501 25:-0.259592 #
0.5 5:0.165673 25:-0.259592 #
-0.5 5:-0.48666501 25:-0.259592 #
0.5 5:0.064198002 25:-0.259592 #
0.5 5:0.064198002 25:-0.259592 #
-0.5 5:-0.48666501 25:-0.259592 #
0.5 5:0.064198002 25:-0.259592 #
-0.5 5:-0.48666501 25:-0.259592 #
0.5 5:0.064198002 25:-0.259592 #
-0.5 5:-0.48666501 25:-0.259592 #
0.5 5:0.064198002 25:-0.259592 #
-0.5 5:-0.48666501 25:-0.259592 #
-0.5 5:-0.48666501 25:-0.259592 #
0.5 5:0.064198002 25:-0.259592 #
-0.5 5:-0.48666501 25:-0.259592 #
0.5 5:0.064198002 25:-0.259592 #
0.5 5:0.078694999 25:-0.259592 #
-0.5 5:-0.48666501 25:-0.259592 #
0.5 5:0.078694999 25:-0.259592 #
-0.5 5:-0.48666501 25:-0.259592 #
0.5 5:0.078694999 25:-0.259592 #
-0.5 5:-0.48666501 25:-0.259592 #
0.5 5:0.078694999 25:-0.259592 #
-0.5 5:-0.48666501 25:-0.259592 #
-0.5 5:-0.48666501 25:-0.259592 #
0.5 5:0.078694999 25:-0.259592 #
-0.5 5:-0.48666501 25:-0.259592 #
0.5 5:0.078694999 25:-0.259592 #
0.5 5:0.093190998 25:-0.259592 #
-0.5 5:-0.48666501 25:-0.259592 #
0.5 5:0.093190998 25:-0.259592 #
-0.5 5:-0.48666501 25:-0.259592 #
0.5 5:0.093190998 25:-0.259592 #
-0.5 5:-0.48666501 25:-0.259592 #
0.5 5:0.093190998 25:-0.259592 #
-0.5 5:-0.48666501 25:-0.259592 #
0.5 5:0.107688 25:-0.259592 #
-0.5 5:-0.48666501 25:-0.259592 #
-0.5 5:-0.48666501 25:-0.259592 #
0.5 5:0.107688 25:-0.259592 #
0.5 5:0.122184 25:-0.259592 #
-0.5 5:-0.48666501 25:-0.259592 #
0.5 5:0.122184 25:-0.259592 #
-0.5 5:-0.48666501 25:-0.259592 #
0.5 5:0.122184 25:-0.259592 #
-0.5 5:-0.48666501 25:-0.259592 #
0.5 5:0.122184 25:-0.259592 #
-0.5 5:-0.48666501 25:-0.259592 #
-0.5 5:-0.48666501 25:-0.259592 #
0.5 5:0.122184 25:-0.259592 #
0.5 5:0.122184 25:-0.259592 #
-0.5 5:-0.48666501 25:-0.259592 #
0.5 5:0.122184 25:-0.259592 #
-0.5 5:-0.48666501 25:-0.259592 #
0.5 5:0.122184 25:-0.259592 #
-0.5 5:-0.48666501 25:-0.259592 #
0.5 5:0.13668001 25:-0.259592 #
-0.5 5:-0.48666501 25:-0.259592 #
-0.5 5:-0.48666501 25:-0.259592 #
0.5 5:0.13668001 25:-0.259592 #
0.5 5:0.13668001 25:-0.259592 #
-0.5 5:-0.48666501 25:-0.259592 #
0.5 5:0.13668001 25:-0.259592 #
-0.5 5:-0.48666501 25:-0.259592 #
-0.5 5:-0.48666501 25:-0.259592 #
0.5 5:0.13668001 25:-0.259592 #
-0.5 5:-0.48666501 25:-0.259592 #
0.5 5:0.13668001 25:-0.259592 #
-0.5 5:-0.48666501 25:-0.259592 #
0.5 5:0.52808303 25:-0.259592 #
0.5 5:0.151177 25:-0.259592 #
-0.5 5:-0.48666501 25:-0.259592 #
0.5 5:0.151177 25:-0.259592 #
0.5 5:0.151177 25:-0.259592 #
-0.5 5:-0.48666501 25:-0.259592 #
0.5 5:0.151177 25:-0.259592 #
-0.5 5:0.81801099 25:0.44142699 #
0.5 5:0.165673 25:-0.259592 #
-0.5 5:-0.48666501 25:-0.259592 #
0.5 5:0.165673 25:-0.259592 #
-0.5 5:-0.48666501 25:-0.259592 #
0.5 5:0.165673 25:-0.259592 #
-0.5 5:-0.48666501 25:-0.259592 #
0.5 5:0.165673 25:-0.259592 #
-0.5 5:-0.48666501 25:-0.259592 #
0.5 5:0.165673 25:-0.259592 #
-0.5 5:-0.48666501 25:-0.259592 #
0.5 5:0.165673 25:-0.259592 #
-0.5 5:-0.240226 25:0.013026 #
0.5 5:0.165673 25:-0.259592 #
-0.075599653743781247694499825229286 5:-0.153248 25:0.106496 #
-0.5 5:-0.48666501 25:-0.259592 #
0.5 5:0.18017 25:-0.259592 #
-0.5 5:0.45560101 25:0.145441 #
0.5 5:0.18017 25:-0.259592 #
-0.5 5:-0.48666501 25:-0.259592 #
0.5 5:0.18017 25:-0.259592 #
-0.5 5:0.45560101 25:0.24669901 #
0.5 5:0.18017 25:-0.259592 #
0.5 5:0.194666 25:-0.259592 #
0.5 5:0.194666 25:-0.259592 #
-0.5 5:-0.48666501 25:-0.259592 #
0.5 5:0.194666 25:-0.259592 #
0.5 5:0.194666 25:-0.259592 #
-0.5 5:-0.48666501 25:-0.259592 #
0.5 5:0.194666 25:-0.259592 #
0.5 5:0.194666 25:-0.259592 #
-0.5 5:-0.48666501 25:-0.259592 #
0.5 5:0.194666 25:-0.259592 #
-0.5 5:-0.48666501 25:-0.259592 #
-0.5 5:-0.48666501 25:-0.259592 #
0.5 5:0.194666 25:-0.259592 #
-0.5 5:-0.48666501 25:-0.259592 #
0.5 5:0.209162 25:-0.259592 #
0.5 5:0.209162 25:-0.259592 #
-0.5 5:-0.48666501 25:-0.259592 #
0.5 5:0.209162 25:-0.259592 #
-0.5 5:-0.48666501 25:-0.259592 #
-0.5 5:-0.48666501 25:-0.259592 #
0.5 5:0.22365899 25:-0.259592 #
0.5 5:0.22365899 25:-0.259592 #
-0.5 5:-0.48666501 25:-0.259592 #
0.5 5:0.22365899 25:-0.259592 #
-0.5 5:-0.48666501 25:-0.259592 #
-0.5 5:-0.48666501 25:-0.259592 #
0.5 5:0.23815501 25:-0.259592 #
-0.5 5:-0.48666501 25:-0.259592 #
0.5 5:0.23815501 25:-0.259592 #
0.5 5:0.25265199 25:-0.259592 #
-0.5 5:-0.48666501 25:-0.259592 #
0.5 5:0.25265199 25:-0.259592 #
-0.5 5:-0.48666501 25:-0.259592 #
-0.5 5:-0.48666501 25:-0.259592 #
0.5 5:0.26714799 25:-0.259592 #
0.5 5:0.26714799 25:-0.259592 #
-0.5 5:-0.48666501 25:-0.259592 #
0.5 5:0.26714799 25:-0.259592 #
-0.5 5:-0.48666501 25:-0.259592 #
-0.5 5:-0.48666501 25:-0.259592 #
0.5 5:0.26714799 25:-0.259592 #
-0.5 5:-0.48666501 25:-0.259592 #
0.5 5:0.26714799 25:-0.259592 #
0.5 5:0.28164399 25:-0.259592 #
-0.5 5:-0.48666501 25:-0.259592 #
0.5 5:0.28164399 25:-0.259592 #
-0.5 5:-0.48666501 25:-0.259592 #
-0.5 5:-0.48666501 25:-0.259592 #
0.5 5:0.28164399 25:-0.259592 #
0.5 5:0.28164399 25:-0.259592 #
-0.5 5:-0.48666501 25:-0.259592 #
-0.5 5:-0.48666501 25:-0.259592 #
0.5 5:0.28164399 25:-0.259592 #
-0.5 5:-0.48666501 25:-0.259592 #
0.5 5:0.45560101 25:-0.259592 #
0.5 5:0.28164399 25:-0.259592 #
-0.5 5:-0.48666501 25:-0.259592 #
-0.5 5:-0.48666501 25:-0.259592 #
0.5 5:0.28164399 25:-0.259592 #
-0.5 5:-0.48666501 25:-0.259592 #
0.5 5:0.296141 25:-0.259592 #
0.5 5:0.296141 25:-0.259592 #
-0.5 5:-0.48666501 25:-0.259592 #
0.5 5:0.296141 25:-0.259592 #
-0.5 5:-0.48666501 25:-0.259592 #
-0.5 5:-0.48666501 25:-0.259592 #
0.5 5:0.296141 25:-0.259592 #
0.5 5:0.310637 25:-0.259592 #
-0.5 5:-0.48666501 25:-0.259592 #
0.5 5:0.310637 25:-0.259592 #
-0.5 5:-0.48666501 25:-0.259592 #
-0.5 5:-0.48666501 25:-0.259592 #
0.5 5:0.32513401 25:-0.259592 #
0.5 5:0.35412601 25:-0.259592 #
-0.5 5:-0.48666501 25:-0.259592 #
0.5 5:0.36862299 25:-0.259592 #
-0.5 5:-0.48666501 25:-0.259592 #
0.5 5:0.38311899 25:-0.259592 #
-0.5 5:-0.48666501 25:-0.259592 #
-0.5 5:-0.48666501 25:-0.259592 #
0.5 5:0.38311899 25:-0.259592 #
-0.5 5:-0.48666501 25:-0.259592 #
0.5 5:0.397616 25:-0.259592 #
-0.5 5:-0.48666501 25:-0.259592 #
0.5 5:0.397616 25:-0.259592 #
-0.5 5:-0.48666501 25:-0.259592 #
0.5 5:0.397616 25:-0.259592 #
-0.5 5:-0.48666501 25:-0.259592 #
0.5 5:0.397616 25:-0.259592 #
-0.5 5:-0.48666501 25:-0.259592 #
0.5 5:0.397616 25:-0.259592 #
0.5 5:0.397616 25:-0.259592 #
-0.5 5:-0.48666501 25:-0.259592 #
0.5 5:0.412112 25:-0.259592 #
-0.5 5:-0.48666501 25:-0.259592 #
0.5 5:0.412112 25:-0.259592 #
-0.5 5:-0.48666501 25:-0.259592 #
0.5 5:0.42660901 25:-0.259592 #
-0.5 5:-0.48666501 25:-0.259592 #
0.5 5:0.42660901 25:-0.259592 #
-0.5 5:-0.48666501 25:-0.259592 #
0.5 5:0.42660901 25:-0.259592 #
-0.5 5:-0.48666501 25:-0.259592 #
0.5 5:0.42660901 25:-0.259592 #
-0.5 5:-0.48666501 25:-0.259592 #
0.5 5:0.44110501 25:-0.259592 #
0.5 5:0.44110501 25:-0.259592 #
-0.5 5:-0.48666501 25:-0.259592 #
0.5 5:0.44110501 25:-0.259592 #
-0.5 5:-0.48666501 25:-0.259592 #
0.5 5:0.44110501 25:-0.259592 #
-0.5 5:-0.48666501 25:-0.259592 #
0.5 5:0.44110501 25:-0.259592 #
-0.5 5:-0.48666501 25:-0.259592 #
0.5 5:0.44110501 25:-0.259592 #
-0.5 5:-0.48666501 25:-0.259592 #
0.5 5:0.45560101 25:-0.259592 #
-0.5 5:-0.48666501 25:-0.259592 #
0.5 5:0.45560101 25:-0.259592 #
-0.5 5:-0.48666501 25:-0.259592 #
0.5 5:0.45560101 25:-0.259592 #
0.5 5:0.45560101 25:-0.259592 #
0.5 5:0.45560101 25:-0.259592 #
-0.5 5:-0.48666501 25:-0.259592 #
0.5 5:0.45560101 25:-0.259592 #
0.5 5:0.45560101 25:-0.259592 #
0.5 5:0.45560101 25:-0.259592 #
-0.5 5:-0.48666501 25:-0.259592 #
0.5 5:0.45560101 25:-0.259592 #
-0.5 5:0.36862299 25:0.199965 #
0.5 5:0.45560101 25:-0.259592 #
-0.5 5:0.310637 25:0.168808 #
0.5 5:0.47009799 25:-0.259592 #
-0.5 5:-0.48666501 25:-0.259592 #
0.5 5:0.48459399 25:-0.259592 #
-0.5 5:-0.48666501 25:-0.259592 #
0.5 5:0.499091 25:-0.259592 #
-0.5 5:-0.48666501 25:-0.259592 #
0.5 5:0.499091 25:-0.259592 #
-0.5 5:-0.48666501 25:-0.259592 #
0.5 5:0.499091 25:-0.259592 #
-0.5 5:-0.48666501 25:-0.259592 #
0.5 5:0.499091 25:-0.259592 #
-0.5 5:-0.48666501 25:-0.259592 #
0.5 5:0.499091 25:-0.259592 #
-0.5 5:-0.48666501 25:-0.259592 #
0.5 5:0.52808303 25:-0.259592 #
-0.5 5:-0.48666501 25:-0.259592 #
0.075259876285823479324932350209565 5:0.54258001 25:-0.259592 #
-0.008955937197049790299274718563538 5:-0.153248 25:0.106496 #
