SVM-light Version V6.02
0 # kernel type
3 # kernel parameter -d 
1 # kernel parameter -g 
1 # kernel parameter -s 
1 # kernel parameter -r 
empty# kernel parameter -u 
50 # highest feature index 
1813 # number of training documents 
1351 # number of support vectors plus 1 
0.44475294 # threshold b, each following line is a SV (starting with alpha*y)
-0.5 5:-0.48666501 25:-0.259592 50:0.65678102 #
0.5 5:-0.31270799 25:-0.259592 50:0.28291199 #
-0.5 5:12.690568 25:-0.259592 50:-0.615345 #
0.5 5:-0.19673701 25:-0.259592 50:0.069271997 #
-0.5 5:-0.48666501 25:-0.259592 50:-0.615345 #
0.5 5:0.078694999 25:-0.259592 50:-0.43569401 #
0.5 5:-0.48666501 25:-0.259592 50:-0.615345 #
-0.5 5:-0.48666501 25:-0.259592 50:2.5261259 #
-0.5 5:-0.48666501 25:-0.259592 50:-0.615345 #
-0.5 5:-0.48666501 25:-0.259592 50:-0.615345 #
-0.5 5:11.588841 25:-0.259592 50:-0.615345 #
-0.5 5:-0.48666501 25:-0.259592 50:-0.32887399 #
0.5 5:0.28164399 25:-0.259592 50:-0.615345 #
-0.5 5:-0.48666501 25:-0.259592 50:-0.615345 #
0.5 5:1.673299 25:0.90098399 50:-0.615345 #
0.5 5:-0.48666501 25:0.66731101 50:-0.615345 #
0.5 5:0.078694999 25:-0.259592 50:-0.43569401 #
-0.5 5:-0.48666501 25:-0.259592 50:-0.615345 #
0.5 5:0.93398303 25:0.50374001 50:-0.615345 #
0.5 5:-0.457672 25:-0.24401399 50:-0.59592301 #
-0.5 5:8.5735893 25:-0.259592 50:-0.615345 #
-0.5 5:-0.48666501 25:-0.259592 50:-0.615345 #
0.5 5:0.33963001 25:0.184387 50:-0.615345 #
-0.5 5:-0.48666501 25:-0.259592 50:-0.615345 #
0.5 5:-0.48666501 25:-0.259592 50:-0.615345 #
-0.5 5:-0.48666501 25:-0.259592 50:-0.615345 #
-0.5 5:-0.48666501 25:-0.259592 50:0.098405004 #
0.5 5:0.45560101 25:-0.259592 50:-0.615345 #
-0.5 5:-0.48666501 25:-0.259592 50:-0.615345 #
0.5 5:0.165673 25:-0.259592 50:0.21008 #
-0.5 5:-0.48666501 25:-0.259592 50:-0.615345 #
0.5 5:0.165673 25:-0.259592 50:-0.042403001 #
-0.5 5:5.0799551 25:-0.259592 50:-0.615345 #
-0.5 5:-0.48666501 25:-0.259592 50:-0.615345 #
0.5 5:0.45560101 25:-0.259592 50:-0.45997101 #
-0.5 5:-0.48666501 25:-0.259592 50:-0.615345 #
-0.5 5:4.6160698 25:-0.259592 50:0.31690001 #
0.5 5:-0.48666501 25:-0.259592 50:-0.615345 #
-0.5 5:-0.48666501 25:-0.259592 50:0.26834601 #
0.5 5:0.13668001 25:-0.259592 50:-0.0035590001 #
-0.5 5:-0.48666501 25:-0.259592 50:-0.615345 #
-0.5 5:-0.48666501 25:-0.259592 50:-0.615345 #
0.5 5:0.122184 25:-0.259592 50:-0.29488599 #
-0.5 5:-0.48666501 25:-0.259592 50:-0.615345 #
0.5 5:-0.48666501 25:-0.259592 50:-0.615345 #
0.5 5:0.13668001 25:-0.096020997 50:-0.615345 #
-0.5 5:-0.48666501 25:-0.259592 50:-0.615345 #
0.5 5:0.194666 25:-0.259592 50:-0.615345 #
-0.5 5:-0.48666501 25:-0.259592 50:-0.615345 #
-0.5 5:3.6448109 25:-0.259592 50:-0.615345 #
0.5 5:0.499091 25:-0.259592 50:-0.615345 #
-0.5 5:-0.48666501 25:-0.259592 50:-0.615345 #
0.5 5:-0.48666501 25:-0.259592 50:-0.615345 #
0.5 5:0.209162 25:-0.259592 50:-0.207488 #
0.5 5:-0.457672 25:-0.24401399 50:-0.59592301 #
-0.5 5:3.1374359 25:-0.259592 50:-0.076390997 #
-0.5 5:2.96348 25:-0.259592 50:-0.615345 #
0.5 5:0.209162 25:-0.259592 50:-0.43083799 #
-0.5 5:2.7315371 25:-0.259592 50:-0.17835499 #
0.5 5:0.67304701 25:-0.057076 50:-0.615345 #
0.5 5:-0.48666501 25:-0.259592 50:-0.615345 #
-0.5 5:2.7315371 25:0.60499799 50:-0.615345 #
-0.5 5:2.96348 25:-0.259592 50:-0.615345 #
0.5 5:0.23815501 25:-0.259592 50:-0.41627201 #
-0.5 5:2.8765011 25:0.94771898 50:1.210301 #
0.5 5:0.25265199 25:-0.259592 50:-0.615345 #
0.5 5:0.28164399 25:-0.259592 50:-0.192921 #
-0.5 5:-0.48666501 25:-0.259592 50:-0.615345 #
-0.5 5:-0.48666501 25:-0.259592 50:-0.615345 #
-0.5 5:-0.48666501 25:-0.259592 50:-0.615345 #
0.5 5:0.28164399 25:-0.259592 50:-0.615345 #
-0.5 5:-0.48666501 25:-0.259592 50:-0.615345 #
0.5 5:0.310637 25:-0.259592 50:-0.14436699 #
-0.5 5:-0.48666501 25:-0.259592 50:-0.615345 #
0.5 5:0.26714799 25:-0.259592 50:-0.15407801 #
-0.5 5:-0.48666501 25:-0.259592 50:-0.615345 #
0.5 5:0.36862299 25:-0.259592 50:0.049851 #
-0.5 5:-0.48666501 25:-0.259592 50:-0.615345 #
-0.5 5:2.470602 25:-0.259592 50:-0.615345 #
0.5 5:0.38311899 25:-0.259592 50:-0.615345 #
-0.5 5:2.659055 25:-0.259592 50:1.166602 #
-0.5 5:-0.48666501 25:-0.259592 50:-0.615345 #
0.5 5:-0.48666501 25:-0.259592 50:-0.615345 #
0.5 5:0.35412601 25:-0.259592 50:-0.38713899 #
-0.5 5:-0.48666501 25:-0.259592 50:-0.615345 #
-0.5 5:-0.48666501 25:-0.259592 50:-0.615345 #
0.5 5:0.44110501 25:-0.259592 50:0.142104 #
0.5 5:-0.48666501 25:-0.259592 50:4.9829798 #
-0.5 5:-0.48666501 25:-0.259592 50:0.248924 #
-0.5 5:2.3546309 25:-0.259592 50:2.6183791 #
-0.5 5:2.4271131 25:-0.259592 50:-0.615345 #
-0.5 5:2.1226881 25:1.142447 50:-0.615345 #
-0.5 5:7.5588398 25:-0.259592 50:-0.615345 #
0.5 5:-0.48666501 25:-0.259592 50:3.599179 #
0.5 5:-0.48666501 25:-0.259592 50:-0.615345 #
-0.5 5:-0.48666501 25:-0.259592 50:0.151815 #
0.5 5:0.078694999 25:-0.259592 50:0.044994999 #
0.5 5:-0.037276 25:0.480373 50:-0.18806601 #
0.5 5:1.62981 25:0.877617 50:1.331687 #
-0.5 5:-0.48666501 25:-0.259592 50:-0.615345 #
0.5 5:-0.341701 25:0.659522 50:0.865565 #
-0.5 5:-0.48666501 25:-0.259592 50:-0.615345 #
0.5 5:-0.037276 25:0.480373 50:-0.18806601 #
-0.5 5:6.4136238 25:-0.259592 50:-0.615345 #
-0.5 5:-0.48666501 25:-0.259592 50:0.933541 #
-0.5 5:1.731285 25:-0.259592 50:-0.231765 #
-0.5 5:-0.48666501 25:-0.259592 50:-0.615345 #
0.5 5:0.499091 25:-0.259592 50:2.093992 #
0.5 5:0.47009799 25:-0.259592 50:-0.324018 #
-0.5 5:4.5000992 25:-0.259592 50:2.171679 #
0.5 5:-0.341701 25:-0.22064701 50:-0.44054899 #
-0.5 5:-0.48666501 25:-0.134967 50:0.92868602 #
-0.5 5:-0.48666501 25:-0.259592 50:0.948107 #
-0.5 5:-0.48666501 25:-0.259592 50:-0.615345 #
-0.5 5:0.412112 25:-0.259592 50:0.97238499 #
-0.5 5:2.1371839 25:-0.259592 50:2.3707521 #
0.5 5:0.44110501 25:-0.259592 50:1.657002 #
-0.5 5:-0.48666501 25:-0.259592 50:0.61308199 #
-0.5 5:1.194918 25:-0.259592 50:1.171458 #
-0.5 5:-0.48666501 25:-0.259592 50:0.97238499 #
0.5 5:0.020709001 25:-0.259592 50:-0.222054 #
0.5 5:0.38311899 25:-0.259592 50:1.385097 #
-0.5 5:1.194918 25:0.64394403 50:1.278277 #
0.5 5:-0.341701 25:-0.22064701 50:-0.39684999 #
-0.5 5:-0.48666501 25:-0.259592 50:0.982095 #
-0.5 5:-0.48666501 25:-0.259592 50:0.37031001 #
0.5 5:0.020709001 25:-0.259592 50:-0.33858499 #
-0.5 5:1.1514291 25:-0.259592 50:-0.615345 #
0.5 5:-0.48666501 25:-0.259592 50:3.3564069 #
-0.5 5:-0.48666501 25:-0.259592 50:2.827163 #
-0.5 5:1.7457809 25:0.34016901 50:-0.42598301 #
-0.5 5:-0.48666501 25:-0.259592 50:-0.615345 #
-0.5 5:1.122436 25:-0.259592 50:1.147181 #
0.5 5:-0.48666501 25:-0.259592 50:3.026237 #
-0.5 5:-0.48666501 25:-0.259592 50:2.6717889 #
0.5 5:-0.124255 25:-0.259592 50:-0.615345 #
-0.5 5:1.0499541 25:-0.259592 50:-0.615345 #
0.5 5:-0.48666501 25:-0.259592 50:2.9242721 #
0.5 5:0.26714799 25:-0.259592 50:1.195735 #
-0.5 5:1.0499541 25:-0.259592 50:-0.615345 #
0.5 5:0.78901899 25:0.083127998 50:-0.265753 #
-0.5 5:0.96297598 25:-0.259592 50:-0.615345 #
-0.5 5:-0.48666501 25:-0.259592 50:2.647512 #
0.5 5:-0.48666501 25:-0.259592 50:-0.615345 #
0.5 5:-0.109759 25:-0.259592 50:2.73491 #
-0.5 5:-0.48666501 25:-0.259592 50:-0.615345 #
-0.5 5:-0.48666501 25:-0.259592 50:3.5749011 #
-0.5 5:0.87599701 25:-0.259592 50:-0.615345 #
-0.5 5:1.0499541 25:-0.259592 50:1.2588561 #
0.5 5:-0.48666501 25:-0.259592 50:-0.615345 #
-0.5 5:1.035458 25:-0.259592 50:-0.38713899 #
0.5 5:-0.48666501 25:-0.259592 50:1.904629 #
0.5 5:0.499091 25:-0.259592 50:-0.45511499 #
0.5 5:-0.109759 25:-0.259592 50:2.7300551 #
0.5 5:0.44110501 25:-0.259592 50:-0.071534999 #
0.5 5:-0.48666501 25:-0.259592 50:-0.615345 #
-0.5 5:1.035458 25:-0.259592 50:-0.265753 #
0.5 5:-0.341701 25:-0.22064701 50:-0.44054899 #
-0.5 5:-0.48666501 25:-0.259592 50:-0.615345 #
-0.5 5:-0.48666501 25:-0.259592 50:3.5700459 #
-0.5 5:1.368875 25:0.23891 50:-0.615345 #
-0.5 5:-0.48666501 25:-0.259592 50:-0.615345 #
0.5 5:-0.48666501 25:-0.259592 50:1.899774 #
0.5 5:-0.48666501 25:-0.259592 50:-0.615345 #
0.5 5:-0.109759 25:-0.259592 50:2.5698249 #
-0.5 5:-0.48666501 25:-0.259592 50:-0.615345 #
-0.5 5:0.96297598 25:-0.259592 50:-0.50852501 #
-0.5 5:-0.48666501 25:-0.259592 50:1.992027 #
-0.5 5:0.847004 25:-0.259592 50:-0.615345 #
0.5 5:-0.48666501 25:-0.259592 50:1.7832429 #
-0.5 5:-0.153248 25:0.106496 50:-0.100668 #
-0.5 5:-0.48666501 25:-0.259592 50:1.2928441 #
0.5 5:-0.080766 25:-0.259592 50:-0.358006 #
0.5 5:-0.48666501 25:-0.259592 50:1.763822 #
0.5 5:-0.48666501 25:-0.259592 50:-0.615345 #
-0.5 5:-0.48666501 25:-0.259592 50:1.059783 #
0.5 5:-0.48666501 25:-0.259592 50:1.763822 #
-0.5 5:-0.48666501 25:-0.259592 50:1.08406 #
0.5 5:-0.48666501 25:-0.259592 50:1.758966 #
-0.5 5:-0.48666501 25:-0.259592 50:1.13747 #
0.5 5:-0.48666501 25:-0.259592 50:1.5793149 #
-0.5 5:-0.48666501 25:-0.259592 50:1.161747 #
0.5 5:-0.48666501 25:-0.259592 50:1.535616 #
-0.5 5:-0.48666501 25:-0.259592 50:1.195735 #
0.5 5:-0.48666501 25:-0.259592 50:1.516194 #
-0.5 5:-0.48666501 25:-0.259592 50:1.195735 #
0.5 5:-0.48666501 25:-0.259592 50:1.341398 #
-0.5 5:-0.48666501 25:-0.259592 50:1.229723 #
0.5 5:-0.48666501 25:-0.259592 50:1.2928441 #
-0.5 5:-0.48666501 25:-0.259592 50:1.229723 #
0.5 5:0.22365899 25:-0.259592 50:1.6472909 #
-0.5 5:-0.48666501 25:-0.259592 50:1.249145 #
0.5 5:-0.48666501 25:-0.259592 50:1.2928441 #
-0.5 5:-0.48666501 25:-0.259592 50:1.302555 #
0.5 5:-0.48666501 25:-0.259592 50:1.2879879 #
-0.5 5:-0.48666501 25:-0.259592 50:1.312266 #
0.5 5:-0.48666501 25:-0.259592 50:1.234578 #
-0.5 5:-0.48666501 25:-0.259592 50:1.317121 #
0.5 5:-0.48666501 25:-0.259592 50:1.205446 #
-0.5 5:-0.48666501 25:-0.259592 50:1.3268321 #
0.5 5:-0.48666501 25:-0.259592 50:1.205446 #
-0.5 5:-0.48666501 25:-0.259592 50:1.331687 #
0.5 5:-0.48666501 25:-0.259592 50:1.205446 #
-0.5 5:-0.48666501 25:-0.259592 50:1.346254 #
0.5 5:0.28164399 25:-0.259592 50:1.652146 #
-0.5 5:-0.48666501 25:-0.259592 50:1.404519 #
0.5 5:-0.48666501 25:-0.259592 50:1.093771 #
0.5 5:0.32513401 25:-0.173912 50:0.28776699 #
-0.5 5:-0.48666501 25:-0.259592 50:1.477351 #
0.5 5:-0.153248 25:-0.259592 50:1.234578 #
-0.5 5:-0.48666501 25:-0.259592 50:1.555038 #
-0.5 5:-0.48666501 25:-0.259592 50:0.180948 #
-0.5 5:-0.48666501 25:-0.259592 50:1.6812789 #
0.5 5:-0.48666501 25:-0.259592 50:1.093771 #
-0.5 5:-0.48666501 25:-0.259592 50:1.695845 #
0.5 5:-0.48666501 25:-0.259592 50:1.088915 #
0.5 5:0.165673 25:-0.259592 50:-0.615345 #
0.5 5:-0.48666501 25:-0.259592 50:1.08406 #
-0.5 5:-0.48666501 25:-0.259592 50:1.710412 #
0.5 5:-0.31270799 25:-0.259592 50:1.093771 #
-0.5 5:-0.48666501 25:-0.259592 50:1.739544 #
0.5 5:-0.48666501 25:-0.259592 50:1.025794 #
-0.5 5:-0.48666501 25:-0.259592 50:1.778388 #
-0.5 5:-0.48666501 25:-0.259592 50:1.79781 #
-0.5 5:-0.48666501 25:-0.259592 50:1.846364 #
-0.5 5:-0.48666501 25:-0.259592 50:1.909485 #
0.5 5:0.47009799 25:-0.259592 50:-0.324018 #
-0.5 5:-0.48666501 25:-0.259592 50:1.924051 #
0.5 5:-0.48666501 25:-0.259592 50:1.006373 #
-0.5 5:-0.48666501 25:-0.259592 50:1.9386179 #
0.5 5:0.55707598 25:-0.259592 50:1.152036 #
0.5 5:-0.25472301 25:-0.259592 50:1.08406 #
-0.5 5:-0.48666501 25:-0.259592 50:2.0211599 #
-0.5 5:0.745529 25:-0.259592 50:-0.615345 #
-0.5 5:0.89049399 25:-0.259592 50:-0.26089799 #
-0.5 5:-0.48666501 25:-0.259592 50:-0.615345 #
0.5 5:0.26714799 25:-0.259592 50:0.31690001 #
0.5 5:-0.48666501 25:-0.259592 50:0.99666202 #
-0.5 5:-0.25472301 25:-0.259592 50:5.7404289 #
-0.5 5:0.70204002 25:-0.259592 50:-0.615345 #
0.5 5:-0.48666501 25:-0.259592 50:0.97238499 #
0.5 5:-0.48666501 25:-0.259592 50:0.53539503 #
-0.5 5:-0.48666501 25:-0.259592 50:-0.615345 #
-0.5 5:-0.48666501 25:-0.259592 50:2.273643 #
0.5 5:0.23815501 25:-0.259592 50:1.118048 #
0.5 5:-0.48666501 25:-0.259592 50:0.85585397 #
-0.5 5:0.44110501 25:-0.259592 50:-0.615345 #
-0.5 5:-0.48666501 25:-0.259592 50:3.3515511 #
-0.5 5:0.76002598 25:-0.259592 50:0.122682 #
0.5 5:-0.48666501 25:-0.259592 50:0.54025 #
-0.5 5:0.716537 25:-0.259592 50:-0.333729 #
-0.5 5:0.73103303 25:-0.259592 50:0.43828601 #
0.5 5:-0.48666501 25:-0.259592 50:0.83643198 #
-0.5 5:-0.48666501 25:-0.259592 50:-0.615345 #
-0.5 5:0.70204002 25:-0.259592 50:0.84614301 #
0.5 5:-0.48666501 25:-0.259592 50:0.74417901 #
0.5 5:-0.48666501 25:-0.259592 50:0.57909399 #
0.5 5:-0.48666501 25:-0.259592 50:0.73446798 #
-0.5 5:0.38311899 25:-0.259592 50:-0.615345 #
0.5 5:-0.48666501 25:-0.259592 50:0.61793703 #
-0.5 5:-0.48666501 25:-0.259592 50:3.2690091 #
0.5 5:-0.48666501 25:-0.259592 50:0.70047998 #
0.5 5:-0.48666501 25:-0.259592 50:0.61793703 #
0.5 5:-0.109759 25:-0.259592 50:0.83643198 #
-0.5 5:-0.48666501 25:-0.259592 50:1.011228 #
0.5 5:-0.48666501 25:-0.259592 50:0.68591398 #
-0.5 5:-0.48666501 25:-0.259592 50:2.0794251 #
0.5 5:-0.22573 25:-0.259592 50:0.72961301 #
0.5 5:-0.48666501 25:-0.259592 50:0.68105799 #
-0.5 5:-0.48666501 25:-0.259592 50:2.1231239 #
-0.5 5:-0.48666501 25:-0.259592 50:2.419306 #
0.5 5:-0.48666501 25:-0.259592 50:0.68105799 #
-0.5 5:-0.48666501 25:-0.259592 50:2.5164151 #
0.5 5:-0.48666501 25:-0.259592 50:0.67134702 #
-0.5 5:-0.48666501 25:-0.259592 50:2.5164151 #
0.5 5:-0.48666501 25:-0.259592 50:0.63250399 #
-0.5 5:-0.48666501 25:-0.259592 50:2.5164151 #
0.5 5:-0.48666501 25:-0.259592 50:0.51597297 #
-0.5 5:-0.48666501 25:-0.259592 50:-0.615345 #
-0.5 5:-0.48666501 25:-0.259592 50:2.7057769 #
-0.5 5:0.38311899 25:-0.259592 50:-0.615345 #
-0.5 5:-0.48666501 25:-0.259592 50:0.26348999 #
0.5 5:-0.48666501 25:-0.259592 50:-0.615345 #
-0.5 5:0.54258001 25:-0.259592 50:-0.34829599 #
0.5 5:-0.48666501 25:-0.259592 50:0.51111799 #
-0.5 5:-0.48666501 25:-0.158334 50:-0.41141599 #
-0.5 5:0.296141 25:-0.259592 50:-0.615345 #
-0.5 5:0.22365899 25:-0.259592 50:-0.615345 #
0.5 5:0.28164399 25:-0.259592 50:1.011228 #
0.5 5:0.47009799 25:-0.259592 50:-0.615345 #
-0.5 5:0.48459399 25:-0.259592 50:0.79273301 #
0.5 5:0.499091 25:-0.259592 50:0.19551399 #
0.5 5:-0.48666501 25:-0.259592 50:-0.615345 #
0.5 5:-0.48666501 25:-0.259592 50:0.51111799 #
-0.5 5:0.209162 25:-0.259592 50:-0.615345 #
-0.5 5:-0.48666501 25:-0.088232003 50:0.132393 #
0.5 5:-0.48666501 25:-0.259592 50:-0.615345 #
0.5 5:0.122184 25:-0.259592 50:0.457708 #
-0.5 5:0.62955803 25:-0.259592 50:-0.29003 #
-0.5 5:-0.48666501 25:-0.259592 50:-0.615345 #
0.5 5:-0.48666501 25:-0.259592 50:-0.615345 #
0.5 5:-0.48666501 25:-0.259592 50:0.506262 #
0.5 5:-0.080766 25:-0.259592 50:0.76360101 #
-0.5 5:-0.48666501 25:-0.259592 50:-0.615345 #
0.5 5:0.049702 25:-0.259592 50:0.80244398 #
0.5 5:0.42660901 25:-0.259592 50:0.040139999 #
-0.5 5:0.47009799 25:-0.259592 50:-0.38713899 #
0.5 5:-0.48666501 25:-0.259592 50:0.506262 #
0.5 5:0.64405501 25:-0.189491 50:-0.12009 #
-0.5 5:0.151177 25:-0.259592 50:-0.615345 #
-0.5 5:0.035206001 25:-0.259592 50:-0.615345 #
0.5 5:-0.095261998 25:-0.259592 50:0.73932302 #
-0.5 5:-0.25472301 25:-0.259592 50:1.20059 #
0.5 5:0.165673 25:-0.259592 50:0.74903399 #
0.5 5:-0.48666501 25:-0.259592 50:0.49655101 #
-0.5 5:-0.48666501 25:-0.259592 50:2.613524 #
0.5 5:0.45560101 25:-0.259592 50:-0.615345 #
0.5 5:0.32513401 25:-0.259592 50:0.73446798 #
-0.5 5:-0.48666501 25:-0.259592 50:2.7057769 #
-0.5 5:0.035206001 25:-0.259592 50:-0.615345 #
0.5 5:-0.167744 25:-0.259592 50:0.65192503 #
0.5 5:0.412112 25:-0.259592 50:-0.105524 #
-0.5 5:-0.48666501 25:-0.259592 50:2.7203441 #
0.5 5:0.397616 25:-0.259592 50:0.70047998 #
-0.5 5:-0.48666501 25:-0.259592 50:2.802886 #
-0.5 5:-0.48666501 25:-0.259592 50:-0.615345 #
-0.5 5:0.54258001 25:-0.259592 50:-0.0084149996 #
-0.5 5:0.006213 25:-0.259592 50:-0.615345 #
0.5 5:-0.48666501 25:-0.259592 50:0.481985 #
0.5 5:0.122184 25:-0.259592 50:-0.222054 #
-0.5 5:-0.48666501 25:-0.259592 50:-0.615345 #
-0.5 5:0.52808303 25:-0.259592 50:-0.12980101 #
-0.5 5:-0.48666501 25:-0.259592 50:3.1476231 #
-0.5 5:-0.124255 25:-0.259592 50:-0.615345 #
0.5 5:-0.48666501 25:-0.259592 50:-0.615345 #
-0.5 5:-0.153248 25:-0.259592 50:-0.615345 #
0.5 5:-0.48666501 25:-0.259592 50:0.47713 #
-0.5 5:0.36862299 25:-0.259592 50:-0.105524 #
-0.5 5:0.499091 25:-0.259592 50:0.224647 #
-0.5 5:0.38311899 25:-0.259592 50:-0.202632 #
0.5 5:-0.48666501 25:-0.259592 50:0.41886401 #
-0.5 5:-0.48666501 25:-0.259592 50:-0.615345 #
0.5 5:0.48459399 25:-0.259592 50:-0.615345 #
0.5 5:-0.48666501 25:-0.259592 50:-0.615345 #
0.5 5:-0.48666501 25:-0.259592 50:0.414009 #
-0.5 5:-0.18224099 25:-0.259592 50:-0.615345 #
-0.5 5:0.499091 25:0.0052370001 50:-0.615345 #
0.5 5:-0.48666501 25:-0.259592 50:-0.615345 #
0.5 5:-0.356197 25:-0.259592 50:0.50140703 #
0.5 5:0.499091 25:-0.259592 50:-0.615345 #
-0.5 5:-0.48666501 25:-0.259592 50:-0.615345 #
-0.5 5:0.412112 25:-0.259592 50:-0.022980999 #
0.5 5:-0.48666501 25:-0.259592 50:0.414009 #
-0.5 5:-0.48666501 25:-0.259592 50:3.1233449 #
-0.5 5:0.42660901 25:-0.259592 50:0.064416997 #
0.5 5:-0.48666501 25:-0.259592 50:0.40429801 #
0.5 5:-0.48666501 25:-0.259592 50:0.39458701 #
-0.5 5:0.38311899 25:-0.259592 50:0.70047998 #
0.5 5:-0.48666501 25:-0.259592 50:-0.615345 #
-0.5 5:-0.48666501 25:-0.259592 50:-0.615345 #
0.5 5:0.22365899 25:-0.259592 50:0.63735902 #
0.5 5:-0.48666501 25:-0.259592 50:-0.615345 #
-0.5 5:-0.48666501 25:-0.259592 50:-0.615345 #
0.5 5:0.194666 25:-0.259592 50:0.61308199 #
-0.5 5:-0.080766 25:-0.259592 50:-0.53280199 #
-0.5 5:0.006213 25:-0.259592 50:-0.45997101 #
-0.5 5:-0.48666501 25:-0.259592 50:-0.615345 #
0.5 5:-0.48666501 25:-0.259592 50:-0.615345 #
-0.5 5:-0.48666501 25:-0.259592 50:-0.615345 #
0.5 5:0.18017 25:-0.259592 50:0.608226 #
0.5 5:-0.48666501 25:-0.259592 50:0.39458701 #
-0.5 5:0.078694999 25:-0.259592 50:-0.299741 #
0.5 5:-0.48666501 25:-0.259592 50:0.389732 #
0.5 5:0.194666 25:-0.259592 50:0.608226 #
0.5 5:-0.48666501 25:-0.259592 50:0.389732 #
-0.5 5:-0.48666501 25:-0.259592 50:-0.615345 #
-0.5 5:-0.48666501 25:-0.259592 50:0.48684001 #
0.5 5:-0.48666501 25:-0.259592 50:-0.615345 #
-0.5 5:-0.48666501 25:-0.259592 50:-0.615345 #
0.5 5:0.165673 25:-0.259592 50:0.59851599 #
0.5 5:-0.109759 25:-0.259592 50:0.52082902 #
-0.5 5:-0.48666501 25:-0.259592 50:-0.615345 #
0.5 5:-0.109759 25:-0.259592 50:0.52082902 #
-0.5 5:-0.48666501 25:-0.259592 50:-0.615345 #
-0.5 5:-0.48666501 25:-0.259592 50:-0.615345 #
0.5 5:0.165673 25:-0.259592 50:0.574238 #
-0.5 5:-0.48666501 25:-0.259592 50:3.11849 #
-0.5 5:-0.48666501 25:-0.259592 50:-0.615345 #
-0.5 5:0.35412601 25:-0.259592 50:0.185803 #
-0.5 5:0.26714799 25:-0.259592 50:-0.066679999 #
-0.5 5:0.33963001 25:-0.259592 50:0.132393 #
-0.5 5:0.13668001 25:-0.259592 50:-0.231765 #
0.5 5:-0.48666501 25:-0.259592 50:0.38002101 #
-0.5 5:-0.051773001 25:-0.259592 50:-0.41141599 #
0.5 5:-0.48666501 25:-0.259592 50:0.37516499 #
0.5 5:-0.48666501 25:-0.259592 50:-0.615345 #
0.5 5:-0.48666501 25:-0.259592 50:0.36545399 #
0.5 5:-0.48666501 25:-0.259592 50:0.36059901 #
0.5 5:0.499091 25:-0.259592 50:-0.207488 #
0.5 5:-0.48666501 25:-0.259592 50:0.35574299 #
-0.5 5:-0.48666501 25:-0.259592 50:-0.615345 #
0.5 5:0.44110501 25:-0.259592 50:-0.615345 #
0.5 5:-0.48666501 25:-0.259592 50:-0.615345 #
0.5 5:-0.48666501 25:-0.259592 50:0.34603301 #
-0.5 5:-0.48666501 25:-0.259592 50:-0.615345 #
0.5 5:-0.48666501 25:-0.259592 50:0.34117699 #
-0.5 5:-0.48666501 25:-0.259592 50:-0.615345 #
0.5 5:-0.48666501 25:-0.259592 50:0.33146599 #
-0.5 5:-0.48666501 25:-0.259592 50:-0.615345 #
0.5 5:-0.48666501 25:-0.259592 50:0.32661101 #
-0.5 5:-0.48666501 25:-0.259592 50:-0.615345 #
0.5 5:-0.48666501 25:-0.259592 50:0.32661101 #
-0.5 5:-0.48666501 25:-0.259592 50:-0.615345 #
0.5 5:-0.48666501 25:-0.259592 50:0.31690001 #
-0.5 5:-0.48666501 25:-0.259592 50:-0.163789 #
0.5 5:-0.48666501 25:-0.259592 50:-0.615345 #
-0.5 5:-0.48666501 25:-0.259592 50:-0.615345 #
-0.5 5:0.209162 25:-0.259592 50:0.112971 #
-0.5 5:-0.022779999 25:-0.259592 50:-0.33858499 #
-0.5 5:0.28164399 25:-0.259592 50:0.81215501 #
0.5 5:-0.48666501 25:-0.259592 50:0.31204399 #
-0.5 5:0.513587 25:-0.080443002 50:-0.29488599 #
0.5 5:-0.48666501 25:-0.259592 50:0.30233401 #
0.5 5:-0.48666501 25:-0.259592 50:0.30233401 #
0.5 5:-0.48666501 25:-0.259592 50:-0.615345 #
0.5 5:-0.48666501 25:-0.259592 50:0.30233401 #
-0.5 5:-0.48666501 25:-0.259592 50:-0.615345 #
-0.5 5:-0.48666501 25:-0.111599 50:-0.615345 #
0.5 5:-0.48666501 25:-0.259592 50:0.29747799 #
-0.5 5:-0.48666501 25:-0.259592 50:-0.615345 #
0.5 5:-0.48666501 25:-0.259592 50:0.28776699 #
-0.5 5:-0.48666501 25:-0.259592 50:-0.615345 #
0.5 5:-0.48666501 25:-0.259592 50:0.28291199 #
-0.5 5:-0.48666501 25:-0.259592 50:-0.615345 #
0.5 5:-0.48666501 25:-0.259592 50:0.27320099 #
-0.5 5:-0.48666501 25:-0.259592 50:-0.615345 #
0.5 5:-0.48666501 25:-0.259592 50:0.26834601 #
-0.5 5:-0.48666501 25:-0.259592 50:-0.615345 #
0.5 5:-0.48666501 25:-0.259592 50:0.26348999 #
-0.5 5:-0.341701 25:-0.259592 50:-0.53280199 #
0.5 5:-0.48666501 25:-0.259592 50:-0.615345 #
-0.5 5:-0.48666501 25:-0.259592 50:-0.615345 #
0.5 5:-0.48666501 25:-0.259592 50:0.25863501 #
-0.5 5:-0.48666501 25:-0.096020997 50:0.108116 #
-0.5 5:-0.48666501 25:-0.259592 50:-0.615345 #
-0.5 5:0.078694999 25:-0.259592 50:0.093549997 #
0.5 5:-0.31270799 25:-0.259592 50:0.28291199 #
0.5 5:-0.48666501 25:-0.259592 50:0.248924 #
-0.5 5:-0.48666501 25:-0.259592 50:-0.615345 #
0.5 5:-0.48666501 25:-0.259592 50:-0.615345 #
0.5 5:-0.26921901 25:-0.259592 50:0.278056 #
-0.5 5:-0.19673701 25:-0.259592 50:-0.34829599 #
-0.5 5:-0.48666501 25:-0.259592 50:-0.615345 #
-0.5 5:0.006213 25:-0.259592 50:0.127538 #
0.5 5:-0.48666501 25:-0.259592 50:0.244068 #
0.5 5:-0.48666501 25:-0.259592 50:0.244068 #
0.5 5:-0.48666501 25:-0.259592 50:-0.615345 #
-0.5 5:-0.48666501 25:-0.259592 50:-0.615345 #
0.5 5:-0.48666501 25:-0.259592 50:0.239213 #
-0.5 5:-0.48666501 25:-0.259592 50:-0.615345 #
-0.5 5:-0.153248 25:-0.259592 50:-0.217199 #
0.5 5:-0.48666501 25:-0.259592 50:0.239213 #
-0.5 5:-0.48666501 25:-0.259592 50:-0.615345 #
0.5 5:-0.48666501 25:-0.259592 50:0.239213 #
0.5 5:-0.48666501 25:-0.259592 50:-0.615345 #
-0.5 5:0.006213 25:-0.259592 50:0.51111799 #
-0.5 5:-0.48666501 25:-0.259592 50:-0.615345 #
0.5 5:-0.48666501 25:-0.259592 50:0.21008 #
-0.5 5:-0.138751 25:-0.259592 50:0.33146599 #
-0.5 5:-0.240226 25:-0.259592 50:-0.30459699 #
0.5 5:0.078694999 25:-0.259592 50:-0.256042 #
0.5 5:-0.109759 25:-0.259592 50:0.481985 #
0.5 5:-0.48666501 25:-0.259592 50:-0.615345 #
0.5 5:-0.48666501 25:-0.259592 50:0.20522501 #
-0.5 5:-0.48666501 25:-0.259592 50:-0.615345 #
-0.5 5:0.45560101 25:0.145441 50:0.29747799 #
0.5 5:-0.48666501 25:-0.259592 50:-0.615345 #
0.5 5:-0.022779999 25:-0.259592 50:0.506262 #
0.5 5:-0.48666501 25:-0.259592 50:0.200369 #
-0.5 5:-0.48666501 25:-0.259592 50:-0.615345 #
-0.5 5:-0.48666501 25:-0.259592 50:-0.615345 #
0.5 5:-0.109759 25:-0.259592 50:0.46256301 #
-0.5 5:-0.48666501 25:-0.259592 50:-0.615345 #
-0.5 5:-0.48666501 25:-0.259592 50:0.190658 #
-0.5 5:-0.48666501 25:-0.259592 50:-0.615345 #
0.5 5:0.38311899 25:-0.259592 50:-0.43569401 #
0.5 5:-0.19673701 25:-0.259592 50:0.37516499 #
-0.5 5:-0.48666501 25:-0.259592 50:-0.615345 #
0.5 5:-0.48666501 25:-0.259592 50:0.176092 #
-0.5 5:-0.48666501 25:-0.259592 50:-0.615345 #
0.5 5:0.165673 25:-0.259592 50:0.56452698 #
-0.5 5:-0.48666501 25:-0.259592 50:-0.615345 #
0.5 5:0.412112 25:-0.259592 50:0.608226 #
-0.5 5:-0.48666501 25:-0.259592 50:-0.615345 #
0.5 5:0.093190998 25:-0.259592 50:0.51111799 #
-0.5 5:-0.48666501 25:-0.259592 50:-0.615345 #
-0.5 5:-0.22573 25:-0.259592 50:0.244068 #
-0.5 5:-0.48666501 25:-0.259592 50:-0.615345 #
-0.5 5:-0.31270799 25:-0.259592 50:-0.29003 #
0.5 5:-0.48666501 25:-0.259592 50:0.166381 #
-0.5 5:-0.153248 25:0.106496 50:-0.095812999 #
0.5 5:-0.48666501 25:-0.259592 50:-0.615345 #
-0.5 5:-0.48666501 25:-0.259592 50:-0.615345 #
0.5 5:-0.48666501 25:-0.259592 50:0.117827 #
-0.5 5:-0.109759 25:0.044183001 50:-0.183211 #
-0.5 5:-0.48666501 25:-0.259592 50:-0.615345 #
0.5 5:-0.18224099 25:-0.259592 50:0.38002101 #
0.5 5:-0.48666501 25:-0.259592 50:0.093549997 #
-0.5 5:-0.48666501 25:-0.259592 50:-0.615345 #
0.5 5:-0.48666501 25:-0.259592 50:0.093549997 #
-0.5 5:-0.48666501 25:-0.259592 50:-0.615345 #
-0.5 5:-0.48666501 25:-0.259592 50:-0.615345 #
0.5 5:-0.051773001 25:-0.259592 50:0.40915301 #
-0.5 5:-0.48666501 25:-0.259592 50:-0.615345 #
-0.5 5:-0.26921901 25:-0.259592 50:-0.163789 #
0.5 5:-0.48666501 25:-0.259592 50:0.078983001 #
0.5 5:-0.48666501 25:-0.259592 50:0.078983001 #
-0.5 5:-0.48666501 25:-0.259592 50:1.054927 #
-0.5 5:-0.48666501 25:-0.259592 50:-0.615345 #
0.5 5:-0.48666501 25:-0.259592 50:-0.615345 #
-0.5 5:-0.48666501 25:-0.259592 50:0.234357 #
-0.5 5:-0.48666501 25:-0.259592 50:-0.615345 #
-0.5 5:-0.41418299 25:-0.259592 50:0.84614301 #
0.5 5:0.397616 25:-0.259592 50:-0.33858499 #
-0.5 5:-0.48666501 25:-0.259592 50:-0.615345 #
0.5 5:-0.48666501 25:-0.259592 50:0.074128002 #
0.5 5:0.122184 25:-0.259592 50:0.37516499 #
-0.5 5:-0.48666501 25:-0.259592 50:-0.615345 #
-0.5 5:-0.48666501 25:-0.259592 50:0.831577 #
0.5 5:-0.48666501 25:-0.259592 50:-0.615345 #
0.5 5:-0.48666501 25:-0.259592 50:0.074128002 #
0.5 5:-0.48666501 25:-0.259592 50:-0.615345 #
0.5 5:-0.48666501 25:-0.259592 50:0.064416997 #
0.5 5:-0.48666501 25:-0.259592 50:0.069271997 #
-0.5 5:-0.48666501 25:-0.259592 50:-0.615345 #
0.5 5:-0.153248 25:-0.259592 50:0.28776699 #
-0.5 5:-0.356197 25:-0.259592 50:-0.34344 #
0.5 5:-0.48666501 25:-0.259592 50:0.069271997 #
-0.5 5:-0.48666501 25:-0.259592 50:0.81215501 #
-0.5 5:-0.48666501 25:-0.259592 50:-0.615345 #
0.5 5:-0.48666501 25:-0.259592 50:0.064416997 #
0.5 5:-0.48666501 25:-0.259592 50:-0.615345 #
-0.5 5:-0.48666501 25:-0.259592 50:-0.615345 #
-0.5 5:-0.26921901 25:-0.259592 50:0.049851 #
-0.5 5:-0.0082839997 25:-0.0025520001 50:0.025573 #
0.5 5:-0.48666501 25:-0.259592 50:0.064416997 #
-0.5 5:-0.38519001 25:-0.23622499 50:-0.37257299 #
0.5 5:-0.48666501 25:-0.259592 50:0.059562001 #
0.5 5:-0.48666501 25:-0.259592 50:0.054706 #
-0.5 5:-0.48666501 25:-0.259592 50:0.77816701 #
-0.5 5:-0.31270799 25:-0.259592 50:0.47713 #
0.5 5:-0.48666501 25:-0.259592 50:-0.615345 #
-0.5 5:-0.48666501 25:-0.259592 50:-0.615345 #
0.5 5:0.52808303 25:-0.259592 50:-0.066679999 #
0.5 5:-0.48666501 25:-0.259592 50:-0.615345 #
-0.5 5:-0.48666501 25:-0.259592 50:-0.615345 #
-0.5 5:-0.48666501 25:-0.259592 50:-0.12009 #
-0.5 5:-0.356197 25:-0.259592 50:-0.052113999 #
0.5 5:-0.48666501 25:-0.259592 50:0.040139999 #
0.5 5:-0.48666501 25:-0.259592 50:-0.615345 #
-0.5 5:-0.48666501 25:-0.259592 50:-0.615345 #
-0.5 5:-0.211233 25:-0.111599 50:-0.066679999 #
0.5 5:-0.48666501 25:-0.259592 50:0.035284001 #
0.5 5:-0.48666501 25:-0.259592 50:-0.615345 #
-0.5 5:-0.48666501 25:-0.259592 50:-0.615345 #
0.5 5:-0.48666501 25:-0.259592 50:0.030429 #
-0.5 5:-0.48666501 25:-0.259592 50:-0.01327 #
-0.5 5:-0.48666501 25:-0.259592 50:-0.615345 #
0.5 5:-0.48666501 25:-0.259592 50:0.030429 #
0.5 5:-0.48666501 25:-0.259592 50:-0.615345 #
-0.5 5:-0.48666501 25:-0.259592 50:-0.022980999 #
-0.5 5:-0.48666501 25:-0.259592 50:-0.615345 #
0.5 5:-0.48666501 25:-0.259592 50:0.025573 #
0.5 5:-0.48666501 25:-0.259592 50:-0.615345 #
-0.5 5:-0.48666501 25:-0.259592 50:-0.027836001 #
-0.5 5:-0.48666501 25:-0.259592 50:-0.615345 #
0.5 5:-0.48666501 25:-0.259592 50:0.015862999 #
0.5 5:-0.48666501 25:-0.259592 50:-0.615345 #
-0.5 5:-0.48666501 25:-0.259592 50:-0.032692 #
0.5 5:-0.48666501 25:-0.259592 50:-0.615345 #
-0.5 5:-0.48666501 25:-0.259592 50:-0.615345 #
-0.5 5:-0.48666501 25:-0.259592 50:-0.042403001 #
0.5 5:-0.48666501 25:-0.259592 50:-0.615345 #
0.5 5:-0.31270799 25:-0.259592 50:0.180948 #
-0.5 5:-0.48666501 25:-0.259592 50:-0.066679999 #
-0.5 5:-0.48666501 25:-0.259592 50:-0.615345 #
0.5 5:-0.48666501 25:-0.259592 50:-0.615345 #
0.5 5:-0.48666501 25:-0.259592 50:-0.0035590001 #
-0.5 5:-0.48666501 25:-0.259592 50:-0.071534999 #
-0.5 5:-0.48666501 25:-0.259592 50:-0.615345 #
0.5 5:-0.48666501 25:-0.259592 50:-0.0035590001 #
0.5 5:-0.48666501 25:-0.259592 50:-0.615345 #
-0.5 5:-0.48666501 25:-0.259592 50:-0.071534999 #
-0.5 5:-0.48666501 25:-0.259592 50:-0.615345 #
0.5 5:-0.48666501 25:-0.259592 50:-0.0084149996 #
0.5 5:-0.48666501 25:-0.259592 50:-0.615345 #
0.5 5:-0.48666501 25:-0.259592 50:-0.615345 #
0.5 5:-0.48666501 25:-0.259592 50:-0.01327 #
-0.5 5:-0.48666501 25:-0.259592 50:-0.615345 #
-0.5 5:-0.48666501 25:-0.259592 50:0.219791 #
-0.5 5:-0.48666501 25:-0.259592 50:0.132393 #
0.5 5:-0.48666501 25:-0.259592 50:-0.615345 #
0.5 5:-0.19673701 25:-0.259592 50:0.234357 #
-0.5 5:-0.48666501 25:-0.259592 50:-0.615345 #
-0.5 5:-0.48666501 25:-0.259592 50:-0.615345 #
-0.5 5:-0.356197 25:-0.259592 50:0.66163599 #
0.5 5:-0.48666501 25:-0.259592 50:-0.615345 #
0.5 5:-0.48666501 25:-0.259592 50:-0.01327 #
-0.5 5:-0.48666501 25:-0.259592 50:-0.615345 #
0.5 5:0.13668001 25:-0.259592 50:0.36059901 #
0.5 5:0.42660901 25:-0.259592 50:0.37516499 #
-0.5 5:0.81801099 25:0.44142699 50:-0.615345 #
-0.5 5:-0.48666501 25:-0.259592 50:-0.615345 #
-0.5 5:-0.42867899 25:-0.259592 50:0.41886401 #
-0.5 5:1.06445 25:0.57384199 50:1.181169 #
0.5 5:-0.48666501 25:-0.259592 50:-0.615345 #
0.5 5:-0.48666501 25:-0.259592 50:-0.615345 #
0.5 5:-0.48666501 25:-0.259592 50:-0.01327 #
-0.5 5:-0.48666501 25:-0.259592 50:-0.615345 #
0.5 5:0.28164399 25:-0.259592 50:-0.615345 #
0.5 5:-0.457672 25:-0.259592 50:-0.21234301 #
-0.5 5:-0.48666501 25:-0.259592 50:-0.615345 #
0.5 5:-0.48666501 25:-0.259592 50:-0.018126 #
-0.5 5:-0.48666501 25:-0.259592 50:-0.615345 #
0.5 5:-0.48666501 25:-0.259592 50:-0.018126 #
-0.5 5:-0.48666501 25:-0.259592 50:-0.615345 #
0.5 5:-0.48666501 25:-0.259592 50:-0.018126 #
-0.5 5:-0.48666501 25:-0.259592 50:-0.615345 #
0.5 5:-0.48666501 25:-0.259592 50:-0.042403001 #
-0.5 5:-0.48666501 25:-0.259592 50:-0.615345 #
0.5 5:-0.48666501 25:-0.259592 50:-0.042403001 #
-0.5 5:-0.48666501 25:-0.259592 50:-0.615345 #
0.5 5:-0.48666501 25:-0.259592 50:-0.052113999 #
-0.5 5:-0.48666501 25:-0.259592 50:-0.615345 #
0.5 5:-0.48666501 25:-0.259592 50:-0.061825 #
-0.5 5:-0.48666501 25:-0.259592 50:-0.615345 #
0.5 5:-0.48666501 25:-0.259592 50:-0.061825 #
-0.5 5:-0.48666501 25:-0.259592 50:-0.615345 #
0.5 5:-0.48666501 25:-0.259592 50:-0.615345 #
0.5 5:-0.48666501 25:-0.259592 50:-0.076390997 #
-0.5 5:-0.48666501 25:-0.259592 50:-0.615345 #
0.5 5:0.064198002 25:-0.259592 50:0.33632201 #
-0.5 5:-0.48666501 25:-0.259592 50:-0.615345 #
-0.5 5:-0.48666501 25:-0.259592 50:-0.615345 #
0.5 5:-0.48666501 25:-0.259592 50:-0.081246004 #
-0.5 5:-0.48666501 25:-0.259592 50:-0.615345 #
-0.5 5:-0.48666501 25:-0.259592 50:3.9196379 #
-0.5 5:-0.48666501 25:-0.259592 50:-0.615345 #
0.5 5:-0.48666501 25:-0.259592 50:-0.115234 #
-0.5 5:-0.48666501 25:-0.259592 50:-0.615345 #
-0.45401947257365138366225210120319 5:-0.48666501 25:-0.259592 50:3.9196379 #
0.5 5:-0.48666501 25:-0.259592 50:-0.615345 #
0.5 5:-0.48666501 25:-0.259592 50:-0.12009 #
-0.5 5:-0.48666501 25:-0.259592 50:-0.615345 #
0.5 5:-0.48666501 25:-0.259592 50:-0.12980101 #
-0.5 5:-0.48666501 25:-0.259592 50:-0.615345 #
0.5 5:-0.48666501 25:-0.259592 50:-0.134656 #
-0.5 5:-0.48666501 25:-0.259592 50:-0.615345 #
0.5 5:-0.48666501 25:-0.259592 50:-0.134656 #
-0.5 5:-0.48666501 25:-0.259592 50:-0.615345 #
0.5 5:-0.48666501 25:-0.259592 50:-0.139512 #
-0.5 5:-0.48666501 25:-0.259592 50:-0.615345 #
0.5 5:-0.48666501 25:-0.259592 50:-0.15407801 #
-0.5 5:-0.48666501 25:-0.259592 50:-0.615345 #
-0.5 5:-0.48666501 25:-0.259592 50:0.68105799 #
-0.089049673606174550855030247475952 5:-0.066269003 25:0.192176 50:0.127538 #
0.5 5:-0.48666501 25:-0.259592 50:-0.15407801 #
0.5 5:0.42660901 25:-0.259592 50:0.36059901 #
-0.5 5:-0.48666501 25:-0.259592 50:-0.615345 #
0.5 5:-0.18224099 25:-0.259592 50:0.20522501 #
-0.5 5:-0.48666501 25:-0.259592 50:-0.615345 #
0.5 5:-0.48666501 25:-0.259592 50:-0.615345 #
-0.5 5:-0.48666501 25:-0.259592 50:-0.615345 #
0.5 5:-0.48666501 25:-0.259592 50:-0.158933 #
-0.5 5:-0.48666501 25:-0.259592 50:-0.615345 #
0.5 5:-0.48666501 25:-0.259592 50:-0.183211 #
-0.5 5:-0.48666501 25:-0.259592 50:-0.615345 #
0.5 5:-0.48666501 25:-0.259592 50:-0.192921 #
-0.5 5:-0.48666501 25:-0.259592 50:-0.615345 #
0.5 5:-0.48666501 25:-0.259592 50:-0.192921 #
-0.5 5:-0.48666501 25:-0.259592 50:-0.615345 #
0.5 5:-0.48666501 25:-0.259592 50:-0.197777 #
-0.5 5:-0.48666501 25:-0.259592 50:-0.615345 #
0.5 5:-0.48666501 25:-0.259592 50:-0.217199 #
-0.5 5:-0.48666501 25:-0.259592 50:-0.615345 #
0.5 5:-0.48666501 25:-0.259592 50:-0.22691 #
-0.5 5:-0.48666501 25:-0.259592 50:-0.615345 #
0.5 5:-0.48666501 25:-0.259592 50:-0.22691 #
-0.5 5:-0.48666501 25:-0.259592 50:-0.615345 #
0.5 5:-0.48666501 25:-0.259592 50:-0.251187 #
-0.5 5:-0.48666501 25:-0.259592 50:-0.615345 #
-0.5 5:-0.48666501 25:-0.259592 50:3.0893569 #
0.5 5:-0.48666501 25:-0.259592 50:-0.615345 #
0.5 5:-0.48666501 25:-0.259592 50:-0.251187 #
-0.5 5:-0.48666501 25:-0.259592 50:-0.615345 #
0.5 5:-0.48666501 25:-0.259592 50:-0.256042 #
-0.5 5:-0.48666501 25:-0.259592 50:-0.615345 #
0.5 5:-0.48666501 25:-0.259592 50:-0.26089799 #
-0.5 5:-0.48666501 25:-0.259592 50:-0.615345 #
0.5 5:-0.48666501 25:-0.259592 50:-0.265753 #
-0.5 5:-0.48666501 25:-0.259592 50:-0.615345 #
0.5 5:-0.327205 25:-0.259592 50:-0.0084149996 #
-0.5 5:-0.48666501 25:-0.259592 50:-0.615345 #
0.5 5:-0.48666501 25:-0.259592 50:-0.285175 #
-0.5 5:-0.48666501 25:-0.259592 50:-0.615345 #
-0.5 5:0.45560101 25:0.24669901 50:-0.615345 #
0.5 5:-0.48666501 25:-0.259592 50:-0.285175 #
-0.5 5:-0.48666501 25:-0.259592 50:3.074791 #
0.5 5:0.44110501 25:-0.259592 50:-0.105524 #
0.5 5:-0.48666501 25:-0.259592 50:-0.29003 #
-0.5 5:-0.48666501 25:-0.259592 50:-0.615345 #
0.5 5:-0.48666501 25:-0.259592 50:-0.29488599 #
-0.5 5:-0.48666501 25:-0.259592 50:-0.615345 #
0.5 5:-0.48666501 25:-0.259592 50:-0.31430799 #
-0.5 5:-0.48666501 25:-0.259592 50:-0.615345 #
0.5 5:-0.48666501 25:-0.259592 50:-0.31916299 #
-0.5 5:-0.48666501 25:-0.259592 50:-0.615345 #
0.5 5:-0.48666501 25:-0.259592 50:-0.324018 #
-0.5 5:-0.48666501 25:-0.259592 50:-0.615345 #
0.5 5:-0.48666501 25:-0.259592 50:-0.32887399 #
-0.5 5:-0.48666501 25:-0.259592 50:-0.615345 #
-0.5 5:0.36862299 25:0.199965 50:0.899553 #
0.5 5:-0.48666501 25:-0.259592 50:-0.333729 #
-0.5 5:-0.48666501 25:-0.259592 50:-0.615345 #
0.5 5:-0.48666501 25:-0.259592 50:-0.615345 #
0.5 5:-0.48666501 25:-0.259592 50:-0.333729 #
-0.5 5:-0.48666501 25:-0.259592 50:-0.615345 #
-0.5 5:-0.48666501 25:-0.259592 50:3.006815 #
0.5 5:-0.48666501 25:-0.259592 50:-0.333729 #
-0.5 5:-0.48666501 25:-0.259592 50:-0.615345 #
0.5 5:-0.48666501 25:-0.259592 50:-0.333729 #
-0.5 5:-0.48666501 25:-0.259592 50:-0.615345 #
0.5 5:-0.41418299 25:-0.259592 50:-0.197777 #
-0.5 5:-0.48666501 25:-0.259592 50:-0.615345 #
0.5 5:-0.48666501 25:-0.259592 50:-0.39684999 #
-0.5 5:-0.48666501 25:-0.259592 50:-0.615345 #
0.5 5:-0.48666501 25:-0.259592 50:-0.40656099 #
-0.5 5:-0.48666501 25:-0.259592 50:-0.615345 #
0.5 5:-0.48666501 25:-0.259592 50:-0.41627201 #
-0.5 5:-0.48666501 25:-0.259592 50:-0.615345 #
0.5 5:-0.48666501 25:-0.259592 50:-0.43569401 #
-0.5 5:-0.48666501 25:-0.259592 50:2.8757181 #
-0.5 5:-0.48666501 25:-0.259592 50:-0.615345 #
-0.5 5:-0.48666501 25:-0.259592 50:-0.615345 #
0.5 5:-0.48666501 25:-0.259592 50:-0.46968201 #
-0.5 5:-0.48666501 25:-0.259592 50:-0.615345 #
0.5 5:-0.48666501 25:-0.259592 50:-0.615345 #
0.5 5:-0.327205 25:-0.259592 50:-0.0084149996 #
-0.5 5:-0.48666501 25:-0.259592 50:-0.615345 #
0.5 5:-0.42867899 25:-0.259592 50:-0.299741 #
-0.5 5:-0.48666501 25:-0.259592 50:-0.615345 #
0.5 5:-0.48666501 25:-0.259592 50:-0.48424801 #
-0.5 5:-0.48666501 25:-0.259592 50:-0.615345 #
0.5 5:-0.48666501 25:-0.259592 50:-0.48424801 #
-0.5 5:-0.48666501 25:-0.259592 50:-0.615345 #
0.5 5:-0.48666501 25:-0.259592 50:-0.48424801 #
-0.5 5:-0.48666501 25:-0.259592 50:-0.615345 #
0.5 5:-0.48666501 25:-0.259592 50:-0.48424801 #
-0.5 5:-0.48666501 25:-0.259592 50:-0.615345 #
0.5 5:-0.48666501 25:-0.259592 50:-0.56678998 #
-0.5 5:-0.48666501 25:-0.259592 50:-0.615345 #
0.5 5:-0.48666501 25:-0.259592 50:-0.615345 #
0.5 5:-0.48666501 25:-0.259592 50:-0.615345 #
-0.5 5:-0.48666501 25:-0.259592 50:-0.615345 #
-0.5 5:-0.48666501 25:-0.259592 50:2.8757181 #
0.5 5:-0.48666501 25:-0.259592 50:-0.615345 #
0.5 5:-0.41418299 25:-0.259592 50:-0.29003 #
-0.5 5:-0.48666501 25:-0.259592 50:-0.615345 #
0.5 5:-0.41418299 25:-0.259592 50:-0.29003 #
-0.5 5:-0.48666501 25:-0.259592 50:-0.615345 #
0.5 5:0.26714799 25:-0.259592 50:0.30718899 #
-0.5 5:-0.48666501 25:-0.259592 50:-0.615345 #
0.5 5:-0.48666501 25:-0.259592 50:-0.615345 #
-0.5 5:-0.48666501 25:-0.259592 50:-0.615345 #
0.5 5:-0.48666501 25:-0.259592 50:-0.615345 #
-0.5 5:-0.48666501 25:-0.259592 50:-0.615345 #
0.5 5:-0.48666501 25:-0.259592 50:-0.615345 #
-0.5 5:-0.48666501 25:-0.259592 50:-0.615345 #
0.5 5:-0.48666501 25:-0.259592 50:-0.615345 #
-0.5 5:-0.48666501 25:-0.259592 50:-0.615345 #
0.5 5:-0.48666501 25:-0.259592 50:-0.615345 #
-0.5 5:-0.48666501 25:-0.259592 50:-0.615345 #
0.5 5:-0.48666501 25:-0.259592 50:-0.615345 #
-0.5 5:-0.48666501 25:-0.259592 50:-0.615345 #
0.5 5:-0.48666501 25:-0.259592 50:-0.615345 #
-0.5 5:-0.48666501 25:-0.259592 50:-0.615345 #
0.5 5:-0.48666501 25:-0.259592 50:-0.615345 #
-0.5 5:-0.48666501 25:-0.259592 50:-0.615345 #
0.5 5:-0.48666501 25:-0.259592 50:-0.615345 #
-0.5 5:-0.48666501 25:-0.259592 50:-0.615345 #
0.5 5:-0.48666501 25:-0.259592 50:-0.615345 #
-0.5 5:-0.48666501 25:-0.259592 50:-0.615345 #
0.5 5:-0.48666501 25:-0.259592 50:-0.615345 #
-0.5 5:-0.48666501 25:-0.259592 50:-0.615345 #
0.5 5:-0.48666501 25:-0.259592 50:-0.615345 #
-0.5 5:-0.48666501 25:-0.259592 50:-0.615345 #
0.5 5:-0.48666501 25:-0.259592 50:-0.615345 #
-0.5 5:-0.48666501 25:-0.259592 50:-0.615345 #
0.5 5:-0.48666501 25:-0.259592 50:-0.615345 #
-0.5 5:-0.48666501 25:-0.259592 50:-0.615345 #
0.5 5:-0.48666501 25:-0.259592 50:-0.615345 #
-0.5 5:-0.48666501 25:-0.259592 50:-0.615345 #
0.5 5:-0.48666501 25:-0.259592 50:-0.615345 #
-0.5 5:-0.48666501 25:-0.259592 50:-0.615345 #
0.5 5:-0.48666501 25:-0.259592 50:-0.615345 #
-0.5 5:-0.48666501 25:-0.259592 50:-0.615345 #
0.5 5:-0.48666501 25:-0.259592 50:-0.615345 #
-0.5 5:-0.48666501 25:-0.259592 50:-0.615345 #
0.5 5:-0.48666501 25:-0.259592 50:-0.615345 #
-0.5 5:-0.48666501 25:-0.259592 50:-0.615345 #
0.5 5:-0.48666501 25:-0.259592 50:-0.615345 #
-0.5 5:-0.48666501 25:-0.259592 50:-0.615345 #
0.5 5:-0.48666501 25:-0.259592 50:-0.615345 #
-0.5 5:-0.48666501 25:-0.259592 50:-0.615345 #
0.5 5:-0.48666501 25:-0.259592 50:-0.615345 #
-0.5 5:-0.48666501 25:-0.259592 50:-0.615345 #
0.5 5:-0.48666501 25:-0.259592 50:-0.615345 #
-0.5 5:-0.48666501 25:-0.259592 50:-0.615345 #
0.5 5:-0.48666501 25:-0.259592 50:-0.615345 #
-0.5 5:-0.48666501 25:-0.259592 50:-0.615345 #
0.5 5:-0.48666501 25:-0.259592 50:-0.615345 #
-0.5 5:-0.48666501 25:-0.259592 50:-0.615345 #
0.5 5:-0.48666501 25:-0.259592 50:-0.615345 #
-0.5 5:-0.48666501 25:-0.259592 50:-0.615345 #
0.5 5:-0.48666501 25:-0.259592 50:-0.615345 #
-0.5 5:-0.48666501 25:-0.259592 50:-0.615345 #
0.5 5:-0.48666501 25:-0.259592 50:-0.615345 #
-0.5 5:-0.48666501 25:-0.259592 50:-0.615345 #
0.5 5:-0.48666501 25:-0.259592 50:-0.615345 #
-0.5 5:-0.48666501 25:-0.259592 50:-0.615345 #
0.5 5:-0.48666501 25:-0.259592 50:-0.615345 #
-0.5 5:-0.48666501 25:-0.259592 50:-0.615345 #
0.5 5:-0.48666501 25:-0.259592 50:-0.615345 #
-0.5 5:-0.48666501 25:-0.259592 50:-0.615345 #
0.5 5:-0.48666501 25:-0.259592 50:-0.615345 #
-0.5 5:-0.48666501 25:-0.259592 50:-0.615345 #
0.5 5:-0.48666501 25:-0.259592 50:-0.615345 #
-0.5 5:-0.48666501 25:-0.259592 50:-0.615345 #
0.5 5:-0.48666501 25:-0.259592 50:-0.615345 #
-0.5 5:-0.48666501 25:-0.259592 50:-0.615345 #
0.5 5:-0.48666501 25:-0.259592 50:-0.615345 #
-0.5 5:-0.48666501 25:-0.259592 50:0.21008 #
0.5 5:-0.38519001 25:-0.259592 50:-0.285175 #
-0.5 5:-0.48666501 25:-0.259592 50:-0.615345 #
0.5 5:-0.124255 25:-0.259592 50:0.25377899 #
-0.5 5:-0.48666501 25:-0.259592 50:-0.615345 #
0.5 5:-0.41418299 25:-0.259592 50:-0.29488599 #
-0.5 5:-0.48666501 25:-0.259592 50:-0.615345 #
0.5 5:-0.29821199 25:-0.259592 50:-0.49395901 #
-0.5 5:-0.48666501 25:-0.259592 50:-0.615345 #
0.5 5:-0.48666501 25:-0.259592 50:-0.615345 #
-0.5 5:-0.48666501 25:-0.259592 50:-0.615345 #
0.5 5:-0.167744 25:-0.259592 50:0.14695901 #
-0.5 5:-0.48666501 25:-0.259592 50:-0.615345 #
0.5 5:-0.211233 25:-0.259592 50:0.117827 #
-0.5 5:-0.48666501 25:-0.259592 50:-0.615345 #
0.5 5:-0.38519001 25:-0.259592 50:-0.27060899 #
-0.5 5:-0.48666501 25:-0.259592 50:-0.615345 #
-0.5 5:-0.48666501 25:-0.259592 50:-0.615345 #
0.5 5:-0.48666501 25:-0.259592 50:-0.615345 #
-0.5 5:-0.48666501 25:-0.259592 50:-0.615345 #
0.5 5:-0.48666501 25:-0.259592 50:-0.615345 #
-0.5 5:-0.48666501 25:-0.259592 50:-0.615345 #
0.5 5:-0.48666501 25:-0.259592 50:-0.615345 #
-0.5 5:-0.48666501 25:-0.259592 50:-0.615345 #
0.5 5:-0.48666501 25:-0.259592 50:-0.615345 #
-0.5 5:-0.48666501 25:-0.259592 50:-0.615345 #
0.5 5:-0.48666501 25:-0.259592 50:-0.615345 #
-0.5 5:-0.48666501 25:-0.259592 50:-0.615345 #
0.5 5:-0.48666501 25:-0.259592 50:-0.615345 #
-0.5 5:-0.48666501 25:-0.259592 50:-0.615345 #
0.5 5:-0.48666501 25:-0.259592 50:-0.615345 #
-0.5 5:-0.48666501 25:-0.259592 50:-0.615345 #
0.5 5:-0.48666501 25:-0.259592 50:-0.615345 #
-0.5 5:-0.48666501 25:-0.259592 50:-0.615345 #
0.5 5:-0.48666501 25:-0.259592 50:-0.615345 #
-0.5 5:-0.48666501 25:-0.259592 50:-0.615345 #
0.5 5:-0.48666501 25:-0.259592 50:-0.615345 #
-0.5 5:-0.48666501 25:-0.259592 50:-0.615345 #
0.5 5:-0.48666501 25:-0.259592 50:-0.615345 #
-0.5 5:-0.48666501 25:-0.259592 50:-0.615345 #
0.5 5:-0.48666501 25:-0.259592 50:-0.615345 #
-0.5 5:-0.48666501 25:-0.259592 50:-0.615345 #
0.5 5:-0.48666501 25:-0.259592 50:-0.615345 #
-0.5 5:-0.48666501 25:-0.259592 50:-0.615345 #
0.5 5:-0.48666501 25:-0.259592 50:-0.615345 #
-0.5 5:-0.48666501 25:-0.259592 50:-0.615345 #
0.5 5:-0.48666501 25:-0.259592 50:-0.615345 #
-0.5 5:-0.48666501 25:-0.259592 50:-0.615345 #
0.5 5:-0.48666501 25:-0.259592 50:-0.615345 #
-0.5 5:-0.48666501 25:-0.259592 50:-0.615345 #
0.5 5:-0.48666501 25:-0.259592 50:-0.615345 #
-0.5 5:-0.48666501 25:-0.259592 50:-0.615345 #
0.5 5:-0.48666501 25:-0.259592 50:-0.615345 #
-0.5 5:-0.48666501 25:-0.259592 50:-0.615345 #
0.5 5:-0.48666501 25:-0.259592 50:-0.615345 #
-0.5 5:-0.48666501 25:-0.259592 50:-0.615345 #
0.5 5:-0.48666501 25:-0.259592 50:-0.615345 #
-0.5 5:-0.48666501 25:-0.259592 50:-0.45511499 #
0.5 5:-0.211233 25:-0.259592 50:-0.46482599 #
-0.5 5:-0.48666501 25:-0.259592 50:-0.615345 #
0.5 5:-0.48666501 25:-0.259592 50:-0.615345 #
-0.5 5:-0.48666501 25:-0.259592 50:-0.615345 #
0.5 5:-0.48666501 25:-0.259592 50:-0.615345 #
-0.5 5:-0.48666501 25:-0.259592 50:-0.615345 #
0.5 5:-0.48666501 25:-0.259592 50:-0.615345 #
-0.5 5:-0.48666501 25:-0.259592 50:-0.615345 #
0.5 5:-0.48666501 25:-0.259592 50:-0.615345 #
-0.5 5:-0.48666501 25:-0.259592 50:-0.615345 #
0.5 5:-0.48666501 25:-0.259592 50:-0.615345 #
-0.5 5:-0.48666501 25:-0.259592 50:-0.615345 #
0.5 5:-0.48666501 25:-0.259592 50:-0.615345 #
-0.5 5:-0.48666501 25:-0.259592 50:-0.615345 #
0.5 5:-0.48666501 25:-0.259592 50:-0.615345 #
-0.5 5:-0.48666501 25:-0.259592 50:-0.615345 #
0.5 5:-0.48666501 25:-0.259592 50:-0.615345 #
-0.5 5:-0.48666501 25:-0.259592 50:-0.615345 #
0.5 5:-0.48666501 25:-0.259592 50:-0.615345 #
-0.5 5:-0.48666501 25:-0.259592 50:-0.615345 #
0.5 5:-0.48666501 25:-0.259592 50:-0.615345 #
-0.5 5:-0.48666501 25:-0.259592 50:-0.615345 #
0.5 5:-0.48666501 25:-0.259592 50:-0.615345 #
-0.5 5:-0.48666501 25:-0.259592 50:-0.615345 #
0.5 5:-0.48666501 25:-0.259592 50:-0.615345 #
-0.5 5:-0.48666501 25:-0.259592 50:-0.615345 #
0.5 5:-0.48666501 25:-0.259592 50:-0.615345 #
-0.5 5:-0.48666501 25:-0.259592 50:-0.615345 #
0.5 5:-0.48666501 25:-0.259592 50:-0.615345 #
-0.5 5:-0.48666501 25:-0.259592 50:-0.615345 #
0.5 5:-0.48666501 25:-0.259592 50:-0.615345 #
-0.5 5:-0.48666501 25:-0.259592 50:-0.615345 #
0.5 5:-0.48666501 25:-0.259592 50:-0.615345 #
-0.5 5:-0.48666501 25:-0.259592 50:-0.615345 #
0.5 5:-0.48666501 25:-0.259592 50:-0.615345 #
-0.5 5:-0.48666501 25:-0.259592 50:-0.615345 #
0.5 5:-0.48666501 25:-0.259592 50:-0.615345 #
-0.5 5:-0.48666501 25:-0.259592 50:-0.615345 #
0.5 5:-0.48666501 25:-0.259592 50:-0.615345 #
-0.5 5:-0.48666501 25:-0.259592 50:-0.615345 #
0.5 5:-0.48666501 25:-0.259592 50:-0.615345 #
-0.5 5:-0.48666501 25:-0.259592 50:-0.615345 #
0.5 5:-0.48666501 25:-0.259592 50:-0.615345 #
-0.5 5:-0.48666501 25:-0.259592 50:-0.615345 #
0.5 5:-0.48666501 25:-0.259592 50:-0.615345 #
-0.5 5:-0.48666501 25:-0.259592 50:-0.615345 #
0.5 5:-0.48666501 25:-0.259592 50:-0.615345 #
-0.5 5:-0.48666501 25:-0.259592 50:-0.615345 #
0.5 5:-0.48666501 25:-0.259592 50:-0.615345 #
-0.5 5:-0.48666501 25:-0.259592 50:-0.615345 #
0.5 5:-0.48666501 25:-0.259592 50:-0.615345 #
-0.5 5:-0.48666501 25:-0.259592 50:-0.615345 #
0.5 5:-0.48666501 25:-0.259592 50:-0.615345 #
-0.5 5:-0.48666501 25:-0.259592 50:-0.615345 #
0.5 5:-0.48666501 25:-0.259592 50:-0.615345 #
-0.5 5:-0.48666501 25:-0.259592 50:-0.615345 #
0.5 5:-0.48666501 25:-0.259592 50:-0.615345 #
-0.5 5:-0.48666501 25:-0.259592 50:-0.615345 #
0.5 5:-0.48666501 25:-0.259592 50:-0.615345 #
-0.5 5:-0.48666501 25:-0.259592 50:-0.615345 #
0.5 5:-0.48666501 25:-0.259592 50:-0.615345 #
-0.5 5:-0.48666501 25:-0.259592 50:-0.615345 #
0.5 5:-0.48666501 25:-0.259592 50:-0.615345 #
-0.5 5:-0.48666501 25:-0.259592 50:-0.615345 #
0.5 5:-0.48666501 25:-0.259592 50:-0.615345 #
-0.5 5:-0.48666501 25:-0.259592 50:-0.615345 #
0.5 5:-0.48666501 25:-0.259592 50:-0.615345 #
-0.5 5:-0.48666501 25:-0.259592 50:-0.615345 #
0.5 5:-0.48666501 25:-0.259592 50:-0.615345 #
-0.5 5:-0.48666501 25:-0.259592 50:-0.615345 #
0.5 5:-0.48666501 25:-0.259592 50:-0.615345 #
-0.5 5:-0.48666501 25:-0.259592 50:-0.615345 #
0.5 5:-0.48666501 25:-0.259592 50:-0.615345 #
-0.5 5:-0.48666501 25:-0.259592 50:-0.615345 #
0.5 5:-0.48666501 25:-0.259592 50:-0.615345 #
-0.5 5:-0.48666501 25:-0.259592 50:-0.615345 #
0.5 5:-0.48666501 25:-0.259592 50:-0.615345 #
-0.5 5:-0.48666501 25:-0.259592 50:-0.615345 #
0.5 5:-0.48666501 25:-0.259592 50:-0.615345 #
-0.5 5:-0.48666501 25:-0.259592 50:-0.615345 #
0.5 5:-0.48666501 25:-0.259592 50:-0.615345 #
-0.5 5:-0.48666501 25:-0.259592 50:-0.615345 #
0.5 5:-0.48666501 25:-0.259592 50:-0.615345 #
-0.5 5:-0.48666501 25:-0.259592 50:-0.615345 #
0.5 5:-0.48666501 25:-0.259592 50:-0.615345 #
-0.5 5:-0.48666501 25:-0.259592 50:-0.615345 #
0.5 5:-0.48666501 25:-0.259592 50:-0.615345 #
-0.5 5:-0.48666501 25:-0.259592 50:-0.615345 #
0.5 5:-0.48666501 25:-0.259592 50:-0.615345 #
-0.5 5:-0.48666501 25:-0.259592 50:-0.615345 #
0.5 5:-0.38519001 25:-0.259592 50:-0.35315099 #
-0.5 5:-0.48666501 25:-0.259592 50:-0.615345 #
0.5 5:-0.37069401 25:-0.259592 50:-0.28031901 #
0.5 5:-0.37069401 25:-0.259592 50:-0.285175 #
-0.5 5:-0.48666501 25:-0.259592 50:-0.615345 #
-0.5 5:-0.48666501 25:-0.259592 50:-0.615345 #
-0.5 5:-0.095261998 25:-0.049286999 50:-0.047258001 #
0.5 5:-0.37069401 25:-0.259592 50:-0.299741 #
-0.5 5:-0.48666501 25:-0.259592 50:-0.52309197 #
0.5 5:-0.066269003 25:-0.259592 50:-0.23661999 #
0.5 5:-0.37069401 25:-0.259592 50:-0.38228399 #
0.5 5:-0.37069401 25:-0.259592 50:-0.309452 #
-0.5 5:-0.124255 25:-0.064865001 50:-0.047258001 #
-0.5 5:-0.48666501 25:-0.259592 50:-0.615345 #
0.5 5:-0.37069401 25:-0.259592 50:-0.309452 #
0.5 5:-0.28371501 25:-0.259592 50:-0.615345 #
0.5 5:0.035206001 25:-0.259592 50:0.28776699 #
-0.5 5:-0.48666501 25:-0.259592 50:-0.615345 #
-0.5 5:-0.48666501 25:-0.259592 50:-0.615345 #
0.5 5:-0.37069401 25:-0.259592 50:-0.377428 #
-0.5 5:-0.48666501 25:-0.259592 50:-0.615345 #
0.5 5:-0.26921901 25:-0.259592 50:-0.022980999 #
0.5 5:-0.356197 25:-0.259592 50:-0.45997101 #
-0.5 5:-0.48666501 25:-0.259592 50:-0.615345 #
0.5 5:0.45560101 25:-0.259592 50:-0.105524 #
-0.5 5:-0.48666501 25:-0.259592 50:-0.615345 #
-0.5 5:-0.48666501 25:-0.259592 50:-0.42598301 #
0.5 5:-0.356197 25:-0.259592 50:-0.333729 #
-0.5 5:-0.48666501 25:-0.259592 50:-0.42598301 #
0.5 5:-0.31270799 25:-0.259592 50:-0.50852501 #
-0.5 5:-0.48666501 25:-0.259592 50:-0.50366998 #
0.5 5:-0.138751 25:-0.259592 50:-0.615345 #
-0.5 5:-0.48666501 25:-0.259592 50:-0.53280199 #
0.5 5:-0.341701 25:-0.259592 50:-0.38228399 #
-0.5 5:-0.48666501 25:-0.259592 50:-0.615345 #
0.5 5:-0.341701 25:-0.259592 50:-0.377428 #
-0.5 5:-0.48666501 25:-0.259592 50:-0.615345 #
0.5 5:-0.29821199 25:-0.259592 50:-0.43083799 #
-0.5 5:-0.48666501 25:-0.259592 50:-0.615345 #
-0.5 5:-0.48666501 25:-0.259592 50:0.132393 #
0.5 5:-0.109759 25:-0.259592 50:-0.615345 #
-0.5 5:-0.48666501 25:-0.259592 50:-0.615345 #
0.5 5:-0.18224099 25:-0.259592 50:0.122682 #
0.5 5:-0.356197 25:-0.259592 50:-0.285175 #
-0.5 5:-0.48666501 25:-0.259592 50:-0.615345 #
0.5 5:-0.29821199 25:-0.259592 50:-0.36286199 #
-0.5 5:-0.48666501 25:-0.259592 50:-0.615345 #
0.5 5:0.25265199 25:-0.259592 50:0.30233401 #
-0.5 5:-0.48666501 25:-0.259592 50:-0.615345 #
0.5 5:-0.327205 25:-0.259592 50:-0.30459699 #
0.5 5:-0.080766 25:-0.259592 50:-0.615345 #
-0.5 5:-0.48666501 25:-0.259592 50:-0.615345 #
0.5 5:-0.022779999 25:-0.259592 50:0.16152599 #
0.5 5:0.28164399 25:-0.259592 50:0.28776699 #
-0.5 5:-0.48666501 25:-0.259592 50:-0.615345 #
0.5 5:-0.29821199 25:-0.259592 50:-0.27060899 #
-0.5 5:-0.48666501 25:-0.259592 50:-0.615345 #
0.5 5:-0.29821199 25:-0.259592 50:-0.18806601 #
-0.5 5:-0.48666501 25:-0.259592 50:-0.615345 #
0.5 5:-0.28371501 25:-0.259592 50:-0.251187 #
0.5 5:-0.211233 25:-0.259592 50:-0.46968201 #
-0.5 5:-0.48666501 25:-0.259592 50:-0.615345 #
0.5 5:-0.28371501 25:-0.259592 50:-0.251187 #
-0.5 5:-0.48666501 25:-0.259592 50:-0.615345 #
-0.5 5:-0.48666501 25:-0.259592 50:-0.615345 #
0.5 5:-0.051773001 25:-0.259592 50:-0.51823598 #
0.5 5:-0.28371501 25:-0.259592 50:-0.241476 #
-0.5 5:-0.48666501 25:-0.259592 50:-0.615345 #
0.5 5:-0.28371501 25:-0.259592 50:-0.23661999 #
-0.5 5:-0.48666501 25:-0.259592 50:-0.615345 #
0.5 5:-0.28371501 25:-0.259592 50:-0.23661999 #
-0.5 5:-0.48666501 25:-0.259592 50:-0.615345 #
-0.5 5:-0.48666501 25:-0.259592 50:-0.615345 #
0.5 5:-0.28371501 25:-0.259592 50:-0.217199 #
-0.5 5:-0.48666501 25:-0.259592 50:-0.615345 #
-0.5 5:-0.48666501 25:-0.259592 50:-0.615345 #
0.5 5:-0.25472301 25:-0.259592 50:-0.052113999 #
0.5 5:-0.022779999 25:-0.259592 50:-0.358006 #
0.5 5:-0.26921901 25:-0.259592 50:-0.241476 #
-0.5 5:-0.48666501 25:-0.259592 50:-0.615345 #
0.5 5:-0.26921901 25:-0.259592 50:-0.23661999 #
-0.5 5:-0.48666501 25:-0.259592 50:-0.615345 #
0.5 5:-0.26921901 25:-0.259592 50:-0.17835499 #
-0.5 5:-0.48666501 25:-0.259592 50:-0.615345 #
0.5 5:-0.26921901 25:-0.259592 50:-0.1735 #
-0.5 5:-0.48666501 25:-0.259592 50:-0.615345 #
0.5 5:-0.25472301 25:-0.259592 50:-0.29488599 #
-0.5 5:-0.48666501 25:-0.259592 50:-0.615345 #
0.5 5:-0.240226 25:-0.259592 50:-0.33858499 #
0.5 5:-0.25472301 25:-0.259592 50:-0.15407801 #
-0.5 5:-0.48666501 25:-0.259592 50:-0.615345 #
-0.5 5:-0.48666501 25:-0.259592 50:-0.615345 #
0.5 5:-0.240226 25:-0.259592 50:0.030429 #
-0.5 5:-0.48666501 25:-0.259592 50:-0.615345 #
0.5 5:-0.211233 25:-0.259592 50:-0.24633101 #
-0.5 5:-0.48666501 25:-0.259592 50:-0.615345 #
0.5 5:-0.211233 25:-0.259592 50:-0.202632 #
-0.5 5:-0.48666501 25:-0.259592 50:-0.615345 #
0.5 5:-0.211233 25:-0.259592 50:0.0061519998 #
0.5 5:-0.138751 25:-0.259592 50:-0.44540399 #
0.5 5:-0.124255 25:-0.259592 50:-0.45026001 #
-0.5 5:-0.48666501 25:-0.259592 50:-0.615345 #
-0.5 5:-0.022779999 25:-0.010341 50:1.186024 #
0.5 5:-0.138751 25:-0.259592 50:-0.44540399 #
0.5 5:-0.48666501 25:-0.259592 50:9.1586599 #
-0.5 5:0.310637 25:0.168808 50:1.108337 #
0.5 5:-0.153248 25:-0.259592 50:-0.41627201 #
0.5 5:-0.109759 25:-0.259592 50:0.049851 #
-0.5 5:-0.48666501 25:-0.259592 50:-0.615345 #
0.5 5:-0.153248 25:-0.259592 50:-0.40656099 #
-0.5 5:-0.48666501 25:-0.259592 50:-0.615345 #
0.5 5:-0.124255 25:-0.259592 50:-0.41141599 #
0.5 5:-0.109759 25:-0.259592 50:-0.43083799 #
-0.5 5:-0.48666501 25:-0.259592 50:0.77331102 #
0.5 5:-0.167744 25:-0.259592 50:-0.076390997 #
-0.5 5:-0.48666501 25:-0.259592 50:-0.615345 #
-0.5 5:-0.48666501 25:-0.259592 50:0.76360101 #
0.5 5:-0.080766 25:-0.259592 50:-0.38713899 #
-0.5 5:-0.48666501 25:-0.259592 50:0.74417901 #
0.5 5:-0.153248 25:-0.259592 50:-0.086102001 #
-0.5 5:-0.48666501 25:-0.259592 50:0.72475702 #
0.5 5:-0.153248 25:-0.259592 50:-0.076390997 #
0.5 5:-0.153248 25:-0.259592 50:-0.071534999 #
-0.5 5:-0.48666501 25:-0.259592 50:0.68105799 #
0.5 5:-0.138751 25:-0.259592 50:-0.052113999 #
-0.5 5:-0.48666501 25:-0.259592 50:-0.615345 #
-0.5 5:-0.48666501 25:-0.259592 50:0.67620301 #
0.5 5:-0.109759 25:-0.259592 50:-0.29003 #
-0.5 5:-0.48666501 25:-0.259592 50:0.66163599 #
-0.5 5:-0.48666501 25:-0.259592 50:0.66163599 #
0.5 5:-0.080766 25:-0.259592 50:-0.38228399 #
0.5 5:-0.109759 25:-0.259592 50:-0.217199 #
0.5 5:-0.095261998 25:-0.259592 50:-0.086102001 #
-0.5 5:-0.48666501 25:-0.259592 50:0.62279302 #
-0.5 5:-0.48666501 25:-0.259592 50:-0.615345 #
-0.5 5:-0.48666501 25:-0.259592 50:0.61793703 #
0.5 5:-0.066269003 25:-0.259592 50:-0.615345 #
0.5 5:-0.037276 25:-0.259592 50:0.088693999 #
-0.5 5:-0.48666501 25:-0.259592 50:-0.615345 #
0.5 5:-0.080766 25:-0.259592 50:-0.090957001 #
0.5 5:-0.066269003 25:-0.259592 50:-0.615345 #
0.5 5:-0.066269003 25:-0.259592 50:-0.43569401 #
-0.5 5:-0.48666501 25:-0.259592 50:-0.615345 #
0.5 5:-0.022779999 25:-0.259592 50:-0.139512 #
0.5 5:-0.051773001 25:-0.259592 50:-0.615345 #
-0.5 5:-0.48666501 25:-0.259592 50:-0.615345 #
0.5 5:-0.066269003 25:-0.259592 50:-0.29003 #
-0.5 5:-0.48666501 25:-0.259592 50:-0.615345 #
0.5 5:0.006213 25:-0.259592 50:-0.134656 #
-0.5 5:-0.48666501 25:-0.259592 50:-0.615345 #
0.5 5:-0.066269003 25:-0.259592 50:-0.39199501 #
-0.5 5:-0.48666501 25:-0.259592 50:0.57909399 #
0.5 5:0.006213 25:-0.259592 50:-0.134656 #
-0.5 5:-0.48666501 25:-0.259592 50:-0.615345 #
0.5 5:-0.051773001 25:-0.259592 50:-0.21234301 #
-0.5 5:-0.48666501 25:-0.259592 50:0.574238 #
0.5 5:-0.051773001 25:-0.259592 50:-0.43569401 #
-0.5 5:-0.48666501 25:-0.259592 50:-0.615345 #
0.5 5:0.006213 25:-0.259592 50:-0.134656 #
0.5 5:-0.051773001 25:-0.259592 50:-0.38228399 #
-0.5 5:-0.48666501 25:-0.259592 50:-0.615345 #
-0.5 5:-0.48666501 25:-0.259592 50:0.55481702 #
0.5 5:-0.037276 25:-0.259592 50:-0.37257299 #
-0.5 5:-0.48666501 25:-0.259592 50:-0.615345 #
0.5 5:-0.022779999 25:-0.259592 50:-0.36286199 #
-0.5 5:-0.48666501 25:-0.259592 50:-0.615345 #
0.5 5:-0.022779999 25:-0.259592 50:-0.36286199 #
-0.5 5:-0.48666501 25:-0.259592 50:-0.256042 #
-0.5 5:-0.48666501 25:-0.259592 50:0.54996097 #
0.5 5:-0.0082839997 25:-0.259592 50:-0.358006 #
0.5 5:-0.0082839997 25:-0.259592 50:-0.324018 #
-0.5 5:-0.48666501 25:-0.259592 50:-0.615345 #
0.5 5:-0.022779999 25:-0.259592 50:-0.615345 #
-0.5 5:-0.48666501 25:-0.259592 50:0.54510599 #
0.5 5:-0.022779999 25:-0.259592 50:-0.615345 #
0.5 5:0.035206001 25:-0.259592 50:-0.0084149996 #
-0.5 5:-0.48666501 25:-0.259592 50:-0.615345 #
-0.5 5:-0.48666501 25:-0.259592 50:-0.615345 #
0.5 5:-0.0082839997 25:-0.259592 50:-0.615345 #
-0.5 5:-0.48666501 25:-0.259592 50:0.54025 #
-0.5 5:-0.48666501 25:-0.259592 50:0.53539503 #
0.5 5:0.006213 25:-0.259592 50:-0.34344 #
0.5 5:0.006213 25:-0.259592 50:-0.333729 #
-0.5 5:-0.48666501 25:-0.259592 50:-0.615345 #
-0.5 5:-0.48666501 25:-0.259592 50:0.53053898 #
0.5 5:0.020709001 25:-0.259592 50:-0.615345 #
0.5 5:0.020709001 25:-0.259592 50:-0.29488599 #
-0.5 5:-0.48666501 25:-0.259592 50:0.49655101 #
0.5 5:0.020709001 25:-0.259592 50:-0.48424801 #
-0.5 5:-0.48666501 25:-0.259592 50:-0.615345 #
0.5 5:0.020709001 25:-0.259592 50:-0.22691 #
0.5 5:0.035206001 25:-0.259592 50:-0.615345 #
-0.5 5:-0.48666501 25:-0.259592 50:-0.615345 #
-0.5 5:-0.48666501 25:-0.259592 50:-0.615345 #
0.5 5:0.035206001 25:-0.259592 50:-0.39199501 #
0.5 5:0.035206001 25:-0.259592 50:-0.40656099 #
-0.5 5:-0.48666501 25:-0.259592 50:-0.615345 #
-0.5 5:-0.48666501 25:-0.259592 50:-0.081246004 #
0.5 5:0.064198002 25:-0.259592 50:-0.615345 #
0.5 5:0.064198002 25:-0.259592 50:-0.01327 #
-0.5 5:-0.48666501 25:-0.259592 50:-0.615345 #
0.5 5:0.064198002 25:-0.259592 50:-0.615345 #
0.5 5:0.078694999 25:-0.259592 50:0.059562001 #
0.5 5:0.064198002 25:-0.259592 50:-0.32887399 #
-0.5 5:-0.48666501 25:-0.259592 50:-0.615345 #
-0.5 5:-0.48666501 25:-0.259592 50:0.48684001 #
0.5 5:0.064198002 25:-0.259592 50:-0.615345 #
-0.5 5:-0.48666501 25:-0.259592 50:-0.615345 #
0.5 5:0.122184 25:-0.259592 50:0.15667 #
-0.5 5:-0.48666501 25:-0.259592 50:-0.615345 #
0.5 5:0.107688 25:-0.259592 50:0.025573 #
0.5 5:0.064198002 25:-0.259592 50:-0.615345 #
-0.5 5:-0.48666501 25:-0.259592 50:0.467419 #
0.5 5:0.064198002 25:-0.259592 50:-0.401705 #
-0.5 5:-0.48666501 25:-0.259592 50:-0.615345 #
-0.5 5:-0.48666501 25:-0.259592 50:-0.377428 #
0.5 5:0.064198002 25:-0.259592 50:-0.32887399 #
0.5 5:0.078694999 25:-0.259592 50:-0.615345 #
-0.5 5:-0.48666501 25:-0.259592 50:-0.36286199 #
0.5 5:0.107688 25:-0.259592 50:0.025573 #
-0.5 5:-0.48666501 25:-0.259592 50:0.46256301 #
-0.5 5:-0.48666501 25:-0.259592 50:-0.33858499 #
0.5 5:0.078694999 25:-0.259592 50:-0.202632 #
-0.5 5:-0.48666501 25:-0.259592 50:0.447997 #
0.5 5:0.13668001 25:-0.259592 50:0.166381 #
0.5 5:0.078694999 25:-0.259592 50:-0.43569401 #
-0.5 5:-0.48666501 25:-0.259592 50:0.44314101 #
0.5 5:0.093190998 25:-0.259592 50:-0.615345 #
0.5 5:0.18017 25:-0.259592 50:0.219791 #
-0.5 5:-0.48666501 25:-0.259592 50:-0.333729 #
-0.5 5:-0.48666501 25:-0.259592 50:0.433431 #
0.5 5:0.165673 25:-0.259592 50:0.21008 #
0.5 5:0.093190998 25:-0.259592 50:-0.163789 #
-0.5 5:-0.48666501 25:-0.259592 50:-0.324018 #
0.5 5:0.093190998 25:-0.259592 50:-0.46968201 #
-0.5 5:-0.48666501 25:-0.259592 50:-0.324018 #
-0.5 5:-0.48666501 25:-0.259592 50:0.414009 #
-0.5 5:-0.48666501 25:-0.259592 50:0.151815 #
0.5 5:0.13668001 25:-0.259592 50:0.098405004 #
-0.5 5:-0.48666501 25:-0.259592 50:-0.217199 #
0.5 5:0.107688 25:-0.259592 50:-0.615345 #
0.5 5:0.165673 25:-0.259592 50:0.16152599 #
-0.5 5:-0.48666501 25:-0.259592 50:-0.324018 #
0.5 5:0.122184 25:-0.259592 50:-0.202632 #
-0.5 5:-0.48666501 25:-0.259592 50:0.39458701 #
-0.5 5:-0.48666501 25:-0.259592 50:-0.31916299 #
0.5 5:0.122184 25:-0.259592 50:-0.202632 #
0.5 5:0.122184 25:-0.259592 50:-0.207488 #
0.5 5:0.13668001 25:-0.259592 50:-0.615345 #
-0.5 5:-0.48666501 25:-0.259592 50:-0.29488599 #
0.5 5:0.13668001 25:-0.259592 50:-0.090957001 #
0.5 5:0.209162 25:-0.259592 50:0.176092 #
0.5 5:0.122184 25:-0.259592 50:-0.31430799 #
-0.5 5:-0.48666501 25:-0.259592 50:-0.251187 #
0.5 5:0.194666 25:-0.259592 50:0.001296 #
-0.5 5:-0.48666501 25:-0.259592 50:-0.21234301 #
0.5 5:0.122184 25:-0.259592 50:-0.222054 #
-0.5 5:-0.48666501 25:-0.259592 50:-0.21234301 #
-0.5 5:-0.48666501 25:-0.259592 50:-0.139512 #
-0.5 5:-0.48666501 25:-0.259592 50:0.37516499 #
0.5 5:0.13668001 25:-0.259592 50:-0.285175 #
0.5 5:0.18017 25:-0.259592 50:-0.217199 #
-0.5 5:-0.48666501 25:-0.259592 50:-0.134656 #
0.5 5:0.18017 25:-0.259592 50:-0.251187 #
-0.5 5:-0.48666501 25:-0.259592 50:-0.124945 #
0.5 5:0.13668001 25:-0.259592 50:-0.615345 #
0.5 5:0.151177 25:-0.259592 50:-0.615345 #
-0.5 5:-0.48666501 25:-0.259592 50:0.37516499 #
0.5 5:0.151177 25:-0.259592 50:-0.615345 #
0.5 5:0.194666 25:-0.259592 50:-0.24633101 #
-0.5 5:-0.48666501 25:-0.259592 50:-0.115234 #
0.5 5:0.151177 25:-0.259592 50:-0.615345 #
-0.5 5:-0.48666501 25:-0.259592 50:-0.105524 #
0.5 5:0.44110501 25:-0.259592 50:0.190658 #
0.5 5:0.151177 25:-0.259592 50:-0.615345 #
-0.5 5:-0.48666501 25:-0.259592 50:0.37031001 #
0.5 5:0.165673 25:-0.259592 50:-0.615345 #
0.5 5:0.209162 25:-0.259592 50:-0.207488 #
-0.5 5:-0.48666501 25:-0.259592 50:-0.090957001 #
0.5 5:0.194666 25:-0.259592 50:-0.34344 #
-0.5 5:-0.48666501 25:-0.259592 50:-0.086102001 #
-0.5 5:-0.48666501 25:-0.259592 50:0.36545399 #
0.5 5:0.194666 25:-0.259592 50:-0.34344 #
-0.5 5:-0.48666501 25:-0.259592 50:0.36545399 #
0.5 5:0.194666 25:-0.259592 50:-0.615345 #
-0.5 5:-0.48666501 25:-0.259592 50:-0.076390997 #
-0.5 5:-0.48666501 25:-0.259592 50:-0.0084149996 #
0.5 5:0.194666 25:-0.259592 50:-0.615345 #
0.5 5:0.22365899 25:-0.259592 50:-0.43569401 #
-0.5 5:-0.48666501 25:-0.259592 50:0.020718001 #
0.5 5:0.28164399 25:-0.259592 50:-0.056968998 #
-0.5 5:-0.48666501 25:-0.259592 50:0.020718001 #
0.5 5:0.23815501 25:-0.259592 50:-0.615345 #
-0.5 5:-0.48666501 25:-0.259592 50:0.030429 #
0.5 5:0.26714799 25:-0.259592 50:-0.15407801 #
-0.5 5:-0.48666501 25:-0.259592 50:0.030429 #
0.5 5:0.296141 25:-0.259592 50:-0.615345 #
-0.5 5:-0.48666501 25:-0.259592 50:0.030429 #
0.5 5:0.26714799 25:-0.259592 50:-0.241476 #
0.5 5:0.28164399 25:-0.259592 50:-0.17835499 #
-0.5 5:-0.48666501 25:-0.259592 50:0.34117699 #
-0.5 5:-0.48666501 25:-0.259592 50:0.33146599 #
0.5 5:0.25265199 25:-0.259592 50:-0.615345 #
-0.5 5:-0.48666501 25:-0.259592 50:0.030429 #
0.5 5:0.28164399 25:-0.259592 50:-0.615345 #
-0.5 5:-0.48666501 25:-0.259592 50:0.035284001 #
0.5 5:0.296141 25:-0.259592 50:-0.149222 #
-0.5 5:-0.48666501 25:-0.259592 50:0.31204399 #
0.5 5:0.28164399 25:-0.259592 50:-0.275464 #
-0.5 5:-0.48666501 25:-0.259592 50:0.044994999 #
-0.5 5:-0.48666501 25:-0.259592 50:0.28776699 #
0.5 5:0.296141 25:-0.259592 50:-0.197777 #
-0.5 5:-0.48666501 25:-0.259592 50:0.28291199 #
0.5 5:0.296141 25:-0.259592 50:-0.615345 #
0.5 5:0.310637 25:-0.259592 50:-0.134656 #
-0.5 5:-0.48666501 25:-0.259592 50:0.059562001 #
0.5 5:0.296141 25:-0.259592 50:-0.43083799 #
-0.5 5:-0.48666501 25:-0.259592 50:0.064416997 #
0.5 5:0.310637 25:-0.259592 50:-0.615345 #
-0.5 5:-0.48666501 25:-0.259592 50:0.064416997 #
-0.5 5:-0.48666501 25:-0.259592 50:0.083838999 #
0.5 5:0.36862299 25:-0.259592 50:-0.36286199 #
-0.5 5:-0.48666501 25:-0.259592 50:0.278056 #
0.5 5:0.38311899 25:-0.259592 50:-0.615345 #
-0.5 5:-0.48666501 25:-0.259592 50:0.083838999 #
0.5 5:0.397616 25:-0.259592 50:-0.158933 #
-0.5 5:-0.48666501 25:-0.259592 50:0.098405004 #
0.5 5:0.397616 25:-0.259592 50:-0.615345 #
-0.5 5:-0.48666501 25:-0.259592 50:0.108116 #
-0.5 5:-0.48666501 25:-0.259592 50:0.112971 #
0.5 5:0.397616 25:-0.259592 50:-0.615345 #
0.5 5:0.397616 25:-0.259592 50:-0.367717 #
0.5 5:0.45560101 25:-0.259592 50:-0.076390997 #
0.5 5:0.42660901 25:-0.259592 50:-0.090957001 #
-0.5 5:-0.48666501 25:-0.259592 50:0.13724899 #
0.5 5:0.42660901 25:-0.259592 50:-0.090957001 #
0.5 5:0.44110501 25:-0.259592 50:-0.056968998 #
0.5 5:0.397616 25:-0.259592 50:-0.615345 #
-0.5 5:-0.48666501 25:-0.259592 50:0.15667 #
-0.5 5:-0.48666501 25:-0.259592 50:0.176092 #
0.5 5:0.412112 25:-0.259592 50:-0.615345 #
-0.5 5:-0.48666501 25:-0.259592 50:0.176092 #
0.5 5:0.42660901 25:-0.259592 50:-0.55707997 #
0.5 5:0.48459399 25:-0.259592 50:-0.615345 #
0.5 5:0.45560101 25:-0.259592 50:-0.071534999 #
0.5 5:0.44110501 25:-0.259592 50:-0.110379 #
0.5 5:0.45560101 25:-0.259592 50:-0.100668 #
0.5 5:0.44110501 25:-0.259592 50:-0.615345 #
-0.5 5:-0.48666501 25:-0.259592 50:0.22950201 #
0.5 5:0.45560101 25:-0.259592 50:-0.105524 #
0.5 5:0.45560101 25:-0.259592 50:-0.105524 #
-0.5 5:-0.48666501 25:-0.259592 50:0.234357 #
0.5 5:0.45560101 25:-0.259592 50:-0.105524 #
0.5 5:0.45560101 25:-0.259592 50:-0.367717 #
0.5 5:0.45560101 25:-0.259592 50:-0.615345 #
0.5 5:0.499091 25:-0.259592 50:0.166381 #
0.5 5:0.52808303 25:-0.259592 50:0.224647 #
0.5 5:0.48459399 25:-0.259592 50:-0.615345 #
-0.5 5:-0.240226 25:0.013026 50:0.627648 #
0.5 5:0.499091 25:-0.259592 50:-0.615345 #
0.043069146179825601450374961132184 5:0.52808303 25:-0.259592 50:-0.43569401 #
