SVM-light Version V6.02
0 # kernel type
3 # kernel parameter -d 
1 # kernel parameter -g 
1 # kernel parameter -s 
1 # kernel parameter -r 
empty# kernel parameter -u 
57 # highest feature index 
1813 # number of training documents 
971 # number of support vectors plus 1 
0.28656727 # threshold b, each following line is a SV (starting with alpha*y)
-0.5 5:-0.48666501 6:-0.35563499 10:-0.40832499 12:-0.66384602 15:-0.21397699 25:-0.259592 28:-0.18276601 34:-0.1311 38:-0.063603997 50:0.65678102 57:-0.40523201 #
0.5 5:0.107688 6:-0.35563499 10:0.87449098 12:-0.66384602 15:-0.21397699 25:-0.259592 28:-0.18276601 34:-0.1311 38:-0.063603997 50:-0.615345 57:-0.062208999 #
-0.5 5:-0.48666501 6:-0.35563499 10:-0.40832499 12:-0.66384602 15:7.246408 25:-0.259592 28:-0.18276601 34:-0.1311 38:-0.063603997 50:-0.615345 57:-0.37826899 #
-0.5 5:0.87599701 6:-0.35563499 10:-0.40832499 12:-0.66384602 15:-0.21397699 25:-0.259592 28:-0.18276601 34:-0.1311 38:-0.063603997 50:-0.615345 57:-0.41122299 #
-0.5 5:-0.48666501 6:-0.35563499 10:-0.40832499 12:-0.66384602 15:-0.21397699 25:-0.259592 28:11.964125 34:-0.1311 38:-0.063603997 50:3.0893569 57:-0.42021099 #
0.5 5:-0.48666501 6:-0.35563499 10:-0.40832499 12:-0.66384602 15:-0.21397699 25:-0.259592 28:-0.18276601 34:-0.1311 38:-0.063603997 50:-0.615345 57:-0.44118199 #
-0.5 5:-0.48666501 6:-0.35563499 10:-0.40832499 12:1.4064341 15:-0.21397699 25:-0.259592 28:-0.18276601 34:-0.1311 38:-0.063603997 50:-0.01327 57:-0.376771 #
-0.5 5:-0.41418299 6:-0.35563499 10:-0.20740201 12:-0.66384602 15:-0.21397699 25:-0.259592 28:-0.18276601 34:-0.1311 38:-0.063603997 50:0.84614301 57:7.637085 #
0.5 5:1.62981 6:-0.35563499 10:1.199059 12:-0.12662201 15:-0.21397699 25:0.877617 28:-0.18276601 34:-0.1311 38:-0.063603997 50:1.331687 57:0.101064 #
-0.5 5:-0.48666501 6:-0.35563499 10:-0.40832499 12:-0.66384602 15:-0.21397699 25:-0.259592 28:-0.18276601 34:-0.1311 38:-0.063603997 50:1.229723 57:-0.36029401 #
-0.5 5:-0.48666501 6:-0.35563499 10:-0.40832499 12:-0.66384602 15:-0.21397699 25:-0.259592 28:-0.18276601 34:-0.1311 38:-0.063603997 50:-0.615345 57:-0.42770001 #
-0.5 5:-0.48666501 6:-0.35563499 10:-0.40832499 12:0.27957299 15:-0.21397699 25:-0.259592 28:-0.18276601 34:-0.1311 38:-0.063603997 50:1.555038 57:-0.015773 #
0.5 5:0.499091 6:-0.35563499 10:0.64265698 12:0.51542699 15:-0.21397699 25:-0.259592 28:-0.18276601 34:-0.1311 38:1.811754 50:-0.45511499 57:0.199927 #
-0.5 5:-0.48666501 6:2.1433311 10:-0.40832499 12:0.331985 15:-0.21397699 25:-0.259592 28:-0.18276601 34:-0.1311 38:-0.063603997 50:0.030429 57:-0.39474601 #
-0.5 5:0.035206001 6:-0.35563499 10:0.148077 12:-0.192137 15:-0.21397699 25:-0.259592 28:-0.18276601 34:-0.1311 38:-0.063603997 50:-0.615345 57:0.056127001 #
-0.5 5:-0.48666501 6:-0.35563499 10:5.773921 12:-0.66384602 15:-0.21397699 25:-0.259592 28:-0.18276601 34:-0.1311 38:-0.063603997 50:-0.615345 57:-0.43069601 #
0.5 5:0.83250803 6:-0.35563499 10:0.28717801 12:-0.074210003 15:-0.21397699 25:-0.259592 28:-0.18276601 34:-0.1311 38:-0.063603997 50:-0.615345 57:-0.38126501 #
-0.5 5:-0.48666501 6:0.40063101 10:-0.40832499 12:-0.061106998 15:-0.21397699 25:-0.259592 28:-0.18276601 34:-0.1311 38:-0.063603997 50:-0.615345 57:-0.13410901 #
0.5 5:-0.48666501 6:0.99249202 10:-0.40832499 12:2.0484829 15:-0.21397699 25:-0.259592 28:-0.18276601 34:-0.1311 38:-0.063603997 50:-0.615345 57:0.229885 #
-0.5 5:-0.48666501 6:-0.35563499 10:-0.40832499 12:-0.66384602 15:-0.21397699 25:-0.259592 28:-0.18276601 34:-0.1311 38:-0.063603997 50:-0.615345 57:-0.43069601 #
-0.5 5:-0.48666501 6:-0.35563499 10:1.214515 12:0.71197301 15:-0.21397699 25:-0.259592 28:-0.18276601 34:-0.1311 38:-0.063603997 50:2.6717889 57:-0.37377501 #
-0.5 5:0.38311899 6:-0.35563499 10:-0.099212997 12:-0.66384602 15:-0.21397699 25:-0.259592 28:-0.18276601 34:-0.1311 38:-0.063603997 50:-0.615345 57:-0.10415 #
-0.5 5:0.078694999 6:0.92672902 10:-0.40832499 12:-0.66384602 15:-0.21397699 25:-0.259592 28:-0.18276601 34:-0.1311 38:-0.063603997 50:-0.299741 57:-0.206009 #
0.5 5:-0.48666501 6:-0.35563499 10:5.4184418 12:-0.66384602 15:-0.21397699 25:-0.259592 28:-0.18276601 34:-0.1311 38:-0.063603997 50:-0.615345 57:-0.32734001 #
-0.5 5:-0.48666501 6:1.3870651 10:0.41082299 12:-0.66384602 15:-0.21397699 25:-0.259592 28:-0.18276601 34:-0.1311 38:-0.063603997 50:-0.124945 57:-0.36628601 #
0.5 5:0.96297598 6:-0.35563499 10:-0.40832499 12:-0.66384602 15:-0.21397699 25:-0.259592 28:-0.18276601 34:-0.1311 38:-0.063603997 50:2.341619 57:-0.39025199 #
0.5 5:-0.48666501 6:-0.35563499 10:-0.40832499 12:1.458846 15:-0.21397699 25:-0.259592 28:-0.18276601 34:-0.1311 38:-0.063603997 50:-0.615345 57:0.116044 #
0.5 5:-0.48666501 6:-0.35563499 10:2.4973309 12:1.799525 15:-0.21397699 25:-0.259592 28:-0.18276601 34:-0.1311 38:-0.063603997 50:-0.615345 57:-0.39025199 #
-0.5 5:4.6160698 6:3.4914579 10:6.855814 12:-0.66384602 15:-0.21397699 25:-0.259592 28:-0.18276601 34:-0.1311 38:-0.063603997 50:0.31690001 57:-0.42320701 #
0.5 5:-0.037276 6:-0.35563499 10:-0.17649101 12:-0.66384602 15:-0.21397699 25:0.480373 28:-0.18276601 34:-0.1311 38:-0.063603997 50:-0.18806601 57:1.245473 #
0.5 5:-0.19673701 6:-0.35563499 10:-0.40832499 12:-0.66384602 15:-0.21397699 25:-0.259592 28:-0.18276601 34:-0.1311 38:-0.063603997 50:0.37516499 57:-0.029254001 #
0.5 5:1.209414 6:-0.35563499 10:-0.40832499 12:0.096129999 15:-0.21397699 25:-0.259592 28:-0.18276601 34:-0.1311 38:-0.063603997 50:-0.615345 57:-0.315357 #
-0.5 5:-0.48666501 6:-0.35563499 10:0.0089769997 12:-0.66384602 15:-0.21397699 25:-0.259592 28:-0.18276601 34:-0.1311 38:-0.063603997 50:-0.615345 57:0.17296401 #
0.5 5:-0.48666501 6:-0.35563499 10:1.4308929 12:-0.66384602 15:-0.21397699 25:0.66731101 28:-0.18276601 34:-0.1311 38:-0.063603997 50:-0.615345 57:-0.301875 #
-0.5 5:8.5735893 6:-0.35563499 10:-0.40832499 12:-0.66384602 15:-0.21397699 25:-0.259592 28:-0.18276601 34:-0.1311 38:-0.063603997 50:-0.615345 57:-0.439684 #
-0.5 5:-0.48666501 6:-0.35563499 10:4.7383952 12:3.699466 15:-0.21397699 25:-0.259592 28:-0.18276601 34:-0.1311 38:-0.063603997 50:-0.615345 57:-0.41272101 #
-0.5 5:2.1371839 6:-0.35563499 10:-0.40832499 12:1.707804 15:-0.21397699 25:-0.259592 28:-0.18276601 34:-0.1311 38:-0.063603997 50:2.3707521 57:-0.40673 #
-0.5 5:-0.48666501 6:-0.35563499 10:-0.40832499 12:-0.66384602 15:-0.21397699 25:-0.259592 28:-0.18276601 34:-0.1311 38:-0.063603997 50:-0.615345 57:-0.36928201 #
0.5 5:-0.48666501 6:-0.35563499 10:6.1603112 12:-0.66384602 15:-0.21397699 25:-0.259592 28:-0.18276601 34:-0.1311 38:-0.063603997 50:-0.615345 57:-0.32734001 #
0.39658318253291513499902976036537 5:-0.48666501 6:-0.35563499 10:7.3194818 12:-0.66384602 15:-0.21397699 25:-0.259592 28:-0.18276601 34:-0.1311 38:-0.063603997 50:-0.615345 57:-0.32134801 #
-0.5 5:-0.48666501 6:-0.35563499 10:-0.40832499 12:-0.66384602 15:-0.21397699 25:-0.259592 28:-0.18276601 34:-0.1311 38:-0.063603997 50:-0.615345 57:-0.43069601 #
-0.5 5:6.4136238 6:-0.35563499 10:-0.40832499 12:-0.66384602 15:-0.21397699 25:-0.259592 28:-0.18276601 34:-0.1311 38:-0.063603997 50:-0.615345 57:-0.43518999 #
0.5 5:-0.48666501 6:-0.35563499 10:-0.40832499 12:2.6512229 15:-0.21397699 25:-0.259592 28:-0.18276601 34:-0.1311 38:-0.063603997 50:-0.615345 57:-0.36778399 #
-0.5 5:5.0799551 6:-0.35563499 10:-0.40832499 12:-0.66384602 15:-0.21397699 25:-0.259592 28:-0.18276601 34:-0.1311 38:-0.063603997 50:-0.615345 57:-0.43369201 #
-0.5 5:-0.38519001 6:0.006058 10:-0.361958 12:-0.57212502 15:-0.21397699 25:-0.23622499 28:-0.18276601 34:-0.1311 38:0.228118 50:-0.37257299 57:0.138512 #
-0.5 5:-0.48666501 6:-0.35563499 10:-0.40832499 12:0.22716001 15:-0.21397699 25:-0.259592 28:-0.18276601 34:-0.1311 38:-0.063603997 50:0.53539503 57:-0.39025199 #
0.5 5:0.38311899 6:-0.35563499 10:-0.40832499 12:-0.66384602 15:-0.21397699 25:-0.259592 28:-0.18276601 34:-0.1311 38:-0.063603997 50:1.385097 57:-0.056217 #
-0.5 5:-0.356197 6:-0.25699201 10:-0.331047 12:-0.048004001 15:-0.21397699 25:-0.259592 28:-0.120792 34:-0.1311 38:-0.063603997 50:0.66163599 57:4.3012242 #
0.5 5:-0.18224099 6:-0.35563499 10:-0.25376901 12:-0.25765201 15:-0.21397699 25:-0.259592 28:-0.18276601 34:-0.1311 38:0.35314199 50:0.20522501 57:0.225391 #
-0.5 5:-0.42867899 6:-0.22411001 10:-0.28468001 12:-0.12662201 15:-0.21397699 25:-0.259592 28:-0.18276601 34:-0.1311 38:0.019745 50:0.41886401 57:4.0540671 #
0.5 5:0.32513401 6:-0.35563499 10:-0.40832499 12:-0.66384602 15:-0.21397699 25:-0.259592 28:-0.18276601 34:-0.1311 38:-0.063603997 50:0.73446798 57:-0.267423 #
-0.5 5:0.62955803 6:0.893848 10:-0.40832499 12:0.85610598 15:3.649437 25:-0.259592 28:-0.18276601 34:-0.1311 38:-0.063603997 50:-0.29003 57:-0.37077901 #
0.5 5:-0.48666501 6:-0.35563499 10:-0.40832499 12:-0.66384602 15:-0.21397699 25:-0.259592 28:-0.18276601 34:-0.1311 38:-0.063603997 50:-0.615345 57:-0.429198 #
-0.5 5:12.690568 6:-0.35563499 10:-0.40832499 12:-0.66384602 15:-0.21397699 25:-0.259592 28:-0.18276601 34:-0.1311 38:-0.063603997 50:-0.615345 57:-0.44268 #
-0.5 5:-0.48666501 6:3.064003 10:0.395367 12:1.3933311 15:-0.21397699 25:-0.259592 28:-0.18276601 34:-0.1311 38:-0.063603997 50:-0.615345 57:-0.37826899 #
-0.5 5:-0.48666501 6:1.255541 10:-0.40832499 12:0.63335502 15:-0.21397699 25:-0.259592 28:-0.18276601 34:-0.1311 38:-0.063603997 50:-0.163789 57:-0.36778399 #
-0.5 5:-0.48666501 6:-0.35563499 10:3.7337799 12:0.214057 15:-0.21397699 25:-0.259592 28:-0.18276601 34:-0.1311 38:-0.063603997 50:-0.071534999 57:-0.32134801 #
-0.5 5:-0.48666501 6:-0.35563499 10:3.1001 12:-0.66384602 15:-0.21397699 25:-0.259592 28:-0.18276601 34:-0.1311 38:-0.063603997 50:-0.615345 57:-0.426202 #
-0.5 5:0.13668001 6:-0.35563499 10:-0.40832499 12:-0.66384602 15:-0.21397699 25:-0.259592 28:-0.18276601 34:-0.1311 38:-0.063603997 50:-0.231765 57:-0.364788 #
0.5 5:-0.48666501 6:-0.35563499 10:-0.40832499 12:7.276597 15:-0.21397699 25:-0.259592 28:-0.18276601 34:-0.1311 38:-0.063603997 50:-0.615345 57:-0.408227 #
0.5 5:-0.48666501 6:-0.35563499 10:0.039887998 12:0.109233 15:-0.21397699 25:-0.259592 28:-0.18276601 34:-0.1311 38:1.14496 50:0.38002101 57:0.107056 #
-0.5 5:-0.48666501 6:-0.35563499 10:-0.40832499 12:-0.66384602 15:-0.21397699 25:-0.259592 28:-0.18276601 34:-0.1311 38:-0.063603997 50:-0.615345 57:-0.43069601 #
0.5 5:1.673299 6:-0.35563499 10:-0.40832499 12:-0.66384602 15:-0.21397699 25:0.90098399 28:-0.18276601 34:-0.1311 38:-0.063603997 50:-0.615345 57:-0.42770001 #
0.5 5:0.93398303 6:-0.35563499 10:1.106325 12:0.62025201 15:-0.21397699 25:0.50374001 28:-0.18276601 34:-0.1311 38:-0.063603997 50:-0.615345 57:-0.3558 #
0.5 5:-0.037276 6:-0.35563499 10:-0.17649101 12:-0.66384602 15:-0.21397699 25:0.480373 28:-0.18276601 34:-0.1311 38:-0.063603997 50:-0.18806601 57:1.245473 #
0.5 5:-0.48666501 6:-0.35563499 10:0.25626701 12:-0.66384602 15:-0.21397699 25:-0.259592 28:-0.18276601 34:-0.1311 38:-0.063603997 50:-0.01327 57:-0.34681299 #
-0.5 5:0.96297598 6:0.104701 10:4.2283592 12:0.44991201 15:-0.21397699 25:-0.259592 28:-0.18276601 34:-0.1311 38:-0.063603997 50:-0.50852501 57:-0.192527 #
-0.5 5:0.35412601 6:-0.35563499 10:-0.40832499 12:-0.66384602 15:-0.21397699 25:-0.259592 28:-0.18276601 34:-0.1311 38:-0.063603997 50:0.185803 57:-0.27191699 #
0.5 5:-0.48666501 6:-0.35563499 10:-0.40832499 12:-0.66384602 15:-0.21397699 25:-0.259592 28:-0.18276601 34:-0.1311 38:-0.063603997 50:0.035284001 57:-0.34681299 #
-0.5 5:-0.48666501 6:-0.35563499 10:3.1773779 12:-0.66384602 15:3.649437 25:-0.259592 28:-0.18276601 34:-0.1311 38:-0.063603997 50:0.37516499 57:-0.39175001 #
-0.5 5:-0.48666501 6:-0.35563499 10:-0.40832499 12:-0.37558001 15:-0.21397699 25:-0.259592 28:-0.18276601 34:-0.1311 38:-0.063603997 50:-0.615345 57:0.226889 #
-0.5 5:-0.48666501 6:-0.35563499 10:-0.40832499 12:-0.66384602 15:-0.21397699 25:-0.259592 28:-0.18276601 34:-0.1311 38:-0.063603997 50:-0.615345 57:-0.382763 #
-0.5 5:0.209162 6:-0.35563499 10:-0.40832499 12:-0.034899998 15:-0.21397699 25:-0.259592 28:-0.18276601 34:-0.1311 38:-0.063603997 50:-0.615345 57:-0.25993401 #
-0.5 5:-0.48666501 6:-0.35563499 10:16.762863 12:-0.66384602 15:-0.21397699 25:-0.259592 28:-0.18276601 34:-0.1311 38:-0.063603997 50:-0.615345 57:-0.44118199 #
0.5 5:-0.48666501 6:-0.35563499 10:-0.40832499 12:-0.66384602 15:-0.21397699 25:-0.259592 28:-0.18276601 34:-0.1311 38:-0.063603997 50:-0.615345 57:-0.439684 #
-0.5 5:-0.48666501 6:-0.35563499 10:0.225355 12:-0.12662201 15:-0.21397699 25:-0.259592 28:-0.18276601 34:-0.1311 38:-0.063603997 50:-0.615345 57:0.086084999 #
0.5 5:-0.48666501 6:-0.35563499 10:-0.40832499 12:-0.66384602 15:-0.21397699 25:-0.259592 28:-0.18276601 34:-0.1311 38:-0.063603997 50:-0.615345 57:-0.43818599 #
-0.5 5:0.38311899 6:-0.35563499 10:3.347389 12:0.122336 15:-0.21397699 25:-0.259592 28:-0.18276601 34:-0.1311 38:-0.063603997 50:0.70047998 57:-0.143096 #
0.5 5:-0.48666501 6:-0.35563499 10:0.364456 12:0.31888199 15:-0.21397699 25:-0.259592 28:-0.18276601 34:-0.1311 38:-0.063603997 50:0.25863501 57:-0.315357 #
0.5 5:0.86150098 6:-0.35563499 10:-0.40832499 12:3.0050049 15:-0.21397699 25:-0.259592 28:-0.18276601 34:-0.1311 38:-0.063603997 50:0.180948 57:-0.244954 #
0.5 5:-0.48666501 6:-0.35563499 10:0.25626701 12:-0.66384602 15:-0.21397699 25:-0.259592 28:-0.18276601 34:-0.1311 38:-0.063603997 50:-0.01327 57:-0.34681299 #
0.5 5:-0.48666501 6:-0.35563499 10:-0.40832499 12:-0.66384602 15:-0.21397699 25:-0.259592 28:-0.18276601 34:-0.1311 38:-0.063603997 50:1.535616 57:-0.35280401 #
0.5 5:-0.48666501 6:-0.35563499 10:-0.40832499 12:-0.66384602 15:-0.21397699 25:-0.259592 28:-0.18276601 34:-0.1311 38:-0.063603997 50:0.069271997 57:-0.31385899 #
-0.5 5:-0.48666501 6:-0.35563499 10:-0.40832499 12:-0.66384602 15:-0.21397699 25:-0.259592 28:-0.18276601 34:-0.1311 38:-0.063603997 50:3.5749011 57:-0.222486 #
-0.5 5:-0.48666501 6:-0.35563499 10:-0.40832499 12:-0.048004001 15:-0.21397699 25:-0.259592 28:-0.18276601 34:-0.1311 38:-0.063603997 50:-0.45511499 57:-0.15657701 #
-0.5 5:-0.48666501 6:-0.35563499 10:4.2747259 12:-0.66384602 15:-0.21397699 25:-0.259592 28:-0.18276601 34:-0.1311 38:-0.063603997 50:-0.615345 57:-0.39025199 #
0.5 5:-0.48666501 6:-0.35563499 10:3.671957 12:1.642289 15:-0.21397699 25:-0.259592 28:-0.18276601 34:-0.1311 38:-0.063603997 50:0.506262 57:-0.050225001 #
-0.5 5:-0.48666501 6:-0.35563499 10:-0.40832499 12:-0.66384602 15:-0.21397699 25:-0.259592 28:-0.18276601 34:-0.1311 38:-0.063603997 50:-0.615345 57:-0.421709 #
0.5 5:-0.48666501 6:-0.35563499 10:-0.40832499 12:-0.66384602 15:-0.21397699 25:-0.259592 28:-0.18276601 34:-0.1311 38:-0.063603997 50:0.200369 57:-0.36628601 #
-0.5 5:-0.356197 6:-0.35563499 10:-0.40832499 12:-0.66384602 15:-0.21397699 25:-0.259592 28:-0.18276601 34:-0.1311 38:-0.063603997 50:-0.052113999 57:0.00070400001 #
-0.5 5:0.151177 6:-0.35563499 10:-0.40832499 12:-0.66384602 15:-0.21397699 25:-0.259592 28:-0.18276601 34:-0.1311 38:-0.063603997 50:-0.615345 57:0.151994 #
-0.5 5:-0.48666501 6:-0.35563499 10:-0.40832499 12:-0.27075499 15:-0.21397699 25:-0.259592 28:-0.18276601 34:-0.1311 38:-0.063603997 50:-0.33858499 57:0.092077002 #
0.5 5:-0.48666501 6:-0.35563499 10:5.4184418 12:-0.66384602 15:-0.21397699 25:-0.259592 28:-0.18276601 34:-0.1311 38:-0.063603997 50:-0.615345 57:-0.32734001 #
0.5 5:-0.48666501 6:-0.35563499 10:0.039887998 12:0.096129999 15:-0.21397699 25:-0.259592 28:-0.18276601 34:-0.1311 38:1.14496 50:0.37516499 57:0.154989 #
0.5 5:-0.48666501 6:-0.35563499 10:-0.40832499 12:0.266469 15:-0.21397699 25:-0.259592 28:-0.18276601 34:-0.1311 38:-0.063603997 50:0.67134702 57:-0.33632699 #
-0.5 5:-0.48666501 6:-0.35563499 10:0.10171 12:-0.66384602 15:-0.21397699 25:-0.259592 28:-0.18276601 34:-0.1311 38:-0.063603997 50:-0.071534999 57:-0.28240201 #
-0.5 5:-0.48666501 6:-0.35563499 10:3.2392001 12:0.35819101 15:-0.21397699 25:-0.259592 28:-0.18276601 34:-0.1311 38:-0.063603997 50:0.37031001 57:0.050135002 #
-0.5 5:-0.48666501 6:-0.35563499 10:2.064573 12:-0.66384602 15:-0.21397699 25:-0.259592 28:-0.18276601 34:-0.1311 38:-0.063603997 50:-0.615345 57:-0.400738 #
0.5 5:-0.48666501 6:-0.35563499 10:-0.40832499 12:0.62025201 15:-0.21397699 25:-0.259592 28:-0.18276601 34:-0.1311 38:-0.063603997 50:1.758966 57:-0.37527299 #
-0.5 5:-0.48666501 6:-0.35563499 10:2.3118629 12:-0.66384602 15:-0.21397699 25:-0.259592 28:-0.18276601 34:-0.1311 38:-0.063603997 50:-0.0084149996 57:-0.38875499 #
0.5 5:0.44110501 6:-0.35563499 10:-0.40832499 12:0.174748 15:-0.21397699 25:-0.259592 28:-0.18276601 34:-0.1311 38:-0.063603997 50:1.657002 57:-0.24195901 #
0.5 5:-0.48666501 6:-0.35563499 10:2.250041 12:-0.66384602 15:-0.21397699 25:-0.259592 28:-0.18276601 34:-0.1311 38:-0.063603997 50:-0.0084149996 57:-0.30786699 #
-0.5 5:-0.48666501 6:0.071819998 10:-0.40832499 12:-0.493507 15:-0.21397699 25:-0.259592 28:-0.18276601 34:-0.1311 38:-0.063603997 50:-0.31916299 57:0.113048 #
-0.5 5:-0.48666501 6:-0.35563499 10:1.7863719 12:-0.66384602 15:-0.21397699 25:-0.259592 28:-0.18276601 34:-0.1311 38:-0.063603997 50:-0.615345 57:-0.30037701 #
0.5 5:-0.48666501 6:-0.35563499 10:5.4184418 12:-0.66384602 15:-0.21397699 25:-0.259592 28:-0.18276601 34:-0.1311 38:-0.063603997 50:-0.615345 57:-0.32734001 #
0.5 5:-0.48666501 6:-0.35563499 10:-0.26922399 12:0.109233 15:-0.21397699 25:-0.259592 28:-0.18276601 34:-0.1311 38:-0.063603997 50:0.68105799 57:0.102562 #
0.5 5:-0.48666501 6:-0.35563499 10:2.5591531 12:-0.66384602 15:-0.21397699 25:-0.259592 28:-0.18276601 34:-0.1311 38:-0.063603997 50:-0.615345 57:-0.41272101 #
-0.5 5:1.368875 6:-0.35563499 10:3.5483119 12:0.174748 15:-0.21397699 25:0.23891 28:-0.18276601 34:-0.1311 38:-0.063603997 50:-0.615345 57:-0.34980899 #
0.5 5:-0.48666501 6:-0.35563499 10:2.1882181 12:-0.66384602 15:-0.21397699 25:-0.259592 28:-0.18276601 34:-0.1311 38:-0.063603997 50:-0.615345 57:-0.25693801 #
0.5 5:-0.48666501 6:-0.35563499 10:1.86365 12:-0.66384602 15:-0.21397699 25:-0.259592 28:-0.18276601 34:-0.1311 38:-0.063603997 50:-0.615345 57:-0.280904 #
-0.5 5:-0.48666501 6:-0.35563499 10:1.86365 12:-0.66384602 15:-0.21397699 25:-0.259592 28:-0.18276601 34:-0.1311 38:-0.063603997 50:-0.615345 57:-0.361792 #
0.5 5:-0.48666501 6:-0.35563499 10:-0.40832499 12:-0.66384602 15:-0.21397699 25:-0.259592 28:-0.18276601 34:-0.1311 38:-0.063603997 50:0.025573 57:-0.31385899 #
0.5 5:-0.48666501 6:-0.35563499 10:2.1418509 12:-0.66384602 15:-0.21397699 25:-0.259592 28:-0.18276601 34:-0.1311 38:-0.063603997 50:-0.615345 57:-0.165565 #
-0.5 5:-0.0082839997 6:-0.35563499 10:-0.40832499 12:-0.231446 15:-0.21397699 25:-0.0025520001 28:1.201319 34:-0.1311 38:-0.063603997 50:0.025573 57:-0.26892099 #
0.5 5:-0.48666501 6:-0.35563499 10:-0.40832499 12:-0.66384602 15:-0.21397699 25:-0.259592 28:-0.18276601 34:-0.1311 38:-0.063603997 50:0.70047998 57:-0.273415 #
0.5 5:0.77452201 6:-0.35563499 10:-0.40832499 12:-0.100416 15:-0.21397699 25:-0.259592 28:-0.18276601 34:-0.1311 38:-0.063603997 50:0.088693999 57:-0.243457 #
0.5 5:-0.48666501 6:-0.35563499 10:-0.40832499 12:-0.66384602 15:-0.21397699 25:-0.259592 28:-0.18276601 34:-0.1311 38:-0.063603997 50:0.064416997 57:-0.34681299 #
0.5 5:-0.48666501 6:-0.35563499 10:1.86365 12:-0.66384602 15:-0.21397699 25:-0.259592 28:-0.18276601 34:-0.1311 38:-0.063603997 50:-0.615345 57:-0.28389999 #
-0.5 5:-0.48666501 6:-0.35563499 10:0.719935 12:-0.66384602 15:-0.21397699 25:-0.259592 28:-0.18276601 34:-0.1311 38:-0.063603997 50:-0.615345 57:0.14600199 #
-0.5 5:-0.051773001 6:-0.35563499 10:-0.40832499 12:-0.27075499 15:-0.21397699 25:-0.259592 28:-0.18276601 34:-0.1311 38:-0.063603997 50:-0.41141599 57:-0.192527 #
0.5 5:-0.48666501 6:-0.35563499 10:2.11094 12:-0.66384602 15:-0.21397699 25:-0.259592 28:-0.18276601 34:-0.1311 38:-0.063603997 50:-0.615345 57:-0.158075 #
-0.5 5:0.38311899 6:-0.35563499 10:-0.099212997 12:-0.66384602 15:-0.21397699 25:-0.259592 28:-0.18276601 34:-0.1311 38:-0.063603997 50:-0.615345 57:-0.102652 #
-0.5 5:-0.48666501 6:-0.35563499 10:0.132622 12:-0.20524 15:-0.21397699 25:-0.259592 28:-0.18276601 34:-0.1311 38:-0.063603997 50:-0.615345 57:0.181952 #
0.5 5:-0.48666501 6:-0.35563499 10:-0.40832499 12:-0.66384602 15:-0.21397699 25:-0.259592 28:-0.18276601 34:-0.1311 38:-0.063603997 50:0.064416997 57:-0.351307 #
-0.5 5:-0.48666501 6:-0.35563499 10:-0.40832499 12:0.39750001 15:-0.21397699 25:-0.259592 28:-0.18276601 34:-0.1311 38:-0.063603997 50:-0.615345 57:-0.41721499 #
0.5 5:-0.48666501 6:-0.35563499 10:-0.40832499 12:-0.66384602 15:-0.21397699 25:-0.259592 28:-0.18276601 34:-0.1311 38:-0.063603997 50:0.059562001 57:-0.31385899 #
0.5 5:0.064198002 6:0.893848 10:-0.40832499 12:-0.66384602 15:-0.21397699 25:-0.259592 28:-0.18276601 34:-0.1311 38:-0.063603997 50:-0.615345 57:-0.288394 #
-0.5 5:-0.48666501 6:-0.35563499 10:-0.40832499 12:-0.66384602 15:-0.21397699 25:-0.111599 28:-0.18276601 34:-0.1311 38:-0.063603997 50:-0.615345 57:0.36020401 #
0.5 5:-0.48666501 6:-0.35563499 10:-0.40832499 12:-0.66384602 15:-0.21397699 25:-0.259592 28:-0.18276601 34:-0.1311 38:-0.063603997 50:0.069271997 57:-0.31385899 #
0.5 5:-0.48666501 6:-0.35563499 10:-0.40832499 12:-0.66384602 15:-0.21397699 25:-0.259592 28:-0.18276601 34:-0.1311 38:-0.063603997 50:0.176092 57:-0.32734001 #
-0.5 5:0.006213 6:-0.35563499 10:-0.40832499 12:-0.218343 15:-0.21397699 25:-0.259592 28:-0.18276601 34:-0.1311 38:-0.063603997 50:-0.615345 57:-0.301875 #
-0.5 5:0.499091 6:-0.35563499 10:0.117166 12:-0.66384602 15:-0.21397699 25:0.0052370001 28:-0.18276601 34:-0.1311 38:-0.063603997 50:-0.615345 57:-0.30037701 #
0.5 5:-0.48666501 6:-0.35563499 10:0.25626701 12:-0.66384602 15:-0.21397699 25:-0.259592 28:-0.18276601 34:-0.1311 38:-0.063603997 50:-0.01327 57:-0.34681299 #
0.5 5:-0.48666501 6:-0.35563499 10:0.10171 12:-0.231446 15:-0.21397699 25:-0.259592 28:-0.18276601 34:-0.1311 38:-0.063603997 50:0.166381 57:-0.19402499 #
0.5 5:-0.48666501 6:-0.35563499 10:-0.40832499 12:-0.66384602 15:-0.21397699 25:-0.259592 28:-0.18276601 34:-0.1311 38:-0.063603997 50:0.68591398 57:-0.28389999 #
-0.5 5:-0.48666501 6:2.9653599 10:1.152692 12:-0.66384602 15:-0.21397699 25:-0.259592 28:-0.18276601 34:-0.1311 38:-0.063603997 50:-0.615345 57:-0.382763 #
-0.5 5:-0.48666501 6:-0.35563499 10:-0.40832499 12:-0.17903399 15:-0.21397699 25:-0.259592 28:-0.18276601 34:-0.1311 38:-0.063603997 50:0.020718001 57:-0.34831101 #
-0.5 5:-0.48666501 6:-0.35563499 10:-0.40832499 12:-0.66384602 15:-0.21397699 25:-0.259592 28:-0.18276601 34:-0.1311 38:-0.063603997 50:0.112971 57:-0.38875499 #
-0.5 5:0.38311899 6:-0.35563499 10:-0.40832499 12:0.122336 15:-0.21397699 25:-0.259592 28:-0.18276601 34:2.0816309 38:-0.063603997 50:-0.202632 57:-0.30636901 #
-0.5 5:-0.48666501 6:-0.35563499 10:-0.40832499 12:-0.66384602 15:-0.21397699 25:-0.259592 28:-0.18276601 34:-0.1311 38:-0.063603997 50:3.11849 57:-0.36778399 #
-0.5 5:-0.48666501 6:-0.35563499 10:0.56537902 12:-0.66384602 15:1.884256 25:-0.259592 28:-0.18276601 34:-0.1311 38:-0.063603997 50:0.37516499 57:-0.37077901 #
-0.5 5:-0.31270799 6:-0.289873 10:-0.222858 12:-0.27075499 15:-0.21397699 25:-0.259592 28:-0.18276601 34:-0.1311 38:-0.063603997 50:0.47713 57:3.2377031 #
-0.5 5:4.5000992 6:-0.35563499 10:-0.40832499 12:3.8436 15:-0.21397699 25:-0.259592 28:-0.18276601 34:-0.1311 38:-0.063603997 50:2.171679 57:-0.426202 #
-0.5 5:-0.48666501 6:-0.35563499 10:-0.40832499 12:-0.66384602 15:-0.21397699 25:-0.259592 28:-0.18276601 34:-0.1311 38:-0.063603997 50:-0.324018 57:-0.14759 #
0.5 5:-0.48666501 6:-0.35563499 10:1.86365 12:-0.66384602 15:-0.21397699 25:-0.259592 28:-0.18276601 34:-0.1311 38:-0.063603997 50:0.074128002 57:-0.029254001 #
-0.5 5:7.5588398 6:-0.35563499 10:-0.40832499 12:6.6083412 15:-0.21397699 25:-0.259592 28:-0.18276601 34:-0.1311 38:-0.063603997 50:-0.615345 57:-0.42770001 #
-0.5 5:-0.48666501 6:-0.35563499 10:2.8682649 12:2.1139979 15:-0.21397699 25:-0.259592 28:-0.18276601 34:-0.1311 38:-0.063603997 50:-0.615345 57:-0.39175001 #
-0.5 5:-0.48666501 6:1.617233 10:-0.40832499 12:-0.66384602 15:-0.21397699 25:-0.259592 28:-0.18276601 34:-0.1311 38:-0.063603997 50:-0.615345 57:-0.37077901 #
-0.5 5:-0.48666501 6:-0.35563499 10:-0.40832499 12:-0.66384602 15:-0.21397699 25:-0.259592 28:-0.18276601 34:-0.1311 38:-0.063603997 50:0.831577 57:-0.252444 #
0.5 5:1.0789469 6:-0.35563499 10:-0.40832499 12:-0.42799199 15:0.38551801 25:-0.259592 28:-0.18276601 34:-0.1311 38:-0.063603997 50:0.248924 57:-0.30636901 #
-0.5 5:-0.48666501 6:-0.35563499 10:1.693639 12:-0.66384602 15:-0.21397699 25:-0.259592 28:-0.18276601 34:-0.1311 38:-0.063603997 50:-0.615345 57:-0.322846 #
-0.5 5:2.96348 6:-0.35563499 10:-0.40832499 12:-0.66384602 15:-0.21397699 25:-0.259592 28:-0.18276601 34:-0.1311 38:-0.063603997 50:-0.615345 57:-0.41571701 #
-0.5 5:2.4271131 6:-0.35563499 10:-0.40832499 12:-0.66384602 15:-0.21397699 25:-0.259592 28:-0.18276601 34:-0.1311 38:-0.063603997 50:-0.615345 57:-0.19851901 #
-0.5 5:-0.48666501 6:-0.35563499 10:-0.40832499 12:-0.66384602 15:-0.21397699 25:-0.259592 28:-0.18276601 34:-0.1311 38:-0.063603997 50:1.054927 57:-0.385759 #
0.5 5:-0.48666501 6:3.2612901 10:-0.40832499 12:-0.192137 15:-0.21397699 25:-0.259592 28:-0.18276601 34:-0.1311 38:-0.063603997 50:-0.018126 57:-0.17904601 #
-0.5 5:-0.48666501 6:4.3134861 10:-0.40832499 12:-0.66384602 15:-0.21397699 25:-0.259592 28:-0.18276601 34:-0.1311 38:-0.063603997 50:0.68105799 57:-0.418713 #
-0.5 5:-0.48666501 6:3.590101 10:-0.40832499 12:-0.66384602 15:-0.21397699 25:-0.259592 28:-0.18276601 34:-0.1311 38:-0.063603997 50:-0.615345 57:-0.424705 #
0.5 5:-0.48666501 6:-0.35563499 10:-0.40832499 12:-0.66384602 15:-0.21397699 25:-0.259592 28:-0.18276601 34:-0.1311 38:-0.063603997 50:0.34117699 57:-0.403734 #
-0.5 5:-0.48666501 6:-0.35563499 10:-0.40832499 12:-0.66384602 15:-0.21397699 25:-0.259592 28:-0.18276601 34:-0.1311 38:-0.063603997 50:3.074791 57:0.66128498 #
-0.5 5:-0.48666501 6:-0.35563499 10:2.450964 12:1.760216 15:-0.21397699 25:-0.259592 28:-0.18276601 34:-0.1311 38:-0.063603997 50:-0.615345 57:-0.41571701 #
0.5 5:-0.48666501 6:-0.35563499 10:-0.40832499 12:-0.66384602 15:-0.21397699 25:-0.259592 28:-0.18276601 34:-0.1311 38:-0.063603997 50:0.39458701 57:-0.35280401 #
-0.5 5:-0.48666501 6:-0.35563499 10:0.25626701 12:-0.66384602 15:-0.21397699 25:-0.259592 28:-0.18276601 34:-0.1311 38:-0.063603997 50:0.39458701 57:1.525583 #
0.5 5:1.383371 6:-0.35563499 10:-0.40832499 12:-0.66384602 15:-0.21397699 25:-0.259592 28:-0.18276601 34:-0.1311 38:-0.063603997 50:0.47227401 57:-0.340821 #
0.5 5:-0.48666501 6:-0.35563499 10:-0.40832499 12:-0.66384602 15:-0.21397699 25:-0.259592 28:-0.18276601 34:-0.1311 38:-0.063603997 50:2.9242721 57:-0.40972501 #
-0.5 5:-0.48666501 6:-0.35563499 10:2.620976 12:-0.66384602 15:-0.21397699 25:-0.259592 28:3.8661981 34:-0.1311 38:-0.063603997 50:1.195735 57:-0.40523201 #
-0.5 5:2.96348 6:-0.35563499 10:-0.40832499 12:-0.66384602 15:-0.21397699 25:-0.259592 28:-0.18276601 34:-0.1311 38:-0.063603997 50:-0.615345 57:-0.421709 #
0.35016424650103006310786213362007 5:0.23815501 6:-0.35563499 10:-0.40832499 12:-0.231446 15:1.451288 25:-0.259592 28:-0.18276601 34:-0.1311 38:-0.063603997 50:-0.615345 57:-0.054719001 #
-0.5 5:-0.48666501 6:-0.35563499 10:1.72455 12:-0.66384602 15:-0.21397699 25:-0.259592 28:-0.18276601 34:-0.1311 38:-0.063603997 50:-0.615345 57:-0.385759 #
0.5 5:0.13668001 6:-0.35563499 10:1.616361 12:0.476118 15:-0.21397699 25:-0.259592 28:-0.18276601 34:-0.1311 38:-0.063603997 50:0.36059901 57:-0.105648 #
-0.5 5:-0.48666501 6:-0.35563499 10:3.347389 12:2.5201931 15:-0.21397699 25:-0.259592 28:-0.18276601 34:-0.1311 38:-0.063603997 50:-0.615345 57:-0.364788 #
-0.5 5:-0.25472301 6:0.170463 10:0.086254999 12:-0.66384602 15:0.85179198 25:-0.259592 28:1.139345 34:-0.1311 38:-0.063603997 50:5.7404289 57:0.71221501 #
-0.5 5:-0.48666501 6:-0.35563499 10:-0.40832499 12:-0.66384602 15:-0.21397699 25:-0.259592 28:-0.18276601 34:-0.1311 38:-0.063603997 50:0.53053898 57:-0.340821 #
-0.5 5:3.6448109 6:-0.35563499 10:-0.40832499 12:-0.66384602 15:-0.21397699 25:-0.259592 28:-0.18276601 34:-0.1311 38:-0.063603997 50:-0.615345 57:-0.38725701 #
0.5 5:0.035206001 6:-0.35563499 10:-0.40832499 12:0.292676 15:-0.21397699 25:-0.259592 28:-0.18276601 34:-0.1311 38:-0.063603997 50:-0.615345 57:0.089080997 #
0.5 5:-0.48666501 6:-0.35563499 10:0.0089769997 12:-0.31006399 15:-0.21397699 25:-0.259592 28:-0.18276601 34:-0.1311 38:-0.063603997 50:0.49655101 57:0.421619 #
0.5 5:-0.48666501 6:-0.35563499 10:0.99813598 12:-0.66384602 15:-0.21397699 25:-0.259592 28:-0.18276601 34:-0.1311 38:-0.063603997 50:0.61793703 57:-0.203013 #
-0.5 5:-0.41418299 6:-0.191229 10:-0.40832499 12:-0.493507 15:-0.21397699 25:0.098706 28:-0.18276601 34:-0.1311 38:-0.063603997 50:0.151815 57:2.1891611 #
0.5 5:-0.48666501 6:3.2612901 10:-0.40832499 12:-0.192137 15:-0.21397699 25:-0.259592 28:-0.18276601 34:-0.1311 38:-0.063603997 50:-0.042403001 57:-0.17904601 #
-0.5 5:-0.48666501 6:-0.35563499 10:1.569994 12:-0.66384602 15:-0.21397699 25:-0.259592 28:-0.18276601 34:-0.1311 38:-0.063603997 50:-0.615345 57:-0.39175001 #
-0.5 5:-0.48666501 6:3.031122 10:-0.40832499 12:-0.66384602 15:-0.21397699 25:-0.259592 28:-0.18276601 34:-0.1311 38:-0.063603997 50:0.083838999 57:-0.34831101 #
0.5 5:-0.48666501 6:-0.35563499 10:1.059958 12:-0.048004001 15:-0.21397699 25:-0.259592 28:-0.18276601 34:-0.1311 38:-0.063603997 50:-0.018126 57:0.333242 #
0.5 5:0.310637 6:-0.35563499 10:0.44173399 12:-0.66384602 15:-0.21397699 25:-0.259592 28:-0.18276601 34:-0.1311 38:-0.063603997 50:-0.14436699 57:-0.226979 #
0.5 5:1.136932 6:-0.35563499 10:-0.40832499 12:-0.66384602 15:0.38551801 25:-0.259592 28:-0.18276601 34:-0.1311 38:-0.063603997 50:0.30233401 57:-0.33932301 #
-0.5 5:-0.48666501 6:-0.35563499 10:1.508171 12:-0.66384602 15:-0.21397699 25:-0.259592 28:-0.18276601 34:-0.1311 38:-0.063603997 50:1.249145 57:-0.00379 #
0.5 5:0.57157302 6:-0.35563499 10:-0.40832499 12:-0.192137 15:-0.21397699 25:-0.259592 28:-0.18276601 34:-0.1311 38:-0.063603997 50:-0.037547 57:-0.128117 #
-0.5 5:-0.48666501 6:-0.35563499 10:-0.40832499 12:-0.66384602 15:-0.21397699 25:-0.259592 28:-0.18276601 34:-0.1311 38:-0.063603997 50:0.098405004 57:-0.34231901 #
-0.5 5:2.470602 6:-0.35563499 10:-0.40832499 12:0.67266399 15:-0.21397699 25:-0.259592 28:-0.18276601 34:-0.1311 38:-0.063603997 50:-0.615345 57:-0.40972501 #
0.5 5:-0.48666501 6:-0.35563499 10:-0.40832499 12:-0.66384602 15:-0.21397699 25:-0.259592 28:-0.18276601 34:-0.1311 38:-0.063603997 50:0.73446798 57:-0.267423 #
-0.5 5:-0.48666501 6:-0.35563499 10:-0.40832499 12:1.471949 15:-0.21397699 25:-0.259592 28:-0.18276601 34:-0.1311 38:-0.063603997 50:-0.615345 57:-0.40223601 #
-0.5 5:-0.48666501 6:-0.35563499 10:1.569994 12:-0.66384602 15:-0.21397699 25:-0.259592 28:-0.18276601 34:-0.1311 38:-0.063603997 50:-0.615345 57:-0.38426101 #
-0.5 5:3.1374359 6:-0.35563499 10:-0.40832499 12:-0.66384602 15:-0.21397699 25:-0.259592 28:-0.18276601 34:-0.1311 38:-0.063603997 50:-0.076390997 57:-0.403734 #
0.5 5:0.194666 6:-0.35563499 10:-0.40832499 12:-0.66384602 15:-0.21397699 25:-0.259592 28:-0.18276601 34:-0.1311 38:-0.063603997 50:-0.34344 57:0.093575001 #
-0.5 5:-0.48666501 6:-0.35563499 10:1.72455 12:-0.66384602 15:-0.21397699 25:-0.259592 28:-0.18276601 34:-0.1311 38:-0.063603997 50:-0.615345 57:-0.408227 #
-0.5 5:1.0499541 6:-0.35563499 10:-0.40832499 12:2.1139979 15:-0.21397699 25:-0.259592 28:-0.18276601 34:-0.1311 38:-0.063603997 50:-0.615345 57:-0.40523201 #
0.5 5:0.91948599 6:-0.35563499 10:-0.40832499 12:-0.66384602 15:-0.21397699 25:-0.259592 28:-0.18276601 34:-0.1311 38:-0.063603997 50:-0.615345 57:-0.270419 #
0.5 5:-0.48666501 6:-0.35563499 10:-0.40832499 12:-0.66384602 15:-0.21397699 25:-0.259592 28:-0.18276601 34:-0.1311 38:-0.063603997 50:0.85585397 57:-0.38426101 #
-0.5 5:-0.48666501 6:1.617233 10:0.51901197 12:0.122336 15:-0.21397699 25:-0.259592 28:-0.18276601 34:-0.1311 38:-0.063603997 50:-0.615345 57:-0.31985 #
0.5 5:-0.124255 6:0.46639299 10:-0.40832499 12:2.297441 15:-0.21397699 25:-0.259592 28:-0.18276601 34:-0.1311 38:-0.063603997 50:-0.45026001 57:-0.098159 #
-0.5 5:-0.18224099 6:-0.35563499 10:-0.40832499 12:-0.66384602 15:-0.21397699 25:-0.259592 28:-0.18276601 34:-0.1311 38:-0.063603997 50:-0.615345 57:-0.29288799 #
0.5 5:-0.48666501 6:-0.35563499 10:-0.40832499 12:-0.66384602 15:-0.21397699 25:-0.259592 28:-0.18276601 34:-0.1311 38:-0.063603997 50:0.414009 57:-0.34531501 #
-0.5 5:-0.48666501 6:-0.35563499 10:-0.28468001 12:-0.44109499 15:-0.21397699 25:0.083127998 28:-0.18276601 34:-0.1311 38:-0.063603997 50:0.21008 57:2.5741251 #
0.5 5:-0.48666501 6:-0.35563499 10:0.50355601 12:0.109233 15:-0.21397699 25:-0.259592 28:-0.18276601 34:-0.1311 38:-0.063603997 50:0.63250399 57:-0.071195997 #
-0.5 5:-0.48666501 6:-0.35563499 10:-0.40832499 12:1.026446 15:-0.21397699 25:-0.259592 28:-0.18276601 34:-0.1311 38:-0.063603997 50:-0.105524 57:-0.39923999 #
0.5 5:-0.48666501 6:-0.35563499 10:-0.40832499 12:-0.66384602 15:-0.21397699 25:-0.259592 28:-0.18276601 34:-0.1311 38:-0.063603997 50:0.39458701 57:-0.32584199 #
0.5 5:-0.095261998 6:0.53215599 10:0.87449098 12:0.056821 15:-0.21397699 25:-0.259592 28:-0.18276601 34:-0.1311 38:-0.063603997 50:0.73932302 57:0.066611998 #
-0.5 5:-0.48666501 6:-0.35563499 10:-0.40832499 12:0.069923997 15:-0.21397699 25:-0.259592 28:-0.18276601 34:-0.1311 38:-0.063603997 50:-0.134656 57:-0.400738 #
0.5 5:-0.48666501 6:-0.35563499 10:0.45719001 12:0.069923997 15:-0.21397699 25:-0.259592 28:-0.18276601 34:-0.1311 38:-0.063603997 50:-0.042403001 57:0.38716701 #
-0.5 5:-0.48666501 6:10.955476 10:-0.40832499 12:-0.66384602 15:-0.21397699 25:-0.259592 28:-0.18276601 34:-0.1311 38:-0.063603997 50:1.909485 57:-0.43369201 #
0.5 5:-0.48666501 6:-0.35563499 10:-0.40832499 12:-0.66384602 15:-0.21397699 25:-0.259592 28:-0.18276601 34:-0.1311 38:-0.063603997 50:0.35574299 57:0.25085601 #
-0.5 5:2.7315371 6:-0.35563499 10:-0.40832499 12:-0.66384602 15:-0.21397699 25:-0.259592 28:-0.18276601 34:-0.1311 38:-0.063603997 50:-0.17835499 57:-0.38725701 #
0.5 5:-0.48666501 6:-0.35563499 10:0.10171 12:0.214057 15:-0.21397699 25:-0.259592 28:-0.18276601 34:-0.1311 38:-0.063603997 50:0.74417901 57:-0.11164 #
-0.5 5:1.0499541 6:-0.35563499 10:1.22997 12:0.72507602 15:-0.21397699 25:-0.259592 28:-0.18276601 34:-0.1311 38:-0.063603997 50:-0.615345 57:-0.40673 #
0.5 5:-0.48666501 6:-0.35563499 10:-0.40832499 12:-0.66384602 15:-0.21397699 25:-0.259592 28:-0.18276601 34:-0.1311 38:-0.063603997 50:0.41886401 57:-0.340821 #
0.5 5:-0.48666501 6:-0.35563499 10:1.307248 12:-0.66384602 15:-0.21397699 25:-0.259592 28:-0.18276601 34:-0.1311 38:-0.063603997 50:0.36545399 57:-0.38426101 #
-0.5 5:-0.48666501 6:-0.35563499 10:1.492716 12:-0.66384602 15:-0.21397699 25:-0.259592 28:-0.18276601 34:-0.1311 38:-0.063603997 50:3.1233449 57:-0.379767 #
-0.5 5:-0.48666501 6:-0.35563499 10:1.554538 12:1.00024 15:-0.21397699 25:-0.259592 28:-0.18276601 34:-0.1311 38:-0.063603997 50:-0.076390997 57:-0.376771 #
-0.5 5:-0.48666501 6:-0.35563499 10:1.399982 12:2.4153681 15:-0.21397699 25:-0.259592 28:-0.18276601 34:-0.1311 38:-0.063603997 50:1.13747 57:-0.38725701 #
-0.5 5:-0.48666501 6:-0.35563499 10:-0.40832499 12:-0.66384602 15:-0.21397699 25:-0.259592 28:-0.18276601 34:-0.1311 38:-0.063603997 50:-0.615345 57:0.047139 #
-0.5 5:1.731285 6:-0.35563499 10:0.37991101 12:0.0044089998 15:-0.21397699 25:-0.259592 28:-0.18276601 34:-0.1311 38:-0.063603997 50:-0.231765 57:-0.33183399 #
-0.5 5:-0.48666501 6:-0.35563499 10:-0.20740201 12:0.20095401 15:-0.21397699 25:-0.158334 28:-0.18276601 34:-0.1311 38:-0.063603997 50:-0.41141599 57:1.293406 #
0.5 5:-0.48666501 6:-0.35563499 10:-0.40832499 12:-0.66384602 15:-0.21397699 25:-0.259592 28:-0.18276601 34:-0.1311 38:-0.063603997 50:0.32661101 57:-0.334829 #
-0.5 5:-0.48666501 6:-0.35563499 10:1.384526 12:-0.66384602 15:-0.21397699 25:-0.259592 28:-0.18276601 34:-0.1311 38:-0.063603997 50:-0.615345 57:-0.41421899 #
0.5 5:-0.48666501 6:-0.35563499 10:0.364456 12:-0.0086939996 15:-0.21397699 25:-0.259592 28:-0.18276601 34:-0.1311 38:-0.063603997 50:0.68105799 57:-0.19851901 #
-0.5 5:-0.48666501 6:-0.35563499 10:1.523627 12:0.97403401 15:-0.21397699 25:-0.259592 28:-0.18276601 34:-0.1311 38:-0.063603997 50:0.57909399 57:-0.42320701 #
0.5 5:-0.48666501 6:-0.35563499 10:-0.40832499 12:-0.66384602 15:-0.21397699 25:-0.259592 28:-0.18276601 34:-0.1311 38:-0.063603997 50:0.239213 57:-0.322846 #
-0.5 5:-0.48666501 6:-0.35563499 10:-0.40832499 12:-0.66384602 15:-0.21397699 25:-0.259592 28:-0.18276601 34:-0.1311 38:-0.063603997 50:-0.615345 57:-0.23896299 #
0.5 5:-0.48666501 6:-0.35563499 10:2.7137091 12:1.314713 15:-0.21397699 25:-0.259592 28:-0.18276601 34:-0.1311 38:-0.063603997 50:-0.183211 57:-0.107146 #
-0.5 5:-0.48666501 6:-0.35563499 10:1.214515 12:-0.66384602 15:-0.21397699 25:-0.259592 28:-0.18276601 34:-0.1311 38:-0.063603997 50:-0.615345 57:-0.25843599 #
0.5 5:-0.48666501 6:-0.35563499 10:-0.40832499 12:-0.66384602 15:-0.21397699 25:-0.259592 28:-0.18276601 34:-0.1311 38:-0.063603997 50:0.389732 57:-0.32584199 #
-0.5 5:-0.48666501 6:-0.35563499 10:-0.40832499 12:-0.66384602 15:-0.21397699 25:-0.259592 28:-0.18276601 34:-0.1311 38:-0.063603997 50:-0.615345 57:-0.26592499 #
0.5 5:-0.48666501 6:-0.35563499 10:1.2608809 12:-0.66384602 15:-0.21397699 25:-0.259592 28:-0.18276601 34:-0.1311 38:-0.063603997 50:-0.615345 57:-0.29588401 #
-0.5 5:1.035458 6:-0.35563499 10:-0.40832499 12:-0.66384602 15:-0.21397699 25:-0.259592 28:-0.18276601 34:-0.1311 38:-0.063603997 50:-0.265753 57:-0.361792 #
-0.5 5:0.48459399 6:-0.35563499 10:-0.40832499 12:-0.66384602 15:-0.21397699 25:-0.259592 28:-0.18276601 34:-0.1311 38:-0.063603997 50:0.79273301 57:-0.309365 #
-0.5 5:-0.48666501 6:-0.35563499 10:-0.40832499 12:-0.66384602 15:-0.21397699 25:-0.259592 28:-0.18276601 34:-0.1311 38:-0.063603997 50:-0.615345 57:0.033658002 #
-0.5 5:-0.48666501 6:-0.35563499 10:-0.40832499 12:1.026446 15:-0.21397699 25:-0.259592 28:-0.18276601 34:-0.1311 38:-0.063603997 50:-0.615345 57:-0.19402499 #
-0.5 5:-0.48666501 6:-0.35563499 10:1.09087 12:-0.66384602 15:-0.21397699 25:-0.259592 28:-0.18276601 34:-0.1311 38:-0.063603997 50:-0.615345 57:-0.426202 #
0.5 5:-0.48666501 6:-0.35563499 10:0.0089769997 12:-0.31006399 15:-0.21397699 25:-0.259592 28:-0.18276601 34:-0.1311 38:-0.063603997 50:0.47713 57:0.421619 #
0.5 5:-0.48666501 6:-0.35563499 10:-0.40832499 12:-0.66384602 15:-0.21397699 25:-0.259592 28:-0.18276601 34:-0.1311 38:-0.063603997 50:0.21008 57:-0.204511 #
-0.5 5:0.36862299 6:-0.35563499 10:-0.40832499 12:0.109233 15:-0.21397699 25:-0.259592 28:-0.18276601 34:-0.1311 38:-0.063603997 50:-0.105524 57:-0.38126501 #
0.5 5:-0.48666501 6:-0.35563499 10:-0.40832499 12:-0.66384602 15:-0.21397699 25:-0.259592 28:-0.18276601 34:-0.1311 38:-0.063603997 50:0.20522501 57:-0.316854 #
0.5 5:-0.48666501 6:-0.35563499 10:-0.40832499 12:-0.66384602 15:-0.21397699 25:-0.259592 28:-0.18276601 34:-0.1311 38:-0.063603997 50:0.414009 57:-0.32134801 #
-0.5 5:-0.48666501 6:-0.35563499 10:0.64265698 12:-0.66384602 15:-0.21397699 25:-0.259592 28:-0.18276601 34:-0.1311 38:-0.063603997 50:-0.615345 57:-0.34831101 #
-0.5 5:-0.48666501 6:-0.35563499 10:-0.40832499 12:-0.66384602 15:-0.21397699 25:-0.259592 28:-0.18276601 34:-0.1311 38:-0.063603997 50:-0.615345 57:-0.267423 #
0.5 5:-0.48666501 6:-0.35563499 10:-0.40832499 12:-0.66384602 15:-0.21397699 25:-0.259592 28:-0.18276601 34:-0.1311 38:-0.063603997 50:0.389732 57:-0.32584199 #
-0.5 5:-0.48666501 6:-0.35563499 10:-0.40832499 12:-0.66384602 15:-0.21397699 25:-0.259592 28:-0.18276601 34:-0.1311 38:-0.063603997 50:-0.615345 57:-0.243457 #
0.5 5:-0.48666501 6:-0.35563499 10:-0.40832499 12:-0.66384602 15:-0.21397699 25:-0.259592 28:-0.18276601 34:-0.1311 38:-0.063603997 50:0.36059901 57:-0.232971 #
0.5 5:-0.48666501 6:-0.35563499 10:-0.40832499 12:-0.66384602 15:-0.21397699 25:-0.259592 28:-0.18276601 34:-0.1311 38:-0.063603997 50:0.31204399 57:-0.32584199 #
0.5 5:-0.48666501 6:-0.35563499 10:-0.40832499 12:-0.66384602 15:-0.21397699 25:-0.259592 28:-0.18276601 34:-0.1311 38:-0.063603997 50:0.29747799 57:-0.32734001 #
0.5 5:-0.48666501 6:-0.35563499 10:-0.40832499 12:-0.66384602 15:-0.21397699 25:-0.259592 28:-0.18276601 34:-0.1311 38:-0.063603997 50:0.239213 57:-0.229975 #
0.5 5:-0.48666501 6:-0.35563499 10:-0.40832499 12:-0.66384602 15:-0.21397699 25:-0.259592 28:-0.18276601 34:-0.1311 38:-0.063603997 50:0.28776699 57:-0.31835201 #
0.5 5:0.54258001 6:-0.35563499 10:0.68902397 12:-0.66384602 15:-0.21397699 25:-0.259592 28:-0.18276601 34:-0.1311 38:-0.063603997 50:-0.615345 57:-0.119129 #
0.5 5:-0.48666501 6:-0.35563499 10:-0.40832499 12:-0.66384602 15:-0.21397699 25:-0.259592 28:-0.18276601 34:-0.1311 38:-0.063603997 50:0.26834601 57:-0.32734001 #
0.5 5:-0.48666501 6:-0.35563499 10:-0.40832499 12:-0.66384602 15:-0.21397699 25:-0.259592 28:-0.18276601 34:-0.1311 38:-0.063603997 50:0.244068 57:-0.316854 #
-0.5 5:-0.48666501 6:-0.35563499 10:-0.40832499 12:-0.66384602 15:-0.21397699 25:-0.259592 28:-0.18276601 34:-0.1311 38:-0.063603997 50:0.132393 57:-0.418713 #
0.5 5:-0.48666501 6:-0.35563499 10:-0.021934999 12:0.64645803 15:-0.21397699 25:-0.259592 28:-0.18276601 34:-0.1311 38:-0.063603997 50:0.26348999 57:-0.03974 #
-0.5 5:-0.48666501 6:-0.35563499 10:-0.40832499 12:0.84300297 15:-0.21397699 25:-0.259592 28:-0.18276601 34:-0.1311 38:-0.063603997 50:-0.615345 57:-0.38426101 #
-0.5 5:-0.066269003 6:-0.35563499 10:-0.40832499 12:-0.283858 15:0.41882399 25:0.192176 28:-0.18276601 34:-0.1311 38:-0.063603997 50:0.127538 57:0.58339399 #
-0.5 5:-0.48666501 6:-0.35563499 10:-0.40832499 12:-0.66384602 15:-0.21397699 25:-0.259592 28:-0.18276601 34:-0.1311 38:-0.063603997 50:-0.324018 57:-0.143096 #
0.5 5:-0.48666501 6:-0.35563499 10:-0.40832499 12:-0.66384602 15:-0.21397699 25:-0.259592 28:-0.18276601 34:-0.1311 38:-0.063603997 50:0.239213 57:-0.322846 #
-0.5 5:-0.48666501 6:-0.35563499 10:-0.40832499 12:-0.66384602 15:-0.21397699 25:-0.259592 28:-0.18276601 34:-0.1311 38:-0.063603997 50:-0.377428 57:0.036653999 #
-0.5 5:-0.48666501 6:-0.35563499 10:1.0754139 12:-0.66384602 15:-0.21397699 25:-0.259592 28:-0.18276601 34:-0.1311 38:-0.063603997 50:0.97238499 57:-0.379767 #
0.5 5:-0.48666501 6:-0.35563499 10:0.62720102 12:-0.66384602 15:-0.21397699 25:-0.259592 28:-0.18276601 34:4.8475451 38:-0.063603997 50:-0.615345 57:-0.246452 #
-0.5 5:0.296141 6:-0.35563499 10:-0.40832499 12:0.043717999 15:-0.21397699 25:-0.259592 28:-0.18276601 34:-0.1311 38:-0.063603997 50:-0.615345 57:-0.41122299 #
-0.5 5:0.47009799 6:-0.35563499 10:-0.40832499 12:0.20095401 15:-0.21397699 25:-0.259592 28:-0.18276601 34:-0.1311 38:-0.063603997 50:-0.38713899 57:-0.084677003 #
0.5 5:-0.48666501 6:-0.35563499 10:-0.40832499 12:-0.66384602 15:-0.21397699 25:-0.259592 28:-0.18276601 34:-0.1311 38:-0.063603997 50:1.904629 57:-0.31835201 #
-0.5 5:-0.48666501 6:-0.35563499 10:-0.40832499 12:-0.074210003 15:-0.21397699 25:-0.259592 28:-0.18276601 34:-0.1311 38:-0.063603997 50:0.447997 57:-0.37077901 #
0.5 5:-0.48666501 6:2.044688 10:-0.40832499 12:-0.66384602 15:-0.21397699 25:-0.259592 28:-0.18276601 34:-0.1311 38:-0.063603997 50:-0.615345 57:-0.36628601 #
0.5 5:0.035206001 6:0.82808602 10:-0.40832499 12:-0.192137 15:-0.21397699 25:-0.259592 28:-0.18276601 34:-0.1311 38:-0.063603997 50:0.28776699 57:0.005198 #
-0.5 5:-0.48666501 6:-0.35563499 10:-0.40832499 12:0.59404498 15:-0.21397699 25:-0.259592 28:-0.18276601 34:-0.1311 38:-0.063603997 50:-0.615345 57:-0.397742 #
0.5 5:-0.48666501 6:-0.35563499 10:-0.40832499 12:0.82990003 15:-0.21397699 25:-0.259592 28:-0.18276601 34:-0.1311 38:-0.063603997 50:-0.615345 57:-0.418713 #
0.5 5:0.296141 6:-0.35563499 10:0.426278 12:-0.66384602 15:-0.21397699 25:-0.259592 28:-0.18276601 34:-0.1311 38:-0.063603997 50:-0.149222 57:-0.249448 #
0.5 5:0.45560101 6:0.69656098 10:-0.40832499 12:1.039549 15:-0.21397699 25:-0.259592 28:-0.18276601 34:-0.1311 38:-0.063603997 50:-0.367717 57:-0.093664996 #
0.5 5:-0.48666501 6:-0.35563499 10:-0.40832499 12:2.5595019 15:-0.21397699 25:-0.259592 28:-0.18276601 34:-0.1311 38:-0.063603997 50:-0.615345 57:-0.28539801 #
-0.5 5:-0.48666501 6:-0.35563499 10:0.148077 12:-0.66384602 15:-0.21397699 25:-0.259592 28:-0.18276601 34:-0.1311 38:-0.063603997 50:-0.615345 57:0.093575001 #
-0.5 5:-0.48666501 6:-0.35563499 10:-0.40832499 12:-0.66384602 15:-0.21397699 25:-0.259592 28:-0.18276601 34:-0.1311 38:-0.063603997 50:-0.615345 57:-0.43069601 #
-0.5 5:-0.48666501 6:1.6501141 10:-0.40832499 12:0.13543899 15:-0.21397699 25:-0.259592 28:-0.18276601 34:-0.1311 38:-0.063603997 50:-0.615345 57:-0.39175001 #
0.5 5:-0.48666501 6:-0.35563499 10:1.539083 12:-0.66384602 15:-0.21397699 25:-0.259592 28:-0.18276601 34:-0.1311 38:-0.063603997 50:-0.615345 57:0.089080997 #
0.5 5:-0.48666501 6:-0.35563499 10:0.070799001 12:-0.25765201 15:-0.21397699 25:-0.259592 28:-0.18276601 34:-0.1311 38:-0.063603997 50:3.026237 57:0.186446 #
0.5 5:-0.48666501 6:-0.35563499 10:-0.40832499 12:-0.66384602 15:-0.21397699 25:-0.259592 28:4.6098852 34:-0.1311 38:-0.063603997 50:1.234578 57:-0.35280401 #
-0.5 5:2.659055 6:-0.35563499 10:-0.40832499 12:-0.66384602 15:-0.21397699 25:-0.259592 28:-0.18276601 34:-0.1311 38:-0.063603997 50:1.166602 57:-0.43219399 #
-0.5 5:-0.48666501 6:-0.35563499 10:-0.40832499 12:-0.66384602 15:-0.21397699 25:-0.259592 28:-0.18276601 34:-0.1311 38:-0.063603997 50:-0.615345 57:-0.42770001 #
-0.5 5:-0.48666501 6:-0.35563499 10:-0.40832499 12:-0.66384602 15:-0.21397699 25:-0.259592 28:-0.18276601 34:-0.1311 38:-0.063603997 50:0.108116 57:-0.358796 #
-0.5 5:0.70204002 6:-0.35563499 10:0.85903502 12:-0.66384602 15:-0.21397699 25:-0.259592 28:-0.18276601 34:-0.1311 38:-0.063603997 50:0.84614301 57:-0.37377501 #
0.5 5:-0.48666501 6:-0.35563499 10:-0.40832499 12:0.030615 15:-0.21397699 25:-0.259592 28:-0.18276601 34:-0.1311 38:-0.063603997 50:-0.192921 57:-0.006786 #
0.5 5:0.093190998 6:0.95960999 10:-0.40832499 12:-0.66384602 15:-0.21397699 25:-0.259592 28:-0.18276601 34:-0.1311 38:-0.063603997 50:-0.615345 57:-0.298879 #
-0.5 5:-0.48666501 6:-0.35563499 10:-0.40832499 12:-0.66384602 15:-0.21397699 25:-0.259592 28:-0.18276601 34:-0.1311 38:-0.063603997 50:0.36545399 57:-0.32134801 #
-0.5 5:-0.48666501 6:-0.35563499 10:0.68902397 12:1.209888 15:-0.21397699 25:-0.259592 28:-0.18276601 34:-0.1311 38:-0.063603997 50:-0.615345 57:-0.39624399 #
-0.5 5:0.96297598 6:0.46639299 10:-0.40832499 12:-0.33627 15:-0.21397699 25:-0.259592 28:-0.18276601 34:-0.1311 38:-0.063603997 50:-0.615345 57:-0.267423 #
0.46491724499194159170301077210752 5:-0.48666501 6:-0.35563499 10:-0.40832499 12:-0.66384602 15:-0.21397699 25:-0.259592 28:17.02533 34:-0.1311 38:-0.063603997 50:9.1586599 57:-0.38126501 #
-0.5 5:-0.48666501 6:-0.35563499 10:-0.40832499 12:-0.66384602 15:-0.21397699 25:-0.259592 28:-0.18276601 34:-0.1311 38:-0.063603997 50:5.9055138 57:0.030662 #
-0.5 5:-0.48666501 6:-0.35563499 10:-0.40832499 12:-0.66384602 15:-0.21397699 25:-0.259592 28:-0.18276601 34:-0.1311 38:-0.063603997 50:2.613524 57:-0.34831101 #
-0.5 5:-0.48666501 6:-0.191229 10:-0.40832499 12:-0.46730101 15:-0.21397699 25:0.35574701 28:-0.18276601 34:-0.1311 38:-0.063603997 50:0.36545399 57:1.5076081 #
-0.5 5:-0.48666501 6:-0.35563499 10:-0.40832499 12:0.75128198 15:-0.21397699 25:-0.259592 28:-0.18276601 34:-0.1311 38:-0.063603997 50:0.26348999 57:-0.36928201 #
-0.5 5:-0.48666501 6:2.077569 10:-0.40832499 12:0.30577901 15:-0.21397699 25:-0.259592 28:-0.18276601 34:-0.1311 38:-0.063603997 50:-0.615345 57:-0.39324799 #
0.5 5:-0.48666501 6:-0.35563499 10:-0.40832499 12:1.9305561 15:-0.21397699 25:-0.259592 28:-0.18276601 34:-0.1311 38:-0.063603997 50:0.33146599 57:-0.023263 #
0.5 5:-0.48666501 6:-0.35563499 10:0.395367 12:2.0615859 15:-0.21397699 25:-0.259592 28:-0.18276601 34:-0.1311 38:-0.063603997 50:-0.26089799 57:-0.28989199 #
0.5 5:-0.48666501 6:3.8202691 10:-0.40832499 12:-0.66384602 15:-0.21397699 25:-0.259592 28:-0.18276601 34:-0.1311 38:-0.063603997 50:-0.615345 57:-0.340821 #
-0.5 5:-0.48666501 6:-0.35563499 10:1.059958 12:-0.66384602 15:-0.21397699 25:-0.259592 28:-0.18276601 34:-0.1311 38:-0.063603997 50:0.219791 57:-0.408227 #
-0.5 5:-0.48666501 6:-0.15834799 10:-0.40832499 12:-0.42799199 15:-0.21397699 25:0.62836599 28:-0.18276601 34:-0.1311 38:-0.063603997 50:0.457708 57:1.570521 #
0.5 5:0.78901899 6:-0.35563499 10:-0.40832499 12:-0.087312996 15:-0.21397699 25:0.083127998 28:-0.18276601 34:-0.1311 38:-0.063603997 50:-0.265753 57:-0.35729799 #
0.5 5:0.45560101 6:-0.35563499 10:-0.40832499 12:0.187851 15:1.9508671 25:-0.259592 28:-0.18276601 34:-0.1311 38:-0.063603997 50:-0.615345 57:-0.337825 #
-0.5 5:0.28164399 6:-0.35563499 10:1.2454261 12:-0.66384602 15:-0.21397699 25:-0.259592 28:-0.18276601 34:-0.1311 38:-0.063603997 50:0.81215501 57:-0.343817 #
-0.5 5:2.3546309 6:-0.35563499 10:-0.40832499 12:-0.66384602 15:-0.21397699 25:-0.259592 28:-0.18276601 34:-0.1311 38:-0.063603997 50:2.6183791 57:-0.41571701 #
-0.5 5:-0.48666501 6:-0.35563499 10:-0.40832499 12:0.89541501 15:-0.21397699 25:-0.259592 28:-0.18276601 34:-0.1311 38:-0.063603997 50:-0.615345 57:-0.38725701 #
-0.5 5:1.1514291 6:-0.35563499 10:0.75084603 12:0.81679702 15:-0.21397699 25:-0.259592 28:-0.18276601 34:-0.1311 38:-0.063603997 50:-0.615345 57:-0.379767 #
0.5 5:-0.48666501 6:-0.35563499 10:-0.40832499 12:-0.66384602 15:-0.21397699 25:-0.259592 28:-0.18276601 34:-0.1311 38:-0.063603997 50:1.093771 57:-0.39025199 #
-0.5 5:-0.48666501 6:-0.35563499 10:-0.40832499 12:-0.66384602 15:-0.21397699 25:-0.259592 28:-0.18276601 34:-0.1311 38:-0.063603997 50:0.62279302 57:-0.39175001 #
0.5 5:0.064198002 6:0.46639299 10:-0.40832499 12:-0.50660998 15:-0.21397699 25:-0.259592 28:-0.18276601 34:-0.1311 38:-0.063603997 50:-0.401705 57:-0.168561 #
0.5 5:-0.48666501 6:-0.35563499 10:-0.40832499 12:-0.66384602 15:-0.21397699 25:-0.259592 28:-0.18276601 34:-0.1311 38:-0.063603997 50:-0.615345 57:-0.43369201 #
0.5 5:-0.48666501 6:-0.35563499 10:-0.40832499 12:-0.66384602 15:-0.21397699 25:-0.259592 28:-0.18276601 34:-0.1311 38:-0.063603997 50:-0.615345 57:-0.43069601 #
-0.5 5:0.89049399 6:1.189778 10:-0.40832499 12:-0.048004001 15:-0.21397699 25:-0.259592 28:-0.18276601 34:-0.1311 38:3.895484 50:-0.26089799 57:-0.297382 #
0.5 5:0.33963001 6:-0.35563499 10:0.47264501 12:0.083026998 15:-0.21397699 25:0.184387 28:-0.18276601 34:-0.1311 38:-0.063603997 50:-0.615345 57:-0.0052880002 #
0.5 5:-0.066269003 6:-0.35563499 10:-0.40832499 12:0.50232399 15:-0.21397699 25:-0.259592 28:-0.18276601 34:-0.1311 38:-0.063603997 50:-0.29003 57:-0.00379 #
0.5 5:-0.051773001 6:0.630799 10:-0.40832499 12:0.51542699 15:-0.21397699 25:-0.259592 28:-0.18276601 34:-0.1311 38:-0.063603997 50:-0.38228399 57:-0.023263 #
-0.5 5:-0.48666501 6:-0.35563499 10:-0.40832499 12:0.266469 15:-0.21397699 25:-0.259592 28:-0.18276601 34:-0.1311 38:-0.063603997 50:-0.027836001 57:-0.397742 #
-0.5 5:-0.48666501 6:-0.35563499 10:-0.40832499 12:3.0181079 15:-0.21397699 25:-0.259592 28:-0.18276601 34:-0.1311 38:-0.063603997 50:0.180948 57:-0.24046101 #
0.5 5:0.81801099 6:-0.35563499 10:0.98268002 12:-0.66384602 15:-0.21397699 25:-0.259592 28:-0.18276601 34:-0.1311 38:-0.063603997 50:0.933541 57:-0.28539801 #
0.5 5:-0.48666501 6:-0.35563499 10:-0.40832499 12:0.94782799 15:-0.21397699 25:-0.259592 28:-0.18276601 34:-0.1311 38:-0.063603997 50:-0.615345 57:-0.41571701 #
-0.5 5:-0.48666501 6:0.40063101 10:-0.052846 12:0.882312 15:-0.21397699 25:-0.259592 28:-0.18276601 34:-0.1311 38:-0.063603997 50:-0.615345 57:-0.122125 #
0.5 5:-0.48666501 6:-0.35563499 10:-0.40832499 12:0.161645 15:1.884256 25:-0.259592 28:-0.18276601 34:-0.1311 38:-0.063603997 50:-0.615345 57:-0.25544 #
-0.5 5:0.513587 6:-0.35563499 10:-0.40832499 12:1.1443731 15:-0.21397699 25:-0.080443002 28:-0.18276601 34:-0.1311 38:-0.063603997 50:-0.29488599 57:-0.31086299 #
0.5 5:-0.138751 6:0.433512 10:-0.40832499 12:2.271235 15:-0.21397699 25:-0.259592 28:-0.18276601 34:-0.1311 38:-0.063603997 50:-0.44540399 57:-0.102652 #
0.5 5:0.48459399 6:-0.35563499 10:-0.40832499 12:-0.66384602 15:-0.21397699 25:-0.259592 28:-0.18276601 34:-0.1311 38:-0.063603997 50:-0.615345 57:-0.30487099 #
0.5 5:-0.48666501 6:-0.35563499 10:-0.40832499 12:1.6684951 15:-0.21397699 25:-0.259592 28:-0.18276601 34:-0.1311 38:-0.063603997 50:-0.615345 57:-0.31835201 #
0.5 5:-0.28371501 6:0.104701 10:-0.40832499 12:-0.100416 15:-0.21397699 25:-0.259592 28:-0.18276601 34:-0.1311 38:-0.063603997 50:-0.615345 57:-0.206009 #
0.5 5:0.064198002 6:0.893848 10:-0.40832499 12:-0.165931 15:-0.21397699 25:-0.259592 28:-0.18276601 34:-0.1311 38:-0.063603997 50:0.33632201 57:-0.036743999 #
-0.5 5:-0.39968699 6:-0.25699201 10:-0.40832499 12:-0.545919 15:-0.21397699 25:0.83088201 28:-0.18276601 34:-0.1311 38:0.061420001 50:0.525684 57:3.5822239 #
0.5 5:0.165673 6:-0.35563499 10:-0.40832499 12:-0.074210003 15:-0.21397699 25:-0.259592 28:-0.18276601 34:-0.1311 38:-0.063603997 50:-0.615345 57:-0.144594 #
-0.5 5:0.499091 6:-0.35563499 10:-0.40832499 12:-0.66384602 15:-0.21397699 25:-0.259592 28:-0.18276601 34:-0.1311 38:-0.063603997 50:0.224647 57:-0.32434401 #
0.5 5:-0.48666501 6:-0.35563499 10:-0.40832499 12:-0.66384602 15:-0.21397699 25:-0.259592 28:-0.18276601 34:-0.1311 38:-0.063603997 50:-0.615345 57:-0.343817 #
0.5 5:0.122184 6:-0.35563499 10:0.905402 12:-0.113519 15:-0.21397699 25:-0.259592 28:-0.18276601 34:-0.1311 38:1.68673 50:0.457708 57:0.38417101 #
0.5 5:-0.48666501 6:-0.35563499 10:-0.40832499 12:-0.66384602 15:-0.21397699 25:-0.259592 28:-0.18276601 34:-0.1311 38:-0.063603997 50:-0.615345 57:-0.429198 #
-0.5 5:0.006213 6:-0.35563499 10:0.658113 12:-0.362477 15:-0.21397699 25:-0.259592 28:-0.18276601 34:-0.1311 38:-0.063603997 50:0.127538 57:0.30328301 #
0.5 5:0.67304701 6:-0.35563499 10:-0.40832499 12:1.43264 15:-0.21397699 25:-0.259592 28:-0.18276601 34:-0.1311 38:-0.063603997 50:0.71504599 57:-0.28389999 #
-0.5 5:0.745529 6:-0.35563499 10:-0.40832499 12:-0.29696101 15:-0.21397699 25:-0.259592 28:-0.18276601 34:-0.1311 38:-0.063603997 50:-0.615345 57:-0.027756 #
0.5 5:0.499091 6:-0.35563499 10:0.64265698 12:2.0222771 15:-0.21397699 25:-0.259592 28:-0.18276601 34:-0.1311 38:-0.063603997 50:-0.615345 57:-0.31086299 #
0.5 5:-0.48666501 6:-0.35563499 10:-0.40832499 12:1.052652 15:-0.21397699 25:-0.259592 28:-0.18276601 34:-0.1311 38:-0.063603997 50:-0.615345 57:-0.364788 #
-0.5 5:0.412112 6:-0.026823999 10:-0.40832499 12:0.0044089998 15:-0.21397699 25:-0.259592 28:-0.18276601 34:-0.1311 38:-0.063603997 50:-0.022980999 57:0.19243699 #
-0.5 5:0.716537 6:0.170463 10:-0.40832499 12:-0.0086939996 15:-0.21397699 25:-0.259592 28:-0.18276601 34:-0.1311 38:-0.063603997 50:-0.333729 57:-0.24195901 #
0.5 5:-0.48666501 6:-0.35563499 10:1.86365 12:1.262301 15:-0.21397699 25:-0.259592 28:-0.18276601 34:-0.1311 38:-0.063603997 50:-0.615345 57:-0.418713 #
0.5 5:0.22365899 6:-0.35563499 10:-0.40832499 12:0.62025201 15:-0.21397699 25:-0.259592 28:-0.18276601 34:-0.1311 38:-0.063603997 50:0.63735902 57:-0.24195901 #
-0.5 5:1.194918 6:-0.35563499 10:-0.40832499 12:0.85610598 15:-0.21397699 25:-0.259592 28:-0.18276601 34:-0.1311 38:-0.063603997 50:1.171458 57:-0.36778399 #
0.5 5:-0.48666501 6:-0.35563499 10:-0.40832499 12:0.148542 15:1.850951 25:-0.259592 28:-0.18276601 34:-0.1311 38:-0.063603997 50:-0.39684999 57:-0.243457 #
-0.5 5:0.078694999 6:-0.35563499 10:0.194444 12:-0.66384602 15:-0.21397699 25:-0.259592 28:-0.18276601 34:-0.1311 38:-0.063603997 50:0.093549997 57:-0.38126501 #
-0.5 5:-0.48666501 6:0.46639299 10:-0.222858 12:-0.66384602 15:-0.21397699 25:-0.259592 28:-0.18276601 34:-0.1311 38:-0.063603997 50:-0.52309197 57:-0.13410901 #
-0.5 5:-0.48666501 6:-0.35563499 10:-0.40832499 12:-0.66384602 15:-0.21397699 25:-0.259592 28:-0.18276601 34:-0.1311 38:-0.063603997 50:-0.615345 57:-0.31385899 #
0.5 5:-0.48666501 6:-0.35563499 10:-0.40832499 12:0.69887 15:-0.21397699 25:-0.259592 28:-0.18276601 34:-0.1311 38:-0.063603997 50:0.57909399 57:-0.225482 #
-0.5 5:-0.48666501 6:-0.35563499 10:-0.40832499 12:-0.66384602 15:-0.21397699 25:-0.259592 28:-0.18276601 34:-0.1311 38:-0.063603997 50:0.22950201 57:-0.41122299 #
0.5 5:0.97747201 6:-0.35563499 10:-0.40832499 12:-0.66384602 15:-0.21397699 25:-0.259592 28:-0.18276601 34:-0.1311 38:-0.063603997 50:-0.18806601 57:-0.122125 #
0.5 5:-0.48666501 6:-0.35563499 10:-0.40832499 12:1.078858 15:-0.21397699 25:-0.259592 28:-0.18276601 34:-0.1311 38:-0.063603997 50:-0.615345 57:-0.37826899 #
-0.5 5:0.847004 6:-0.35563499 10:-0.40832499 12:0.54163301 15:-0.21397699 25:-0.259592 28:-0.18276601 34:-0.1311 38:-0.063603997 50:-0.615345 57:-0.39474601 #
-0.5 5:0.73103303 6:-0.35563499 10:-0.40832499 12:1.537464 15:-0.21397699 25:-0.259592 28:-0.18276601 34:-0.1311 38:-0.063603997 50:0.43828601 57:-0.35280401 #
-0.5 5:-0.48666501 6:-0.35563499 10:-0.40832499 12:1.288507 15:-0.21397699 25:-0.259592 28:-0.18276601 34:-0.1311 38:-0.063603997 50:0.54025 57:-0.36928201 #
0.01969366539092676227085121354321 5:0.45560101 6:-0.35563499 10:0.59628999 12:0.476118 15:-0.21397699 25:-0.259592 28:-0.18276601 34:-0.1311 38:1.728404 50:-0.45997101 57:0.306279 #
-0.5 5:-0.48666501 6:-0.35563499 10:-0.40832499 12:-0.139725 15:-0.21397699 25:0.13765199 28:-0.18276601 34:-0.1311 38:-0.063603997 50:0.132393 57:0.315267 #
0.5 5:-0.48666501 6:-0.35563499 10:-0.40832499 12:0.790591 15:-0.21397699 25:-0.259592 28:-0.18276601 34:-0.1311 38:-0.063603997 50:0.054706 57:-0.36329001 #
-0.5 5:0.54258001 6:-0.35563499 10:-0.40832499 12:-0.66384602 15:-0.21397699 25:-0.259592 28:-0.18276601 34:-0.1311 38:-0.063603997 50:-0.34829599 57:-0.23746499 #
0.5 5:-0.48666501 6:1.617233 10:-0.40832499 12:1.720907 15:-0.21397699 25:-0.259592 28:-0.18276601 34:-0.1311 38:-0.063603997 50:0.078983001 57:-0.15058599 #
-0.5 5:-0.48666501 6:-0.35563499 10:-0.40832499 12:0.94782799 15:-0.21397699 25:-0.259592 28:-0.18276601 34:-0.1311 38:-0.063603997 50:-0.139512 57:-0.33932301 #
-0.5 5:0.76002598 6:-0.35563499 10:-0.40832499 12:-0.66384602 15:-0.21397699 25:-0.259592 28:-0.18276601 34:-0.1311 38:-0.063603997 50:0.122682 57:-0.397742 #
0.5 5:-0.48666501 6:-0.35563499 10:-0.40832499 12:0.52853 15:-0.21397699 25:-0.259592 28:-0.18276601 34:-0.1311 38:-0.063603997 50:0.117827 57:-0.36329001 #
-0.5 5:-0.48666501 6:-0.35563499 10:-0.40832499 12:1.969865 15:-0.21397699 25:-0.259592 28:-0.18276601 34:-0.1311 38:-0.063603997 50:-0.615345 57:-0.379767 #
0.5 5:-0.48666501 6:-0.35563499 10:-0.40832499 12:-0.66384602 15:-0.21397699 25:-0.259592 28:-0.18276601 34:-0.1311 38:-0.063603997 50:-0.615345 57:-0.43369201 #
-0.5 5:0.26714799 6:-0.35563499 10:-0.40832499 12:-0.66384602 15:-0.21397699 25:-0.259592 28:-0.18276601 34:-0.1311 38:-0.063603997 50:-0.066679999 57:-0.191029 #
-0.5 5:0.42660901 6:-0.35563499 10:-0.40832499 12:-0.66384602 15:-0.21397699 25:-0.259592 28:-0.18276601 34:-0.1311 38:-0.063603997 50:0.064416997 57:-0.25094599 #
-0.5 5:-0.48666501 6:-0.35563499 10:0.48810101 12:2.3891621 15:-0.21397699 25:-0.259592 28:-0.18276601 34:-0.1311 38:-0.063603997 50:0.33146599 57:-0.382763 #
0.5 5:-0.48666501 6:-0.35563499 10:-0.40832499 12:0.51542699 15:-0.21397699 25:-0.259592 28:-0.18276601 34:-0.1311 38:-0.063603997 50:0.093549997 57:-0.33183399 #
0.5 5:1.397868 6:-0.35563499 10:-0.40832499 12:1.039549 15:-0.21397699 25:-0.259592 28:-0.18276601 34:-0.1311 38:-0.063603997 50:-0.615345 57:-0.36778399 #
-0.5 5:0.70204002 6:-0.35563499 10:-0.40832499 12:0.41060299 15:-0.21397699 25:-0.259592 28:-0.18276601 34:-0.1311 38:-0.063603997 50:-0.615345 57:-0.38126501 #
0.5 5:-0.48666501 6:-0.35563499 10:-0.40832499 12:-0.034899998 15:-0.21397699 25:-0.259592 28:-0.18276601 34:-0.1311 38:-0.063603997 50:-0.197777 57:-0.38725701 #
-0.5 5:-0.240226 6:-0.35563499 10:-0.40832499 12:-0.218343 15:-0.21397699 25:-0.259592 28:-0.18276601 34:-0.1311 38:-0.063603997 50:-0.30459699 57:-0.105648 #
0.5 5:0.77452201 6:-0.35563499 10:-0.40832499 12:1.616083 15:-0.21397699 25:-0.259592 28:-0.18276601 34:-0.1311 38:-0.063603997 50:-0.615345 57:-0.37527299 #
-0.5 5:0.209162 6:-0.35563499 10:-0.40832499 12:-0.66384602 15:-0.21397699 25:-0.259592 28:-0.18276601 34:-0.1311 38:-0.063603997 50:0.112971 57:-0.19702099 #
0.5 5:-0.48666501 6:-0.35563499 10:-0.40832499 12:-0.66384602 15:-0.21397699 25:-0.259592 28:-0.18276601 34:-0.1311 38:-0.063603997 50:-0.615345 57:-0.429198 #
0.5 5:-0.48666501 6:0.82808602 10:0.148077 12:0.292676 15:-0.21397699 25:-0.259592 28:-0.18276601 34:-0.1311 38:-0.063603997 50:0.27320099 57:-0.048726998 #
0.5 5:0.60056502 6:-0.35563499 10:-0.40832499 12:-0.46730101 15:-0.21397699 25:-0.259592 28:-0.18276601 34:-0.1311 38:-0.063603997 50:0.088693999 57:-0.13261101 #
0.5 5:-0.48666501 6:-0.35563499 10:-0.40832499 12:0.44991201 15:-0.21397699 25:-0.259592 28:-0.18276601 34:-0.1311 38:-0.063603997 50:0.093549997 57:-0.21949001 #
-0.5 5:0.44110501 6:-0.35563499 10:-0.40832499 12:0.174748 15:-0.21397699 25:-0.259592 28:-0.18276601 34:-0.1311 38:-0.063603997 50:-0.615345 57:-0.30337301 #
-0.5 5:0.22365899 6:-0.35563499 10:-0.40832499 12:0.63335502 15:-0.21397699 25:-0.259592 28:-0.18276601 34:-0.1311 38:-0.063603997 50:-0.615345 57:-0.36778399 #
0.5 5:-0.109759 6:-0.35563499 10:-0.40832499 12:0.72507602 15:0.65196103 25:-0.259592 28:-0.18276601 34:-0.1311 38:-0.063603997 50:0.83643198 57:-0.162569 #
-0.5 5:-0.48666501 6:-0.35563499 10:-0.40832499 12:1.288507 15:-0.21397699 25:-0.259592 28:-0.18276601 34:-0.1311 38:-0.063603997 50:-0.615345 57:-0.400738 #
0.5 5:-0.48666501 6:-0.35563499 10:-0.40832499 12:-0.66384602 15:-0.21397699 25:-0.259592 28:-0.18276601 34:-0.1311 38:-0.063603997 50:-0.615345 57:-0.42770001 #
-0.5 5:-0.26921901 6:-0.35563499 10:-0.40832499 12:1.1443731 15:-0.21397699 25:-0.259592 28:-0.18276601 34:-0.1311 38:-0.063603997 50:-0.163789 57:0.044144001 #
0.5 5:0.67304701 6:-0.35563499 10:-0.0064790002 12:0.030615 15:-0.21397699 25:-0.057076 28:-0.18276601 34:-0.1311 38:-0.063603997 50:-0.615345 57:-0.19851901 #
-0.5 5:-0.48666501 6:-0.35563499 10:-0.40832499 12:1.8650399 15:-0.21397699 25:-0.259592 28:-0.18276601 34:-0.1311 38:-0.063603997 50:-0.50366998 57:-0.170059 #
-0.5 5:0.33963001 6:-0.35563499 10:-0.40832499 12:-0.29696101 15:-0.21397699 25:-0.259592 28:-0.18276601 34:-0.1311 38:-0.063603997 50:0.132393 57:-0.36329001 #
0.5 5:-0.48666501 6:-0.35563499 10:-0.40832499 12:0.292676 15:-0.21397699 25:-0.259592 28:-0.18276601 34:-0.1311 38:-0.063603997 50:-0.615345 57:-0.37227699 #
0.5 5:-0.48666501 6:-0.35563499 10:-0.40832499 12:0.27957299 15:-0.21397699 25:-0.259592 28:-0.18276601 34:-0.1311 38:-0.063603997 50:-0.0035590001 57:-0.25993401 #
0.5 5:-0.48666501 6:-0.35563499 10:-0.40832499 12:0.083026998 15:-0.21397699 25:-0.259592 28:-0.18276601 34:-0.1311 38:-0.063603997 50:-0.134656 57:-0.33932301 #
0.5 5:-0.48666501 6:-0.35563499 10:-0.40832499 12:-0.12662201 15:-0.21397699 25:-0.259592 28:-0.18276601 34:-0.1311 38:-0.063603997 50:0.030429 57:-0.228477 #
0.5 5:-0.48666501 6:-0.35563499 10:-0.40832499 12:0.44991201 15:-0.21397699 25:-0.259592 28:-0.18276601 34:-0.1311 38:-0.063603997 50:-0.217199 57:-0.00379 #
-0.5 5:0.54258001 6:-0.35563499 10:-0.40832499 12:1.209888 15:-0.21397699 25:-0.259592 28:-0.18276601 34:-0.1311 38:-0.063603997 50:-0.0084149996 57:-0.316854 #
-0.5 5:0.412112 6:-0.35563499 10:-0.40832499 12:0.97403401 15:-0.21397699 25:-0.259592 28:-0.18276601 34:-0.1311 38:-0.063603997 50:0.97238499 57:-0.35729799 #
0.5 5:-0.48666501 6:-0.35563499 10:-0.40832499 12:0.48922101 15:-0.21397699 25:-0.259592 28:-0.18276601 34:-0.1311 38:-0.063603997 50:-0.256042 57:-0.19702099 #
0.5 5:0.58606899 6:-0.35563499 10:0.44173399 12:-0.42799199 15:0.38551801 25:-0.259592 28:-0.18276601 34:-0.1311 38:-0.063603997 50:-0.333729 57:-0.13261101 #
0.5 5:-0.48666501 6:0.006058 10:0.132622 12:0.56783903 15:-0.21397699 25:-0.259592 28:-0.18276601 34:-0.1311 38:-0.063603997 50:0.51597297 57:0.31826201 #
0.5 5:0.020709001 6:0.795205 10:-0.40832499 12:0.266469 15:-0.21397699 25:-0.259592 28:-0.18276601 34:-0.1311 38:-0.063603997 50:-0.33858499 57:-0.053220998 #
0.5 5:-0.48666501 6:-0.35563499 10:-0.40832499 12:0.607149 15:-0.21397699 25:-0.259592 28:-0.18276601 34:-0.1311 38:-0.063603997 50:-0.333729 57:-0.084677003 #
0.5 5:-0.48666501 6:-0.35563499 10:-0.40832499 12:0.436809 15:-0.21397699 25:-0.259592 28:-0.18276601 34:-0.1311 38:-0.063603997 50:-0.251187 57:-0.149088 #
-0.5 5:-0.48666501 6:-0.35563499 10:-0.40832499 12:0.90851802 15:-0.21397699 25:-0.259592 28:-0.18276601 34:-0.1311 38:-0.063603997 50:-0.615345 57:-0.36778399 #
-0.5 5:0.006213 6:-0.35563499 10:-0.40832499 12:1.1312701 15:-0.21397699 25:-0.259592 28:-0.18276601 34:-0.1311 38:-0.063603997 50:0.51111799 57:-0.32883799 #
-0.5 5:-0.48666501 6:-0.35563499 10:-0.40832499 12:0.97403401 15:-0.21397699 25:-0.259592 28:-0.18276601 34:-0.1311 38:-0.063603997 50:-0.615345 57:-0.34531501 #
0.5 5:0.80351502 6:-0.35563499 10:-0.40832499 12:0.50232399 15:-0.21397699 25:-0.259592 28:-0.18276601 34:-0.1311 38:-0.063603997 50:-0.027836001 57:-0.087673001 #
0.5 5:-0.037276 6:-0.35563499 10:-0.40832499 12:0.148542 15:-0.21397699 25:-0.259592 28:-0.18276601 34:-0.1311 38:-0.063603997 50:0.088693999 57:0.033658002 #
-0.36460303526738968571407895069569 5:-0.48666501 6:-0.35563499 10:-0.40832499 12:1.707804 15:-0.21397699 25:-0.259592 28:-0.18276601 34:-0.1311 38:-0.063603997 50:0.77331102 57:-0.382763 #
0.5 5:-0.48666501 6:-0.35563499 10:-0.40832499 12:0.22716001 15:-0.21397699 25:-0.259592 28:-0.18276601 34:-0.1311 38:-0.063603997 50:-0.615345 57:-0.30037701 #
0.5 5:1.122436 6:-0.35563499 10:-0.40832499 12:-0.42799199 15:0.38551801 25:-0.259592 28:-0.18276601 34:-0.1311 38:-0.063603997 50:0.26834601 57:-0.34231901 #
0.5 5:0.165673 6:-0.35563499 10:0.28717801 12:0.51542699 15:-0.21397699 25:-0.259592 28:-0.18276601 34:-0.1311 38:-0.063603997 50:0.16152599 57:-0.168561 #
0.5 5:-0.48666501 6:-0.35563499 10:0.84358001 12:0.39750001 15:-0.21397699 25:-0.259592 28:-0.18276601 34:-0.1311 38:-0.063603997 50:-0.615345 57:-0.34980899 #
0.5 5:-0.48666501 6:0.92672902 10:-0.40832499 12:0.37129399 15:-0.21397699 25:-0.259592 28:-0.18276601 34:-0.1311 38:-0.063603997 50:-0.31916299 57:-0.33183399 #
-0.5 5:-0.48666501 6:-0.35563499 10:-0.40832499 12:2.258132 15:-0.21397699 25:-0.259592 28:-0.18276601 34:-0.1311 38:-0.063603997 50:-0.615345 57:-0.32883799 #
-0.5 5:-0.48666501 6:18.978474 10:-0.40832499 12:-0.66384602 15:-0.21397699 25:-0.259592 28:-0.18276601 34:-0.1311 38:-0.063603997 50:-0.615345 57:-0.42021099 #
-0.5 5:-0.48666501 6:-0.35563499 10:1.539083 12:0.98713702 15:-0.21397699 25:-0.259592 28:5.0437031 34:-0.1311 38:-0.063603997 50:-0.615345 57:-0.36329001 #
0.5 5:0.25265199 6:-0.35563499 10:-0.40832499 12:0.68576699 15:-0.21397699 25:-0.259592 28:-0.18276601 34:-0.1311 38:-0.063603997 50:-0.615345 57:-0.294386 #
-0.5 5:1.035458 6:-0.35563499 10:-0.40832499 12:-0.66384602 15:-0.21397699 25:-0.259592 28:-0.18276601 34:1.15966 38:-0.063603997 50:-0.38713899 57:-0.20001701 #
-0.5 5:-0.48666501 6:-0.35563499 10:-0.40832499 12:-0.66384602 15:-0.21397699 25:-0.259592 28:-0.18276601 34:-0.1311 38:-0.063603997 50:1.346254 57:-0.403734 #
-0.5 5:-0.48666501 6:-0.059705 10:-0.40832499 12:-0.545919 15:-0.21397699 25:-0.259592 28:-0.18276601 34:-0.1311 38:-0.063603997 50:-0.53280199 57:0.014185 #
-0.5 5:-0.48666501 6:-0.35563499 10:1.2608809 12:3.6077449 15:-0.21397699 25:-0.259592 28:-0.18276601 34:-0.1311 38:-0.063603997 50:-0.615345 57:-0.385759 #
-0.5 5:-0.48666501 6:-0.35563499 10:-0.40832499 12:-0.66384602 15:-0.21397699 25:-0.259592 28:-0.18276601 34:-0.1311 38:-0.063603997 50:-0.615345 57:-0.273415 #
-0.5 5:-0.48666501 6:1.51859 10:-0.40832499 12:-0.66384602 15:-0.21397699 25:-0.259592 28:-0.18276601 34:-0.1311 38:-0.063603997 50:-0.615345 57:-0.36778399 #
0.5 5:-0.022779999 6:-0.35563499 10:-0.40832499 12:0.187851 15:-0.21397699 25:-0.259592 28:-0.18276601 34:-0.1311 38:-0.063603997 50:-0.358006 57:0.023173001 #
-0.23776079585022083517920066242368 5:0.52808303 6:-0.35563499 10:-0.40832499 12:0.25336599 15:-0.21397699 25:-0.259592 28:-0.18276601 34:2.4504189 38:-0.063603997 50:-0.12980101 57:-0.340821 #
-0.5 5:-0.48666501 6:-0.35563499 10:-0.40832499 12:-0.165931 15:-0.21397699 25:-0.259592 28:-0.18276601 34:-0.1311 38:-0.063603997 50:-0.256042 57:0.18345 #
0.5 5:-0.48666501 6:-0.35563499 10:-0.40832499 12:-0.048004001 15:-0.21397699 25:-0.259592 28:-0.18276601 34:-0.1311 38:-0.063603997 50:-0.265753 57:-0.32883799 #
-0.5 5:0.035206001 6:0.82808602 10:-0.40832499 12:-0.66384602 15:-0.21397699 25:-0.259592 28:-0.18276601 34:-0.1311 38:-0.063603997 50:-0.615345 57:-0.340821 #
-0.5 5:-0.153248 6:0.40063101 10:-0.052846 12:-0.362477 15:-0.21397699 25:-0.259592 28:-0.18276601 34:-0.1311 38:-0.063603997 50:-0.615345 57:-0.225482 #
0.5 5:-0.48666501 6:-0.35563499 10:-0.40832499 12:0.083026998 15:-0.21397699 25:-0.259592 28:0.39565799 34:-0.1311 38:-0.063603997 50:-0.115234 57:-0.201515 #
0.5 5:-0.48666501 6:-0.35563499 10:-0.40832499 12:-0.12662201 15:-0.21397699 25:-0.259592 28:-0.18276601 34:-0.1311 38:-0.063603997 50:-0.285175 57:-0.273415 #
-0.5 5:-0.48666501 6:-0.35563499 10:-0.40832499 12:1.956762 15:-0.21397699 25:-0.259592 28:-0.18276601 34:-0.1311 38:-0.063603997 50:-0.615345 57:-0.364788 #
-0.5 5:-0.26921901 6:-0.35563499 10:-0.17649101 12:-0.061106998 15:-0.21397699 25:-0.259592 28:-0.18276601 34:-0.1311 38:-0.063603997 50:0.049851 57:0.28231201 #
-0.5 5:-0.48666501 6:-0.35563499 10:-0.40832499 12:-0.66384602 15:-0.21397699 25:-0.259592 28:-0.18276601 34:-0.1311 38:-0.063603997 50:0.933541 57:-0.400738 #
-0.5 5:-0.48666501 6:-0.35563499 10:-0.40832499 12:-0.66384602 15:-0.21397699 25:-0.259592 28:-0.18276601 34:-0.1311 38:-0.063603997 50:-0.615345 57:-0.40673 #
0.5 5:-0.066269003 6:0.59791797 10:-0.40832499 12:0.476118 15:-0.21397699 25:-0.259592 28:-0.18276601 34:-0.1311 38:-0.063603997 50:-0.39199501 57:-0.033748001 #
0.5 5:-0.48666501 6:-0.35563499 10:-0.40832499 12:0.22716001 15:-0.21397699 25:-0.259592 28:-0.18276601 34:-0.1311 38:-0.063603997 50:-0.615345 57:-0.30037701 #
0.5 5:-0.48666501 6:-0.35563499 10:-0.40832499 12:0.083026998 15:-0.21397699 25:-0.259592 28:-0.18276601 34:-0.1311 38:-0.063603997 50:-0.615345 57:-0.36329001 #
-0.5 5:-0.48666501 6:-0.35563499 10:-0.40832499 12:2.245029 15:-0.21397699 25:-0.259592 28:-0.18276601 34:-0.1311 38:-0.063603997 50:-0.615345 57:-0.34231901 #
0.5 5:-0.48666501 6:-0.35563499 10:-0.145579 12:0.017511999 15:-0.21397699 25:-0.259592 28:-0.18276601 34:-0.1311 38:-0.063603997 50:0.078983001 57:0.180454 #
-0.5 5:-0.48666501 6:-0.35563499 10:-0.40832499 12:-0.66384602 15:-0.21397699 25:-0.259592 28:-0.18276601 34:-0.1311 38:-0.063603997 50:-0.615345 57:-0.30786699 #
-0.5 5:-0.48666501 6:-0.35563499 10:1.168148 12:0.67266399 15:-0.21397699 25:-0.259592 28:-0.18276601 34:-0.1311 38:-0.063603997 50:0.132393 57:-0.330336 #
-0.5 5:-0.48666501 6:-0.35563499 10:-0.40832499 12:-0.66384602 15:-0.21397699 25:-0.259592 28:-0.18276601 34:-0.1311 38:-0.063603997 50:-0.615345 57:-0.30337301 #
-0.5 5:-0.022779999 6:-0.35563499 10:-0.40832499 12:-0.24454901 15:-0.21397699 25:-0.259592 28:-0.18276601 34:-0.1311 38:-0.063603997 50:-0.33858499 57:-0.32734001 #
-0.5 5:0.006213 6:0.76232398 10:-0.40832499 12:-0.66384602 15:-0.21397699 25:-0.259592 28:-0.18276601 34:-0.1311 38:-0.063603997 50:-0.45997101 57:-0.340821 #
-0.5 5:-0.153248 6:0.40063101 10:-0.40832499 12:-0.66384602 15:-0.21397699 25:-0.259592 28:-0.18276601 34:-0.1311 38:-0.063603997 50:-0.217199 57:-0.297382 #
0.5 5:-0.48666501 6:-0.35563499 10:0.163533 12:0.31888199 15:-0.21397699 25:-0.259592 28:-0.18276601 34:-0.1311 38:-0.063603997 50:-0.615345 57:0.316764 #
0.5 5:-0.48666501 6:-0.35563499 10:-0.40832499 12:-0.12662201 15:-0.21397699 25:-0.259592 28:-0.18276601 34:-0.1311 38:-0.063603997 50:-0.285175 57:-0.273415 #
-0.5 5:-0.48666501 6:-0.35563499 10:0.889947 12:0.436809 15:-0.21397699 25:-0.259592 28:-0.18276601 34:-0.1311 38:-0.063603997 50:0.035284001 57:-0.403734 #
0.5 5:-0.48666501 6:-0.35563499 10:-0.40832499 12:0.22716001 15:-0.21397699 25:-0.259592 28:-0.18276601 34:-0.1311 38:-0.063603997 50:-0.615345 57:-0.30037701 #
0.5 5:-0.48666501 6:-0.35563499 10:1.4308929 12:-0.66384602 15:-0.21397699 25:-0.259592 28:-0.18276601 34:-0.1311 38:-0.063603997 50:-0.615345 57:-0.201515 #
-0.5 5:-0.356197 6:-0.059705 10:-0.40832499 12:-0.29696101 15:-0.21397699 25:-0.259592 28:-0.18276601 34:-0.1311 38:-0.063603997 50:-0.34344 57:0.12952501 #
0.5 5:-0.48666501 6:-0.35563499 10:0.132622 12:-0.20524 15:-0.21397699 25:-0.259592 28:-0.18276601 34:-0.1311 38:-0.063603997 50:-0.052113999 57:-0.161071 #
0.5 5:0.006213 6:-0.35563499 10:-0.40832499 12:0.240263 15:-0.21397699 25:-0.259592 28:-0.18276601 34:-0.1311 38:-0.063603997 50:-0.34344 57:-0.053220998 #
0.5 5:-0.48666501 6:0.56503701 10:1.369071 12:0.46301499 15:-0.21397699 25:-0.259592 28:-0.18276601 34:-0.1311 38:-0.063603997 50:-0.615345 57:0.066611998 #
-0.5 5:-0.48666501 6:-0.35563499 10:0.48810101 12:-0.66384602 15:-0.21397699 25:-0.259592 28:-0.18276601 34:-0.1311 38:-0.063603997 50:-0.21234301 57:-0.161071 #
-0.5 5:-0.48666501 6:-0.35563499 10:-0.083756998 12:-0.66384602 15:-0.21397699 25:-0.259592 28:-0.18276601 34:-0.1311 38:-0.063603997 50:-0.333729 57:-0.15208399 #
-0.5 5:-0.095261998 6:-0.35563499 10:-0.40832499 12:-0.31006399 15:0.68526602 25:-0.049286999 28:0.93276501 34:-0.1311 38:-0.063603997 50:-0.047258001 57:-0.161071 #
-0.5 5:-0.124255 6:-0.35563499 10:-0.40832499 12:-0.0086939996 15:-0.21397699 25:-0.259592 28:-0.18276601 34:-0.1311 38:-0.063603997 50:-0.615345 57:-0.38126501 #
0.5 5:-0.48666501 6:-0.35563499 10:-0.40832499 12:-0.25765201 15:-0.21397699 25:-0.259592 28:-0.18276601 34:-0.1311 38:-0.063603997 50:-0.615345 57:-0.27940699 #
0.5 5:-0.341701 6:-0.026823999 10:-0.40832499 12:0.174748 15:-0.21397699 25:-0.259592 28:-0.18276601 34:-0.1311 38:-0.063603997 50:-0.377428 57:0.048636999 #
-0.5 5:-0.48666501 6:-0.35563499 10:-0.40832499 12:1.956762 15:-0.21397699 25:-0.259592 28:-0.18276601 34:-0.1311 38:-0.063603997 50:-0.615345 57:-0.364788 #
0.5 5:-0.341701 6:-0.191229 10:-0.40832499 12:-0.27075499 15:-0.047449999 25:-0.22064701 28:-0.18276601 34:-0.1311 38:-0.063603997 50:-0.44054899 57:0.42910799 #
-0.5 5:-0.080766 6:0.56503701 10:-0.40832499 12:-0.42799199 15:-0.21397699 25:-0.259592 28:-0.18276601 34:-0.1311 38:-0.063603997 50:-0.53280199 57:-0.252444 #
0.5 5:-0.341701 6:-0.191229 10:-0.40832499 12:-0.27075499 15:-0.047449999 25:-0.22064701 28:-0.18276601 34:-0.1311 38:-0.063603997 50:-0.39684999 57:0.436598 #
0.5 5:1.136932 6:-0.35563499 10:-0.40832499 12:-0.66384602 15:0.38551801 25:-0.259592 28:-0.18276601 34:-0.1311 38:-0.063603997 50:0.30233401 57:-0.33932301 #
-0.5 5:-0.48666501 6:-0.35563499 10:0.10171 12:-0.66384602 15:-0.21397699 25:-0.259592 28:-0.18276601 34:-0.1311 38:-0.063603997 50:-0.324018 57:-0.294386 #
0.5 5:-0.356197 6:-0.059705 10:-0.26922399 12:0.240263 15:-0.21397699 25:-0.259592 28:-0.18276601 34:-0.1311 38:-0.063603997 50:-0.285175 57:0.270329 #
-0.5 5:-0.341701 6:-0.026823999 10:-0.40832499 12:-0.38868299 15:-0.21397699 25:-0.259592 28:-0.18276601 34:-0.1311 38:-0.063603997 50:-0.53280199 57:-0.078685999 #
-0.5 5:-0.19673701 6:-0.026823999 10:-0.40832499 12:-0.53281599 15:-0.21397699 25:-0.259592 28:-0.18276601 34:-0.1311 38:-0.063603997 50:-0.34829599 57:-0.40673 #
-0.5 5:-0.138751 6:-0.35563499 10:-0.40832499 12:-0.34937301 15:-0.21397699 25:-0.259592 28:-0.18276601 34:-0.1311 38:-0.063603997 50:0.33146599 57:-0.086175002 #
0.5 5:-0.48666501 6:-0.35563499 10:0.426278 12:0.043717999 15:-0.21397699 25:-0.259592 28:-0.18276601 34:-0.1311 38:-0.063603997 50:-0.615345 57:-0.364788 #
0.5 5:-0.341701 6:-0.026823999 10:-0.40832499 12:0.148542 15:-0.21397699 25:-0.259592 28:-0.18276601 34:-0.1311 38:-0.063603997 50:-0.38228399 57:0.063616 #
-0.5 5:-0.48666501 6:-0.35563499 10:-0.40832499 12:1.956762 15:-0.21397699 25:-0.259592 28:-0.18276601 34:-0.1311 38:-0.063603997 50:-0.615345 57:-0.364788 #
-0.5 5:-0.31270799 6:0.433512 10:-0.037390001 12:-0.66384602 15:-0.21397699 25:-0.259592 28:-0.18276601 34:-0.1311 38:-0.063603997 50:-0.29003 57:-0.330336 #
-0.5 5:-0.48666501 6:-0.35563499 10:-0.40832499 12:1.170579 15:-0.21397699 25:-0.259592 28:-0.18276601 34:-0.1311 38:-0.063603997 50:-0.615345 57:-0.397742 #
0.5 5:-0.48666501 6:-0.35563499 10:0.426278 12:0.043717999 15:-0.21397699 25:-0.259592 28:-0.18276601 34:-0.1311 38:-0.063603997 50:-0.615345 57:-0.364788 #
-0.5 5:-0.48666501 6:-0.35563499 10:-0.40832499 12:0.51542699 15:-0.21397699 25:-0.259592 28:-0.18276601 34:-0.1311 38:-0.063603997 50:-0.615345 57:-0.39624399 #
-0.5 5:-0.48666501 6:-0.35563499 10:-0.40832499 12:1.956762 15:-0.21397699 25:-0.259592 28:-0.18276601 34:-0.1311 38:-0.063603997 50:-0.615345 57:-0.364788 #
-0.5 5:-0.48666501 6:-0.35563499 10:0.73539102 12:-0.66384602 15:-0.21397699 25:-0.259592 28:-0.18276601 34:-0.1311 38:-0.063603997 50:0.574238 57:-0.15058599 #
0.5 5:-0.341701 6:-0.191229 10:-0.40832499 12:-0.27075499 15:-0.047449999 25:-0.22064701 28:-0.18276601 34:-0.1311 38:-0.063603997 50:-0.44054899 57:0.42910799 #
0.5 5:-0.095261998 6:0.53215599 10:0.0089769997 12:-0.139725 15:-0.21397699 25:-0.259592 28:-0.18276601 34:-0.1311 38:-0.063603997 50:-0.086102001 57:-0.138602 #
-0.5 5:-0.48666501 6:2.2748561 10:-0.40832499 12:-0.66384602 15:-0.21397699 25:-0.259592 28:-0.18276601 34:-0.1311 38:-0.063603997 50:0.81215501 57:-0.42320701 #
0.5 5:-0.240226 6:-0.35563499 10:-0.145579 12:-0.20524 15:-0.21397699 25:-0.259592 28:-0.18276601 34:-0.1311 38:-0.063603997 50:-0.33858499 57:-0.101154 #
0.5 5:-0.138751 6:-0.35563499 10:-0.40832499 12:-0.021796999 15:-0.21397699 25:-0.259592 28:-0.18276601 34:-0.1311 38:-0.063603997 50:-0.615345 57:-0.27790901 #
-0.5 5:-0.48666501 6:-0.35563499 10:-0.40832499 12:-0.66384602 15:-0.21397699 25:-0.259592 28:-0.18276601 34:-0.1311 38:-0.063603997 50:-0.615345 57:-0.309365 #
-0.5 5:-0.48666501 6:-0.35563499 10:0.70447898 12:-0.66384602 15:-0.21397699 25:-0.259592 28:-0.18276601 34:-0.1311 38:-0.063603997 50:1.79781 57:-0.19851901 #
0.5 5:-0.0082839997 6:-0.35563499 10:-0.40832499 12:-0.231446 15:-0.21397699 25:-0.259592 28:-0.18276601 34:-0.1311 38:-0.063603997 50:-0.615345 57:-0.232971 #
-0.5 5:-0.48666501 6:-0.35563499 10:-0.40832499 12:0.37129399 15:-0.21397699 25:-0.259592 28:-0.18276601 34:-0.1311 38:-0.063603997 50:-0.615345 57:-0.212 #
-0.5 5:-0.48666501 6:-0.35563499 10:0.61174601 12:-0.66384602 15:-0.21397699 25:-0.259592 28:-0.18276601 34:-0.1311 38:-0.063603997 50:-0.081246004 57:-0.26442701 #
0.5 5:1.122436 6:-0.35563499 10:-0.40832499 12:-0.66384602 15:0.38551801 25:-0.259592 28:-0.18276601 34:-0.1311 38:-0.063603997 50:0.28776699 57:-0.334829 #
0.5 5:-0.022779999 6:-0.35563499 10:-0.40832499 12:0.174748 15:-0.21397699 25:-0.259592 28:-0.18276601 34:-0.1311 38:-0.063603997 50:-0.615345 57:-0.027756 #
0.5 5:-0.037276 6:-0.35563499 10:-0.40832499 12:0.148542 15:-0.21397699 25:-0.259592 28:-0.18276601 34:-0.1311 38:-0.063603997 50:-0.37257299 57:0.078596003 #
0.5 5:0.13668001 6:-0.35563499 10:-0.40832499 12:-0.100416 15:-0.21397699 25:-0.259592 28:-0.18276601 34:-0.1311 38:-0.063603997 50:0.098405004 57:-0.11164 #
-0.5 5:-0.211233 6:-0.35563499 10:-0.40832499 12:0.34508801 15:-0.21397699 25:-0.111599 28:0.602238 34:-0.1311 38:-0.063603997 50:-0.066679999 57:0.14749999 #
0.5 5:-0.48666501 6:-0.35563499 10:-0.40832499 12:-0.66384602 15:-0.21397699 25:-0.259592 28:-0.18276601 34:-0.1311 38:-0.063603997 50:1.205446 57:-0.246452 #
-0.5 5:-0.109759 6:0.071819998 10:-0.40832499 12:0.017511999 15:-0.21397699 25:0.044183001 28:-0.18276601 34:-0.1311 38:-0.063603997 50:-0.183211 57:0.58189601 #
0.5 5:-0.0082839997 6:-0.35563499 10:-0.40832499 12:0.20095401 15:-0.21397699 25:-0.259592 28:-0.18276601 34:-0.1311 38:-0.063603997 50:-0.358006 57:0.044144001 #
0.5 5:0.122184 6:-0.35563499 10:-0.40832499 12:-0.113519 15:-0.21397699 25:-0.259592 28:-0.18276601 34:-0.1311 38:-0.063603997 50:-0.29488599 57:-0.018769 #
0.5 5:0.44110501 6:-0.35563499 10:-0.40832499 12:0.174748 15:-0.21397699 25:-0.259592 28:-0.18276601 34:-0.1311 38:-0.063603997 50:-0.056968998 57:-0.361792 #
-0.5 5:-0.48666501 6:-0.35563499 10:-0.40832499 12:-0.66384602 15:-0.21397699 25:-0.259592 28:-0.18276601 34:-0.1311 38:-0.063603997 50:1.477351 57:-0.382763 #
0.5 5:-0.48666501 6:3.2284091 10:-0.40832499 12:-0.66384602 15:-0.21397699 25:-0.259592 28:-0.18276601 34:-0.1311 38:-0.063603997 50:1.341398 57:-0.33183399 #
-0.5 5:-0.48666501 6:0.86096698 10:-0.40832499 12:-0.66384602 15:-0.21397699 25:-0.259592 28:-0.18276601 34:-0.1311 38:-0.063603997 50:-0.29488599 57:-0.42320701 #
0.5 5:-0.48666501 6:-0.35563499 10:1.013592 12:0.54163301 15:-0.21397699 25:-0.259592 28:-0.18276601 34:0.97526598 38:-0.063603997 50:-0.12980101 57:0.009691 #
-0.5 5:-0.22573 6:-0.35563499 10:-0.40832499 12:0.043717999 15:-0.21397699 25:-0.259592 28:-0.18276601 34:-0.1311 38:-0.063603997 50:0.244068 57:-0.060711 #
0.5 5:-0.48666501 6:3.7873881 10:-0.40832499 12:0.98713702 15:-0.21397699 25:-0.259592 28:-0.18276601 34:-0.1311 38:-0.063603997 50:0.34603301 57:-0.340821 #
-0.5 5:-0.48666501 6:1.025373 10:-0.40832499 12:0.436809 15:-0.21397699 25:-0.259592 28:-0.18276601 34:-0.1311 38:-0.063603997 50:-0.615345 57:-0.045731001 #
0.5 5:-0.31270799 6:-0.35563499 10:-0.40832499 12:0.59404498 15:-0.21397699 25:-0.259592 28:0.31302601 34:-0.1311 38:0.436492 50:1.093771 57:0.312271 #
0.5 5:-0.48666501 6:1.748758 10:-0.40832499 12:-0.66384602 15:-0.21397699 25:-0.259592 28:-0.18276601 34:-0.1311 38:-0.063603997 50:0.30233401 57:-0.006786 #
0.5 5:-0.48666501 6:-0.35563499 10:-0.40832499 12:-0.66384602 15:-0.21397699 25:-0.259592 28:-0.18276601 34:-0.1311 38:-0.063603997 50:-0.615345 57:-0.42770001 #
-0.29477179694229077577816156008339 5:2.7315371 6:-0.35563499 10:-0.40832499 12:3.699466 15:-0.21397699 25:0.60499799 28:-0.18276601 34:-0.1311 38:-0.063603997 50:-0.615345 57:-0.41122299 #
0.5 5:1.368875 6:-0.35563499 10:-0.40832499 12:0.174748 15:-0.21397699 25:-0.259592 28:-0.18276601 34:-0.1311 38:-0.063603997 50:-0.615345 57:-0.26592499 #
0.5 5:-0.48666501 6:-0.35563499 10:-0.40832499 12:-0.66384602 15:-0.21397699 25:-0.259592 28:2.2961919 34:-0.1311 38:-0.063603997 50:0.83643198 57:-0.28539801 #
-0.5 5:-0.48666501 6:-0.35563499 10:-0.40832499 12:0.65956098 15:-0.21397699 25:-0.259592 28:-0.18276601 34:-0.1311 38:-0.063603997 50:-0.615345 57:-0.270419 #
0.5 5:-0.48666501 6:1.617233 10:1.461804 12:-0.66384602 15:-0.21397699 25:-0.259592 28:-0.18276601 34:-0.1311 38:-0.063603997 50:1.899774 57:-0.158075 #
0.5 5:0.23815501 6:-0.35563499 10:-0.40832499 12:0.331985 15:-0.21397699 25:-0.259592 28:-0.18276601 34:-0.1311 38:-0.063603997 50:-0.41627201 57:-0.107146 #
-0.5 5:-0.48666501 6:-0.35563499 10:-0.40832499 12:0.58094198 15:-0.21397699 25:-0.259592 28:-0.18276601 34:-0.1311 38:-0.063603997 50:-0.615345 57:-0.36928201 #
0.5 5:-0.48666501 6:2.176213 10:-0.40832499 12:0.85610598 15:-0.21397699 25:-0.259592 28:-0.18276601 34:-0.1311 38:-0.063603997 50:-0.324018 57:-0.204511 #
-0.5 5:-0.48666501 6:0.499275 10:-0.40832499 12:0.72507602 15:-0.21397699 25:-0.259592 28:-0.18276601 34:-0.1311 38:-0.063603997 50:-0.42598301 57:-0.186536 #
0.5 5:-0.48666501 6:-0.35563499 10:1.894562 12:1.288507 15:-0.21397699 25:-0.259592 28:-0.18276601 34:-0.1311 38:-0.063603997 50:-0.615345 57:-0.39175001 #
0.5 5:-0.48666501 6:1.748758 10:-0.40832499 12:-0.66384602 15:-0.21397699 25:-0.259592 28:-0.18276601 34:-0.1311 38:-0.063603997 50:0.30233401 57:-0.006786 #
0.5 5:1.3543791 6:-0.35563499 10:-0.40832499 12:0.161645 15:-0.21397699 25:-0.259592 28:-0.18276601 34:-0.1311 38:-0.063603997 50:-0.615345 57:-0.267423 #
0.5 5:-0.48666501 6:-0.35563499 10:-0.40832499 12:0.27957299 15:-0.21397699 25:-0.259592 28:0.80881703 34:-0.1311 38:-0.063603997 50:0.28291199 57:-0.083178997 #
0.5 5:-0.109759 6:-0.35563499 10:-0.40832499 12:-0.66384602 15:-0.21397699 25:-0.259592 28:-0.18276601 34:-0.1311 38:-0.063603997 50:2.73491 57:0.403644 #
0.5 5:0.397616 6:0.630799 10:0.055344 12:-0.27075499 15:-0.21397699 25:-0.259592 28:-0.18276601 34:-0.1311 38:-0.063603997 50:-0.158933 57:-0.126619 #
-0.5 5:-0.48666501 6:-0.35563499 10:-0.40832499 12:-0.66384602 15:-0.21397699 25:-0.259592 28:-0.18276601 34:-0.1311 38:-0.063603997 50:-0.615345 57:-0.33932301 #
-0.5 5:-0.48666501 6:-0.35563499 10:-0.40832499 12:-0.66384602 15:-0.21397699 25:-0.259592 28:-0.18276601 34:-0.1311 38:-0.063603997 50:0.467419 57:-0.045731001 #
-0.5 5:-0.48666501 6:-0.35563499 10:-0.40832499 12:3.9484241 15:-0.21397699 25:-0.259592 28:-0.18276601 34:-0.1311 38:-0.063603997 50:-0.615345 57:-0.36329001 #
-0.5 5:-0.48666501 6:-0.35563499 10:-0.40832499 12:-0.66384602 15:-0.21397699 25:-0.259592 28:-0.18276601 34:-0.1311 38:-0.063603997 50:-0.615345 57:-0.315357 #
-0.5 5:-0.48666501 6:-0.35563499 10:-0.40832499 12:-0.66384602 15:-0.21397699 25:-0.259592 28:-0.18276601 34:-0.1311 38:-0.063603997 50:2.647512 57:-0.382763 #
-0.5 5:-0.48666501 6:1.551471 10:-0.40832499 12:-0.66384602 15:-0.21397699 25:-0.259592 28:-0.18276601 34:-0.1311 38:-0.063603997 50:-0.090957001 57:-0.39175001 #
-0.5 5:-0.48666501 6:-0.35563499 10:0.48810101 12:-0.66384602 15:-0.21397699 25:-0.259592 28:-0.18276601 34:-0.1311 38:-0.063603997 50:3.3515511 57:-0.225482 #
-0.5 5:-0.48666501 6:-0.35563499 10:0.28717801 12:-0.66384602 15:-0.21397699 25:-0.259592 28:-0.18276601 34:-0.1311 38:-0.063603997 50:0.48684001 57:-0.0097810002 #
-0.5 5:-0.48666501 6:-0.35563499 10:-0.238313 12:-0.074210003 15:-0.21397699 25:-0.259592 28:-0.18276601 34:-0.1311 38:-0.063603997 50:0.044994999 57:0.19543301 #
-0.5 5:0.36862299 6:3.55722 10:-0.40832499 12:-0.66384602 15:-0.21397699 25:0.199965 28:-0.18276601 34:2.0447519 38:-0.063603997 50:0.899553 57:-0.32434401 #
-0.5 5:-0.48666501 6:0.72944301 10:-0.40832499 12:-0.66384602 15:-0.21397699 25:-0.259592 28:-0.18276601 34:-0.1311 38:-0.063603997 50:-0.42598301 57:-0.158075 #
0.5 5:0.209162 6:1.2226599 10:1.0754139 12:-0.66384602 15:-0.21397699 25:-0.259592 28:-0.18276601 34:-0.1311 38:-0.063603997 50:0.176092 57:-0.301875 #
-0.5 5:-0.48666501 6:-0.35563499 10:-0.40832499 12:-0.66384602 15:-0.21397699 25:-0.259592 28:-0.18276601 34:-0.1311 38:-0.063603997 50:1.229723 57:-0.376771 #
-0.5 5:-0.48666501 6:-0.35563499 10:-0.40832499 12:-0.66384602 15:-0.21397699 25:-0.259592 28:-0.18276601 34:-0.1311 38:-0.063603997 50:-0.615345 57:-0.35729799 #
0.5 5:-0.48666501 6:-0.35563499 10:-0.40832499 12:-0.66384602 15:-0.21397699 25:-0.259592 28:-0.18276601 34:-0.1311 38:-0.063603997 50:1.093771 57:-0.379767 #
0.5 5:0.44110501 6:-0.35563499 10:1.585449 12:1.878144 15:-0.21397699 25:-0.259592 28:-0.18276601 34:-0.1311 38:-0.063603997 50:-0.615345 57:-0.40673 #
0.5 5:-0.48666501 6:-0.35563499 10:-0.40832499 12:1.052652 15:-0.21397699 25:-0.259592 28:-0.18276601 34:-0.1311 38:-0.063603997 50:-0.615345 57:-0.364788 #
0.5 5:-0.109759 6:-0.35563499 10:-0.40832499 12:-0.66384602 15:-0.21397699 25:-0.259592 28:-0.18276601 34:-0.1311 38:-0.063603997 50:2.7300551 57:0.403644 #
0.5 5:-0.48666501 6:3.096884 10:0.395367 12:0.017511999 15:-0.21397699 25:-0.259592 28:-0.18276601 34:-0.1311 38:-0.063603997 50:-0.615345 57:-0.25693801 #
0.5 5:-0.48666501 6:-0.35563499 10:-0.40832499 12:-0.66384602 15:-0.21397699 25:-0.259592 28:-0.18276601 34:-0.1311 38:-0.063603997 50:1.088915 57:-0.28389999 #
-0.5 5:-0.48666501 6:-0.35563499 10:-0.40832499 12:-0.66384602 15:-0.21397699 25:-0.259592 28:-0.18276601 34:-0.1311 38:-0.063603997 50:-0.615345 57:-0.32883799 #
0.5 5:-0.48666501 6:3.3270521 10:1.322704 12:-0.66384602 15:-0.21397699 25:-0.259592 28:-0.18276601 34:-0.1311 38:-0.063603997 50:1.205446 57:-0.376771 #
0.5 5:-0.48666501 6:1.617233 10:-0.40832499 12:1.694701 15:-0.21397699 25:-0.259592 28:-0.18276601 34:-0.1311 38:-0.063603997 50:-0.158933 57:-0.143096 #
0.5 5:-0.48666501 6:-0.35563499 10:-0.40832499 12:-0.66384602 15:-0.21397699 25:-0.259592 28:-0.18276601 34:-0.1311 38:-0.063603997 50:-0.615345 57:-0.424705 #
-0.5 5:-0.48666501 6:-0.35563499 10:-0.40832499 12:-0.66384602 15:-0.21397699 25:-0.259592 28:-0.18276601 34:-0.1311 38:-0.063603997 50:-0.615345 57:-0.32734001 #
0.5 5:-0.153248 6:-0.35563499 10:-0.052846 12:1.825731 15:-0.21397699 25:-0.259592 28:-0.18276601 34:-0.1311 38:-0.063603997 50:-0.071534999 57:0.369192 #
-0.5 5:-0.48666501 6:-0.35563499 10:-0.40832499 12:-0.66384602 15:-0.21397699 25:-0.259592 28:-0.18276601 34:-0.1311 38:-0.063603997 50:-0.615345 57:-0.337825 #
-0.5 5:-0.48666501 6:-0.35563499 10:-0.40832499 12:-0.66384602 15:-0.21397699 25:-0.259592 28:-0.18276601 34:-0.1311 38:-0.063603997 50:0.248924 57:0.009691 #
-0.5 5:-0.48666501 6:-0.35563499 10:-0.40832499 12:0.85610598 15:-0.21397699 25:-0.259592 28:-0.18276601 34:-0.1311 38:-0.063603997 50:-0.615345 57:-0.273415 #
0.5 5:-0.48666501 6:-0.35563499 10:-0.40832499 12:1.052652 15:-0.21397699 25:-0.259592 28:-0.18276601 34:-0.1311 38:-0.063603997 50:-0.615345 57:-0.364788 #
-0.5 5:-0.48666501 6:-0.35563499 10:-0.40832499 12:-0.66384602 15:-0.21397699 25:-0.259592 28:-0.18276601 34:-0.1311 38:-0.063603997 50:0.46256301 57:0.026169 #
-0.5 5:-0.48666501 6:-0.35563499 10:-0.40832499 12:-0.66384602 15:-0.21397699 25:-0.259592 28:-0.18276601 34:-0.1311 38:-0.063603997 50:-0.615345 57:-0.36628601 #
-0.5 5:-0.48666501 6:-0.35563499 10:-0.40832499 12:1.170579 15:-0.21397699 25:-0.259592 28:-0.18276601 34:-0.1311 38:-0.063603997 50:0.67620301 57:0.122035 #
-0.5 5:-0.48666501 6:-0.35563499 10:-0.40832499 12:1.170579 15:-0.21397699 25:-0.259592 28:-0.18276601 34:-0.1311 38:-0.063603997 50:0.68105799 57:0.119039 #
0.5 5:-0.109759 6:-0.35563499 10:-0.40832499 12:-0.66384602 15:-0.21397699 25:-0.259592 28:-0.18276601 34:-0.1311 38:-0.063603997 50:2.5698249 57:0.403644 #
0.5 5:-0.48666501 6:-0.35563499 10:-0.40832499 12:1.052652 15:-0.21397699 25:-0.259592 28:-0.18276601 34:-0.1311 38:-0.063603997 50:-0.615345 57:-0.364788 #
0.5 5:-0.48666501 6:-0.35563499 10:-0.40832499 12:-0.66384602 15:-0.21397699 25:-0.259592 28:-0.18276601 34:-0.1311 38:-0.063603997 50:-0.615345 57:-0.40972501 #
0.5 5:-0.48666501 6:-0.35563499 10:-0.40832499 12:-0.66384602 15:-0.21397699 25:-0.259592 28:-0.18276601 34:-0.1311 38:-0.063603997 50:1.08406 57:-0.32434401 #
0.5 5:0.22365899 6:-0.35563499 10:-0.40832499 12:-0.66384602 15:-0.21397699 25:-0.259592 28:-0.18276601 34:-0.1311 38:-0.063603997 50:1.6472909 57:-0.149088 #
-0.5 5:-0.48666501 6:-0.35563499 10:-0.40832499 12:-0.100416 15:-0.21397699 25:-0.259592 28:-0.18276601 34:-0.1311 38:-0.063603997 50:-0.21234301 57:-0.123623 #
0.5 5:-0.48666501 6:-0.35563499 10:-0.40832499 12:1.052652 15:-0.21397699 25:-0.259592 28:-0.18276601 34:-0.1311 38:-0.063603997 50:-0.615345 57:-0.36329001 #
-0.5 5:-0.48666501 6:-0.35563499 10:-0.40832499 12:-0.66384602 15:-0.21397699 25:-0.259592 28:-0.18276601 34:-0.1311 38:-0.063603997 50:-0.615345 57:-0.330336 #
0.5 5:-0.48666501 6:3.3270521 10:-0.40832499 12:-0.66384602 15:-0.21397699 25:-0.259592 28:-0.18276601 34:-0.1311 38:-0.063603997 50:1.2879879 57:-0.333332 #
0.5 5:-0.48666501 6:-0.35563499 10:-0.40832499 12:-0.66384602 15:-0.21397699 25:-0.259592 28:-0.18276601 34:-0.1311 38:-0.063603997 50:-0.018126 57:-0.35280401 #
-0.5 5:-0.48666501 6:-0.35563499 10:-0.40832499 12:-0.34937301 15:-0.21397699 25:-0.259592 28:-0.18276601 34:-0.1311 38:-0.063603997 50:0.098405004 57:-0.021764999 #
-0.5 5:-0.48666501 6:-0.35563499 10:-0.40832499 12:-0.66384602 15:-0.21397699 25:-0.259592 28:-0.18276601 34:-0.1311 38:-0.063603997 50:0.49655101 57:-0.047228999 #
0.5 5:-0.48666501 6:-0.35563499 10:-0.40832499 12:-0.66384602 15:-0.21397699 25:-0.259592 28:-0.18276601 34:-0.1311 38:-0.063603997 50:-0.615345 57:-0.424705 #
0.5 5:0.55707598 6:-0.35563499 10:-0.40832499 12:-0.66384602 15:-0.21397699 25:-0.259592 28:-0.18276601 34:-0.1311 38:-0.063603997 50:1.152036 57:-0.071195997 #
-0.5 5:-0.48666501 6:-0.35563499 10:-0.40832499 12:-0.66384602 15:-0.21397699 25:-0.259592 28:-0.18276601 34:-0.1311 38:-0.063603997 50:-0.615345 57:-0.36329001 #
0.5 5:-0.48666501 6:-0.35563499 10:-0.40832499 12:-0.66384602 15:-0.21397699 25:-0.259592 28:-0.18276601 34:-0.1311 38:-0.063603997 50:-0.615345 57:-0.424705 #
-0.5 5:-0.48666501 6:-0.35563499 10:-0.40832499 12:-0.66384602 15:-0.21397699 25:-0.259592 28:-0.18276601 34:-0.1311 38:-0.063603997 50:-0.615345 57:-0.330336 #
0.5 5:-0.48666501 6:-0.35563499 10:-0.40832499 12:-0.66384602 15:-0.21397699 25:-0.259592 28:-0.18276601 34:-0.1311 38:-0.063603997 50:-0.31430799 57:-0.379767 #
-0.5 5:-0.48666501 6:-0.35563499 10:-0.40832499 12:-0.46730101 15:-0.21397699 25:-0.259592 28:-0.18276601 34:-0.1311 38:-0.063603997 50:-0.36286199 57:-0.212 #
0.5 5:-0.48666501 6:-0.35563499 10:-0.40832499 12:-0.66384602 15:-0.21397699 25:-0.259592 28:-0.18276601 34:-0.1311 38:-0.063603997 50:-0.615345 57:-0.421709 #
-0.5 5:-0.48666501 6:-0.35563499 10:-0.40832499 12:-0.66384602 15:-0.21397699 25:-0.259592 28:-0.18276601 34:-0.1311 38:-0.063603997 50:-0.615345 57:-0.333332 #
0.5 5:-0.48666501 6:-0.35563499 10:-0.40832499 12:-0.66384602 15:-0.21397699 25:-0.259592 28:-0.18276601 34:-0.1311 38:-0.063603997 50:-0.41627201 57:-0.301875 #
-0.5 5:-0.48666501 6:-0.35563499 10:-0.40832499 12:-0.66384602 15:-0.21397699 25:-0.259592 28:-0.18276601 34:-0.1311 38:-0.063603997 50:-0.615345 57:-0.334829 #
0.5 5:-0.48666501 6:-0.35563499 10:-0.40832499 12:-0.66384602 15:-0.21397699 25:-0.259592 28:-0.18276601 34:-0.1311 38:-0.063603997 50:-0.46968201 57:-0.222486 #
0.5 5:-0.48666501 6:-0.35563499 10:-0.40832499 12:-0.66384602 15:-0.21397699 25:-0.259592 28:-0.18276601 34:-0.1311 38:-0.063603997 50:-0.615345 57:-0.418713 #
0.5 5:0.54258001 6:-0.35563499 10:0.68902397 12:-0.66384602 15:-0.21397699 25:-0.259592 28:-0.18276601 34:-0.1311 38:-0.063603997 50:-0.615345 57:-0.123623 #
-0.5 5:-0.48666501 6:-0.35563499 10:-0.40832499 12:-0.66384602 15:-0.21397699 25:-0.259592 28:-0.18276601 34:-0.1311 38:-0.063603997 50:0.433431 57:-0.011279 #
-0.5 5:-0.48666501 6:-0.35563499 10:-0.40832499 12:-0.66384602 15:-0.21397699 25:-0.259592 28:-0.18276601 34:-0.1311 38:-0.063603997 50:-0.615345 57:-0.33932301 #
0.5 5:-0.48666501 6:-0.35563499 10:-0.40832499 12:-0.66384602 15:-0.21397699 25:-0.259592 28:-0.18276601 34:-0.1311 38:-0.063603997 50:-0.615345 57:-0.418713 #
-0.5 5:-0.48666501 6:-0.35563499 10:-0.40832499 12:-0.66384602 15:-0.21397699 25:-0.259592 28:-0.18276601 34:-0.1311 38:-0.063603997 50:-0.615345 57:-0.43069601 #
-0.5 5:-0.48666501 6:-0.35563499 10:-0.40832499 12:-0.66384602 15:-0.21397699 25:-0.259592 28:-0.18276601 34:-0.1311 38:-0.063603997 50:-0.12009 57:-0.26592499 #
0.5 5:-0.48666501 6:-0.35563499 10:-0.40832499 12:-0.66384602 15:-0.21397699 25:-0.259592 28:-0.18276601 34:-0.1311 38:-0.063603997 50:-0.615345 57:-0.41571701 #
0.5 5:-0.153248 6:-0.35563499 10:-0.40832499 12:-0.66384602 15:-0.21397699 25:-0.259592 28:-0.18276601 34:-0.1311 38:-0.063603997 50:-0.40656099 57:-0.34531501 #
-0.5 5:-0.48666501 6:-0.35563499 10:-0.083756998 12:-0.66384602 15:-0.21397699 25:-0.096020997 28:0.70552701 34:-0.1311 38:-0.063603997 50:0.108116 57:-0.162569 #
0.5 5:-0.48666501 6:-0.35563499 10:-0.40832499 12:-0.66384602 15:-0.21397699 25:-0.259592 28:-0.18276601 34:-0.1311 38:-0.063603997 50:-0.615345 57:-0.41272101 #
0.5 5:-0.48666501 6:-0.35563499 10:-0.40832499 12:-0.66384602 15:-0.21397699 25:-0.259592 28:-0.18276601 34:-0.1311 38:-0.063603997 50:-0.615345 57:-0.40972501 #
-0.5 5:-0.48666501 6:1.288422 10:-0.40832499 12:-0.66384602 15:-0.21397699 25:-0.259592 28:-0.18276601 34:-0.1311 38:-0.063603997 50:-0.615345 57:-0.38875499 #
-0.5 5:-0.48666501 6:-0.35563499 10:-0.40832499 12:4.8656368 15:-0.21397699 25:-0.259592 28:-0.18276601 34:-0.1311 38:-0.063603997 50:-0.615345 57:-0.32134801 #
-0.5 5:-0.48666501 6:-0.35563499 10:0.225355 12:-0.66384602 15:-0.21397699 25:-0.259592 28:-0.18276601 34:-0.1311 38:-0.063603997 50:0.982095 57:-0.273415 #
-0.5 5:-0.25472301 6:-0.35563499 10:-0.161035 12:-0.454198 15:-0.21397699 25:-0.259592 28:-0.18276601 34:-0.1311 38:-0.063603997 50:1.20059 57:-0.24046101 #
0.5 5:-0.48666501 6:-0.35563499 10:-0.40832499 12:1.052652 15:-0.21397699 25:-0.259592 28:-0.18276601 34:-0.1311 38:-0.063603997 50:-0.615345 57:-0.36329001 #
-0.5 5:-0.48666501 6:0.334869 10:-0.40832499 12:-0.66384602 15:-0.21397699 25:-0.259592 28:-0.18276601 34:-0.1311 38:-0.063603997 50:0.234357 57:-0.34231901 #
0.5 5:-0.48666501 6:-0.35563499 10:-0.40832499 12:1.052652 15:-0.21397699 25:-0.259592 28:-0.18276601 34:-0.1311 38:-0.063603997 50:-0.615345 57:-0.36329001 #
0.5 5:-0.48666501 6:-0.35563499 10:-0.40832499 12:1.052652 15:-0.21397699 25:-0.259592 28:-0.18276601 34:-0.1311 38:-0.063603997 50:-0.615345 57:-0.36329001 #
-0.5 5:-0.48666501 6:0.893848 10:0.17898799 12:0.34508801 15:-0.21397699 25:-0.259592 28:-0.18276601 34:-0.1311 38:-0.063603997 50:0.020718001 57:-0.267423 #
0.5 5:-0.022779999 6:0.69656098 10:0.58083397 12:0.174748 15:-0.21397699 25:-0.259592 28:-0.18276601 34:-0.1311 38:-0.063603997 50:0.16152599 57:0.032159999 #
-0.5 5:-0.48666501 6:-0.35563499 10:-0.40832499 12:-0.66384602 15:-0.21397699 25:-0.259592 28:-0.18276601 34:-0.1311 38:-0.063603997 50:-0.615345 57:-0.34831101 #
0.5 5:-0.48666501 6:-0.35563499 10:-0.40832499 12:1.026446 15:-0.21397699 25:-0.259592 28:-0.18276601 34:-0.1311 38:-0.063603997 50:-0.615345 57:-0.364788 #
-0.5 5:-0.48666501 6:0.76232398 10:-0.40832499 12:0.240263 15:-0.21397699 25:-0.259592 28:-0.18276601 34:-0.1311 38:-0.063603997 50:-0.615345 57:-0.33932301 #
0.5 5:-0.48666501 6:-0.35563499 10:-0.40832499 12:1.026446 15:-0.21397699 25:-0.259592 28:-0.18276601 34:-0.1311 38:-0.063603997 50:-0.43569401 57:-0.27940699 #
0.5 5:-0.48666501 6:-0.35563499 10:1.894562 12:0.30577901 15:-0.21397699 25:-0.259592 28:-0.18276601 34:-0.1311 38:-0.063603997 50:-0.615345 57:-0.379767 #
-0.5 5:-0.48666501 6:-0.35563499 10:-0.40832499 12:1.956762 15:-0.21397699 25:-0.259592 28:-0.18276601 34:-0.1311 38:-0.063603997 50:-0.615345 57:-0.364788 #
0.5 5:-0.48666501 6:-0.35563499 10:-0.40832499 12:1.013343 15:-0.21397699 25:-0.259592 28:-0.18276601 34:-0.1311 38:-0.063603997 50:-0.615345 57:-0.358796 #
-0.5 5:-0.48666501 6:-0.35563499 10:-0.40832499 12:0.48922101 15:-0.21397699 25:-0.259592 28:-0.18276601 34:-0.1311 38:-0.063603997 50:0.030429 57:-0.37826899 #
0.5 5:0.55707598 6:-0.35563499 10:-0.40832499 12:-0.034899998 15:-0.21397699 25:-0.259592 28:-0.18276601 34:-0.1311 38:-0.063603997 50:-0.615345 57:-0.232971 #
-0.5 5:-0.48666501 6:-0.35563499 10:-0.40832499 12:-0.66384602 15:-0.21397699 25:-0.259592 28:-0.18276601 34:-0.1311 38:-0.063603997 50:-0.615345 57:-0.35729799 #
-0.5 5:-0.48666501 6:0.795205 10:0.132622 12:0.266469 15:-0.21397699 25:-0.259592 28:-0.18276601 34:-0.1311 38:-0.063603997 50:-0.032692 57:-0.267423 #
-0.5 5:-0.138751 6:1.255541 10:0.34900001 12:-0.34937301 15:-0.21397699 25:0.31680101 28:1.345925 34:-0.1311 38:-0.063603997 50:-0.35315099 57:0.12503099 #
0.5 5:-0.48666501 6:-0.35563499 10:-0.40832499 12:-0.66384602 15:-0.21397699 25:-0.259592 28:-0.18276601 34:-0.1311 38:-0.063603997 50:-0.615345 57:-0.40972501 #
0.5 5:-0.48666501 6:-0.35563499 10:-0.40832499 12:0.86920899 15:-0.21397699 25:-0.259592 28:-0.18276601 34:-0.1311 38:-0.063603997 50:-0.615345 57:-0.26592499 #
-0.5 5:-0.48666501 6:-0.35563499 10:-0.40832499 12:-0.66384602 15:-0.21397699 25:-0.259592 28:-0.18276601 34:-0.1311 38:-0.063603997 50:-0.615345 57:-0.364788 #
0.5 5:-0.48666501 6:-0.35563499 10:-0.40832499 12:0.82990003 15:-0.21397699 25:-0.259592 28:-0.18276601 34:-0.1311 38:-0.063603997 50:-0.615345 57:-0.270419 #
-0.5 5:-0.48666501 6:-0.35563499 10:-0.40832499 12:-0.66384602 15:-0.21397699 25:-0.259592 28:-0.18276601 34:-0.1311 38:-0.063603997 50:-0.615345 57:-0.364788 #
0.5 5:-0.109759 6:-0.35563499 10:-0.40832499 12:1.052652 15:-0.21397699 25:-0.259592 28:-0.18276601 34:-0.1311 38:-0.063603997 50:-0.43083799 57:-0.188034 #
-0.5 5:-0.48666501 6:-0.35563499 10:-0.40832499 12:-0.66384602 15:-0.21397699 25:-0.259592 28:-0.18276601 34:-0.1311 38:-0.063603997 50:0.064416997 57:-0.31835201 #
0.5 5:0.26714799 6:-0.35563499 10:-0.145579 12:-0.218343 15:-0.21397699 25:-0.259592 28:-0.18276601 34:-0.1311 38:-0.063603997 50:1.195735 57:0.059122998 #
0.5 5:-0.48666501 6:-0.35563499 10:-0.40832499 12:-0.66384602 15:-0.21397699 25:-0.259592 28:-0.18276601 34:-0.1311 38:-0.063603997 50:-0.615345 57:-0.40972501 #
