SVM-light Version V6.02
0 # kernel type
3 # kernel parameter -d 
1 # kernel parameter -g 
1 # kernel parameter -s 
1 # kernel parameter -r 
empty# kernel parameter -u 
50 # highest feature index 
1813 # number of training documents 
1165 # number of support vectors plus 1 
0.50770492 # threshold b, each following line is a SV (starting with alpha*y)
-0.5 5:-0.48666501 6:-0.35563499 10:-0.40832499 12:-0.66384602 25:-0.259592 28:-0.18276601 38:-0.063603997 50:0.65678102 #
0.5 5:-0.31270799 6:-0.35563499 10:-0.222858 12:-0.165931 25:-0.259592 28:-0.18276601 38:-0.063603997 50:0.28291199 #
-0.5 5:7.5588398 6:-0.35563499 10:-0.40832499 12:6.6083412 25:-0.259592 28:-0.18276601 38:-0.063603997 50:-0.615345 #
0.5 5:-0.48666501 6:-0.35563499 10:-0.40832499 12:-0.66384602 25:-0.259592 28:17.02533 38:-0.063603997 50:9.1586599 #
-0.5 5:-0.48666501 6:-0.35563499 10:-0.40832499 12:-0.66384602 25:-0.259592 28:11.964125 38:-0.063603997 50:3.0893569 #
-0.5 5:-0.356197 6:-0.059705 10:-0.40832499 12:-0.29696101 25:-0.259592 28:-0.18276601 38:-0.063603997 50:-0.34344 #
0.5 5:-0.48666501 6:-0.35563499 10:-0.40832499 12:-0.66384602 25:-0.259592 28:-0.18276601 38:-0.063603997 50:-0.615345 #
-0.5 5:-0.48666501 6:-0.35563499 10:16.762863 12:-0.66384602 25:-0.259592 28:-0.18276601 38:-0.063603997 50:-0.615345 #
0.5 5:0.13668001 6:-0.35563499 10:0.92085803 12:1.039549 25:-0.259592 28:-0.18276601 38:-0.063603997 50:-0.0035590001 #
0.5 5:0.499091 6:-0.35563499 10:0.64265698 12:0.51542699 25:-0.259592 28:-0.18276601 38:1.811754 50:-0.45511499 #
-0.5 5:12.690568 6:-0.35563499 10:-0.40832499 12:-0.66384602 25:-0.259592 28:-0.18276601 38:-0.063603997 50:-0.615345 #
0.5 5:-0.48666501 6:-0.35563499 10:-0.40832499 12:-0.66384602 25:-0.259592 28:-0.18276601 38:-0.063603997 50:1.904629 #
0.5 5:0.52808303 6:-0.35563499 10:0.132622 12:-0.66384602 25:-0.259592 28:-0.18276601 38:-0.063603997 50:-0.066679999 #
-0.5 5:6.4136238 6:-0.35563499 10:-0.40832499 12:-0.66384602 25:-0.259592 28:-0.18276601 38:-0.063603997 50:-0.615345 #
-0.5 5:-0.25472301 6:0.170463 10:0.086254999 12:-0.66384602 25:-0.259592 28:1.139345 38:-0.063603997 50:5.7404289 #
-0.5 5:-0.48666501 6:-0.35563499 10:-0.40832499 12:-0.66384602 25:-0.259592 28:-0.18276601 38:-0.063603997 50:-0.615345 #
-0.5 5:2.1371839 6:-0.35563499 10:-0.40832499 12:1.707804 25:-0.259592 28:-0.18276601 38:-0.063603997 50:2.3707521 #
0.5 5:0.078694999 6:0.26910701 10:0.194444 12:1.3933311 25:-0.259592 28:-0.18276601 38:-0.063603997 50:-0.43569401 #
0.5 5:-0.48666501 6:-0.35563499 10:-0.40832499 12:-0.66384602 25:-0.259592 28:-0.18276601 38:-0.063603997 50:2.9242721 #
-0.5 5:4.5000992 6:-0.35563499 10:-0.40832499 12:3.8436 25:-0.259592 28:-0.18276601 38:-0.063603997 50:2.171679 #
0.5 5:-0.48666501 6:-0.35563499 10:-0.40832499 12:7.276597 25:-0.259592 28:-0.18276601 38:-0.063603997 50:-0.615345 #
0.5 5:-0.48666501 6:-0.35563499 10:0.070799001 12:-0.25765201 25:-0.259592 28:-0.18276601 38:-0.063603997 50:3.026237 #
0.5 5:-0.48666501 6:-0.35563499 10:-0.40832499 12:-0.66384602 25:-0.259592 28:4.6098852 38:-0.063603997 50:1.234578 #
0.5 5:1.62981 6:-0.35563499 10:1.199059 12:-0.12662201 25:0.877617 28:-0.18276601 38:-0.063603997 50:1.331687 #
0.5 5:-0.48666501 6:-0.35563499 10:1.894562 12:1.288507 25:-0.259592 28:-0.18276601 38:-0.063603997 50:-0.615345 #
-0.5 5:-0.48666501 6:-0.35563499 10:-0.40832499 12:-0.66384602 25:-0.259592 28:-0.18276601 38:-0.063603997 50:3.9196379 #
0.5 5:-0.022779999 6:0.433512 10:0.20990001 12:0.22716001 25:-0.259592 28:-0.18276601 38:-0.063603997 50:-0.36286199 #
-0.5 5:-0.48666501 6:-0.35563499 10:-0.40832499 12:-0.66384602 25:-0.259592 28:-0.18276601 38:-0.063603997 50:-0.615345 #
-1.70432031154632568359375e-06 5:-0.48666501 6:-0.35563499 10:-0.40832499 12:-0.66384602 25:-0.259592 28:-0.18276601 38:-0.063603997 50:5.9443569 #
-0.5 5:-0.48666501 6:-0.35563499 10:1.539083 12:0.98713702 25:-0.259592 28:5.0437031 38:-0.063603997 50:-0.615345 #
-0.5 5:-0.48666501 6:-0.35563499 10:-0.40832499 12:-0.66384602 25:-0.259592 28:-0.18276601 38:-0.063603997 50:3.9196379 #
0.5 5:0.13668001 6:1.058254 10:-0.40832499 12:-0.100416 25:-0.259592 28:-0.18276601 38:-0.063603997 50:-0.615345 #
0.5 5:-0.48666501 6:-0.35563499 10:-0.40832499 12:1.1443731 25:-0.259592 28:-0.18276601 38:-0.063603997 50:1.7832429 #
-0.5 5:-0.48666501 6:-0.35563499 10:-0.40832499 12:0.97403401 25:-0.259592 28:-0.18276601 38:-0.063603997 50:3.006815 #
-0.5 5:-0.48666501 6:-0.35563499 10:-0.40832499 12:-0.66384602 25:-0.259592 28:-0.18276601 38:-0.063603997 50:4.5605559 #
-0.5 5:-0.48666501 6:-0.35563499 10:-0.40832499 12:2.873975 25:-0.259592 28:-0.18276601 38:-0.063603997 50:1.710412 #
0.5 5:-0.48666501 6:-0.35563499 10:-0.40832499 12:1.1443731 25:-0.259592 28:-0.18276601 38:-0.063603997 50:1.763822 #
-0.5 5:-0.48666501 6:18.978474 10:-0.40832499 12:-0.66384602 25:-0.259592 28:-0.18276601 38:-0.063603997 50:-0.615345 #
0.11238255735165614268566969258245 5:-0.48666501 6:-0.35563499 10:-0.40832499 12:-0.66384602 25:-0.259592 28:18.595337 38:-0.063603997 50:4.9829798 #
-0.32615929728072157178786483200383 5:-0.153248 6:0.40063101 10:-0.40832499 12:-0.362477 25:0.106496 28:-0.18276601 38:-0.063603997 50:-0.100668 #
-0.5 5:-0.48666501 6:-0.35563499 10:2.620976 12:-0.66384602 25:-0.259592 28:3.8661981 38:-0.063603997 50:1.195735 #
-0.5 5:-0.48666501 6:-0.059705 10:-0.40832499 12:-0.545919 25:-0.259592 28:-0.18276601 38:-0.063603997 50:-0.53280199 #
-0.5 5:-0.48666501 6:-0.35563499 10:5.773921 12:-0.66384602 25:-0.259592 28:-0.18276601 38:-0.063603997 50:-0.615345 #
-0.5 5:-0.48666501 6:-0.35563499 10:-0.40832499 12:-0.66384602 25:-0.259592 28:-0.18276601 38:-0.063603997 50:-0.615345 #
0.5 5:0.96297598 6:-0.35563499 10:-0.40832499 12:-0.66384602 25:-0.259592 28:-0.18276601 38:-0.063603997 50:2.341619 #
-0.5 5:-0.48666501 6:-0.35563499 10:4.2747259 12:-0.66384602 25:-0.259592 28:-0.18276601 38:-0.063603997 50:-0.615345 #
-0.5 5:-0.48666501 6:-0.35563499 10:3.1001 12:-0.66384602 25:-0.259592 28:-0.18276601 38:-0.063603997 50:-0.615345 #
0.5 5:-0.48666501 6:-0.35563499 10:1.4308929 12:-0.66384602 25:-0.259592 28:-0.18276601 38:-0.063603997 50:-0.615345 #
0.5 5:-0.48666501 6:2.8009541 10:-0.40832499 12:-0.66384602 25:-0.259592 28:-0.18276601 38:-0.063603997 50:3.3564069 #
0.5 5:-0.37069401 6:0.40063101 10:0.658113 12:0.51542699 25:-0.259592 28:-0.18276601 38:-0.063603997 50:-0.28031901 #
-0.5 5:-0.48666501 6:-0.35563499 10:-0.40832499 12:-0.66384602 25:-0.259592 28:-0.18276601 38:-0.063603997 50:-0.615345 #
0.5 5:-0.48666501 6:-0.35563499 10:0.395367 12:2.0615859 25:-0.259592 28:-0.18276601 38:-0.063603997 50:-0.26089799 #
-0.5 5:4.6160698 6:3.4914579 10:6.855814 12:-0.66384602 25:-0.259592 28:-0.18276601 38:-0.063603997 50:0.31690001 #
-0.5 5:-0.48666501 6:-0.35563499 10:-0.40832499 12:-0.66384602 25:-0.259592 28:-0.18276601 38:-0.063603997 50:0.467419 #
-0.5 5:-0.48666501 6:-0.35563499 10:2.064573 12:-0.66384602 25:-0.259592 28:-0.18276601 38:-0.063603997 50:-0.615345 #
0.5 5:1.006465 6:-0.35563499 10:-0.40832499 12:-0.66384602 25:-0.259592 28:-0.18276601 38:-0.063603997 50:-0.615345 #
-0.5 5:-0.48666501 6:-0.35563499 10:-0.40832499 12:-0.66384602 25:-0.259592 28:-0.18276601 38:-0.063603997 50:-0.615345 #
0.5 5:-0.28371501 6:-0.25699201 10:0.62720102 12:0.214057 25:-0.259592 28:-0.18276601 38:-0.063603997 50:-0.251187 #
-0.5 5:-0.48666501 6:-0.35563499 10:-0.40832499 12:-0.66384602 25:-0.259592 28:-0.18276601 38:-0.063603997 50:-0.615345 #
0.5 5:-0.48666501 6:-0.35563499 10:1.86365 12:1.262301 25:-0.259592 28:-0.18276601 38:-0.063603997 50:-0.615345 #
-0.5 5:-0.48666501 6:-0.35563499 10:-0.40832499 12:3.0181079 25:-0.259592 28:-0.18276601 38:-0.063603997 50:0.180948 #
0.5 5:1.673299 6:-0.35563499 10:-0.40832499 12:-0.66384602 25:0.90098399 28:-0.18276601 38:-0.063603997 50:-0.615345 #
0.5 5:0.81801099 6:-0.35563499 10:-0.40832499 12:-0.66384602 25:-0.259592 28:-0.18276601 38:-0.063603997 50:0.127538 #
-0.5 5:-0.48666501 6:-0.35563499 10:4.7383952 12:3.699466 25:-0.259592 28:-0.18276601 38:-0.063603997 50:-0.615345 #
0.5 5:-0.341701 6:-0.35563499 10:-0.145579 12:-0.53281599 25:0.659522 28:-0.18276601 38:-0.063603997 50:0.865565 #
-0.5 5:-0.48666501 6:-0.35563499 10:1.492716 12:-0.66384602 25:-0.259592 28:-0.18276601 38:-0.063603997 50:3.1233449 #
-0.5 5:-0.48666501 6:-0.35563499 10:-0.40832499 12:-0.66384602 25:-0.259592 28:-0.18276601 38:-0.063603997 50:-0.615345 #
-0.5 5:-0.48666501 6:-0.35563499 10:-0.40832499 12:-0.29696101 25:-0.259592 28:-0.18276601 38:-0.063603997 50:-0.115234 #
0.5 5:-0.48666501 6:-0.35563499 10:-0.40832499 12:1.052652 25:-0.259592 28:-0.18276601 38:-0.063603997 50:-0.615345 #
-0.22820730024713642425382431611069 5:-0.48666501 6:-0.35563499 10:-0.40832499 12:7.0407419 25:-0.259592 28:-0.18276601 38:-0.063603997 50:-0.615345 #
-0.5 5:-0.48666501 6:-0.35563499 10:0.25626701 12:-0.66384602 25:-0.259592 28:-0.18276601 38:-0.063603997 50:0.39458701 #
-0.5 5:-0.48666501 6:-0.35563499 10:-0.40832499 12:-0.66384602 25:-0.259592 28:-0.18276601 38:-0.063603997 50:-0.615345 #
-0.5 5:-0.48666501 6:-0.35563499 10:-0.40832499 12:-0.66384602 25:-0.259592 28:-0.18276601 38:-0.063603997 50:-0.615345 #
0.5 5:0.86150098 6:-0.35563499 10:-0.40832499 12:3.0050049 25:-0.259592 28:-0.18276601 38:-0.063603997 50:0.180948 #
-0.5 5:-0.48666501 6:2.1433311 10:-0.40832499 12:0.331985 25:-0.259592 28:-0.18276601 38:-0.063603997 50:0.030429 #
-0.5 5:-0.48666501 6:10.955476 10:-0.40832499 12:-0.66384602 25:-0.259592 28:-0.18276601 38:-0.063603997 50:1.909485 #
-0.5 5:-0.48666501 6:-0.35563499 10:3.7337799 12:0.214057 25:-0.259592 28:-0.18276601 38:-0.063603997 50:-0.071534999 #
0.5 5:-0.48666501 6:0.26910701 10:-0.40832499 12:-0.41488901 25:-0.259592 28:-0.18276601 38:-0.063603997 50:-0.56678998 #
-0.5 5:-0.48666501 6:3.064003 10:0.395367 12:1.3933311 25:-0.259592 28:-0.18276601 38:-0.063603997 50:-0.615345 #
-0.5 5:0.96297598 6:0.104701 10:4.2283592 12:0.44991201 25:-0.259592 28:-0.18276601 38:-0.063603997 50:-0.50852501 #
-0.5 5:-0.48666501 6:-0.35563499 10:3.347389 12:2.5201931 25:-0.259592 28:-0.18276601 38:-0.063603997 50:-0.615345 #
-0.5 5:8.5735893 6:-0.35563499 10:-0.40832499 12:-0.66384602 25:-0.259592 28:-0.18276601 38:-0.063603997 50:-0.615345 #
0.5 5:-0.48666501 6:-0.35563499 10:-0.40832499 12:2.5595019 25:-0.259592 28:-0.18276601 38:-0.063603997 50:-0.615345 #
-0.5 5:0.035206001 6:0.82808602 10:-0.40832499 12:-0.66384602 25:-0.259592 28:-0.18276601 38:-0.063603997 50:-0.615345 #
-0.5 5:1.7457809 6:-0.35563499 10:-0.40832499 12:1.013343 25:0.34016901 28:-0.18276601 38:0.97826099 50:-0.42598301 #
0.5 5:-0.48666501 6:-0.35563499 10:-0.40832499 12:-0.66384602 25:-0.259592 28:-0.18276601 38:-0.063603997 50:0.239213 #
0.5 5:-0.109759 6:-0.35563499 10:-0.40832499 12:-0.66384602 25:-0.259592 28:-0.18276601 38:-0.063603997 50:2.73491 #
0.5 5:-0.48666501 6:-0.35563499 10:-0.40832499 12:1.1443731 25:-0.259592 28:-0.18276601 38:-0.063603997 50:1.763822 #
0.5 5:-0.38519001 6:0.334869 10:0.132622 12:0.30577901 25:-0.259592 28:-0.18276601 38:-0.063603997 50:-0.35315099 #
0.5 5:0.35412601 6:0.59791797 10:-0.40832499 12:-0.034899998 25:-0.259592 28:-0.18276601 38:-0.063603997 50:-0.38713899 #
0.5 5:-0.48666501 6:-0.35563499 10:1.4308929 12:-0.66384602 25:0.66731101 28:-0.18276601 38:-0.063603997 50:-0.615345 #
0.16329954847591482414159713698609 5:-0.48666501 6:-0.35563499 10:2.4973309 12:1.799525 25:-0.259592 28:-0.18276601 38:-0.063603997 50:-0.615345 #
0.5 5:-0.31270799 6:-0.35563499 10:-0.222858 12:-0.165931 25:-0.259592 28:-0.18276601 38:-0.063603997 50:0.28291199 #
0.5 5:-0.457672 6:0.071819998 10:0.039887998 12:-0.218343 25:-0.259592 28:-0.18276601 38:-0.063603997 50:-0.21234301 #
0.5 5:-0.48666501 6:2.044688 10:-0.40832499 12:-0.66384602 25:-0.259592 28:-0.18276601 38:-0.063603997 50:-0.615345 #
-0.5 5:-0.48666501 6:-0.35563499 10:-0.40832499 12:-0.66384602 25:-0.259592 28:-0.18276601 38:-0.063603997 50:-0.615345 #
0.5 5:-0.48666501 6:-0.35563499 10:-0.40832499 12:-0.66384602 25:-0.259592 28:-0.18276601 38:-0.063603997 50:0.239213 #
0.5 5:-0.022779999 6:-0.35563499 10:0.333545 12:-0.66384602 25:-0.259592 28:0.147762 38:-0.063603997 50:-0.615345 #
0.5 5:-0.48666501 6:-0.35563499 10:-0.40832499 12:-0.66384602 25:-0.259592 28:-0.18276601 38:-0.063603997 50:0.059562001 #
0.5 5:-0.124255 6:0.46639299 10:-0.40832499 12:2.297441 25:-0.259592 28:-0.18276601 38:-0.063603997 50:-0.45026001 #
0.5 5:-0.48666501 6:-0.35563499 10:1.894562 12:0.30577901 25:-0.259592 28:-0.18276601 38:-0.063603997 50:-0.615345 #
-0.5 5:-0.48666501 6:-0.35563499 10:1.2608809 12:3.6077449 25:-0.259592 28:-0.18276601 38:-0.063603997 50:-0.615345 #
0.5 5:-0.48666501 6:-0.35563499 10:-0.40832499 12:-0.66384602 25:-0.259592 28:-0.18276601 38:-0.063603997 50:-0.615345 #
0.5 5:-0.037276 6:-0.35563499 10:-0.17649101 12:-0.66384602 25:0.480373 28:-0.18276601 38:-0.063603997 50:-0.18806601 #
0.5 5:-0.48666501 6:-0.35563499 10:-0.40832499 12:-0.66384602 25:-0.259592 28:-0.18276601 38:-0.063603997 50:1.535616 #
-0.5 5:-0.48666501 6:-0.35563499 10:-0.40832499 12:-0.66384602 25:-0.259592 28:-0.18276601 38:-0.063603997 50:0.433431 #
0.5 5:-0.28371501 6:-0.25699201 10:0.534468 12:0.187851 25:-0.259592 28:-0.18276601 38:-0.063603997 50:-0.23661999 #
-0.5 5:-0.48666501 6:-0.35563499 10:-0.40832499 12:-0.66384602 25:-0.259592 28:-0.18276601 38:-0.063603997 50:-0.615345 #
0.5 5:-0.48666501 6:-0.35563499 10:-0.40832499 12:1.9305561 25:-0.259592 28:-0.18276601 38:-0.063603997 50:0.33146599 #
-0.5 5:-0.48666501 6:-0.35563499 10:-0.40832499 12:-0.66384602 25:-0.259592 28:-0.18276601 38:-0.063603997 50:-0.615345 #
0.5 5:-0.48666501 6:-0.35563499 10:-0.40832499 12:2.6512229 25:-0.259592 28:-0.18276601 38:-0.063603997 50:-0.615345 #
-0.5 5:-0.48666501 6:-0.35563499 10:-0.40832499 12:-0.66384602 25:-0.259592 28:-0.18276601 38:-0.063603997 50:-0.615345 #
-0.5 5:-0.48666501 6:-0.35563499 10:-0.40832499 12:-0.66384602 25:-0.259592 28:-0.18276601 38:-0.063603997 50:-0.615345 #
0.5 5:0.412112 6:-0.35563499 10:0.549923 12:-0.66384602 25:-0.259592 28:-0.18276601 38:-0.063603997 50:-0.105524 #
-0.5 5:-0.48666501 6:3.590101 10:-0.40832499 12:-0.66384602 25:-0.259592 28:-0.18276601 38:-0.063603997 50:-0.615345 #
-0.5 5:3.6448109 6:-0.35563499 10:-0.40832499 12:-0.66384602 25:-0.259592 28:-0.18276601 38:-0.063603997 50:-0.615345 #
-0.5 5:-0.48666501 6:-0.35563499 10:3.1773779 12:-0.66384602 25:-0.259592 28:-0.18276601 38:-0.063603997 50:0.37516499 #
-0.5 5:0.38311899 6:-0.35563499 10:3.347389 12:0.122336 25:-0.259592 28:-0.18276601 38:-0.063603997 50:0.70047998 #
0.5 5:0.093190998 6:0.95960999 10:-0.40832499 12:-0.66384602 25:-0.259592 28:-0.18276601 38:-0.063603997 50:-0.615345 #
-0.5 5:-0.48666501 6:-0.35563499 10:-0.40832499 12:4.7870188 25:-0.259592 28:-0.18276601 38:-0.063603997 50:-0.615345 #
-0.5 5:-0.48666501 6:2.9653599 10:1.152692 12:-0.66384602 25:-0.259592 28:-0.18276601 38:-0.063603997 50:-0.615345 #
-0.5 5:-0.48666501 6:-0.35563499 10:2.450964 12:1.760216 25:-0.259592 28:-0.18276601 38:-0.063603997 50:-0.615345 #
-0.5 5:-0.48666501 6:-0.35563499 10:-0.40832499 12:-0.66384602 25:-0.259592 28:-0.18276601 38:-0.063603997 50:-0.615345 #
-0.5 5:-0.48666501 6:1.6501141 10:-0.40832499 12:0.13543899 25:-0.259592 28:-0.18276601 38:-0.063603997 50:-0.615345 #
-0.5 5:-0.48666501 6:-0.35563499 10:1.7863719 12:-0.66384602 25:-0.259592 28:-0.18276601 38:-0.063603997 50:-0.615345 #
-0.5 5:2.7315371 6:-0.35563499 10:-0.40832499 12:3.699466 25:0.60499799 28:-0.18276601 38:-0.063603997 50:-0.615345 #
-0.5 5:3.1374359 6:-0.35563499 10:-0.40832499 12:-0.66384602 25:-0.259592 28:-0.18276601 38:-0.063603997 50:-0.076390997 #
-0.5 5:-0.48666501 6:3.031122 10:-0.40832499 12:-0.66384602 25:-0.259592 28:-0.18276601 38:-0.063603997 50:0.083838999 #
-0.5 5:-0.48666501 6:-0.35563499 10:2.8682649 12:2.1139979 25:-0.259592 28:-0.18276601 38:-0.063603997 50:-0.615345 #
-0.5 5:-0.48666501 6:-0.35563499 10:3.2392001 12:0.35819101 25:-0.259592 28:-0.18276601 38:-0.063603997 50:0.37031001 #
-0.5 5:2.96348 6:-0.35563499 10:-0.40832499 12:-0.66384602 25:-0.259592 28:-0.18276601 38:-0.063603997 50:-0.615345 #
-0.19354164304581766842261458805297 5:-0.48666501 6:-0.35563499 10:-0.40832499 12:4.3677211 25:-0.259592 28:-0.18276601 38:-0.063603997 50:2.827163 #
-0.5 5:1.368875 6:-0.35563499 10:3.5483119 12:0.174748 25:0.23891 28:-0.18276601 38:-0.063603997 50:-0.615345 #
-0.5 5:5.0799551 6:-0.35563499 10:-0.40832499 12:-0.66384602 25:-0.259592 28:-0.18276601 38:-0.063603997 50:-0.615345 #
-0.5 5:-0.48666501 6:-0.35563499 10:1.86365 12:-0.66384602 25:-0.259592 28:-0.18276601 38:-0.063603997 50:-0.615345 #
-0.5 5:-0.48666501 6:4.3134861 10:-0.40832499 12:-0.66384602 25:-0.259592 28:-0.18276601 38:-0.063603997 50:0.68105799 #
-0.5 5:-0.48666501 6:-0.35563499 10:-0.40832499 12:-0.66384602 25:-0.259592 28:-0.18276601 38:-0.063603997 50:-0.615345 #
-0.5 5:-0.48666501 6:1.51859 10:-0.40832499 12:-0.66384602 25:-0.259592 28:-0.18276601 38:-0.063603997 50:-0.615345 #
-0.5 5:-0.48666501 6:-0.35563499 10:-0.40832499 12:4.4987521 25:-0.259592 28:-0.18276601 38:-0.063603997 50:-0.615345 #
0.5 5:0.078694999 6:0.26910701 10:0.194444 12:1.4195369 25:-0.259592 28:-0.18276601 38:-0.063603997 50:-0.43569401 #
0.5 5:-0.109759 6:-0.35563499 10:-0.40832499 12:-0.66384602 25:-0.259592 28:-0.18276601 38:-0.063603997 50:2.5698249 #
0.5 5:-0.124255 6:1.321303 10:-0.40832499 12:0.331985 25:-0.259592 28:-0.18276601 38:-0.063603997 50:-0.615345 #
0.5 5:0.165673 6:-0.35563499 10:0.75084603 12:0.51542699 25:-0.259592 28:-0.18276601 38:-0.063603997 50:0.59851599 #
-0.5 5:-0.48666501 6:1.617233 10:0.51901197 12:0.122336 25:-0.259592 28:-0.18276601 38:-0.063603997 50:-0.615345 #
0.5 5:0.57157302 6:-0.35563499 10:-0.40832499 12:-0.192137 25:-0.259592 28:-0.18276601 38:-0.063603997 50:-0.037547 #
0.5 5:0.064198002 6:0.893848 10:-0.40832499 12:-0.66384602 25:-0.259592 28:-0.18276601 38:-0.063603997 50:-0.615345 #
0.5 5:-0.26921901 6:-0.25699201 10:0.61174601 12:0.25336599 25:-0.259592 28:-0.18276601 38:-0.063603997 50:-0.23661999 #
0.5 5:-0.022779999 6:0.40063101 10:0.20990001 12:0.22716001 25:-0.259592 28:-0.18276601 38:-0.063603997 50:-0.36286199 #
0.5 5:0.28164399 6:-0.35563499 10:-0.40832499 12:0.030615 25:-0.259592 28:-0.18276601 38:-0.063603997 50:-0.615345 #
-0.5 5:-0.48666501 6:-0.35563499 10:-0.40832499 12:0.94782799 25:-0.259592 28:-0.18276601 38:-0.063603997 50:-0.139512 #
0.5 5:-0.037276 6:-0.35563499 10:-0.17649101 12:-0.66384602 25:0.480373 28:-0.18276601 38:-0.063603997 50:-0.18806601 #
-0.5 5:-0.48666501 6:1.617233 10:-0.40832499 12:-0.66384602 25:-0.259592 28:-0.18276601 38:-0.063603997 50:-0.615345 #
-0.5 5:-0.48666501 6:-0.35563499 10:-0.40832499 12:-0.66384602 25:-0.259592 28:-0.18276601 38:-0.063603997 50:-0.615345 #
0.5 5:-0.48666501 6:-0.35563499 10:-0.40832499 12:0.94782799 25:-0.259592 28:-0.18276601 38:-0.063603997 50:-0.615345 #
0.5 5:-0.48666501 6:-0.35563499 10:-0.40832499 12:-0.66384602 25:-0.259592 28:-0.18276601 38:-0.063603997 50:1.205446 #
-0.5 5:-0.48666501 6:2.077569 10:-0.40832499 12:0.30577901 25:-0.259592 28:-0.18276601 38:-0.063603997 50:-0.615345 #
0.5 5:0.28164399 6:-0.35563499 10:0.41082299 12:-0.66384602 25:-0.259592 28:-0.18276601 38:-0.063603997 50:-0.17835499 #
-0.5 5:-0.48666501 6:2.2748561 10:-0.40832499 12:-0.66384602 25:-0.259592 28:-0.18276601 38:-0.063603997 50:0.81215501 #
0.5 5:0.78901899 6:-0.35563499 10:-0.40832499 12:-0.087312996 25:0.083127998 28:-0.18276601 38:-0.063603997 50:-0.265753 #
0.5 5:0.67304701 6:-0.35563499 10:-0.40832499 12:1.43264 25:-0.259592 28:-0.18276601 38:-0.063603997 50:0.71504599 #
-0.5 5:-0.48666501 6:1.551471 10:-0.40832499 12:-0.66384602 25:-0.259592 28:-0.18276601 38:-0.063603997 50:-0.090957001 #
-0.5 5:0.36862299 6:3.55722 10:-0.40832499 12:-0.66384602 25:0.199965 28:-0.18276601 38:-0.063603997 50:0.899553 #
0.5 5:0.035206001 6:0.82808602 10:-0.40832499 12:-0.192137 25:-0.259592 28:-0.18276601 38:-0.063603997 50:0.28776699 #
0.5 5:-0.48666501 6:-0.35563499 10:-0.40832499 12:0.62025201 25:-0.259592 28:-0.18276601 38:-0.063603997 50:1.758966 #
-0.5 5:-0.48666501 6:1.3870651 10:0.41082299 12:-0.66384602 25:-0.259592 28:-0.18276601 38:-0.063603997 50:-0.124945 #
0.5 5:-0.138751 6:0.433512 10:-0.40832499 12:2.271235 25:-0.259592 28:-0.18276601 38:-0.063603997 50:-0.44540399 #
0.5 5:-0.109759 6:-0.35563499 10:-0.40832499 12:-0.66384602 25:-0.259592 28:-0.18276601 38:-0.063603997 50:2.7300551 #
0.5 5:-0.48666501 6:1.617233 10:-0.40832499 12:1.720907 25:-0.259592 28:-0.18276601 38:-0.063603997 50:0.078983001 #
-0.5 5:0.035206001 6:2.011807 10:-0.40832499 12:0.76438498 25:0.58942002 28:-0.18276601 38:-0.063603997 50:-0.061825 #
0.5 5:-0.48666501 6:-0.35563499 10:0.039887998 12:0.109233 25:-0.259592 28:-0.18276601 38:1.14496 50:0.38002101 #
-0.5 5:-0.48666501 6:-0.35563499 10:-0.40832499 12:-0.66384602 25:-0.259592 28:-0.18276601 38:-0.063603997 50:-0.615345 #
0.5 5:-0.48666501 6:-0.35563499 10:-0.114668 12:-0.66384602 25:-0.259592 28:-0.18276601 38:0.72821403 50:-0.134656 #
-0.5 5:-0.48666501 6:-0.35563499 10:-0.40832499 12:4.3677211 25:-0.259592 28:-0.18276601 38:-0.063603997 50:-0.615345 #
-0.5 5:-0.48666501 6:-0.35563499 10:-0.40832499 12:3.9484241 25:-0.259592 28:-0.18276601 38:-0.063603997 50:-0.615345 #
0.5 5:-0.153248 6:-0.35563499 10:-0.052846 12:1.825731 25:-0.259592 28:-0.18276601 38:-0.063603997 50:-0.076390997 #
0.5 5:-0.48666501 6:1.748758 10:-0.40832499 12:-0.66384602 25:-0.259592 28:-0.18276601 38:-0.063603997 50:0.30233401 #
0.5 5:-0.48666501 6:-0.35563499 10:-0.40832499 12:-0.66384602 25:-0.259592 28:-0.18276601 38:-0.063603997 50:-0.615345 #
0.5 5:-0.48666501 6:-0.35563499 10:-0.40832499 12:-0.66384602 25:-0.259592 28:1.759084 38:-0.063603997 50:0.99666202 #
0.5 5:-0.48666501 6:0.99249202 10:-0.40832499 12:2.0484829 25:-0.259592 28:-0.18276601 38:-0.063603997 50:-0.615345 #
0.5 5:-0.48666501 6:-0.35563499 10:-0.40832499 12:-0.66384602 25:-0.259592 28:-0.18276601 38:-0.063603997 50:1.205446 #
-0.5 5:-0.48666501 6:-0.35563499 10:-0.40832499 12:-0.66384602 25:-0.259592 28:-0.18276601 38:-0.063603997 50:2.1231239 #
0.5 5:-0.48666501 6:-0.35563499 10:-0.40832499 12:1.6684951 25:-0.259592 28:-0.18276601 38:-0.063603997 50:-0.615345 #
0.5 5:-0.153248 6:-0.35563499 10:-0.052846 12:1.825731 25:-0.259592 28:-0.18276601 38:-0.063603997 50:-0.071534999 #
0.5 5:-0.48666501 6:1.584352 10:-0.40832499 12:-0.66384602 25:-0.259592 28:-0.18276601 38:-0.063603997 50:-0.615345 #
-0.5 5:2.3546309 6:-0.35563499 10:-0.40832499 12:-0.66384602 25:-0.259592 28:-0.18276601 38:-0.063603997 50:2.6183791 #
-0.5 5:-0.48666501 6:-0.35563499 10:-0.40832499 12:3.699466 25:-0.259592 28:-0.18276601 38:-0.063603997 50:-0.615345 #
0.5 5:-0.48666501 6:-0.35563499 10:-0.40832499 12:0.69887 25:-0.259592 28:-0.18276601 38:-0.063603997 50:0.57909399 #
-0.5 5:-0.48666501 6:-0.35563499 10:-0.40832499 12:3.699466 25:-0.259592 28:-0.18276601 38:-0.063603997 50:-0.615345 #
0.5 5:0.122184 6:-0.35563499 10:0.905402 12:-0.113519 25:-0.259592 28:-0.18276601 38:1.68673 50:0.457708 #
0.49935322911904123088788765016943 5:-0.080766 6:0.334869 10:1.106325 12:0.62025201 25:-0.259592 28:-0.18276601 38:-0.063603997 50:-0.090957001 #
0.5 5:0.32513401 6:-0.35563499 10:0.45719001 12:1.6815979 25:-0.173912 28:-0.18276601 38:-0.063603997 50:0.28776699 #
-0.5 5:-0.48666501 6:-0.35563499 10:1.399982 12:2.4153681 25:-0.259592 28:-0.18276601 38:-0.063603997 50:1.13747 #
-0.5 5:-0.48666501 6:1.288422 10:-0.40832499 12:-0.66384602 25:-0.259592 28:-0.18276601 38:-0.063603997 50:-0.615345 #
-0.5 5:2.96348 6:-0.35563499 10:-0.40832499 12:-0.66384602 25:-0.259592 28:-0.18276601 38:-0.063603997 50:-0.615345 #
-0.5 5:1.06445 6:3.162647 10:-0.40832499 12:-0.66384602 25:0.57384199 28:-0.18276601 38:-0.063603997 50:1.181169 #
0.5 5:-0.48666501 6:-0.35563499 10:-0.40832499 12:1.078858 25:-0.259592 28:-0.18276601 38:-0.063603997 50:-0.615345 #
-0.5 5:-0.48666501 6:-0.35563499 10:-0.40832499 12:3.0705199 25:-0.259592 28:-0.18276601 38:-0.063603997 50:-0.615345 #
-0.5 5:2.7315371 6:-0.35563499 10:-0.40832499 12:-0.66384602 25:-0.259592 28:-0.18276601 38:-0.063603997 50:-0.17835499 #
-0.5 5:2.4271131 6:-0.35563499 10:-0.40832499 12:-0.66384602 25:-0.259592 28:-0.18276601 38:-0.063603997 50:-0.615345 #
-0.5 5:-0.48666501 6:-0.35563499 10:0.48810101 12:2.3891621 25:-0.259592 28:-0.18276601 38:-0.063603997 50:0.33146599 #
-0.327481659982719497392622542975 5:0.81801099 6:-0.35563499 10:-0.40832499 12:2.873975 25:0.44142699 28:-0.18276601 38:-0.063603997 50:-0.615345 #
-0.5 5:2.470602 6:-0.35563499 10:-0.40832499 12:0.67266399 25:-0.259592 28:-0.18276601 38:-0.063603997 50:-0.615345 #
-0.5 5:-0.48666501 6:-0.35563499 10:2.3118629 12:-0.66384602 25:-0.259592 28:-0.18276601 38:-0.063603997 50:-0.0084149996 #
0.5 5:-0.153248 6:-0.35563499 10:-0.052846 12:1.825731 25:-0.259592 28:-0.18276601 38:-0.063603997 50:-0.086102001 #
0.5 5:-0.48666501 6:0.46639299 10:-0.40832499 12:1.30161 25:-0.259592 28:-0.18276601 38:-0.063603997 50:-0.615345 #
-0.5 5:1.0499541 6:-0.35563499 10:-0.40832499 12:2.1139979 25:-0.259592 28:-0.18276601 38:-0.063603997 50:-0.615345 #
-0.5 5:-0.48666501 6:-0.35563499 10:1.72455 12:-0.66384602 25:-0.259592 28:-0.18276601 38:-0.063603997 50:-0.615345 #
0.5 5:-0.48666501 6:-0.35563499 10:-0.40832499 12:1.458846 25:-0.259592 28:-0.18276601 38:-0.063603997 50:-0.615345 #
-0.5 5:-0.48666501 6:0.86096698 10:-0.40832499 12:-0.66384602 25:-0.259592 28:-0.18276601 38:-0.063603997 50:-0.29488599 #
0.5 5:-0.48666501 6:1.617233 10:-0.40832499 12:1.694701 25:-0.259592 28:-0.18276601 38:-0.063603997 50:-0.158933 #
0.5 5:-0.48666501 6:-0.35563499 10:0.28717801 12:-0.37558001 25:-0.259592 28:-0.18276601 38:-0.063603997 50:-0.615345 #
-0.5 5:-0.48666501 6:-0.35563499 10:1.693639 12:-0.66384602 25:-0.259592 28:-0.18276601 38:-0.063603997 50:-0.615345 #
0.5 5:0.064198002 6:0.893848 10:-0.40832499 12:-0.165931 25:-0.259592 28:-0.18276601 38:-0.063603997 50:0.33632201 #
-0.5 5:0.62955803 6:0.893848 10:-0.40832499 12:0.85610598 25:-0.259592 28:-0.18276601 38:-0.063603997 50:-0.29003 #
-0.5 5:-0.48666501 6:1.025373 10:-0.40832499 12:0.436809 25:-0.259592 28:-0.18276601 38:-0.063603997 50:-0.615345 #
-0.205115615390241146087646484375 5:-0.48666501 6:-0.35563499 10:-0.40832499 12:-0.66384602 25:-0.259592 28:-0.18276601 38:-0.063603997 50:5.5656328 #
-0.5 5:-0.48666501 6:-0.35563499 10:1.569994 12:-0.66384602 25:-0.259592 28:-0.18276601 38:-0.063603997 50:-0.615345 #
-0.5 5:-0.48666501 6:-0.35563499 10:-0.40832499 12:-0.66384602 25:-0.259592 28:-0.18276601 38:-0.063603997 50:-0.615345 #
-0.5 5:-0.48666501 6:-0.35563499 10:-0.40832499 12:3.306375 25:-0.259592 28:-0.18276601 38:-0.063603997 50:-0.615345 #
0.5 5:-0.109759 6:-0.35563499 10:-0.40832499 12:1.052652 25:-0.259592 28:-0.18276601 38:-0.063603997 50:-0.43083799 #
-0.5 5:-0.48666501 6:0.72944301 10:-0.40832499 12:-0.66384602 25:-0.259592 28:-0.18276601 38:-0.063603997 50:-0.42598301 #
0.5 5:-0.48666501 6:-0.35563499 10:-0.40832499 12:1.013343 25:-0.259592 28:-0.18276601 38:-0.063603997 50:-0.615345 #
-0.5 5:-0.48666501 6:-0.35563499 10:1.72455 12:-0.66384602 25:-0.259592 28:-0.18276601 38:-0.063603997 50:-0.615345 #
0.5 5:-0.48666501 6:-0.35563499 10:-0.40832499 12:1.052652 25:-0.259592 28:-0.18276601 38:-0.063603997 50:-0.615345 #
-0.5 5:0.006213 6:0.76232398 10:-0.40832499 12:-0.66384602 25:-0.259592 28:-0.18276601 38:-0.063603997 50:-0.45997101 #
-0.5 5:-0.48666501 6:-0.35563499 10:-0.40832499 12:3.0705199 25:-0.259592 28:-0.18276601 38:-0.063603997 50:-0.615345 #
0.5 5:-0.48666501 6:-0.35563499 10:-0.40832499 12:1.026446 25:-0.259592 28:-0.18276601 38:-0.063603997 50:-0.43569401 #
-0.5 5:-0.48666501 6:-0.35563499 10:1.554538 12:1.00024 25:-0.259592 28:-0.18276601 38:-0.063603997 50:-0.076390997 #
-0.5 5:-0.48666501 6:-0.35563499 10:1.523627 12:0.97403401 25:-0.259592 28:-0.18276601 38:-0.063603997 50:0.57909399 #
0.5 5:-0.124255 6:0.46639299 10:0.37991101 12:1.367125 25:-0.259592 28:-0.18276601 38:-0.063603997 50:0.25377899 #
0.5 5:-0.211233 6:0.038938999 10:0.070799001 12:1.327816 25:-0.259592 28:-0.18276601 38:-0.063603997 50:-0.202632 #
-0.5 5:-0.48666501 6:-0.35563499 10:1.214515 12:0.71197301 25:-0.259592 28:-0.18276601 38:-0.063603997 50:2.6717889 #
-0.5 5:-0.48666501 6:-0.35563499 10:-0.40832499 12:2.690532 25:-0.259592 28:-0.18276601 38:-0.063603997 50:-0.615345 #
0.5 5:-0.48666501 6:-0.35563499 10:-0.40832499 12:1.052652 25:-0.259592 28:-0.18276601 38:-0.063603997 50:-0.615345 #
-0.5 5:0.412112 6:-0.026823999 10:-0.40832499 12:0.0044089998 25:-0.259592 28:-0.18276601 38:-0.063603997 50:-0.022980999 #
0.5 5:-0.48666501 6:0.92672902 10:-0.40832499 12:0.89541501 25:-0.259592 28:-0.18276601 38:-0.063603997 50:-0.615345 #
0.5 5:-0.48666501 6:-0.35563499 10:-0.40832499 12:1.052652 25:-0.259592 28:-0.18276601 38:-0.063603997 50:-0.615345 #
-0.5 5:-0.48666501 6:1.255541 10:-0.40832499 12:0.63335502 25:-0.259592 28:-0.18276601 38:-0.063603997 50:-0.163789 #
0.5 5:-0.48666501 6:-0.35563499 10:-0.40832499 12:1.026446 25:-0.259592 28:-0.18276601 38:-0.063603997 50:-0.615345 #
0.5 5:-0.48666501 6:-0.35563499 10:-0.40832499 12:1.052652 25:-0.259592 28:-0.18276601 38:-0.063603997 50:-0.615345 #
-0.5 5:-0.48666501 6:-0.35563499 10:-0.40832499 12:2.873975 25:-0.259592 28:-0.18276601 38:-0.063603997 50:-0.615345 #
-0.5 5:-0.48666501 6:0.893848 10:0.17898799 12:0.34508801 25:-0.259592 28:-0.18276601 38:-0.063603997 50:0.020718001 #
-0.5 5:-0.48666501 6:-0.35563499 10:-0.40832499 12:2.258132 25:-0.259592 28:-0.18276601 38:-0.063603997 50:-0.615345 #
-0.5 5:-0.48666501 6:0.499275 10:-0.40832499 12:0.72507602 25:-0.259592 28:-0.18276601 38:-0.063603997 50:-0.42598301 #
-0.5 5:-0.48666501 6:-0.35563499 10:-0.40832499 12:0.266469 25:-0.259592 28:-0.18276601 38:-0.063603997 50:-0.615345 #
-0.5 5:-0.48666501 6:-0.35563499 10:-0.40832499 12:2.6119139 25:-0.259592 28:-0.18276601 38:-0.063603997 50:-0.615345 #
-0.5 5:-0.48666501 6:0.795205 10:0.132622 12:0.266469 25:-0.259592 28:-0.18276601 38:-0.063603997 50:-0.032692 #
0.5 5:-0.48666501 6:-0.35563499 10:-0.40832499 12:1.052652 25:-0.259592 28:-0.18276601 38:-0.063603997 50:-0.615345 #
0.5 5:-0.48666501 6:-0.35563499 10:-0.40832499 12:1.052652 25:-0.259592 28:-0.18276601 38:-0.063603997 50:-0.615345 #
0.5 5:-0.48666501 6:-0.35563499 10:-0.40832499 12:1.052652 25:-0.259592 28:-0.18276601 38:-0.063603997 50:-0.615345 #
-0.5 5:-0.48666501 6:-0.35563499 10:-0.40832499 12:0.122336 25:-0.259592 28:-0.18276601 38:-0.063603997 50:-0.615345 #
0.5 5:0.26714799 6:-0.35563499 10:-0.145579 12:-0.218343 25:-0.259592 28:-0.18276601 38:-0.063603997 50:1.195735 #
-0.5 5:-0.48666501 6:-0.35563499 10:-0.40832499 12:-0.66384602 25:-0.259592 28:-0.18276601 38:-0.063603997 50:-0.615345 #
0.5 5:0.93398303 6:-0.35563499 10:1.106325 12:0.62025201 25:0.50374001 28:-0.18276601 38:-0.063603997 50:-0.615345 #
-0.5 5:-0.48666501 6:-0.35563499 10:-0.40832499 12:-0.66384602 25:-0.259592 28:-0.18276601 38:-0.063603997 50:-0.615345 #
0.5 5:-0.48666501 6:-0.35563499 10:-0.40832499 12:0.82990003 25:-0.259592 28:-0.18276601 38:-0.063603997 50:-0.615345 #
0.5 5:0.22365899 6:-0.35563499 10:-0.40832499 12:-0.66384602 25:-0.259592 28:-0.18276601 38:-0.063603997 50:1.6472909 #
0.5 5:0.77452201 6:-0.35563499 10:-0.40832499 12:-0.66384602 25:-0.259592 28:-0.18276601 38:-0.063603997 50:-0.265753 #
0.5 5:0.44110501 6:-0.35563499 10:-0.40832499 12:0.174748 25:-0.259592 28:-0.18276601 38:-0.063603997 50:1.657002 #
-0.5 5:-0.48666501 6:-0.35563499 10:-0.40832499 12:2.4546771 25:-0.259592 28:-0.18276601 38:-0.063603997 50:1.3268321 #
0.5 5:-0.153248 6:-0.35563499 10:-0.40832499 12:0.55473602 25:-0.259592 28:0.54026401 38:0.39481699 50:1.234578 #
0.5 5:-0.26921901 6:-0.25699201 10:0.61174601 12:0.25336599 25:-0.259592 28:-0.18276601 38:-0.063603997 50:-0.17835499 #
0.5 5:0.36862299 6:-0.35563499 10:-0.40832499 12:-0.66384602 25:-0.259592 28:-0.18276601 38:-0.063603997 50:-0.36286199 #
0.5 5:-0.48666501 6:-0.35563499 10:-0.40832499 12:-0.66384602 25:-0.259592 28:2.2961919 38:-0.063603997 50:0.83643198 #
0.5 5:-0.31270799 6:-0.35563499 10:-0.40832499 12:0.59404498 25:-0.259592 28:0.31302601 38:0.436492 50:1.093771 #
-0.5 5:0.70204002 6:-0.35563499 10:0.85903502 12:-0.66384602 25:-0.259592 28:-0.18276601 38:-0.063603997 50:0.84614301 #
-0.5 5:2.659055 6:-0.35563499 10:-0.40832499 12:-0.66384602 25:-0.259592 28:-0.18276601 38:-0.063603997 50:1.166602 #
-0.5 5:-0.48666501 6:-0.35563499 10:0.48810101 12:-0.66384602 25:-0.259592 28:-0.18276601 38:-0.063603997 50:3.3515511 #
-0.5 5:-0.48666501 6:-0.35563499 10:-0.40832499 12:2.742944 25:-0.259592 28:-0.18276601 38:-0.063603997 50:0.064416997 #
0.5 5:-0.48666501 6:2.044688 10:0.148077 12:-0.192137 25:-0.259592 28:-0.18276601 38:-0.063603997 50:-0.081246004 #
-0.5 5:0.89049399 6:1.189778 10:-0.40832499 12:-0.048004001 25:-0.259592 28:-0.18276601 38:3.895484 50:-0.26089799 #
-0.5 5:-0.48666501 6:-0.35563499 10:-0.40832499 12:-0.66384602 25:-0.259592 28:-0.18276601 38:-0.063603997 50:-0.615345 #
0.5 5:-0.48666501 6:0.95960999 10:0.534468 12:-0.401786 25:-0.259592 28:-0.18276601 38:-0.063603997 50:-0.32887399 #
-0.5 5:0.078694999 6:0.92672902 10:-0.40832499 12:-0.66384602 25:-0.259592 28:-0.18276601 38:-0.063603997 50:-0.299741 #
-0.5 5:-0.48666501 6:-0.35563499 10:-0.40832499 12:-0.66384602 25:-0.259592 28:-0.18276601 38:-0.063603997 50:3.5749011 #
-0.5 5:-0.138751 6:1.255541 10:0.34900001 12:-0.34937301 25:0.31680101 28:1.345925 38:-0.063603997 50:-0.35315099 #
0.5 5:-0.109759 6:-0.35563499 10:-0.40832499 12:0.72507602 25:-0.259592 28:-0.18276601 38:-0.063603997 50:0.83643198 #
0.5 5:-0.153248 6:0.006058 10:1.4154381 12:1.956762 25:-0.259592 28:-0.18276601 38:-0.063603997 50:0.28776699 #
-0.5 5:1.0499541 6:-0.35563499 10:1.22997 12:0.72507602 25:-0.259592 28:-0.18276601 38:-0.063603997 50:-0.615345 #
-0.5 5:-0.48666501 6:-0.35563499 10:-0.40832499 12:-0.66384602 25:-0.259592 28:-0.18276601 38:-0.063603997 50:-0.615345 #
-0.5 5:1.194918 6:-0.35563499 10:-0.40832499 12:0.85610598 25:-0.259592 28:-0.18276601 38:-0.063603997 50:1.171458 #
-0.5 5:-0.022779999 6:0.69656098 10:-0.40832499 12:-0.66384602 25:-0.010341 28:1.139345 38:-0.063603997 50:1.186024 #
-0.5 5:-0.48666501 6:0.76232398 10:-0.40832499 12:0.240263 25:-0.259592 28:-0.18276601 38:-0.063603997 50:-0.615345 #
-0.5 5:0.96297598 6:0.46639299 10:-0.40832499 12:-0.33627 25:-0.259592 28:-0.18276601 38:-0.063603997 50:-0.615345 #
0.5 5:0.22365899 6:-0.35563499 10:-0.40832499 12:0.62025201 25:-0.259592 28:-0.18276601 38:-0.063603997 50:0.63735902 #
-0.5 5:1.731285 6:-0.35563499 10:0.37991101 12:0.0044089998 25:-0.259592 28:-0.18276601 38:-0.063603997 50:-0.231765 #
-0.5 5:0.73103303 6:-0.35563499 10:-0.40832499 12:1.537464 25:-0.259592 28:-0.18276601 38:-0.063603997 50:0.43828601 #
0.5 5:0.165673 6:1.124016 10:-0.40832499 12:-0.074210003 25:-0.259592 28:-0.18276601 38:-0.063603997 50:-0.615345 #
0.5 5:0.397616 6:-0.35563499 10:0.76630199 12:0.54163301 25:-0.259592 28:-0.18276601 38:-0.063603997 50:0.70047998 #
-0.5 5:-0.48666501 6:-0.35563499 10:-0.40832499 12:-0.66384602 25:-0.259592 28:-0.18276601 38:-0.063603997 50:3.5700459 #
-0.5 5:-0.48666501 6:-0.35563499 10:-0.40832499 12:2.4546771 25:-0.259592 28:-0.18276601 38:-0.063603997 50:1.302555 #
0.5 5:-0.022779999 6:0.170463 10:0.34900001 12:1.039549 25:-0.259592 28:-0.18276601 38:-0.063603997 50:0.506262 #
-0.5 5:1.1514291 6:-0.35563499 10:0.75084603 12:0.81679702 25:-0.259592 28:-0.18276601 38:-0.063603997 50:-0.615345 #
0.5 5:0.13668001 6:-0.35563499 10:-0.40832499 12:-0.66384602 25:-0.259592 28:-0.18276601 38:-0.063603997 50:0.166381 #
-0.5 5:-0.48666501 6:-0.35563499 10:-0.40832499 12:-0.66384602 25:-0.259592 28:-0.18276601 38:-0.063603997 50:-0.615345 #
-0.5 5:-0.48666501 6:-0.35563499 10:-0.40832499 12:-0.66384602 25:-0.259592 28:-0.18276601 38:-0.063603997 50:-0.615345 #
-0.5 5:-0.48666501 6:-0.35563499 10:-0.40832499 12:-0.66384602 25:-0.259592 28:-0.18276601 38:-0.063603997 50:3.2690091 #
-0.5 5:-0.48666501 6:-0.35563499 10:-0.40832499 12:-0.17903399 25:-0.259592 28:-0.18276601 38:-0.063603997 50:0.020718001 #
-0.5 5:0.54258001 6:-0.35563499 10:-0.40832499 12:1.209888 25:-0.259592 28:-0.18276601 38:-0.063603997 50:-0.0084149996 #
-0.5 5:0.412112 6:-0.35563499 10:-0.40832499 12:0.97403401 25:-0.259592 28:-0.18276601 38:-0.063603997 50:0.97238499 #
0.5 5:0.28164399 6:-0.35563499 10:-0.40832499 12:-0.323167 25:-0.259592 28:-0.18276601 38:-0.063603997 50:-0.615345 #
0.5 5:-0.48666501 6:-0.35563499 10:-0.40832499 12:-0.66384602 25:-0.259592 28:-0.18276601 38:-0.063603997 50:-0.615345 #
0.5 5:0.97747201 6:-0.35563499 10:-0.40832499 12:-0.66384602 25:-0.259592 28:-0.18276601 38:-0.063603997 50:-0.18806601 #
0.5 5:0.33963001 6:-0.35563499 10:0.47264501 12:0.083026998 25:0.184387 28:-0.18276601 38:-0.063603997 50:-0.615345 #
-0.5 5:-0.48666501 6:-0.35563499 10:1.569994 12:-0.66384602 25:-0.259592 28:-0.18276601 38:-0.063603997 50:-0.615345 #
-0.5 5:-0.48666501 6:-0.35563499 10:1.384526 12:-0.66384602 25:-0.259592 28:-0.18276601 38:-0.063603997 50:-0.615345 #
-0.5 5:-0.48666501 6:-0.35563499 10:1.168148 12:0.67266399 25:-0.259592 28:-0.18276601 38:-0.063603997 50:0.132393 #
-0.5 5:0.716537 6:0.170463 10:-0.40832499 12:-0.0086939996 25:-0.259592 28:-0.18276601 38:-0.063603997 50:-0.333729 #
-0.5 5:0.70204002 6:-0.35563499 10:-0.40832499 12:0.41060299 25:-0.259592 28:-0.18276601 38:-0.063603997 50:-0.615345 #
-0.5 5:0.847004 6:-0.35563499 10:-0.40832499 12:0.54163301 25:-0.259592 28:-0.18276601 38:-0.063603997 50:-0.615345 #
-0.5 5:0.28164399 6:-0.35563499 10:1.2454261 12:-0.66384602 25:-0.259592 28:-0.18276601 38:-0.063603997 50:0.81215501 #
0.5 5:-0.48666501 6:-0.35563499 10:-0.40832499 12:0.790591 25:-0.259592 28:-0.18276601 38:-0.063603997 50:0.054706 #
-0.5 5:0.513587 6:-0.35563499 10:-0.40832499 12:1.1443731 25:-0.080443002 28:-0.18276601 38:-0.063603997 50:-0.29488599 #
-0.5 5:-0.48666501 6:0.40063101 10:-0.052846 12:0.882312 25:-0.259592 28:-0.18276601 38:-0.063603997 50:-0.615345 #
-0.5 5:-0.48666501 6:-0.35563499 10:-0.40832499 12:-0.66384602 25:-0.259592 28:-0.18276601 38:-0.063603997 50:-0.615345 #
0.5 5:-0.48666501 6:-0.35563499 10:2.250041 12:-0.66384602 25:-0.259592 28:-0.18276601 38:-0.063603997 50:-0.0084149996 #
0.5 5:-0.29821199 6:-0.25699201 10:0.781757 12:0.25336599 25:-0.259592 28:-0.18276601 38:-0.063603997 50:-0.27060899 #
0.5 5:0.77452201 6:-0.35563499 10:-0.40832499 12:1.616083 25:-0.259592 28:-0.18276601 38:-0.063603997 50:-0.615345 #
-0.5 5:0.47009799 6:-0.35563499 10:-0.40832499 12:0.20095401 25:-0.259592 28:-0.18276601 38:-0.063603997 50:-0.38713899 #
0.5 5:-0.48666501 6:-0.35563499 10:-0.40832499 12:-0.66384602 25:-0.259592 28:-0.18276601 38:-0.063603997 50:-0.615345 #
0.5 5:0.45560101 6:-0.35563499 10:-0.40832499 12:-0.66384602 25:-0.259592 28:-0.18276601 38:-0.063603997 50:-0.615345 #
-0.5 5:-0.48666501 6:-0.35563499 10:-0.40832499 12:2.245029 25:-0.259592 28:-0.18276601 38:-0.063603997 50:-0.615345 #
0.5 5:-0.48666501 6:-0.35563499 10:-0.40832499 12:-0.66384602 25:-0.259592 28:-0.18276601 38:-0.063603997 50:1.093771 #
0.5 5:-0.080766 6:-0.35563499 10:0.24081101 12:-0.66384602 25:-0.259592 28:-0.18276601 38:-0.063603997 50:-0.615345 #
-0.5 5:0.38311899 6:-0.35563499 10:-0.40832499 12:0.122336 25:-0.259592 28:-0.18276601 38:-0.063603997 50:-0.202632 #
0.5 5:-0.48666501 6:0.69656098 10:0.24081101 12:1.1312701 25:-0.259592 28:-0.18276601 38:-0.063603997 50:-0.333729 #
0.5 5:-0.48666501 6:-0.35563499 10:-0.40832499 12:0.86920899 25:-0.259592 28:-0.18276601 38:-0.063603997 50:-0.615345 #
-0.5 5:-0.48666501 6:-0.35563499 10:0.68902397 12:1.209888 25:-0.259592 28:-0.18276601 38:-0.063603997 50:-0.615345 #
0.5 5:0.67304701 6:-0.35563499 10:-0.0064790002 12:0.030615 25:-0.057076 28:-0.18276601 38:-0.063603997 50:-0.615345 #
0.5 5:0.499091 6:0.76232398 10:-0.40832499 12:-0.218343 25:-0.259592 28:-0.18276601 38:-0.063603997 50:0.19551399 #
-0.5 5:-0.48666501 6:-0.35563499 10:-0.40832499 12:-0.66384602 25:-0.259592 28:-0.18276601 38:-0.063603997 50:3.074791 #
0.5 5:-0.48666501 6:2.176213 10:-0.40832499 12:0.85610598 25:-0.259592 28:-0.18276601 38:-0.063603997 50:-0.324018 #
-0.5 5:0.22365899 6:-0.35563499 10:-0.40832499 12:0.63335502 25:-0.259592 28:-0.18276601 38:-0.063603997 50:-0.615345 #
0.22249909068231873976451140606514 5:0.48459399 6:-0.35563499 10:0.62720102 12:-0.66384602 25:-0.259592 28:-0.18276601 38:-0.063603997 50:-0.615345 #
0.5 5:-0.19673701 6:-0.35563499 10:0.055344 12:1.039549 25:-0.259592 28:-0.18276601 38:-0.063603997 50:0.069271997 #
-0.5 5:0.52808303 6:-0.35563499 10:-0.40832499 12:0.25336599 25:-0.259592 28:-0.18276601 38:-0.063603997 50:-0.12980101 #
-0.5 5:0.36862299 6:-0.35563499 10:-0.40832499 12:0.109233 25:-0.259592 28:-0.18276601 38:-0.063603997 50:-0.105524 #
-0.5 5:-0.48666501 6:-0.35563499 10:-0.40832499 12:1.969865 25:-0.259592 28:-0.18276601 38:-0.063603997 50:-0.615345 #
-0.5 5:1.194918 6:-0.35563499 10:1.384526 12:2.3760591 25:0.64394403 28:4.6098852 38:-0.063603997 50:1.278277 #
-0.5 5:-0.48666501 6:-0.35563499 10:-0.40832499 12:1.288507 25:-0.259592 28:-0.18276601 38:-0.063603997 50:-0.615345 #
-0.5 5:-0.48666501 6:-0.35563499 10:-0.40832499 12:1.340919 25:-0.259592 28:-0.18276601 38:-0.063603997 50:-0.615345 #
-0.5 5:-0.48666501 6:-0.35563499 10:-0.40832499 12:1.078858 25:-0.259592 28:-0.18276601 38:-0.063603997 50:1.312266 #
-0.5 5:-0.48666501 6:0.170463 10:-0.161035 12:1.222991 25:-0.134967 28:-0.18276601 38:-0.063603997 50:0.92868602 #
0.5 5:-0.48666501 6:-0.35563499 10:0.117166 12:-0.218343 25:-0.259592 28:-0.18276601 38:-0.063603997 50:1.2928441 #
0.5 5:-0.48666501 6:-0.35563499 10:-0.40832499 12:0.266469 25:-0.259592 28:-0.18276601 38:-0.063603997 50:0.67134702 #
-0.5 5:-0.48666501 6:-0.35563499 10:-0.40832499 12:1.956762 25:-0.259592 28:-0.18276601 38:-0.063603997 50:-0.615345 #
0.5 5:-0.48666501 6:-0.35563499 10:1.307248 12:-0.66384602 25:-0.259592 28:-0.18276601 38:-0.063603997 50:0.36545399 #
-0.5 5:-0.48666501 6:-0.35563499 10:1.214515 12:-0.66384602 25:-0.259592 28:-0.18276601 38:-0.063603997 50:-0.615345 #
0.5 5:0.615062 6:-0.191229 10:-0.40832499 12:-0.048004001 25:-0.259592 28:-0.18276601 38:-0.063603997 50:-0.124945 #
0.5 5:-0.48666501 6:-0.35563499 10:-0.40832499 12:-0.66384602 25:-0.259592 28:-0.18276601 38:-0.063603997 50:1.093771 #
-0.5 5:0.87599701 6:-0.35563499 10:-0.40832499 12:-0.66384602 25:-0.259592 28:-0.18276601 38:-0.063603997 50:-0.615345 #
0.5 5:-0.48666501 6:-0.35563499 10:-0.40832499 12:-0.66384602 25:-0.259592 28:1.325267 38:-0.063603997 50:0.40429801 #
-0.5 5:1.035458 6:-0.35563499 10:-0.40832499 12:-0.66384602 25:-0.259592 28:-0.18276601 38:-0.063603997 50:-0.38713899 #
0.5 5:-0.48666501 6:-0.35563499 10:-0.40832499 12:0.22716001 25:-0.259592 28:-0.18276601 38:-0.063603997 50:-0.615345 #
0.5 5:-0.48666501 6:-0.35563499 10:-0.40832499 12:-0.66384602 25:-0.259592 28:-0.18276601 38:-0.063603997 50:-0.615345 #
0.5 5:0.90499002 6:-0.35563499 10:-0.40832499 12:-0.66384602 25:-0.259592 28:-0.18276601 38:-0.063603997 50:-0.018126 #
0.5 5:-0.48666501 6:-0.35563499 10:-0.40832499 12:-0.66384602 25:-0.259592 28:1.139345 38:-0.063603997 50:0.61793703 #
-0.5 5:-0.48666501 6:-0.35563499 10:-0.40832499 12:2.4153681 25:-0.259592 28:-0.18276601 38:-0.063603997 50:0.76360101 #
-0.5 5:1.035458 6:-0.35563499 10:-0.40832499 12:-0.66384602 25:-0.259592 28:-0.18276601 38:-0.063603997 50:-0.265753 #
0.5 5:-0.48666501 6:-0.35563499 10:-0.40832499 12:0.27957299 25:-0.259592 28:0.80881703 38:-0.063603997 50:0.28291199 #
0.5 5:-0.48666501 6:-0.35563499 10:-0.40832499 12:0.82990003 25:-0.259592 28:-0.18276601 38:-0.063603997 50:-0.615345 #
-0.5 5:-0.48666501 6:-0.35563499 10:1.09087 12:-0.66384602 25:-0.259592 28:-0.18276601 38:-0.063603997 50:-0.615345 #
0.5 5:0.26714799 6:-0.35563499 10:-0.40832499 12:0.71197301 25:-0.259592 28:-0.18276601 38:-0.063603997 50:0.30718899 #
-0.5 5:-0.48666501 6:-0.35563499 10:-0.40832499 12:1.956762 25:-0.259592 28:-0.18276601 38:-0.063603997 50:-0.615345 #
-0.5 5:-0.48666501 6:0.40063101 10:-0.40832499 12:-0.061106998 25:-0.259592 28:-0.18276601 38:-0.063603997 50:-0.615345 #
-0.5 5:0.745529 6:-0.35563499 10:-0.40832499 12:-0.29696101 25:-0.259592 28:-0.18276601 38:-0.063603997 50:-0.615345 #
0.5 5:-0.48666501 6:-0.35563499 10:0.039887998 12:0.096129999 25:-0.259592 28:-0.18276601 38:1.14496 50:0.37516499 #
-0.5 5:0.44110501 6:-0.35563499 10:-0.40832499 12:0.174748 25:-0.259592 28:-0.18276601 38:-0.063603997 50:-0.615345 #
0.5 5:0.70204002 6:-0.35563499 10:-0.40832499 12:-0.66384602 25:-0.259592 28:-0.18276601 38:-0.063603997 50:-0.615345 #
0.5 5:0.38311899 6:-0.35563499 10:-0.40832499 12:-0.66384602 25:-0.259592 28:-0.18276601 38:-0.063603997 50:1.385097 #
-0.5 5:-0.48666501 6:-0.35563499 10:0.64265698 12:-0.66384602 25:-0.259592 28:-0.18276601 38:-0.063603997 50:-0.615345 #
-0.5 5:-0.48666501 6:-0.35563499 10:-0.40832499 12:-0.66384602 25:-0.259592 28:-0.18276601 38:-0.063603997 50:3.1476231 #
0.5 5:-0.48666501 6:-0.35563499 10:1.137237 12:0.64645803 25:-0.259592 28:-0.18276601 38:-0.063603997 50:-0.615345 #
0.5 5:-0.48666501 6:-0.35563499 10:-0.40832499 12:-0.66384602 25:-0.259592 28:-0.18276601 38:-0.063603997 50:-0.615345 #
-0.5 5:-0.48666501 6:-0.35563499 10:-0.40832499 12:-0.66384602 25:-0.259592 28:-0.18276601 38:-0.063603997 50:3.11849 #
-0.5 5:-0.48666501 6:-0.35563499 10:0.719935 12:-0.66384602 25:-0.259592 28:-0.18276601 38:-0.063603997 50:-0.615345 #
0.5 5:-0.48666501 6:-0.35563499 10:-0.40832499 12:0.52853 25:-0.259592 28:-0.18276601 38:-0.063603997 50:0.117827 #
-0.5 5:0.38311899 6:-0.35563499 10:-0.099212997 12:-0.66384602 25:-0.259592 28:-0.18276601 38:-0.063603997 50:-0.615345 #
0.5 5:0.42660901 6:0.203344 10:-0.052846 12:1.00024 25:-0.259592 28:-0.18276601 38:-0.063603997 50:0.37516499 #
0.5 5:0.42660901 6:0.203344 10:-0.052846 12:1.00024 25:-0.259592 28:-0.18276601 38:-0.063603997 50:0.36059901 #
-0.5 5:-0.051773001 6:-0.35563499 10:-0.40832499 12:-0.27075499 25:-0.259592 28:-0.18276601 38:-0.063603997 50:-0.41141599 #
-0.5 5:-0.48666501 6:0.46639299 10:-0.222858 12:-0.66384602 25:-0.259592 28:-0.18276601 38:-0.063603997 50:-0.52309197 #
-0.5 5:-0.080766 6:0.56503701 10:-0.40832499 12:-0.42799199 25:-0.259592 28:-0.18276601 38:-0.063603997 50:-0.53280199 #
0.5 5:-0.48666501 6:-0.35563499 10:-0.40832499 12:0.51542699 25:-0.259592 28:-0.18276601 38:-0.063603997 50:0.093549997 #
0.5 5:-0.48666501 6:-0.35563499 10:-0.40832499 12:0.083026998 25:-0.259592 28:-0.18276601 38:-0.063603997 50:-0.615345 #
-0.5 5:-0.48666501 6:-0.35563499 10:-0.40832499 12:1.956762 25:-0.259592 28:-0.18276601 38:-0.063603997 50:1.059783 #
-0.5 5:0.151177 6:-0.35563499 10:-0.40832499 12:-0.66384602 25:-0.259592 28:-0.18276601 38:-0.063603997 50:-0.615345 #
-0.5 5:-0.153248 6:0.40063101 10:-0.052846 12:-0.362477 25:-0.259592 28:-0.18276601 38:-0.063603997 50:-0.615345 #
-0.5 5:-0.153248 6:0.40063101 10:-0.40832499 12:-0.66384602 25:-0.259592 28:-0.18276601 38:-0.063603997 50:-0.217199 #
0.5 5:-0.48666501 6:-0.35563499 10:-0.40832499 12:0.161645 25:-0.259592 28:-0.18276601 38:-0.063603997 50:-0.615345 #
0.5 5:-0.48666501 6:-0.35563499 10:-0.40832499 12:0.22716001 25:-0.259592 28:-0.18276601 38:-0.063603997 50:-0.615345 #
-0.5 5:0.38311899 6:-0.35563499 10:-0.099212997 12:-0.66384602 25:-0.259592 28:-0.18276601 38:-0.063603997 50:-0.615345 #
0.5 5:0.28164399 6:0.203344 10:0.41082299 12:1.445743 25:-0.259592 28:-0.18276601 38:-0.063603997 50:-0.056968998 #
0.5 5:0.194666 6:-0.35563499 10:-0.40832499 12:-0.048004001 25:-0.259592 28:-0.18276601 38:-0.063603997 50:-0.615345 #
-0.5 5:0.76002598 6:-0.35563499 10:-0.40832499 12:-0.66384602 25:-0.259592 28:-0.18276601 38:-0.063603997 50:0.122682 #
0.5 5:-0.41418299 6:0.170463 10:-0.161035 12:0.790591 25:-0.259592 28:-0.18276601 38:-0.063603997 50:-0.197777 #
-0.5 5:-0.48666501 6:-0.35563499 10:-0.40832499 12:1.956762 25:-0.259592 28:-0.18276601 38:-0.063603997 50:-0.615345 #
0.5 5:-0.48666501 6:-0.35563499 10:-0.40832499 12:0.44991201 25:-0.259592 28:-0.18276601 38:-0.063603997 50:-0.217199 #
0.5 5:-0.240226 6:0.203344 10:0.31808901 12:0.86920899 25:-0.259592 28:-0.18276601 38:-0.063603997 50:0.030429 #
-0.5 5:-0.31270799 6:0.433512 10:-0.037390001 12:-0.66384602 25:-0.259592 28:-0.18276601 38:-0.063603997 50:-0.29003 #
-0.5 5:0.54258001 6:-0.35563499 10:-0.40832499 12:-0.66384602 25:-0.259592 28:-0.18276601 38:-0.063603997 50:-0.34829599 #
0.5 5:-0.48666501 6:-0.35563499 10:-0.40832499 12:0.607149 25:-0.259592 28:-0.18276601 38:-0.063603997 50:-0.333729 #
-0.5 5:-0.48666501 6:-0.35563499 10:-0.40832499 12:1.091961 25:-0.259592 28:-0.18276601 38:-0.063603997 50:1.778388 #
0.5 5:-0.48666501 6:-0.35563499 10:-0.40832499 12:0.436809 25:-0.259592 28:-0.18276601 38:-0.063603997 50:-0.251187 #
-0.5 5:-0.48666501 6:-0.35563499 10:-0.40832499 12:1.956762 25:-0.259592 28:-0.18276601 38:-0.063603997 50:-0.615345 #
0.5 5:0.28164399 6:-0.35563499 10:-0.40832499 12:0.72507602 25:-0.259592 28:-0.18276601 38:-0.063603997 50:0.28776699 #
-0.5 5:-0.48666501 6:-0.35563499 10:-0.40832499 12:1.956762 25:-0.259592 28:-0.18276601 38:-0.063603997 50:-0.615345 #
-0.5 5:0.035206001 6:-0.35563499 10:0.148077 12:-0.192137 25:-0.259592 28:-0.18276601 38:-0.063603997 50:-0.615345 #
0.5 5:0.25265199 6:-0.35563499 10:-0.40832499 12:0.67266399 25:-0.259592 28:-0.18276601 38:-0.063603997 50:0.30233401 #
0.5 5:-0.48666501 6:-0.35563499 10:1.106325 12:0.62025201 25:-0.259592 28:-0.18276601 38:-0.063603997 50:-0.615345 #
0.5 5:-0.48666501 6:-0.35563499 10:-0.40832499 12:0.48922101 25:-0.259592 28:-0.18276601 38:-0.063603997 50:-0.256042 #
0.5 5:-0.327205 6:0.006058 10:-0.052846 12:0.55473602 25:-0.259592 28:-0.18276601 38:-0.063603997 50:-0.0084149996 #
0.5 5:0.42660901 6:-0.35563499 10:0.56537902 12:-0.25765201 25:-0.259592 28:-0.18276601 38:-0.063603997 50:0.040139999 #
-0.5 5:-0.341701 6:-0.026823999 10:-0.40832499 12:-0.38868299 25:-0.259592 28:-0.18276601 38:-0.063603997 50:-0.53280199 #
0.5 5:-0.022779999 6:-0.35563499 10:0.58083397 12:1.013343 25:-0.259592 28:-0.18276601 38:-0.063603997 50:-0.139512 #
0.5 5:-0.48666501 6:-0.35563499 10:-0.40832499 12:0.22716001 25:-0.259592 28:-0.18276601 38:-0.063603997 50:-0.615345 #
-0.5 5:-0.48666501 6:-0.35563499 10:-0.40832499 12:1.707804 25:-0.259592 28:-0.18276601 38:-0.063603997 50:0.77331102 #
-0.5 5:0.006213 6:-0.35563499 10:-0.40832499 12:-0.218343 25:-0.259592 28:-0.18276601 38:-0.063603997 50:-0.615345 #
-0.5 5:-0.48666501 6:-0.35563499 10:-0.40832499 12:1.6684951 25:-0.259592 28:-0.18276601 38:-0.063603997 50:-0.615345 #
-0.5 5:-0.48666501 6:-0.35563499 10:-0.40832499 12:1.8519371 25:-0.259592 28:-0.18276601 38:-0.063603997 50:-0.615345 #
0.5 5:0.78901899 6:-0.35563499 10:-0.40832499 12:0.48922101 25:-0.259592 28:-0.18276601 38:-0.063603997 50:-0.615345 #
-0.5 5:-0.48666501 6:-0.35563499 10:0.225355 12:-0.12662201 25:-0.259592 28:-0.18276601 38:-0.063603997 50:-0.615345 #
0.5 5:0.80351502 6:-0.35563499 10:-0.40832499 12:0.50232399 25:-0.259592 28:-0.18276601 38:-0.063603997 50:-0.027836001 #
0.5 5:0.209162 6:-0.35563499 10:-0.40832499 12:0.59404498 25:-0.259592 28:-0.18276601 38:-0.063603997 50:-0.207488 #
0.5 5:-0.037276 6:-0.35563499 10:-0.40832499 12:0.148542 25:-0.259592 28:-0.18276601 38:-0.063603997 50:-0.37257299 #
-0.5 5:-0.48666501 6:-0.35563499 10:-0.40832499 12:1.8519371 25:-0.259592 28:-0.18276601 38:-0.063603997 50:-0.615345 #
0.5 5:-0.48666501 6:-0.35563499 10:-0.40832499 12:0.292676 25:-0.259592 28:-0.18276601 38:-0.063603997 50:-0.615345 #
0.5 5:-0.327205 6:0.006058 10:-0.052846 12:0.55473602 25:-0.259592 28:-0.18276601 38:-0.063603997 50:-0.0084149996 #
-0.5 5:0.296141 6:-0.35563499 10:-0.40832499 12:0.043717999 25:-0.259592 28:-0.18276601 38:-0.063603997 50:-0.615345 #
-0.5 5:-0.48666501 6:-0.35563499 10:0.132622 12:-0.20524 25:-0.259592 28:-0.18276601 38:-0.063603997 50:-0.615345 #
-0.5 5:-0.48666501 6:-0.35563499 10:-0.40832499 12:1.8650399 25:-0.259592 28:-0.18276601 38:-0.063603997 50:-0.50366998 #
-0.5 5:-0.48666501 6:-0.35563499 10:-0.40832499 12:1.6684951 25:-0.259592 28:-0.18276601 38:-0.063603997 50:-0.615345 #
0.5 5:-0.022779999 6:-0.35563499 10:-0.40832499 12:0.187851 25:-0.259592 28:-0.18276601 38:-0.063603997 50:-0.358006 #
-0.5 5:-0.022779999 6:-0.35563499 10:-0.40832499 12:-0.24454901 25:-0.259592 28:-0.18276601 38:-0.063603997 50:-0.33858499 #
0.5 5:0.310637 6:-0.35563499 10:0.44173399 12:-0.66384602 25:-0.259592 28:-0.18276601 38:-0.063603997 50:-0.14436699 #
0.5 5:-0.48666501 6:-0.35563499 10:0.163533 12:0.31888199 25:-0.259592 28:-0.18276601 38:-0.063603997 50:-0.615345 #
-0.5 5:-0.48666501 6:-0.35563499 10:-0.40832499 12:1.471949 25:-0.259592 28:-0.18276601 38:-0.063603997 50:-0.615345 #
0.5 5:0.45560101 6:-0.35563499 10:0.59628999 12:0.476118 25:-0.259592 28:-0.18276601 38:1.728404 50:-0.45997101 #
0.5 5:-0.066269003 6:-0.35563499 10:-0.40832499 12:0.50232399 25:-0.259592 28:-0.18276601 38:-0.063603997 50:-0.29003 #
-0.5 5:0.209162 6:-0.35563499 10:-0.40832499 12:-0.034899998 25:-0.259592 28:-0.18276601 38:-0.063603997 50:-0.615345 #
-0.5 5:-0.48666501 6:-0.35563499 10:0.225355 12:0.97403401 25:-0.259592 28:-0.18276601 38:-0.063603997 50:0.278056 #
0.5 5:0.035206001 6:-0.059705 10:-0.40832499 12:0.41060299 25:-0.259592 28:-0.18276601 38:-0.063603997 50:-0.39199501 #
0.5 5:-0.0082839997 6:-0.35563499 10:-0.40832499 12:0.20095401 25:-0.259592 28:-0.18276601 38:-0.063603997 50:-0.358006 #
0.5 5:0.209162 6:-0.35563499 10:-0.40832499 12:0.59404498 25:-0.259592 28:-0.18276601 38:-0.063603997 50:-0.207488 #
-0.5 5:-0.48666501 6:-0.35563499 10:-0.40832499 12:-0.66384602 25:-0.259592 28:-0.18276601 38:-0.063603997 50:-0.615345 #
-0.5 5:-0.124255 6:-0.35563499 10:-0.40832499 12:-0.0086939996 25:-0.259592 28:-0.18276601 38:-0.063603997 50:-0.615345 #
-0.5 5:-0.48666501 6:-0.35563499 10:-0.40832499 12:1.471949 25:-0.259592 28:-0.18276601 38:-0.063603997 50:-0.615345 #
0.5 5:0.006213 6:-0.35563499 10:-0.40832499 12:0.240263 25:-0.259592 28:-0.18276601 38:-0.063603997 50:-0.34344 #
0.5 5:-0.022779999 6:-0.35563499 10:-0.40832499 12:0.174748 25:-0.259592 28:-0.18276601 38:-0.063603997 50:-0.615345 #
0.5 5:0.035206001 6:-0.35563499 10:-0.40832499 12:0.292676 25:-0.259592 28:-0.18276601 38:-0.063603997 50:-0.615345 #
-0.5 5:-0.48666501 6:-0.35563499 10:-0.40832499 12:-0.37558001 25:-0.259592 28:-0.18276601 38:-0.063603997 50:-0.615345 #
0.5 5:0.23815501 6:-0.35563499 10:-0.40832499 12:0.331985 25:-0.259592 28:-0.18276601 38:-0.063603997 50:-0.41627201 #
0.5 5:0.25265199 6:-0.35563499 10:-0.40832499 12:0.68576699 25:-0.259592 28:-0.18276601 38:-0.063603997 50:-0.615345 #
-0.5 5:-0.167744 6:0.36774999 10:0.28717801 12:0.51542699 25:0.26227799 28:1.201319 38:-0.063603997 50:-0.615345 #
-0.5 5:0.006213 6:-0.35563499 10:-0.40832499 12:1.1312701 25:-0.259592 28:-0.18276601 38:-0.063603997 50:0.51111799 #
-0.5 5:-0.26921901 6:-0.35563499 10:-0.40832499 12:1.1443731 25:-0.259592 28:-0.18276601 38:-0.063603997 50:-0.163789 #
0.5 5:-0.48666501 6:-0.35563499 10:-0.40832499 12:-0.66384602 25:-0.259592 28:-0.18276601 38:-0.063603997 50:1.088915 #
0.5 5:-0.48666501 6:-0.35563499 10:-0.40832499 12:-0.66384602 25:-0.259592 28:-0.18276601 38:-0.063603997 50:1.08406 #
0.5 5:-0.48666501 6:-0.35563499 10:-0.40832499 12:0.083026998 25:-0.259592 28:-0.18276601 38:-0.063603997 50:-0.134656 #
0.5 5:-0.48666501 6:-0.35563499 10:-0.40832499 12:0.44991201 25:-0.259592 28:-0.18276601 38:-0.063603997 50:0.093549997 #
-0.5 5:0.499091 6:-0.35563499 10:-0.40832499 12:-0.66384602 25:-0.259592 28:-0.18276601 38:-0.063603997 50:0.224647 #
0.5 5:-0.48666501 6:-0.35563499 10:-0.40832499 12:-0.034899998 25:-0.259592 28:-0.18276601 38:-0.063603997 50:-0.197777 #
0.5 5:-0.48666501 6:-0.35563499 10:-0.021934999 12:0.64645803 25:-0.259592 28:-0.18276601 38:-0.063603997 50:0.26348999 #
-0.5 5:0.42660901 6:-0.35563499 10:-0.40832499 12:-0.66384602 25:-0.259592 28:-0.18276601 38:-0.063603997 50:0.064416997 #
-0.5 5:-0.48666501 6:-0.35563499 10:-0.40832499 12:1.747113 25:-0.259592 28:-0.18276601 38:-0.063603997 50:0.151815 #
-0.5 5:-0.48666501 6:-0.35563499 10:1.508171 12:-0.66384602 25:-0.259592 28:-0.18276601 38:-0.063603997 50:1.249145 #
-0.5 5:-0.48666501 6:-0.35563499 10:-0.40832499 12:1.445743 25:-0.259592 28:-0.18276601 38:-0.063603997 50:-0.615345 #
-0.5 5:0.006213 6:-0.35563499 10:0.658113 12:-0.362477 25:-0.259592 28:-0.18276601 38:-0.063603997 50:0.127538 #
0.5 5:-0.341701 6:-0.191229 10:-0.40832499 12:-0.27075499 25:-0.22064701 28:-0.18276601 38:-0.063603997 50:-0.39684999 #
-0.5 5:-0.18224099 6:-0.35563499 10:-0.40832499 12:-0.66384602 25:-0.259592 28:-0.18276601 38:-0.063603997 50:-0.615345 #
0.5 5:-0.48666501 6:-0.35563499 10:0.117166 12:-0.218343 25:-0.259592 28:-0.18276601 38:-0.063603997 50:1.2928441 #
0.5 5:-0.48666501 6:-0.35563499 10:-0.40832499 12:-0.66384602 25:-0.259592 28:-0.18276601 38:-0.063603997 50:-0.615345 #
-0.5 5:-0.48666501 6:-0.35563499 10:1.059958 12:-0.66384602 25:-0.259592 28:-0.18276601 38:-0.063603997 50:0.219791 #
-0.5 5:-0.48666501 6:-0.35563499 10:0.889947 12:0.436809 25:-0.259592 28:-0.18276601 38:-0.063603997 50:0.035284001 #
0.5 5:-0.48666501 6:-0.35563499 10:-0.40832499 12:-0.66384602 25:-0.259592 28:-0.18276601 38:-0.063603997 50:1.025794 #
0.5 5:-0.48666501 6:-0.35563499 10:-0.40832499 12:-0.66384602 25:-0.259592 28:-0.18276601 38:-0.063603997 50:0.85585397 #
-0.5 5:0.48459399 6:-0.35563499 10:-0.40832499 12:-0.66384602 25:-0.259592 28:-0.18276601 38:-0.063603997 50:0.79273301 #
0.5 5:-0.48666501 6:-0.35563499 10:0.10171 12:0.214057 25:-0.259592 28:-0.18276601 38:-0.063603997 50:0.74417901 #
0.5 5:-0.051773001 6:0.30198801 10:0.20990001 12:1.43264 25:-0.259592 28:-0.18276601 38:-0.063603997 50:-0.43569401 #
0.5 5:-0.066269003 6:0.26910701 10:0.194444 12:1.4064341 25:-0.259592 28:-0.18276601 38:-0.063603997 50:-0.43569401 #
-0.5 5:-0.48666501 6:-0.35563499 10:0.148077 12:-0.66384602 25:-0.259592 28:-0.18276601 38:-0.063603997 50:-0.615345 #
-0.5 5:-0.19673701 6:-0.026823999 10:-0.40832499 12:-0.53281599 25:-0.259592 28:-0.18276601 38:-0.063603997 50:-0.34829599 #
0.5 5:-0.48666501 6:-0.35563499 10:-0.40832499 12:-0.323167 25:-0.259592 28:-0.18276601 38:-0.063603997 50:-0.40656099 #
-0.5 5:-0.48666501 6:-0.35563499 10:-0.40832499 12:1.707804 25:-0.259592 28:-0.18276601 38:-0.063603997 50:0.15667 #
0.5 5:-0.48666501 6:-0.35563499 10:-0.40832499 12:-0.25765201 25:-0.259592 28:-0.18276601 38:-0.063603997 50:-0.615345 #
-0.5 5:-0.48666501 6:-0.35563499 10:0.0089769997 12:-0.66384602 25:-0.259592 28:-0.18276601 38:-0.063603997 50:-0.615345 #
-0.5 5:-0.48666501 6:-0.35563499 10:-0.40832499 12:-0.66384602 25:-0.259592 28:-0.18276601 38:-0.063603997 50:-0.615345 #
0.5 5:-0.48666501 6:0.006058 10:0.132622 12:0.56783903 25:-0.259592 28:-0.18276601 38:-0.063603997 50:0.51597297 #
0.5 5:-0.48666501 6:-0.35563499 10:-0.40832499 12:-0.139725 25:-0.259592 28:-0.18276601 38:-0.063603997 50:-0.615345 #
0.5 5:-0.48666501 6:-0.35563499 10:-0.40832499 12:-0.12662201 25:-0.259592 28:-0.18276601 38:-0.063603997 50:-0.285175 #
-0.5 5:-0.48666501 6:-0.35563499 10:-0.40832499 12:-0.66384602 25:-0.259592 28:-0.18276601 38:-0.063603997 50:-0.615345 #
0.5 5:-0.48666501 6:0.69656098 10:0.24081101 12:1.1312701 25:-0.259592 28:-0.18276601 38:-0.063603997 50:-0.333729 #
-0.5 5:-0.48666501 6:-0.35563499 10:-0.40832499 12:-0.66384602 25:-0.259592 28:-0.18276601 38:-0.063603997 50:-0.615345 #
0.5 5:0.310637 6:-0.35563499 10:0.44173399 12:-0.66384602 25:-0.259592 28:-0.18276601 38:-0.063603997 50:-0.134656 #
-0.5 5:0.33963001 6:-0.35563499 10:-0.40832499 12:-0.29696101 25:-0.259592 28:-0.18276601 38:-0.063603997 50:0.132393 #
0.5 5:-0.48666501 6:-0.35563499 10:-0.099212997 12:-0.139725 25:-0.259592 28:-0.18276601 38:-0.063603997 50:-0.29488599 #
-0.5 5:-0.48666501 6:-0.35563499 10:-0.40832499 12:1.4064341 25:-0.259592 28:-0.18276601 38:-0.063603997 50:-0.01327 #
0.5 5:-0.48666501 6:-0.35563499 10:-0.40832499 12:0.27957299 25:-0.259592 28:-0.18276601 38:-0.063603997 50:-0.0035590001 #
-0.5 5:-0.48666501 6:-0.35563499 10:-0.40832499 12:-0.66384602 25:-0.259592 28:-0.18276601 38:-0.063603997 50:-0.615345 #
-0.5 5:0.35412601 6:-0.35563499 10:-0.40832499 12:-0.66384602 25:-0.259592 28:-0.18276601 38:-0.063603997 50:0.185803 #
0.5 5:-0.037276 6:-0.35563499 10:-0.40832499 12:0.148542 25:-0.259592 28:-0.18276601 38:-0.063603997 50:0.088693999 #
0.5 5:0.55707598 6:-0.35563499 10:-0.40832499 12:-0.034899998 25:-0.259592 28:-0.18276601 38:-0.063603997 50:-0.615345 #
0.5 5:-0.48666501 6:-0.35563499 10:-0.40832499 12:0.148542 25:-0.259592 28:-0.18276601 38:-0.063603997 50:-0.39684999 #
0.5 5:-0.26921901 6:0.137582 10:0.24081101 12:0.58094198 25:-0.259592 28:-0.18276601 38:-0.063603997 50:0.278056 #
0.5 5:-0.341701 6:-0.191229 10:-0.40832499 12:-0.27075499 25:-0.22064701 28:-0.18276601 38:-0.063603997 50:-0.44054899 #
0.5 5:-0.48666501 6:-0.35563499 10:-0.40832499 12:0.030615 25:-0.259592 28:-0.18276601 38:-0.063603997 50:-0.192921 #
-0.5 5:-0.48666501 6:-0.35563499 10:-0.40832499 12:-0.25765201 25:-0.259592 28:-0.18276601 38:-0.063603997 50:-0.32887399 #
-0.5 5:-0.48666501 6:-0.35563499 10:-0.40832499 12:-0.66384602 25:-0.259592 28:-0.18276601 38:-0.063603997 50:-0.615345 #
0.5 5:0.55707598 6:-0.35563499 10:-0.40832499 12:-0.66384602 25:-0.259592 28:-0.18276601 38:-0.063603997 50:1.152036 #
0.5 5:-0.48666501 6:-0.35563499 10:-0.40832499 12:-0.12662201 25:-0.259592 28:-0.18276601 38:-0.063603997 50:-0.285175 #
-0.5 5:-0.48666501 6:-0.35563499 10:-0.40832499 12:1.170579 25:-0.259592 28:-0.18276601 38:-0.063603997 50:-0.615345 #
0.5 5:-0.48666501 6:-0.35563499 10:0.364456 12:-0.0086939996 25:-0.259592 28:-0.18276601 38:-0.063603997 50:0.68105799 #
-0.5 5:0.310637 6:-0.35563499 10:1.291793 12:-0.66384602 25:0.168808 28:-0.18276601 38:-0.063603997 50:1.108337 #
0.5 5:-0.341701 6:-0.026823999 10:-0.40832499 12:0.174748 25:-0.259592 28:-0.18276601 38:-0.063603997 50:-0.377428 #
-0.5 5:-0.48666501 6:-0.35563499 10:0.61174601 12:-0.66384602 25:-0.259592 28:-0.18276601 38:-0.063603997 50:-0.081246004 #
-0.5 5:0.078694999 6:-0.35563499 10:0.194444 12:-0.66384602 25:-0.259592 28:-0.18276601 38:-0.063603997 50:0.093549997 #
-0.5 5:0.26714799 6:-0.35563499 10:-0.40832499 12:-0.66384602 25:-0.259592 28:-0.18276601 38:-0.063603997 50:-0.066679999 #
-0.5 5:-0.48666501 6:-0.35563499 10:-0.40832499 12:1.340919 25:-0.259592 28:-0.18276601 38:-0.063603997 50:-0.615345 #
-0.5 5:-0.48666501 6:-0.35563499 10:-0.40832499 12:1.380228 25:-0.259592 28:-0.18276601 38:-0.063603997 50:-0.251187 #
0.5 5:-0.48666501 6:0.69656098 10:0.24081101 12:1.1312701 25:-0.259592 28:-0.18276601 38:-0.063603997 50:-0.333729 #
0.5 5:-0.48666501 6:2.044688 10:0.148077 12:-0.192137 25:-0.259592 28:-0.18276601 38:-0.063603997 50:-0.076390997 #
-0.5 5:-0.48666501 6:-0.35563499 10:0.48810101 12:-0.66384602 25:-0.259592 28:-0.18276601 38:-0.063603997 50:-0.21234301 #
-0.5 5:-0.48666501 6:-0.35563499 10:0.73539102 12:-0.66384602 25:-0.259592 28:-0.18276601 38:-0.063603997 50:0.574238 #
0.5 5:-0.341701 6:-0.191229 10:-0.40832499 12:-0.27075499 25:-0.22064701 28:-0.18276601 38:-0.063603997 50:-0.44054899 #
-0.5 5:0.13668001 6:-0.35563499 10:-0.40832499 12:-0.66384602 25:-0.259592 28:-0.18276601 38:-0.063603997 50:-0.231765 #
-0.5 5:0.209162 6:-0.35563499 10:-0.40832499 12:-0.66384602 25:-0.259592 28:-0.18276601 38:-0.063603997 50:0.112971 #
0.5 5:0.28164399 6:-0.35563499 10:0.41082299 12:-0.66384602 25:-0.259592 28:-0.18276601 38:-0.063603997 50:1.011228 #
0.5 5:0.73103303 6:-0.35563499 10:-0.40832499 12:-0.66384602 25:-0.259592 28:-0.18276601 38:-0.063603997 50:1.268567 #
0.5 5:-0.31270799 6:0.46639299 10:-0.40832499 12:-0.33627 25:-0.259592 28:-0.18276601 38:-0.063603997 50:-0.50852501 #
0.5 5:-0.48666501 6:-0.35563499 10:-0.40832499 12:-0.048004001 25:-0.259592 28:-0.18276601 38:-0.063603997 50:-0.265753 #
-0.5 5:-0.48666501 6:-0.35563499 10:-0.40832499 12:1.288507 25:-0.259592 28:-0.18276601 38:-0.063603997 50:0.54025 #
0.5 5:0.151177 6:1.091135 10:-0.40832499 12:-0.087312996 25:-0.259592 28:-0.18276601 38:-0.063603997 50:-0.615345 #
-0.5 5:-0.48666501 6:-0.35563499 10:-0.40832499 12:1.026446 25:-0.259592 28:-0.18276601 38:-0.063603997 50:-0.615345 #
0.5 5:-0.48666501 6:0.92672902 10:-0.40832499 12:0.37129399 25:-0.259592 28:-0.18276601 38:-0.063603997 50:-0.31916299 #
-0.5 5:-0.48666501 6:-0.35563499 10:0.56537902 12:-0.66384602 25:-0.259592 28:-0.18276601 38:-0.063603997 50:0.37516499 #
-0.5 5:-0.48666501 6:-0.35563499 10:-0.40832499 12:1.105064 25:-0.259592 28:-0.18276601 38:-0.063603997 50:-0.615345 #
-0.5 5:-0.48666501 6:0.334869 10:-0.40832499 12:-0.66384602 25:-0.259592 28:-0.18276601 38:-0.063603997 50:0.234357 #
0.5 5:-0.38519001 6:-0.25699201 10:-0.25376901 12:0.030615 25:-0.259592 28:-0.18276601 38:-0.063603997 50:-0.27060899 #
0.5 5:-0.25472301 6:0.170463 10:0.086254999 12:-0.034899998 25:-0.259592 28:-0.18276601 38:-0.063603997 50:1.08406 #
0.5 5:0.064198002 6:0.893848 10:0.17898799 12:1.340919 25:-0.259592 28:-0.18276601 38:-0.063603997 50:-0.01327 #
0.5 5:-0.48666501 6:-0.35563499 10:-0.40832499 12:0.083026998 25:-0.259592 28:0.39565799 38:-0.063603997 50:-0.115234 #
0.5 5:-0.48666501 6:-0.35563499 10:0.99813598 12:-0.66384602 25:-0.259592 28:-0.18276601 38:-0.063603997 50:0.61793703 #
0.5 5:0.23815501 6:-0.35563499 10:0.364456 12:-0.66384602 25:-0.259592 28:-0.18276601 38:-0.063603997 50:1.118048 #
-0.5 5:-0.48666501 6:-0.35563499 10:-0.40832499 12:1.118167 25:-0.259592 28:-0.18276601 38:-0.063603997 50:-0.615345 #
-0.5 5:-0.48666501 6:-0.35563499 10:1.0754139 12:-0.66384602 25:-0.259592 28:-0.18276601 38:-0.063603997 50:0.97238499 #
0.5 5:-0.341701 6:-0.026823999 10:-0.40832499 12:0.148542 25:-0.259592 28:-0.18276601 38:-0.063603997 50:-0.38228399 #
-0.5 5:-0.48666501 6:0.26910701 10:-0.40832499 12:0.096129999 25:-0.259592 28:-0.18276601 38:-0.063603997 50:0.54510599 #
-0.5 5:-0.48666501 6:-0.35563499 10:-0.40832499 12:-0.66384602 25:-0.259592 28:-0.18276601 38:-0.063603997 50:-0.615345 #
-0.5 5:-0.48666501 6:-0.35563499 10:-0.40832499 12:1.026446 25:-0.259592 28:-0.18276601 38:-0.063603997 50:-0.615345 #
0.5 5:-0.066269003 6:-0.35563499 10:0.25626701 12:-0.66384602 25:-0.259592 28:-0.18276601 38:-0.063603997 50:-0.615345 #
-0.5 5:-0.48666501 6:-0.35563499 10:0.10171 12:-0.66384602 25:-0.259592 28:-0.18276601 38:-0.063603997 50:-0.324018 #
0.5 5:-0.48666501 6:1.189778 10:-0.052846 12:0.89541501 25:-0.259592 28:-0.18276601 38:-0.063603997 50:-0.615345 #
0.5 5:-0.48666501 6:0.92672902 10:-0.40832499 12:-0.15282799 25:-0.259592 28:-0.18276601 38:-0.063603997 50:-0.615345 #
0.5 5:-0.48666501 6:-0.35563499 10:0.50355601 12:0.109233 25:-0.259592 28:-0.18276601 38:-0.063603997 50:0.63250399 #
-0.5 5:-0.48666501 6:-0.35563499 10:0.10171 12:-0.66384602 25:-0.259592 28:-0.18276601 38:-0.063603997 50:-0.071534999 #
-0.5 5:0.499091 6:-0.35563499 10:0.117166 12:-0.66384602 25:0.0052370001 28:-0.18276601 38:-0.063603997 50:-0.615345 #
0.5 5:-0.211233 6:0.006058 10:0.549923 12:0.34508801 25:-0.259592 28:-0.18276601 38:-0.063603997 50:-0.24633101 #
-0.5 5:-0.26921901 6:-0.35563499 10:-0.17649101 12:-0.061106998 25:-0.259592 28:-0.18276601 38:-0.063603997 50:0.049851 #
0.5 5:-0.48666501 6:-0.35563499 10:1.86365 12:-0.66384602 25:-0.259592 28:-0.18276601 38:-0.063603997 50:0.074128002 #
-0.5 5:-0.48666501 6:-0.35563499 10:-0.40832499 12:1.4064341 25:-0.259592 28:-0.18276601 38:-0.063603997 50:0.77816701 #
-0.5 5:-0.48666501 6:-0.35563499 10:0.70447898 12:-0.66384602 25:-0.259592 28:-0.18276601 38:-0.063603997 50:1.79781 #
-0.5 5:-0.48666501 6:-0.35563499 10:-0.40832499 12:-0.66384602 25:-0.259592 28:-0.18276601 38:-0.063603997 50:0.66163599 #
-0.5 5:-0.48666501 6:-0.35563499 10:-0.40832499 12:-0.66384602 25:-0.259592 28:-0.18276601 38:-0.063603997 50:-0.615345 #
0.5 5:0.122184 6:-0.092586003 10:-0.28468001 12:0.122336 25:-0.259592 28:-0.18276601 38:-0.063603997 50:-0.222054 #
0.5 5:-0.138751 6:-0.35563499 10:-0.40832499 12:-0.021796999 25:-0.259592 28:-0.18276601 38:-0.063603997 50:-0.615345 #
-0.5 5:-0.138751 6:-0.35563499 10:-0.40832499 12:-0.34937301 25:-0.259592 28:-0.18276601 38:-0.063603997 50:0.33146599 #
-0.5 5:-0.240226 6:-0.35563499 10:-0.40832499 12:-0.218343 25:-0.259592 28:-0.18276601 38:-0.063603997 50:-0.30459699 #
0.5 5:-0.356197 6:-0.059705 10:-0.26922399 12:0.240263 25:-0.259592 28:-0.18276601 38:-0.063603997 50:-0.285175 #
-0.5 5:-0.48666501 6:-0.35563499 10:-0.40832499 12:1.013343 25:-0.259592 28:-0.18276601 38:-0.063603997 50:-0.615345 #
0.5 5:0.68754399 6:-0.35563499 10:0.20990001 12:-0.66384602 25:-0.259592 28:-0.18276601 38:-0.063603997 50:0.57909399 #
0.5 5:-0.28371501 6:0.104701 10:-0.40832499 12:-0.100416 25:-0.259592 28:-0.18276601 38:-0.063603997 50:-0.615345 #
-0.5 5:-0.48666501 6:-0.35563499 10:1.322704 12:0.069923997 25:0.176597 28:2.130928 38:-0.063603997 50:0.89469802 #
-0.5 5:-0.48666501 6:-0.35563499 10:-0.083756998 12:-0.66384602 25:-0.259592 28:-0.18276601 38:-0.063603997 50:-0.333729 #
0.5 5:-0.48666501 6:-0.35563499 10:1.044503 12:-0.66384602 25:-0.259592 28:-0.18276601 38:-0.063603997 50:-0.615345 #
-0.5 5:-0.356197 6:-0.35563499 10:-0.40832499 12:-0.66384602 25:-0.259592 28:-0.18276601 38:-0.063603997 50:-0.052113999 #
-0.5 5:-0.48666501 6:-0.35563499 10:-0.40832499 12:-0.66384602 25:-0.259592 28:-0.18276601 38:-0.063603997 50:-0.615345 #
0.5 5:0.049702 6:-0.35563499 10:0.73539102 12:0.30577901 25:-0.259592 28:-0.18276601 38:-0.063603997 50:0.80244398 #
-0.5 5:-0.48666501 6:-0.35563499 10:-0.40832499 12:-0.66384602 25:-0.259592 28:-0.18276601 38:-0.063603997 50:2.8757181 #
-0.5 5:-0.48666501 6:-0.35563499 10:-0.40832499 12:0.97403401 25:-0.259592 28:-0.18276601 38:-0.063603997 50:-0.615345 #
-0.5 5:-0.48666501 6:0.071819998 10:-0.40832499 12:-0.493507 25:-0.259592 28:-0.18276601 38:-0.063603997 50:-0.31916299 #
-0.5 5:-0.48666501 6:-0.35563499 10:-0.40832499 12:0.90851802 25:-0.259592 28:-0.18276601 38:-0.063603997 50:-0.615345 #
0.5 5:-0.48666501 6:-0.35563499 10:-0.40832499 12:-0.66384602 25:-0.259592 28:-0.18276601 38:-0.063603997 50:0.70047998 #
0.5 5:-0.48666501 6:-0.35563499 10:0.84358001 12:0.39750001 25:-0.259592 28:-0.18276601 38:-0.063603997 50:-0.615345 #
0.5 5:-0.48666501 6:-0.35563499 10:-0.26922399 12:0.109233 25:-0.259592 28:-0.18276601 38:-0.063603997 50:0.68105799 #
0.5 5:-0.48666501 6:-0.35563499 10:-0.40832499 12:-0.66384602 25:-0.259592 28:-0.18276601 38:-0.063603997 50:-0.615345 #
0.5 5:-0.48666501 6:-0.35563499 10:-0.40832499 12:-0.12662201 25:-0.259592 28:-0.18276601 38:-0.063603997 50:0.030429 #
0.5 5:-0.22573 6:-0.35563499 10:-0.40832499 12:0.069923997 25:-0.259592 28:-0.18276601 38:-0.063603997 50:0.72961301 #
0.5 5:-0.48666501 6:-0.35563499 10:-0.40832499 12:-0.66384602 25:-0.259592 28:-0.18276601 38:-0.063603997 50:0.73446798 #
0.5 5:-0.48666501 6:-0.35563499 10:1.013592 12:0.54163301 25:-0.259592 28:-0.18276601 38:-0.063603997 50:-0.12980101 #
-0.5 5:-0.48666501 6:-0.35563499 10:-0.40832499 12:-0.66384602 25:-0.259592 28:-0.18276601 38:-0.063603997 50:-0.615345 #
0.5 5:-0.48666501 6:-0.35563499 10:0.364456 12:0.31888199 25:-0.259592 28:-0.18276601 38:-0.063603997 50:0.25863501 #
-0.5 5:-0.48666501 6:-0.35563499 10:-0.40832499 12:-0.66384602 25:-0.259592 28:-0.18276601 38:-0.063603997 50:-0.615345 #
-0.06479278424906104172364962323627 5:-0.48666501 6:-0.35563499 10:-0.40832499 12:-0.66384602 25:-0.259592 28:-0.18276601 38:-0.063603997 50:0.112971 #
-0.5 5:-0.48666501 6:-0.35563499 10:-0.40832499 12:-0.66384602 25:-0.259592 28:-0.18276601 38:-0.063603997 50:-0.615345 #
-0.5 5:-0.48666501 6:-0.35563499 10:0.28717801 12:-0.66384602 25:-0.259592 28:-0.18276601 38:-0.063603997 50:0.48684001 #
-0.5 5:-0.48666501 6:-0.35563499 10:0.225355 12:-0.66384602 25:-0.259592 28:-0.18276601 38:-0.063603997 50:0.982095 #
-0.5 5:-0.48666501 6:-0.35563499 10:-0.40832499 12:0.89541501 25:-0.259592 28:-0.18276601 38:-0.063603997 50:-0.615345 #
-0.5 5:-0.48666501 6:-0.35563499 10:-0.40832499 12:0.85610598 25:-0.259592 28:-0.18276601 38:-0.063603997 50:-0.615345 #
0.5 5:-0.48666501 6:-0.35563499 10:2.1882181 12:-0.66384602 25:-0.259592 28:-0.18276601 38:-0.063603997 50:-0.615345 #
0.5 5:-0.48666501 6:-0.35563499 10:-0.40832499 12:-0.66384602 25:-0.259592 28:-0.18276601 38:-0.063603997 50:-0.615345 #
0.5 5:-0.48666501 6:-0.35563499 10:-0.40832499 12:-0.66384602 25:-0.259592 28:-0.18276601 38:-0.063603997 50:0.68591398 #
0.5 5:-0.48666501 6:-0.35563499 10:-0.40832499 12:-0.66384602 25:-0.259592 28:-0.18276601 38:-0.063603997 50:0.41886401 #
0.5 5:1.165925 6:-0.35563499 10:0.17898799 12:-0.66384602 25:0.036394 28:-0.18276601 38:-0.063603997 50:-0.615345 #
-0.5 5:-0.48666501 6:-0.35563499 10:-0.40832499 12:-0.66384602 25:-0.259592 28:-0.18276601 38:-0.063603997 50:-0.615345 #
-0.5 5:-0.48666501 6:-0.35563499 10:-0.40832499 12:1.026446 25:-0.259592 28:-0.18276601 38:-0.063603997 50:-0.105524 #
-0.5 5:-0.48666501 6:-0.35563499 10:-0.40832499 12:1.170579 25:-0.259592 28:-0.18276601 38:-0.063603997 50:0.67620301 #
-0.5 5:-0.48666501 6:-0.35563499 10:-0.40832499 12:0.85610598 25:-0.259592 28:-0.18276601 38:-0.063603997 50:-0.615345 #
0.5 5:-0.48666501 6:2.2419751 10:-0.40832499 12:-0.66384602 25:-0.259592 28:-0.18276601 38:-0.063603997 50:0.506262 #
0.5 5:-0.48666501 6:-0.35563499 10:0.426278 12:0.043717999 25:-0.259592 28:-0.18276601 38:-0.063603997 50:-0.615345 #
-0.5 5:-0.48666501 6:-0.35563499 10:-0.40832499 12:-0.66384602 25:-0.259592 28:-0.18276601 38:-0.063603997 50:-0.615345 #
0.5 5:-0.48666501 6:-0.35563499 10:-0.145579 12:0.017511999 25:-0.259592 28:-0.18276601 38:-0.063603997 50:0.078983001 #
0.5 5:-0.48666501 6:0.53215599 10:-0.40832499 12:-0.31006399 25:-0.259592 28:0.93276501 38:-0.063603997 50:0.481985 #
-0.5 5:-0.48666501 6:-0.35563499 10:-0.40832499 12:-0.66384602 25:-0.259592 28:-0.18276601 38:-0.063603997 50:2.8757181 #
-0.5 5:-0.48666501 6:-0.35563499 10:-0.40832499 12:-0.66384602 25:-0.259592 28:-0.18276601 38:-0.063603997 50:2.802886 #
0.5 5:-0.48666501 6:-0.35563499 10:-0.40832499 12:-0.66384602 25:-0.259592 28:-0.18276601 38:-0.063603997 50:0.414009 #
-0.5 5:-0.48666501 6:-0.35563499 10:-0.40832499 12:1.170579 25:-0.259592 28:-0.18276601 38:-0.063603997 50:0.68105799 #
0.5 5:0.13668001 6:-0.35563499 10:0.59628999 12:-0.66384602 25:-0.096020997 28:-0.18276601 38:-0.063603997 50:-0.615345 #
0.5 5:-0.29821199 6:0.30198801 10:1.353615 12:0.73817903 25:-0.259592 28:-0.18276601 38:-0.063603997 50:-0.18806601 #
-0.5 5:-0.38519001 6:0.006058 10:-0.361958 12:-0.57212502 25:-0.23622499 28:-0.18276601 38:0.228118 50:-0.37257299 #
-0.5 5:-0.48666501 6:-0.35563499 10:-0.40832499 12:-0.66384602 25:-0.259592 28:-0.18276601 38:-0.063603997 50:-0.615345 #
-0.5 5:-0.48666501 6:-0.35563499 10:-0.40832499 12:-0.66384602 25:-0.259592 28:-0.18276601 38:-0.063603997 50:2.7203441 #
-0.5 5:-0.25472301 6:-0.35563499 10:-0.161035 12:-0.454198 25:-0.259592 28:-0.18276601 38:-0.063603997 50:1.20059 #
0.5 5:-0.167744 6:-0.35563499 10:-0.238313 12:-0.231446 25:-0.259592 28:-0.18276601 38:0.39481699 50:0.14695901 #
-0.5 5:-0.48666501 6:-0.35563499 10:-0.40832499 12:-0.66384602 25:-0.259592 28:-0.18276601 38:-0.063603997 50:-0.615345 #
-0.5 5:-0.0082839997 6:-0.35563499 10:-0.40832499 12:-0.231446 25:-0.0025520001 28:1.201319 38:-0.063603997 50:0.025573 #
0.5 5:-0.48666501 6:-0.35563499 10:-0.40832499 12:-0.66384602 25:-0.259592 28:-0.18276601 38:-0.063603997 50:-0.615345 #
-0.18560480994078354388676643793588 5:-0.48666501 6:-0.35563499 10:-0.40832499 12:-0.66384602 25:-0.259592 28:-0.18276601 38:-0.063603997 50:-0.615345 #
0.5 5:-0.48666501 6:-0.35563499 10:-0.40832499 12:-0.66384602 25:-0.259592 28:-0.18276601 38:-0.063603997 50:0.414009 #
0.5 5:-0.48666501 6:-0.35563499 10:-0.40832499 12:-0.66384602 25:-0.259592 28:-0.18276601 38:-0.063603997 50:0.39458701 #
-0.5 5:-0.48666501 6:-0.35563499 10:-0.40832499 12:-0.66384602 25:-0.259592 28:-0.18276601 38:-0.063603997 50:0.49655101 #
0.5 5:-0.48666501 6:-0.35563499 10:-0.40832499 12:-0.66384602 25:-0.259592 28:-0.18276601 38:-0.063603997 50:-0.615345 #
-0.5 5:-0.31270799 6:-0.289873 10:-0.222858 12:-0.27075499 25:-0.259592 28:-0.18276601 38:-0.063603997 50:0.47713 #
0.5 5:-0.48666501 6:-0.35563499 10:-0.40832499 12:-0.66384602 25:-0.259592 28:-0.18276601 38:-0.063603997 50:0.39458701 #
-0.5 5:-0.48666501 6:-0.35563499 10:-0.40832499 12:-0.66384602 25:-0.259592 28:-0.18276601 38:-0.063603997 50:-0.615345 #
0.5 5:0.078694999 6:0.26910701 10:0.194444 12:1.3933311 25:-0.259592 28:-0.18276601 38:-0.063603997 50:-0.43569401 #
0.5 5:-0.48666501 6:-0.35563499 10:-0.40832499 12:-0.66384602 25:-0.259592 28:-0.18276601 38:-0.063603997 50:0.389732 #
-0.5 5:-0.48666501 6:-0.35563499 10:0.10171 12:-0.231446 25:-0.259592 28:-0.18276601 38:-0.063603997 50:0.74417901 #
0.5 5:-0.48666501 6:0.82808602 10:0.148077 12:0.292676 25:-0.259592 28:-0.18276601 38:-0.063603997 50:0.27320099 #
0.5 5:0.064198002 6:0.893848 10:-0.40832499 12:-0.66384602 25:-0.259592 28:-0.18276601 38:-0.063603997 50:-0.615345 #
-0.5 5:-0.48666501 6:-0.35563499 10:-0.40832499 12:0.65956098 25:-0.259592 28:-0.18276601 38:-0.063603997 50:-0.615345 #
0.5 5:-0.48666501 6:-0.35563499 10:-0.40832499 12:-0.66384602 25:-0.259592 28:-0.18276601 38:-0.063603997 50:0.389732 #
-0.5 5:-0.48666501 6:-0.35563499 10:-0.40832499 12:-0.66384602 25:-0.259592 28:-0.18276601 38:-0.063603997 50:-0.615345 #
0.5 5:1.165925 6:-0.35563499 10:0.17898799 12:-0.66384602 25:0.036394 28:-0.18276601 38:-0.063603997 50:-0.615345 #
0.5 5:-0.48666501 6:-0.35563499 10:-0.40832499 12:-0.66384602 25:-0.259592 28:-0.18276601 38:-0.063603997 50:0.36059901 #
-0.5 5:-0.48666501 6:-0.35563499 10:-0.40832499 12:1.013343 25:-0.259592 28:-0.18276601 38:-0.063603997 50:0.26834601 #
-0.5 5:-0.48666501 6:-0.35563499 10:-0.40832499 12:1.013343 25:-0.259592 28:-0.18276601 38:-0.063603997 50:0.48684001 #
0.5 5:0.42660901 6:0.40063101 10:-0.052846 12:0.056821 25:-0.259592 28:-0.18276601 38:-0.063603997 50:-0.55707997 #
0.5 5:-0.48666501 6:-0.35563499 10:-0.40832499 12:-0.66384602 25:-0.259592 28:-0.18276601 38:-0.063603997 50:0.35574299 #
0.5 5:-0.48666501 6:-0.35563499 10:-0.40832499 12:-0.66384602 25:-0.259592 28:-0.18276601 38:-0.063603997 50:0.34117699 #
0.5 5:0.078694999 6:-0.35563499 10:-0.114668 12:-0.15282799 25:-0.259592 28:1.036055 38:-0.063603997 50:-0.256042 #
-0.5 5:-0.48666501 6:-0.35563499 10:-0.40832499 12:0.59404498 25:-0.259592 28:-0.18276601 38:-0.063603997 50:-0.615345 #
0.5 5:0.22365899 6:0.26910701 10:0.194444 12:1.3933311 25:-0.259592 28:-0.18276601 38:-0.063603997 50:-0.43569401 #
-0.5 5:-0.48666501 6:-0.35563499 10:-0.40832499 12:-0.66384602 25:-0.259592 28:-0.18276601 38:-0.063603997 50:-0.615345 #
0.5 5:-0.48666501 6:-0.35563499 10:-0.40832499 12:-0.66384602 25:-0.259592 28:-0.18276601 38:-0.063603997 50:0.32661101 #
-0.5 5:-0.48666501 6:-0.35563499 10:-0.40832499 12:-0.66384602 25:-0.259592 28:-0.18276601 38:-0.063603997 50:-0.615345 #
-0.5 5:-0.48666501 6:-0.35563499 10:-0.40832499 12:-0.66384602 25:-0.259592 28:-0.18276601 38:-0.063603997 50:-0.615345 #
0.5 5:-0.48666501 6:-0.35563499 10:-0.40832499 12:-0.66384602 25:-0.259592 28:-0.18276601 38:-0.063603997 50:-0.615345 #
-0.5 5:-0.48666501 6:-0.35563499 10:-0.40832499 12:-0.66384602 25:-0.259592 28:-0.18276601 38:-0.063603997 50:-0.615345 #
0.5 5:-0.48666501 6:-0.35563499 10:-0.40832499 12:-0.66384602 25:-0.259592 28:-0.18276601 38:-0.063603997 50:0.31204399 #
-0.5 5:-0.48666501 6:-0.35563499 10:-0.40832499 12:-0.66384602 25:-0.259592 28:-0.18276601 38:-0.063603997 50:-0.615345 #
0.5 5:-0.48666501 6:-0.35563499 10:-0.40832499 12:-0.66384602 25:-0.259592 28:-0.18276601 38:-0.063603997 50:0.29747799 #
-0.5 5:-0.48666501 6:-0.35563499 10:-0.40832499 12:-0.66384602 25:-0.259592 28:-0.18276601 38:-0.063603997 50:-0.615345 #
0.5 5:-0.48666501 6:-0.35563499 10:-0.40832499 12:-0.66384602 25:-0.259592 28:-0.18276601 38:-0.063603997 50:0.28776699 #
-0.5 5:-0.48666501 6:-0.35563499 10:-0.40832499 12:-0.66384602 25:-0.259592 28:-0.18276601 38:-0.063603997 50:-0.615345 #
0.5 5:-0.48666501 6:-0.35563499 10:-0.40832499 12:-0.66384602 25:-0.259592 28:-0.18276601 38:-0.063603997 50:0.26834601 #
-0.5 5:-0.48666501 6:-0.35563499 10:-0.40832499 12:-0.66384602 25:-0.259592 28:-0.18276601 38:-0.063603997 50:-0.615345 #
0.5 5:-0.48666501 6:-0.35563499 10:-0.40832499 12:-0.66384602 25:-0.259592 28:-0.18276601 38:-0.063603997 50:0.248924 #
-0.5 5:-0.48666501 6:-0.35563499 10:-0.40832499 12:-0.66384602 25:-0.259592 28:-0.18276601 38:-0.063603997 50:-0.615345 #
0.5 5:-0.48666501 6:-0.35563499 10:0.0089769997 12:-0.31006399 25:-0.259592 28:-0.18276601 38:-0.063603997 50:0.47713 #
-0.5 5:-0.48666501 6:-0.35563499 10:-0.40832499 12:0.84300297 25:-0.259592 28:-0.18276601 38:-0.063603997 50:-0.615345 #
0.5 5:-0.48666501 6:-0.35563499 10:-0.40832499 12:-0.66384602 25:-0.259592 28:-0.18276601 38:-0.063603997 50:0.244068 #
-0.5 5:-0.48666501 6:-0.35563499 10:-0.40832499 12:-0.66384602 25:-0.259592 28:-0.18276601 38:-0.063603997 50:2.273643 #
0.5 5:0.020709001 6:-0.35563499 10:0.41082299 12:-0.66384602 25:-0.259592 28:-0.18276601 38:-0.063603997 50:-0.48424801 #
0.5 5:-0.48666501 6:-0.35563499 10:-0.40832499 12:-0.66384602 25:-0.259592 28:-0.18276601 38:-0.063603997 50:0.244068 #
-0.5 5:-0.095261998 6:-0.35563499 10:-0.40832499 12:-0.31006399 25:-0.049286999 28:0.93276501 38:-0.063603997 50:-0.047258001 #
0.5 5:-0.48666501 6:-0.35563499 10:0.45719001 12:0.069923997 25:-0.259592 28:-0.18276601 38:-0.063603997 50:-0.042403001 #
0.5 5:-0.48666501 6:-0.35563499 10:0.45719001 12:0.069923997 25:-0.259592 28:-0.18276601 38:-0.063603997 50:-0.061825 #
-0.5 5:-0.48666501 6:-0.35563499 10:-0.40832499 12:-0.66384602 25:-0.259592 28:-0.18276601 38:-0.063603997 50:-0.615345 #
0.5 5:-0.356197 6:0.56503701 10:-0.114668 12:0.083026998 25:-0.259592 28:-0.18276601 38:-0.063603997 50:0.50140703 #
-0.5 5:-0.48666501 6:-0.35563499 10:-0.40832499 12:-0.66384602 25:-0.259592 28:-0.18276601 38:-0.063603997 50:-0.615345 #
0.5 5:-0.41418299 6:0.071819998 10:0.76630199 12:0.607149 25:-0.259592 28:-0.18276601 38:-0.063603997 50:-0.29003 #
0.5 5:-0.48666501 6:-0.35563499 10:-0.40832499 12:-0.66384602 25:-0.259592 28:-0.18276601 38:-0.063603997 50:0.239213 #
-0.5 5:-0.48666501 6:-0.35563499 10:-0.40832499 12:-0.66384602 25:-0.259592 28:-0.18276601 38:-0.063603997 50:-0.615345 #
0.5 5:-0.48666501 6:-0.35563499 10:-0.40832499 12:-0.66384602 25:-0.259592 28:-0.18276601 38:-0.063603997 50:-0.615345 #
0.5 5:-0.48666501 6:-0.35563499 10:-0.40832499 12:-0.66384602 25:-0.259592 28:-0.18276601 38:-0.063603997 50:0.21008 #
-0.5 5:-0.48666501 6:-0.35563499 10:-0.40832499 12:-0.66384602 25:-0.259592 28:-0.18276601 38:-0.063603997 50:-0.615345 #
0.5 5:-0.48666501 6:-0.35563499 10:-0.40832499 12:-0.66384602 25:-0.259592 28:-0.18276601 38:-0.063603997 50:0.20522501 #
-0.5 5:-0.48666501 6:-0.35563499 10:-0.40832499 12:-0.66384602 25:-0.259592 28:-0.18276601 38:-0.063603997 50:-0.615345 #
0.5 5:-0.48666501 6:-0.35563499 10:-0.40832499 12:-0.66384602 25:-0.259592 28:-0.18276601 38:-0.063603997 50:0.200369 #
-0.5 5:-0.48666501 6:-0.35563499 10:-0.40832499 12:-0.66384602 25:-0.259592 28:-0.18276601 38:-0.063603997 50:-0.615345 #
0.5 5:-0.48666501 6:-0.35563499 10:-0.40832499 12:-0.66384602 25:-0.259592 28:-0.18276601 38:-0.063603997 50:0.176092 #
-0.5 5:-0.48666501 6:-0.35563499 10:-0.40832499 12:-0.66384602 25:-0.259592 28:-0.18276601 38:-0.063603997 50:-0.615345 #
0.5 5:-0.48666501 6:-0.35563499 10:0.0089769997 12:-0.31006399 25:-0.259592 28:-0.18276601 38:-0.063603997 50:0.49655101 #
-0.5 5:-0.48666501 6:-0.35563499 10:-0.40832499 12:-0.66384602 25:-0.259592 28:-0.18276601 38:-0.063603997 50:-0.615345 #
0.5 5:-0.48666501 6:-0.35563499 10:-0.40832499 12:-0.66384602 25:-0.259592 28:-0.18276601 38:-0.063603997 50:0.069271997 #
-0.5 5:-0.48666501 6:-0.35563499 10:-0.40832499 12:-0.66384602 25:-0.259592 28:-0.18276601 38:-0.063603997 50:-0.615345 #
0.5 5:-0.48666501 6:-0.35563499 10:-0.40832499 12:-0.66384602 25:-0.259592 28:-0.18276601 38:-0.063603997 50:0.069271997 #
-0.5 5:-0.48666501 6:-0.35563499 10:-0.40832499 12:-0.66384602 25:-0.259592 28:-0.18276601 38:-0.063603997 50:-0.615345 #
0.5 5:-0.48666501 6:-0.35563499 10:-0.40832499 12:-0.66384602 25:-0.259592 28:-0.18276601 38:-0.063603997 50:0.064416997 #
-0.5 5:-0.41418299 6:-0.35563499 10:-0.20740201 12:-0.66384602 25:-0.259592 28:-0.18276601 38:-0.063603997 50:0.84614301 #
-0.5 5:-0.48666501 6:-0.35563499 10:-0.40832499 12:-0.66384602 25:-0.259592 28:-0.18276601 38:-0.063603997 50:-0.615345 #
-0.5 5:-0.42867899 6:-0.22411001 10:-0.28468001 12:-0.12662201 25:-0.259592 28:-0.18276601 38:0.019745 50:0.41886401 #
0.5 5:-0.48666501 6:-0.35563499 10:-0.40832499 12:-0.66384602 25:-0.259592 28:-0.18276601 38:-0.063603997 50:-0.615345 #
0.5 5:-0.48666501 6:-0.35563499 10:-0.40832499 12:-0.66384602 25:-0.259592 28:-0.18276601 38:-0.063603997 50:-0.615345 #
0.5 5:-0.18224099 6:-0.35563499 10:-0.25376901 12:-0.25765201 25:-0.259592 28:-0.18276601 38:0.35314199 50:0.20522501 #
0.5 5:-0.48666501 6:-0.35563499 10:-0.40832499 12:-0.66384602 25:-0.259592 28:-0.18276601 38:-0.063603997 50:0.064416997 #
-0.5 5:-0.48666501 6:-0.35563499 10:-0.40832499 12:-0.66384602 25:-0.259592 28:-0.18276601 38:-0.063603997 50:-0.615345 #
-0.5 5:-0.48666501 6:-0.35563499 10:-0.40832499 12:-0.66384602 25:-0.259592 28:-0.18276601 38:-0.063603997 50:-0.615345 #
0.5 5:-0.48666501 6:-0.35563499 10:0.10171 12:-0.231446 25:-0.259592 28:-0.18276601 38:-0.063603997 50:0.166381 #
-0.5 5:-0.48666501 6:-0.35563499 10:-0.40832499 12:0.27957299 25:-0.259592 28:-0.18276601 38:-0.063603997 50:1.555038 #
-0.5 5:-0.48666501 6:-0.35563499 10:-0.40832499 12:-0.66384602 25:-0.259592 28:-0.18276601 38:-0.063603997 50:-0.615345 #
0.5 5:-0.19673701 6:-0.35563499 10:-0.40832499 12:-0.66384602 25:-0.259592 28:-0.18276601 38:-0.063603997 50:0.37516499 #
-0.5 5:-0.48666501 6:-0.35563499 10:-0.40832499 12:-0.66384602 25:-0.259592 28:-0.18276601 38:-0.063603997 50:2.7057769 #
0.5 5:-0.48666501 6:-0.35563499 10:-0.40832499 12:-0.66384602 25:-0.259592 28:-0.18276601 38:-0.063603997 50:-0.615345 #
-0.5 5:-0.48666501 6:-0.35563499 10:-0.40832499 12:-0.66384602 25:-0.259592 28:-0.18276601 38:-0.063603997 50:-0.615345 #
0.5 5:-0.18224099 6:-0.35563499 10:-0.40832499 12:-0.66384602 25:-0.259592 28:-0.18276601 38:-0.063603997 50:0.38002101 #
-0.5 5:-0.48666501 6:-0.35563499 10:-0.40832499 12:0.58094198 25:-0.259592 28:-0.18276601 38:-0.063603997 50:-0.615345 #
-0.5 5:-0.22573 6:-0.35563499 10:-0.40832499 12:0.043717999 25:-0.259592 28:-0.18276601 38:-0.063603997 50:0.244068 #
-0.5 5:-0.48666501 6:-0.35563499 10:-0.40832499 12:-0.66384602 25:-0.259592 28:-0.18276601 38:-0.063603997 50:-0.615345 #
-0.5 5:-0.48666501 6:-0.35563499 10:0.47264501 12:1.209888 25:-0.041498002 28:-0.18276601 38:-0.063603997 50:1.472495 #
-0.5 5:-0.48666501 6:-0.35563499 10:-0.238313 12:-0.074210003 25:-0.259592 28:-0.18276601 38:-0.063603997 50:0.044994999 #
-0.5 5:-0.48666501 6:-0.35563499 10:-0.40832499 12:0.48922101 25:-0.259592 28:-0.18276601 38:-0.063603997 50:0.030429 #
-0.5 5:-0.48666501 6:-0.35563499 10:-0.40832499 12:-0.66384602 25:-0.259592 28:-0.18276601 38:-0.063603997 50:0.61793703 #
0.5 5:1.020961 6:-0.35563499 10:-0.40832499 12:-0.218343 25:-0.259592 28:-0.18276601 38:-0.063603997 50:-0.105524 #
0.5 5:-0.211233 6:0.69656098 10:-0.40832499 12:0.174748 25:-0.259592 28:-0.18276601 38:-0.063603997 50:-0.46482599 #
0.5 5:-0.48666501 6:-0.35563499 10:0.132622 12:-0.20524 25:-0.259592 28:-0.18276601 38:-0.063603997 50:-0.052113999 #
0.5 5:0.45560101 6:0.69656098 10:-0.40832499 12:1.039549 25:-0.259592 28:-0.18276601 38:-0.063603997 50:-0.367717 #
-0.5 5:-0.356197 6:-0.25699201 10:-0.331047 12:-0.048004001 25:-0.259592 28:-0.120792 38:-0.063603997 50:0.66163599 #
-0.5 5:-0.48666501 6:-0.35563499 10:-0.40832499 12:-0.66384602 25:-0.259592 28:-0.18276601 38:-0.063603997 50:-0.615345 #
0.5 5:-0.051773001 6:0.630799 10:-0.40832499 12:0.51542699 25:-0.259592 28:-0.18276601 38:-0.063603997 50:-0.38228399 #
0.5 5:-0.48666501 6:-0.35563499 10:-0.40832499 12:-0.66384602 25:-0.259592 28:-0.18276601 38:-0.063603997 50:-0.615345 #
0.5 5:-0.48666501 6:-0.35563499 10:-0.40832499 12:-0.66384602 25:-0.259592 28:-0.18276601 38:-0.063603997 50:0.035284001 #
0.5 5:-0.48666501 6:-0.35563499 10:-0.40832499 12:-0.66384602 25:-0.259592 28:-0.18276601 38:-0.063603997 50:0.030429 #
-0.5 5:-0.48666501 6:-0.35563499 10:-0.40832499 12:-0.66384602 25:-0.259592 28:-0.18276601 38:-0.063603997 50:-0.615345 #
0.5 5:-0.31270799 6:-0.35563499 10:-0.222858 12:-0.165931 25:-0.259592 28:-0.18276601 38:-0.063603997 50:0.180948 #
-0.5 5:-0.48666501 6:-0.35563499 10:-0.40832499 12:-0.66384602 25:-0.259592 28:-0.18276601 38:-0.063603997 50:2.647512 #
0.5 5:0.47009799 6:-0.35563499 10:-0.40832499 12:0.20095401 25:-0.259592 28:-0.18276601 38:-0.063603997 50:-0.615345 #
-0.5 5:-0.48666501 6:-0.35563499 10:-0.40832499 12:-0.66384602 25:-0.259592 28:-0.18276601 38:-0.063603997 50:-0.615345 #
-0.5 5:-0.48666501 6:-0.35563499 10:-0.40832499 12:-0.66384602 25:-0.259592 28:-0.18276601 38:-0.063603997 50:-0.615345 #
-0.5 5:-0.48666501 6:-0.35563499 10:-0.40832499 12:-0.66384602 25:-0.259592 28:-0.18276601 38:-0.063603997 50:2.613524 #
-0.5 5:-0.48666501 6:-0.35563499 10:-0.40832499 12:0.93472499 25:-0.259592 28:-0.18276601 38:-0.063603997 50:-0.086102001 #
-0.5 5:1.122436 6:-0.35563499 10:-0.40832499 12:-0.66384602 25:-0.259592 28:-0.18276601 38:4.5622778 50:1.147181 #
0.5 5:-0.48666501 6:-0.35563499 10:-0.40832499 12:-0.66384602 25:-0.259592 28:-0.18276601 38:-0.063603997 50:0.025573 #
-0.5 5:-0.48666501 6:-0.35563499 10:-0.40832499 12:0.51542699 25:-0.259592 28:-0.18276601 38:-0.063603997 50:-0.615345 #
0.5 5:-0.48666501 6:-0.35563499 10:-0.40832499 12:-0.66384602 25:-0.259592 28:-0.18276601 38:-0.063603997 50:-0.615345 #
-0.5 5:-0.48666501 6:-0.35563499 10:-0.40832499 12:-0.66384602 25:-0.259592 28:-0.18276601 38:-0.063603997 50:-0.615345 #
0.5 5:-0.48666501 6:-0.35563499 10:-0.40832499 12:-0.66384602 25:-0.259592 28:-0.18276601 38:-0.063603997 50:0.015862999 #
-0.5 5:-0.48666501 6:-0.35563499 10:-0.40832499 12:-0.66384602 25:-0.259592 28:-0.18276601 38:-0.063603997 50:-0.615345 #
0.5 5:-0.48666501 6:-0.35563499 10:-0.40832499 12:-0.66384602 25:-0.259592 28:-0.18276601 38:-0.063603997 50:-0.0035590001 #
-0.5 5:-0.48666501 6:-0.35563499 10:-0.40832499 12:-0.66384602 25:-0.259592 28:-0.18276601 38:-0.063603997 50:-0.615345 #
0.5 5:-0.48666501 6:-0.35563499 10:-0.40832499 12:-0.66384602 25:-0.259592 28:-0.18276601 38:-0.063603997 50:-0.018126 #
-0.5 5:-0.48666501 6:-0.35563499 10:-0.40832499 12:-0.66384602 25:-0.259592 28:-0.18276601 38:-0.063603997 50:-0.615345 #
0.5 5:-0.48666501 6:-0.35563499 10:-0.40832499 12:-0.66384602 25:-0.259592 28:-0.18276601 38:-0.063603997 50:-0.12009 #
-0.5 5:-0.48666501 6:-0.35563499 10:-0.40832499 12:-0.66384602 25:-0.259592 28:-0.18276601 38:-0.063603997 50:-0.615345 #
0.5 5:-0.48666501 6:-0.35563499 10:-0.40832499 12:-0.66384602 25:-0.259592 28:-0.18276601 38:-0.063603997 50:-0.15407801 #
-0.5 5:-0.48666501 6:-0.35563499 10:-0.40832499 12:-0.66384602 25:-0.259592 28:-0.18276601 38:-0.063603997 50:-0.615345 #
0.5 5:-0.48666501 6:-0.35563499 10:-0.40832499 12:-0.66384602 25:-0.259592 28:-0.18276601 38:-0.063603997 50:-0.192921 #
-0.5 5:-0.48666501 6:-0.35563499 10:-0.40832499 12:-0.66384602 25:-0.259592 28:-0.18276601 38:-0.063603997 50:-0.615345 #
0.5 5:-0.48666501 6:0.006058 10:-0.238313 12:-0.37558001 25:-0.259592 28:-0.18276601 38:-0.063603997 50:0.074128002 #
0.5 5:-0.48666501 6:-0.35563499 10:-0.40832499 12:-0.66384602 25:-0.259592 28:-0.18276601 38:-0.063603997 50:-0.31430799 #
0.5 5:-0.41418299 6:0.071819998 10:0.76630199 12:0.607149 25:-0.259592 28:-0.18276601 38:-0.063603997 50:-0.29488599 #
-0.5 5:-0.48666501 6:-0.35563499 10:-0.40832499 12:-0.66384602 25:-0.259592 28:-0.18276601 38:-0.063603997 50:-0.615345 #
0.5 5:-0.167744 6:0.36774999 10:0.27172199 12:0.48922101 25:-0.259592 28:-0.18276601 38:-0.063603997 50:0.65192503 #
0.5 5:-0.41418299 6:0.071819998 10:0.76630199 12:0.607149 25:-0.259592 28:-0.18276601 38:-0.063603997 50:-0.29003 #
0.5 5:-0.48666501 6:-0.35563499 10:1.059958 12:-0.048004001 25:-0.259592 28:-0.18276601 38:-0.063603997 50:-0.018126 #
-0.5 5:-0.48666501 6:-0.35563499 10:-0.40832499 12:-0.66384602 25:-0.259592 28:-0.18276601 38:-0.063603997 50:-0.615345 #
0.5 5:-0.48666501 6:-0.35563499 10:-0.40832499 12:-0.66384602 25:-0.259592 28:-0.18276601 38:-0.063603997 50:-0.251187 #
-0.5 5:-0.48666501 6:-0.35563499 10:-0.40832499 12:-0.66384602 25:-0.259592 28:-0.18276601 38:-0.063603997 50:-0.615345 #
0.5 5:-0.48666501 6:-0.35563499 10:-0.40832499 12:-0.66384602 25:-0.259592 28:-0.18276601 38:-0.063603997 50:-0.41627201 #
-0.5 5:-0.48666501 6:-0.35563499 10:-0.40832499 12:-0.66384602 25:-0.259592 28:-0.18276601 38:-0.063603997 50:-0.615345 #
0.5 5:-0.48666501 6:-0.35563499 10:-0.40832499 12:-0.66384602 25:-0.259592 28:-0.18276601 38:-0.063603997 50:-0.46968201 #
-0.5 5:-0.48666501 6:-0.35563499 10:-0.40832499 12:-0.66384602 25:-0.259592 28:-0.18276601 38:-0.063603997 50:-0.615345 #
0.5 5:-0.48666501 6:-0.35563499 10:-0.40832499 12:-0.66384602 25:-0.259592 28:-0.18276601 38:-0.063603997 50:-0.615345 #
-0.5 5:-0.48666501 6:-0.35563499 10:-0.40832499 12:-0.66384602 25:-0.259592 28:-0.18276601 38:-0.063603997 50:-0.615345 #
0.5 5:-0.48666501 6:-0.35563499 10:-0.40832499 12:-0.66384602 25:-0.259592 28:-0.18276601 38:-0.063603997 50:-0.615345 #
-0.5 5:-0.48666501 6:-0.35563499 10:-0.40832499 12:-0.66384602 25:-0.259592 28:-0.18276601 38:-0.063603997 50:-0.615345 #
0.5 5:-0.48666501 6:-0.35563499 10:-0.40832499 12:-0.66384602 25:-0.259592 28:-0.18276601 38:-0.063603997 50:-0.615345 #
-0.5 5:-0.48666501 6:-0.35563499 10:-0.40832499 12:-0.66384602 25:-0.259592 28:-0.18276601 38:-0.063603997 50:-0.615345 #
0.5 5:-0.48666501 6:-0.35563499 10:-0.40832499 12:-0.66384602 25:-0.259592 28:-0.18276601 38:-0.063603997 50:-0.615345 #
0.5 5:-0.48666501 6:-0.35563499 10:0.426278 12:0.043717999 25:-0.259592 28:-0.18276601 38:-0.063603997 50:-0.615345 #
0.5 5:-0.211233 6:-0.35563499 10:-0.40832499 12:-0.15282799 25:-0.259592 28:-0.18276601 38:-0.063603997 50:0.0061519998 #
0.5 5:0.44110501 6:-0.35563499 10:-0.40832499 12:0.174748 25:-0.259592 28:-0.18276601 38:-0.063603997 50:-0.056968998 #
-0.5 5:-0.48666501 6:-0.35563499 10:-0.40832499 12:-0.66384602 25:-0.259592 28:-0.18276601 38:-0.063603997 50:-0.615345 #
0.5 5:0.165673 6:-0.35563499 10:0.28717801 12:0.51542699 25:-0.259592 28:-0.18276601 38:-0.063603997 50:0.16152599 #
-0.5 5:-0.48666501 6:-0.35563499 10:-0.40832499 12:0.39750001 25:-0.259592 28:-0.18276601 38:-0.063603997 50:-0.615345 #
0.5 5:-0.48666501 6:-0.35563499 10:0.25626701 12:-0.66384602 25:-0.259592 28:-0.18276601 38:-0.063603997 50:-0.01327 #
-0.5 5:-0.48666501 6:-0.35563499 10:-0.40832499 12:-0.66384602 25:-0.259592 28:-0.18276601 38:-0.063603997 50:0.31204399 #
0.5 5:-0.48666501 6:-0.35563499 10:0.055344 12:-0.27075499 25:-0.259592 28:-0.18276601 38:-0.063603997 50:-0.29003 #
-0.5 5:-0.48666501 6:-0.35563499 10:-0.40832499 12:0.384397 25:-0.259592 28:-0.18276601 38:-0.063603997 50:-0.615345 #
-0.5 5:-0.48666501 6:-0.35563499 10:-0.40832499 12:-0.66384602 25:-0.259592 28:-0.18276601 38:-0.063603997 50:0.34117699 #
0.5 5:-0.48666501 6:-0.35563499 10:-0.40832499 12:-0.66384602 25:-0.259592 28:-0.18276601 38:-0.063603997 50:-0.615345 #
-0.5 5:-0.48666501 6:-0.35563499 10:-0.40832499 12:-0.048004001 25:-0.259592 28:-0.18276601 38:-0.063603997 50:-0.45511499 #
-0.5 5:-0.48666501 6:-0.35563499 10:-0.40832499 12:-0.66384602 25:-0.259592 28:-0.18276601 38:-0.063603997 50:0.36545399 #
-0.5 5:-0.48666501 6:-0.35563499 10:-0.40832499 12:0.37129399 25:-0.259592 28:-0.18276601 38:-0.063603997 50:-0.615345 #
0.5 5:-0.48666501 6:-0.35563499 10:0.25626701 12:-0.66384602 25:-0.259592 28:-0.18276601 38:-0.063603997 50:-0.01327 #
-0.5 5:-0.48666501 6:-0.35563499 10:-0.40832499 12:-0.66384602 25:-0.259592 28:-0.18276601 38:-0.063603997 50:0.36545399 #
-0.5 5:-0.48666501 6:-0.35563499 10:-0.40832499 12:-0.66384602 25:-0.259592 28:-0.18276601 38:-0.063603997 50:0.414009 #
0.5 5:-0.051773001 6:-0.35563499 10:-0.40832499 12:-0.66384602 25:-0.259592 28:-0.18276601 38:-0.063603997 50:-0.21234301 #
0.5 5:-0.0082839997 6:-0.35563499 10:-0.40832499 12:-0.231446 25:-0.259592 28:-0.18276601 38:-0.063603997 50:-0.615345 #
0.5 5:-0.48666501 6:-0.35563499 10:0.25626701 12:-0.66384602 25:-0.259592 28:-0.18276601 38:-0.063603997 50:-0.01327 #
0.5 5:-0.48666501 6:-0.35563499 10:-0.40832499 12:-0.66384602 25:-0.259592 28:-0.18276601 38:-0.063603997 50:-0.615345 #
0.5 5:-0.48666501 6:-0.35563499 10:-0.40832499 12:-0.66384602 25:-0.259592 28:-0.18276601 38:-0.063603997 50:-0.615345 #
-0.5 5:-0.48666501 6:-0.35563499 10:-0.40832499 12:-0.165931 25:-0.259592 28:-0.18276601 38:-0.063603997 50:-0.256042 #
-0.5 5:-0.48666501 6:-0.35563499 10:-0.40832499 12:-0.66384602 25:-0.259592 28:-0.18276601 38:-0.063603997 50:0.37031001 #
-0.5 5:-0.48666501 6:-0.35563499 10:-0.40832499 12:-0.100416 25:-0.259592 28:-0.18276601 38:-0.063603997 50:-0.21234301 #
0.5 5:-0.25472301 6:0.23622499 10:-0.40832499 12:-0.545919 25:-0.259592 28:-0.18276601 38:-0.063603997 50:-0.052113999 #
0.5 5:-0.48666501 6:-0.35563499 10:-0.40832499 12:-0.66384602 25:-0.259592 28:-0.18276601 38:-0.063603997 50:-0.615345 #
0.5 5:-0.48666501 6:-0.35563499 10:-0.40832499 12:-0.66384602 25:-0.259592 28:-0.18276601 38:-0.063603997 50:-0.615345 #
-0.5 5:-0.48666501 6:-0.35563499 10:-0.40832499 12:-0.66384602 25:-0.259592 28:-0.18276601 38:-0.063603997 50:0.44314101 #
-0.5 5:-0.48666501 6:-0.35563499 10:-0.40832499 12:-0.66384602 25:-0.259592 28:-0.18276601 38:-0.063603997 50:0.46256301 #
0.5 5:-0.48666501 6:-0.35563499 10:-0.40832499 12:-0.66384602 25:-0.259592 28:-0.18276601 38:-0.063603997 50:-0.615345 #
0.5 5:-0.327205 6:-0.191229 10:-0.40832499 12:-0.44109499 25:-0.259592 28:-0.18276601 38:-0.063603997 50:-0.30459699 #
0.5 5:-0.48666501 6:-0.35563499 10:-0.40832499 12:-0.66384602 25:-0.259592 28:-0.18276601 38:-0.063603997 50:-0.615345 #
-0.5 5:-0.48666501 6:-0.35563499 10:-0.40832499 12:-0.218343 25:-0.259592 28:-0.18276601 38:-0.063603997 50:-0.022980999 #
0.5 5:-0.080766 6:-0.35563499 10:-0.40832499 12:-0.29696101 25:-0.259592 28:-0.18276601 38:-0.063603997 50:-0.38713899 #
-0.5 5:-0.48666501 6:-0.35563499 10:-0.40832499 12:-0.34937301 25:-0.259592 28:-0.18276601 38:-0.063603997 50:0.098405004 #
0.5 5:-0.48666501 6:-0.35563499 10:-0.40832499 12:-0.66384602 25:-0.259592 28:-0.18276601 38:-0.063603997 50:-0.615345 #
-0.5 5:-0.48666501 6:-0.35563499 10:-0.40832499 12:-0.66384602 25:-0.259592 28:-0.18276601 38:-0.063603997 50:-0.615345 #
0.5 5:-0.356197 6:-0.35563499 10:-0.26922399 12:-0.66384602 25:-0.259592 28:-0.18276601 38:-0.063603997 50:-0.45997101 #
0.5 5:-0.37069401 6:0.170463 10:-0.40832499 12:-0.34937301 25:-0.259592 28:-0.18276601 38:-0.063603997 50:-0.285175 #
0.5 5:-0.48666501 6:-0.35563499 10:-0.40832499 12:-0.66384602 25:-0.259592 28:-0.18276601 38:-0.063603997 50:-0.615345 #
0.5 5:-0.066269003 6:-0.35563499 10:-0.40832499 12:-0.283858 25:-0.259592 28:-0.18276601 38:-0.063603997 50:-0.615345 #
0.5 5:-0.109759 6:-0.35563499 10:-0.40832499 12:-0.66384602 25:-0.259592 28:-0.18276601 38:-0.063603997 50:-0.217199 #
0.5 5:-0.080766 6:-0.35563499 10:-0.40832499 12:-0.48040399 25:-0.259592 28:-0.18276601 38:-0.063603997 50:-0.38228399 #
-0.5 5:-0.48666501 6:-0.35563499 10:-0.40832499 12:0.069923997 25:-0.259592 28:-0.18276601 38:-0.063603997 50:-0.134656 #
-0.5 5:-0.48666501 6:-0.35563499 10:-0.40832499 12:-0.66384602 25:-0.259592 28:-0.18276601 38:-0.063603997 50:0.53053898 #
-0.5 5:-0.48666501 6:-0.35563499 10:-0.40832499 12:-0.66384602 25:-0.259592 28:-0.18276601 38:-0.063603997 50:-0.615345 #
-0.5 5:-0.48666501 6:-0.35563499 10:-0.40832499 12:-0.66384602 25:-0.259592 28:-0.18276601 38:-0.063603997 50:-0.615345 #
0.5 5:-0.42867899 6:0.006058 10:0.658113 12:0.48922101 25:-0.259592 28:-0.18276601 38:-0.063603997 50:-0.299741 #
0.5 5:0.122184 6:-0.35563499 10:-0.40832499 12:-0.113519 25:-0.259592 28:-0.18276601 38:-0.063603997 50:0.37516499 #
