SVM-light Version V6.02
0 # kernel type
3 # kernel parameter -d 
1 # kernel parameter -g 
1 # kernel parameter -s 
1 # kernel parameter -r 
empty# kernel parameter -u 
57 # highest feature index 
1813 # number of training documents 
373 # number of support vectors plus 1 
0.41062967 # threshold b, each following line is a SV (starting with alpha*y)
-0.098122682921478521222979907179251 1:-0.348299 2:-0.17969 3:-0.62200397 4:-0.045352999 5:-0.48666501 6:-0.35563499 7:1.198869 8:-0.27120501 9:-0.354184 10:-0.40832499 11:-0.332057 12:-0.66384602 13:-0.341429 14:-0.189715 15:-0.21397699 16:-0.303601 17:-0.33521399 18:-0.362865 19:0.87693101 21:-0.205281 22:-0.145696 23:-0.32093501 24:-0.22223599 25:-0.259592 26:-0.214358 27:-0.035758998 28:-0.18276601 29:-0.150461 30:-0.189439 31:-0.120054 32:-0.12993801 33:-0.133763 34:-0.1311 35:-0.191397 36:-0.22950201 37:-0.26529801 38:-0.063603997 39:-0.157189 40:-0.183598 41:-0.123044 42:-0.139154 43:-0.159254 45:1.111878 46:-0.215674 47:-0.079241998 48:-0.101023 49:-0.14805999 50:-0.615345 51:-0.150841 52:-0.459032 53:-0.34537601 54:-0.101856 55:-0.103924 56:-0.364039 57:-0.35729799 #
0.30643463709965829133707870823855 1:-0.348299 2:-0.17969 3:-0.62200397 4:-0.045352999 5:-0.48666501 6:-0.35563499 7:-0.31764501 8:-0.27120501 9:-0.354184 10:-0.40832499 11:-0.332057 12:-0.66384602 13:-0.341429 14:5.9661679 15:-0.21397699 16:-0.303601 17:-0.33521399 18:-0.362865 19:-1.03152 21:-0.76167101 22:-0.145696 23:-0.32093501 24:-0.22223599 25:-0.259592 26:-0.214358 27:-0.225205 28:-0.18276601 29:-0.150461 30:-0.189439 31:-0.120054 32:-0.12993801 33:-0.133763 34:-0.1311 35:-0.191397 36:3.013555 37:-0.26529801 38:-0.063603997 39:-0.157189 40:-0.183598 41:-0.123044 42:-0.139154 43:-0.159254 45:0.778826 46:-0.215674 47:-0.079241998 48:-0.101023 49:-0.14805999 50:0.176092 51:-0.150841 52:-0.219126 53:0.83381099 54:-0.101856 55:-0.052436002 56:-0.255806 57:-0.32734001 #
-0.35545503098229763727644581194909 1:-0.348299 2:-0.17969 3:-0.224355 4:-0.045352999 5:-0.48666501 6:-0.35563499 7:-0.31764501 8:-0.27120501 9:0.34683701 10:0.225355 11:-0.332057 12:-0.66384602 13:-0.341429 14:-0.189715 15:-0.21397699 16:-0.303601 17:-0.33521399 18:-0.362865 19:-0.21037699 21:-0.59558499 22:-0.145696 23:-0.32093501 24:-0.22223599 25:-0.259592 26:0.024909999 27:-0.16865399 28:-0.18276601 29:0.313144 30:-0.189439 31:-0.120054 32:-0.12993801 33:-0.133763 34:-0.1311 35:-0.191397 36:-0.22950201 37:-0.26529801 38:-0.063603997 39:-0.157189 40:-0.183598 41:-0.123044 42:-0.139154 43:-0.159254 45:-0.29318199 46:-0.215674 47:-0.079241998 48:-0.101023 49:-0.14805999 50:0.982095 51:-0.150841 52:-0.29860401 53:-0.34537601 54:0.48996201 55:-0.124919 56:-0.33311501 57:-0.273415 #
-0.23361709541829406289181747524708 1:-0.348299 2:-0.17969 3:-0.62200397 4:-0.045352999 5:-0.48666501 6:-0.35563499 7:-0.31764501 8:-0.27120501 9:-0.354184 10:-0.40832499 11:-0.332057 12:3.306375 13:-0.341429 14:-0.189715 15:-0.21397699 16:-0.303601 17:-0.33521399 18:-0.362865 19:-0.17639799 21:-0.76167101 22:-0.145696 23:-0.32093501 24:-0.22223599 25:-0.259592 26:-0.214358 27:-0.225205 28:-0.18276601 29:-0.150461 30:-0.189439 31:-0.120054 32:-0.12993801 33:-0.133763 34:-0.1311 35:-0.191397 36:-0.22950201 37:-0.26529801 38:-0.063603997 39:-0.157189 40:-0.183598 41:-0.123044 42:-0.139154 43:-0.159254 45:-0.29318199 46:-0.215674 47:-0.079241998 48:-0.101023 49:-0.14805999 50:-0.615345 51:-0.150841 52:0.41670001 53:-0.34537601 54:-0.101856 55:-0.115298 56:-0.38723099 57:-0.421709 #
0.43145576629995407991202682751464 1:-0.348299 2:-0.17969 3:-0.62200397 4:-0.045352999 5:-0.48666501 6:-0.35563499 7:-0.31764501 8:-0.27120501 9:-0.354184 10:-0.40832499 11:-0.332057 12:-0.66384602 13:-0.341429 14:-0.189715 15:-0.21397699 16:-0.303601 17:-0.33521399 18:-0.362865 19:0.47485399 21:0.34280401 22:0.96652001 23:-0.32093501 24:-0.22223599 25:-0.259592 26:-0.214358 27:-0.225205 28:-0.18276601 29:-0.150461 30:-0.189439 31:-0.120054 32:-0.12993801 33:-0.133763 34:-0.1311 35:-0.191397 36:-0.22950201 37:-0.26529801 38:-0.063603997 39:-0.157189 40:-0.183598 41:-0.123044 42:-0.139154 43:-0.159254 45:-0.29318199 46:-0.215674 47:-0.079241998 48:-0.101023 49:-0.14805999 50:-0.615345 51:-0.150841 52:0.56976902 53:-0.34537601 54:0.65372503 55:0.121393 56:-0.062533997 57:-0.30636901 #
-0.5 1:-0.348299 2:-0.17969 3:-0.62200397 4:-0.045352999 5:-0.48666501 6:-0.35563499 7:-0.31764501 8:-0.27120501 9:-0.354184 10:-0.40832499 11:-0.332057 12:-0.66384602 13:-0.341429 14:-0.189715 15:-0.21397699 16:-0.303601 17:-0.33521399 18:-0.362865 19:5.8717489 21:3.282536 22:-0.145696 23:-0.32093501 24:15.446289 25:-0.259592 26:-0.214358 27:-0.225205 28:-0.18276601 29:-0.150461 30:-0.189439 31:-0.120054 32:-0.12993801 33:-0.133763 34:-0.1311 35:-0.191397 36:-0.22950201 37:-0.26529801 38:-0.063603997 39:-0.157189 40:-0.183598 41:-0.123044 42:-0.139154 43:-0.159254 45:-0.29318199 46:-0.215674 47:-0.079241998 48:-0.101023 49:-0.14805999 50:-0.615345 51:-0.150841 52:-0.459032 53:-0.34537601 54:-0.101856 55:-0.130667 56:-0.41042399 57:-0.43369201 #
-0.5 1:-0.348299 2:-0.17969 3:-0.62200397 4:-0.045352999 5:-0.48666501 6:-0.35563499 7:-0.31764501 8:-0.27120501 9:-0.354184 10:-0.40832499 11:-0.332057 12:-0.66384602 13:-0.341429 14:-0.189715 15:-0.21397699 16:-0.303601 17:-0.33521399 18:-0.362865 19:1.143095 21:0.301283 22:-0.145696 23:-0.32093501 24:-0.22223599 25:-0.259592 26:-0.214358 27:-0.225205 28:-0.18276601 29:-0.150461 30:-0.189439 31:-0.120054 32:-0.12993801 33:-0.133763 34:-0.1311 35:-0.191397 36:-0.22950201 37:3.203609 38:-0.063603997 39:-0.157189 40:-0.183598 41:-0.123044 42:-0.139154 43:-0.159254 45:1.039023 46:-0.215674 47:-0.079241998 48:-0.101023 49:-0.14805999 50:-0.615345 51:-0.150841 52:1.819344 53:-0.34537601 54:-0.101856 55:-0.062364999 56:-0.30992201 57:-0.35729799 #
-0.5 1:-0.348299 2:-0.17969 3:1.7042429 4:-0.045352999 5:-0.48666501 6:-0.35563499 7:-0.31764501 8:-0.27120501 9:-0.354184 10:-0.40832499 11:-0.332057 12:2.4153681 13:2.1960311 14:-0.189715 15:-0.21397699 16:-0.303601 17:-0.33521399 18:-0.362865 19:0.74101698 21:-0.43780199 22:-0.145696 23:-0.32093501 24:-0.22223599 25:-0.259592 26:-0.214358 27:-0.225205 28:-0.18276601 29:-0.150461 30:-0.189439 31:-0.120054 32:-0.12993801 33:-0.133763 34:-0.1311 35:-0.191397 36:-0.22950201 37:-0.26529801 38:-0.063603997 39:-0.157189 40:-0.183598 41:-0.123044 42:-0.139154 43:-0.159254 45:-0.29318199 46:0.219037 47:-0.079241998 48:-0.101023 49:-0.14805999 50:0.76360101 51:-0.150841 52:-0.041035999 53:0.42507499 54:0.013265 55:-0.1133 56:-0.32538399 57:-0.33632699 #
-0.5 1:-0.348299 2:-0.17969 3:-0.62200397 4:-0.045352999 5:-0.48666501 6:-0.35563499 7:-0.31764501 8:-0.27120501 9:-0.354184 10:16.762863 11:-0.332057 12:-0.66384602 13:-0.341429 14:-0.189715 15:-0.21397699 16:-0.303601 17:-0.33521399 18:-0.362865 19:2.1114781 21:-0.76167101 22:-0.145696 23:-0.32093501 24:-0.22223599 25:-0.259592 26:-0.214358 27:-0.225205 28:-0.18276601 29:-0.150461 30:-0.189439 31:-0.120054 32:-0.12993801 33:-0.133763 34:-0.1311 35:-0.191397 36:-0.22950201 37:-0.26529801 38:-0.063603997 39:-0.157189 40:-0.183598 41:-0.123044 42:-0.139154 43:-0.159254 45:-0.29318199 46:-0.215674 47:-0.079241998 48:-0.101023 49:-0.14805999 50:-0.615345 51:-0.150841 52:-0.459032 53:-0.34537601 54:-0.101856 55:-0.130667 56:-0.41042399 57:-0.44118199 #
-0.5 1:-0.348299 2:-0.17969 3:-0.62200397 4:-0.045352999 5:-0.48666501 6:18.978474 7:-0.31764501 8:-0.27120501 9:-0.354184 10:-0.40832499 11:-0.332057 12:-0.66384602 13:-0.341429 14:-0.189715 15:-0.21397699 16:-0.303601 17:-0.33521399 18:-0.362865 19:-1.03152 21:-0.76167101 22:-0.145696 23:-0.32093501 24:-0.22223599 25:-0.259592 26:-0.214358 27:-0.225205 28:-0.18276601 29:-0.150461 30:-0.189439 31:-0.120054 32:-0.12993801 33:-0.133763 34:-0.1311 35:-0.191397 36:-0.22950201 37:-0.26529801 38:-0.063603997 39:-0.157189 40:-0.183598 41:-0.123044 42:-0.139154 43:-0.159254 45:-0.29318199 46:-0.215674 47:-0.079241998 48:-0.101023 49:-0.14805999 50:-0.615345 51:-0.150841 52:-0.459032 53:-0.34537601 54:-0.101856 55:-0.079456002 56:-0.3795 57:-0.42021099 #
0.5 1:-0.348299 2:-0.17969 3:-0.62200397 4:-0.045352999 5:-0.48666501 6:-0.35563499 7:-0.31764501 8:-0.27120501 9:-0.354184 10:5.4184418 11:-0.332057 12:-0.66384602 13:-0.341429 14:-0.189715 15:-0.21397699 16:-0.303601 17:-0.33521399 18:-0.362865 19:0.033135001 21:-0.76167101 22:-0.145696 23:-0.32093501 24:2.7989769 25:-0.259592 26:-0.214358 27:-0.225205 28:-0.18276601 29:-0.150461 30:-0.189439 31:-0.120054 32:-0.12993801 33:-0.133763 34:-0.1311 35:-0.191397 36:-0.22950201 37:-0.26529801 38:-0.063603997 39:-0.157189 40:-0.183598 41:-0.123044 42:-0.139154 43:-0.159254 45:-0.29318199 46:-0.215674 47:-0.079241998 48:-0.101023 49:0.74088001 50:-0.615345 51:-0.150841 52:-0.459032 53:-0.34537601 54:-0.101856 55:-0.028214 56:-0.317653 57:-0.32734001 #
0.5 1:-0.348299 2:3.1167979 3:-0.62200397 4:-0.045352999 5:-0.48666501 6:-0.35563499 7:-0.31764501 8:-0.27120501 9:-0.354184 10:1.4308929 11:-0.332057 12:-0.66384602 13:-0.341429 14:-0.189715 15:-0.21397699 16:-0.303601 17:-0.33521399 18:3.7870979 19:-1.03152 21:-0.76167101 22:-0.145696 23:-0.32093501 24:-0.22223599 25:-0.259592 26:-0.214358 27:-0.225205 28:-0.18276601 29:-0.150461 30:-0.189439 31:-0.120054 32:-0.12993801 33:-0.133763 34:-0.1311 35:-0.191397 36:-0.22950201 37:-0.26529801 38:-0.063603997 39:-0.157189 40:-0.183598 41:-0.123044 42:-0.139154 43:-0.159254 45:-0.29318199 46:-0.215674 47:-0.079241998 48:-0.101023 49:-0.14805999 50:-0.615345 51:-0.150841 52:-0.459032 53:-0.34537601 54:-0.101856 55:-0.00079399999 56:-0.124381 57:-0.201515 #
-0.047959572621981513829148013883241 1:-0.348299 2:-0.17969 3:-0.62200397 4:-0.045352999 5:-0.48666501 6:-0.35563499 7:-0.31764501 8:-0.27120501 9:-0.354184 10:-0.40832499 11:-0.332057 12:-0.66384602 13:-0.341429 14:-0.189715 15:-0.21397699 16:-0.303601 17:-0.33521399 18:-0.362865 19:-1.03152 21:-0.76167101 22:-0.145696 23:-0.32093501 24:-0.22223599 25:-0.259592 26:-0.214358 27:-0.225205 28:-0.18276601 29:-0.150461 30:-0.189439 31:-0.120054 32:-0.12993801 33:-0.133763 34:-0.1311 35:-0.191397 36:-0.22950201 37:-0.26529801 38:-0.063603997 39:-0.157189 40:-0.183598 41:-0.123044 42:5.0704632 43:-0.159254 45:-0.29318199 46:-0.215674 47:-0.079241998 48:-0.101023 49:-0.14805999 50:-0.615345 51:-0.150841 52:-0.459032 53:2.273432 54:-0.101856 55:-0.122982 56:-0.402693 57:-0.429198 #
0.5 1:-0.348299 2:-0.17969 3:-0.62200397 4:-0.045352999 5:-0.48666501 6:-0.35563499 7:-0.31764501 8:-0.27120501 9:-0.354184 10:-0.40832499 11:-0.332057 12:-0.66384602 13:-0.341429 14:5.1892118 15:-0.21397699 16:-0.303601 17:1.027898 18:-0.362865 19:-0.351953 21:-0.76167101 22:-0.145696 23:-0.32093501 24:-0.22223599 25:-0.259592 26:-0.214358 27:-0.225205 28:2.2961919 29:-0.150461 30:-0.189439 31:-0.120054 32:-0.12993801 33:-0.133763 34:-0.1311 35:-0.191397 36:-0.22950201 37:-0.26529801 38:-0.063603997 39:-0.157189 40:-0.183598 41:-0.123044 42:-0.139154 43:-0.159254 45:-0.29318199 46:1.790682 47:-0.079241998 48:-0.101023 49:-0.14805999 50:0.83643198 51:-0.150841 52:-0.459032 53:-0.34537601 54:0.220806 55:-0.085634001 56:-0.20169 57:-0.28539801 #
-0.016327502390438529411564871907103 1:-0.348299 2:-0.17969 3:-0.62200397 4:-0.045352999 5:-0.48666501 6:-0.35563499 7:-0.31764501 8:-0.27120501 9:-0.354184 10:-0.40832499 11:-0.332057 12:-0.66384602 13:9.2228441 14:8.5958652 15:-0.21397699 16:-0.303601 17:-0.33521399 18:-0.362865 19:-1.03152 21:-0.76167101 22:-0.145696 23:-0.32093501 24:-0.22223599 25:-0.259592 26:-0.214358 27:-0.225205 28:-0.18276601 29:-0.150461 30:-0.189439 31:-0.120054 32:-0.12993801 33:-0.133763 34:-0.1311 35:-0.191397 36:-0.22950201 37:-0.26529801 38:-0.063603997 39:-0.157189 40:-0.183598 41:-0.123044 42:-0.139154 43:-0.159254 45:-0.29318199 46:-0.215674 47:-0.079241998 48:-0.101023 49:-0.14805999 50:-0.615345 51:-0.150841 52:-0.459032 53:-0.34537601 54:-0.101856 55:-0.112224 56:-0.3795 57:-0.42021099 #
-0.5 1:-0.348299 2:-0.17969 3:-0.62200397 4:-0.045352999 5:2.659055 6:-0.35563499 7:-0.31764501 8:-0.27120501 9:-0.354184 10:-0.40832499 11:-0.332057 12:-0.66384602 13:-0.341429 14:12.779475 15:-0.21397699 16:-0.303601 17:-0.33521399 18:-0.362865 19:0.197364 21:-0.76167101 22:-0.145696 23:-0.32093501 24:-0.22223599 25:-0.259592 26:-0.214358 27:-0.225205 28:-0.18276601 29:-0.150461 30:-0.189439 31:-0.120054 32:-0.12993801 33:-0.133763 34:-0.1311 35:-0.191397 36:-0.22950201 37:-0.26529801 38:-0.063603997 39:-0.157189 40:-0.183598 41:-0.123044 42:-0.139154 43:-0.159254 45:-0.29318199 46:-0.215674 47:-0.079241998 48:-0.101023 49:-0.14805999 50:1.166602 51:-0.150841 52:-0.459032 53:-0.34537601 54:-0.101856 55:-0.130667 56:-0.41042399 57:-0.43219399 #
0.5 1:-0.348299 2:-0.17969 3:-0.62200397 4:-0.045352999 5:-0.48666501 6:-0.35563499 7:-0.31764501 8:-0.27120501 9:-0.354184 10:-0.40832499 11:-0.332057 12:0.82990003 13:-0.341429 14:-0.189715 15:-0.21397699 16:-0.303601 17:-0.33521399 18:-0.362865 19:-0.38593099 21:-0.76167101 22:-0.145696 23:-0.32093501 24:-0.22223599 25:-0.259592 26:-0.214358 27:-0.225205 28:-0.18276601 29:-0.150461 30:-0.189439 31:-0.120054 32:-0.12993801 33:-0.133763 34:-0.1311 35:-0.191397 36:-0.22950201 37:-0.26529801 38:-0.063603997 39:-0.157189 40:-0.183598 41:-0.123044 42:-0.139154 43:-0.159254 45:-0.29318199 46:-0.215674 47:-0.079241998 48:-0.101023 49:-0.14805999 50:-0.615345 51:-0.150841 52:-0.459032 53:-0.34537601 54:-0.101856 55:-0.113914 56:-0.38723099 57:-0.418713 #
0.5 1:-0.348299 2:0.478223 3:1.266829 4:-0.045352999 5:-0.48666501 6:-0.35563499 7:-0.31764501 8:-0.27120501 9:-0.354184 10:-0.40832499 11:-0.332057 12:-0.66384602 13:-0.341429 14:-0.189715 15:-0.21397699 16:-0.303601 17:-0.33521399 18:-0.362865 19:-0.765356 21:0.81615102 22:-0.145696 23:-0.32093501 24:0.53306699 25:-0.259592 26:-0.214358 27:-0.225205 28:-0.18276601 29:-0.150461 30:-0.189439 31:-0.120054 32:1.613428 33:-0.133763 34:-0.1311 35:-0.191397 36:-0.22950201 37:-0.26529801 38:-0.063603997 39:-0.157189 40:-0.183598 41:-0.123044 42:-0.139154 43:-0.159254 45:-0.29318199 46:-0.215674 47:-0.079241998 48:-0.101023 49:0.074175 50:0.35574299 51:-0.150841 52:-0.066056997 53:-0.34537601 54:-0.101856 55:-0.032917 56:-0.070265003 57:0.25085601 #
-0.5 1:-0.348299 2:-0.17969 3:-0.62200397 4:-0.045352999 5:0.209162 6:-0.35563499 7:-0.31764501 8:-0.27120501 9:-0.354184 10:-0.40832499 11:-0.332057 12:-0.034899998 13:-0.341429 14:-0.189715 15:-0.21397699 16:-0.303601 17:-0.33521399 18:-0.362865 19:-0.75969303 21:-0.76167101 22:-0.145696 23:-0.32093501 24:-0.22223599 25:-0.259592 26:-0.214358 27:-0.225205 28:-0.18276601 29:-0.150461 30:-0.189439 31:-0.120054 32:-0.12993801 33:-0.133763 34:-0.1311 35:-0.191397 36:-0.22950201 37:-0.26529801 38:-0.063603997 39:-0.157189 40:-0.183598 41:-0.123044 42:-0.139154 43:-0.159254 45:-0.29318199 46:-0.215674 47:-0.079241998 48:-0.101023 49:-0.14805999 50:-0.615345 51:-0.150841 52:-0.459032 53:-0.34537601 54:-0.101856 55:-0.097346 56:-0.34857699 57:-0.25993401 #
0.5 1:7.5014248 2:-0.17969 3:-0.62200397 4:-0.045352999 5:-0.48666501 6:-0.35563499 7:-0.31764501 8:-0.27120501 9:-0.354184 10:-0.40832499 11:-0.332057 12:-0.66384602 13:-0.341429 14:-0.189715 15:-0.21397699 16:-0.303601 17:-0.33521399 18:-0.362865 19:-1.03152 21:-0.76167101 22:-0.145696 23:-0.32093501 24:-0.22223599 25:-0.259592 26:-0.214358 27:-0.225205 28:-0.18276601 29:-0.150461 30:-0.189439 31:-0.120054 32:-0.12993801 33:-0.133763 34:-0.1311 35:-0.191397 36:-0.22950201 37:-0.26529801 38:-0.063603997 39:-0.157189 40:-0.183598 41:-0.123044 42:-0.139154 43:-0.159254 45:-0.29318199 46:-0.215674 47:-0.079241998 48:-0.101023 49:-0.14805999 50:-0.615345 51:-0.150841 52:-0.459032 53:-0.34537601 54:-0.101856 55:-0.048717 56:-0.317653 57:-0.37826899 #
0.5 1:4.9171538 2:-0.17969 3:-0.62200397 4:-0.045352999 5:3.064954 6:-0.35563499 7:-0.31764501 8:-0.27120501 9:-0.354184 10:-0.40832499 11:-0.332057 12:-0.66384602 13:-0.341429 14:-0.189715 15:-0.21397699 16:0.45962599 17:-0.33521399 18:-0.362865 19:0.82029998 21:0.59193403 22:-0.145696 23:-0.32093501 24:-0.22223599 25:-0.259592 26:-0.214358 27:-0.225205 28:-0.18276601 29:-0.150461 30:-0.189439 31:-0.120054 32:-0.12993801 33:-0.133763 34:-0.1311 35:-0.191397 36:-0.22950201 37:1.92987 38:-0.063603997 39:-0.157189 40:-0.183598 41:-0.123044 42:-0.139154 43:-0.159254 45:-0.29318199 46:-0.215674 47:-0.079241998 48:-0.101023 49:-0.14805999 50:-0.615345 51:-0.150841 52:-0.079302996 53:-0.34537601 54:-0.101856 55:-0.074538 56:-0.26353699 57:-0.34681299 #
-0.5 1:-0.348299 2:-0.17969 3:-0.62200397 4:-0.045352999 5:-0.48666501 6:-0.35563499 7:-0.31764501 8:-0.27120501 9:-0.354184 10:-0.40832499 11:-0.332057 12:-0.66384602 13:-0.341429 14:-0.189715 15:-0.21397699 16:-0.303601 17:-0.33521399 18:-0.362865 19:-1.03152 21:-0.76167101 22:-0.145696 23:-0.32093501 24:14.385651 25:-0.259592 26:-0.214358 27:-0.225205 28:-0.18276601 29:-0.150461 30:-0.189439 31:-0.120054 32:-0.12993801 33:-0.133763 34:-0.1311 35:-0.191397 36:-0.22950201 37:-0.26529801 38:-0.063603997 39:-0.157189 40:-0.183598 41:-0.123044 42:-0.139154 43:-0.159254 45:-0.29318199 46:-0.215674 47:-0.079241998 48:-0.101023 49:-0.14805999 50:3.9196379 51:-0.150841 52:-0.459032 53:-0.34537601 54:-0.101856 55:-0.069188997 56:-0.34857699 57:-0.41721499 #
-0.5 1:0.55619597 2:-0.17969 3:-0.065295003 4:-0.045352999 5:-0.48666501 6:-0.35563499 7:-0.31764501 8:-0.27120501 9:-0.354184 10:-0.40832499 11:-0.332057 12:-0.29696101 13:0.56945401 14:-0.189715 15:-0.21397699 16:-0.039769001 17:-0.33521399 18:0.125366 19:0.084103003 21:-0.76167101 22:-0.145696 23:-0.32093501 24:0.227732 25:-0.259592 26:-0.214358 27:-0.225205 28:-0.18276601 29:-0.150461 30:-0.189439 31:-0.120054 32:-0.12993801 33:-0.133763 34:-0.1311 35:-0.191397 36:-0.22950201 37:-0.26529801 38:-0.063603997 39:-0.157189 40:-0.183598 41:-0.123044 42:-0.139154 43:-0.159254 45:-0.29318199 46:0.096426003 47:-0.079241998 48:-0.101023 49:-0.14805999 50:-0.115234 51:-0.150841 52:6.9795408 53:-0.34537601 54:-0.101856 55:-0.118279 56:-0.278999 57:-0.32434401 #
-0.5 1:-0.348299 2:-0.17969 3:-0.62200397 4:-0.045352999 5:0.44110501 6:-0.35563499 7:-0.31764501 8:-0.27120501 9:4.1323528 10:-0.40832499 11:-0.332057 12:0.174748 13:-0.341429 14:-0.189715 15:-0.21397699 16:-0.303601 17:-0.33521399 18:-0.362865 19:-1.03152 21:0.301283 22:-0.145696 23:-0.32093501 24:-0.22223599 25:-0.259592 26:-0.214358 27:0.136723 28:-0.18276601 29:-0.150461 30:-0.189439 31:-0.120054 32:-0.12993801 33:-0.133763 34:-0.1311 35:-0.191397 36:-0.22950201 37:1.469155 38:-0.063603997 39:-0.157189 40:-0.183598 41:-0.123044 42:-0.139154 43:-0.159254 45:0.37292001 46:-0.215674 47:-0.079241998 48:-0.101023 49:-0.14805999 50:-0.615345 51:-0.150841 52:-0.169084 53:-0.34537601 54:-0.101856 55:-0.089169003 56:-0.317653 57:-0.30337301 #
0.5 1:-0.348299 2:-0.17969 3:0.570943 4:-0.045352999 5:-0.48666501 6:1.617233 7:-0.31764501 8:-0.27120501 9:1.74888 10:-0.40832499 11:-0.332057 12:1.694701 13:-0.341429 14:-0.189715 15:-0.21397699 16:-0.020924 17:-0.33521399 18:-0.362865 19:0.49750599 21:0.23484799 22:-0.145696 23:-0.32093501 24:0.74198103 25:-0.259592 26:-0.214358 27:-0.225205 28:-0.18276601 29:-0.150461 30:-0.189439 31:-0.120054 32:-0.12993801 33:-0.133763 34:-0.1311 35:-0.191397 36:-0.22950201 37:-0.26529801 38:-0.063603997 39:-0.157189 40:-0.183598 41:-0.123044 42:-0.139154 43:-0.159254 45:-0.29318199 46:-0.215674 47:-0.079241998 48:-0.101023 49:-0.14805999 50:-0.158933 51:0.35643199 52:-0.180858 53:0.16464099 54:-0.101856 55:-0.102018 56:-0.178497 57:-0.143096 #
0.44457984534708083756981977785472 1:-0.348299 2:-0.17969 3:-0.62200397 4:-0.045352999 5:-0.48666501 6:-0.35563499 7:-0.31764501 8:-0.27120501 9:-0.354184 10:7.3194818 11:-0.332057 12:-0.66384602 13:-0.341429 14:-0.189715 15:-0.21397699 16:-0.303601 17:-0.33521399 18:-0.362865 19:-1.03152 21:-0.76167101 22:-0.145696 23:-0.32093501 24:-0.22223599 25:-0.259592 26:-0.214358 27:-0.225205 28:-0.18276601 29:-0.150461 30:-0.189439 31:-0.120054 32:-0.12993801 33:-0.133763 34:-0.1311 35:-0.191397 36:-0.22950201 37:-0.26529801 38:-0.063603997 39:-0.157189 40:-0.183598 41:-0.123044 42:-0.139154 43:-0.159254 45:-0.29318199 46:-0.215674 47:-0.079241998 48:-0.101023 49:0.91934103 50:-0.615345 51:-0.150841 52:0.94213903 53:-0.34537601 54:-0.101856 55:-0.013152 56:-0.317653 57:-0.32134801 #
-0.38875309994309481531615801941371 1:1.299174 2:-0.17969 3:0.392001 4:-0.045352999 5:1.731285 6:-0.35563499 7:-0.31764501 8:-0.27120501 9:-0.354184 10:0.37991101 11:-0.332057 12:0.0044089998 13:-0.341429 14:-0.189715 15:-0.21397699 16:-0.303601 17:-0.33521399 18:-0.362865 19:-0.453888 21:-0.76167101 22:-0.145696 23:1.004002 24:-0.22223599 25:-0.259592 26:-0.214358 27:-0.225205 28:-0.18276601 29:-0.150461 30:-0.189439 31:-0.120054 32:-0.12993801 33:-0.133763 34:-0.1311 35:-0.191397 36:-0.22950201 37:-0.26529801 38:-0.063603997 39:-0.157189 40:-0.183598 41:-0.123044 42:-0.139154 43:-0.159254 45:-0.29318199 46:0.35279399 47:5.1134849 48:-0.101023 49:-0.14805999 50:-0.231765 51:-0.150841 52:-0.459032 53:-0.34537601 54:-0.101856 55:-0.11708 56:-0.35630801 57:-0.33183399 #
0.5 1:-0.348299 2:-0.17969 3:-0.62200397 4:-0.045352999 5:-0.48666501 6:-0.35563499 7:-0.31764501 8:-0.27120501 9:-0.354184 10:5.4184418 11:-0.332057 12:-0.66384602 13:-0.341429 14:-0.189715 15:-0.21397699 16:-0.303601 17:-0.33521399 18:-0.362865 19:0.033135001 21:-0.76167101 22:-0.145696 23:-0.32093501 24:2.7989769 25:-0.259592 26:-0.214358 27:-0.225205 28:-0.18276601 29:-0.150461 30:-0.189439 31:-0.120054 32:-0.12993801 33:-0.133763 34:-0.1311 35:-0.191397 36:-0.22950201 37:-0.26529801 38:-0.063603997 39:-0.157189 40:-0.183598 41:-0.123044 42:-0.139154 43:-0.159254 45:-0.29318199 46:-0.215674 47:-0.079241998 48:-0.101023 49:0.74088001 50:-0.615345 51:-0.150841 52:-0.459032 53:-0.34537601 54:-0.101856 55:-0.028214 56:-0.317653 57:-0.32734001 #
0.5 1:-0.348299 2:-0.17969 3:-0.62200397 4:-0.045352999 5:-0.48666501 6:-0.35563499 7:-0.31764501 8:-0.27120501 9:-0.354184 10:-0.40832499 11:-0.332057 12:-0.66384602 13:-0.341429 14:-0.189715 15:-0.21397699 16:-0.303601 17:-0.33521399 18:-0.362865 19:-1.03152 21:-0.76167101 22:-0.145696 23:-0.32093501 24:-0.22223599 25:-0.259592 26:-0.214358 27:-0.225205 28:-0.18276601 29:-0.150461 30:-0.189439 31:-0.120054 32:-0.12993801 33:-0.133763 34:-0.1311 35:-0.191397 36:-0.22950201 37:-0.26529801 38:-0.063603997 39:-0.157189 40:-0.183598 41:-0.123044 42:-0.139154 43:-0.159254 45:-0.29318199 46:-0.215674 47:-0.079241998 48:-0.101023 49:-0.14805999 50:-0.615345 51:-0.150841 52:-0.459032 53:-0.34537601 54:-0.101856 55:-0.122491 56:-0.38723099 57:-0.41571701 #
0.26629042441813866037847446932574 1:-0.348299 2:-0.17969 3:-0.62200397 4:-0.045352999 5:-0.48666501 6:-0.35563499 7:-0.31764501 8:-0.27120501 9:-0.354184 10:-0.40832499 11:-0.332057 12:-0.66384602 13:-0.341429 14:-0.189715 15:-0.21397699 16:-0.303601 17:-0.33521399 18:-0.362865 19:2.740077 21:-0.76167101 22:-0.145696 23:-0.32093501 24:10.480572 25:-0.259592 26:-0.214358 27:-0.225205 28:-0.18276601 29:-0.150461 30:-0.189439 31:-0.120054 32:-0.12993801 33:-0.133763 34:-0.1311 35:-0.191397 36:-0.22950201 37:-0.26529801 38:-0.063603997 39:-0.157189 40:-0.183598 41:-0.123044 42:-0.139154 43:-0.159254 45:-0.29318199 46:-0.215674 47:-0.079241998 48:-0.101023 49:-0.14805999 50:-0.615345 51:-0.150841 52:0.33133501 53:-0.34537601 54:-0.101856 55:-0.076044001 56:-0.32538399 57:-0.40673 #
-0.5 1:-0.348299 2:-0.17969 3:-0.62200397 4:-0.045352999 5:-0.48666501 6:-0.35563499 7:4.707222 8:4.8340869 9:-0.354184 10:-0.40832499 11:-0.332057 12:-0.66384602 13:-0.341429 14:-0.189715 15:-0.21397699 16:-0.303601 17:-0.33521399 18:-0.362865 19:-1.03152 21:-0.76167101 22:-0.145696 23:-0.32093501 24:-0.22223599 25:-0.259592 26:-0.214358 27:-0.225205 28:-0.18276601 29:-0.150461 30:-0.189439 31:-0.120054 32:-0.12993801 33:-0.133763 34:-0.1311 35:-0.191397 36:-0.22950201 37:-0.26529801 38:-0.063603997 39:-0.157189 40:-0.183598 41:-0.123044 42:-0.139154 43:-0.159254 45:-0.29318199 46:-0.215674 47:-0.079241998 48:-0.101023 49:-0.14805999 50:2.613524 51:-0.150841 52:-0.459032 53:2.0600209 54:-0.101856 55:-0.020897999 56:-0.22488301 57:-0.34831101 #
-0.5 1:-0.348299 2:0.37434199 3:-0.62200397 4:-0.045352999 5:0.38311899 6:-0.35563499 7:-0.31764501 8:0.188731 9:-0.354184 10:-0.099212997 11:-0.332057 12:-0.66384602 13:-0.341429 14:-0.189715 15:-0.21397699 16:1.39246 17:-0.33521399 18:3.4732349 19:-0.012169 21:1.5718451 22:-0.145696 23:-0.32093501 24:-0.22223599 25:-0.259592 26:-0.214358 27:-0.225205 28:-0.18276601 29:-0.150461 30:-0.189439 31:-0.120054 32:-0.12993801 33:-0.133763 34:-0.1311 35:-0.191397 36:-0.22950201 37:-0.26529801 38:-0.063603997 39:-0.157189 40:-0.183598 41:-0.123044 42:-0.139154 43:-0.159254 45:-0.085024998 46:0.0072550001 47:-0.079241998 48:-0.101023 49:-0.14805999 50:-0.615345 51:-0.150841 52:-0.37072301 53:-0.34537601 54:-0.101856 55:-0.083544001 56:-0.085726 57:-0.102652 #
-0.5 1:-0.348299 2:-0.17969 3:-0.62200397 4:-0.045352999 5:-0.48666501 6:-0.35563499 7:-0.31764501 8:-0.27120501 9:2.029289 10:-0.40832499 11:2.8155129 12:-0.66384602 13:-0.341429 14:-0.189715 15:-0.21397699 16:0.33713299 17:-0.33521399 18:3.1942461 19:1.279008 21:-0.196977 22:-0.145696 23:-0.32093501 24:-0.22223599 25:-0.259592 26:-0.214358 27:-0.225205 28:-0.18276601 29:-0.150461 30:-0.189439 31:-0.120054 32:-0.12993801 33:-0.133763 34:-0.1311 35:-0.191397 36:-0.22950201 37:-0.26529801 38:-0.063603997 39:-0.157189 40:-0.183598 41:-0.123044 42:-0.139154 43:-0.159254 45:-0.29318199 46:-0.215674 47:-0.079241998 48:-0.101023 49:-0.14805999 50:-0.615345 51:-0.150841 52:0.310729 53:-0.34537601 54:-0.101856 55:-0.123966 56:-0.3795 57:-0.385759 #
0.5 1:-0.348299 2:-0.17969 3:-0.62200397 4:-0.045352999 5:0.064198002 6:0.893848 7:0.542467 8:0.60267401 9:-0.354184 10:-0.40832499 11:1.426879 12:-0.66384602 13:-0.341429 14:-0.189715 15:-0.21397699 16:0.054455999 17:-0.33521399 18:-0.362865 19:1.160084 21:0.84106398 22:-0.145696 23:-0.32093501 24:0.38843501 25:-0.259592 26:-0.214358 27:-0.225205 28:-0.18276601 29:-0.150461 30:-0.189439 31:-0.120054 32:-0.12993801 33:-0.133763 34:-0.1311 35:-0.191397 36:-0.22950201 37:-0.26529801 38:-0.063603997 39:-0.157189 40:-0.183598 41:-0.123044 42:-0.139154 43:-0.159254 45:-0.29318199 46:-0.215674 47:-0.079241998 48:-0.101023 49:-0.14805999 50:-0.615345 51:-0.150841 52:-0.277998 53:-0.34537601 54:-0.101856 55:-0.098021999 56:-0.32538399 57:-0.29588401 #
0.12786313432835741399351547897822 1:-0.348299 2:-0.17969 3:-0.62200397 4:-0.045352999 5:-0.48666501 6:-0.35563499 7:-0.31764501 8:7.0647779 9:-0.354184 10:-0.40832499 11:-0.332057 12:-0.66384602 13:-0.341429 14:-0.189715 15:-0.21397699 16:-0.303601 17:-0.33521399 18:-0.362865 19:-1.03152 21:-0.76167101 22:-0.145696 23:-0.32093501 24:-0.22223599 25:-0.259592 26:-0.214358 27:-0.225205 28:-0.18276601 29:-0.150461 30:-0.189439 31:-0.120054 32:-0.12993801 33:-0.133763 34:-0.1311 35:-0.191397 36:-0.22950201 37:-0.26529801 38:-0.063603997 39:-0.157189 40:-0.183598 41:-0.123044 42:-0.139154 43:-0.159254 45:0.81005001 46:-0.215674 47:-0.079241998 48:-0.101023 49:-0.14805999 50:0.389732 51:-0.150841 52:-0.154366 53:0.40337199 54:-0.101856 55:-0.045797002 56:-0.22488301 57:-0.32584199 #
-0.24136086966418934807165896927472 1:-0.348299 2:-0.17969 3:1.604831 4:-0.045352999 5:-0.48666501 6:-0.35563499 7:-0.31764501 8:2.3044381 9:-0.354184 10:-0.40832499 11:-0.332057 12:-0.66384602 13:-0.341429 14:-0.189715 15:7.246408 16:-0.303601 17:-0.33521399 18:-0.362865 19:0.87693101 21:1.098498 22:-0.145696 23:-0.32093501 24:-0.22223599 25:-0.259592 26:-0.214358 27:0.091481999 28:-0.18276601 29:-0.150461 30:-0.189439 31:-0.120054 32:-0.12993801 33:-0.133763 34:-0.1311 35:-0.191397 36:-0.22950201 37:-0.26529801 38:-0.063603997 39:-0.157189 40:-0.183598 41:-0.123044 42:-0.139154 43:-0.159254 45:0.87249702 46:-0.215674 47:-0.079241998 48:-0.101023 49:-0.14805999 50:-0.615345 51:-0.150841 52:-0.459032 53:-0.34537601 54:-0.101856 55:-0.099927999 56:-0.3795 57:-0.37826899 #
-0.5 1:-0.348299 2:-0.17969 3:0.78965002 4:-0.045352999 5:0.54258001 6:-0.35563499 7:-0.31764501 8:-0.27120501 9:-0.354184 10:-0.40832499 11:-0.332057 12:-0.66384602 13:-0.341429 14:-0.189715 15:-0.21397699 16:-0.303601 17:7.7753019 18:-0.362865 19:-1.03152 21:0.41754299 22:-0.145696 23:-0.32093501 24:-0.22223599 25:-0.259592 26:-0.214358 27:-0.225205 28:-0.18276601 29:-0.150461 30:-0.189439 31:-0.120054 32:-0.12993801 33:-0.133763 34:-0.1311 35:-0.191397 36:-0.22950201 37:-0.26529801 38:-0.063603997 39:-0.157189 40:-0.183598 41:-0.123044 42:0.82408202 43:-0.159254 45:-0.29318199 46:-0.215674 47:-0.079241998 48:-0.101023 49:-0.14805999 50:-0.34829599 51:-0.150841 52:-0.37808201 53:-0.34537601 54:-0.101856 55:0.30991599 56:-0.00068699999 57:-0.23746499 #
-0.5 1:-0.31599599 2:-0.158914 3:-0.224355 4:-0.045352999 5:-0.356197 6:-0.25699201 7:-0.31764501 8:-0.27120501 9:-0.178929 10:-0.331047 11:-0.332057 12:-0.048004001 13:-0.243834 14:0.318295 15:-0.21397699 16:-0.218798 17:0.073719002 18:-0.136186 19:-0.83331299 21:-0.637106 22:-0.145696 23:-0.32093501 24:-0.174025 25:-0.259592 26:-0.214358 27:-0.21106701 28:-0.120792 29:-0.12728 30:-0.189439 31:-0.120054 32:-0.12993801 33:2.206198 34:-0.1311 35:-0.191397 36:0.116844 37:2.1737771 38:-0.063603997 39:-0.157189 40:-0.078638002 41:-0.123044 42:-0.044186998 43:-0.159254 45:-0.241143 46:-0.015038 47:-0.079241998 48:0.42227399 49:-0.020106999 50:0.66163599 51:-0.096874997 52:-0.43548301 53:-0.34537601 54:-0.093749002 55:-0.092858002 56:0.370397 57:4.3012242 #
-0.5 1:-0.348299 2:-0.17969 3:-0.62200397 4:-0.045352999 5:-0.48666501 6:-0.35563499 7:-0.31764501 8:-0.27120501 9:-0.354184 10:-0.40832499 11:-0.332057 12:-0.66384602 13:-0.341429 14:-0.189715 15:-0.21397699 16:-0.303601 17:-0.33521399 18:-0.362865 19:2.2983589 21:-0.76167101 22:-0.145696 23:-0.32093501 24:-0.22223599 25:-0.259592 26:-0.214358 27:-0.225205 28:-0.18276601 29:-0.150461 30:-0.189439 31:-0.120054 32:-0.12993801 33:-0.133763 34:-0.1311 35:-0.191397 36:-0.22950201 37:-0.26529801 38:-0.063603997 39:-0.157189 40:-0.183598 41:-0.123044 42:-0.139154 43:-0.159254 45:-0.29318199 46:-0.215674 47:-0.079241998 48:-0.101023 49:-0.14805999 50:-0.615345 51:-0.150841 52:-0.459032 53:-0.34537601 54:-0.101856 55:-0.084559001 56:-0.38723099 57:-0.43668801 #
-0.30458646111600462536017630554852 1:-0.348299 2:-0.17969 3:-0.065295003 4:-0.045352999 5:-0.080766 6:-0.35563499 7:-0.31764501 8:-0.27120501 9:-0.354184 10:-0.40832499 11:-0.332057 12:0.436809 13:-0.341429 14:-0.189715 15:-0.21397699 16:-0.303601 17:-0.33521399 18:-0.362865 19:-0.87295502 21:-0.76167101 22:-0.145696 23:-0.32093501 24:-0.22223599 25:1.056766 26:-0.214358 27:-0.225205 28:0.97408098 29:-0.150461 30:-0.189439 31:-0.120054 32:-0.12993801 33:-0.133763 34:-0.1311 35:1.3952889 36:7.76794 37:0.493525 38:-0.063603997 39:0.67749202 40:-0.183598 41:-0.123044 42:-0.139154 43:-0.159254 45:-0.29318199 46:-0.215674 47:-0.079241998 48:-0.101023 49:0.58262199 50:-0.265753 51:-0.150841 52:-0.459032 53:-0.34537601 54:-0.101856 55:-0.101527 56:0.0070440001 57:-0.158075 #
-0.020937416878200831860112884896807 1:-0.348299 2:-0.17969 3:-0.62200397 4:-0.045352999 5:-0.48666501 6:-0.35563499 7:-0.31764501 8:-0.27120501 9:-0.354184 10:-0.40832499 11:-0.332057 12:1.170579 13:-0.341429 14:-0.189715 15:-0.21397699 16:-0.303601 17:1.255083 18:-0.362865 19:-0.238692 21:0.40093499 22:-0.145696 23:-0.32093501 24:-0.22223599 25:-0.259592 26:-0.214358 27:-0.027276 28:-0.18276601 29:-0.150461 30:-0.189439 31:1.6062191 32:-0.12993801 33:-0.133763 34:-0.1311 35:-0.191397 36:-0.22950201 37:-0.26529801 38:-0.063603997 39:-0.157189 40:7.1985998 41:-0.123044 42:-0.139154 43:-0.159254 45:-0.29318199 46:-0.215674 47:-0.079241998 48:-0.101023 49:-0.14805999 50:0.68105799 51:0.56150001 52:-0.459032 53:-0.34537601 54:-0.101856 55:0.38894701 56:1.128024 57:0.119039 #
-0.5 1:-0.348299 2:-0.17969 3:-0.62200397 4:-0.045352999 5:12.690568 6:-0.35563499 7:-0.31764501 8:-0.27120501 9:-0.354184 10:-0.40832499 11:-0.332057 12:-0.66384602 13:-0.341429 14:-0.189715 15:-0.21397699 16:-0.303601 17:-0.33521399 18:-0.362865 19:-1.03152 21:-0.76167101 22:-0.145696 23:-0.32093501 24:-0.22223599 25:-0.259592 26:-0.214358 27:-0.225205 28:-0.18276601 29:-0.150461 30:-0.189439 31:-0.120054 32:-0.12993801 33:-0.133763 34:-0.1311 35:-0.191397 36:-0.22950201 37:-0.26529801 38:-0.063603997 39:-0.157189 40:-0.183598 41:-0.123044 42:-0.139154 43:-0.159254 45:-0.29318199 46:-0.215674 47:-0.079241998 48:-0.101023 49:-0.14805999 50:-0.615345 51:-0.150841 52:-0.459032 53:-0.34537601 54:-0.101856 55:-0.130667 56:-0.41042399 57:-0.44268 #
0.5 1:-0.348299 2:0.69291002 3:-0.62200397 4:-0.045352999 5:-0.48666501 6:-0.35563499 7:-0.31764501 8:-0.27120501 9:-0.354184 10:-0.40832499 11:-0.332057 12:-0.66384602 13:-0.341429 14:-0.189715 15:-0.21397699 16:0.88364202 17:-0.33521399 18:-0.362865 19:-0.31797501 21:-0.76167101 22:-0.145696 23:-0.32093501 24:-0.22223599 25:-0.259592 26:-0.214358 27:-0.225205 28:-0.18276601 29:-0.150461 30:-0.189439 31:-0.120054 32:-0.12993801 33:-0.133763 34:-0.1311 35:-0.191397 36:-0.22950201 37:-0.26529801 38:-0.063603997 39:-0.157189 40:-0.183598 41:-0.123044 42:-0.139154 43:-0.159254 45:-0.29318199 46:-0.215674 47:-0.079241998 48:-0.101023 49:-0.14805999 50:-0.615345 51:-0.150841 52:0.153245 53:-0.34537601 54:-0.101856 55:0.139376 56:-0.093456998 57:-0.23896299 #
0.5 1:1.816028 2:-0.17969 3:0.71012098 4:-0.045352999 5:3.4273651 6:-0.35563499 7:-0.31764501 8:-0.27120501 9:-0.354184 10:-0.40832499 11:-0.332057 12:-0.66384602 13:-0.341429 14:-0.189715 15:-0.21397699 16:-0.303601 17:1.186927 18:0.80540198 19:1.262019 21:0.359413 22:-0.145696 23:-0.32093501 24:-0.22223599 25:-0.259592 26:-0.214358 27:-0.225205 28:-0.18276601 29:-0.150461 30:-0.189439 31:-0.120054 32:-0.12993801 33:-0.133763 34:-0.1311 35:-0.191397 36:-0.22950201 37:-0.26529801 38:-0.063603997 39:-0.157189 40:-0.183598 41:-0.123044 42:-0.139154 43:-0.159254 45:-0.29318199 46:-0.215674 47:-0.079241998 48:-0.101023 49:-0.14805999 50:-0.615345 51:-0.150841 52:-0.16466799 53:-0.34537601 54:-0.101856 55:-0.1287 56:-0.39496201 57:-0.39474601 #
0.5 1:-0.348299 2:-0.17969 3:-0.62200397 4:-0.045352999 5:0.064198002 6:0.893848 7:0.542467 8:0.60267401 9:-0.354184 10:-0.40832499 11:1.426879 12:-0.66384602 13:-0.341429 14:-0.189715 15:-0.21397699 16:0.054455999 17:-0.33521399 18:-0.362865 19:0.910909 21:1.14002 22:-0.145696 23:-0.32093501 24:0.38843501 25:-0.259592 26:-0.214358 27:-0.225205 28:-0.18276601 29:-0.150461 30:-0.189439 31:-0.120054 32:-0.12993801 33:-0.133763 34:-0.1311 35:-0.191397 36:-0.22950201 37:-0.26529801 38:-0.063603997 39:-0.157189 40:-0.183598 41:-0.123044 42:-0.139154 43:-0.159254 45:0.102316 46:-0.215674 47:-0.079241998 48:-0.101023 49:-0.14805999 50:-0.615345 51:-0.150841 52:-0.28094199 53:-0.34537601 54:-0.101856 55:-0.097469002 56:-0.32538399 57:-0.288394 #
-0.5 1:-0.348299 2:1.447778 3:-0.62200397 4:-0.045352999 5:4.6160698 6:3.4914579 7:-0.31764501 8:2.4194219 9:-0.354184 10:6.855814 11:-0.332057 12:-0.66384602 13:-0.341429 14:-0.189715 15:-0.21397699 16:0.79883897 17:-0.33521399 18:-0.362865 19:-0.36894199 21:0.20993499 22:-0.145696 23:-0.32093501 24:-0.22223599 25:-0.259592 26:-0.214358 27:0.105619 28:-0.18276601 29:-0.150461 30:-0.189439 31:-0.120054 32:-0.12993801 33:-0.133763 34:-0.1311 35:-0.191397 36:-0.22950201 37:-0.26529801 38:-0.063603997 39:-0.157189 40:-0.183598 41:-0.123044 42:-0.139154 43:-0.159254 45:0.92453599 46:-0.215674 47:-0.079241998 48:-0.101023 49:-0.14805999 50:0.31690001 51:-0.150841 52:-0.459032 53:-0.34537601 54:-0.101856 55:-0.130667 56:-0.41042399 57:-0.42320701 #
-0.5 1:-0.348299 2:0.041923001 3:0.014235 4:-0.045352999 5:-0.25472301 6:0.170463 7:-0.31764501 8:-0.27120501 9:0.206633 10:0.086254999 11:-0.332057 12:-0.66384602 13:-0.341429 14:-0.189715 15:0.85179198 16:-0.303601 17:0.39177901 18:0.195113 19:-0.578475 21:0.96562898 22:-0.145696 23:-0.32093501 24:0.034887999 25:-0.259592 26:-0.214358 27:-0.17996401 28:1.139345 29:-0.150461 30:-0.189439 31:-0.120054 32:-0.12993801 33:-0.133763 34:-0.1311 35:-0.191397 36:-0.22950201 37:-0.26529801 38:-0.063603997 39:-0.157189 40:-0.183598 41:-0.123044 42:-0.139154 43:-0.159254 45:-0.29318199 46:-0.215674 47:-0.079241998 48:-0.101023 49:-0.14805999 50:5.7404289 51:-0.150841 52:-0.42665201 53:1.018285 54:-0.101856 55:-0.040970001 56:0.795596 57:0.71221501 #
-0.5 1:-0.348299 2:-0.17969 3:-0.62200397 4:-0.045352999 5:-0.48666501 6:-0.35563499 7:-0.31764501 8:-0.27120501 9:-0.354184 10:-0.40832499 11:-0.332057 12:-0.66384602 13:-0.341429 14:-0.189715 15:-0.21397699 16:-0.303601 17:-0.33521399 18:-0.362865 19:-0.578475 21:-0.76167101 22:-0.145696 23:-0.32093501 24:1.063386 25:-0.259592 26:-0.214358 27:0.001 28:-0.18276601 29:-0.150461 30:-0.189439 31:-0.120054 32:-0.12993801 33:-0.133763 34:-0.1311 35:-0.191397 36:-0.22950201 37:-0.26529801 38:-0.063603997 39:-0.157189 40:-0.183598 41:-0.123044 42:-0.139154 43:-0.159254 45:0.539446 46:-0.215674 47:-0.079241998 48:-0.101023 49:-0.14805999 50:-0.615345 51:-0.150841 52:-0.459032 53:0.61316597 54:-0.101856 55:-0.120001 56:-0.39496201 57:-0.397742 #
0.5 1:0.39467901 2:-0.17969 3:0.312471 4:-0.045352999 5:-0.153248 6:-0.35563499 7:-0.31764501 8:-0.27120501 9:-0.354184 10:-0.40832499 11:-0.332057 12:-0.66384602 13:-0.341429 14:0.49759299 15:-0.21397699 16:-0.086882003 17:0.18731201 18:-0.362865 19:2.9892521 21:0.80784702 22:-0.145696 23:-0.32093501 24:0.14737999 25:-0.259592 26:-0.214358 27:-0.225205 28:-0.18276601 29:-0.150461 30:-0.189439 31:-0.120054 32:-0.12993801 33:-0.133763 34:-0.1311 35:-0.191397 36:-0.22950201 37:-0.26529801 38:-0.063603997 39:-0.157189 40:-0.183598 41:-0.123044 42:-0.139154 43:-0.159254 45:0.445775 46:-0.215674 47:-0.079241998 48:-0.101023 49:-0.003271 50:-0.40656099 51:-0.150841 52:-0.201464 53:-0.34537601 54:-0.101856 55:-0.12163 56:-0.33311501 57:-0.34531501 #
0.5 1:-0.348299 2:-0.17969 3:-0.62200397 4:-0.045352999 5:-0.48666501 6:-0.35563499 7:-0.31764501 8:-0.27120501 9:-0.354184 10:6.1603112 11:-0.332057 12:-0.66384602 13:-0.341429 14:-0.189715 15:-0.21397699 16:-0.303601 17:-0.33521399 18:-0.362865 19:-1.03152 21:-0.76167101 22:-0.145696 23:-0.32093501 24:-0.22223599 25:-0.259592 26:-0.214358 27:-0.225205 28:-0.18276601 29:-0.150461 30:-0.189439 31:-0.120054 32:-0.12993801 33:-0.133763 34:-0.1311 35:-0.191397 36:-0.22950201 37:-0.26529801 38:-0.063603997 39:-0.157189 40:-0.183598 41:-0.123044 42:-0.139154 43:-0.159254 45:-0.29318199 46:-0.215674 47:-0.079241998 48:-0.101023 49:0.81832498 50:-0.615345 51:-0.150841 52:-0.459032 53:-0.34537601 54:-0.101856 55:-0.028214 56:-0.317653 57:-0.32734001 #
0.5 1:-0.348299 2:-0.17969 3:-0.62200397 4:-0.045352999 5:0.499091 6:-0.35563499 7:-0.31764501 8:-0.27120501 9:-0.354184 10:2.3891411 11:-0.332057 12:0.22716001 13:-0.341429 14:-0.189715 15:-0.21397699 16:-0.096303999 17:-0.33521399 18:-0.362865 19:0.89392 21:0.74141198 22:-0.145696 23:-0.32093501 24:-0.22223599 25:-0.259592 26:-0.214358 27:-0.225205 28:-0.18276601 29:-0.150461 30:-0.189439 31:-0.120054 32:-0.12993801 33:-0.133763 34:-0.1311 35:-0.191397 36:-0.22950201 37:-0.26529801 38:-0.063603997 39:-0.157189 40:-0.183598 41:-0.123044 42:0.47134799 43:-0.159254 45:-0.064208999 46:-0.215674 47:-0.079241998 48:-0.101023 49:0.38732401 50:2.093992 51:1.565253 52:-0.16614 53:-0.34537601 54:-0.101856 55:0.025826 56:0.223509 57:0.34971899 #
-0.20715320998255715156943779220455 1:-0.348299 2:-0.17969 3:-0.62200397 4:-0.045352999 5:-0.48666501 6:-0.35563499 7:-0.31764501 8:-0.27120501 9:-0.354184 10:-0.40832499 11:-0.332057 12:-0.66384602 13:-0.341429 14:-0.189715 15:-0.21397699 16:-0.303601 17:-0.33521399 18:-0.362865 19:3.6858079 21:-0.76167101 22:-0.145696 23:-0.32093501 24:-0.22223599 25:-0.259592 26:-0.214358 27:-0.225205 28:-0.18276601 29:-0.150461 30:-0.189439 31:-0.120054 32:-0.12993801 33:-0.133763 34:-0.1311 35:-0.191397 36:-0.22950201 37:-0.26529801 38:-0.063603997 39:-0.157189 40:-0.183598 41:-0.123044 42:-0.139154 43:-0.159254 45:-0.29318199 46:-0.215674 47:-0.079241998 48:-0.101023 49:-0.14805999 50:-0.615345 51:-0.150841 52:-0.459032 53:-0.34537601 54:-0.101856 55:-0.130667 56:-0.41042399 57:-0.44118199 #
-0.5 1:-0.348299 2:-0.17969 3:-0.62200397 4:-0.045352999 5:-0.48666501 6:-0.35563499 7:-0.31764501 8:-0.27120501 9:-0.354184 10:-0.40832499 11:-0.332057 12:2.873975 13:-0.341429 14:-0.189715 15:-0.21397699 16:-0.303601 17:-0.33521399 18:-0.362865 19:0.49750599 21:1.480497 22:-0.145696 23:-0.32093501 24:-0.22223599 25:-0.259592 26:-0.214358 27:-0.225205 28:-0.18276601 29:-0.150461 30:-0.189439 31:-0.120054 32:-0.12993801 33:-0.133763 34:-0.1311 35:-0.191397 36:-0.22950201 37:-0.26529801 38:-0.063603997 39:-0.157189 40:-0.183598 41:-0.123044 42:-0.139154 43:-0.159254 45:-0.29318199 46:-0.215674 47:-0.079241998 48:-0.101023 49:-0.14805999 50:-0.615345 51:-0.150841 52:0.194455 53:-0.34537601 54:-0.101856 55:-0.075337 56:-0.364039 57:-0.40223601 #
-0.051501143769698387586686294525862 1:-0.348299 2:-0.17969 3:-0.62200397 4:-0.045352999 5:-0.48666501 6:-0.35563499 7:-0.31764501 8:-0.27120501 9:-0.354184 10:-0.40832499 11:-0.332057 12:-0.66384602 13:-0.341429 14:-0.189715 15:-0.21397699 16:-0.303601 17:-0.33521399 18:-0.362865 19:-1.03152 21:-0.76167101 22:-0.145696 23:-0.32093501 24:-0.22223599 25:-0.259592 26:-0.214358 27:-0.225205 28:-0.18276601 29:-0.150461 30:-0.189439 31:-0.120054 32:-0.12993801 33:-0.133763 34:-0.1311 35:-0.191397 36:-0.22950201 37:-0.26529801 38:-0.063603997 39:-0.157189 40:-0.183598 41:-0.123044 42:-0.139154 43:-0.159254 45:-0.29318199 46:-0.215674 47:-0.079241998 48:-0.101023 49:-0.14805999 50:-0.615345 51:-0.150841 52:-0.459032 53:-0.34537601 54:-0.101856 55:-0.099927999 56:-0.3795 57:-0.43219399 #
-0.5 1:-0.348299 2:-0.17969 3:-0.62200397 4:-0.045352999 5:-0.48666501 6:-0.35563499 7:-0.31764501 8:-0.27120501 9:-0.354184 10:-0.40832499 11:-0.332057 12:-0.66384602 13:-0.341429 14:-0.189715 15:-0.21397699 16:0.63865501 17:4.2084918 18:-0.362865 19:1.233704 21:0.899194 22:-0.145696 23:-0.32093501 24:-0.22223599 25:-0.259592 26:-0.214358 27:-0.225205 28:-0.18276601 29:-0.150461 30:-0.189439 31:-0.120054 32:-0.12993801 33:-0.133763 34:-0.1311 35:-0.191397 36:-0.22950201 37:-0.26529801 38:-0.063603997 39:-0.157189 40:-0.183598 41:-0.123044 42:-0.139154 43:-0.159254 45:-0.29318199 46:-0.215674 47:-0.079241998 48:-0.101023 49:-0.14805999 50:1.229723 51:-0.150841 52:-0.459032 53:-0.34537601 54:-0.101856 55:-0.105891 56:-0.33311501 57:-0.36029401 #
0.5 1:-0.348299 2:-0.17969 3:-0.62200397 4:-0.045352999 5:0.83250803 6:-0.35563499 7:-0.31764501 8:-0.27120501 9:-0.354184 10:0.28717801 11:-0.332057 12:-0.074210003 13:-0.341429 14:-0.189715 15:-0.21397699 16:-0.303601 17:-0.33521399 18:-0.362865 19:0.786322 21:-0.0059770001 22:-0.145696 23:-0.32093501 24:-0.22223599 25:-0.259592 26:-0.214358 27:-0.225205 28:-0.18276601 29:-0.150461 30:-0.189439 31:-0.120054 32:-0.12993801 33:-0.133763 34:-0.1311 35:-0.191397 36:-0.22950201 37:-0.26529801 38:-0.063603997 39:-0.157189 40:-0.183598 41:-0.123044 42:-0.139154 43:-0.159254 45:1.1326931 46:-0.215674 47:-0.079241998 48:-0.101023 49:-0.14805999 50:-0.615345 51:-0.150841 52:-0.217654 53:-0.34537601 54:-0.101856 55:-0.12833101 56:-0.38723099 57:-0.38126501 #
-0.5 1:0.233162 2:-0.17969 3:-0.26412001 4:-0.045352999 5:-0.48666501 6:-0.35563499 7:-0.31764501 8:-0.27120501 9:2.9406171 10:-0.40832499 11:-0.332057 12:-0.17903399 13:-0.341429 14:-0.189715 15:-0.21397699 16:-0.218798 17:-0.33521399 18:-0.362865 19:-0.82198697 21:-0.61219299 22:-0.145696 23:-0.32093501 24:-0.22223599 25:0.176597 26:0.57522702 27:-0.19975699 28:-0.18276601 29:-0.150461 30:-0.189439 31:-0.120054 32:-0.12993801 33:0.45520699 34:-0.1311 35:-0.191397 36:-0.22950201 37:0.493525 38:-0.063603997 39:-0.157189 40:-0.183598 41:-0.123044 42:-0.139154 43:-0.159254 45:-0.29318199 46:-0.215674 47:-0.079241998 48:-0.101023 49:0.45803499 50:0.19551399 51:0.39960501 52:-0.459032 53:-0.25494701 54:-0.101856 55:-0.025109001 56:0.25443301 57:0.91742897 #
-0.5 1:-0.348299 2:-0.17969 3:0.51129597 4:-0.045352999 5:0.745529 6:-0.35563499 7:-0.31764501 8:-0.27120501 9:0.62724602 10:-0.40832499 11:2.3063469 12:-0.29696101 13:-0.341429 14:-0.189715 15:-0.21397699 16:0.49731699 17:-0.33521399 18:0.63103402 19:-0.227366 21:-0.055803001 22:-0.145696 23:-0.32093501 24:-0.22223599 25:-0.259592 26:-0.214358 27:-0.225205 28:-0.18276601 29:-0.150461 30:-0.189439 31:-0.120054 32:-0.12993801 33:-0.133763 34:-0.1311 35:-0.191397 36:-0.22950201 37:-0.26529801 38:-0.063603997 39:-0.157189 40:-0.183598 41:-0.123044 42:-0.139154 43:-0.159254 45:-0.29318199 46:-0.215674 47:-0.079241998 48:-0.101023 49:0.121316 50:-0.615345 51:-0.150841 52:-0.043979 53:0.52997202 54:-0.101856 55:-0.085787997 56:-0.217152 57:-0.027756 #
-0.5 1:-0.348299 2:-0.17969 3:-0.62200397 4:-0.045352999 5:-0.48666501 6:-0.35563499 7:-0.31764501 8:-0.27120501 9:-0.354184 10:2.620976 11:-0.332057 12:-0.66384602 13:-0.341429 14:-0.189715 15:-0.21397699 16:-0.303601 17:-0.33521399 18:3.0547509 19:0.078438997 21:-0.76167101 22:-0.145696 23:-0.32093501 24:-0.22223599 25:-0.259592 26:-0.214358 27:-0.225205 28:3.8661981 29:-0.150461 30:-0.189439 31:-0.120054 32:-0.12993801 33:-0.133763 34:-0.1311 35:-0.191397 36:-0.22950201 37:-0.26529801 38:-0.063603997 39:-0.157189 40:-0.183598 41:-0.123044 42:-0.139154 43:-0.159254 45:-0.29318199 46:-0.215674 47:-0.079241998 48:-0.101023 49:-0.14805999 50:1.195735 51:-0.150841 52:-0.459032 53:-0.34537601 54:-0.101856 55:-0.104324 56:-0.33311501 57:-0.40523201 #
0.5 1:-0.348299 2:-0.17969 3:-0.62200397 4:-0.045352999 5:-0.48666501 6:-0.35563499 7:-0.31764501 8:-0.27120501 9:-0.354184 10:-0.40832499 11:-0.332057 12:-0.66384602 13:-0.341429 14:6.0857 15:-0.21397699 16:-0.303601 17:-0.33521399 18:-0.362865 19:-1.03152 21:-0.76167101 22:-0.145696 23:-0.32093501 24:-0.22223599 25:-0.259592 26:-0.214358 27:-0.225205 28:-0.18276601 29:-0.150461 30:-0.189439 31:-0.120054 32:-0.12993801 33:-0.133763 34:-0.1311 35:-0.191397 36:3.0765271 37:-0.26529801 38:-0.063603997 39:-0.157189 40:-0.183598 41:-0.123044 42:-0.139154 43:-0.159254 45:0.79964203 46:-0.215674 47:-0.079241998 48:-0.101023 49:-0.14805999 50:0.20522501 51:-0.150841 52:-0.459032 53:0.87721699 54:-0.101856 55:-0.037005 56:-0.193959 57:-0.316854 #
-0.5 1:-0.348299 2:-0.17969 3:-0.62200397 4:-0.045352999 5:-0.48666501 6:-0.35563499 7:-0.31764501 8:-0.27120501 9:-0.354184 10:-0.40832499 11:0.77885002 12:0.27957299 13:0.43932801 14:-0.189715 15:-0.21397699 16:-0.303601 17:0.210031 18:-0.362865 19:-0.62378001 21:1.032063 22:-0.145696 23:0.92606503 24:-0.22223599 25:-0.259592 26:-0.214358 27:-0.225205 28:-0.18276601 29:-0.150461 30:-0.189439 31:-0.120054 32:-0.12993801 33:-0.133763 34:-0.1311 35:0.48861101 36:-0.22950201 37:-0.26529801 38:-0.063603997 39:-0.157189 40:-0.183598 41:-0.123044 42:-0.139154 43:-0.159254 45:-0.29318199 46:0.05184 47:-0.079241998 48:-0.101023 49:-0.14805999 50:1.555038 51:-0.150841 52:-0.27947 53:0.68550903 54:-0.101856 55:-0.047240999 56:-0.27126801 57:-0.015773 #
-0.1326242677438408679169157267097 1:-0.348299 2:0.069623999 3:-0.62200397 4:-0.045352999 5:-0.48666501 6:-0.35563499 7:-0.31764501 8:-0.27120501 9:-0.354184 10:0.719935 11:-0.332057 12:-0.66384602 13:-0.341429 14:-0.189715 15:-0.21397699 16:-0.303601 17:-0.33521399 18:-0.362865 19:-0.204714 21:-0.462715 22:8.4258976 23:-0.32093501 24:-0.22223599 25:-0.259592 26:-0.214358 27:-0.225205 28:-0.18276601 29:-0.150461 30:-0.189439 31:-0.120054 32:-0.12993801 33:-0.133763 34:-0.1311 35:-0.191397 36:-0.22950201 37:-0.26529801 38:-0.063603997 39:-0.157189 40:-0.183598 41:-0.123044 42:-0.139154 43:-0.159254 45:-0.29318199 46:-0.215674 47:-0.079241998 48:-0.101023 49:12.775239 50:-0.615345 51:-0.150841 52:-0.36777899 53:-0.34537601 54:0.713718 55:0.051061999 56:-0.085726 57:0.14600199 #
-0.28754694825269611069273878456443 1:-0.31599599 2:-0.172764 3:-0.48282701 4:-0.045352999 5:-0.41418299 6:-0.35563499 7:-0.31764501 8:-0.248208 9:-0.24903101 10:-0.20740201 11:-0.100618 12:-0.66384602 13:-0.341429 14:-0.0403 15:-0.21397699 16:-0.303601 17:-0.31249601 18:-0.240807 19:-1.025857 21:-0.75336701 22:-0.145696 23:-0.32093501 24:-0.22223599 25:-0.259592 26:-0.214358 27:-0.225205 28:-0.18276601 29:-0.150461 30:-0.189439 31:-0.120054 32:-0.12993801 33:-0.022336001 34:-0.1311 35:-0.191397 36:0.17981599 37:-0.26529801 38:-0.063603997 39:-0.157189 40:-0.14861199 41:1.609455 42:-0.139154 43:-0.159254 45:-0.29318199 46:0.67603999 47:0.022576001 48:0.14318299 49:0.020300001 50:0.84614301 51:1.2630481 52:-0.45608899 53:-0.019833 54:-0.098613001 55:-0.082191996 56:0.21577901 57:7.637085 #
0.5 1:-0.348299 2:0.014221 3:-0.62200397 4:-0.045352999 5:1.542832 6:-0.35563499 7:0.316122 8:0.372706 9:-0.354184 10:0.45719001 11:-0.332057 12:0.436809 13:-0.341429 14:-0.189715 15:-0.21397699 16:-0.039769001 17:-0.33521399 18:-0.362865 19:-0.080126002 21:0.86597699 22:-0.145696 23:-0.32093501 24:-0.22223599 25:-0.259592 26:-0.214358 27:-0.225205 28:-0.18276601 29:-0.150461 30:-0.189439 31:-0.120054 32:-0.12993801 33:2.0947709 34:-0.1311 35:-0.191397 36:-0.22950201 37:-0.26529801 38:1.103285 39:-0.157189 40:-0.183598 41:-0.123044 42:-0.139154 43:-0.159254 45:-0.001762 46:-0.215674 47:-0.079241998 48:-0.101023 49:-0.14805999 50:0.049851 51:0.58308601 52:-0.40899 53:-0.34537601 54:-0.101856 55:0.011809 56:0.46316701 57:0.45906699 #
-0.5 1:-0.348299 2:-0.061958 3:-0.62200397 4:-0.045352999 5:-0.240226 6:-0.35563499 7:-0.31764501 8:0.533683 9:-0.354184 10:-0.40832499 11:-0.332057 12:0.48922101 13:-0.341429 14:-0.189715 15:-0.21397699 16:-0.303601 17:4.0949001 18:-0.362865 19:-0.93524802 21:-0.76167101 22:-0.145696 23:-0.32093501 24:-0.22223599 25:0.013026 26:-0.01098 27:-0.225205 28:-0.18276601 29:-0.150461 30:0.239278 31:-0.120054 32:-0.12993801 33:-0.133763 34:-0.1311 35:-0.191397 36:0.87250799 37:-0.26529801 38:-0.063603997 39:-0.157189 40:-0.183598 41:-0.123044 42:-0.139154 43:-0.159254 45:0.258434 46:-0.215674 47:-0.079241998 48:-0.101023 49:-0.14805999 50:0.627648 51:-0.150841 52:-0.459032 53:-0.34537601 54:-0.101856 55:-0.096946001 56:-0.30992201 57:-0.089171 #
0.5 1:-0.348299 2:-0.17969 3:0.570943 4:-0.045352999 5:-0.48666501 6:1.617233 7:-0.31764501 8:-0.27120501 9:1.74888 10:-0.40832499 11:-0.332057 12:1.720907 13:-0.341429 14:-0.189715 15:-0.21397699 16:-0.020924 17:-0.33521399 18:-0.362865 19:0.52015799 21:0.24315199 22:-0.145696 23:-0.32093501 24:0.74198103 25:-0.259592 26:-0.214358 27:-0.225205 28:-0.18276601 29:-0.150461 30:-0.189439 31:-0.120054 32:-0.12993801 33:-0.133763 34:-0.1311 35:-0.191397 36:-0.22950201 37:-0.26529801 38:-0.063603997 39:-0.157189 40:-0.183598 41:-0.123044 42:-0.139154 43:-0.159254 45:-0.29318199 46:-0.215674 47:-0.079241998 48:-0.101023 49:-0.14805999 50:0.078983001 51:0.35643199 52:-0.17791501 53:0.171875 54:-0.101856 55:-0.098668002 56:-0.178497 57:-0.15058599 #
0.5 1:-0.348299 2:-0.17969 3:-0.62200397 4:-0.045352999 5:-0.48666501 6:-0.35563499 7:-0.31764501 8:-0.27120501 9:-0.354184 10:-0.40832499 11:-0.332057 12:-0.66384602 13:-0.341429 14:-0.189715 15:-0.21397699 16:-0.303601 17:-0.33521399 18:-0.362865 19:-1.03152 21:-0.76167101 22:-0.145696 23:-0.32093501 24:-0.22223599 25:-0.259592 26:-0.214358 27:-0.225205 28:-0.18276601 29:-0.150461 30:-0.189439 31:-0.120054 32:-0.12993801 33:-0.133763 34:-0.1311 35:-0.191397 36:-0.22950201 37:-0.26529801 38:-0.063603997 39:-0.157189 40:-0.183598 41:-0.123044 42:-0.139154 43:-0.159254 45:-0.29318199 46:-0.215674 47:-0.079241998 48:-0.101023 49:-0.14805999 50:1.205446 51:5.5155082 52:-0.127873 53:-0.34537601 54:-0.101856 55:-0.0106 56:-0.11665 57:-0.128117 #
-0.5 1:-0.348299 2:-0.17969 3:0.82941502 4:-0.045352999 5:0.035206001 6:0.82808602 7:-0.31764501 8:-0.27120501 9:-0.354184 10:-0.40832499 11:-0.332057 12:-0.66384602 13:-0.341429 14:-0.189715 15:-0.21397699 16:-0.303601 17:-0.33521399 18:-0.362865 19:0.20869 21:-0.76167101 22:-0.145696 23:-0.32093501 24:-0.22223599 25:-0.259592 26:-0.214358 27:-0.225205 28:-0.18276601 29:-0.150461 30:-0.189439 31:-0.120054 32:-0.12993801 33:-0.133763 34:-0.1311 35:-0.191397 36:-0.22950201 37:-0.26529801 38:-0.063603997 39:-0.157189 40:-0.183598 41:-0.123044 42:-0.139154 43:-0.159254 45:-0.29318199 46:-0.215674 47:-0.079241998 48:-0.101023 49:-0.14805999 50:-0.615345 51:-0.150841 52:8.9414759 53:-0.34537601 54:-0.101856 55:-0.12664001 56:-0.38723099 57:-0.340821 #
0.5 1:-0.348299 2:-0.17969 3:-0.62200397 4:-0.045352999 5:0.44110501 6:-0.35563499 7:-0.31764501 8:-0.27120501 9:-0.354184 10:-0.40832499 11:2.630362 12:0.174748 13:-0.341429 14:-0.189715 15:-0.21397699 16:-0.303601 17:2.5954759 18:-0.362865 19:-0.30098599 21:0.309587 22:-0.145696 23:-0.32093501 24:0.80626202 25:-0.259592 26:-0.214358 27:-0.225205 28:-0.18276601 29:-0.150461 30:-0.189439 31:-0.120054 32:-0.12993801 33:-0.133763 34:-0.1311 35:-0.191397 36:-0.22950201 37:-0.26529801 38:-0.063603997 39:-0.157189 40:-0.183598 41:-0.123044 42:-0.139154 43:-0.159254 45:-0.29318199 46:-0.215674 47:-0.079241998 48:-0.101023 49:-0.14805999 50:1.657002 51:-0.150841 52:-0.322153 53:-0.34537601 54:-0.101856 55:-0.076719999 56:0.092083998 57:-0.24195901 #
0.5 1:-0.057569001 2:-0.117361 3:1.644596 4:-0.045352999 5:0.064198002 6:-0.35563499 7:-0.31764501 8:-0.064234003 9:-0.354184 10:-0.114668 11:1.426879 12:-0.41488901 13:-0.341429 14:-0.189715 15:-0.21397699 16:0.318288 17:-0.33521399 18:-0.362865 19:-0.170735 21:0.41754299 22:-0.145696 23:-0.32093501 24:-0.22223599 25:-0.259592 26:-0.214358 27:-0.225205 28:-0.18276601 29:-0.150461 30:-0.189439 31:-0.120054 32:-0.12993801 33:-0.133763 34:-0.1311 35:-0.191397 36:-0.22950201 37:-0.26529801 38:-0.063603997 39:-0.157189 40:-0.183598 41:-0.123044 42:-0.139154 43:1.834865 45:-0.29318199 46:-0.215674 47:-0.079241998 48:-0.101023 49:9.6999996e-05 50:-0.32887399 51:-0.150841 52:0.410813 53:-0.34537601 54:-0.101856 55:-0.060582001 56:-0.178497 57:0.71071702 #
0.5 1:-0.348299 2:-0.17969 3:-0.62200397 4:-0.045352999 5:-0.48666501 6:5.8260188 7:-0.31764501 8:-0.27120501 9:-0.354184 10:-0.40832499 11:-0.332057 12:-0.66384602 13:-0.341429 14:-0.189715 15:-0.21397699 16:-0.303601 17:-0.33521399 18:-0.362865 19:1.103453 21:0.79954201 22:-0.145696 23:-0.32093501 24:-0.22223599 25:-0.259592 26:-0.214358 27:-0.225205 28:-0.18276601 29:-0.150461 30:-0.189439 31:-0.120054 32:-0.12993801 33:-0.133763 34:-0.1311 35:-0.191397 36:-0.22950201 37:-0.26529801 38:-0.063603997 39:-0.157189 40:-0.183598 41:-0.123044 42:-0.139154 43:-0.159254 45:-0.29318199 46:-0.215674 47:-0.079241998 48:-0.101023 49:-0.14805999 50:-0.615345 51:-0.150841 52:-0.459032 53:-0.34537601 54:-0.101856 55:-0.090490997 56:-0.29446101 57:-0.39923999 #
-0.5 1:2.7205231 2:-0.17969 3:-0.62200397 4:-0.045352999 5:-0.48666501 6:-0.35563499 7:-0.31764501 8:-0.27120501 9:-0.354184 10:-0.40832499 11:-0.332057 12:-0.66384602 13:-0.341429 14:-0.189715 15:-0.21397699 16:-0.303601 17:-0.33521399 18:-0.362865 19:0.044461001 21:0.027240001 22:-0.145696 23:-0.32093501 24:-0.22223599 25:-0.259592 26:-0.214358 27:-0.225205 28:-0.18276601 29:-0.150461 30:-0.189439 31:-0.120054 32:-0.12993801 33:-0.133763 34:-0.1311 35:-0.191397 36:-0.22950201 37:-0.26529801 38:-0.063603997 39:-0.157189 40:-0.183598 41:-0.123044 42:-0.139154 43:-0.159254 45:0.69556397 46:0.84323603 47:-0.079241998 48:-0.101023 49:-0.14805999 50:0.083838999 51:-0.150841 52:8.0480814 53:-0.34537601 54:-0.101856 55:-0.095931999 56:-0.30219099 57:-0.37077901 #
-0.5 1:2.074455 2:-0.17969 3:-0.62200397 4:-0.045352999 5:-0.48666501 6:-0.35563499 7:0.51983303 8:-0.27120501 9:-0.354184 10:0.163533 11:-0.332057 12:-0.66384602 13:-0.341429 14:-0.189715 15:-0.21397699 16:-0.303601 17:1.3686759 18:-0.362865 19:1.092127 21:2.045191 22:-0.145696 23:-0.32093501 24:-0.22223599 25:0.028604001 26:-0.214358 27:-0.225205 28:-0.18276601 29:-0.150461 30:-0.189439 31:-0.120054 32:-0.12993801 33:-0.133763 34:-0.1311 35:-0.191397 36:-0.22950201 37:-0.26529801 38:-0.063603997 39:-0.157189 40:-0.183598 41:-0.123044 42:-0.139154 43:-0.159254 45:-0.29318199 46:-0.215674 47:-0.079241998 48:-0.101023 49:-0.14805999 50:-0.134656 51:6.2926068 52:-0.459032 53:-0.34537601 54:-0.101856 55:-0.096086003 56:-0.317653 57:-0.316854 #
0.5 1:-0.348299 2:-0.17969 3:-0.62200397 4:-0.045352999 5:-0.48666501 6:-0.35563499 7:-0.31764501 8:-0.27120501 9:-0.354184 10:-0.40832499 11:-0.332057 12:-0.66384602 13:-0.341429 14:-0.189715 15:-0.21397699 16:-0.303601 17:-0.33521399 18:-0.362865 19:1.664096 21:-0.76167101 22:-0.145696 23:-0.32093501 24:-0.22223599 25:-0.259592 26:-0.214358 27:-0.225205 28:-0.18276601 29:-0.150461 30:-0.189439 31:-0.120054 32:-0.12993801 33:-0.133763 34:-0.1311 35:-0.191397 36:-0.22950201 37:-0.26529801 38:-0.063603997 39:-0.157189 40:-0.183598 41:-0.123044 42:-0.139154 43:-0.159254 45:-0.29318199 46:-0.215674 47:-0.079241998 48:-0.101023 49:-0.14805999 50:-0.615345 51:-0.150841 52:-0.459032 53:-0.34537601 54:-0.101856 55:-0.130667 56:-0.41042399 57:-0.439684 #
-0.5 1:0.007038 2:-0.17969 3:-0.40329701 4:-0.045352999 5:-0.48666501 6:-0.35563499 7:-0.31764501 8:-0.27120501 9:3.6766889 10:-0.40832499 11:-0.332057 12:-0.218343 13:-0.341429 14:-0.189715 15:-0.21397699 16:-0.303601 17:-0.33521399 18:-0.362865 19:-0.77101898 21:-0.57067198 22:-0.145696 23:-0.32093501 24:-0.22223599 25:0.184387 26:0.61111701 27:-0.194102 28:-0.18276601 29:-0.150461 30:-0.189439 31:-0.120054 32:-0.12993801 33:0.40745199 34:-0.1311 35:-0.191397 36:0.116844 37:-0.26529801 38:-0.063603997 39:-0.157189 40:-0.183598 41:-0.123044 42:-0.139154 43:-0.159254 45:-0.29318199 46:-0.215674 47:-0.079241998 48:-0.101023 49:0.010198 50:0.15667 51:0.183744 52:-0.459032 53:-0.233245 54:-0.101856 55:-0.063164003 56:-0.170766 57:0.312271 #
-0.5 1:0.39467901 2:-0.020406 3:-0.62200397 4:-0.045352999 5:-0.153248 6:0.40063101 7:-0.31764501 8:0.809645 9:0.45199099 10:-0.052846 11:0.73256201 12:-0.362477 13:-0.341429 14:-0.189715 15:-0.21397699 16:-0.086882003 17:-0.33521399 18:-0.362865 19:0.59377801 21:0.82445502 22:-0.145696 23:0.276586 24:0.14737999 25:-0.259592 26:-0.214358 27:-0.225205 28:-0.18276601 29:-0.150461 30:-0.189439 31:-0.120054 32:-0.12993801 33:-0.133763 34:-0.1311 35:-0.191397 36:-0.22950201 37:-0.26529801 38:-0.063603997 39:-0.157189 40:-0.183598 41:-0.123044 42:-0.139154 43:-0.159254 45:-0.053801998 46:-0.215674 47:-0.079241998 48:-0.101023 49:-0.14805999 50:-0.615345 51:-0.150841 52:0.085541002 53:0.396137 54:-0.035378002 55:-0.091289997 56:-0.232613 57:-0.225482 #
-0.5 1:-0.348299 2:-0.17969 3:-0.62200397 4:-0.045352999 5:2.96348 6:-0.35563499 7:-0.31764501 8:-0.27120501 9:-0.354184 10:-0.40832499 11:-0.332057 12:-0.66384602 13:-0.341429 14:-0.189715 15:-0.21397699 16:-0.303601 17:-0.33521399 18:-0.362865 19:0.31628799 21:1.214759 22:-0.145696 23:-0.32093501 24:-0.22223599 25:-0.259592 26:-0.214358 27:-0.225205 28:-0.18276601 29:-0.150461 30:-0.189439 31:-0.120054 32:-0.12993801 33:-0.133763 34:-0.1311 35:-0.191397 36:-0.22950201 37:-0.26529801 38:-0.063603997 39:-0.157189 40:-0.183598 41:-0.123044 42:-0.139154 43:-0.159254 45:-0.29318199 46:-0.215674 47:-0.079241998 48:-0.101023 49:-0.14805999 50:-0.615345 51:-0.150841 52:-0.459032 53:-0.34537601 54:-0.101856 55:-0.115298 56:-0.38723099 57:-0.421709 #
0.5 1:-0.348299 2:-0.17969 3:-0.62200397 4:-0.045352999 5:1.905242 6:-0.35563499 7:-0.31764501 8:-0.27120501 9:2.520004 10:-0.40832499 11:-0.332057 12:1.498155 13:-0.341429 14:-0.189715 15:-0.21397699 16:0.46904901 17:-0.33521399 18:-0.362865 19:-0.097115003 21:-0.080715999 22:-0.145696 23:-0.32093501 24:-0.22223599 25:-0.259592 26:-0.214358 27:-0.225205 28:-0.18276601 29:-0.150461 30:-0.189439 31:-0.120054 32:-0.12993801 33:-0.133763 34:-0.1311 35:-0.191397 36:-0.22950201 37:-0.26529801 38:-0.063603997 39:-0.157189 40:-0.183598 41:-0.123044 42:-0.139154 43:-0.159254 45:-0.29318199 46:-0.215674 47:-0.079241998 48:-0.101023 49:-0.14805999 50:1.399663 51:-0.150841 52:-0.459032 53:-0.34537601 54:-0.101856 55:-0.107029 56:-0.33311501 57:-0.340821 #
-0.5 1:-0.348299 2:0.055774 3:-0.62200397 4:-0.045352999 5:0.499091 6:-0.35563499 7:1.221503 8:-0.27120501 9:-0.354184 10:0.117166 11:1.2417279 12:-0.66384602 13:-0.341429 14:-0.189715 15:-0.21397699 16:0.016766001 17:-0.33521399 18:2.0085421 19:0.90524602 21:1.50541 22:-0.145696 23:-0.32093501 24:-0.22223599 25:0.0052370001 26:0.192398 27:-0.225205 28:-0.18276601 29:-0.150461 30:-0.189439 31:-0.120054 32:-0.12993801 33:0.40745199 34:-0.1311 35:-0.191397 36:-0.22950201 37:-0.26529801 38:-0.063603997 39:-0.157189 40:-0.183598 41:-0.123044 42:-0.139154 43:-0.159254 45:-0.29318199 46:-0.215674 47:-0.079241998 48:-0.101023 49:-0.14805999 50:-0.615345 51:-0.150841 52:-0.388385 53:-0.171753 54:-0.101856 55:-0.118033 56:-0.30219099 57:-0.30037701 #
0.5 1:-0.348299 2:-0.17969 3:-0.62200397 4:-0.045352999 5:-0.48666501 6:-0.35563499 7:-0.31764501 8:-0.27120501 9:-0.354184 10:-0.40832499 11:-0.332057 12:-0.66384602 13:-0.341429 14:-0.189715 15:-0.21397699 16:-0.303601 17:-0.33521399 18:-0.362865 19:-1.03152 21:-0.76167101 22:-0.145696 23:-0.32093501 24:-0.22223599 25:-0.259592 26:-0.214358 27:-0.225205 28:1.139345 29:-0.150461 30:-0.189439 31:-0.120054 32:-0.12993801 33:0.37561601 34:-0.1311 35:-0.191397 36:-0.22950201 37:-0.26529801 38:-0.063603997 39:1.750653 40:-0.183598 41:-0.123044 42:-0.139154 43:-0.159254 45:-0.29318199 46:-0.215674 47:-0.079241998 48:-0.101023 49:-0.14805999 50:0.61793703 51:-0.150841 52:-0.459032 53:-0.34537601 54:-0.101856 55:-0.100328 56:-0.20169 57:-0.214996 #
-0.5 1:-0.348299 2:-0.17969 3:-0.62200397 4:-0.045352999 5:-0.48666501 6:-0.35563499 7:-0.31764501 8:-0.27120501 9:-0.354184 10:-0.40832499 11:-0.332057 12:1.170579 13:-0.341429 14:-0.189715 15:-0.21397699 16:-0.303601 17:1.255083 18:-0.362865 19:-0.238692 21:0.40093499 22:-0.145696 23:-0.32093501 24:-0.22223599 25:-0.259592 26:-0.214358 27:-0.027276 28:-0.18276601 29:-0.150461 30:-0.189439 31:1.6062191 32:-0.12993801 33:-0.133763 34:-0.1311 35:-0.191397 36:-0.22950201 37:-0.26529801 38:-0.063603997 39:-0.157189 40:7.1985998 41:-0.123044 42:-0.139154 43:-0.159254 45:-0.29318199 46:-0.215674 47:-0.079241998 48:-0.101023 49:-0.14805999 50:0.67620301 51:0.56150001 52:-0.459032 53:-0.34537601 54:-0.101856 55:0.39189801 56:1.128024 57:0.122035 #
0.5 1:-0.348299 2:-0.17969 3:0.471531 4:-0.045352999 5:0.310637 6:-0.35563499 7:-0.31764501 8:-0.27120501 9:-0.354184 10:0.44173399 11:-0.332057 12:-0.66384602 13:-0.341429 14:-0.189715 15:-0.21397699 16:0.21464001 17:-0.33521399 18:-0.362865 19:-0.085789002 21:-0.30493301 22:-0.145696 23:-0.32093501 24:-0.22223599 25:-0.259592 26:-0.214358 27:-0.225205 28:-0.18276601 29:-0.150461 30:-0.189439 31:-0.120054 32:-0.12993801 33:-0.133763 34:-0.1311 35:-0.191397 36:-0.22950201 37:-0.26529801 38:-0.063603997 39:-0.157189 40:-0.183598 41:-0.123044 42:-0.139154 43:-0.159254 45:0.27925 46:-0.215674 47:-0.079241998 48:-0.101023 49:-0.14805999 50:-0.134656 51:-0.150841 52:0.85530198 53:-0.34537601 54:-0.101856 55:-0.096178003 56:-0.29446101 57:-0.26292899 #
-0.5 1:1.945241 2:-0.082734004 3:0.21305899 4:-0.045352999 5:0.96297598 6:0.104701 7:-0.00076199998 8:-0.27120501 9:-0.354184 10:4.2283592 11:0.315972 12:0.44991201 13:-0.341429 14:-0.189715 15:-0.21397699 16:-0.303601 17:-0.33521399 18:0.125366 19:-0.55015999 21:-0.64541101 22:-0.145696 23:-0.32093501 24:-0.22223599 25:-0.259592 26:-0.214358 27:-0.225205 28:-0.18276601 29:-0.150461 30:-0.189439 31:-0.120054 32:-0.12993801 33:-0.133763 34:-0.1311 35:-0.191397 36:-0.22950201 37:-0.26529801 38:-0.063603997 39:-0.157189 40:0.306216 41:-0.123044 42:-0.139154 43:-0.159254 45:-0.29318199 46:-0.215674 47:-0.079241998 48:-0.101023 49:-0.14805999 50:-0.50852501 51:-0.150841 52:-0.459032 53:-0.34537601 54:-0.066184998 55:-0.102049 56:-0.34857699 57:-0.192527 #
-0.5 1:-0.348299 2:-0.17969 3:-0.62200397 4:-0.045352999 5:-0.48666501 6:3.031122 7:-0.31764501 8:4.4891348 9:-0.354184 10:-0.40832499 11:-0.332057 12:-0.66384602 13:-0.341429 14:-0.189715 15:-0.21397699 16:-0.303601 17:-0.33521399 18:-0.362865 19:-1.03152 21:-0.76167101 22:-0.145696 23:-0.32093501 24:-0.22223599 25:-0.259592 26:-0.214358 27:-0.225205 28:-0.18276601 29:-0.150461 30:-0.189439 31:-0.120054 32:-0.12993801 33:-0.133763 34:-0.1311 35:-0.191397 36:-0.22950201 37:-0.26529801 38:-0.063603997 39:-0.157189 40:-0.183598 41:-0.123044 42:-0.139154 43:-0.159254 45:-0.29318199 46:-0.215674 47:-0.079241998 48:-0.101023 49:-0.14805999 50:0.083838999 51:0.62625903 52:-0.459032 53:-0.34537601 54:-0.101856 55:-0.114591 56:-0.33311501 57:-0.34831101 #
0.5 1:-0.348299 2:0.18043099 3:0.41188401 4:-0.045352999 5:0.26714799 6:-0.35563499 7:-0.31764501 8:-0.27120501 9:-0.354184 10:-0.40832499 11:-0.332057 12:-0.66384602 13:-0.341429 14:-0.189715 15:-0.21397699 16:0.186372 17:-0.33521399 18:-0.362865 19:-0.148083 21:-0.76167101 22:-0.145696 23:-0.32093501 24:-0.22223599 25:-0.259592 26:-0.214358 27:-0.225205 28:-0.18276601 29:-0.150461 30:-0.189439 31:-0.120054 32:-0.12993801 33:-0.133763 34:-0.1311 35:-0.191397 36:-0.22950201 37:-0.26529801 38:-0.063603997 39:-0.157189 40:-0.183598 41:-0.123044 42:-0.139154 43:-0.159254 45:-0.29318199 46:-0.215674 47:-0.079241998 48:-0.101023 49:-0.14805999 50:0.31690001 51:-0.150841 52:0.81703502 53:-0.34537601 54:-0.101856 55:-0.093165003 56:-0.26353699 57:-0.24795 #
-0.5 1:-0.348299 2:-0.17969 3:-0.62200397 4:-0.045352999 5:-0.48666501 6:-0.35563499 7:-0.31764501 8:-0.27120501 9:-0.354184 10:-0.40832499 11:-0.332057 12:-0.66384602 13:-0.341429 14:-0.189715 15:-0.21397699 16:-0.303601 17:-0.33521399 18:-0.362865 19:3.108176 21:-0.76167101 22:-0.145696 23:-0.32093501 24:-0.22223599 25:-0.259592 26:-0.214358 27:-0.225205 28:-0.18276601 29:-0.150461 30:-0.189439 31:-0.120054 32:-0.12993801 33:-0.133763 34:-0.1311 35:-0.191397 36:-0.22950201 37:-0.26529801 38:-0.063603997 39:-0.157189 40:-0.183598 41:-0.123044 42:-0.139154 43:-0.159254 45:-0.29318199 46:-0.215674 47:-0.079241998 48:-0.101023 49:-0.14805999 50:-0.615345 51:-0.150841 52:-0.459032 53:-0.34537601 54:-0.101856 55:-0.108719 56:-0.38723099 57:-0.426202 #
-0.5 1:-0.348299 2:-0.17969 3:-0.62200397 4:-0.045352999 5:-0.48666501 6:-0.35563499 7:-0.31764501 8:-0.27120501 9:-0.354184 10:-0.40832499 11:-0.332057 12:-0.66384602 13:-0.341429 14:-0.189715 15:-0.21397699 16:-0.303601 17:-0.33521399 18:-0.362865 19:-1.03152 21:-0.76167101 22:-0.145696 23:-0.32093501 24:-0.22223599 25:-0.259592 26:-0.214358 27:-0.225205 28:-0.18276601 29:-0.150461 30:-0.189439 31:-0.120054 32:-0.12993801 33:-0.133763 34:-0.1311 35:-0.191397 36:-0.22950201 37:-0.26529801 38:-0.063603997 39:-0.157189 40:-0.183598 41:-0.123044 42:-0.139154 43:-0.159254 45:-0.29318199 46:-0.215674 47:-0.079241998 48:-0.101023 49:-0.14805999 50:-0.615345 51:-0.150841 52:-0.459032 53:-0.34537601 54:-0.101856 55:-0.091167003 56:-0.364039 57:-0.39624399 #
-0.010539117011281398314515023173499 1:-0.348299 2:-0.17969 3:-0.62200397 4:-0.045352999 5:-0.48666501 6:-0.35563499 7:-0.31764501 8:-0.27120501 9:-0.354184 10:-0.40832499 11:-0.332057 12:-0.66384602 13:-0.341429 14:-0.189715 15:-0.21397699 16:-0.303601 17:-0.33521399 18:-0.362865 19:-1.03152 21:-0.76167101 22:-0.145696 23:-0.32093501 24:-0.22223599 25:-0.259592 26:-0.214358 27:-0.225205 28:-0.18276601 29:-0.150461 30:-0.189439 31:-0.120054 32:-0.12993801 33:-0.133763 34:-0.1311 35:-0.191397 36:-0.22950201 37:-0.26529801 38:-0.063603997 39:-0.157189 40:-0.183598 41:-0.123044 42:-0.139154 43:-0.159254 45:-0.29318199 46:-0.215674 47:-0.079241998 48:-0.101023 49:-0.14805999 50:-0.615345 51:12.54178 52:-0.459032 53:-0.34537601 54:-0.101856 55:-0.095563002 56:-0.35630801 57:-0.421709 #
0.043716719905832382431221105889563 1:-0.348299 2:0.097326003 3:0.17329399 4:-0.045352999 5:0.093190998 6:-0.35563499 7:0.58773601 8:-0.27120501 9:-0.354184 10:3.301023 11:-0.332057 12:-0.66384602 13:-0.341429 14:-0.189715 15:1.118235 16:0.45020401 17:-0.33521399 18:-0.362865 19:0.101092 21:0.899194 22:-0.145696 23:-0.32093501 24:-0.22223599 25:-0.259592 26:-0.214358 27:-0.225205 28:-0.18276601 29:-0.150461 30:-0.189439 31:0.86638701 32:-0.12993801 33:0.50296098 34:-0.1311 35:-0.191397 36:-0.22950201 37:-0.26529801 38:-0.063603997 39:-0.157189 40:1.215871 41:-0.123044 42:-0.139154 43:-0.159254 45:-0.29318199 46:-0.215674 47:-0.079241998 48:-0.101023 49:-0.14805999 50:0.51111799 51:-0.150841 52:-0.28830099 53:0.074212 54:-0.101856 55:-0.036667001 56:-0.00068699999 57:-0.13410901 #
-0.5 1:-0.348299 2:-0.17969 3:-0.62200397 4:-0.045352999 5:-0.48666501 6:-0.35563499 7:3.711302 8:-0.27120501 9:-0.354184 10:-0.40832499 11:-0.332057 12:1.6684951 13:-0.341429 14:-0.189715 15:-0.21397699 16:-0.303601 17:-0.33521399 18:-0.362865 19:0.990192 21:-0.76167101 22:-0.145696 23:-0.32093501 24:-0.22223599 25:-0.259592 26:-0.214358 27:-0.225205 28:-0.18276601 29:-0.150461 30:4.2994728 31:-0.120054 32:-0.12993801 33:-0.133763 34:-0.1311 35:-0.191397 36:5.3750048 37:-0.26529801 38:-0.063603997 39:-0.157189 40:-0.183598 41:-0.123044 42:-0.139154 43:-0.159254 45:-0.29318199 46:-0.215674 47:-0.079241998 48:-0.101023 49:-0.14805999 50:-0.615345 51:-0.150841 52:0.40345401 53:-0.34537601 54:-0.101856 55:-0.12123 56:-0.38723099 57:-0.418713 #
-0.5 1:-0.348299 2:-0.17969 3:1.306594 4:-0.045352999 5:-0.48666501 6:-0.35563499 7:-0.31764501 8:-0.27120501 9:-0.354184 10:1.09087 11:-0.332057 12:-0.66384602 13:-0.341429 14:-0.189715 15:-0.21397699 16:-0.303601 17:-0.33521399 18:-0.362865 19:0.61642998 21:0.043848 22:-0.145696 23:-0.32093501 24:-0.22223599 25:-0.259592 26:-0.214358 27:-0.225205 28:-0.18276601 29:-0.150461 30:-0.189439 31:-0.120054 32:-0.12993801 33:-0.133763 34:-0.1311 35:-0.191397 36:-0.22950201 37:-0.26529801 38:-0.063603997 39:-0.157189 40:-0.183598 41:-0.123044 42:-0.139154 43:-0.159254 45:-0.29318199 46:-0.215674 47:-0.079241998 48:-0.101023 49:-0.14805999 50:-0.615345 51:-0.150841 52:-0.459032 53:-0.34537601 54:-0.101856 55:-0.108719 56:-0.37176999 57:-0.426202 #
0.5 1:-0.348299 2:-0.17969 3:0.78965002 4:-0.045352999 5:0.54258001 6:-0.35563499 7:-0.31764501 8:-0.27120501 9:-0.354184 10:-0.40832499 11:-0.332057 12:-0.66384602 13:-0.341429 14:-0.189715 15:-0.21397699 16:0.365401 17:-0.33521399 18:2.1306 19:0.186038 21:1.023759 22:-0.145696 23:-0.32093501 24:-0.22223599 25:-0.259592 26:-0.214358 27:-0.225205 28:-0.18276601 29:-0.150461 30:-0.189439 31:-0.120054 32:-0.12993801 33:-0.133763 34:-0.1311 35:-0.191397 36:-0.22950201 37:-0.26529801 38:-0.063603997 39:-0.157189 40:-0.183598 41:-0.123044 42:-0.139154 43:-0.159254 45:-0.29318199 46:-0.215674 47:-0.079241998 48:-0.101023 49:-0.14805999 50:-0.615345 51:2.612179 52:-0.270639 53:-0.34537601 54:-0.101856 55:-0.106721 56:-0.33311501 57:-0.28689599 #
-0.5 1:-0.348299 2:-0.17969 3:0.392001 4:-0.045352999 5:-0.240226 6:-0.35563499 7:-0.31764501 8:-0.27120501 9:-0.354184 10:-0.40832499 11:-0.332057 12:-0.218343 13:-0.341429 14:-0.189715 15:-0.21397699 16:-0.303601 17:-0.33521399 18:-0.362865 19:0.51449502 21:-0.76167101 22:-0.145696 23:-0.32093501 24:-0.22223599 25:-0.259592 26:-0.214358 27:-0.225205 28:-0.18276601 29:-0.150461 30:-0.189439 31:-0.120054 32:-0.12993801 33:-0.133763 34:-0.1311 35:-0.191397 36:-0.22950201 37:-0.26529801 38:-0.063603997 39:-0.157189 40:-0.183598 41:-0.123044 42:-0.139154 43:-0.159254 45:-0.29318199 46:-0.215674 47:-0.079241998 48:-0.101023 49:-0.14805999 50:-0.30459699 51:-0.150841 52:-0.36483601 53:-0.34537601 54:-0.101856 55:-0.051144999 56:0.0070440001 57:-0.105648 #
-0.5 1:-0.348299 2:-0.17969 3:-0.10506 4:-0.045352999 5:0.26714799 6:-0.35563499 7:-0.31764501 8:-0.27120501 9:-0.354184 10:-0.40832499 11:-0.332057 12:-0.66384602 13:-0.341429 14:-0.189715 15:-0.21397699 16:-0.303601 17:-0.33521399 18:0.54385 19:-0.148083 21:0.533804 22:-0.145696 23:-0.32093501 24:-0.22223599 25:-0.259592 26:-0.214358 27:-0.225205 28:-0.18276601 29:-0.150461 30:-0.189439 31:-0.120054 32:-0.12993801 33:-0.133763 34:-0.1311 35:-0.191397 36:1.407769 37:-0.26529801 38:-0.063603997 39:-0.157189 40:0.72605598 41:-0.123044 42:-0.139154 43:-0.159254 45:-0.022577999 46:-0.215674 47:-0.079241998 48:-0.101023 49:2.387439 50:-0.066679999 51:-0.150841 52:-0.40457499 53:-0.211542 54:-0.101856 55:-0.106168 56:-0.26353699 57:-0.191029 #
0.5 1:-0.348299 2:-0.17969 3:-0.025529999 4:-0.045352999 5:-0.48666501 6:-0.35563499 7:-0.31764501 8:-0.27120501 9:-0.354184 10:0.055344 11:-0.332057 12:-0.27075499 13:-0.341429 14:-0.189715 15:0.785182 16:-0.020924 17:-0.33521399 18:-0.101312 19:-0.94657397 21:-0.637106 22:-0.145696 23:-0.32093501 24:-0.22223599 25:-0.259592 26:-0.214358 27:-0.225205 28:-0.18276601 29:-0.150461 30:-0.189439 31:-0.120054 32:-0.12993801 33:-0.133763 34:-0.1311 35:-0.191397 36:-0.22950201 37:1.794366 38:-0.063603997 39:-0.157189 40:-0.183598 41:-0.123044 42:-0.139154 43:-0.159254 45:-0.29318199 46:-0.215674 47:-0.079241998 48:0.94557101 49:1.441257 50:-0.29003 51:-0.150841 52:-0.459032 53:-0.186222 54:0.0067790002 55:-0.112009 56:-0.29446101 57:0.181952 #
-0.5 1:-0.348299 2:-0.17969 3:-0.62200397 4:-0.045352999 5:2.470602 6:-0.35563499 7:-0.31764501 8:-0.27120501 9:-0.354184 10:-0.40832499 11:-0.332057 12:0.67266399 13:2.976788 14:-0.189715 15:-0.21397699 16:0.65750003 17:-0.33521399 18:-0.362865 19:-0.453888 21:-0.76167101 22:-0.145696 23:-0.32093501 24:-0.22223599 25:-0.259592 26:-0.214358 27:-0.225205 28:-0.18276601 29:-0.150461 30:-0.189439 31:-0.120054 32:-0.12993801 33:-0.133763 34:-0.1311 35:-0.191397 36:-0.22950201 37:-0.26529801 38:-0.063603997 39:2.883435 40:-0.183598 41:-0.123044 42:-0.139154 43:-0.159254 45:-0.29318199 46:-0.215674 47:-0.079241998 48:-0.101023 49:-0.14805999 50:-0.615345 51:-0.150841 52:-0.459032 53:-0.34537601 54:-0.101856 55:-0.110933 56:-0.38723099 57:-0.40972501 #
-0.5 1:-0.348299 2:-0.17969 3:-0.62200397 4:-0.045352999 5:-0.48666501 6:0.40063101 7:0.202949 8:0.25772199 9:-0.354184 10:-0.40832499 11:-0.332057 12:-0.061106998 13:-0.341429 14:1.1849 15:-0.21397699 16:-0.303601 17:-0.33521399 18:-0.362865 19:-0.90126997 21:-0.76167101 22:-0.145696 23:0.276586 24:-0.22223599 25:-0.259592 26:-0.214358 27:-0.225205 28:-0.18276601 29:-0.150461 30:-0.189439 31:-0.120054 32:-0.12993801 33:0.232353 34:-0.1311 35:-0.191397 36:-0.22950201 37:0.35802099 38:-0.063603997 39:-0.157189 40:-0.183598 41:-0.123044 42:-0.139154 43:-0.159254 45:-0.29318199 46:-0.215674 47:-0.079241998 48:-0.101023 49:0.097745001 50:-0.615345 51:-0.150841 52:-0.459032 53:-0.34537601 54:-0.101856 55:-0.063533001 56:0.15393101 57:-0.13410901 #
-0.5 1:-0.348299 2:-0.17969 3:-0.62200397 4:-0.045352999 5:8.5735893 6:-0.35563499 7:-0.31764501 8:-0.27120501 9:-0.354184 10:-0.40832499 11:-0.332057 12:-0.66384602 13:-0.341429 14:-0.189715 15:-0.21397699 16:-0.303601 17:-0.33521399 18:-0.362865 19:-1.03152 21:-0.76167101 22:-0.145696 23:-0.32093501 24:-0.22223599 25:-0.259592 26:-0.214358 27:-0.225205 28:-0.18276601 29:-0.150461 30:-0.189439 31:-0.120054 32:-0.12993801 33:-0.133763 34:-0.1311 35:-0.191397 36:-0.22950201 37:-0.26529801 38:-0.063603997 39:-0.157189 40:-0.183598 41:-0.123044 42:-0.139154 43:-0.159254 45:-0.29318199 46:-0.215674 47:-0.079241998 48:-0.101023 49:-0.14805999 50:-0.615345 51:-0.150841 52:-0.459032 53:-0.34537601 54:-0.101856 55:-0.115298 56:-0.402693 57:-0.439684 #
-0.47838972903328680352785795548698 1:-0.348299 2:-0.17969 3:-0.62200397 4:-0.045352999 5:-0.48666501 6:10.955476 7:-0.31764501 8:-0.27120501 9:-0.354184 10:-0.40832499 11:-0.332057 12:-0.66384602 13:-0.341429 14:10.090012 15:-0.21397699 16:-0.303601 17:-0.33521399 18:-0.362865 19:-1.03152 21:4.9600101 22:-0.145696 23:-0.32093501 24:-0.22223599 25:-0.259592 26:-0.214358 27:0.74747598 28:-0.18276601 29:-0.150461 30:-0.189439 31:-0.120054 32:-0.12993801 33:-0.133763 34:-0.1311 35:-0.191397 36:-0.22950201 37:-0.26529801 38:-0.063603997 39:-0.157189 40:-0.183598 41:-0.123044 42:-0.139154 43:-0.159254 45:-0.29318199 46:-0.215674 47:-0.079241998 48:-0.101023 49:-0.14805999 50:1.909485 51:-0.150841 52:-0.459032 53:-0.34537601 54:-0.101856 55:-0.130667 56:-0.41042399 57:-0.43369201 #
-0.5 1:-0.348299 2:-0.17969 3:-0.62200397 4:-0.045352999 5:-0.48666501 6:-0.35563499 7:1.085696 8:-0.27120501 9:-0.354184 10:-0.40832499 11:-0.332057 12:-0.66384602 13:-0.341429 14:-0.189715 15:-0.21397699 16:-0.303601 17:-0.33521399 18:0.71821803 19:-0.32363799 21:-0.504237 22:-0.145696 23:-0.32093501 24:-0.22223599 25:-0.259592 26:-0.214358 27:-0.225205 28:-0.18276601 29:-0.150461 30:-0.189439 31:-0.120054 32:-0.12993801 33:-0.133763 34:-0.1311 35:-0.191397 36:-0.22950201 37:-0.26529801 38:-0.063603997 39:-0.157189 40:-0.183598 41:-0.123044 42:-0.139154 43:-0.159254 45:0.35210499 46:-0.215674 47:-0.079241998 48:-0.101023 49:-0.14805999 50:-0.377428 51:-0.150841 52:-0.095492996 53:-0.168136 54:-0.101856 55:-0.046688002 56:0.27762601 57:0.036653999 #
0.5 1:-0.348299 2:-0.17969 3:-0.62200397 4:-0.045352999 5:-0.48666501 6:-0.35563499 7:-0.31764501 8:-0.27120501 9:-0.354184 10:1.894562 11:-0.332057 12:1.288507 13:-0.341429 14:-0.189715 15:-0.21397699 16:-0.303601 17:-0.33521399 18:-0.362865 19:3.1931219 21:0.475674 22:-0.145696 23:-0.32093501 24:-0.22223599 25:-0.259592 26:-0.214358 27:-0.225205 28:-0.18276601 29:-0.150461 30:-0.189439 31:-0.120054 32:-0.12993801 33:-0.133763 34:-0.1311 35:-0.191397 36:-0.22950201 37:-0.26529801 38:-0.063603997 39:-0.157189 40:-0.183598 41:-0.123044 42:-0.139154 43:-0.159254 45:-0.29318199 46:-0.215674 47:-0.079241998 48:-0.101023 49:-0.14805999 50:-0.615345 51:-0.150841 52:-0.459032 53:-0.34537601 54:-0.101856 55:-0.078657001 56:-0.30219099 57:-0.39175001 #
-0.5 1:6.1123791 2:-0.17969 3:-0.62200397 4:-0.045352999 5:-0.48666501 6:-0.35563499 7:-0.31764501 8:-0.27120501 9:-0.354184 10:-0.40832499 11:8.9255009 12:1.956762 13:-0.341429 14:-0.189715 15:-0.21397699 16:-0.303601 17:-0.33521399 18:-0.362865 19:0.101092 21:5.8817911 22:-0.145696 23:-0.32093501 24:-0.22223599 25:-0.259592 26:-0.214358 27:-0.225205 28:-0.18276601 29:-0.150461 30:-0.189439 31:-0.120054 32:-0.12993801 33:-0.133763 34:-0.1311 35:-0.191397 36:-0.22950201 37:-0.26529801 38:-0.063603997 39:-0.157189 40:-0.183598 41:-0.123044 42:-0.139154 43:-0.159254 45:-0.29318199 46:-0.215674 47:-0.079241998 48:-0.101023 49:-0.14805999 50:-0.615345 51:-0.150841 52:-0.459032 53:-0.34537601 54:-0.101856 55:0.019586001 56:-0.193959 57:-0.364788 #
-0.5 1:-0.348299 2:-0.17969 3:0.730003 4:-0.045352999 5:0.499091 6:-0.35563499 7:-0.31764501 8:-0.27120501 9:-0.354184 10:-0.40832499 11:-0.332057 12:-0.66384602 13:0.76464403 14:-0.189715 15:-0.21397699 16:-0.303601 17:-0.33521399 18:0.229987 19:-0.068800002 21:-0.76167101 22:-0.145696 23:-0.32093501 24:-0.22223599 25:-0.259592 26:-0.214358 27:-0.225205 28:-0.18276601 29:-0.150461 30:-0.189439 31:-0.120054 32:-0.12993801 33:-0.133763 34:-0.1311 35:-0.191397 36:-0.22950201 37:-0.26529801 38:-0.063603997 39:-0.157189 40:-0.183598 41:-0.123044 42:-0.139154 43:-0.159254 45:0.414552 46:-0.215674 47:-0.079241998 48:-0.101023 49:-0.14805999 50:0.224647 51:-0.150841 52:0.22242001 53:-0.34537601 54:-0.101856 55:-0.11413 56:-0.33311501 57:-0.32434401 #
0.014640085379939517945535598641982 1:-0.348299 2:-0.17969 3:-0.62200397 4:-0.045352999 5:-0.48666501 6:-0.35563499 7:-0.31764501 8:-0.27120501 9:-0.354184 10:-0.40832499 11:-0.332057 12:-0.66384602 13:-0.341429 14:-0.189715 15:-0.21397699 16:-0.303601 17:-0.33521399 18:8.0591183 19:1.703738 21:-0.76167101 22:-0.145696 23:-0.32093501 24:-0.22223599 25:-0.259592 26:-0.214358 27:-0.225205 28:-0.18276601 29:-0.150461 30:-0.189439 31:-0.120054 32:-0.12993801 33:-0.133763 34:-0.1311 35:-0.191397 36:-0.22950201 37:-0.26529801 38:-0.063603997 39:-0.157189 40:-0.183598 41:-0.123044 42:-0.139154 43:-0.159254 45:-0.29318199 46:-0.215674 47:-0.079241998 48:-0.101023 49:-0.14805999 50:-0.615345 51:-0.150841 52:-0.459032 53:0.74699998 54:-0.101856 55:-0.10915 56:-0.3795 57:-0.418713 #
0.38598256182642426415085878943501 1:-0.348299 2:0.028072 3:-0.025529999 4:-0.045352999 5:0.397616 6:0.630799 7:-0.31764501 8:-0.27120501 9:-0.354184 10:0.055344 11:1.056577 12:-0.27075499 13:-0.341429 14:-0.189715 15:-0.21397699 16:0.56327498 17:-0.33521399 18:-0.362865 19:-0.68607402 21:-0.76167101 22:-0.145696 23:-0.32093501 24:-0.22223599 25:-0.259592 26:-0.214358 27:-0.225205 28:-0.18276601 29:-0.150461 30:8.3344498 31:-0.120054 32:-0.12993801 33:-0.133763 34:-0.1311 35:-0.191397 36:-0.22950201 37:-0.26529801 38:-0.063603997 39:-0.157189 40:-0.183598 41:-0.123044 42:-0.139154 43:-0.159254 45:-0.29318199 46:-0.215674 47:-0.079241998 48:-0.101023 49:-0.14805999 50:-0.158933 51:-0.150841 52:-0.459032 53:-0.34537601 54:-0.101856 55:-0.095593996 56:-0.124381 57:-0.126619 #
0.5 1:-0.348299 2:-0.17969 3:-0.62200397 4:-0.045352999 5:0.93398303 6:-0.35563499 7:-0.31764501 8:-0.27120501 9:-0.354184 10:1.106325 11:4.2041459 12:0.62025201 13:-0.341429 14:-0.189715 15:-0.21397699 16:0.61980999 17:-0.33521399 18:1.345943 19:0.63341898 21:0.86597699 22:-0.145696 23:-0.32093501 24:-0.22223599 25:0.50374001 26:0.95805597 27:-0.225205 28:-0.18276601 29:-0.150461 30:-0.189439 31:-0.120054 32:-0.12993801 33:-0.133763 34:-0.1311 35:-0.191397 36:-0.22950201 37:-0.26529801 38:-0.063603997 39:-0.157189 40:-0.183598 41:-0.123044 42:-0.139154 43:-0.159254 45:-0.29318199 46:0.87667602 47:-0.079241998 48:-0.101023 49:-0.14805999 50:-0.615345 51:-0.150841 52:-0.049865998 53:-0.34537601 54:-0.101856 55:-0.070726 56:-0.278999 57:-0.3558 #
0.5 1:-0.154479 2:-0.17969 3:-0.144825 4:-0.045352999 5:-0.341701 6:-0.35563499 7:-0.31764501 8:0.119741 9:0.241684 10:-0.145579 11:-0.332057 12:-0.53281599 13:-0.243834 14:-0.189715 15:-0.21397699 16:-0.27533299 17:-0.33521399 18:-0.362865 19:-0.77668297 21:-0.59558499 22:-0.145696 23:-0.242998 24:-0.22223599 25:0.659522 26:1.245178 27:-0.225205 28:-0.18276601 29:-0.150461 30:-0.189439 31:-0.120054 32:-0.12993801 33:-0.133763 34:-0.1311 35:-0.191397 36:-0.22950201 37:3.4204161 38:-0.063603997 39:-0.157189 40:-0.183598 41:-0.123044 42:-0.139154 43:0.155607 45:0.175171 46:-0.215674 47:-0.079241998 48:-0.101023 49:0.45466799 50:0.865565 51:0.162158 52:-0.41634899 53:-0.30558699 54:-0.064562999 55:-0.074937001 56:-0.217152 57:3.315594 #
0.5 1:-0.348299 2:-0.17969 3:-0.62200397 4:-0.045352999 5:-0.48666501 6:-0.35563499 7:-0.31764501 8:-0.27120501 9:-0.354184 10:-0.40832499 11:-0.332057 12:7.276597 13:-0.341429 14:-0.189715 15:-0.21397699 16:-0.303601 17:-0.33521399 18:-0.362865 19:4.1162009 21:-0.76167101 22:-0.145696 23:-0.32093501 24:-0.22223599 25:-0.259592 26:-0.214358 27:-0.225205 28:-0.18276601 29:-0.150461 30:-0.189439 31:-0.120054 32:-0.12993801 33:-0.133763 34:-0.1311 35:-0.191397 36:-0.22950201 37:-0.26529801 38:-0.063603997 39:-0.157189 40:-0.183598 41:-0.123044 42:-0.139154 43:-0.159254 45:-0.29318199 46:-0.215674 47:-0.079241998 48:-0.101023 49:-0.14805999 50:-0.615345 51:-0.150841 52:-0.459032 53:-0.34537601 54:-0.101856 55:-0.087632 56:-0.30992201 57:-0.408227 #
0.5 1:-0.348299 2:-0.17969 3:-0.62200397 4:-0.045352999 5:-0.48666501 6:-0.35563499 7:-0.31764501 8:-0.27120501 9:-0.354184 10:-0.40832499 11:-0.332057 12:-0.66384602 13:-0.341429 14:-0.189715 15:-0.21397699 16:-0.303601 17:-0.33521399 18:-0.362865 19:2.677784 21:0.59193403 22:-0.145696 23:-0.32093501 24:-0.22223599 25:-0.259592 26:-0.214358 27:-0.225205 28:-0.18276601 29:-0.150461 30:-0.189439 31:-0.120054 32:-0.12993801 33:-0.133763 34:-0.1311 35:-0.191397 36:-0.22950201 37:-0.26529801 38:-0.063603997 39:-0.157189 40:-0.183598 41:-0.123044 42:-0.139154 43:-0.159254 45:-0.29318199 46:-0.215674 47:-0.079241998 48:-0.101023 49:-0.14805999 50:-0.615345 51:-0.150841 52:-0.459032 53:-0.34537601 54:-0.101856 55:-0.130667 56:-0.41042399 57:-0.424705 #
0.5 1:-0.348299 2:-0.17969 3:-0.62200397 4:-0.045352999 5:0.26714799 6:-0.35563499 7:-0.31764501 8:-0.27120501 9:-0.354184 10:-0.40832499 11:-0.332057 12:-0.66384602 13:-0.341429 14:1.364198 15:-0.21397699 16:0.186372 17:-0.33521399 18:-0.362865 19:-1.03152 21:-0.76167101 22:-0.145696 23:-0.32093501 24:-0.22223599 25:-0.259592 26:-0.214358 27:-0.225205 28:-0.18276601 29:-0.150461 30:-0.189439 31:-0.120054 32:-0.12993801 33:0.69397801 34:-0.1311 35:-0.191397 36:-0.22950201 37:-0.26529801 38:-0.063603997 39:-0.157189 40:-0.183598 41:-0.123044 42:-0.139154 43:2.569541 45:-0.29318199 46:1.523168 47:-0.079241998 48:-0.101023 49:-0.14805999 50:-0.241476 51:-0.150841 52:-0.34570199 53:-0.34537601 54:-0.101856 55:-0.11874 56:-0.33311501 57:-0.33183399 #
0.5 1:-0.348299 2:-0.17969 3:-0.62200397 4:-0.045352999 5:-0.48666501 6:5.8260188 7:-0.31764501 8:-0.27120501 9:-0.354184 10:-0.40832499 11:-0.332057 12:-0.66384602 13:-0.341429 14:-0.189715 15:-0.21397699 16:-0.303601 17:-0.33521399 18:-0.362865 19:1.103453 21:0.79954201 22:-0.145696 23:-0.32093501 24:-0.22223599 25:-0.259592 26:-0.214358 27:-0.225205 28:-0.18276601 29:-0.150461 30:-0.189439 31:-0.120054 32:-0.12993801 33:-0.133763 34:-0.1311 35:-0.191397 36:-0.22950201 37:-0.26529801 38:-0.063603997 39:-0.157189 40:-0.183598 41:-0.123044 42:-0.139154 43:-0.159254 45:-0.29318199 46:-0.215674 47:-0.079241998 48:-0.101023 49:-0.14805999 50:-0.615345 51:-0.150841 52:-0.459032 53:-0.34537601 54:-0.101856 55:-0.090490997 56:-0.29446101 57:-0.39923999 #
0.5 1:-0.348299 2:0.318939 3:-0.62200397 4:-0.045352999 5:3.702796 6:-0.35563499 7:-0.31764501 8:-0.27120501 9:-0.354184 10:-0.40832499 11:3.000664 12:0.27957299 13:-0.341429 14:-0.189715 15:-0.21397699 16:-0.303601 17:-0.33521399 18:-0.362865 19:0.197364 21:0.43415201 22:-0.145696 23:-0.32093501 24:-0.22223599 25:-0.259592 26:-0.214358 27:-0.225205 28:-0.18276601 29:-0.150461 30:-0.189439 31:-0.120054 32:-0.12993801 33:-0.133763 34:-0.1311 35:-0.191397 36:-0.22950201 37:-0.26529801 38:-0.063603997 39:-0.157189 40:-0.183598 41:-0.123044 42:-0.139154 43:-0.159254 45:-0.29318199 46:-0.215674 47:-0.079241998 48:-0.101023 49:-0.14805999 50:-0.615345 51:-0.150841 52:-0.459032 53:-0.34537601 54:-0.101856 55:-0.119017 56:-0.364039 57:-0.38426101 #
0.5 1:-0.348299 2:-0.17969 3:-0.62200397 4:-0.045352999 5:-0.48666501 6:-0.35563499 7:-0.31764501 8:-0.27120501 9:-0.354184 10:-0.40832499 11:-0.332057 12:-0.66384602 13:-0.341429 14:6.743124 15:-0.21397699 16:-0.303601 17:2.3001349 18:-0.362865 19:-0.374605 21:-0.76167101 22:-0.145696 23:-0.32093501 24:-0.22223599 25:-0.259592 26:-0.214358 27:-0.225205 28:4.6098852 29:-0.150461 30:-0.189439 31:-0.120054 32:-0.12993801 33:-0.133763 34:-0.1311 35:-0.191397 36:-0.22950201 37:-0.26529801 38:-0.063603997 39:-0.157189 40:-0.183598 41:-0.123044 42:-0.139154 43:-0.159254 45:-0.29318199 46:1.077311 47:-0.079241998 48:-0.101023 49:-0.14805999 50:1.234578 51:-0.150841 52:-0.459032 53:-0.34537601 54:0.206214 55:-0.079885997 56:-0.20169 57:-0.35280401 #
0.5 1:-0.348299 2:0.44359601 3:-0.62200397 4:-0.045352999 5:-0.48666501 6:-0.35563499 7:-0.31764501 8:-0.27120501 9:-0.354184 10:-0.40832499 11:-0.332057 12:0.51542699 13:-0.341429 14:-0.189715 15:-0.21397699 16:-0.303601 17:-0.33521399 18:2.7931991 19:2.5701859 21:-0.014282 22:-0.145696 23:-0.32093501 24:-0.22223599 25:-0.259592 26:-0.214358 27:-0.225205 28:-0.18276601 29:-0.150461 30:-0.189439 31:-0.120054 32:-0.12993801 33:-0.133763 34:-0.1311 35:-0.191397 36:-0.22950201 37:-0.26529801 38:-0.063603997 39:-0.157189 40:-0.183598 41:-0.123044 42:-0.139154 43:-0.159254 45:-0.29318199 46:-0.215674 47:-0.079241998 48:-0.101023 49:-0.14805999 50:0.093549997 51:-0.150841 52:-0.029261 53:-0.34537601 54:-0.101856 55:-0.069188997 56:-0.124381 57:-0.33183399 #
0.5 1:-0.348299 2:-0.17969 3:-0.62200397 4:-0.045352999 5:-0.48666501 6:-0.35563499 7:-0.31764501 8:-0.27120501 9:-0.354184 10:1.4308929 11:-0.332057 12:-0.66384602 13:-0.341429 14:-0.189715 15:-0.21397699 16:0.81768399 17:-0.33521399 18:-0.362865 19:0.990192 21:2.2029741 22:-0.145696 23:-0.32093501 24:-0.22223599 25:0.66731101 26:1.209288 27:-0.225205 28:-0.18276601 29:-0.150461 30:-0.189439 31:-0.120054 32:-0.12993801 33:-0.133763 34:-0.1311 35:-0.191397 36:-0.22950201 37:-0.26529801 38:-0.063603997 39:-0.157189 40:-0.183598 41:-0.123044 42:-0.139154 43:-0.159254 45:0.94535202 46:-0.215674 47:-0.079241998 48:-0.101023 49:-0.14805999 50:-0.615345 51:-0.150841 52:-0.15878101 53:-0.34537601 54:-0.101856 55:0.104057 56:-0.101188 57:-0.301875 #
-0.5 1:-0.348299 2:-0.17969 3:0.96859199 4:-0.045352999 5:-0.48666501 6:-0.35563499 7:-0.31764501 8:-0.27120501 9:-0.354184 10:-0.40832499 11:-0.332057 12:0.384397 13:-0.341429 14:-0.189715 15:-0.21397699 16:-0.303601 17:-0.33521399 18:-0.362865 19:1.686748 21:0.56702101 22:-0.145696 23:-0.32093501 24:-0.22223599 25:-0.259592 26:-0.214358 27:-0.225205 28:-0.18276601 29:-0.150461 30:-0.189439 31:-0.120054 32:-0.12993801 33:-0.133763 34:-0.1311 35:-0.191397 36:-0.22950201 37:-0.26529801 38:-0.063603997 39:-0.157189 40:-0.183598 41:-0.123044 42:-0.139154 43:-0.159254 45:-0.29318199 46:-0.215674 47:-0.079241998 48:-0.101023 49:-0.14805999 50:-0.615345 51:-0.150841 52:-0.459032 53:-0.34537601 54:-0.101856 55:-0.130667 56:-0.41042399 57:-0.42770001 #
0.5 1:-0.348299 2:-0.17969 3:-0.62200397 4:-0.045352999 5:2.96348 6:-0.35563499 7:-0.31764501 8:-0.27120501 9:-0.354184 10:-0.40832499 11:-0.332057 12:-0.66384602 13:-0.341429 14:-0.189715 15:-0.21397699 16:-0.303601 17:-0.33521399 18:-0.362865 19:1.664096 21:-0.76167101 22:-0.145696 23:-0.32093501 24:-0.22223599 25:-0.259592 26:-0.214358 27:-0.225205 28:-0.18276601 29:-0.150461 30:-0.189439 31:-0.120054 32:-0.12993801 33:-0.133763 34:-0.1311 35:-0.191397 36:-0.22950201 37:-0.26529801 38:-0.063603997 39:-0.157189 40:-0.183598 41:-0.123044 42:-0.139154 43:-0.159254 45:-0.29318199 46:-0.215674 47:-0.079241998 48:-0.101023 49:-0.14805999 50:-0.615345 51:-0.150841 52:-0.459032 53:-0.34537601 54:-0.101856 55:-0.099927999 56:-0.33311501 57:-0.41421899 #
0.5 1:3.6250179 2:-0.17969 3:-0.62200397 4:-0.045352999 5:-0.48666501 6:-0.35563499 7:-0.31764501 8:-0.27120501 9:-0.354184 10:-0.40832499 11:-0.332057 12:2.5595019 13:-0.341429 14:-0.189715 15:-0.21397699 16:-0.303601 17:-0.33521399 18:-0.362865 19:2.4625881 21:1.281193 22:-0.145696 23:-0.32093501 24:-0.22223599 25:-0.259592 26:-0.214358 27:-0.225205 28:-0.18276601 29:-0.150461 30:-0.189439 31:-0.120054 32:-0.12993801 33:-0.133763 34:-0.1311 35:-0.191397 36:-0.22950201 37:-0.26529801 38:-0.063603997 39:-0.157189 40:-0.183598 41:-0.123044 42:-0.139154 43:-0.159254 45:-0.29318199 46:-0.215674 47:-0.079241998 48:-0.101023 49:-0.14805999 50:-0.615345 51:-0.150841 52:0.78171098 53:-0.34537601 54:-0.101856 55:-0.099927999 56:-0.27126801 57:-0.28539801 #
0.5 1:-0.348299 2:-0.17969 3:-0.62200397 4:-0.045352999 5:1.673299 6:-0.35563499 7:-0.31764501 8:-0.27120501 9:-0.354184 10:-0.40832499 11:-0.332057 12:-0.66384602 13:-0.341429 14:-0.189715 15:-0.21397699 16:2.5043221 17:-0.33521399 18:2.2352209 19:-1.03152 21:0.475674 22:-0.145696 23:-0.32093501 24:-0.22223599 25:0.90098399 26:1.56819 27:-0.225205 28:-0.18276601 29:-0.150461 30:-0.189439 31:-0.120054 32:-0.12993801 33:-0.133763 34:-0.1311 35:-0.191397 36:-0.22950201 37:-0.26529801 38:-0.063603997 39:-0.157189 40:-0.183598 41:-0.123044 42:-0.139154 43:-0.159254 45:-0.29318199 46:-0.215674 47:-0.079241998 48:-0.101023 49:-0.14805999 50:-0.615345 51:-0.150841 52:-0.459032 53:-0.34537601 54:-0.101856 55:-0.127593 56:-0.402693 57:-0.42770001 #
0.5 1:-0.348299 2:-0.17969 3:1.068005 4:-0.045352999 5:0.122184 6:-0.35563499 7:-0.31764501 8:-0.27120501 9:-0.354184 10:-0.40832499 11:-0.332057 12:-0.66384602 13:-0.341429 14:-0.189715 15:-0.21397699 16:0.092147 17:-0.33521399 18:-0.362865 19:0.18037499 21:0.301283 22:-0.145696 23:-0.32093501 24:-0.22223599 25:-0.259592 26:-0.214358 27:-0.225205 28:-0.18276601 29:-0.150461 30:-0.189439 31:-0.120054 32:-0.12993801 33:-0.133763 34:-0.1311 35:-0.191397 36:-0.22950201 37:-0.26529801 38:-0.063603997 39:-0.157189 40:-0.183598 41:-0.123044 42:-0.139154 43:-0.159254 45:0.143948 46:-0.215674 47:-0.079241998 48:-0.101023 49:-0.14805999 50:0.15667 51:-0.150841 52:1.18499 53:-0.34537601 54:-0.101856 55:-0.124335 56:-0.364039 57:-0.26892099 #
-0.5 1:-0.348299 2:-0.17969 3:-0.62200397 4:-0.045352999 5:-0.48666501 6:-0.35563499 7:-0.31764501 8:-0.27120501 9:-0.354184 10:-0.40832499 11:-0.332057 12:-0.66384602 13:-0.341429 14:-0.189715 15:-0.21397699 16:-0.303601 17:-0.33521399 18:-0.362865 19:-1.03152 21:-0.76167101 22:-0.145696 23:-0.32093501 24:-0.22223599 25:-0.259592 26:-0.214358 27:-0.225205 28:-0.18276601 29:-0.150461 30:-0.189439 31:-0.120054 32:-0.12993801 33:-0.133763 34:-0.1311 35:-0.191397 36:-0.22950201 37:-0.26529801 38:-0.063603997 39:-0.157189 40:-0.183598 41:-0.123044 42:-0.139154 43:-0.159254 45:-0.29318199 46:-0.215674 47:-0.079241998 48:-0.101023 49:-0.14805999 50:-0.615345 51:-0.150841 52:-0.459032 53:-0.34537601 54:-0.101856 55:-0.084559001 56:-0.38723099 57:-0.43668801 #
0.5 1:-0.348299 2:0.215058 3:-0.62200397 4:-0.045352999 5:-0.48666501 6:-0.35563499 7:-0.31764501 8:-0.27120501 9:-0.354184 10:-0.40832499 11:2.3063469 12:0.083026998 13:3.399698 14:-0.189715 15:-0.21397699 16:-0.303601 17:-0.33521399 18:2.6537049 19:0.92789799 21:0.193326 22:-0.145696 23:-0.32093501 24:-0.22223599 25:-0.259592 26:-0.214358 27:-0.225205 28:-0.18276601 29:-0.150461 30:-0.189439 31:-0.120054 32:-0.12993801 33:-0.133763 34:-0.1311 35:-0.191397 36:-0.22950201 37:-0.26529801 38:-0.063603997 39:-0.157189 40:-0.183598 41:-0.123044 42:-0.139154 43:-0.159254 45:-0.29318199 46:-0.215674 47:-0.079241998 48:-0.101023 49:-0.14805999 50:-0.615345 51:-0.150841 52:-0.301548 53:-0.34537601 54:-0.101856 55:-0.117726 56:-0.364039 57:-0.36329001 #
-0.043724203209503098577215496334247 1:-0.348299 2:-0.17969 3:1.763891 4:-0.045352999 5:-0.48666501 6:-0.35563499 7:-0.31764501 8:-0.27120501 9:-0.354184 10:-0.40832499 11:-0.332057 12:0.90851802 13:-0.341429 14:-0.189715 15:-0.21397699 16:-0.303601 17:-0.33521399 18:-0.362865 19:2.3776419 21:-0.76167101 22:-0.145696 23:-0.32093501 24:-0.22223599 25:-0.259592 26:-0.214358 27:-0.225205 28:-0.18276601 29:-0.150461 30:-0.189439 31:-0.120054 32:-0.12993801 33:-0.133763 34:-0.1311 35:-0.191397 36:-0.22950201 37:-0.26529801 38:-0.063603997 39:6.99722 40:-0.183598 41:4.3965168 42:-0.139154 43:-0.159254 45:0.95576 46:1.121897 47:-0.079241998 48:-0.101023 49:0.51527798 50:-0.615345 51:-0.150841 52:10.884277 53:-0.34537601 54:-0.101856 55:-0.056892999 56:-0.30219099 57:-0.36778399 #
0.5 1:-0.348299 2:-0.17969 3:-0.62200397 4:-0.045352999 5:-0.48666501 6:-0.35563499 7:-0.31764501 8:-0.27120501 9:-0.354184 10:-0.40832499 11:-0.332057 12:-0.66384602 13:-0.341429 14:-0.189715 15:-0.21397699 16:-0.303601 17:-0.33521399 18:-0.362865 19:-1.03152 21:-0.76167101 22:-0.145696 23:-0.32093501 24:-0.22223599 25:-0.259592 26:-0.214358 27:-0.225205 28:-0.18276601 29:-0.150461 30:-0.189439 31:-0.120054 32:-0.12993801 33:-0.133763 34:-0.1311 35:-0.191397 36:-0.22950201 37:-0.26529801 38:-0.063603997 39:-0.157189 40:-0.183598 41:-0.123044 42:-0.139154 43:-0.159254 45:-0.29318199 46:-0.215674 47:-0.079241998 48:-0.101023 49:-0.14805999 50:-0.615345 51:-0.150841 52:-0.459032 53:-0.34537601 54:-0.101856 55:-0.127593 56:-0.402693 57:-0.42770001 #
-0.5 1:-0.348299 2:-0.17969 3:-0.62200397 4:-0.045352999 5:-0.48666501 6:-0.35563499 7:-0.31764501 8:-0.27120501 9:-0.354184 10:5.773921 11:-0.332057 12:-0.66384602 13:-0.341429 14:-0.189715 15:-0.21397699 16:-0.303601 17:-0.33521399 18:-0.362865 19:1.233704 21:-0.76167101 22:-0.145696 23:-0.32093501 24:-0.22223599 25:-0.259592 26:-0.214358 27:-0.225205 28:-0.18276601 29:-0.150461 30:-0.189439 31:-0.120054 32:-0.12993801 33:-0.133763 34:-0.1311 35:-0.191397 36:-0.22950201 37:-0.26529801 38:-0.063603997 39:-0.157189 40:-0.183598 41:-0.123044 42:-0.139154 43:-0.159254 45:-0.29318199 46:-0.215674 47:-0.079241998 48:-0.101023 49:-0.14805999 50:-0.615345 51:-0.150841 52:-0.459032 53:-0.34537601 54:-0.101856 55:-0.130667 56:-0.41042399 57:-0.43069601 #
-0.5 1:6.1123791 2:-0.17969 3:-0.62200397 4:-0.045352999 5:-0.48666501 6:-0.35563499 7:-0.31764501 8:-0.27120501 9:-0.354184 10:-0.40832499 11:8.9255009 12:1.956762 13:-0.341429 14:-0.189715 15:-0.21397699 16:-0.303601 17:-0.33521399 18:-0.362865 19:0.101092 21:5.8817911 22:-0.145696 23:-0.32093501 24:-0.22223599 25:-0.259592 26:-0.214358 27:-0.225205 28:-0.18276601 29:-0.150461 30:-0.189439 31:-0.120054 32:-0.12993801 33:-0.133763 34:-0.1311 35:-0.191397 36:-0.22950201 37:-0.26529801 38:-0.063603997 39:-0.157189 40:-0.183598 41:-0.123044 42:-0.139154 43:-0.159254 45:-0.29318199 46:-0.215674 47:-0.079241998 48:-0.101023 49:-0.14805999 50:-0.615345 51:-0.150841 52:-0.459032 53:-0.34537601 54:-0.101856 55:0.019586001 56:-0.193959 57:-0.364788 #
0.5 1:-0.348299 2:-0.17969 3:0.610708 4:-0.045352999 5:1.310889 6:1.682995 7:-0.31764501 8:-0.27120501 9:-0.354184 10:-0.40832499 11:-0.332057 12:-0.66384602 13:-0.341429 14:-0.189715 15:-0.21397699 16:-0.011501 17:-0.33521399 18:-0.362865 19:0.37291899 21:0.010631 22:-0.145696 23:0.48441899 24:-0.22223599 25:-0.259592 26:-0.214358 27:-0.225205 28:-0.18276601 29:-0.150461 30:-0.189439 31:-0.120054 32:-0.12993801 33:-0.133763 34:-0.1311 35:-0.191397 36:-0.22950201 37:0.57482803 38:-0.063603997 39:-0.157189 40:-0.183598 41:-0.123044 42:-0.139154 43:-0.159254 45:-0.29318199 46:-0.215674 47:-0.079241998 48:-0.101023 49:-0.14805999 50:-0.197777 51:-0.150841 52:-0.395744 53:-0.34537601 54:-0.101856 55:-0.10789 56:-0.30992201 57:-0.212 #
-0.5 1:-0.348299 2:-0.17969 3:-0.62200397 4:-0.045352999 5:-0.48666501 6:-0.35563499 7:-0.31764501 8:-0.27120501 9:-0.354184 10:-0.40832499 11:-0.332057 12:-0.66384602 13:-0.341429 14:-0.189715 15:-0.21397699 16:0.054455999 17:-0.33521399 18:0.299734 19:0.276647 21:-0.122238 22:-0.145696 23:-0.32093501 24:-0.22223599 25:-0.259592 26:-0.214358 27:-0.225205 28:-0.18276601 29:-0.150461 30:-0.189439 31:-0.120054 32:-0.12993801 33:-0.133763 34:-0.1311 35:-0.191397 36:-0.22950201 37:-0.26529801 38:-0.063603997 39:-0.157189 40:-0.183598 41:-0.123044 42:-0.139154 43:-0.159254 45:0.102316 46:-0.215674 47:-0.079241998 48:-0.101023 49:-0.14805999 50:0.433431 51:-0.150841 52:-0.220597 53:-0.34537601 54:-0.014299 55:-0.0055590002 56:0.123008 57:-0.011279 #
-0.14929005717126356267421272150386 1:-0.348299 2:9.7097731 3:-0.62200397 4:-0.045352999 5:-0.48666501 6:-0.35563499 7:-0.31764501 8:-0.27120501 9:-0.354184 10:-0.40832499 11:-0.332057 12:-0.66384602 13:-0.341429 14:-0.189715 15:-0.21397699 16:-0.303601 17:-0.33521399 18:-0.362865 19:-1.03152 21:-0.76167101 22:-0.145696 23:-0.32093501 24:-0.22223599 25:-0.259592 26:-0.214358 27:-0.225205 28:-0.18276601 29:-0.150461 30:-0.189439 31:-0.120054 32:-0.12993801 33:-0.133763 34:-0.1311 35:-0.191397 36:-0.22950201 37:-0.26529801 38:-0.063603997 39:-0.157189 40:-0.183598 41:-0.123044 42:-0.139154 43:-0.159254 45:-0.29318199 46:-0.215674 47:-0.079241998 48:-0.101023 49:-0.14805999 50:-0.615345 51:-0.150841 52:-0.459032 53:-0.34537601 54:-0.101856 55:-0.106076 56:-0.3795 57:-0.43069601 #
0.5 1:-0.348299 2:-0.17969 3:-0.62200397 4:-0.045352999 5:-0.48666501 6:-0.35563499 7:-0.31764501 8:-0.27120501 9:-0.354184 10:-0.40832499 11:5.361341 12:0.94782799 13:-0.341429 14:-0.189715 15:-0.21397699 16:-0.303601 17:-0.33521399 18:-0.362865 19:0.36159199 21:-0.76167101 22:-0.145696 23:-0.32093501 24:-0.22223599 25:-0.259592 26:-0.214358 27:-0.225205 28:-0.18276601 29:-0.150461 30:-0.189439 31:-0.120054 32:-0.12993801 33:-0.133763 34:-0.1311 35:-0.191397 36:-0.22950201 37:-0.26529801 38:-0.063603997 39:-0.157189 40:-0.183598 41:-0.123044 42:-0.139154 43:-0.159254 45:-0.29318199 46:-0.215674 47:-0.079241998 48:-0.101023 49:-0.14805999 50:-0.615345 51:-0.150841 52:1.430783 53:-0.34537601 54:-0.101856 55:-0.119693 56:-0.3795 57:-0.41571701 #
