SVM-light Version V6.02
0 # kernel type
3 # kernel parameter -d 
1 # kernel parameter -g 
1 # kernel parameter -s 
1 # kernel parameter -r 
empty# kernel parameter -u 
57 # highest feature index 
1813 # number of training documents 
395 # number of support vectors plus 1 
0.22616321 # threshold b, each following line is a SV (starting with alpha*y)
-0.5 1:-0.33522499 2:-0.170536 3:-0.60241699 4:-0.047166999 5:-0.52143002 6:-0.37604499 7:-0.31911701 8:-0.29759601 9:-0.34041199 10:-0.404962 11:-0.327288 12:-0.652237 13:-0.331025 14:-0.196753 15:-0.19808801 16:-0.319971 17:-0.33070099 18:-0.372363 19:-1.02887 20:-0.172627 21:-0.750377 22:-0.130933 23:-0.30711901 24:-0.243755 25:-0.26800001 26:-0.22967 27:-0.216609 28:-0.19571599 29:-0.16288701 30:-0.192063 31:-0.141344 32:-0.1258 33:-0.17358901 34:-0.125499 35:-0.191456 36:-0.2053 37:-0.276582 38:-0.073126003 39:-0.15673099 40:-0.18065099 41:-0.132836 42:-0.14069401 43:-0.180182 44:-0.092913002 45:-0.30269501 46:-0.193441 47:-0.071902998 48:-0.094949998 49:-0.139158 50:-0.43770301 51:-0.121647 52:-0.38407901 53:-0.315819 54:-0.188951 55:-0.124064 56:-0.213826 57:-0.40494499 #
-0.5 1:-0.33522499 2:-0.170536 3:0.23960499 4:-0.047166999 5:-0.52143002 6:-0.37604499 7:0.144879 8:-0.29759601 9:-0.34041199 10:-0.070635997 11:-0.327288 12:-0.102484 13:-0.331025 14:-0.196753 15:-0.19808801 16:-0.319971 17:-0.33070099 18:0.014827 19:-0.16407999 20:-0.172627 21:-0.40444499 22:-0.130933 23:-0.30711901 24:-0.243755 25:-0.111879 26:0.019482 27:-0.216609 28:-0.19571599 29:-0.16288701 30:-0.192063 31:-0.141344 32:-0.1258 33:0.35819799 34:-0.125499 35:-0.191456 36:-0.2053 37:-0.276582 38:-0.073126003 39:-0.15673099 40:-0.18065099 41:-0.132836 42:-0.14069401 43:-0.180182 44:-0.092913002 45:-0.30269501 46:-0.193441 47:-0.071902998 48:-0.094949998 49:-0.018798999 50:0.019013001 51:0.137954 52:-0.38407901 53:-0.092390999 54:-0.188951 55:-0.082055002 56:-0.092735 57:8.3999999e-05 #
-0.5 1:-0.33522499 2:-0.078818001 3:0.72075999 4:-0.047166999 5:-0.52143002 6:-0.37604499 7:-0.31911701 8:-0.29759601 9:-0.34041199 10:-0.197998 11:-0.327288 12:-0.48207501 13:-0.331025 14:-0.196753 15:-0.19808801 16:-0.065598004 17:-0.33070099 18:-0.13267399 19:0.50918001 20:-0.172627 21:-0.42915499 22:-0.130933 23:-0.30711901 24:-0.243755 25:-0.26800001 26:-0.22967 27:-0.216609 28:-0.19571599 29:-0.16288701 30:-0.192063 31:-0.141344 32:-0.1258 33:-0.17358901 34:-0.125499 35:-0.191456 36:-0.2053 37:0.420425 38:-0.073126003 39:-0.15673099 40:-0.18065099 41:-0.132836 42:-0.14069401 43:-0.180182 44:-0.092913002 45:-0.031844001 46:-0.193441 47:-0.071902998 48:-0.094949998 49:-0.071898997 50:0.76815897 51:-0.121647 52:-0.14207999 53:-0.315819 54:-0.018401001 55:-0.082814001 56:0.028355001 57:0.33921 #
-0.5 1:-0.33522499 2:-0.170536 3:-0.60241699 4:-0.047166999 5:0.25645101 6:-0.37604499 7:-0.31911701 8:-0.29759601 9:-0.34041199 10:-0.404962 11:-0.327288 12:-0.023948001 13:-0.331025 14:-0.196753 15:-0.19808801 16:-0.319971 17:-0.33070099 18:-0.372363 19:-0.75028002 20:-0.172627 21:-0.750377 22:-0.130933 23:-0.30711901 24:-0.243755 25:-0.26800001 26:-0.22967 27:-0.216609 28:-0.19571599 29:-0.16288701 30:-0.192063 31:-0.141344 32:-0.1258 33:-0.17358901 34:-0.125499 35:-0.191456 36:-0.2053 37:-0.276582 38:-0.073126003 39:-0.15673099 40:-0.18065099 41:-0.132836 42:-0.14069401 43:-0.180182 44:-0.092913002 45:-0.30269501 46:-0.193441 47:-0.071902998 48:-0.094949998 49:-0.139158 50:-0.43770301 51:-0.121647 52:-0.38407901 53:-0.315819 54:-0.188951 55:-0.109965 56:-0.19547901 57:-0.25940901 #
0.42420264412648045482256975446944 1:-0.33522499 2:-0.170536 3:0.56037498 4:-0.047166999 5:1.358451 6:-0.37604499 7:-0.31911701 8:-0.29759601 9:-0.34041199 10:0.51841497 11:-0.327288 12:-0.652237 13:-0.331025 14:-0.196753 15:-0.19808801 16:0.24747699 17:-0.33070099 18:-0.372363 19:-0.69224 20:-0.172627 21:0.205053 22:-0.130933 23:-0.30711901 24:-0.243755 25:-0.26800001 26:-0.22967 27:-0.216609 28:-0.19571599 29:-0.16288701 30:-0.192063 31:-0.141344 32:-0.1258 33:-0.17358901 34:-0.125499 35:-0.191456 36:-0.2053 37:-0.276582 38:-0.073126003 39:-0.15673099 40:-0.18065099 41:-0.132836 42:-0.14069401 43:-0.180182 44:-0.092913002 45:-0.30269501 46:-0.193441 47:-0.071902998 48:-0.094949998 49:-0.139158 50:-0.43770301 51:-0.121647 52:-0.38407901 53:-0.315819 54:-0.188951 55:-0.10952 56:-0.18814 57:-0.229204 #
0.5 1:-0.33522499 2:-0.170536 3:-0.60241699 4:-0.047166999 5:-0.52143002 6:-0.37604499 7:-0.31911701 8:-0.29759601 9:-0.34041199 10:-0.404962 11:-0.327288 12:0.83995003 13:-0.331025 14:-0.196753 15:-0.19808801 16:-0.319971 17:-0.33070099 18:-0.372363 19:-0.36721799 20:-0.172627 21:-0.750377 22:-0.130933 23:-0.30711901 24:-0.243755 25:-0.26800001 26:-0.22967 27:-0.216609 28:-0.19571599 29:-0.16288701 30:-0.192063 31:-0.141344 32:-0.1258 33:-0.17358901 34:-0.125499 35:-0.191456 36:-0.2053 37:-0.276582 38:-0.073126003 39:-0.15673099 40:-0.18065099 41:-0.132836 42:-0.14069401 43:-0.180182 44:-0.092913002 45:-0.30269501 46:-0.193441 47:-0.071902998 48:-0.094949998 49:-0.139158 50:-0.43770301 51:-0.121647 52:-0.38407901 53:-0.315819 54:-0.188951 55:-0.124064 56:-0.213826 57:-0.40494499 #
-0.5 1:-0.33522499 2:-0.170536 3:-0.60241699 4:-0.047166999 5:-0.52143002 6:-0.37604499 7:-0.31911701 8:-0.29759601 9:-0.34041199 10:-0.404962 11:-0.327288 12:-0.652237 13:-0.331025 14:-0.196753 15:-0.19808801 16:-0.319971 17:-0.33070099 18:-0.372363 19:-1.02887 20:-0.172627 21:-0.750377 22:-0.130933 23:-0.30711901 24:-0.243755 25:-0.26800001 26:-0.22967 27:-0.216609 28:-0.19571599 29:-0.16288701 30:-0.192063 31:-0.141344 32:-0.1258 33:-0.17358901 34:-0.125499 35:-0.191456 36:-0.2053 37:-0.276582 38:-0.073126003 39:-0.15673099 40:-0.18065099 41:-0.132836 42:-0.14069401 43:-0.180182 44:-0.092913002 45:-0.30269501 46:-0.193441 47:-0.071902998 48:-0.094949998 49:-0.139158 50:0.64987302 51:-0.121647 52:0.030955 53:-0.315819 54:-0.188951 55:-0.119643 56:-0.213826 57:-0.39533401 #
0.5 1:-0.33522499 2:-0.170536 3:-0.60241699 4:-0.047166999 5:-0.52143002 6:-0.37604499 7:-0.31911701 8:-0.29759601 9:-0.34041199 10:-0.404962 11:-0.327288 12:-0.652237 13:-0.331025 14:-0.196753 15:-0.19808801 16:-0.319971 17:-0.33070099 18:-0.372363 19:1.118596 20:-0.172627 21:-0.750377 22:-0.130933 23:-0.30711901 24:-0.243755 25:-0.26800001 26:-0.22967 27:-0.216609 28:-0.19571599 29:-0.16288701 30:-0.192063 31:-0.141344 32:-0.1258 33:-0.17358901 34:-0.125499 35:-0.191456 36:-0.2053 37:-0.276582 38:-0.073126003 39:-0.15673099 40:-0.18065099 41:-0.132836 42:-0.14069401 43:-0.180182 44:-0.092913002 45:-0.30269501 46:-0.193441 47:-0.071902998 48:-0.094949998 49:-0.139158 50:-0.43770301 51:-0.121647 52:3.939291 53:-0.315819 54:-0.188951 55:-0.094741002 56:-0.18814 57:-0.39533401 #
0.5 1:-0.33522499 2:-0.170536 3:-0.60241699 4:-0.047166999 5:1.018128 6:-0.37604499 7:-0.31911701 8:-0.29759601 9:-0.34041199 10:-0.404962 11:-0.327288 12:-0.652237 13:-0.331025 14:-0.196753 15:-0.19808801 16:-0.319971 17:-0.33070099 18:0.49420601 19:-0.477494 20:-0.172627 21:0.032086998 22:-0.130933 23:-0.30711901 24:-0.243755 25:-0.26800001 26:-0.22967 27:-0.216609 28:-0.19571599 29:-0.16288701 30:-0.192063 31:-0.141344 32:-0.1258 33:-0.17358901 34:-0.125499 35:-0.191456 36:-0.2053 37:-0.276582 38:-0.073126003 39:-0.15673099 40:-0.18065099 41:-0.132836 42:-0.14069401 43:-0.180182 44:-0.092913002 45:-0.30269501 46:-0.193441 47:-0.071902998 48:-0.094949998 49:-0.139158 50:0.76158702 51:-0.121647 52:-0.38407901 53:-0.315819 54:-0.188951 55:-0.132094 56:-0.206487 57:-0.32119301 #
-0.5 1:-0.017643999 2:-0.170536 3:-0.14131001 4:-0.047166999 5:-0.14869501 6:-0.000151 7:-0.31911701 8:-0.29759601 9:3.2280991 10:-0.404962 11:-0.327288 12:-0.20719901 13:-0.331025 14:-0.196753 15:-0.19808801 16:-0.21235199 17:-0.33070099 18:-0.372363 19:-0.76188803 20:-0.172627 21:-0.560938 22:-0.130933 23:-0.30711901 24:-0.243755 25:0.155755 26:0.58897001 27:-0.183608 28:-0.19571599 29:-0.16288701 30:-0.192063 31:-0.141344 32:-0.1258 33:0.68739903 34:-0.125499 35:-0.191456 36:0.70148402 37:0.34000099 38:-0.073126003 39:-0.15673099 40:-0.18065099 41:-0.132836 42:-0.14069401 43:-0.180182 44:-0.092913002 45:-0.30269501 46:-0.193441 47:-0.071902998 48:-0.094949998 49:0.03076 50:0.199728 51:0.122683 52:-0.38407901 53:-0.2122 54:-0.188951 55:-0.078810997 56:-0.107413 57:0.273307 #
-0.5 1:-0.33522499 2:-0.170536 3:-0.60241699 4:-0.047166999 5:-0.52143002 6:-0.37604499 7:-0.31911701 8:-0.29759601 9:-0.34041199 10:-0.404962 11:-0.327288 12:7.0443072 13:-0.331025 14:-0.196753 15:-0.19808801 16:-0.319971 17:-0.33070099 18:-0.372363 19:-1.02887 20:-0.172627 21:-0.750377 22:-0.130933 23:-0.30711901 24:-0.243755 25:-0.26800001 26:-0.22967 27:-0.216609 28:-0.19571599 29:-0.16288701 30:-0.192063 31:-0.141344 32:-0.1258 33:-0.17358901 34:-0.125499 35:-0.191456 36:-0.2053 37:-0.276582 38:-0.073126003 39:-0.15673099 40:-0.18065099 41:-0.132836 42:-0.14069401 43:-0.180182 44:-0.092913002 45:-0.30269501 46:-0.193441 47:-0.071902998 48:-0.094949998 49:-0.139158 50:-0.43770301 51:-0.121647 52:0.820898 53:-0.315819 54:-0.188951 55:-0.103452 56:-0.19547901 57:-0.40906399 #
0.5 1:-0.33522499 2:-0.170536 3:2.284514 4:-0.047166999 5:-0.52143002 6:-0.37604499 7:-0.31911701 8:-0.29759601 9:-0.34041199 10:-0.404962 11:-0.327288 12:3.1305881 13:-0.331025 14:-0.196753 15:-0.19808801 16:1.088864 17:-0.33070099 18:-0.372363 19:2.331625 20:-0.172627 21:-0.750377 22:-0.130933 23:-0.30711901 24:-0.243755 25:-0.26800001 26:-0.22967 27:-0.216609 28:-0.19571599 29:-0.16288701 30:-0.192063 31:-0.141344 32:-0.1258 33:-0.17358901 34:-0.125499 35:-0.191456 36:-0.2053 37:-0.276582 38:-0.073126003 39:-0.15673099 40:-0.18065099 41:-0.132836 42:-0.14069401 43:-0.180182 44:-0.092913002 45:-0.30269501 46:-0.193441 47:-0.071902998 48:-0.094949998 49:-0.139158 50:-0.43770301 51:-0.121647 52:-0.036754999 53:-0.315819 54:-0.188951 55:-0.13015801 56:-0.21749499 57:-0.39945301 #
0.5 1:-0.33522499 2:0.055232 3:-0.60241699 4:-0.047166999 5:-0.52143002 6:-0.37604499 7:-0.31911701 8:-0.29759601 9:0.652565 10:-0.404962 11:-0.327288 12:1.03629 13:-0.331025 14:-0.196753 15:-0.19808801 16:-0.319971 17:-0.33070099 18:-0.372363 19:-1.02887 20:-0.172627 21:-0.750377 22:-0.130933 23:-0.30711901 24:-0.243755 25:-0.26800001 26:-0.22967 27:-0.216609 28:-0.19571599 29:-0.16288701 30:-0.192063 31:-0.141344 32:-0.1258 33:-0.17358901 34:-0.125499 35:-0.191456 36:-0.2053 37:-0.276582 38:-0.073126003 39:-0.15673099 40:-0.18065099 41:-0.132836 42:-0.14069401 43:-0.180182 44:-0.092913002 45:-0.30269501 46:-0.193441 47:-0.071902998 48:-0.094949998 49:-0.139158 50:-0.316131 51:-0.121647 52:-0.38407901 53:-0.315819 54:-0.188951 55:-0.101934 56:-0.096404999 57:-0.27725801 #
-0.5 1:-0.33522499 2:-0.170536 3:-0.60241699 4:-0.047166999 5:1.309833 6:-0.37604499 7:-0.31911701 8:-0.29759601 9:-0.34041199 10:1.394031 11:-0.327288 12:-0.652237 13:-0.331025 14:-0.196753 15:-0.19808801 16:-0.319971 17:-0.33070099 18:1.711091 19:0.28863001 20:-0.172627 21:2.0500209 22:-0.130933 23:-0.30711901 24:-0.243755 25:-0.26800001 26:-0.22967 27:0.122404 28:-0.19571599 29:-0.16288701 30:-0.192063 31:-0.141344 32:-0.1258 33:-0.17358901 34:-0.125499 35:-0.191456 36:-0.2053 37:-0.276582 38:-0.073126003 39:-0.15673099 40:-0.18065099 41:-0.132836 42:2.1360769 43:-0.180182 44:-0.092913002 45:-0.30269501 46:-0.193441 47:-0.071902998 48:-0.094949998 49:-0.139158 50:-0.43770301 51:-0.121647 52:-0.38407901 53:-0.315819 54:-0.188951 55:-0.138319 56:-0.224834 57:-0.413183 #
-0.057846046862181275949321701546069 1:-0.33522499 2:-0.170536 3:0.96133697 4:-0.047166999 5:-0.52143002 6:2.289387 7:-0.31911701 8:-0.29759601 9:-0.34041199 10:0.83682102 11:-0.327288 12:-0.652237 13:2.2932379 14:-0.196753 15:-0.19808801 16:-0.319971 17:-0.33070099 18:-0.372363 19:-0.123452 20:-0.172627 21:-0.107933 22:-0.130933 23:-0.30711901 24:-0.243755 25:-0.26800001 26:-0.22967 27:-0.216609 28:-0.19571599 29:-0.16288701 30:-0.192063 31:-0.141344 32:-0.1258 33:-0.17358901 34:-0.125499 35:-0.191456 36:-0.2053 37:-0.276582 38:-0.073126003 39:-0.15673099 40:-0.18065099 41:-0.132836 42:-0.14069401 43:-0.180182 44:-0.092913002 45:-0.30269501 46:0.52456301 47:-0.071902998 48:-0.094949998 49:-0.139158 50:-0.043416001 51:-0.121647 52:-0.233613 53:-0.315819 54:-0.188951 55:-0.089613996 56:-0.056040999 57:-0.31432801 #
0.5 1:-0.33522499 2:-0.170536 3:-0.60241699 4:-0.047166999 5:-0.52143002 6:-0.37604499 7:-0.31911701 8:-0.29759601 9:-0.34041199 10:-0.404962 11:-0.327288 12:-0.652237 13:-0.331025 14:-0.196753 15:-0.19808801 16:-0.319971 17:-0.33070099 18:-0.372363 19:1.437814 20:-0.172627 21:0.995754 22:-0.130933 23:-0.30711901 24:-0.243755 25:-0.26800001 26:-0.22967 27:-0.216609 28:-0.19571599 29:-0.16288701 30:-0.192063 31:-0.141344 32:-0.1258 33:5.194922 34:-0.125499 35:-0.191456 36:-0.2053 37:-0.276582 38:-0.073126003 39:-0.15673099 40:-0.18065099 41:-0.132836 42:-0.14069401 43:-0.180182 44:-0.092913002 45:-0.30269501 46:-0.193441 47:-0.071902998 48:-0.094949998 49:-0.139158 50:-0.43770301 51:-0.121647 52:-0.38407901 53:-0.315819 54:-0.188951 55:-0.046769001 56:-0.133099 57:-0.36650199 #
0.5 1:-0.33522499 2:-0.170536 3:-0.60241699 4:-0.047166999 5:-0.52143002 6:6.0483298 7:-0.31911701 8:-0.29759601 9:-0.34041199 10:-0.404962 11:-0.327288 12:-0.652237 13:-0.331025 14:-0.196753 15:-0.19808801 16:-0.319971 17:-0.33070099 18:-0.372363 19:1.159224 20:-0.172627 21:0.79807901 22:-0.130933 23:-0.30711901 24:-0.243755 25:-0.26800001 26:-0.22967 27:-0.216609 28:-0.19571599 29:-0.16288701 30:-0.192063 31:-0.141344 32:-0.1258 33:-0.17358901 34:-0.125499 35:-0.191456 36:-0.2053 37:-0.276582 38:-0.073126003 39:-0.15673099 40:-0.18065099 41:-0.132836 42:-0.14069401 43:-0.180182 44:-0.092913002 45:-0.30269501 46:-0.193441 47:-0.071902998 48:-0.094949998 49:-0.139158 50:-0.43770301 51:-0.121647 52:-0.38407901 53:-0.315819 54:-0.188951 55:-0.104132 56:-0.16979299 57:-0.38709599 #
-0.5 1:-0.33522499 2:-0.170536 3:-0.60241699 4:-0.047166999 5:-0.52143002 6:-0.37604499 7:-0.31911701 8:-0.29759601 9:-0.34041199 10:-0.404962 11:-0.327288 12:-0.652237 13:-0.331025 14:-0.196753 15:-0.19808801 16:-0.319971 17:-0.33070099 18:-0.372363 19:-1.02887 20:-0.172627 21:-0.750377 22:-0.130933 23:-0.30711901 24:-0.243755 25:-0.26800001 26:-0.22967 27:-0.216609 28:-0.19571599 29:-0.16288701 30:-0.192063 31:-0.141344 32:-0.1258 33:-0.17358901 34:-0.125499 35:-0.191456 36:-0.2053 37:-0.276582 38:-0.073126003 39:-0.15673099 40:-0.18065099 41:-0.132836 42:-0.14069401 43:-0.180182 44:-0.092913002 45:-0.30269501 46:-0.193441 47:-0.071902998 48:-0.094949998 49:-0.139158 50:-0.43770301 51:-0.121647 52:-0.38407901 53:-0.315819 54:-0.188951 55:-0.122625 56:-0.213826 57:-0.41730201 #
0.5 1:0.70412999 2:-0.170536 3:1.582829 4:-0.047166999 5:-0.52143002 6:-0.37604499 7:-0.31911701 8:-0.29759601 9:-0.34041199 10:-0.404962 11:-0.327288 12:0.29019701 13:5.7586112 14:-0.196753 15:-0.19808801 16:-0.319971 17:-0.33070099 18:-0.372363 19:-0.61098498 20:-0.172627 21:0.14739799 22:-0.130933 23:-0.30711901 24:1.248124 25:-0.26800001 26:-0.22967 27:-0.216609 28:-0.19571599 29:-0.16288701 30:-0.192063 31:-0.141344 32:-0.1258 33:-0.17358901 34:-0.125499 35:-0.191456 36:-0.2053 37:-0.276582 38:-0.073126003 39:-0.15673099 40:-0.18065099 41:-0.132836 42:-0.14069401 43:-0.180182 44:-0.092913002 45:-0.30269501 46:-0.193441 47:-0.071902998 48:-0.094949998 49:0.083860002 50:-0.023700999 51:-0.121647 52:-0.30508399 53:0.092179 54:-0.188951 55:-0.097461998 56:-0.100074 57:-0.25940901 #
-0.5 1:-0.33522499 2:-0.170536 3:-0.60241699 4:-0.047166999 5:-0.52143002 6:-0.37604499 7:-0.31911701 8:-0.29759601 9:15.981646 10:-0.404962 11:-0.327288 12:-0.652237 13:-0.331025 14:-0.196753 15:-0.19808801 16:-0.319971 17:4.727993 18:-0.372363 19:0.497572 20:-0.172627 21:3.5820041 22:-0.130933 23:-0.30711901 24:-0.243755 25:-0.26800001 26:-0.22967 27:-0.216609 28:-0.19571599 29:-0.16288701 30:-0.192063 31:-0.141344 32:-0.1258 33:-0.17358901 34:-0.125499 35:-0.191456 36:-0.2053 37:-0.276582 38:-0.073126003 39:-0.15673099 40:-0.18065099 41:-0.132836 42:-0.14069401 43:-0.180182 44:-0.092913002 45:-0.30269501 46:-0.193441 47:-0.071902998 48:-0.094949998 49:-0.139158 50:-0.43770301 51:-0.121647 52:-0.38407901 53:-0.315819 54:-0.188951 55:-0.110645 56:-0.18814 57:-0.38023201 #
0.5 1:-0.33522499 2:-0.170536 3:-0.60241699 4:-0.047166999 5:-0.52143002 6:-0.37604499 7:-0.31911701 8:-0.29759601 9:-0.34041199 10:5.4855471 11:-0.327288 12:-0.652237 13:-0.331025 14:-0.196753 15:-0.19808801 16:-0.319971 17:-0.33070099 18:-0.372363 19:-1.02887 20:-0.172627 21:-0.750377 22:-0.130933 23:-0.30711901 24:-0.243755 25:-0.26800001 26:-0.22967 27:-0.216609 28:-0.19571599 29:-0.16288701 30:-0.192063 31:-0.141344 32:-0.1258 33:-0.17358901 34:-0.125499 35:-0.191456 36:-0.2053 37:-0.276582 38:-0.073126003 39:-0.15673099 40:-0.18065099 41:-0.132836 42:-0.14069401 43:-0.180182 44:-0.092913002 45:-0.30269501 46:-0.193441 47:-0.071902998 48:-0.094949998 49:0.78477401 50:-0.43770301 51:-0.121647 52:0.60021502 53:-0.315819 54:-0.188951 55:-0.051137 56:-0.180801 57:-0.32119301 #
0.5 1:-0.33522499 2:-0.170536 3:-0.60241699 4:-0.047166999 5:-0.52143002 6:-0.37604499 7:-0.31911701 8:-0.29759601 9:-0.34041199 10:-0.404962 11:-0.327288 12:-0.652237 13:-0.331025 14:-0.196753 15:-0.19808801 16:-0.319971 17:-0.33070099 18:-0.372363 19:-0.80251598 20:-0.172627 21:-0.42915499 22:-0.130933 23:-0.30711901 24:-0.243755 25:2.3934801 26:0.23304 27:-0.216609 28:-0.19571599 29:-0.16288701 30:0.830697 31:-0.141344 32:-0.1258 33:-0.17358901 34:-0.125499 35:-0.191456 36:-0.2053 37:-0.276582 38:-0.073126003 39:-0.15673099 40:-0.18065099 41:-0.132836 42:-0.14069401 43:-0.180182 44:0.483064 45:0.103582 46:-0.193441 47:-0.071902998 48:-0.094949998 49:-0.139158 50:-0.43770301 51:-0.121647 52:-0.38407901 53:-0.315819 54:-0.188951 55:-0.099082999 56:-0.151446 57:-0.249798 #
0.5 1:-0.33522499 2:-0.170536 3:-0.60241699 4:-0.047166999 5:-0.52143002 6:-0.37604499 7:-0.31911701 8:-0.29759601 9:-0.34041199 10:-0.404962 11:-0.327288 12:7.2799149 13:-0.331025 14:-0.196753 15:-0.19808801 16:-0.319971 17:-0.33070099 18:-0.372363 19:4.246933 20:-0.172627 21:-0.750377 22:-0.130933 23:-0.30711901 24:-0.243755 25:-0.26800001 26:-0.22967 27:-0.216609 28:-0.19571599 29:-0.16288701 30:-0.192063 31:-0.141344 32:-0.1258 33:-0.17358901 34:-0.125499 35:-0.191456 36:-0.2053 37:-0.276582 38:-0.073126003 39:-0.15673099 40:-0.18065099 41:-0.132836 42:-0.14069401 43:-0.180182 44:-0.092913002 45:-0.30269501 46:-0.193441 47:-0.071902998 48:-0.094949998 49:-0.139158 50:-0.43770301 51:-0.121647 52:-0.38407901 53:-0.315819 54:-0.188951 55:-0.101699 56:-0.177132 57:-0.39533401 #
-0.23878291177910329623479412930465 1:3.6778381 2:-0.170536 3:3.5876429 4:-0.047166999 5:-0.52143002 6:-0.37604499 7:-0.31911701 8:-0.29759601 9:-0.34041199 10:-0.404962 11:-0.327288 12:7.5809708 13:-0.331025 14:-0.196753 15:-0.19808801 16:0.35509601 17:-0.33070099 18:-0.372363 19:1.4029911 20:0.89548498 21:-0.182061 22:-0.130933 23:-0.30711901 24:-0.243755 25:-0.26800001 26:-0.22967 27:-0.216609 28:-0.19571599 29:-0.16288701 30:-0.192063 31:-0.141344 32:-0.1258 33:-0.17358901 34:-0.125499 35:-0.191456 36:-0.2053 37:-0.276582 38:-0.073126003 39:1.724896 40:-0.18065099 41:-0.132836 42:-0.14069401 43:-0.180182 44:-0.092913002 45:-0.30269501 46:-0.193441 47:-0.071902998 48:-0.094949998 49:-0.139158 50:-0.43770301 51:-0.121647 52:-0.065594003 53:-0.315819 54:-0.188951 55:-0.112162 56:-0.180801 57:-0.340415 #
-0.5 1:-0.33522499 2:-0.170536 3:0.219556 4:-0.047166999 5:-0.52143002 6:-0.37604499 7:-0.31911701 8:-0.29759601 9:-0.34041199 10:0.24777 11:-0.327288 12:0.98393297 13:-0.331025 14:-0.196753 15:-0.19808801 16:-0.319971 17:-0.33070099 18:-0.372363 19:0.660083 20:-0.172627 21:-0.412682 22:-0.130933 23:-0.30711901 24:-0.243755 25:-0.26800001 26:-0.22967 27:-0.216609 28:-0.19571599 29:-0.16288701 30:-0.192063 31:-0.141344 32:-0.1258 33:-0.17358901 34:-0.125499 35:-0.191456 36:-0.2053 37:-0.276582 38:-0.073126003 39:-0.15673099 40:-0.18065099 41:-0.132836 42:-0.14069401 43:-0.180182 44:-0.092913002 45:-0.30269501 46:-0.193441 47:-0.071902998 48:-0.094949998 49:-0.139158 50:0.166871 51:-0.121647 52:-0.38407901 53:-0.315819 54:-0.188951 55:-0.124247 56:-0.191809 57:-0.37336701 #
0.5 1:-0.33522499 2:-0.170536 3:-0.60241699 4:-0.047166999 5:-0.52143002 6:-0.37604499 7:-0.31911701 8:-0.29759601 9:-0.34041199 10:-0.404962 11:-0.327288 12:-0.652237 13:-0.331025 14:-0.196753 15:-0.19808801 16:-0.319971 17:-0.33070099 18:-0.372363 19:-1.02887 20:-0.172627 21:-0.750377 22:-0.130933 23:-0.30711901 24:-0.243755 25:-0.26800001 26:-0.22967 27:-0.216609 28:-0.19571599 29:-0.16288701 30:-0.192063 31:-0.141344 32:-0.1258 33:-0.17358901 34:-0.125499 35:-0.191456 36:-0.2053 37:8.6504593 38:-0.073126003 39:-0.15673099 40:-0.18065099 41:-0.132836 42:-0.14069401 43:-0.180182 44:-0.092913002 45:-0.30269501 46:-0.193441 47:-0.071902998 48:-0.094949998 49:0.94053298 50:1.569876 51:-0.121647 52:1.5331 53:-0.315819 54:-0.188951 55:-0.020610999 56:-0.14777599 57:-0.33766899 #
-0.5 1:-0.33522499 2:-0.170536 3:6.5547671 4:-0.047166999 5:-0.52143002 6:-0.37604499 7:-0.31911701 8:-0.29759601 9:-0.34041199 10:-0.404962 11:-0.327288 12:-0.652237 13:-0.331025 14:-0.196753 15:-0.19808801 16:-0.319971 17:-0.33070099 18:-0.372363 19:-1.02887 20:-0.172627 21:-0.750377 22:-0.130933 23:-0.30711901 24:-0.243755 25:-0.26800001 26:-0.22967 27:-0.216609 28:-0.19571599 29:-0.16288701 30:-0.192063 31:-0.141344 32:-0.1258 33:-0.17358901 34:-0.125499 35:-0.191456 36:-0.2053 37:-0.276582 38:-0.073126003 39:-0.15673099 40:-0.18065099 41:-0.132836 42:-0.14069401 43:-0.180182 44:-0.092913002 45:-0.30269501 46:-0.193441 47:-0.071902998 48:-0.094949998 49:-0.139158 50:1.993735 51:-0.121647 52:0.543791 53:-0.315819 54:-0.188951 55:-0.10782 56:-0.20281801 57:-0.39258799 #
-0.5 1:-0.33522499 2:-0.170536 3:-0.60241699 4:-0.047166999 5:-0.52143002 6:-0.37604499 7:-0.31911701 8:-0.29759601 9:-0.34041199 10:17.282484 11:-0.327288 12:-0.652237 13:-0.331025 14:-0.196753 15:-0.19808801 16:-0.319971 17:-0.33070099 18:-0.372363 19:2.1923299 20:-0.172627 21:-0.750377 22:-0.130933 23:-0.30711901 24:-0.243755 25:-0.26800001 26:-0.22967 27:-0.216609 28:-0.19571599 29:-0.16288701 30:-0.192063 31:-0.141344 32:-0.1258 33:-0.17358901 34:-0.125499 35:-0.191456 36:-0.2053 37:-0.276582 38:-0.073126003 39:-0.15673099 40:-0.18065099 41:-0.132836 42:-0.14069401 43:-0.180182 44:-0.092913002 45:-0.30269501 46:-0.193441 47:-0.071902998 48:-0.094949998 49:-0.139158 50:-0.43770301 51:-0.121647 52:-0.38407901 53:-0.315819 54:-0.188951 55:-0.138319 56:-0.224834 57:-0.42554 #
-0.5 1:-0.33522499 2:-0.170536 3:-0.60241699 4:-0.047166999 5:-0.52143002 6:-0.37604499 7:-0.31911701 8:-0.29759601 9:-0.34041199 10:-0.404962 11:-0.327288 12:-0.652237 13:-0.331025 14:-0.196753 15:-0.19808801 16:2.644453 17:-0.33070099 18:5.2142429 19:0.72973102 20:-0.172627 21:1.745272 22:-0.130933 23:-0.30711901 24:-0.243755 25:-0.26800001 26:-0.22967 27:-0.216609 28:-0.19571599 29:-0.16288701 30:-0.192063 31:-0.141344 32:-0.1258 33:-0.17358901 34:-0.125499 35:-0.191456 36:-0.2053 37:-0.276582 38:-0.073126003 39:-0.15673099 40:-0.18065099 41:-0.132836 42:-0.14069401 43:-0.180182 44:-0.092913002 45:-0.30269501 46:-0.193441 47:-0.071902998 48:-0.094949998 49:-0.139158 50:-0.43770301 51:-0.121647 52:-0.38407901 53:-0.315819 54:-0.188951 55:-0.029688001 56:-0.026686 57:-0.33629599 #
-0.47719869712653228965848484222079 1:-0.33522499 2:-0.170536 3:-0.60241699 4:-0.047166999 5:-0.52143002 6:-0.37604499 7:-0.31911701 8:-0.29759601 9:-0.34041199 10:-0.404962 11:-0.327288 12:-0.652237 13:-0.331025 14:-0.196753 15:-0.19808801 16:-0.319971 17:-0.33070099 18:4.476737 19:2.0240149 20:-0.172627 21:-0.750377 22:-0.130933 23:-0.30711901 24:-0.243755 25:-0.26800001 26:-0.22967 27:-0.216609 28:-0.19571599 29:-0.16288701 30:-0.192063 31:-0.141344 32:-0.1258 33:-0.17358901 34:-0.125499 35:-0.191456 36:-0.2053 37:-0.276582 38:-0.073126003 39:-0.15673099 40:-0.18065099 41:-0.132836 42:-0.14069401 43:-0.180182 44:-0.092913002 45:-0.30269501 46:-0.193441 47:-0.071902998 48:-0.094949998 49:-0.139158 50:-0.43770301 51:-0.121647 52:-0.38407901 53:-0.315819 54:-0.188951 55:-0.121971 56:-0.21749499 57:-0.41043699 #
-0.5 1:-0.33522499 2:-0.170536 3:-0.60241699 4:-0.047166999 5:-0.52143002 6:-0.37604499 7:-0.31911701 8:-0.29759601 9:-0.34041199 10:-0.404962 11:-0.327288 12:-0.652237 13:-0.331025 14:-0.196753 15:-0.19808801 16:7.2036009 17:-0.33070099 18:-0.372363 19:3.4343779 20:-0.172627 21:-0.750377 22:-0.130933 23:-0.30711901 24:-0.243755 25:-0.26800001 26:-0.22967 27:-0.216609 28:-0.19571599 29:-0.16288701 30:-0.192063 31:-0.141344 32:-0.1258 33:-0.17358901 34:-0.125499 35:-0.191456 36:-0.2053 37:-0.276582 38:-0.073126003 39:-0.15673099 40:-0.18065099 41:-0.132836 42:-0.14069401 43:-0.180182 44:-0.092913002 45:-0.30269501 46:-0.193441 47:-0.071902998 48:-0.094949998 49:-0.139158 50:-0.43770301 51:-0.121647 52:-0.38407901 53:-0.315819 54:-0.188951 55:-0.138319 56:-0.224834 57:-0.420048 #
-0.5 1:-0.33522499 2:0.39388299 3:-0.60241699 4:-0.047166999 5:0.45092201 6:-0.37604499 7:-0.31911701 8:0.21873701 9:-0.34041199 10:-0.086556002 11:-0.327288 12:-0.652237 13:-0.331025 14:-0.196753 15:-0.19808801 16:1.4410729 17:-0.33070099 18:3.683918 19:0.015843 20:-0.172627 21:1.56407 22:-0.130933 23:-0.30711901 24:-0.243755 25:-0.26800001 26:-0.22967 27:-0.216609 28:-0.19571599 29:-0.16288701 30:-0.192063 31:-0.141344 32:-0.1258 33:-0.17358901 34:-0.125499 35:-0.191456 36:-0.2053 37:-0.276582 38:-0.073126003 39:-0.15673099 40:-0.18065099 41:-0.132836 42:-0.14069401 43:-0.180182 44:-0.092913002 45:-0.094347998 46:-0.0093369996 47:-0.071902998 48:-0.094949998 49:-0.139158 50:-0.43770301 51:-0.121647 52:-0.308846 53:-0.315819 54:-0.188951 55:-0.098219998 56:-0.070719004 57:-0.115246 #
-0.5 1:5.4389672 2:-0.170536 3:-0.60241699 4:-0.047166999 5:-0.52143002 6:-0.37604499 7:-0.31911701 8:-0.29759601 9:-0.34041199 10:-0.404962 11:9.2827616 12:1.9656349 13:-0.331025 14:-0.196753 15:-0.19808801 16:-0.319971 17:-0.33070099 18:-0.372363 19:0.131923 20:-0.172627 21:5.8387952 22:-0.130933 23:-0.30711901 24:-0.243755 25:-0.26800001 26:-0.22967 27:-0.216609 28:-0.19571599 29:-0.16288701 30:-0.192063 31:-0.141344 32:-0.1258 33:-0.17358901 34:-0.125499 35:-0.191456 36:-0.2053 37:-0.276582 38:-0.073126003 39:-0.15673099 40:-0.18065099 41:-0.132836 42:-0.14069401 43:-0.180182 44:-0.092913002 45:-0.30269501 46:-0.193441 47:-0.071902998 48:-0.094949998 49:-0.139158 50:-0.43770301 51:-0.121647 52:-0.38407901 53:-0.315819 54:-0.188951 55:-0.010462 56:-0.12209 57:-0.35551801 #
0.5 1:0.61751699 2:-0.057652 3:0.059170999 4:-0.047166999 5:-0.52143002 6:0.17071 7:-0.31911701 8:0.11547 9:0.156077 10:-0.27759999 11:0.44151601 12:0.093855999 13:0.47644001 14:-0.196753 15:-0.19808801 16:-0.163434 17:0.13092899 18:0.070139997 19:0.98510498 20:-0.172627 21:0.94633502 22:-0.130933 23:-0.30711901 24:1.1238 25:-0.26800001 26:-0.22967 27:-0.216609 28:-0.19571599 29:-0.16288701 30:-0.192063 31:-0.141344 32:-0.1258 33:-0.17358901 34:-0.125499 35:-0.191456 36:-0.2053 37:-0.276582 38:-0.073126003 39:-0.15673099 40:-0.18065099 41:-0.132836 42:-0.14069401 43:-0.180182 44:-0.092913002 45:0.38485 46:-0.193441 47:-0.071902998 48:-0.094949998 49:-0.139158 50:-0.43770301 51:-0.121647 52:-0.117003 53:0.050083999 54:-0.188951 55:-0.082080998 56:0.050372001 57:0.17719901 #
0.5 1:-0.33522499 2:0.203392 3:0.460134 4:-0.047166999 5:0.33748099 6:-0.37604499 7:-0.31911701 8:-0.29759601 9:-0.34041199 10:-0.404962 11:-0.327288 12:0.041499 13:-0.331025 14:-0.196753 15:-0.19808801 16:0.198559 17:-0.33070099 18:1.582027 19:-0.100236 20:-0.172627 21:0.122688 22:-0.130933 23:-0.30711901 24:-0.243755 25:-0.26800001 26:-0.22967 27:-0.216609 28:-0.19571599 29:-0.16288701 30:-0.192063 31:-0.141344 32:-0.1258 33:-0.17358901 34:-0.125499 35:-0.191456 36:-0.2053 37:-0.276582 38:-0.073126003 39:-0.15673099 40:-0.18065099 41:-0.132836 42:-0.14069401 43:-0.180182 44:-0.092913002 45:-0.30269501 46:-0.193441 47:-0.071902998 48:-0.094949998 49:-0.139158 50:-0.15184499 51:-0.121647 52:0.715572 53:-0.315819 54:-0.188951 55:-0.075542003 56:-0.0046689999 57:-0.171538 #
-0.5 1:-0.33522499 2:-0.170536 3:-0.60241699 4:-0.047166999 5:-0.52143002 6:-0.37604499 7:-0.31911701 8:11.784588 9:-0.34041199 10:-0.404962 11:-0.327288 12:-0.652237 13:-0.331025 14:-0.196753 15:-0.19808801 16:-0.319971 17:2.669893 18:-0.372363 19:-1.02887 20:-0.172627 21:-0.750377 22:-0.130933 23:-0.30711901 24:-0.243755 25:-0.26800001 26:-0.22967 27:-0.216609 28:-0.19571599 29:-0.16288701 30:-0.192063 31:-0.141344 32:-0.1258 33:-0.17358901 34:-0.125499 35:-0.191456 36:-0.2053 37:-0.276582 38:-0.073126003 39:-0.15673099 40:-0.18065099 41:-0.132836 42:-0.14069401 43:-0.180182 44:-0.092913002 45:-0.30269501 46:-0.193441 47:-0.071902998 48:-0.094949998 49:-0.139158 50:-0.43770301 51:-0.121647 52:-0.38407901 53:-0.315819 54:-0.188951 55:-0.134317 56:-0.21749499 57:-0.407691 #
-0.5 1:-0.33522499 2:-0.170536 3:-0.60241699 4:-0.047166999 5:-0.52143002 6:-0.37604499 7:4.5859861 8:5.4336958 9:-0.34041199 10:-0.404962 11:-0.327288 12:-0.652237 13:-0.331025 14:-0.196753 15:-0.19808801 16:-0.319971 17:-0.33070099 18:-0.372363 19:-1.02887 20:-0.172627 21:-0.750377 22:-0.130933 23:-0.30711901 24:-0.243755 25:-0.26800001 26:-0.22967 27:-0.216609 28:-0.19571599 29:-0.16288701 30:-0.192063 31:-0.141344 32:-0.1258 33:-0.17358901 34:-0.125499 35:-0.191456 36:-0.2053 37:-0.276582 38:-0.073126003 39:-0.15673099 40:-0.18065099 41:-0.132836 42:-0.14069401 43:-0.180182 44:-0.092913002 45:-0.30269501 46:-0.193441 47:-0.071902998 48:-0.094949998 49:-0.139158 50:1.747305 51:-0.121647 52:-0.38407901 53:1.837502 54:-0.188951 55:-0.044911999 56:-0.136768 57:-0.340415 #
0.5 1:-0.33522499 2:-0.170536 3:-0.60241699 4:-0.047166999 5:-0.52143002 6:-0.37604499 7:-0.31911701 8:-0.29759601 9:-0.34041199 10:-0.404962 11:-0.327288 12:-0.652237 13:-0.331025 14:-0.196753 15:-0.19808801 16:-0.319971 17:-0.33070099 18:-0.372363 19:2.552175 20:-0.172627 21:-0.750377 22:-0.130933 23:-0.30711901 24:-0.243755 25:-0.26800001 26:-0.22967 27:-0.216609 28:-0.19571599 29:-0.16288701 30:-0.192063 31:-0.141344 32:-0.1258 33:-0.17358901 34:-0.125499 35:-0.191456 36:-0.2053 37:-0.276582 38:-0.073126003 39:-0.15673099 40:-0.18065099 41:-0.132836 42:-0.14069401 43:-0.180182 44:-0.092913002 45:2.2599709 46:-0.193441 47:-0.071902998 48:-0.094949998 49:-0.139158 50:-0.43770301 51:-0.121647 52:1.1644599 53:-0.315819 54:-0.188951 55:-0.047658 56:-0.191809 57:-0.244306 #
-0.086476491088740142787472109375813 1:-0.33522499 2:-0.170536 3:-0.60241699 4:-0.047166999 5:0.49954 6:-0.37604499 7:-0.31911701 8:-0.29759601 9:-0.34041199 10:-0.404962 11:-0.327288 12:-0.652237 13:-0.331025 14:-0.196753 15:-0.19808801 16:-0.319971 17:-0.33070099 18:-0.372363 19:0.068079002 20:-0.172627 21:-0.750377 22:-0.130933 23:-0.30711901 24:-0.243755 25:-0.26800001 26:-0.22967 27:-0.216609 28:-0.19571599 29:-0.16288701 30:-0.192063 31:-0.141344 32:-0.1258 33:-0.17358901 34:-0.125499 35:-0.191456 36:-0.2053 37:-0.276582 38:-0.073126003 39:-0.15673099 40:-0.18065099 41:-0.132836 42:-0.14069401 43:-0.180182 44:0.837511 45:-0.30269501 46:-0.193441 47:-0.071902998 48:-0.094949998 49:-0.139158 50:-0.099273004 51:-0.121647 52:0.393325 53:-0.315819 54:-0.188951 55:-0.138319 56:-0.224834 57:-0.39258799 #
-0.5 1:-0.33522499 2:-0.170536 3:-0.60241699 4:-0.047166999 5:-0.52143002 6:-0.37604499 7:-0.31911701 8:-0.29759601 9:-0.34041199 10:-0.404962 11:-0.327288 12:0.342554 13:-0.331025 14:-0.196753 15:-0.19808801 16:-0.319971 17:-0.33070099 18:1.028898 19:-0.146668 20:-0.172627 21:-0.750377 22:-0.130933 23:-0.30711901 24:-0.243755 25:-0.26800001 26:-0.22967 27:-0.216609 28:-0.19571599 29:-0.16288701 30:-0.192063 31:-0.141344 32:-0.1258 33:-0.17358901 34:-0.125499 35:-0.191456 36:-0.2053 37:-0.276582 38:-0.073126003 39:-0.15673099 40:-0.18065099 41:-0.132836 42:-0.14069401 43:-0.180182 44:-0.092913002 45:-0.30269501 46:-0.193441 47:-0.071902998 48:-0.094949998 49:-0.139158 50:-0.00070099998 51:-0.121647 52:-0.050547 53:-0.315819 54:-0.188951 55:-0.138319 56:-0.224834 57:-0.396707 #
-0.5 1:-0.33522499 2:-0.170536 3:0.199508 4:-0.047166999 5:-0.52143002 6:0.990843 7:-0.31911701 8:-0.29759601 9:-0.34041199 10:-0.404962 11:-0.327288 12:-0.652237 13:-0.331025 14:-0.196753 15:-0.19808801 16:0.071372002 17:-0.33070099 18:0.365143 19:-0.79671198 20:-0.172627 21:-0.42091799 22:-0.130933 23:-0.30711901 24:-0.243755 25:-0.26800001 26:-0.22967 27:-0.216609 28:-0.19571599 29:-0.16288701 30:-0.192063 31:-0.141344 32:-0.1258 33:-0.17358901 34:-0.125499 35:-0.191456 36:-0.2053 37:1.894861 38:-0.073126003 39:-0.15673099 40:-0.18065099 41:-0.132836 42:-0.14069401 43:-0.180182 44:-0.092913002 45:0.113999 46:0.174766 47:-0.071902998 48:-0.094949998 49:-0.139158 50:0.62358701 51:0.28302601 52:-0.38407901 53:-0.315819 54:0.048921999 55:-0.026811 56:0.028355001 57:-0.016392 #
-0.020898593907708040706694418986444 1:-0.30635399 2:-0.163481 3:-0.46208 4:-0.047166999 5:-0.44040099 6:-0.37604499 7:-0.31911701 8:-0.27178001 9:-0.24732 10:-0.197998 11:-0.087035999 12:-0.652237 13:-0.331025 14:-0.034478001 15:-0.19808801 16:-0.319971 17:-0.31146601 18:-0.24330001 19:-1.023066 20:-0.172627 21:-0.74214101 22:-0.130933 23:-0.30711901 24:-0.243755 25:-0.26800001 26:-0.22967 27:-0.216609 28:-0.19571599 29:-0.16288701 30:-0.192063 31:-0.141344 32:-0.1258 33:0.003673 34:-0.125499 35:-0.191456 36:0.141412 37:-0.276582 38:-0.073126003 39:-0.15673099 40:-0.15077899 41:1.785808 42:-0.14069401 43:-0.180182 44:-0.048606999 45:-0.30269501 46:0.54297298 47:0.094160996 48:0.094099998 49:0.037840001 50:0.551301 51:0.878582 52:-0.38157099 53:-0.024391999 54:-0.179975 55:-0.097069003 56:0.072388001 57:6.9789429 #
-0.5 1:-0.33522499 2:-0.170536 3:1.763263 4:-0.047166999 5:-0.262137 6:-0.37604499 7:-0.31911701 8:-0.29759601 9:-0.34041199 10:-0.15023699 11:-0.327288 12:-0.44280699 13:0.207285 14:-0.196753 15:-0.19808801 16:-0.319971 17:-0.022948001 18:-0.372363 19:0.64267099 20:-0.172627 21:-0.33855399 22:-0.130933 23:-0.30711901 24:-0.243755 25:-0.26800001 26:-0.22967 27:-0.216609 28:-0.19571599 29:-0.16288701 30:-0.192063 31:-0.141344 32:-0.1258 33:-0.17358901 34:-0.125499 35:-0.191456 36:-0.2053 37:-0.276582 38:-0.073126003 39:-0.15673099 40:-0.18065099 41:-0.132836 42:-0.14069401 43:-0.180182 44:-0.092913002 45:0.041078001 46:-0.193441 47:-0.071902998 48:-0.094949998 49:-0.029418999 50:0.79115897 51:-0.121647 52:0.31934699 53:-0.315819 54:-0.188951 55:-0.12623499 56:-0.191809 57:-0.24156 #
-0.5 1:5.4389672 2:-0.170536 3:-0.60241699 4:-0.047166999 5:-0.52143002 6:-0.37604499 7:-0.31911701 8:-0.29759601 9:-0.34041199 10:-0.404962 11:9.2827616 12:1.9656349 13:-0.331025 14:-0.196753 15:-0.19808801 16:-0.319971 17:-0.33070099 18:-0.372363 19:0.131923 20:-0.172627 21:5.8387952 22:-0.130933 23:-0.30711901 24:-0.243755 25:-0.26800001 26:-0.22967 27:-0.216609 28:-0.19571599 29:-0.16288701 30:-0.192063 31:-0.141344 32:-0.1258 33:-0.17358901 34:-0.125499 35:-0.191456 36:-0.2053 37:-0.276582 38:-0.073126003 39:-0.15673099 40:-0.18065099 41:-0.132836 42:-0.14069401 43:-0.180182 44:-0.092913002 45:-0.30269501 46:-0.193441 47:-0.071902998 48:-0.094949998 49:-0.139158 50:-0.43770301 51:-0.121647 52:-0.38407901 53:-0.315819 54:-0.188951 55:-0.010462 56:-0.12209 57:-0.35551801 #
0.5 1:-0.33522499 2:-0.170536 3:-0.60241699 4:-0.047166999 5:-0.52143002 6:-0.37604499 7:-0.31911701 8:6.2340121 9:-0.34041199 10:-0.404962 11:-0.327288 12:-0.652237 13:-0.331025 14:-0.196753 15:-0.19808801 16:-0.319971 17:2.0928559 18:-0.372363 19:-1.02887 20:-0.172627 21:-0.750377 22:-0.130933 23:-0.30711901 24:-0.243755 25:-0.26800001 26:-0.22967 27:-0.216609 28:-0.19571599 29:-0.16288701 30:-0.192063 31:-0.141344 32:-0.1258 33:-0.17358901 34:-0.125499 35:-0.191456 36:-0.2053 37:-0.276582 38:-0.073126003 39:-0.15673099 40:-0.18065099 41:-0.132836 42:-0.14069401 43:-0.180182 44:-0.092913002 45:1.00989 46:-0.193441 47:-0.071902998 48:-0.094949998 49:-0.139158 50:0.17344201 51:-0.121647 52:-0.150857 53:0.28646401 54:-0.188951 55:-0.059847001 56:-0.144107 57:-0.31295499 #
-0.5 1:-0.33522499 2:-0.170536 3:-0.60241699 4:-0.047166999 5:-0.52143002 6:-0.37604499 7:-0.31911701 8:-0.29759601 9:-0.34041199 10:-0.404962 11:-0.327288 12:-0.652237 13:-0.331025 14:-0.196753 15:-0.19808801 16:-0.319971 17:-0.33070099 18:-0.372363 19:-1.02887 20:-0.172627 21:-0.750377 22:-0.130933 23:-0.30711901 24:18.591211 25:-0.26800001 26:-0.22967 27:-0.216609 28:-0.19571599 29:-0.16288701 30:-0.192063 31:-0.141344 32:-0.1258 33:-0.17358901 34:-0.125499 35:-0.191456 36:-0.2053 37:-0.276582 38:-0.073126003 39:-0.15673099 40:-0.18065099 41:-0.132836 42:-0.14069401 43:-0.180182 44:-0.092913002 45:-0.30269501 46:-0.193441 47:-0.071902998 48:-0.094949998 49:-0.139158 50:2.631166 51:-0.121647 52:-0.38407901 53:-0.315819 54:-0.188951 55:-0.086005002 56:-0.19547901 57:-0.40357199 #
-0.0323405518595138372073272137186 1:-0.33522499 2:-0.170536 3:6.815392 4:-0.047166999 5:-0.52143002 6:-0.37604499 7:-0.31911701 8:-0.29759601 9:-0.34041199 10:-0.404962 11:-0.327288 12:-0.652237 13:-0.331025 14:-0.196753 15:-0.19808801 16:-0.319971 17:-0.33070099 18:-0.372363 19:3.266063 20:-0.172627 21:-0.750377 22:-0.130933 23:-0.30711901 24:-0.243755 25:-0.26800001 26:-0.22967 27:-0.216609 28:-0.19571599 29:-0.16288701 30:-0.192063 31:-0.141344 32:-0.1258 33:-0.17358901 34:-0.125499 35:-0.191456 36:-0.2053 37:-0.276582 38:-0.073126003 39:-0.15673099 40:-0.18065099 41:-0.132836 42:-0.14069401 43:-0.180182 44:-0.092913002 45:3.5517211 46:-0.193441 47:-0.071902998 48:-0.094949998 49:-0.139158 50:-0.43770301 51:-0.121647 52:-0.38407901 53:-0.315819 54:-0.188951 55:-0.138319 56:-0.224834 57:-0.41592899 #
-0.5 1:-0.33522499 2:-0.170536 3:-0.60241699 4:-0.047166999 5:-0.52143002 6:-0.37604499 7:-0.31911701 8:-0.29759601 9:-0.34041199 10:-0.404962 11:-0.327288 12:0.13312399 13:-0.331025 14:-0.196753 15:-0.19808801 16:-0.319971 17:-0.33070099 18:-0.372363 19:-0.33239499 20:-0.172627 21:-0.750377 22:-0.130933 23:-0.30711901 24:-0.243755 25:-0.26800001 26:-0.22967 27:-0.216609 28:-0.19571599 29:-0.16288701 30:-0.192063 31:-0.141344 32:-0.1258 33:-0.17358901 34:-0.125499 35:-0.191456 36:-0.2053 37:-0.276582 38:-0.073126003 39:-0.15673099 40:-0.18065099 41:-0.132836 42:-0.14069401 43:-0.180182 44:-0.092913002 45:-0.30269501 46:-0.193441 47:-0.071902998 48:-0.094949998 49:-0.139158 50:-0.43770301 51:-0.121647 52:-0.120764 53:-0.315819 54:-0.188951 55:-0.126444 56:-0.21015599 57:-0.38435 #
-0.12815458813371688462368069849617 1:-0.33522499 2:-0.170536 3:-0.60241699 4:-0.047166999 5:-0.52143002 6:-0.37604499 7:-0.31911701 8:-0.29759601 9:-0.34041199 10:-0.404962 11:-0.327288 12:-0.652237 13:-0.331025 14:-0.196753 15:-0.19808801 16:-0.319971 17:-0.33070099 18:-0.372363 19:-1.02887 20:-0.172627 21:-0.750377 22:-0.130933 23:-0.30711901 24:-0.243755 25:5.4489779 26:-0.22967 27:-0.216609 28:-0.19571599 29:-0.16288701 30:-0.192063 31:-0.141344 32:-0.1258 33:-0.17358901 34:-0.125499 35:-0.191456 36:20.304016 37:-0.276582 38:-0.073126003 39:-0.15673099 40:-0.18065099 41:-0.132836 42:-0.14069401 43:-0.180182 44:-0.092913002 45:-0.30269501 46:-0.193441 47:-0.071902998 48:-0.094949998 49:-0.139158 50:-0.43770301 51:-0.121647 52:-0.38407901 53:-0.315819 54:-0.188951 55:-0.138319 56:-0.224834 57:-0.41867501 #
-0.5 1:-0.33522499 2:1.191125 3:0.94128901 4:-0.047166999 5:0.72642201 6:-0.37604499 7:-0.31911701 8:0.68343598 9:-0.34041199 10:-0.404962 11:1.4986219 12:-0.652237 13:4.8502121 14:-0.196753 15:-0.19808801 16:0.051805001 17:0.400213 18:1.7479661 19:1.4320101 20:-0.172627 21:4.331522 22:-0.130933 23:-0.30711901 24:-0.243755 25:-0.26800001 26:-0.22967 27:-0.102605 28:-0.19571599 29:-0.16288701 30:-0.192063 31:-0.141344 32:-0.1258 33:-0.17358901 34:-0.125499 35:-0.191456 36:-0.2053 37:-0.276582 38:-0.073126003 39:-0.15673099 40:-0.18065099 41:-0.132836 42:-0.14069401 43:-0.180182 44:-0.092913002 45:-0.30269501 46:-0.193441 47:-0.071902998 48:-0.094949998 49:-0.139158 50:-0.43770301 51:-0.121647 52:-0.24740601 53:-0.315819 54:-0.188951 55:-0.13719501 56:-0.213826 57:-0.29785299 #
-0.5 1:-0.104257 2:-0.170536 3:-0.261599 4:-0.047166999 5:-0.52143002 6:-0.102667 7:-0.31911701 8:-0.29759601 9:-0.092166997 10:-0.404962 11:-0.327288 12:-0.652237 13:-0.061870001 14:-0.196753 15:-0.19808801 16:-0.319971 17:-0.33070099 18:-0.22486199 19:1.4029911 20:-0.172627 21:0.394492 22:-0.130933 23:-0.30711901 24:-0.243755 25:-0.26800001 26:-0.22967 27:-0.216609 28:-0.19571599 29:-0.16288701 30:-0.192063 31:-0.141344 32:-0.1258 33:-0.17358901 34:-0.125499 35:-0.191456 36:-0.2053 37:-0.276582 38:-0.073126003 39:-0.15673099 40:-0.18065099 41:-0.132836 42:-0.14069401 43:-0.180182 44:-0.092913002 45:-0.031844001 46:-0.193441 47:-0.071902998 48:-0.094949998 49:-0.029418999 50:-0.181416 51:-0.121647 52:-0.28627601 53:-0.315819 54:-0.188951 55:-0.135337 56:-0.19547901 57:-0.054834999 #
-0.5 1:-0.33522499 2:-0.043542001 3:-0.60241699 4:-0.047166999 5:-0.229725 6:-0.37604499 7:-0.31911701 8:0.657619 9:-0.34041199 10:-0.404962 11:-0.327288 12:0.57816303 13:-0.331025 14:-0.196753 15:-0.19808801 16:-0.319971 17:3.3046341 18:-0.372363 19:-0.92439902 20:-0.172627 21:-0.750377 22:-0.130933 23:-0.30711901 24:-0.243755 25:0.007069 26:-0.016111 27:-0.216609 28:-0.19571599 29:-0.16288701 30:0.27998 31:-0.141344 32:-0.1258 33:-0.17358901 34:-0.125499 35:-0.191456 36:0.78149498 37:-0.276582 38:-0.073126003 39:-0.15673099 40:-0.18065099 41:-0.132836 42:-0.14069401 43:-0.180182 44:-0.092913002 45:0.28067601 46:-0.193441 47:-0.071902998 48:-0.094949998 49:-0.139158 50:0.364014 51:-0.121647 52:-0.38407901 53:-0.315819 54:-0.188951 55:-0.120977 56:-0.191809 57:-0.197625 #
0.5 1:-0.33522499 2:0.196336 3:0.44008601 4:-0.047166999 5:0.321275 6:-0.37604499 7:-0.31911701 8:-0.29759601 9:-0.34041199 10:-0.404962 11:-0.327288 12:-0.652237 13:-0.331025 14:-0.196753 15:-0.19808801 16:0.188775 17:-0.33070099 18:-0.372363 19:-0.123452 20:-0.172627 21:-0.750377 22:-0.130933 23:-0.30711901 24:-0.243755 25:-0.26800001 26:-0.22967 27:-0.216609 28:-0.19571599 29:-0.16288701 30:-0.192063 31:-0.141344 32:-0.1258 33:-0.17358901 34:-0.125499 35:-0.191456 36:-0.2053 37:-0.276582 38:-0.073126003 39:-0.15673099 40:-0.18065099 41:-0.132836 42:-0.14069401 43:-0.180182 44:-0.092913002 45:-0.30269501 46:-0.193441 47:-0.071902998 48:-0.094949998 49:-0.139158 50:0.193157 51:-0.121647 52:0.70303297 53:-0.315819 54:-0.188951 55:-0.106407 56:-0.15511499 57:-0.24842501 #
-0.5 1:-0.33522499 2:-0.170536 3:-0.60241699 4:-0.047166999 5:-0.52143002 6:19.717213 7:-0.31911701 8:-0.29759601 9:-0.34041199 10:-0.404962 11:-0.327288 12:-0.652237 13:-0.331025 14:-0.196753 15:-0.19808801 16:-0.319971 17:-0.33070099 18:-0.372363 19:-1.02887 20:-0.172627 21:-0.750377 22:-0.130933 23:-0.30711901 24:-0.243755 25:-0.26800001 26:-0.22967 27:-0.216609 28:-0.19571599 29:-0.16288701 30:-0.192063 31:-0.141344 32:-0.1258 33:-0.17358901 34:-0.125499 35:-0.191456 36:-0.2053 37:-0.276582 38:-0.073126003 39:-0.15673099 40:-0.18065099 41:-0.132836 42:-0.14069401 43:-0.180182 44:-0.092913002 45:-0.30269501 46:-0.193441 47:-0.071902998 48:-0.094949998 49:-0.139158 50:-0.43770301 51:-0.121647 52:-0.38407901 53:-0.315819 54:-0.188951 55:-0.094741002 56:-0.21015599 57:-0.40631801 #
-0.5 1:-0.33522499 2:-0.170536 3:3.0262949 4:-0.047166999 5:2.73595 6:-0.37604499 7:-0.31911701 8:-0.29759601 9:-0.34041199 10:-0.404962 11:0.633717 12:-0.652237 13:-0.331025 14:-0.196753 15:-0.19808801 16:0.071372002 17:-0.33070099 18:-0.00361 19:1.072165 20:-0.172627 21:-0.091459997 22:-0.130933 23:-0.30711901 24:-0.243755 25:-0.26800001 26:-0.22967 27:-0.216609 28:-0.19571599 29:-0.16288701 30:-0.192063 31:-0.141344 32:-0.1258 33:-0.17358901 34:-0.125499 35:-0.191456 36:-0.2053 37:-0.276582 38:-0.073126003 39:-0.15673099 40:-0.18065099 41:-0.132836 42:-0.14069401 43:-0.180182 44:-0.092913002 45:0.113999 46:-0.193441 47:-0.071902998 48:-0.094949998 49:-0.139158 50:-0.43770301 51:-0.121647 52:-0.006662 53:-0.315819 54:-0.188951 55:-0.123253 56:-0.166123 57:-0.203117 #
-0.5 1:-0.33522499 2:-0.170536 3:0.86109698 4:-0.047166999 5:0.061981 6:0.85415399 7:-0.31911701 8:-0.29759601 9:-0.34041199 10:-0.404962 11:-0.327288 12:-0.652237 13:-0.331025 14:-0.196753 15:-0.19808801 16:-0.319971 17:-0.33070099 18:-0.372363 19:0.24219801 20:-0.172627 21:-0.750377 22:-0.130933 23:-0.30711901 24:-0.243755 25:-0.26800001 26:-0.22967 27:-0.216609 28:-0.19571599 29:-0.16288701 30:-0.192063 31:-0.141344 32:-0.1258 33:-0.17358901 34:-0.125499 35:-0.191456 36:-0.2053 37:-0.276582 38:-0.073126003 39:-0.15673099 40:-0.18065099 41:-0.132836 42:-0.14069401 43:-0.180182 44:-0.092913002 45:-0.30269501 46:-0.193441 47:-0.071902998 48:-0.094949998 49:-0.139158 50:-0.43770301 51:-0.121647 52:7.6244378 53:-0.315819 54:-0.188951 55:-0.134893 56:-0.213826 57:-0.33355001 #
0.5 1:-0.33522499 2:-0.170536 3:4.5299048 4:-0.047166999 5:-0.52143002 6:-0.37604499 7:-0.31911701 8:-0.29759601 9:-0.34041199 10:-0.404962 11:-0.327288 12:-0.652237 13:-0.331025 14:-0.196753 15:-0.19808801 16:-0.319971 17:-0.33070099 18:-0.372363 19:1.942759 20:-0.172627 21:-0.750377 22:-0.130933 23:-0.30711901 24:-0.243755 25:-0.26800001 26:-0.22967 27:-0.216609 28:-0.19571599 29:-0.16288701 30:-0.192063 31:-0.141344 32:-0.1258 33:-0.17358901 34:-0.125499 35:-0.191456 36:-0.2053 37:-0.276582 38:-0.073126003 39:-0.15673099 40:-0.18065099 41:-0.132836 42:-0.14069401 43:-0.180182 44:-0.092913002 45:-0.30269501 46:-0.193441 47:-0.071902998 48:-0.094949998 49:-0.139158 50:0.574301 51:-0.121647 52:1.550655 53:-0.315819 54:-0.188951 55:-0.091838002 56:-0.206487 57:-0.39396101 #
0.5 1:-0.33522499 2:-0.0082649998 3:-0.60241699 4:-0.047166999 5:-0.14869501 6:1.230049 7:-0.31911701 8:0.91578603 9:-0.34041199 10:1.107466 11:12.213827 12:1.520597 13:-0.331025 14:8.2740088 15:-0.19808801 16:-0.319971 17:-0.33070099 18:-0.372363 19:1.176636 20:-0.172627 21:0.032086998 22:-0.130933 23:0.252143 24:-0.243755 25:0.25983599 26:-0.22967 27:-0.216609 28:-0.19571599 29:-0.16288701 30:-0.192063 31:-0.141344 32:-0.1258 33:-0.17358901 34:-0.125499 35:-0.191456 36:-0.2053 37:2.2701721 38:-0.073126003 39:-0.15673099 40:-0.18065099 41:-0.132836 42:0.32271901 43:-0.180182 44:-0.092913002 45:0.18692 46:-0.193441 47:-0.071902998 48:-0.094949998 49:-0.139158 50:-0.040130001 51:0.18376601 52:-0.38407901 53:-0.186296 54:-0.188951 55:-0.065601997 56:-0.026686 57:-0.16879299 #
-0.5 1:0.126711 2:-0.057652 3:-0.281647 4:-0.047166999 5:0.82365698 6:0.17071 7:-0.31911701 8:0.11547 9:-0.34041199 10:-0.404962 11:-0.327288 12:0.002231 13:0.207285 14:-0.196753 15:-0.19808801 16:-0.319971 17:-0.33070099 18:-0.372363 19:0.32925701 20:-0.172627 21:-0.198534 22:-0.130933 23:-0.30711901 24:-0.243755 25:-0.26800001 26:-0.22967 27:-0.216609 28:-0.19571599 29:-0.16288701 30:-0.192063 31:-0.141344 32:-0.1258 33:-0.17358901 34:-0.125499 35:-0.191456 36:-0.2053 37:-0.276582 38:-0.073126003 39:-0.15673099 40:-0.18065099 41:-0.132836 42:-0.14069401 43:-0.180182 44:0.14338499 45:0.041078001 46:-0.046158001 47:-0.071902998 48:-0.094949998 49:0.168819 50:-0.247131 51:-0.121647 52:-0.38407901 53:-0.315819 54:-0.188951 55:-0.114752 56:-0.16979299 57:-0.24293301 #
-0.5 1:5.4389672 2:-0.170536 3:-0.60241699 4:-0.047166999 5:-0.52143002 6:-0.37604499 7:-0.31911701 8:-0.29759601 9:-0.34041199 10:-0.404962 11:9.2827616 12:1.9656349 13:-0.331025 14:-0.196753 15:-0.19808801 16:-0.319971 17:-0.33070099 18:-0.372363 19:0.131923 20:-0.172627 21:5.8387952 22:-0.130933 23:-0.30711901 24:-0.243755 25:-0.26800001 26:-0.22967 27:-0.216609 28:-0.19571599 29:-0.16288701 30:-0.192063 31:-0.141344 32:-0.1258 33:-0.17358901 34:-0.125499 35:-0.191456 36:-0.2053 37:-0.276582 38:-0.073126003 39:-0.15673099 40:-0.18065099 41:-0.132836 42:-0.14069401 43:-0.180182 44:-0.092913002 45:-0.30269501 46:-0.193441 47:-0.071902998 48:-0.094949998 49:-0.139158 50:-0.43770301 51:-0.121647 52:-0.38407901 53:-0.315819 54:-0.188951 55:-0.010462 56:-0.12209 57:-0.35551801 #
0.5 1:-0.33522499 2:-0.170536 3:-0.60241699 4:-0.047166999 5:-0.52143002 6:-0.37604499 7:-0.31911701 8:-0.29759601 9:-0.34041199 10:5.5969892 11:-0.327288 12:-0.652237 13:-0.331025 14:-0.196753 15:-0.19808801 16:-0.319971 17:-0.33070099 18:-0.372363 19:0.062275 20:-0.172627 21:-0.750377 22:-0.130933 23:-0.30711901 24:3.651706 25:-0.26800001 26:-0.22967 27:-0.216609 28:-0.19571599 29:-0.16288701 30:-0.192063 31:-0.141344 32:-0.1258 33:-0.17358901 34:-0.125499 35:-0.191456 36:-0.2053 37:-0.276582 38:-0.073126003 39:-0.15673099 40:-0.18065099 41:-0.132836 42:-0.14069401 43:-0.180182 44:-0.092913002 45:-0.30269501 46:-0.193441 47:-0.071902998 48:-0.094949998 49:0.795394 50:-0.43770301 51:-0.121647 52:-0.38407901 53:-0.315819 54:-0.188951 55:-0.051137 56:-0.180801 57:-0.32119301 #
0.5 1:-0.33522499 2:-0.170536 3:1.803359 4:-0.047166999 5:-0.52143002 6:-0.37604499 7:-0.31911701 8:-0.29759601 9:-0.34041199 10:-0.404962 11:-0.327288 12:2.4892089 13:-0.331025 14:-0.196753 15:-0.19808801 16:-0.319971 17:-0.33070099 18:-0.372363 19:0.364081 20:-0.172627 21:3.2113631 22:-0.130933 23:-0.30711901 24:-0.243755 25:-0.26800001 26:-0.22967 27:-0.216609 28:-0.19571599 29:-0.16288701 30:-0.192063 31:-0.141344 32:-0.1258 33:-0.17358901 34:-0.125499 35:-0.191456 36:-0.2053 37:-0.276582 38:-0.073126003 39:-0.15673099 40:-0.18065099 41:-0.132836 42:-0.14069401 43:-0.180182 44:-0.092913002 45:-0.30269501 46:-0.193441 47:-0.071902998 48:-0.094949998 49:-0.139158 50:-0.43770301 51:-0.121647 52:-0.38407901 53:-0.315819 54:-0.188951 55:-0.059847001 56:-0.16979299 57:-0.329431 #
0.5 1:-0.33522499 2:-0.170536 3:-0.60241699 4:-0.047166999 5:1.001922 6:-0.37604499 7:-0.31911701 8:-0.29759601 9:-0.34041199 10:-0.404962 11:-0.327288 12:-0.652237 13:-0.331025 14:-0.196753 15:-0.19808801 16:-0.319971 17:-0.33070099 18:-0.372363 19:0.062275 20:-0.172627 21:1.580543 22:-0.130933 23:-0.30711901 24:-0.243755 25:-0.26800001 26:-0.22967 27:-0.216609 28:-0.19571599 29:-0.16288701 30:-0.192063 31:-0.141344 32:-0.1258 33:-0.17358901 34:-0.125499 35:-0.191456 36:-0.2053 37:-0.276582 38:-0.073126003 39:-0.15673099 40:-0.18065099 41:-0.132836 42:-0.14069401 43:-0.180182 44:-0.092913002 45:-0.30269501 46:-0.193441 47:-0.071902998 48:-0.094949998 49:-0.139158 50:-0.43770301 51:-0.121647 52:0.15258101 53:-0.315819 54:-0.188951 55:-0.042792998 56:-0.114752 57:-0.28137699 #
-0.5 1:-0.33522499 2:-0.170536 3:-0.081165999 4:-0.047166999 5:-0.52143002 6:-0.37604499 7:-0.31911701 8:-0.29759601 9:-0.34041199 10:-0.404962 11:-0.327288 12:-0.311914 13:1.4521281 14:-0.196753 15:-0.19808801 16:-0.319971 17:0.68873203 18:-0.372363 19:-0.72126001 20:-0.172627 21:-0.750377 22:-0.130933 23:-0.30711901 24:-0.243755 25:0.32674399 26:-0.22967 27:-0.216609 28:-0.19571599 29:-0.16288701 30:-0.192063 31:-0.141344 32:-0.1258 33:-0.17358901 34:-0.125499 35:-0.191456 36:1.208216 37:-0.276582 38:-0.073126003 39:-0.15673099 40:-0.18065099 41:-0.132836 42:-0.14069401 43:-0.180182 44:-0.092913002 45:-0.30269501 46:-0.193441 47:-0.071902998 48:-0.094949998 49:-0.139158 50:-0.296417 51:-0.121647 52:-0.38407901 53:-0.176581 54:-0.188951 55:-0.125581 56:-0.213826 57:-0.34453401 #
-0.5 1:-0.33522499 2:-0.170536 3:0.580423 4:-0.047166999 5:0.43471599 6:-0.37604499 7:-0.31911701 8:-0.29759601 9:-0.34041199 10:-0.404962 11:-0.327288 12:0.120035 13:-0.331025 14:-0.196753 15:-0.19808801 16:-0.319971 17:-0.33070099 18:-0.372363 19:-0.686436 20:-0.172627 21:-0.26442599 22:-0.130933 23:-0.30711901 24:-0.243755 25:-0.26800001 26:-0.22967 27:-0.039602 28:-0.19571599 29:-0.16288701 30:-0.192063 31:-0.141344 32:-0.1258 33:-0.17358901 34:-0.125499 35:-0.191456 36:-0.2053 37:-0.276582 38:-0.073126003 39:-0.15673099 40:-0.18065099 41:-0.132836 42:-0.14069401 43:-0.180182 44:-0.092913002 45:0.311928 46:-0.193441 47:-0.071902998 48:-0.094949998 49:-0.139158 50:-0.092702001 51:-0.121647 52:-0.38407901 53:-0.315819 54:-0.188951 55:-0.116713 56:-0.199148 57:-0.370621 #
-0.5 1:-0.33522499 2:-0.170536 3:-0.60241699 4:-0.047166999 5:-0.52143002 6:-0.37604499 7:-0.31911701 8:-0.29759601 9:-0.34041199 10:-0.404962 11:-0.327288 12:-0.652237 13:-0.331025 14:-0.196753 15:-0.19808801 16:-0.319971 17:-0.33070099 18:-0.372363 19:-1.02887 20:-0.172627 21:-0.750377 22:-0.130933 23:-0.30711901 24:-0.243755 25:-0.26800001 26:-0.22967 27:-0.216609 28:-0.19571599 29:-0.16288701 30:-0.192063 31:-0.141344 32:-0.1258 33:-0.17358901 34:-0.125499 35:-0.191456 36:-0.2053 37:-0.276582 38:-0.073126003 39:-0.15673099 40:-0.18065099 41:-0.132836 42:-0.14069401 43:-0.180182 44:-0.092913002 45:-0.30269501 46:-0.193441 47:-0.071902998 48:-0.094949998 49:-0.139158 50:-0.43770301 51:-0.121647 52:-0.38407901 53:-0.315819 54:-0.188951 55:-0.053307999 56:-0.191809 57:-0.40494499 #
-0.5 1:-0.33522499 2:-0.170536 3:-0.60241699 4:-0.047166999 5:-0.52143002 6:-0.37604499 7:-0.31911701 8:-0.29759601 9:-0.34041199 10:-0.404962 11:-0.327288 12:-0.652237 13:-0.331025 14:-0.196753 15:-0.19808801 16:-0.319971 17:-0.33070099 18:-0.372363 19:0.57882798 20:-0.172627 21:-0.750377 22:-0.130933 23:-0.30711901 24:-0.243755 25:-0.26800001 26:-0.22967 27:-0.216609 28:-0.19571599 29:-0.16288701 30:-0.192063 31:-0.141344 32:-0.1258 33:-0.17358901 34:-0.125499 35:-0.191456 36:-0.2053 37:-0.276582 38:-0.073126003 39:-0.15673099 40:-0.18065099 41:-0.132836 42:-0.14069401 43:-0.180182 44:-0.092913002 45:0.41610199 46:-0.193441 47:-0.071902998 48:-0.094949998 49:-0.139158 50:-0.43770301 51:-0.121647 52:11.6218 53:-0.315819 54:-0.188951 55:-0.128196 56:-0.21015599 57:-0.369248 #
-0.20600754490233991189640505581337 1:-0.33522499 2:-0.170536 3:-0.60241699 4:-0.047166999 5:-0.52143002 6:-0.37604499 7:-0.31911701 8:-0.29759601 9:-0.34041199 10:-0.404962 11:-0.327288 12:3.1960349 13:-0.331025 14:-0.196753 15:-0.19808801 16:2.556401 17:-0.33070099 18:-0.372363 19:-1.02887 20:-0.172627 21:-0.750377 22:-0.130933 23:-0.30711901 24:-0.243755 25:-0.26800001 26:-0.22967 27:-0.216609 28:-0.19571599 29:-0.16288701 30:-0.192063 31:-0.141344 32:-0.1258 33:-0.17358901 34:-0.125499 35:-0.191456 36:-0.2053 37:-0.276582 38:-0.073126003 39:7.8606381 40:-0.18065099 41:-0.132836 42:-0.14069401 43:-0.180182 44:-0.092913002 45:-0.30269501 46:-0.193441 47:-0.071902998 48:-0.094949998 49:-0.139158 50:-0.43770301 51:-0.121647 52:-0.38407901 53:-0.315819 54:-0.188951 55:-0.13086399 56:-0.21749499 57:-0.41592899 #
0.5 1:-0.33522499 2:-0.170536 3:-0.60241699 4:-0.047166999 5:-0.52143002 6:-0.37604499 7:-0.31911701 8:-0.29759601 9:-0.34041199 10:7.5551848 11:-0.327288 12:-0.652237 13:-0.331025 14:-0.196753 15:-0.19808801 16:-0.319971 17:-0.33070099 18:-0.372363 19:-1.02887 20:-0.172627 21:-0.750377 22:-0.130933 23:-0.30711901 24:-0.243755 25:-0.26800001 26:-0.22967 27:-0.216609 28:-0.19571599 29:-0.16288701 30:-0.192063 31:-0.141344 32:-0.1258 33:-0.17358901 34:-0.125499 35:-0.191456 36:-0.2053 37:-0.276582 38:-0.073126003 39:-0.15673099 40:-0.18065099 41:-0.132836 42:-0.14069401 43:-0.180182 44:-0.092913002 45:-0.30269501 46:-0.193441 47:-0.071902998 48:-0.094949998 49:0.98301202 50:-0.43770301 51:-0.121647 52:0.80961299 53:-0.315819 54:-0.188951 55:-0.038320001 56:-0.180801 57:-0.31570101 #
-0.5 1:-0.33522499 2:-0.170536 3:-0.60241699 4:-0.047166999 5:5.7016249 6:-0.37604499 7:-0.31911701 8:-0.29759601 9:-0.34041199 10:-0.404962 11:-0.327288 12:-0.652237 13:-0.331025 14:-0.196753 15:-0.19808801 16:-0.319971 17:-0.33070099 18:-0.372363 19:1.199852 20:-0.172627 21:-0.750377 22:-0.130933 23:-0.30711901 24:-0.243755 25:-0.26800001 26:-0.22967 27:-0.216609 28:-0.19571599 29:-0.16288701 30:-0.192063 31:-0.141344 32:-0.1258 33:-0.17358901 34:-0.125499 35:-0.191456 36:-0.2053 37:-0.276582 38:-0.073126003 39:-0.15673099 40:-0.18065099 41:-0.132836 42:-0.14069401 43:-0.180182 44:-0.092913002 45:-0.30269501 46:-0.193441 47:-0.071902998 48:-0.094949998 49:-0.139158 50:-0.43770301 51:-0.121647 52:-0.38407901 53:-0.315819 54:-0.188951 55:-0.138319 56:-0.224834 57:-0.41867501 #
0.5 1:-0.33522499 2:-0.170536 3:-0.60241699 4:-0.047166999 5:-0.52143002 6:-0.37604499 7:-0.31911701 8:-0.29759601 9:-0.34041199 10:-0.404962 11:-0.327288 12:-0.652237 13:-0.331025 14:-0.196753 15:-0.19808801 16:0.88340902 17:2.035152 18:-0.372363 19:1.832484 20:-0.172627 21:2.2971151 22:-0.130933 23:-0.30711901 24:-0.243755 25:-0.26800001 26:-0.22967 27:-0.216609 28:-0.19571599 29:-0.16288701 30:-0.192063 31:-0.141344 32:-0.1258 33:-0.17358901 34:-0.125499 35:-0.191456 36:-0.2053 37:-0.276582 38:-0.073126003 39:-0.15673099 40:-0.18065099 41:-0.132836 42:-0.14069401 43:-0.180182 44:-0.092913002 45:0.97863799 46:-0.193441 47:-0.071902998 48:-0.094949998 49:-0.139158 50:-0.43770301 51:-0.121647 52:-0.090671003 53:-0.315819 54:-0.188951 55:-0.055243999 56:-0.078056999 57:-0.33080399 #
-0.5 1:-0.33522499 2:-0.170536 3:1.201915 4:-0.047166999 5:-0.52143002 6:-0.37604499 7:-0.31911701 8:-0.29759601 9:-0.34041199 10:0.31145099 11:-0.327288 12:-0.652237 13:-0.331025 14:-0.196753 15:-0.19808801 16:0.12029 17:-0.33070099 18:0.457331 19:-1.02887 20:-0.172627 21:-0.0090950001 22:-0.130933 23:-0.30711901 24:-0.243755 25:-0.26800001 26:-0.22967 27:-0.216609 28:-0.19571599 29:-0.16288701 30:-0.192063 31:-0.141344 32:-0.1258 33:-0.17358901 34:-0.125499 35:-0.191456 36:-0.2053 37:0.929775 38:-0.073126003 39:-0.15673099 40:-0.18065099 41:-0.132836 42:-0.14069401 43:-0.180182 44:-0.092913002 45:0.166086 46:0.220792 47:-0.071902998 48:-0.094949998 49:0.059080001 50:0.308157 51:-0.121647 52:-0.313862 53:-0.315819 54:0.062385999 55:-0.012764 56:0.028355001 57:-0.030122001 #
0.5 1:-0.33522499 2:-0.170536 3:-0.60241699 4:-0.047166999 5:-0.52143002 6:-0.37604499 7:-0.31911701 8:-0.29759601 9:-0.34041199 10:5.5969892 11:-0.327288 12:-0.652237 13:-0.331025 14:-0.196753 15:-0.19808801 16:-0.319971 17:-0.33070099 18:-0.372363 19:0.062275 20:-0.172627 21:-0.750377 22:-0.130933 23:-0.30711901 24:3.651706 25:-0.26800001 26:-0.22967 27:-0.216609 28:-0.19571599 29:-0.16288701 30:-0.192063 31:-0.141344 32:-0.1258 33:-0.17358901 34:-0.125499 35:-0.191456 36:-0.2053 37:-0.276582 38:-0.073126003 39:-0.15673099 40:-0.18065099 41:-0.132836 42:-0.14069401 43:-0.180182 44:-0.092913002 45:-0.30269501 46:-0.193441 47:-0.071902998 48:-0.094949998 49:0.795394 50:-0.43770301 51:-0.121647 52:-0.38407901 53:-0.315819 54:-0.188951 55:-0.051137 56:-0.180801 57:-0.32119301 #
-0.5 1:-0.33522499 2:-0.170536 3:0.82099998 4:-0.047166999 5:0.62918699 6:-0.37604499 7:-0.31911701 8:-0.29759601 9:-0.34041199 10:-0.404962 11:-0.327288 12:-0.652237 13:-0.331025 14:-0.196753 15:-0.19808801 16:-0.319971 17:6.5360432 18:-0.372363 19:-1.02887 20:-0.172627 21:0.41920099 22:-0.130933 23:-0.30711901 24:-0.243755 25:-0.26800001 26:-0.22967 27:-0.216609 28:-0.19571599 29:-0.16288701 30:-0.192063 31:-0.141344 32:-0.1258 33:-0.17358901 34:-0.125499 35:-0.191456 36:-0.2053 37:-0.276582 38:-0.073126003 39:-0.15673099 40:-0.18065099 41:-0.132836 42:1.289843 43:-0.180182 44:-0.092913002 45:-0.30269501 46:-0.193441 47:-0.071902998 48:-0.094949998 49:-0.139158 50:-0.25698799 51:-0.121647 52:-0.315115 53:-0.315819 54:-0.188951 55:0.23659299 56:-0.030355001 57:-0.23881499 #
-0.5 1:-0.33522499 2:-0.170536 3:-0.60241699 4:-0.047166999 5:5.05339 6:-0.37604499 7:-0.31911701 8:-0.29759601 9:-0.34041199 10:-0.404962 11:-0.327288 12:-0.652237 13:-0.331025 14:-0.196753 15:-0.19808801 16:-0.319971 17:-0.33070099 18:-0.372363 19:-1.02887 20:-0.172627 21:-0.750377 22:-0.130933 23:-0.30711901 24:-0.243755 25:-0.26800001 26:-0.22967 27:-0.216609 28:-0.19571599 29:-0.16288701 30:-0.192063 31:-0.141344 32:-0.1258 33:-0.17358901 34:-0.125499 35:-0.191456 36:-0.2053 37:-0.276582 38:-0.073126003 39:-0.15673099 40:-0.18065099 41:-0.132836 42:-0.14069401 43:-0.180182 44:-0.092913002 45:-0.30269501 46:-0.193441 47:-0.071902998 48:-0.094949998 49:-0.139158 50:-0.43770301 51:-0.121647 52:-0.38407901 53:-0.315819 54:-0.188951 55:-0.130289 56:-0.21015599 57:-0.40494499 #
-0.5 1:-0.33522499 2:-0.170536 3:-0.60241699 4:-0.047166999 5:-0.52143002 6:-0.37604499 7:-0.31911701 8:-0.29759601 9:-0.34041199 10:-0.404962 11:-0.327288 12:-0.652237 13:-0.331025 14:-0.196753 15:-0.19808801 16:0.081156 17:-0.33070099 18:0.38358 19:-0.31498301 20:-0.172627 21:-0.412682 22:-0.130933 23:-0.30711901 24:-0.243755 25:-0.26800001 26:-0.22967 27:-0.216609 28:-0.19571599 29:-0.16288701 30:-0.192063 31:-0.141344 32:-0.1258 33:-0.17358901 34:-0.125499 35:-0.191456 36:-0.2053 37:-0.276582 38:-0.073126003 39:-0.15673099 40:-0.18065099 41:-0.132836 42:-0.14069401 43:-0.180182 44:-0.092913002 45:0.55152702 46:-0.193441 47:-0.071902998 48:-0.094949998 49:-0.139158 50:0.31472799 51:-0.121647 52:-0.241137 53:-0.315819 54:0.066873997 55:-0.028563 56:0.028355001 57:-0.064446002 #
0.5 1:-0.33522499 2:-0.170536 3:0.119316 4:-0.047166999 5:0.45092201 6:0.034021001 7:-0.053975999 8:-0.29759601 9:-0.34041199 10:-0.404962 11:0.24931499 12:-0.023948001 13:0.072708003 14:0.192707 15:-0.19808801 16:-0.20256799 17:-0.33070099 18:0.733895 19:0.369885 20:-0.172627 21:-0.55270201 22:-0.130933 23:-0.30711901 24:-0.243755 25:-0.26800001 26:-0.22967 27:-0.216609 28:-0.19571599 29:-0.16288701 30:-0.192063 31:-0.141344 32:-0.1258 33:-0.17358901 34:-0.125499 35:-0.191456 36:-0.2053 37:-0.276582 38:-0.073126003 39:-0.15673099 40:-0.18065099 41:-0.132836 42:-0.14069401 43:-0.180182 44:-0.092913002 45:-0.30269501 46:-0.193441 47:-0.071902998 48:-0.094949998 49:0.059080001 50:-0.316131 51:-0.121647 52:-0.313862 53:-0.01144 54:-0.188951 55:-0.13188501 56:-0.177132 57:0.105804 #
0.37839635931614273856027352849196 1:-0.33522499 2:-0.170536 3:-0.60241699 4:-0.047166999 5:-0.52143002 6:-0.37604499 7:-0.31911701 8:7.757194 9:-0.34041199 10:-0.404962 11:-0.327288 12:-0.652237 13:-0.331025 14:-0.196753 15:-0.19808801 16:-0.319971 17:-0.33070099 18:-0.372363 19:-1.02887 20:-0.172627 21:-0.750377 22:-0.130933 23:-0.30711901 24:-0.243755 25:-0.26800001 26:-0.22967 27:-0.216609 28:-0.19571599 29:-0.16288701 30:-0.192063 31:-0.141344 32:-0.1258 33:-0.17358901 34:-0.125499 35:-0.191456 36:-0.2053 37:-0.276582 38:-0.073126003 39:-0.15673099 40:-0.18065099 41:-0.132836 42:-0.14069401 43:-0.180182 44:-0.092913002 45:0.78070903 46:-0.193441 47:-0.071902998 48:-0.094949998 49:-0.139158 50:0.18329901 51:-0.121647 52:-0.14709599 53:0.29617801 54:-0.188951 55:-0.063588001 56:-0.136768 57:-0.317074 #
-0.5 1:-0.27748299 2:-0.114094 3:-0.40193599 4:-0.047166999 5:-0.083871998 6:-0.13684 7:-0.31911701 8:-0.29759601 9:0.094016001 10:-0.404962 11:-0.327288 12:-0.58679003 13:-0.331025 14:-0.131843 15:-0.163679 16:-0.30040401 17:-0.33070099 18:-0.35392499 19:-0.99984998 20:-0.172627 21:-0.71743101 22:-0.130933 23:-0.30711901 24:-0.243755 25:0.088846996 26:0.35168299 27:-0.20460901 28:-0.19571599 29:-0.16288701 30:-0.192063 31:-0.141344 32:-0.1258 33:0.73804498 34:-0.125499 35:-0.191456 36:-0.178629 37:0.929775 38:-0.073126003 39:-0.15673099 40:-0.15077899 41:-0.132836 42:-0.14069401 43:0.036299001 44:-0.092913002 45:-0.29227701 46:-0.193441 47:-0.071902998 48:-0.040934999 49:0.64317501 50:0.061726999 51:0.30593199 52:-0.38407901 53:-0.30286601 54:-0.188951 55:-0.095683001 56:-0.089065999 57:3.808732 #
0.5 1:-0.33522499 2:-0.170536 3:-0.60241699 4:-0.047166999 5:-0.52143002 6:-0.37604499 7:-0.31911701 8:-0.29759601 9:-0.34041199 10:-0.404962 11:-0.327288 12:-0.652237 13:-0.331025 14:-0.196753 15:-0.19808801 16:1.59761 17:-0.33070099 18:-0.372363 19:-0.46008199 20:1.344402 21:-0.750377 22:-0.130933 23:-0.30711901 24:-0.243755 25:-0.26800001 26:-0.22967 27:-0.216609 28:-0.19571599 29:-0.16288701 30:-0.192063 31:-0.141344 32:-0.1258 33:-0.17358901 34:-0.125499 35:-0.191456 36:-0.2053 37:-0.276582 38:-0.073126003 39:-0.15673099 40:-0.18065099 41:-0.132836 42:-0.14069401 43:-0.180182 44:-0.092913002 45:-0.30269501 46:-0.193441 47:-0.071902998 48:-0.094949998 49:-0.139158 50:0.13072801 51:-0.121647 52:-0.16715799 53:-0.315819 54:-0.188951 55:-0.117733 56:-0.20281801 57:-0.34728 #
-0.5 1:-0.33522499 2:-0.170536 3:-0.60241699 4:-0.047166999 5:-0.52143002 6:-0.37604499 7:-0.31911701 8:-0.29759601 9:-0.34041199 10:-0.404962 11:-0.327288 12:-0.652237 13:-0.331025 14:-0.196753 15:-0.19808801 16:-0.319971 17:-0.33070099 18:-0.372363 19:-1.02887 20:-0.172627 21:-0.750377 22:-0.130933 23:-0.30711901 24:-0.243755 25:-0.26800001 26:-0.22967 27:-0.216609 28:-0.19571599 29:-0.16288701 30:-0.192063 31:-0.141344 32:-0.1258 33:-0.17358901 34:-0.125499 35:-0.191456 36:-0.2053 37:-0.276582 38:-0.073126003 39:-0.15673099 40:-0.18065099 41:-0.132836 42:-0.14069401 43:-0.180182 44:-0.092913002 45:-0.30269501 46:-0.193441 47:-0.071902998 48:-0.094949998 49:-0.139158 50:-0.43770301 51:-0.121647 52:-0.38407901 53:-0.315819 54:-0.188951 55:-0.112162 56:-0.21015599 57:-0.41730201 #
-0.5 1:-0.33522499 2:-0.170536 3:-0.60241699 4:-0.047166999 5:1.342245 6:0.58077699 7:-0.31911701 8:-0.29759601 9:-0.34041199 10:-0.404962 11:-0.327288 12:-0.652237 13:-0.331025 14:-0.196753 15:0.76538402 16:-0.319971 17:-0.33070099 18:-0.372363 19:-1.02887 20:-0.172627 21:-0.750377 22:-0.130933 23:-0.30711901 24:-0.243755 25:-0.26800001 26:-0.22967 27:-0.216609 28:-0.19571599 29:-0.16288701 30:-0.192063 31:-0.141344 32:-0.1258 33:0.53546 34:-0.125499 35:-0.191456 36:-0.2053 37:-0.276582 38:-0.073126003 39:-0.15673099 40:-0.18065099 41:-0.132836 42:-0.14069401 43:-0.180182 44:-0.092913002 45:-0.30269501 46:-0.193441 47:-0.071902998 48:-0.094949998 49:-0.139158 50:-0.201131 51:-0.121647 52:-0.38407901 53:-0.315819 54:-0.188951 55:-0.124796 56:-0.199148 57:-0.307464 #
0.5 1:0.386549 2:-0.170536 3:-0.101214 4:-0.047166999 5:0.288863 6:-0.37604499 7:0.23325901 8:-0.29759601 9:-0.34041199 10:-0.404962 11:2.0752251 12:0.342554 13:-0.331025 14:-0.196753 15:-0.19808801 16:0.16920801 17:-0.33070099 18:-0.372363 19:-0.146668 20:-0.172627 21:0.081505999 22:-0.130933 23:-0.30711901 24:-0.243755 25:-0.26800001 26:-0.22967 27:-0.216609 28:-0.19571599 29:-0.16288701 30:-0.192063 31:-0.141344 32:-0.1258 33:-0.17358901 34:-0.125499 35:-0.191456 36:-0.2053 37:0.393617 38:-0.073126003 39:-0.15673099 40:-0.18065099 41:-0.132836 42:0.36301601 43:-0.180182 44:-0.092913002 45:-0.30269501 46:-0.193441 47:-0.071902998 48:-0.094949998 49:-0.139158 50:-0.30298799 51:-0.121647 52:-0.281261 53:-0.18305799 54:-0.0049359999 55:-0.115039 56:-0.16245399 57:-0.119365 #
-0.064647554986707697621817203526007 1:-0.33522499 2:-0.170536 3:-0.60241699 4:-0.047166999 5:-0.52143002 6:-0.37604499 7:-0.31911701 8:-0.29759601 9:-0.34041199 10:-0.404962 11:-0.327288 12:-0.652237 13:-0.331025 14:-0.196753 15:-0.19808801 16:3.299953 17:-0.33070099 18:-0.372363 19:-1.02887 20:-0.172627 21:-0.750377 22:-0.130933 23:-0.30711901 24:-0.243755 25:-0.26800001 26:-0.22967 27:-0.216609 28:-0.19571599 29:-0.16288701 30:-0.192063 31:-0.141344 32:-0.1258 33:-0.17358901 34:-0.125499 35:-0.191456 36:-0.2053 37:-0.276582 38:21.603161 39:-0.15673099 40:-0.18065099 41:-0.132836 42:-0.14069401 43:-0.180182 44:-0.092913002 45:-0.30269501 46:-0.193441 47:-0.071902998 48:-0.094949998 49:-0.139158 50:-0.43770301 51:-0.121647 52:-0.38407901 53:-0.315819 54:-0.188951 55:-0.13120399 56:-0.21749499 57:-0.40906399 #
-0.5 1:-0.33522499 2:-0.170536 3:-0.60241699 4:-0.047166999 5:-0.52143002 6:-0.37604499 7:-0.31911701 8:-0.29759601 9:-0.34041199 10:-0.404962 11:-0.327288 12:-0.652237 13:-0.331025 14:-0.196753 15:-0.19808801 16:-0.319971 17:-0.33070099 18:-0.372363 19:2.83657 20:-0.172627 21:-0.750377 22:-0.130933 23:-0.30711901 24:-0.243755 25:-0.26800001 26:-0.22967 27:-0.216609 28:-0.19571599 29:-0.16288701 30:-0.192063 31:-0.141344 32:-0.1258 33:-0.17358901 34:-0.125499 35:-0.191456 36:-0.2053 37:-0.276582 38:-0.073126003 39:-0.15673099 40:-0.18065099 41:-0.132836 42:-0.14069401 43:-0.180182 44:-0.092913002 45:-0.30269501 46:-0.193441 47:-0.071902998 48:-0.094949998 49:-0.139158 50:-0.43770301 51:-0.121647 52:-0.38407901 53:-0.315819 54:-0.188951 55:-0.138319 56:-0.224834 57:-0.414556 #
-0.079833388659197423997682108165463 1:-0.33522499 2:-0.170536 3:-0.60241699 4:-0.047166999 5:-0.52143002 6:-0.37604499 7:-0.31911701 8:-0.29759601 9:-0.34041199 10:2.715416 11:-0.327288 12:-0.652237 13:-0.331025 14:-0.196753 15:-0.19808801 16:-0.319971 17:-0.33070099 18:3.241415 19:0.108707 20:-0.172627 21:-0.750377 22:-0.130933 23:-0.30711901 24:-0.243755 25:-0.26800001 26:-0.22967 27:-0.216609 28:4.7360282 29:-0.16288701 30:-0.192063 31:-0.141344 32:-0.1258 33:-0.17358901 34:-0.125499 35:-0.191456 36:-0.2053 37:-0.276582 38:-0.073126003 39:-0.15673099 40:-0.18065099 41:-0.132836 42:-0.14069401 43:-0.180182 44:-0.092913002 45:-0.30269501 46:-0.193441 47:-0.071902998 48:-0.094949998 49:-0.139158 50:0.78787303 51:-0.121647 52:-0.38407901 53:-0.315819 54:-0.188951 55:-0.115902 56:-0.18814 57:-0.39258799 #
-0.5 1:-0.33522499 2:-0.170536 3:-0.60241699 4:-0.047166999 5:8.0028601 6:-0.37604499 7:-0.31911701 8:-0.29759601 9:-0.34041199 10:-0.404962 11:-0.327288 12:-0.652237 13:-0.331025 14:-0.196753 15:-0.19808801 16:-0.319971 17:-0.33070099 18:-0.372363 19:-1.02887 20:-0.172627 21:-0.750377 22:-0.130933 23:-0.30711901 24:-0.243755 25:-0.26800001 26:-0.22967 27:-0.216609 28:-0.19571599 29:-0.16288701 30:-0.192063 31:-0.141344 32:-0.1258 33:-0.17358901 34:-0.125499 35:-0.191456 36:-0.2053 37:-0.276582 38:-0.073126003 39:-0.15673099 40:-0.18065099 41:-0.132836 42:-0.14069401 43:-0.180182 44:-0.092913002 45:-0.30269501 46:-0.193441 47:-0.071902998 48:-0.094949998 49:-0.139158 50:-0.43770301 51:-0.121647 52:-0.38407901 53:-0.315819 54:-0.188951 55:-0.112162 56:-0.20281801 57:-0.41181001 #
0.5 1:-0.33522499 2:-0.170536 3:0.60047102 4:-0.047166999 5:-0.52143002 6:1.674287 7:-0.31911701 8:-0.29759601 9:1.52142 10:-0.404962 11:-0.327288 12:1.730026 13:-0.331025 14:-0.196753 15:-0.19808801 16:-0.026464 17:-0.33070099 18:-0.372363 19:0.56141597 20:-0.172627 21:0.246235 22:-0.130933 23:-0.30711901 24:0.99947703 25:-0.26800001 26:-0.22967 27:-0.216609 28:-0.19571599 29:-0.16288701 30:-0.192063 31:-0.141344 32:-0.1258 33:-0.17358901 34:-0.125499 35:-0.191456 36:-0.2053 37:-0.276582 38:-0.073126003 39:-0.15673099 40:-0.18065099 41:-0.132836 42:-0.14069401 43:-0.180182 44:-0.092913002 45:-0.30269501 46:-0.193441 47:-0.071902998 48:-0.094949998 49:-0.139158 50:0.032156002 51:0.237214 52:-0.14458799 53:0.14722601 54:-0.188951 55:-0.11109 56:-0.114752 57:-0.159182 #
-0.5 1:-0.33522499 2:-0.170536 3:5.2917342 4:-0.047166999 5:-0.52143002 6:-0.37604499 7:-0.31911701 8:-0.29759601 9:-0.34041199 10:-0.404962 11:-0.327288 12:-0.652237 13:-0.331025 14:-0.196753 15:-0.19808801 16:-0.319971 17:-0.33070099 18:-0.372363 19:0.677495 20:-0.172627 21:-0.750377 22:-0.130933 23:-0.30711901 24:-0.243755 25:-0.26800001 26:-0.22967 27:-0.216609 28:-0.19571599 29:-0.16288701 30:-0.192063 31:-0.141344 32:-0.1258 33:-0.17358901 34:-0.125499 35:-0.191456 36:-0.2053 37:-0.276582 38:-0.073126003 39:-0.15673099 40:-0.18065099 41:-0.132836 42:-0.14069401 43:-0.180182 44:-0.092913002 45:-0.30269501 46:-0.193441 47:-0.071902998 48:-0.094949998 49:-0.139158 50:-0.43770301 51:-0.121647 52:0.24913 53:-0.315819 54:-0.188951 55:-0.102353 56:-0.213826 57:-0.402199 #
-0.5 1:-0.33522499 2:-0.170536 3:-0.60241699 4:-0.047166999 5:-0.52143002 6:-0.37604499 7:-0.31911701 8:-0.29759601 9:-0.34041199 10:-0.404962 11:-0.327288 12:1.271899 13:-0.331025 14:-0.196753 15:-0.19808801 16:-0.319971 17:-0.33070099 18:-0.372363 19:0.24800199 20:-0.172627 21:-0.149115 22:-0.130933 23:-0.30711901 24:-0.243755 25:0.27470401 26:0.636428 27:-0.216609 28:-0.19571599 29:-0.16288701 30:-0.192063 31:-0.141344 32:-0.1258 33:-0.17358901 34:-0.125499 35:-0.191456 36:-0.2053 37:-0.276582 38:-0.073126003 39:-0.15673099 40:-0.18065099 41:-0.132836 42:-0.14069401 43:-0.180182 44:-0.092913002 45:-0.30269501 46:-0.193441 47:-0.071902998 48:-0.094949998 49:-0.139158 50:-0.43770301 51:-0.121647 52:-0.24489801 53:0.40627199 54:-0.188951 55:-0.11844 56:-0.206487 57:-0.307464 #
-0.25703418782538522968650340772001 1:-0.33522499 2:-0.170536 3:-0.60241699 4:-0.047166999 5:-0.52143002 6:-0.37604499 7:-0.31911701 8:-0.29759601 9:-0.34041199 10:-0.404962 11:-0.327288 12:-0.652237 13:-0.331025 14:-0.196753 15:-0.19808801 16:-0.319971 17:-0.33070099 18:-0.372363 19:-1.02887 20:-0.172627 21:-0.750377 22:-0.130933 23:-0.30711901 24:-0.243755 25:-0.26800001 26:-0.22967 27:-0.216609 28:-0.19571599 29:-0.16288701 30:-0.192063 31:-0.141344 32:-0.1258 33:-0.17358901 34:-0.125499 35:0.033902999 36:-0.2053 37:-0.276582 38:-0.073126003 39:-0.15673099 40:-0.18065099 41:-0.132836 42:-0.14069401 43:-0.180182 44:-0.092913002 45:-0.219356 46:-0.193441 47:-0.071902998 48:-0.094949998 49:-0.139158 50:6.9978971 51:-0.121647 52:-0.38407901 53:-0.315819 54:-0.188951 55:-0.082107 56:-0.19547901 57:1.3703181 #
0.5 1:-0.133128 2:-0.156425 3:-0.30169499 4:-0.047166999 5:-0.116284 6:0.307399 7:-0.31911701 8:-0.24596301 9:0.125046 10:-0.404962 11:-0.327288 12:-0.325003 13:0.51008499 14:0.030432001 15:-0.19808801 16:-0.27105299 17:0.092459999 18:-0.372363 19:-0.99984998 20:-0.172627 21:-0.733904 22:-0.130933 23:0.59256399 24:-0.202314 25:-0.26800001 26:-0.22967 27:-0.216609 28:-0.19571599 29:-0.111434 30:-0.192063 31:-0.141344 32:-0.1258 33:-0.17358901 34:-0.125499 35:-0.191456 36:-0.071948998 37:0.52765602 38:-0.014541 39:-0.15673099 40:-0.120906 41:-0.132836 42:-0.14069401 43:-0.071941003 44:-0.092913002 45:-0.28185999 46:-0.193441 47:-0.071902998 48:-0.094949998 49:-0.100218 50:-0.365417 51:-0.121647 52:-0.38407901 53:-0.244581 54:-0.188951 55:-0.12725499 56:-0.15511499 57:0.89664 #
-0.5 1:-0.33522499 2:-0.170536 3:-0.60241699 4:-0.047166999 5:-0.52143002 6:-0.37604499 7:-0.31911701 8:-0.29759601 9:-0.34041199 10:-0.404962 11:-0.327288 12:1.9656349 13:-0.331025 14:-0.196753 15:-0.19808801 16:-0.319971 17:-0.33070099 18:-0.372363 19:-0.44847399 20:-0.172627 21:0.073270001 22:-0.130933 23:-0.30711901 24:-0.243755 25:-0.26800001 26:-0.22967 27:-0.216609 28:-0.19571599 29:-0.16288701 30:-0.192063 31:-0.141344 32:-0.1258 33:-0.17358901 34:-0.125499 35:-0.191456 36:-0.2053 37:-0.276582 38:-0.073126003 39:-0.15673099 40:-0.18065099 41:-0.132836 42:-0.14069401 43:-0.180182 44:-0.092913002 45:-0.30269501 46:-0.193441 47:-0.071902998 48:-0.094949998 49:-0.139158 50:0.69587302 51:-0.121647 52:-0.38407901 53:-0.315819 54:-0.188951 55:-0.120899 56:-0.206487 57:-0.352772 #
-0.5 1:-0.33522499 2:-0.170536 3:0.059170999 4:-0.047166999 5:-0.52143002 6:1.298393 7:-0.31911701 8:3.110199 9:0.156077 10:7.7462292 11:-0.327288 12:-0.652237 13:-0.331025 14:1.945279 15:-0.19808801 16:-0.319971 17:0.30404001 18:-0.372363 19:-0.83733898 20:-0.172627 21:-0.750377 22:-0.130933 23:-0.30711901 24:-0.243755 25:-0.26800001 26:-0.22967 27:-0.216609 28:-0.19571599 29:-0.16288701 30:-0.192063 31:-0.141344 32:-0.1258 33:-0.17358901 34:-0.125499 35:0.25926301 36:-0.2053 37:-0.276582 38:-0.073126003 39:-0.15673099 40:-0.18065099 41:-0.132836 42:0.18167999 43:-0.180182 44:-0.092913002 45:-0.30269501 46:0.11033 47:-0.071902998 48:-0.094949998 49:-0.139158 50:-0.207702 51:0.053964999 52:-0.38407901 53:-0.315819 54:-0.085722998 55:-0.12388 56:-0.191809 57:-0.223712 #
0.5 1:-0.33522499 2:0.280999 3:0.68066299 4:-0.047166999 5:-0.002843 6:-0.37604499 7:-0.31911701 8:-0.29759601 9:-0.34041199 10:-0.404962 11:-0.327288 12:0.185482 13:-0.331025 14:-0.196753 15:-0.19808801 16:-0.0068970001 17:-0.33070099 18:2.006093 19:-0.088628002 20:-0.172627 21:0.048560001 22:-0.130933 23:-0.30711901 24:-0.243755 25:-0.26800001 26:-0.22967 27:-0.216609 28:-0.19571599 29:-0.16288701 30:-0.192063 31:-0.141344 32:-0.1258 33:-0.17358901 34:-0.125499 35:-0.191456 36:-0.2053 37:-0.276582 38:-0.073126003 39:-0.15673099 40:-0.18065099 41:-0.132836 42:-0.14069401 43:-0.180182 44:-0.092913002 45:-0.30269501 46:-0.193441 47:-0.071902998 48:-0.094949998 49:-0.139158 50:-0.26356 51:-0.121647 52:0.95130098 53:-0.315819 54:-0.188951 55:-0.061625998 56:-0.0046689999 57:-0.028749 #
0.5 1:-0.33522499 2:-0.170536 3:0.52027798 4:-0.047166999 5:-0.52143002 6:-0.37604499 7:-0.31911701 8:-0.29759601 9:-0.34041199 10:1.378111 11:-0.327288 12:-0.652237 13:-0.331025 14:-0.196753 15:-0.19808801 16:-0.319971 17:-0.33070099 18:-0.372363 19:-0.048 20:-0.172627 21:-0.28913501 22:1.884571 23:-0.30711901 24:-0.243755 25:-0.26800001 26:-0.22967 27:-0.216609 28:-0.19571599 29:-0.16288701 30:-0.192063 31:-0.141344 32:-0.1258 33:-0.17358901 34:-0.125499 35:-0.191456 36:-0.2053 37:-0.276582 38:-0.073126003 39:-0.15673099 40:-0.18065099 41:-0.132836 42:-0.14069401 43:-0.180182 44:-0.092913002 45:-0.30269501 46:-0.193441 47:-0.071902998 48:-0.094949998 49:-0.139158 50:1.18216 51:1.382515 52:0.109949 53:-0.315819 54:1.579385 55:-0.071957998 56:-0.14777599 57:-0.102889 #
-0.37794670334137020484277513787674 1:-0.33522499 2:-0.170536 3:4.0487499 4:-0.047166999 5:-0.52143002 6:-0.37604499 7:-0.31911701 8:-0.29759601 9:-0.34041199 10:3.2885461 11:-0.327288 12:-0.652237 13:-0.331025 14:-0.196753 15:3.7934401 16:-0.319971 17:-0.33070099 18:-0.372363 19:0.31764901 20:-0.172627 21:-0.750377 22:-0.130933 23:-0.30711901 24:-0.243755 25:-0.26800001 26:2.5228601 27:-0.216609 28:-0.19571599 29:-0.16288701 30:-0.192063 31:-0.141344 32:-0.1258 33:-0.17358901 34:-0.125499 35:-0.191456 36:-0.2053 37:-0.276582 38:-0.073126003 39:-0.15673099 40:-0.18065099 41:-0.132836 42:-0.14069401 43:6.0977659 44:-0.092913002 45:0.90571702 46:-0.193441 47:-0.071902998 48:-0.094949998 49:-0.139158 50:0.232585 51:-0.121647 52:-0.38407901 53:-0.315819 54:-0.188951 55:-0.118701 56:-0.18814 57:-0.38023201 #
0.5 1:6.3628378 2:-0.170536 3:-0.60241699 4:-0.047166999 5:-0.52143002 6:-0.37604499 7:-0.31911701 8:-0.29759601 9:-0.34041199 10:-0.404962 11:-0.327288 12:-0.652237 13:-0.331025 14:-0.196753 15:-0.19808801 16:-0.319971 17:-0.33070099 18:-0.372363 19:-1.02887 20:-0.172627 21:-0.750377 22:-0.130933 23:-0.30711901 24:-0.243755 25:-0.26800001 26:-0.22967 27:-0.216609 28:-0.19571599 29:-0.16288701 30:-0.192063 31:-0.141344 32:-0.1258 33:-0.17358901 34:-0.125499 35:-0.191456 36:-0.2053 37:-0.276582 38:-0.073126003 39:-0.15673099 40:-0.18065099 41:-0.132836 42:-0.14069401 43:-0.180182 44:-0.092913002 45:-0.30269501 46:-0.193441 47:-0.071902998 48:-0.094949998 49:-0.139158 50:-0.43770301 51:-0.121647 52:-0.036754999 53:-0.315819 54:-0.188951 55:-0.080773003 56:-0.180801 57:-0.36238301 #
-0.5 1:-0.075386003 2:-0.107039 3:-0.041069001 4:-0.047166999 5:-0.067666002 6:-0.37604499 7:-0.31911701 8:0.42526999 9:-0.34041199 10:-0.404962 11:-0.327288 12:-0.53443301 13:0.27457401 14:-0.196753 15:-0.19808801 16:-0.319971 17:0.015521 18:0.14389101 19:-0.32078701 20:-0.172627 21:-0.44562799 22:-0.130933 23:-0.088276997 24:-0.243755 25:-0.26800001 26:-0.22967 27:-0.216609 28:-0.19571599 29:-0.16288701 30:-0.192063 31:-0.141344 32:-0.1258 33:-0.17358901 34:-0.125499 35:-0.191456 36:0.034731001 37:0.47404099 38:-0.073126003 39:-0.15673099 40:0.088200003 41:-0.132836 42:-0.14069401 43:-0.180182 44:0.320609 45:0.082746997 46:-0.110594 47:-0.071902998 48:-0.094949998 49:-0.089598998 50:-0.16170201 51:-0.121647 52:-0.33141601 53:-0.315819 54:-0.00044800001 55:-0.115379 56:-0.16245399 57:0.32959899 #
0.5 1:-0.33522499 2:-0.170536 3:-0.60241699 4:-0.047166999 5:-0.52143002 6:-0.37604499 7:-0.31911701 8:-0.29759601 9:-0.34041199 10:-0.404962 11:-0.327288 12:-0.652237 13:-0.331025 14:-0.196753 15:-0.19808801 16:-0.319971 17:-0.33070099 18:-0.372363 19:2.1923299 20:-0.172627 21:0.16387101 22:-0.130933 23:-0.30711901 24:-0.243755 25:-0.26800001 26:-0.22967 27:-0.216609 28:-0.19571599 29:-0.16288701 30:-0.192063 31:-0.141344 32:-0.1258 33:-0.17358901 34:-0.125499 35:-0.191456 36:-0.2053 37:-0.276582 38:-0.073126003 39:-0.15673099 40:-0.18065099 41:-0.132836 42:-0.14069401 43:-0.180182 44:-0.092913002 45:-0.30269501 46:-0.193441 47:-0.071902998 48:-0.094949998 49:-0.139158 50:-0.43770301 51:-0.121647 52:1.41022 53:-0.315819 54:-0.188951 55:-0.05799 56:-0.12209 57:-0.27176601 #
0.5 1:3.0426769 2:-0.170536 3:-0.60241699 4:-0.047166999 5:-0.52143002 6:-0.37604499 7:-0.31911701 8:-0.29759601 9:-0.34041199 10:-0.404962 11:-0.327288 12:0.87921798 13:-0.331025 14:-0.196753 15:-0.19808801 16:-0.319971 17:1.919745 18:-0.372363 19:1.014125 20:-0.172627 21:-0.750377 22:-0.130933 23:-0.30711901 24:-0.243755 25:-0.26800001 26:-0.22967 27:-0.216609 28:-0.19571599 29:-0.16288701 30:-0.192063 31:-0.141344 32:-0.1258 33:-0.17358901 34:-0.125499 35:-0.191456 36:-0.2053 37:-0.276582 38:-0.073126003 39:-0.15673099 40:-0.18065099 41:-0.132836 42:-0.14069401 43:-0.180182 44:-0.092913002 45:0.916134 46:-0.193441 47:-0.071902998 48:-0.094949998 49:-0.139158 50:-0.43770301 51:-0.121647 52:0.72685701 53:-0.315819 54:-0.188951 55:-0.113051 56:-0.191809 57:-0.34728 #
0.5 1:-0.33522499 2:0.760755 3:0.52027798 4:-0.047166999 5:-0.52143002 6:2.8361421 7:-0.31911701 8:0.16710301 9:0.80771798 10:0.78906 11:-0.327288 12:2.05726 13:-0.331025 14:-0.196753 15:-0.19808801 16:-0.319971 17:0.38097799 18:-0.372363 19:0.39310101 20:-0.172627 21:0.023851 22:-0.130933 23:-0.30711901 24:0.129215 25:-0.26800001 26:-0.22967 27:-0.162607 28:-0.19571599 29:-0.16288701 30:-0.192063 31:-0.141344 32:-0.1258 33:-0.17358901 34:-0.125499 35:-0.191456 36:-0.2053 37:-0.276582 38:-0.073126003 39:-0.15673099 40:-0.18065099 41:-0.132836 42:-0.14069401 43:-0.180182 44:-0.092913002 45:-0.30269501 46:-0.193441 47:-0.071902998 48:-0.094949998 49:-0.139158 50:-0.174845 51:-0.121647 52:-0.080640003 53:0.030655 54:-0.188951 55:-0.095866002 56:-0.100074 57:-0.093278997 #
-0.5 1:-0.33522499 2:-0.170536 3:-0.60241699 4:-0.047166999 5:-0.52143002 6:-0.37604499 7:-0.31911701 8:-0.29759601 9:-0.34041199 10:-0.404962 11:-0.327288 12:-0.652237 13:-0.331025 14:-0.196753 15:-0.19808801 16:-0.319971 17:-0.33070099 18:-0.372363 19:-1.02887 20:-0.172627 21:-0.750377 22:-0.130933 23:-0.30711901 24:-0.243755 25:-0.26800001 26:-0.22967 27:-0.216609 28:-0.19571599 29:-0.16288701 30:-0.192063 31:-0.141344 32:-0.1258 33:-0.17358901 34:-0.125499 35:-0.191456 36:-0.2053 37:-0.276582 38:-0.073126003 39:-0.15673099 40:-0.18065099 41:-0.132836 42:-0.14069401 43:-0.180182 44:-0.092913002 45:-0.30269501 46:-0.193441 47:-0.071902998 48:-0.094949998 49:-0.139158 50:1.346447 51:-0.121647 52:-0.044278 53:-0.315819 54:-0.188951 55:-0.086005002 56:-0.16245399 57:-0.329431 #
0.5 1:-0.33522499 2:-0.170536 3:0.50023001 4:-0.047166999 5:0.36989301 6:-0.37604499 7:-0.31911701 8:-0.29759601 9:-0.34041199 10:0.47065401 11:-0.327288 12:-0.652237 13:-0.331025 14:-0.196753 15:-0.19808801 16:0.218126 17:-0.33070099 18:-0.372363 19:-0.059608001 20:-0.172627 21:-0.297371 22:-0.130933 23:-0.30711901 24:-0.243755 25:-0.26800001 26:-0.22967 27:-0.216609 28:-0.19571599 29:-0.16288701 30:-0.192063 31:-0.141344 32:-0.1258 33:-0.17358901 34:-0.125499 35:-0.191456 36:-0.2053 37:-0.276582 38:-0.073126003 39:-0.15673099 40:-0.18065099 41:-0.132836 42:-0.14069401 43:-0.180182 44:-0.092913002 45:0.27025899 46:-0.193441 47:-0.071902998 48:-0.094949998 49:-0.139158 50:-0.112416 51:-0.121647 52:0.73563403 53:-0.315819 54:-0.188951 55:-0.108971 56:-0.16979299 57:-0.262155 #
0.5 1:-0.33522499 2:-0.170536 3:-0.60241699 4:-0.047166999 5:-0.32696 6:-0.37604499 7:-0.31911701 8:-0.29759601 9:-0.34041199 10:-0.404962 11:-0.327288 12:0.525805 13:-0.331025 14:-0.196753 15:-0.19808801 16:-0.20256799 17:-0.33070099 18:-0.15111101 19:-0.95922297 20:-0.172627 21:-0.65153903 22:-0.130933 23:-0.30711901 24:-0.243755 25:-0.26800001 26:-0.22967 27:-0.216609 28:0.43333301 29:0.14583001 30:0.122632 31:-0.141344 32:-0.1258 33:-0.17358901 34:-0.125499 35:-0.191456 36:1.501588 37:-0.276582 38:0.278382 39:-0.15673099 40:-0.18065099 41:-0.132836 42:0.624946 43:-0.180182 44:-0.092913002 45:-0.30269501 46:0.15635601 47:-0.071902998 48:-0.094949998 49:-0.139158 50:0.84701598 51:-0.121647 52:-0.38407901 53:-0.315819 54:-0.188951 55:-0.101254 56:-0.078056999 57:0.232118 #
-0.5 1:-0.33522499 2:-0.170536 3:-0.60241699 4:-0.047166999 5:-0.52143002 6:-0.37604499 7:3.6138041 8:-0.29759601 9:-0.34041199 10:-0.404962 11:-0.327288 12:1.677669 13:-0.331025 14:-0.196753 15:-0.19808801 16:-0.319971 17:-0.33070099 18:-0.372363 19:1.0431449 20:-0.172627 21:-0.750377 22:-0.130933 23:-0.30711901 24:-0.243755 25:-0.26800001 26:-0.22967 27:-0.216609 28:-0.19571599 29:-0.16288701 30:4.4759188 31:-0.141344 32:-0.1258 33:-0.17358901 34:-0.125499 35:-0.191456 36:4.5419812 37:-0.276582 38:-0.073126003 39:-0.15673099 40:-0.18065099 41:-0.132836 42:-0.14069401 43:-0.180182 44:-0.092913002 45:-0.30269501 46:-0.193441 47:-0.071902998 48:-0.094949998 49:-0.139158 50:-0.43770301 51:-0.121647 52:0.350694 53:-0.315819 54:-0.188951 55:-0.130289 56:-0.213826 57:-0.40494499 #
0.31313235896122965096211032687279 1:-0.33522499 2:-0.170536 3:-0.60241699 4:-0.047166999 5:-0.52143002 6:-0.37604499 7:-0.31911701 8:-0.29759601 9:-0.34041199 10:-0.404962 11:-0.327288 12:-0.652237 13:-0.331025 14:-0.196753 15:-0.19808801 16:-0.319971 17:-0.33070099 18:-0.372363 19:-1.02887 20:-0.172627 21:-0.750377 22:-0.130933 23:-0.30711901 24:-0.243755 25:-0.26800001 26:-0.22967 27:-0.216609 28:-0.19571599 29:-0.16288701 30:-0.192063 31:-0.141344 32:-0.1258 33:-0.17358901 34:-0.125499 35:-0.191456 36:-0.2053 37:-0.276582 38:-0.073126003 39:-0.15673099 40:-0.18065099 41:-0.132836 42:-0.14069401 43:-0.180182 44:-0.092913002 45:-0.30269501 46:-0.193441 47:-0.071902998 48:-0.094949998 49:-0.139158 50:-0.43770301 51:-0.121647 52:5.0665269 53:-0.315819 54:-0.188951 55:-0.138319 56:-0.224834 57:-0.42554 #
-0.5 1:-0.33522499 2:-0.170536 3:-0.60241699 4:-0.047166999 5:-0.52143002 6:-0.37604499 7:-0.31911701 8:-0.29759601 9:-0.34041199 10:1.107466 11:-0.327288 12:-0.652237 13:-0.331025 14:-0.196753 15:-0.19808801 16:-0.319971 17:-0.33070099 18:-0.372363 19:0.62525898 20:-0.172627 21:0.032086998 22:-0.130933 23:-0.30711901 24:-0.243755 25:-0.26800001 26:-0.22967 27:-0.216609 28:-0.19571599 29:-0.16288701 30:-0.192063 31:-0.141344 32:-0.1258 33:-0.17358901 34:-0.125499 35:-0.191456 36:-0.2053 37:-0.276582 38:-0.073126003 39:-0.15673099 40:-0.18065099 41:-0.132836 42:-0.14069401 43:-0.180182 44:-0.092913002 45:0.68695301 46:-0.193441 47:-0.071902998 48:-0.094949998 49:0.469717 50:0.127442 51:-0.121647 52:-0.38407901 53:-0.315819 54:-0.188951 55:-0.13144 56:-0.21015599 57:-0.39533401 #
-0.5 1:-0.33522499 2:-0.170536 3:-0.60241699 4:-0.047166999 5:-0.52143002 6:-0.37604499 7:-0.31911701 8:-0.29759601 9:-0.34041199 10:-0.404962 11:-0.327288 12:-0.652237 13:-0.331025 14:-0.196753 15:-0.19808801 16:-0.319971 17:-0.33070099 18:-0.372363 19:-1.02887 20:-0.172627 21:-0.750377 22:-0.130933 23:-0.30711901 24:-0.243755 25:-0.26800001 26:-0.22967 27:-0.216609 28:-0.19571599 29:-0.16288701 30:-0.192063 31:-0.141344 32:-0.1258 33:-0.17358901 34:-0.125499 35:-0.191456 36:-0.2053 37:-0.276582 38:-0.073126003 39:-0.15673099 40:-0.18065099 41:-0.132836 42:-0.14069401 43:-0.180182 44:-0.092913002 45:0.40568399 46:-0.193441 47:-0.071902998 48:-0.094949998 49:-0.139158 50:-0.069701999 51:-0.121647 52:-0.38407901 53:2.608165 54:-0.188951 55:-0.104707 56:-0.177132 57:-0.31844699 #
0.5 1:-0.33522499 2:-0.170536 3:-0.60241699 4:-0.047166999 5:0.321275 6:-0.37604499 7:-0.31911701 8:-0.29759601 9:-0.34041199 10:-0.404962 11:-0.327288 12:-0.652237 13:-0.331025 14:1.490908 15:-0.19808801 16:0.188775 17:-0.33070099 18:-0.372363 19:-1.02887 20:-0.172627 21:-0.750377 22:-0.130933 23:-0.30711901 24:-0.243755 25:-0.26800001 26:-0.22967 27:-0.216609 28:-0.19571599 29:-0.16288701 30:-0.192063 31:-0.141344 32:-0.1258 33:1.143216 34:-0.125499 35:-0.191456 36:-0.2053 37:-0.276582 38:-0.073126003 39:-0.15673099 40:-0.18065099 41:-0.132836 42:-0.14069401 43:2.6340711 44:-0.092913002 45:-0.30269501 46:1.2425669 47:-0.071902998 48:-0.094949998 49:-0.139158 50:-0.18470199 51:-0.121647 52:-0.28753 53:-0.315819 54:-0.188951 55:-0.12817 56:-0.18814 57:-0.32531199 #
0.5 1:-0.33522499 2:-0.170536 3:0.76085597 4:-0.047166999 5:-0.52143002 6:-0.37604499 7:-0.31911701 8:-0.29759601 9:-0.34041199 10:-0.404962 11:-0.327288 12:-0.652237 13:-0.331025 14:-0.196753 15:-0.19808801 16:0.345312 17:-0.33070099 18:-0.372363 19:-1.02887 20:-0.172627 21:-0.750377 22:-0.130933 23:-0.30711901 24:-0.243755 25:0.237533 26:1.383882 27:-0.216609 28:-0.19571599 29:-0.16288701 30:-0.192063 31:-0.141344 32:-0.1258 33:-0.17358901 34:-0.125499 35:-0.191456 36:-0.2053 37:-0.276582 38:-0.073126003 39:-0.15673099 40:-0.18065099 41:-0.132836 42:-0.14069401 43:-0.180182 44:-0.092913002 45:-0.30269501 46:-0.193441 47:-0.071902998 48:-0.094949998 49:-0.139158 50:-0.43770301 51:-0.121647 52:0.003369 53:-0.315819 54:-0.188951 55:-0.122625 56:-0.213826 57:-0.38435 #
0.5 1:-0.33522499 2:-0.170536 3:-0.60241699 4:-0.047166999 5:-0.14869501 6:-0.37604499 7:-0.31911701 8:-0.29759601 9:-0.34041199 10:-0.404962 11:-0.327288 12:0.56507301 13:-0.331025 14:-0.196753 15:-0.19808801 16:-0.21235199 17:-0.33070099 18:-0.169549 19:-0.82573098 20:-0.172627 21:-0.560938 22:-0.130933 23:-0.30711901 24:-0.243755 25:-0.26800001 26:-0.22967 27:-0.216609 28:0.68495202 29:0.120104 30:0.096408002 31:-0.141344 32:-0.1258 33:-0.17358901 34:-0.125499 35:-0.191456 36:1.341567 37:-0.276582 38:0.249089 39:-0.15673099 40:-0.18065099 41:-0.132836 42:0.56449997 43:-0.180182 44:-0.092913002 45:-0.30269501 46:0.22999699 47:1.754794 48:0.20212901 49:-0.139158 50:0.81415898 51:-0.121647 52:-0.36401701 53:-0.315819 54:-0.188951 55:-0.099868 56:-0.078056999 57:0.26369601 #
0.5 1:-0.33522499 2:-0.170536 3:-0.60241699 4:-0.047166999 5:-0.52143002 6:-0.37604499 7:-0.31911701 8:-0.29759601 9:-0.34041199 10:-0.404962 11:-0.327288 12:-0.652237 13:-0.331025 14:-0.196753 15:-0.19808801 16:-0.319971 17:-0.33070099 18:-0.372363 19:1.733817 20:-0.172627 21:-0.750377 22:-0.130933 23:-0.30711901 24:-0.243755 25:-0.26800001 26:-0.22967 27:-0.216609 28:-0.19571599 29:-0.16288701 30:-0.192063 31:-0.141344 32:-0.1258 33:-0.17358901 34:-0.125499 35:-0.191456 36:-0.2053 37:-0.276582 38:-0.073126003 39:-0.15673099 40:-0.18065099 41:-0.132836 42:-0.14069401 43:-0.180182 44:-0.092913002 45:-0.30269501 46:-0.193441 47:-0.071902998 48:-0.094949998 49:-0.139158 50:-0.43770301 51:-0.121647 52:-0.38407901 53:-0.315819 54:-0.188951 55:-0.138319 56:-0.224834 57:-0.42142099 #
0.5 1:-0.33522499 2:-0.170536 3:-0.60241699 4:-0.047166999 5:-0.52143002 6:-0.37604499 7:-0.31911701 8:-0.29759601 9:-0.34041199 10:-0.404962 11:-0.327288 12:-0.652237 13:-0.331025 14:-0.196753 15:-0.19808801 16:-0.319971 17:-0.33070099 18:-0.372363 19:-1.02887 20:-0.172627 21:-0.750377 22:-0.130933 23:-0.30711901 24:-0.243755 25:-0.26800001 26:-0.22967 27:-0.216609 28:-0.19571599 29:-0.16288701 30:-0.192063 31:-0.141344 32:-0.1258 33:-0.17358901 34:-0.125499 35:-0.191456 36:-0.2053 37:-0.276582 38:-0.073126003 39:-0.15673099 40:-0.18065099 41:-0.132836 42:-0.14069401 43:-0.180182 44:-0.092913002 45:-0.30269501 46:1.1597199 47:-0.071902998 48:-0.094949998 49:-0.139158 50:0.75830197 51:-0.121647 52:-0.38407901 53:-0.315819 54:-0.188951 55:-0.079989001 56:-0.089065999 57:-0.25529 #
-0.5 1:-0.33522499 2:-0.0082649998 3:-0.60241699 4:-0.047166999 5:-0.14869501 6:-0.37604499 7:-0.31911701 8:-0.29759601 9:-0.34041199 10:0.343292 11:-0.327288 12:-0.35118201 13:-0.331025 14:5.223237 15:-0.19808801 16:-0.319971 17:-0.33070099 18:-0.372363 19:-0.33819899 20:-0.172627 21:-0.750377 22:-0.130933 23:-0.30711901 24:-0.243755 25:0.081412002 26:-0.22967 27:-0.147607 28:-0.19571599 29:-0.16288701 30:-0.192063 31:0.65609902 32:-0.1258 33:-0.17358901 34:-0.125499 35:0.45645201 36:-0.2053 37:-0.276582 38:-0.073126003 39:-0.15673099 40:-0.18065099 41:-0.132836 42:-0.14069401 43:-0.180182 44:-0.092913002 45:-0.30269501 46:-0.193441 47:-0.071902998 48:-0.094949998 49:-0.139158 50:-0.43770301 51:-0.121647 52:-0.38407901 53:0.195797 54:-0.188951 55:0.098038003 56:0.63380897 57:1.073755 #
0.5 1:-0.33522499 2:-0.170536 3:-0.60241699 4:-0.047166999 5:-0.52143002 6:-0.37604499 7:-0.31911701 8:3.0327499 9:-0.34041199 10:0.27961099 11:-0.327288 12:-0.652237 13:-0.331025 14:-0.196753 15:-0.19808801 16:0.100723 17:-0.33070099 18:2.817349 19:-0.77929997 20:-0.172627 21:-0.396209 22:-0.130933 23:-0.30711901 24:-0.243755 25:-0.26800001 26:-0.22967 27:-0.216609 28:-0.19571599 29:-0.16288701 30:-0.192063 31:-0.141344 32:-0.1258 33:-0.17358901 34:-0.125499 35:-0.191456 36:0.94151503 37:-0.276582 38:-0.073126003 39:-0.15673099 40:-0.18065099 41:-0.132836 42:-0.14069401 43:-0.180182 44:-0.092913002 45:-0.30269501 46:-0.193441 47:-0.071902998 48:-0.094949998 49:-0.139158 50:-0.030273 51:-0.121647 52:0.004623 53:-0.115058 54:-0.188951 55:-0.12584201 56:-0.199148 57:-0.33904201 #
-0.5 1:-0.33522499 2:0.055232 3:0.039122999 4:-0.047166999 5:-0.262137 6:0.17071 7:-0.31911701 8:-0.29759601 9:0.156077 10:0.104487 11:-0.327288 12:-0.652237 13:-0.331025 14:-0.196753 15:0.903023 16:-0.319971 17:0.284805 18:0.217641 19:-0.56455302 20:0.32272899 21:0.96280801 22:-0.130933 23:-0.30711901 24:0.087774001 25:-0.26800001 26:-0.22967 27:-0.168607 28:1.414649 29:-0.16288701 30:-0.192063 31:-0.141344 32:-0.1258 33:-0.17358901 34:-0.125499 35:-0.191456 36:-0.2053 37:-0.276582 38:-0.073126003 39:-0.15673099 40:-0.18065099 41:-0.132836 42:-0.14069401 43:-0.180182 44:0.14338499 45:-0.30269501 46:-0.193441 47:-0.071902998 48:-0.094949998 49:-0.139158 50:3.863313 51:-0.121647 52:-0.356493 53:0.90493602 54:-0.188951 55:-0.061992001 56:0.34759399 57:0.63165498 #
-0.5 1:-0.33522499 2:-0.170536 3:-0.60241699 4:-0.047166999 5:-0.52143002 6:-0.37604499 7:-0.31911701 8:-0.29759601 9:-0.34041199 10:-0.404962 11:-0.327288 12:-0.652237 13:-0.331025 14:-0.196753 15:-0.19808801 16:-0.319971 17:-0.33070099 18:-0.372363 19:-1.02887 20:-0.172627 21:-0.750377 22:-0.130933 23:-0.30711901 24:-0.243755 25:-0.26800001 26:-0.22967 27:-0.216609 28:-0.19571599 29:-0.16288701 30:-0.192063 31:-0.141344 32:-0.1258 33:-0.17358901 34:-0.125499 35:-0.191456 36:-0.2053 37:-0.276582 38:-0.073126003 39:-0.15673099 40:-0.18065099 41:-0.132836 42:-0.14069401 43:-0.180182 44:-0.092913002 45:-0.30269501 46:-0.193441 47:-0.071902998 48:-0.094949998 49:-0.139158 50:-0.43770301 51:-0.121647 52:-0.38407901 53:-0.315819 54:-0.188951 55:-0.112162 56:-0.21749499 57:-0.42279401 #
-0.5 1:-0.33522499 2:-0.170536 3:1.021482 4:-0.047166999 5:-0.083871998 6:-0.37604499 7:-0.31911701 8:-0.29759601 9:-0.34041199 10:0.024886001 11:-0.327288 12:-0.29882401 13:0.57737398 14:-0.196753 15:-0.19808801 16:-0.319971 17:-0.33070099 18:-0.372363 19:0.224786 20:-0.172627 21:-0.305608 22:-0.130933 23:-0.30711901 24:-0.243755 25:-0.26800001 26:-0.22967 27:-0.216609 28:-0.19571599 29:-0.16288701 30:-0.192063 31:-0.141344 32:-0.1258 33:-0.17358901 34:-0.125499 35:-0.191456 36:-0.2053 37:-0.276582 38:-0.073126003 39:-0.15673099 40:-0.18065099 41:-0.132836 42:-0.14069401 43:-0.180182 44:-0.092913002 45:0.25984201 46:0.055098999 47:-0.071902998 48:-0.094949998 49:0.020141 50:-0.13870201 51:-0.121647 52:-0.327654 53:-0.315819 54:-0.188951 55:-0.110122 56:-0.056040999 57:-0.28275001 #
0.5 1:-0.33522499 2:-0.170536 3:-0.60241699 4:-0.047166999 5:0.094393 6:0.922499 7:0.520495 8:0.68343598 9:-0.34041199 10:-0.404962 11:1.4986219 12:-0.652237 13:-0.331025 14:-0.196753 15:-0.19808801 16:0.051805001 17:-0.33070099 18:-0.372363 19:0.96188903 20:-0.172627 21:1.135774 22:-0.130933 23:-0.30711901 24:0.543625 25:-0.26800001 26:-0.22967 27:-0.216609 28:-0.19571599 29:-0.16288701 30:-0.192063 31:-0.141344 32:-0.1258 33:-0.17358901 34:-0.125499 35:-0.191456 36:-0.2053 37:-0.276582 38:-0.073126003 39:-0.15673099 40:-0.18065099 41:-0.132836 42:-0.14069401 43:-0.180182 44:-0.092913002 45:0.093163997 46:-0.193441 47:-0.071902998 48:-0.094949998 49:-0.139158 50:-0.43770301 51:-0.121647 52:-0.23236001 53:-0.315819 54:-0.188951 55:-0.110069 56:-0.18447 57:-0.285496 #
0.5 1:-0.33522499 2:-0.170536 3:-0.60241699 4:-0.047166999 5:-0.52143002 6:1.025015 7:-0.31911701 8:-0.29759601 9:-0.34041199 10:0.90050203 11:-0.327288 12:-0.652237 13:-0.331025 14:-0.196753 15:-0.19808801 16:0.081156 17:-0.33070099 18:-0.372363 19:-0.31498301 20:-0.172627 21:-0.750377 22:-0.130933 23:0.68982702 24:-0.243755 25:-0.26800001 26:-0.22967 27:-0.216609 28:-0.19571599 29:-0.16288701 30:-0.192063 31:-0.141344 32:-0.1258 33:-0.17358901 34:-0.125499 35:-0.191456 36:-0.2053 37:-0.276582 38:-0.073126003 39:-0.15673099 40:-0.18065099 41:-0.132836 42:-0.14069401 43:-0.180182 44:-0.092913002 45:-0.30269501 46:-0.193441 47:-0.071902998 48:-0.094949998 49:0.56529599 50:1.303732 51:2.4056499 52:-0.13455699 53:-0.315819 54:-0.188951 55:-0.033193 56:-0.16245399 57:-0.069937997 #
-0.5 1:-0.219741 2:-0.071763001 3:-0.021020999 4:-0.047166999 5:-0.45660701 6:-0.239356 7:-0.31911701 8:-0.065246001 9:-0.34041199 10:-0.102476 11:0.105165 12:0.69596702 13:-0.331025 14:-0.196753 15:-0.19808801 16:-0.319971 17:-0.33070099 18:0.070139997 19:-0.97663498 20:-0.172627 21:-0.71743101 22:-0.130933 23:-0.30711901 24:-0.243755 25:-0.238263 26:-0.22967 27:-0.216609 28:-0.19571599 29:-0.16288701 30:0.175082 31:-0.141344 32:-0.1258 33:-0.17358901 34:-0.125499 35:-0.191456 36:0.034731001 37:0.36680901 38:-0.073126003 39:-0.15673099 40:-0.18065099 41:-0.132836 42:-0.14069401 43:0.036299001 44:-0.092913002 45:-0.30269501 46:-0.193441 47:-0.071902998 48:-0.094949998 49:-0.068359002 50:0.078156002 51:-0.022388 52:-0.38407901 53:-0.315819 54:-0.16202199 55:-0.095028996 56:0.45033801 57:2.0252299 #
-0.43950319587967540124751053554064 1:-0.33522499 2:-0.170536 3:-0.60241699 4:-0.047166999 5:-0.52143002 6:-0.37604499 7:-0.31911701 8:-0.29759601 9:-0.34041199 10:-0.404962 11:-0.327288 12:1.062469 13:-0.331025 14:-0.196753 15:-0.19808801 16:0.96167803 17:-0.33070099 18:2.042968 19:-1.02887 20:-0.172627 21:2.4947901 22:-0.130933 23:-0.30711901 24:2.4706349 25:-0.26800001 26:-0.22967 27:-0.216609 28:-0.19571599 29:-0.16288701 30:-0.192063 31:-0.141344 32:-0.1258 33:-0.17358901 34:-0.125499 35:-0.191456 36:-0.2053 37:-0.276582 38:-0.073126003 39:-0.15673099 40:-0.18065099 41:-0.132836 42:-0.14069401 43:-0.180182 44:-0.092913002 45:-0.30269501 46:1.012437 47:-0.071902998 48:-0.094949998 49:-0.139158 50:-0.43770301 51:1.359609 52:-0.38407901 53:-0.315819 54:-0.188951 55:-0.028458999 56:-0.026686 57:-0.285496 #
-0.5 1:-0.33522499 2:-0.170536 3:0.460134 4:-0.047166999 5:0.33748099 6:-0.37604499 7:-0.31911701 8:1.070685 9:-0.34041199 10:1.298509 11:4.8140888 12:-0.652237 13:-0.331025 14:-0.196753 15:-0.19808801 16:0.72687203 17:-0.33070099 18:-0.372363 19:1.15342 20:-0.172627 21:0.130925 22:-0.130933 23:-0.30711901 24:-0.243755 25:-0.26800001 26:-0.22967 27:-0.216609 28:-0.19571599 29:-0.16288701 30:-0.192063 31:-0.141344 32:-0.1258 33:-0.17358901 34:-0.125499 35:-0.191456 36:-0.2053 37:-0.276582 38:-0.073126003 39:-0.15673099 40:-0.18065099 41:-0.132836 42:-0.14069401 43:-0.180182 44:-0.092913002 45:0.249424 46:-0.193441 47:-0.071902998 48:-0.094949998 49:-0.139158 50:0.528301 51:-0.121647 52:0.076094002 53:-0.315819 54:-0.188951 55:-0.107951 56:-0.151446 57:-0.33629599 #
-0.5 1:-0.33522499 2:-0.015321 3:-0.161358 4:-0.047166999 5:0.20783401 6:-0.37604499 7:0.16697399 8:-0.29759601 9:-0.34041199 10:2.4925311 11:-0.327288 12:0.237839 13:-0.331025 14:-0.196753 15:-0.19808801 16:0.345312 17:0.092459999 18:-0.372363 19:0.160942 20:0.52396798 21:0.55922103 22:-0.130933 23:-0.30711901 24:-0.243755 25:-0.26800001 26:-0.22967 27:-0.150607 28:-0.19571599 29:-0.16288701 30:-0.192063 31:-0.141344 32:-0.1258 33:-0.17358901 34:-0.125499 35:-0.191456 36:-0.2053 37:2.16294 38:-0.073126003 39:-0.15673099 40:-0.18065099 41:-0.132836 42:-0.14069401 43:-0.180182 44:-0.092913002 45:-0.30269501 46:-0.193441 47:-0.071902998 48:-0.094949998 49:-0.139158 50:-0.105845 51:-0.121647 52:-0.21480501 53:-0.098867998 54:-0.188951 55:-0.099082999 56:-0.129429 57:-0.13996001 #
